#ifndef FC1_H
#define FC1_H
// Header file of the 8-th layer of the model - The type of the layer is fc


float fc1_w[25][256] = {
	-0.13093118, 0.014366906, 0.007583699, -0.17902501, 0.07435043, 0.120075785, 0.04285319, 0.06788901, -0.03075607, -0.02274218, -0.1493402, -0.020058645, 0.06889007, -0.09348266, 0.04383253, 0.010577436, -0.028431598, -0.0080141025, -0.032553058, -0.004504509, 0.1500904, 0.024887951, -0.02326375, 0.039155666, 0.077536196, 0.08233789, -0.010763492, 0.07667098, -0.021475969, 0.08521777, -0.031193761, 0.07678702, -0.21466681, -0.33358705, -0.16782491, -0.15361628, 0.061286625, -0.002826644, 0.012385604, 0.063821815, 0.027605483, -0.0818764, 0.037752148, -0.049044225, 0.012179663, -0.1837701, 0.106302656, -0.04866225, -0.020095117, -0.021963065, 0.08375007, 0.14325055, 0.18759209, 0.10728878, -0.1421642, -0.1633054, -0.05363059, 0.09709908, -0.011685738, -0.17711072, -0.20264864, -0.046239138, 0.005448031, 0.09511075, 0.077572264, -0.037304413, 0.011947871, -0.018143458, -0.032423224, 0.06947842, 0.024169043, 0.12813367, 0.101421215, 0.0042178635, 0.06901657, -0.11444904, -0.002716594, 0.05719819, 0.019420674, 0.008000497, -0.43191043, -0.46003836, 0.070460275, 0.11396214, -0.09256318, -0.03949225, 0.101621665, 0.015304036, -0.0679567, -0.101575464, -0.07399851, -0.0017593896, -0.08327514, -0.011587885, -0.14574948, -0.12005713, 0.026402492, 0.08306037, -0.023442674, 0.01379598, -0.029342707, -0.029293276, -0.044087198, -0.050150402, -0.06187031, 0.027041823, -0.072877124, 0.05692809, -0.031778675, -0.024335982, -0.05494474, 0.08964441, 0.07741457, 0.13157055, -0.029692704, 0.18303941, -0.056692682, 0.11063089, 0.0010439914, 0.11243498, -0.045840085, 0.07693889, -0.08219515, -0.047929168, 0.074264675, -0.045104165, -0.042798933, -0.040283646, 0.097067825, -0.040000774, -0.06613874, -0.0036499242, -0.13017027, 0.13777599, -0.015232017, 0.0027051829, -0.052786812, 0.051461548, 0.064117566, -0.012602363, 0.01767772, -0.046808947, -0.069150396, 0.04532, 0.21141224, -0.064322606, 0.113775924, -0.044119764, 0.1580333, -0.1263538, -0.040608976, 0.030302778, 0.06249794, -0.14771731, 0.09558837, 0.04275577, -0.060271963, 0.08936048, -0.04138491, -0.010455793, -0.002950132, 0.055721227, 0.04166894, 0.01521953, 0.165388, 0.17069136, -0.03179923, -0.15124497, -0.0773223, -0.030433517, -0.004484902, -0.014724717, 0.34023315, -0.017072264, 0.08673061, 0.12453146, -0.05310072, -0.018733328, 0.017451925, 0.0069258376, -0.026418485, 0.09108584, -0.050265994, -0.077618316, 0.029757125, -0.0785471, -0.0036588784, 0.10504214, -0.06859944, -0.14179376, -0.045210432, 0.13131641, 0.012657203, -0.04886171, -0.09258636, 0.0056803403, 0.11480533, 0.032278482, -0.022297388, 0.20082223, -0.055334374, -0.14230965, 0.051872656, 0.0660362, -0.1524984, -0.20216352, -0.046328127, -0.091166414, -0.081928805, 0.28074855, -0.04339567, 0.061495475, 0.08337336, -0.0646786, 0.013211293, -0.055553954, 0.121685, -0.09992013, 0.21049249, -0.020964706, -0.006115056, -0.095627666, 0.0048572943, -0.008682268, -0.0686663, 0.12784088, -0.08947584, 0.07090671, -0.036384914, 0.009604698, 0.0015771503, -0.008878839, 0.116642125, 0.27110377, 0.124574214, -0.16788305, 0.063394286, 0.06356551, 0.0074958084, -0.024615878, -0.05083218, 0.047396902, 0.10286945, -0.14355592, 0.2108352, 0.06696295, 0.15948392, -0.05179442, 0.013045135, 0.050137185, -0.024735374, -0.08087529, 0.055903178, -0.03063648, 0.008627522, 0.016075617, 0.013725256, 0.059402384, -0.004022555, 0.009495872, -0.027028883, -0.08943479, 0.10874013, 0.06846788, -0.05874787, -0.027029773, -0.11295263, -0.25885898, -0.14330155, -0.028790563, -0.021346759, -0.016623255, -0.058144405, -0.074764594, 0.023802955, -0.07652454, -0.08443458, -0.047401562, 0.03201894, -0.18919042, -0.0103435675, -0.030911338, -0.015907075, 0.049754426, 0.14825231, 0.03808607, -0.07110084, -0.049423262, 0.03308496, 0.06159061, -0.12553814, -0.03723572, -0.06787246, 0.038080268, 0.049930282, 0.04437385, -0.057322558, -0.039966337, -0.09877136, -0.039707027, 0.032476634, -0.0708266, 0.079094134, 0.11896245, -0.0067505976, -0.018441712, 0.053112373, -0.008790943, 0.030483445, -0.08454731, -0.00062526483, -0.11120684, 0.08056727, -0.023549365, 0.114765055, -0.2341932, 0.02401722, -0.06357265, -0.030624995, -0.0030647982, -0.017112404, 0.010408514, -0.031332627, 0.01317124, -0.05310475, 0.022512987, -0.09541386, 0.03097244, -0.03634889, -0.14871688, 0.07504358, -0.016094005, 0.044223692, 0.00054696674, -0.0866957, -0.029672865, 0.21768823, 0.24682374, 0.13779238, 0.18789028, -0.0056940694, -0.021862023, 0.08112756, 0.03518965, 0.04361107, -0.021638239, -0.027613578, -0.0391477, -0.018962856, -0.27437112, -0.01645996, -0.14336613, -0.04330536, 0.07442207, -0.048455287, -0.10993064, -0.09073953, -0.08450128, 8.8092056e-05, -0.06302173, 0.13275279, 0.084471546, 0.05825011, 0.018415792, -0.013070297, -0.055894855, 0.12529242, 0.003058324, -0.1363661, -0.07545527, 0.1259958, -0.085663155, 0.07080503, -0.0528031, 0.08468264, -0.12770936, -0.121144414, 0.06040255, -0.01573011, -0.0011612133, -0.0015397136, -0.0027388814, 0.04176048, 0.043809187, -0.057557832, 0.04931668, 0.12738182, 0.0562383, 0.015818838, 0.11777194, 0.00291225, -0.05689869, -0.019814543, 0.14441408, -0.10410701, 0.0050052176, -0.07550603, -0.10240674, 0.038123004, -0.07201131, -0.10296267, -0.005698719, 0.06932391, -0.0014176803, 0.016816756, 0.059139032, -0.085873306, -0.0017796302, -0.14008169, 0.04848374, 0.013712926, -0.08793, -0.0601079, 0.05927533, -0.05849457, -0.006598914, 0.1033875, 0.15090303, 0.014985814, -0.04715007, 0.04969925, 0.09415592, -0.06673176, 0.037967436, -0.11610779, 0.12451794, -0.036083765, 0.107518844, 0.03866548, 0.0779757, -0.03334367, 0.05667767, 0.06183862, 0.059327297, 0.011361347, 0.15258259, 0.009409603, 0.009222424, 0.029577082, -0.014955264, -0.12535185, 0.07214594, -0.1558969, 0.054173786, 0.07056137, 0.15350121, -0.05076647, -0.024142373, 0.038806096, 0.009950078, -0.06581055, 0.0677512, 0.14895049, 0.007821169, 0.10979656, 0.05256591, -0.08386676, 0.016216138, -0.012851393, 0.013204278, -0.06608918, -0.12097975, 0.0011624314, 0.27165213, 0.08502118, -0.11340653, 0.17959185, 0.20040262, 0.042873424, -0.10306312, -0.036298092, 0.0019094809, -0.30001405, 0.0044195103, 0.10304547, 0.081996575, 0.089305185, -0.16870956, 0.10748137, 0.0092673395, -0.058044996, -0.07581112, -0.250047, -0.23382051, -0.068070665, 0.022329325, 0.067442104, 0.049642734, -0.09850034, -0.10643245, -0.038815584, 0.35222614, -0.060251724, -0.18612704, -0.040714394, -0.034119416, 0.16034754, -0.068500884, 0.01719715, -0.09402432, -0.11491762, 0.09316134, 0.023144659, 0.01099214, -0.027919699, -0.007661321, -0.10914963, -0.028757501, -0.019044904, -0.014249162, -0.11921538, -0.0566216, -0.06359901, 0.03818456, -0.03232529, -0.051416308, -0.04907899, -0.07820998, 0.045715004, 0.122990206, 0.19630055, 0.09755352, 0.0042023677, 0.019985687, 0.029794112, 0.041419055, 0.0151730785, -0.00026582563, -0.085050054, 0.026355943, 0.06796668, -0.030875465, -0.024158942, 0.14858416, 0.11586567, 0.08787704, -0.034201946, -0.052592218, -0.009294174, 0.0026765866, -0.15542819, -0.017352922, 0.10911102, 0.07198134, 0.25786066, 0.2700756, 0.12638015, 0.12740313, 0.0896902, 0.008680424, -0.064543106, 0.117649086, 0.011806844, 0.03165152, -0.092438966, 0.09149186, 0.032870594, -0.016099287, -0.1322252, -0.077616446, 0.11104756, 0.04522087, -0.0641911, 0.045786597, -0.26897132, -0.002542675, 0.08759568, -0.07961892, -0.02753327, 0.0989342, -0.06379012, 0.09132304, -0.12853952, -0.16280194, -0.0005751225, -0.21859984, 0.012162645, 0.06994679, -0.038004007, -0.038023718, -0.12840894, -0.010401562, -0.015168679, 0.07896399, 0.13035937, 0.047386076, 0.07423378, -0.085931934, -0.009344849, -0.0876133, -0.039365526, -0.10669721, 0.13290899, 0.18950506, -0.0069779474, -0.0081022, -0.04073985, -0.0074589388, -0.02076727, -0.0124212345, 0.061486367, 0.0696936, -0.012123039, -0.02140825, -0.17691882, -0.061712354, 0.06335779, 0.20685649, 0.08631183, 0.021568198, 0.056056306, -0.047414172, 0.0740802, 0.010126265, 0.1081279, -0.02411448, -0.013743334, 0.009844048, -0.04397455, 0.04701855, -0.10878529, 0.19159542, -0.035168592, 0.0013346956, -0.036180034, -0.10529645, -0.036151197, 0.09454638, -0.00047974015, -0.098296605, -0.02977379, -0.11403397, -0.09348568, 0.059320226, 0.036143985, 0.02397335, 0.10985654, -0.06056707, -0.030742241, -0.029204305, -0.18179287, 0.071574785, 0.045708925, 0.046835132, -0.1213561, -0.12945822, 0.15532596, -0.16129158, -0.061520148, 0.008138831, -0.0658868, 0.007103162, 0.14786156, 0.055820696, 0.3010011, -0.039817877, -0.2067825, -0.08288211, -0.071523905, 0.045374706, 0.032263223, -0.08104481, -0.070024066, 0.015300763, 0.016524224, -0.027872978, -0.020380514, 0.07508509, 0.049105424, 0.00880358, -0.05620349, 0.028088966, -0.03548262, 0.10078903, 0.01734037, -0.052825037, -0.06669351, -0.024034342, 0.019342333, -0.036249112, -0.0639902, -0.10474175, -0.09111629, -0.08785044, -0.1008995, -0.23197211, 0.08033138, 0.11794146, -0.008168522, 0.08315385, 0.108087145, -0.1312433, 0.008552167, -0.11448868, -0.08863975, 0.087180465, -0.030895894, -0.061881162, -0.0077468227, -0.11856459, -0.120144814, 0.04884597, 0.041302983, 0.025249612, -0.053821098, 0.021512378, 0.0018273251, 0.09112032, -0.030844798, -0.02143209, 0.066415004, -0.076161884, 0.043228373, -0.026871476, 0.099944524, 0.0651713, -0.009683178, 0.02375743, -0.037020322, -0.002166231, -0.10136113, -0.16898432, -0.12838294, 0.008602205, 0.02474705, 0.018826276, 0.044304255, -0.045549076, -0.05953742, -0.032257307, 0.05273607, 0.11465565, -0.0023034897, 0.08148211, -0.059775207, 0.033730004, -0.0394772, -0.02753599, 0.013258359, 0.11360069, 0.05923388, -0.014180074, -0.032547303, 0.058146212, -0.16599952, -0.054038566, -0.066597104, -0.01067649, -0.030303834, 0.06747056, 0.009696981, 0.02252042, -0.022811992, -0.10125906, -0.064315416, -0.06314775, 0.029147334, -0.15488315, -0.2826059, 0.024841407, 0.11767588, -0.07702667, -0.058680214, 0.05846448, -0.10793945, 0.040735923, -0.02946438, 0.061624967, 0.019583793, 0.06149665, 0.059013717, 0.032309603, 0.14050126, -0.06984176, 0.0403805, 0.0069777216, 0.07215956, 0.32418135, 0.0634642, 0.15467975, -0.047198772, 0.023087112, -0.13604942, -0.03903254, -0.11195828, 0.08587246, 8.548719e-05, 0.03408048, 0.1257309, 0.10860165, -0.068385996, 0.08724047, -0.10394239, -0.019827196, -0.0813024, 0.07018958, 0.15703267, 0.26385298, -0.070386276, -0.17529021, -0.13809776, -0.09152178, -0.053306967, -0.17078021, 0.07717395, -0.037971493, 0.050948907, 0.051343635, -0.015436001, -0.031623274, -0.008319686, 0.035681617, 0.0021090966, -0.14893726, 0.07767093, 0.13871135, 0.027094902, 0.13506411, -0.10049325, 0.036656145, 0.021521542, -0.04787902, 0.017556425, 0.09537065, 0.11615587, -0.085980505, 0.17002763, -0.19939537, 0.14477985, -0.010434739, -0.032120377, 0.002401808, -0.06653916, 0.06865684, 0.0047451667, 0.09905717, -0.16619983, -0.06537745, 0.19869399, 0.025574595, 0.17264536, 0.08520378, -0.11421725, -0.04070038, 0.07696374, -0.05023813, 0.03347234, 0.055165056, -0.16732848, -0.2991999, -0.085459195, -0.12668164, -0.06924556, 0.07214552, 0.0473013, 0.042961977, -0.07400081, -0.034877382, 0.0021036344, 0.00061400124, 0.07759326, -0.001978089, -0.002505256, 0.03360369, 0.31447786, 0.19706798, -0.1591296, -0.008892317, -0.06996991, 0.008294561, 0.050417304, -0.041078515, -0.11706745, -0.055499982, -0.08751318, 0.17198382, 0.14522989, 0.022359494, -0.076769486, -0.09370734, 0.07170243, 0.16163486, 0.0069915415, -0.036324587, 0.03827796, 0.15362108, -0.16918476, 0.12664637, 0.016982555, -0.0598189, -0.07183039, -0.105155416, 0.0093421675, 0.18618074, -0.04725889, 0.08221107, 0.012902654, -0.04330211, 0.015939083, -0.0982486, 0.005023313, -0.044740994, 0.083925046, 0.081335515, -0.013474079, -0.020809604, -0.0062755416, -0.02284118, 0.05354059, 0.016776007, -0.00971153, 0.12276149, 0.14600062, 0.27933705, 0.085262015, -0.14215814, -0.039346334, -0.029812751, 0.060975265, -0.012077859, 0.08525975, 0.016988507, -0.0073185465, 0.015233205, -0.055349972, -0.04639758, -0.06572014, 0.02503646, 0.048345115, 0.0025040277, -0.17483403, 0.02930043, 0.030279243, -0.07248016, -0.04593648, 0.024057511, -0.033082772, 0.03864534, -0.06238448, -0.002704656, 0.054593902, -0.015644757, -0.082594305, 0.01783562, -0.035510927, -0.017742699, -0.029002316, 0.042215187, 0.027420167, 0.014127371, -0.01062385, 0.085380785, 0.016971653, -0.044287678, -0.038102657, -0.06731903, 0.051930387, -0.062185407, 0.036731783, -0.0030295602, -0.027759494, 0.060152266, 0.057693344, -0.038501434, -0.06710136, -0.24937181, -0.0014906126, 0.018975679, 0.029292857, -0.10066128, 0.08745116, 0.17684145, 0.059917927, 0.066283956, -0.08593659, 0.12747456, -0.07549172, 0.1662881, -0.12068489, -0.07080962, -0.12533541, -0.0033911092, -0.0671641, -0.018981898, -0.08343766, -0.017530132, 0.044243306, -0.0066282405, -0.0734434, 0.0052665393, -0.02530652, -0.022275519, 0.043565836, -0.12064459, -0.058060322, -0.10117693, 0.0006640165, 0.039792307, 0.0006391795, -0.09186848, 0.14737219, 0.03458147, -0.058412287, -0.26204655, 0.089798085, 0.0420374, -0.1397962, 0.0028744969, 0.03375433, 0.01566098, 0.0384085, -0.10403364, -0.047895063, 0.13717327, -0.12662902, -0.13196418, -0.010476706, 0.14825156, 0.09334826, 0.10840396, 0.03947777, -0.11862096, 0.10490202, 0.030430533, -0.036128793, -0.013787318, -0.06414243, 0.04247077, 0.078886725, 0.09037345, 0.034283098, -0.020435287, -0.16946928, -0.019722233, -0.07139147, 0.013441068, -0.11734021, -0.05263711, 0.008243184, 0.05371583, -0.06031261, 0.030659698, -0.02851616, -0.119819745, 0.04526196, -0.1729794, 0.23601432, 0.06643347, 0.02804952, 0.05650583, 0.08348657, 0.08971956, -0.23237158, -0.2231926, -0.020956485, 0.12921652, -0.034471363, 0.009082971, 0.08408173, 0.076809816, -0.0045657945, -0.02844408, 0.08836179, -0.015176007, 0.03033142, 0.003581573, -0.05363291, -0.04069995, -0.024554705, -0.077150255, -0.030101523, 0.0033233, -0.018036468, -0.014625705, -0.008646465, -0.04924573, 0.077814125, 0.11110523, -0.040752824, -0.11704381, -0.06963913, 0.039865114, -0.1409346, 0.118297756, -0.08217363, -0.0954801, 0.14393254, 0.19470164, -0.079736546, 0.09558333, 0.0040676557, 0.025336081, -0.015210504, -0.0044687674, -0.15548383, -0.096888095, 0.0028353531, -0.027970899, -0.08234891, -0.14426938, -0.089734346, 0.0040683886, -0.027238905, -0.050649967, -0.14316627, 0.03099912, -0.07333024, -0.07427902, -0.013463449, -0.009636397, -0.03769725, 0.06294191, -0.028566826, 0.043240488, -0.019107468, 0.021908738, -0.1570798, -0.1329015, -0.03652819, 0.07779493, -0.12819052, -0.096719675, -0.08602426, -0.019968322, 0.035032373, -0.04212902, -0.09587754, -0.015544647, 0.025848884, 0.117364004, 0.18863098, -0.030225508, -0.07463734, -0.030853765, 0.07492113, 0.08132459, -0.033696827, 0.044558015, -0.09384214, 0.052483026, 0.11482101, 0.006363594, 0.22170445, -0.078553446, -0.04176261, 0.047474194, 0.045263935, 0.05133259, -0.032987345, 0.10229035, 0.011449247, 0.098730884, 0.115689635, -0.1200294, 0.054234747, -0.11286155, 0.025066242, 0.042083133, 0.03293919, 0.04735289, -0.13040985, -0.090218104, 0.05060037, -0.04999391, -0.040870473, -0.09244261, -0.012242217, -0.0045177564, -0.040797092, -0.24016874, 0.040601116, 0.04406226, -0.08128296, -0.007926266, -0.06109819, -0.03292577, 0.03223133, 0.02742963, -0.030939117, 0.06137174, -0.09794591, 0.069742896, -0.018237544, 0.017789068, 0.052647304, -0.06286413, 0.0127319135, -0.075570814, 0.041458625, 0.021173649, 0.035835885, 0.035137158, -0.045559663, 0.11660293, -0.09832966, -0.028956085, -0.14676896, 0.055197828, -0.018284092, 0.18227474, -0.07250122, 0.00054098456, 0.09120022, -0.08137245, 0.15393883, -0.11296808, -0.041969128, 0.05761347, 0.06166304, 0.048612297, 0.072048, -0.038252298, 0.013708397, -0.004575566, -0.02205528, -0.06637729, 0.07741688, 0.010904016, 0.009139223, 0.045496173, 0.039103437, 0.14282325, 0.14685751, 0.110849105, 0.056078672, -0.01928411, 0.022481808, 0.006953357, -0.057179037, -0.07851506, -0.17978737, -0.30455205, -0.23799296, 0.037376408, -0.036694683, 0.20390949, -0.13564977, -0.021747855, 0.012173159, -0.03489352, -0.04957311, -0.08836029, -0.1648166, -0.097581916, 0.07067724, 0.063354485, 0.09294114, 0.0136841005, 0.1514303, 0.10029127, 0.014951037, -0.1487326, -0.11695382, 0.14479357, 0.0045417836, -0.05416394, 0.25028586, 0.064199105, 0.0568767, 0.08618003, -0.018765027, -0.058629606, 0.057277776, 0.026274566, -0.10000626, 0.023644468, 0.078338556, 0.026965898, -0.00207334, 0.105519116, 0.08324442, 0.21342394, 0.026476588, -0.13446082, 0.080030404, -0.17098068, 0.0765471, -0.007053856, -0.011463138, -0.07634241, 0.07240772, 0.032176822, 0.05886992, -0.12138869, 0.03172158, 0.011745122, 0.013864455, -0.020441055, -0.082577825, -0.1884525, -0.054449026, 0.014874902, 0.10751235, -0.044029634, -0.0041152625, -0.12629732, -0.03097593, 0.08348093, 0.014276046, -0.033460688, 0.028028931, 0.020816917, -0.10294629, -0.06475944, 0.11919798, 0.036268756, 0.021933986, 0.0045764074, 0.11061958, 0.0042919903, 0.014707768, 0.08521468, -0.026253637, -0.17774445, -0.032958955, 0.008973579, 0.083023205, -0.029225722, 0.09530766, 0.050947208, -0.0068514817, -0.0066426587, 0.07879757, 0.009205106, -0.024209062, -0.05644567, -0.023089498, -0.047445316, 0.027603189, 0.08316449, 0.023693282, -0.1055069, 0.109049484, -0.033171367, -0.13910829, -0.028105218, 0.036513686, 0.06748803, -0.07939489, -0.07256934, -0.14424613, -0.2515998, -0.008522132, -0.076252095, -0.08299198, 0.014320136, 0.10192171, 0.025045082, 0.0107015055, -0.04143102, 0.063639715, 0.035148043, 0.05385789, 0.020401098, -0.06866859, -0.014496149, 0.0020853723, 0.08012706, -0.03972106, 0.010894266, -0.05388797, 0.0032427688, 0.0680798, -0.00076300185, 0.12635805, 0.088074796, -0.010960816, -0.038215507, -0.002848015, 0.0052227443, -0.033937868, -0.014195347, -0.0757791, -0.1358163, -0.19796072, -0.22091039, 0.13242346, -0.20388336, 0.06697263, 0.04746039, 0.06929407, 0.0030723154, -0.028130388, -0.024093624, -0.10349169, 0.018671308, -0.011357821, 0.1396872, 0.013255627, 0.047252927, -0.059138622, -0.045779575, 0.008975847, -0.14026247, -0.0019058759, -0.10314548, 0.15203184, 0.15828253, 0.07222221, 0.16790232, -0.009966027, 0.040937472, 0.13900666, 0.0328269, 0.012674514, -0.023959413, 0.015603533, 0.07041499, 0.063003354, 0.058071855, 0.04458285, 0.100482926, -0.068664305, 0.11375332, -0.047400482, -0.056276124, -0.06303626, -0.027584704, -0.026737612, -0.0064672893, -0.06819913, 0.044050965, -0.0029484895, -0.037226226, 0.047407366, 0.054590024, 0.11388501, 0.18031162, -0.050336126, 0.037523855, 0.018395066, 0.037410144, 0.08282777, 0.09243042, 0.13883744, -0.06250233, -0.06957404, -0.07288575, -0.09064054, 0.061098557, 0.037856698, -0.052707307, 0.06984852, 0.028531592, 0.052634224, -0.023189735, -0.17580466, 0.13580403, -0.08525867, -0.038263384, 0.0341574, -0.041621216, 0.24427623, 0.06768275, 0.21431047, 0.20916685, 0.02957416, 0.2290677, 0.020752048, 0.07555412, 0.051263932, -0.065557286, -0.06977038, -0.0511604, -0.1274359, 0.15725906, -0.01087193, 0.010857712, 0.12643039, 0.017713537, 0.046572138, 0.026026847, -0.01432587, -0.0142862145, 0.043795854, 0.039480478, -0.0036503314, 0.052827902, 0.108079664, 0.15367405, -0.010325787, 0.17776954, 0.066901125, 0.056800697, -0.06587863, 0.017702337, 0.1599378, 0.028257811, 0.11625601, 0.20746256, 0.052145753, 0.017973669, -0.038073547, -0.018180836, 0.15796335, -0.059258427, 0.0060179727, -0.099299565, 0.2550684, 0.22114967, -0.031230232, 0.06488436, -0.040311437, 0.070368774, 0.017873367, -0.1803837, -0.15549183, -0.021367172, 0.045923457, -0.12766244, -0.04145637, -0.033742294, -0.32804096, -0.046715837, 0.027398111, -0.011916577, -0.049389616, 0.095926024, -0.023642268, -0.0817257, -0.010207682, -0.008172298, 0.1571795, -0.054397427, -0.08179453, -0.030502062, -0.18465, -0.14588346, -0.0644757, -0.12537895, 0.093629375, -0.06982035, -0.04650089, -0.00023166832, -0.03705154, -0.01593676, -0.069811136, -0.07065174, 0.0102338735, -0.14871441, 0.08246438, 0.0789343, -0.018548714, 0.03163365, -0.029575095, 0.12301131, 0.17755476, 0.0086147245, 0.08990441, -0.03573046, 0.06403589, -0.07974628, -0.052649524, -0.032383062, -0.021043295, 0.039181057, 0.05473165, 0.118514866, 0.12120764, 0.108340725, 0.029883495, -0.15947293, -0.055538617, 0.016091643, -0.0046071177, -0.08329874, 0.05565294, -0.045949463, -0.16048677, -0.1369344, 0.24345176, -0.05032045, -0.017488752, -0.13117844, -0.041554656, -0.01059129, 0.04896877, -0.046862576, 0.03036151, 0.09441353, 0.024976095, 0.19372311, -0.08158996, 0.02895266, -0.03979944, -0.18673089, -0.016603353, 0.037636817, 0.022473477, 0.19708559, 0.044927705, -0.060977302, 0.20678408, -0.1224789, 0.06316947, -0.25113317, -0.13802916, -0.021950303, 0.090902835, 0.1279805, 0.07520075, -0.03683783, 0.16672447, 0.033903018, 0.1735598, 0.025167985, 0.053070094, -0.06983091, 0.06736539, 0.025997465, 0.059653375, 0.15433855, -0.031534918, -0.08571211, -0.10632385, -0.031006675, -0.018974235, 0.010562721, 0.0056610466, 0.048103772, 0.06364752, -0.058918256, 0.045044817, -0.019406866, 0.027503548, -0.0456088, -0.1223145, 0.028883053, -0.036587738, -0.031665012, -0.14894095, -0.13830067, 0.22494313, 0.16561806, 0.16979364, 0.056854345, -0.037767187, 0.048473075, -0.061721943, -0.14655262, -0.091310196, 0.020166762, -0.008988925, -0.034316305, -0.0042439923, 0.054789465, -0.07242724, 0.11347428, 0.066426955, -0.10212944, -0.025516951, -0.08400323, -0.17838499, 0.08653787, -0.020879077, 0.033536788, 0.029970247, -0.0708647, -0.07973313, 0.13821422, -0.11812669, 0.08079451, -0.13250336, -0.102782734, -0.018415546, 0.036103997, 0.03842325, -0.0105488, 0.008410174, -0.09322166, -0.014285683, -0.07368759, 0.020841697, -0.02103974, 0.0134834945, 0.026216006, 0.12098241, 0.245442, 0.0812834, 0.003154371, 0.13747108, 0.12497584, 0.023812499, -0.00093343144, 0.020033581, 0.043805804, -0.037537836, -0.041681543, 0.043592416, -0.04026799, -0.06845916, 0.036783617, -0.057417497, 0.07919298, -0.013160584, -0.04781027, 0.18407992, -0.034387823, -0.076878026, 0.027894836, -0.022641473, -0.018337827, 0.02259604, -0.04737585, -0.001942774, 0.05034615, -0.0596787, 0.08235109, -0.025754504, -0.18145275, 0.110259995, 0.12952459, 0.056701254, 0.010904, -0.06597119, -0.06569132, 0.1347841, 0.013069961, -0.1306212, -0.07481737, 0.0070666717, -0.00042706198, -0.0045082523, -0.049190275, 0.060061395, -0.05255447, 0.047416758, 0.0012662604, 0.07862824, -0.026530297, 0.12672892, -0.008033383, -0.007648156, -0.1697619, -0.008049974, -0.16490702, -0.057510536, 0.11671913, 0.089175075, 0.031507634, -0.07690177, 0.14911991, -0.1371102, -0.04557107, 0.16206498, 0.02463746, 0.12482067, 0.022454623, 0.03313464, -0.0148901995, 0.010778907, -0.0012397451, -0.05552012, -0.018991068, 0.06449228, 0.11607399, -0.0012343875, 0.0067855474, -0.021950793, -0.0057466184, 0.018876245, 0.03344687, -0.068491705, 0.05350958, -0.043426994, -0.059357993, 0.048516884, 0.0131728565, 0.33850163, 0.019325513, -0.16061243, -0.14166023, -0.053081125, -0.11040136, 0.006221177, -0.014510439, -0.009977651, -0.1342371, 0.0015685498, 0.0041278168, 0.117494054, 0.087246984, -0.13310136, 0.022600515, 0.13250111, 0.14049079, 0.08205483, 0.2319734, -0.031573642, 0.0055269403, -0.11280242, -0.010181974, 0.029358119, -0.041227896, -0.0065805423, -0.044635925, -0.048291877, 0.17861922, 0.05880333, 0.11705912, 0.092896655, -0.043011658, -0.07829158, -0.032562666, -0.034665126, 0.03381321, 0.0023733722, 0.0018725201, -0.084849365, -0.015931865, 0.048287567, -0.027383652, -0.0848123, 0.10933628, -0.0008791374, 0.0010256404, -0.16057013, 0.050751656, 0.027988065, 0.01941336, 0.06030639, 0.09372318, -0.055589773, -0.02651507, 0.1722105, -0.020518286, 0.056752652, -0.07928604, -0.016733749, -0.0034489243, -0.07774865, -0.090710625, -0.00233433, 0.020898294, 0.076180845, -0.048070908, -0.03465331, 0.10797936, 0.011438995, 0.016839938, 0.010120756, 0.030265834, -0.047542773, 0.032912146, -0.09156024, -0.1306823, -0.07567121, 0.042107824, -0.059719313, 0.08843141, -0.05738724, 0.13318813, -0.05002841, -0.07050497, 0.049496733, -0.12374016, -0.046902753, 0.051187493, 0.011863795, 0.0389365, 0.056026652, -0.10192097, 0.014639419, 0.000675791, -0.010038, 0.006304031, -0.05833245, -0.19817802, -0.08004471, -0.10315729, -0.20604107, 0.024646552, -0.01648262, 0.09782714, -0.09239685, 0.030087946, 0.023510907, 0.09048034, 0.11438002, 0.03217422, 0.105732225, 0.019614158, 0.07625069, -0.007188235, 0.042643633, 0.1579154, 0.12316183, 0.07795087, 0.0016788528, -0.16010077, -0.10213247, 0.005037342, 0.027006712, -0.0024122724, 0.003911019, 0.0077790986, -0.036038656, -0.043798383, -0.05847705, 0.07980015, 0.09813086, 0.011461541, 0.019149162, 0.007179443, -0.15056564, 0.03672212, 0.07824684, 0.2195868, -0.12971167, -0.26992217, 0.10126285, -0.012949099, 0.034284744, -0.023640364, -0.006660479, -0.08007733, -0.15861107, -0.1051564, -0.05439196, 0.032634754, -0.114583045, 0.05632306, 0.04043075, 0.012056562, 0.13865528, 0.033822075, 0.09062397, 0.04702947, -0.086345404, -0.031899296, -0.032966264, 0.12502944, 0.061186016, -0.021012938, -0.015079007, 0.04506603, 0.008908221, -0.022292819, 0.020160228, -0.02667225, -0.03554254, -0.0142727755, 0.029447185, 0.03436004, 0.04880092, -0.010443037, 0.030137964, -0.052232575, 0.021986859, -0.060605448, -0.060905017, -0.043310363, -0.04990472, 0.03019368, 0.09427211, 0.14225267, 0.16526069, 0.08318095, 0.05017015, 0.02631158, 0.0033974636, 0.00068357267, 0.020554448, 0.03845953, 0.017841622, 0.04439011, 0.17847583, -0.10523032, -0.049473796, 0.011861739, 0.06431412, 0.001906049, -0.018491894, -0.06760554, -0.025311816, -0.06423526, -0.028095812, 0.002051509, 0.06375648, -0.045825496, 0.08036176, 0.009042133, -0.00088936166, -0.08517659, -0.033311542, -0.061330527, 0.07412008, 0.13693196, 0.041134406, -0.08192185, -0.21289836, -0.0013284908, -0.025572982, -0.05771226, -0.0918706, 0.051857922, 0.054263927, -0.050893463, 0.027829753, -0.03282411, -0.06623409, -0.12821938, -0.050832376, -0.17852402, 0.023297511, 0.02134542, -0.011700393, -0.038531408, 0.020002475, 0.0029107546, 0.02773133, 0.060727563, -0.0018833901, -0.013186517, 0.04297701, -0.024970612, 0.018798713, -0.04727058, 0.18019992, 0.17915186, -0.13471057, 0.12173332, -0.006689722, 0.058908913, -0.21608326, -0.09414097, 0.08315319, 0.12781739, 0.035916265, 0.11185386, -0.095612586, -0.049172595, -0.07789072, -0.078840315, -0.024117086, -0.03139029, -0.0738079, 0.002230189, -0.22033493, -0.14514501, -0.104961984, -0.05336243, -0.073145516, -0.066767104, -0.100622125, -0.07662449, -0.025557455, -0.15605718, 0.16295889, 0.07620063, 0.02590985, 0.011301794, -0.09176305, -0.05897854, -0.07882727, -0.060201246, -0.055082303, -0.108476624, -0.115025535, -0.20491515, 0.089087784, -0.048580192, -0.018439434, -0.030393837, 0.029105267, -0.06554197, -0.09890491, 0.018793618, -0.046271984, 0.06162219, 0.12810937, 0.1141443, 0.045253534, -0.15445422, 0.07494508, 0.15471202, -0.08527534, -0.0025230816, 0.24278098, 0.27065736, 0.16443531, -0.081508584, 0.33771235, 0.34587577, -0.024000222, 0.091916315, 0.07096545, 0.051861353, 0.026477953, -0.029270304, -0.06450823, 0.0013525895, -0.03676152, -0.050473593, -0.03783033, 0.02675937, 0.018785842, -0.06188364, -0.040705793, -0.0030510693, -0.043276288, 0.1371557, 0.010342115, 0.08158598, 0.062838994, 0.08027569, -0.21912976, 0.033363003, -0.18556777, -0.2392524, -0.07163019, 0.0696212, -0.03661859, -0.08026118, -0.05925174, 0.046262585, 0.03363476, 0.018201867, -0.01935042, 0.049135353, 0.13493279, -0.040937055, -0.092515245, -0.12398952, -0.07448795, -0.05976983, -0.0296603, 0.106869146, -0.28425312, -0.06642624, -0.07008543, 0.115569614, 0.09989711, 0.025015553, 0.0055553326, 0.02532069, -0.023693657, -0.04136886, -0.1076647, -0.026386678, -0.16665794, -0.12907337, 0.1250079, -0.08307925, -0.009243255, -0.12256586, -0.05449303, 0.026812837, -0.04959505, -0.057871435, 0.054373506, 0.08930029, -0.062505685, -0.061856113, -0.019287078, 0.021508392, -0.0073153367, 0.049718004, -0.034688976, 0.008788762, 0.042006947, 0.026617058, 0.0048901252, 0.119414404, -0.24656107, -0.07352286, -0.02232822, -0.037161652, 0.0757523, -0.07396197, -0.0011443193, 0.036995478, -0.054299183, -0.013105097, -0.067200266, 0.0049286294, 0.05310433, -0.08932074, 0.010815688, -0.039388504, 0.04000131, -0.12811524, 0.09838657, 0.004794329, 0.028347159, 0.037490882, 0.028249895, -0.062840454, 0.24253707, 0.06624142, 0.1641824, 0.1043983, -0.39753848, -0.21855576, 0.020992631, 0.013222496, -0.08578848, 2.406445e-05, -0.030569684, 0.0052418076, 0.08146816, 0.062348116, 0.06962244, 0.06078699, 0.013812719, 0.048936583, -0.042900838, -0.046689026, -0.020746825, 0.03952802, 0.018632492, 0.025480982, -0.033982463, -0.15685427, 0.0016566105, -0.011256252, 0.11488012, 0.11698271, 0.0399614, 0.12772197, -0.037646625, 0.011500384, 0.15130316, 0.21165751, -0.007941495, -0.028909832, 0.015811268, 0.0798487, 0.006338554, -0.11213513, -0.05433039, 0.03672035, -0.034208227, 0.050589062, -0.059245843, 0.04705624, -0.059958715, -0.13125019, -0.10990782, 0.026343912, 0.08290892, 0.062491514, 0.015721148, 0.022222424, -0.03727278, 0.08855007, -0.097617865, -0.07511842, -0.006374192, -0.101415284, -0.07535181, 0.1307746, -0.038610216, -0.21807528, 0.06040082, -0.13198873, -0.25011602, 0.033783365, 0.039064657, -0.11852793, 0.0007228574, -0.026452357, -0.075654544, -0.061452422, 0.025034804, 0.0014136357, 0.051142428, -0.055892475, 0.023636015, -0.036778823, 0.04823828, -0.021666901, -0.03655782, 0.038478687, 0.08349675, 0.016172927, 0.052628994, -0.083058126, 0.054453094, 0.05514541, -0.22896741, -0.11472429, 0.07432126, 0.04330981, -0.047037553, 0.05244282, 0.021644419, 0.09328933, 0.01358753, 0.027535442, -2.0683958e-05, 0.06325664, -0.021922098, -0.23238605, -0.10734385, 0.013289151, -0.08562849, -0.10670943, 0.09595944, -0.0155008845, -0.112401135, -0.03599743, -0.0155961765, -0.0024286585, 0.07240844, -0.008342046, 0.04598997, 0.04992749, 0.04908797, -0.023240464, 0.03267048, -0.050829567, 0.025464753, -0.17925559, 0.2165186, -0.08541088, -0.05618075, 0.03207575, 0.03578676, 0.05888241, -0.018863851, 0.048718788, -0.005993594, -0.01164667, -0.09677448, -0.0975756, 0.06802818, 0.04268305, 0.008754678, -0.03496561, 0.036111984, -0.044661958, -0.10974552, -0.05793907, 0.026090188, 0.02951724, 0.0396181, 0.012774382, 0.110230535, 0.10242159, -0.05231144, 0.08158323, -0.05711349, 0.08237278, -0.07245344, 0.09669241, 0.057840675, 0.03253545, -0.071261704, -0.040620442, 0.02446637, -0.05947439, 0.003835251, -0.0085577285, 0.015301428, -0.034156498, 0.10838088, 0.072108306, 0.11167637, -0.08485372, -0.03103843, -0.105951846, 0.050798602, 0.033534776, 0.05527742, 0.170065, 0.09867446, 0.06987236, -0.12392615, 0.04651258, 0.059267562, -0.0688403, 0.0758639, 0.02209705, 0.054111518, 0.033989277, -0.10115566, 0.035204213, 0.17048708, 0.21414928, 0.073822334, 0.03739176, 0.062345386, 0.1152965, 0.07221914, 0.06485593, 0.11714049, -0.083239876, 0.07469168, 0.09134792, 0.0697836, -0.115199156, 0.08256079, -0.07429474, 0.07413421, -0.041374795, 0.07269243, -0.10773932, -0.086893275, 0.12946087, -0.09776025, 0.028288681, -0.0004771719, -0.1037008, 0.07548385, 0.035611454, 0.0330518, 0.08247004, 0.1191671, 0.00025336954, 0.05758062, 0.055545416, 0.007885815, -0.05146028, 0.048371635, 0.041754518, 0.051752627, -0.04762661, -0.051516127, -0.06349333, -0.046514366, -0.008080211, -0.0076865866, -0.09962382, -0.09538981, 0.17370647, -0.07237417, 0.0800895, -0.07664657, 0.11113218, -0.02469651, -0.12299831, 0.029190125, 0.05304828, -0.03539711, 0.029149283, 0.010685757, -0.10067154, -0.11430656, 0.021138303, -0.010826513, 0.06533532, 0.010273739, 0.12361842, -0.09952648, -0.21101859, -0.15713297, -0.0049948357, 0.031112652, 0.08357374, -0.15185389, -0.029166106, -0.053592805, 0.05662004, 0.048224173, 0.12140512, 0.036784835, 0.008919632, -0.049005136, 0.121484205, 0.03531106, -0.053171434, -0.14422348, 0.012796942, -0.050740797, 0.008446715, 0.015584884, -0.084707126, 0.10832133, 0.008728323, -0.02898153, 0.07250069, -0.08951914, 0.010760722, 0.114311144, -0.007830138, -0.06572341, 0.0738616, -0.13906568, 0.026459437, -0.05532708, -0.12415217, 0.021809146, 0.03662281, -0.01659779, 0.028623559, -0.108251475, -0.04521562, -0.0037647297, -0.13503847, -0.059871558, -0.11214165, 0.01867872, 0.10526853, 0.021198092, 0.124451414, -0.004885615, -0.035145704, 0.13194893, 0.029610768, 0.06718424, 0.0062230946, 0.09210804, -0.032695167, -0.06411893, -0.07267093, 0.06843533, -0.030025177, -0.10686433, 0.046351966, 0.060267396, -0.11433121, 0.08677044, -0.06322371, 0.066309504, 0.051845178, -0.036637414, -0.05580608, -0.0515786, -0.029977344, -0.10426193, 0.0721698, -0.015376277, -0.03545598, 0.04942711, 0.08829045, 0.10652876, 0.08079367, -0.100278884, 0.015257688, -0.20393133, -0.14817646, 0.041817907, -0.023074428, 0.09105002, 0.045151234, 0.27170077, 0.06954625, -0.099532865, 0.10881414, 0.01171892, 0.054599203, 0.031023206, 0.12558207, -0.087856695, -0.06188032, 0.0033478462, -0.07908228, -0.084564805, 0.014139175, 0.31335717, 0.20630547, 0.15720442, -0.09799077, 0.05610405, 0.18199469, 0.04856988, -0.09393583, -0.0625445, -0.013862773, -0.061977606, -0.013082923, 0.031771712, -0.018495226, 0.04156009, 0.036451522, -0.049407244, -0.08569017, -0.20700921, -0.11980474, 0.031098785, -0.013426762, -0.011400032, -0.057519548, -0.071178846, 0.02601576, -0.021233866, -0.0634663, 0.035079207, -0.10273765, -0.009572411, -0.072455615, 0.10550588, -0.036710553, -0.003478973, -0.09077808, -0.071568534, -0.012372582, -0.054890763, -0.062081747, 0.05206657, 0.12076639, -0.22349001, -0.055747874, -0.07559918, -0.12886429, -0.16733111, -0.119688265, -0.0522883, 0.09437769, 0.011939705, -0.027564986, 0.02132723, -0.021943482, -0.09407341, -0.069005035, -0.008106822, 0.052401457, 0.07023706, -0.15832357, -0.02335261, 0.01840542, 0.21073048, 0.024566608, 0.0944746, -0.17152882, 0.08119272, 0.033784874, -0.08376909, -0.1547625, -0.15756628, 0.030323494, 0.077333406, 0.0029561173, 0.041971646, 0.01800691, 0.03503659, 0.0048256395, -0.014227978, -0.0050499053, -0.11171036, -0.022523647, -0.18635654, -0.18446392, 0.017623717, -0.044991333, -0.12323007, 0.029855454, 0.04813275, -0.10054944, 0.113352224, 0.0016612267, 0.11540133, 0.010730426, 0.04713246, -0.023439225, 0.046431966, -0.025447112, 0.07036, -0.055417523, -0.07391702, -0.1713504, -0.026131636, -0.16682312, -0.29520544, -0.21010992, 0.05123883, 0.12474693, 0.16167463, -0.028281977, 0.018361976, -0.02576619, 0.024639681, 0.046563845, -0.041324288, 0.025007265, -0.07227714, 0.015785567, -0.0022006817, 0.035400987, -0.054117568, -0.039645478, 0.13052051, 0.04025528, 0.19177666, 0.10161468, -0.17743908, -0.1028315, 0.016399369, 0.14081925, 0.062046546, -0.059213035, 0.05566175, -0.13374943, -0.0044018277, 0.09952926, 0.043846447, 0.1251046, -0.040407177, -0.014429581, -0.005401891, -0.017430628, -0.0229735, 0.1087372, -0.043542672, 0.12618114, 0.07223734, 0.016588572, 0.11811575, -0.08370614, 0.13868748, 0.2693734, -0.0074772704, 0.14048812, 0.09264274, 0.12677981, 0.24898253, 0.14347662, -0.056564193, 0.035325687, 0.0036748445, -0.12372447, 0.005400786, 0.054556463, 0.09786117, -0.027426235, 0.09359167, 0.05160796, -0.027456699, -0.09720241, -0.019491427, 0.07453133, -0.001273675, 0.02686098, 0.027806325, -0.03257572, 0.03404619, 0.05901878, -0.07348529, 0.071921505, -0.035667866, -0.041053884, 0.060271755, -0.031078158, 0.24877597, 0.1270145, -0.09504525, 0.00030710996, 0.061645776, 0.016302332, 0.03492883, -0.03066225, -0.052601088, -0.10013885, 0.044210657, -0.006584294, 0.0056614764, -0.048137113, -0.0752051, 0.025436131, -0.14292686, 0.08887827, -0.26007238, -0.011529171, -0.0054657063, -0.016206503, -0.008804761, -0.20877634, -0.049809627, -0.15701483, 0.0058524124, -0.0117705595, 0.018665481, 0.021807352, -0.069785655, 0.017511686, 0.09395904, 0.11214225, 0.13066034, 0.2707687, 0.17087252, 0.15583678, 0.036177248, 0.11979624, 0.006759183, 0.06778856, -0.20803034, 0.0011824314, 0.2084028, -0.0132703, 0.07242332, -0.024302676, 0.08054278, -0.046587817, -0.0857615, -0.015423508, -0.14268692, -0.19517165, 0.13964158, -0.08691645, -0.015172756, -0.07104167, -0.041158706, -0.09834637, 0.11855239, -0.018787935, -0.026863776, 0.008499089, -0.0275742, 0.040080868, -0.011473743, 0.08859405, -0.05864216, -0.06544821, -0.038618248, -0.108393736, 0.017989926, 0.056136414, -0.13376342, -0.014660574, 0.14471856, -0.030781932, 0.021976808, -0.032650363, 0.03462434, 0.11105577, 0.032837696, -0.07966285, 0.096707165, 0.06579695, 0.033296622, -0.047299314, 0.03281218, -0.044531234, 0.050628327, 0.21906775, -0.0875381, -0.037346274, 0.008150699, 0.028331012, -0.011960357, -0.020549359, -0.030328117, 0.08773037, -0.13610385, 0.04322773, -0.07213956, 0.10903998, 0.1451869, 0.107840575, 0.061729494, 0.078598104, -0.01416102, 0.0059827846, -0.1639663, -0.1985371, -0.008910727, 0.08922497, -0.0020442076, 0.0213131, 0.13507941, 0.17897564, 0.0054168194, 0.05438127, -0.045792162, 0.024918694, 0.012795289, -0.028157534, -0.029021217, -0.03022498, 0.13990654, 0.025209405, 0.110046044, -0.0060155257, -0.097267024, -0.07920773, 0.02092113, -0.028524311, 0.054160737, -0.22547266, 0.015820853, 0.04630019, -0.12543762, 0.09058416, 0.11711276, -0.032319408, -0.21317188, -0.20908985, 0.027743235, 0.089105904, -0.014321595, -0.008714735, 0.09647522, 0.035344917, 0.01327773, 0.08958163, 0.035286978, 0.02642763, 0.024768244, -0.06081416, -0.008391676, 0.1526266, -0.009740172, 0.08096811, -0.025615845, -0.123385936, -0.029253, 0.010462443, 0.08550282, -0.094238, -0.06770445, -0.0139210615, -0.006074113, 0.12563556, 0.11232061, 0.038249858, 0.0069198445, 0.043053713, -0.041146033, -0.14935216, 0.011604699, 0.109625, 0.12354379, -0.026508404, -0.07242775, -0.12621474, 0.055972666, 0.074280754, -0.06700932, 0.1604527, 0.08571564, 0.1658185, 0.00019986944, 0.07062214, 0.051772784, 0.098721705, 0.0027466738, 0.056735113, -0.22909454, -0.14130376, 0.10940954, -0.09729433, 0.22128707, 0.012822213, -0.026357517, -0.11754781, 0.016290164, -0.05757257, -0.09905233, 0.024236025, 0.0077933986, 0.035500523, -0.07823942, -0.02454047, 0.032560002, 0.026224956, 0.09360646, 0.014600723, -0.12862869, -0.04624529, -0.06361561, 0.034397155, 0.058353025, 0.07043627, -0.061502963, 0.0033867024, -0.074685514, 0.062734045, -0.046900723, -0.020122897, -0.14870077, -0.13559358, -0.035086095, 0.036046557, -0.019543424, 0.015561947, 0.025916211, 0.05335408, 0.13306294, -0.020534432, -0.023043992, 0.003787355, -0.046157565, 0.027900094, 0.08475381, -0.011607358, -0.057316888, 0.09316189, 0.018552404, 0.015530474, -0.047690578, 0.006886587, 0.062152408, 0.060624532, 0.078552, -0.022930592, -0.113860376, -0.07979868, -0.12496323, 0.008221377, 0.016564589, -0.008872144, 0.0652122, -0.112737946, 0.03164722, -0.018799905, -0.06294021, -0.008743271, -0.10241633, -0.0700395, 0.048437506, 0.022910101, 0.04348701, -0.053648286, 0.01707125, 0.139668, -0.14074078, 0.15577103, -0.018360414, 0.031340137, -0.09684499, -0.024318453, 0.06261445, 0.10924228, 0.24924405, 0.06924098, 0.14616525, 0.050114494, -0.09027895, 0.019299904, 0.02019287, -0.15614352, -0.035559297, 0.0066229748, -0.12484829, -0.12989104, 0.049104005, -0.06318385, 0.035406977, 0.12972817, -0.040023003, -0.013914904, -0.03541287, 0.046443377, -0.04827683, 0.060519233, 0.13673678, 0.0059066634, -0.0869231, 0.0062347236, 0.1265674, 0.016009212, -0.271037, -0.14048924, -0.06903323, 0.04564766, 0.03877035, 0.076642245, -0.15755148, -0.06946397, 0.03767118, 0.22184461, 0.038824964, 0.044491593, 0.08094255, -0.02157803, -0.03073969, -0.003565642, 0.050905805, 0.040374868, 0.0073616914, -0.08227442, -0.10654228, -0.032978334, 0.030043004, -0.11335413, 0.07413862, -0.009829173, 0.00053788733, -0.10800546, 0.067602284, 0.043527875, -0.021499917, 0.0366392, -0.0072846683, -0.038650393, -0.0047752564, 0.0194935, -0.0042294357, -0.02643352, -0.29056638, -0.13989933, -0.2626016, 0.15047161, -0.039948814, -0.06657942, 0.022238318, -0.057778817, -0.05783674, 0.027340107, -0.061944082, -0.01986379, 0.07750075, -0.10329824, 0.021178564, -0.17468199, 0.0545855, -0.06221996, 0.024151487, 0.03552009, 0.120968364, 0.26971632, -0.062103257, -0.0970263, -0.02606815, -0.07970425, -0.0068172985, -0.14471832, 0.059556, 0.0065975473, 0.019599203, 0.033595867, 0.016488632, -0.0435326, -0.080879465, 0.15478271, 0.014301864, 0.013267996, -0.07021572, 0.005962711, 0.17214788, -0.029497331, 0.07505637, -0.07240343, 0.1263214, 0.040714387, -0.0158258, 0.034154434, -0.112893425, -0.04922612, -0.057918582, 0.29990992, 0.09158641, -0.13898128, 0.04544379, 0.01803017, -0.13069935, -0.101571485, 0.058978807, -0.07374811, 0.11101805, -0.08772543, 0.12127702, 0.039502483, -0.16805282, -0.049137782, -0.17781413, -0.21436945, -0.018979715, 0.07749161, 0.05887708, 0.026285097, -0.23483767, -0.04374584, -0.23077096, 0.02034107, -0.06155935, 0.03549851, -0.1336661, -0.0060794386, 0.042898066, -0.094683595, 0.024238499, 0.009373919, -0.1226839, 0.0065343874, 0.11600335, 0.051634725, -0.064343184, -0.096724905, -0.2554597, -0.16972277, 0.028840926, -0.03212408, -0.0028154557, 0.03288451, 0.0857351, 0.08383799, 0.058964606, 0.10843501, -0.05451598, 0.088242784, -0.010442275, -0.023083854, -0.14392327, 0.2109227, 0.063407734, 0.09448839, 0.12279397, -0.0100221, 0.033781227, 0.03822491, 0.030480804, 0.09290229, -0.06308694, -0.044040065, -0.04626101, -0.029597366, -0.05234839, -0.057751324, 0.02067001, -0.014484888, -0.05617457, -0.073161416, 0.08691362, -0.046443325, -0.013263644, 0.0597756, -0.04161467, -0.06578111, -0.12628093, 0.060208652, -0.19724576, -0.11916079, -0.021527626, 0.07750707, -0.13358139, -0.09287797, 0.002363581, -0.26215744, 0.01102964, -0.0032086158, -0.018516721, -0.083895914, -0.08793423, -0.097757086, 0.10072139, 0.035632696, -0.0033373532, 0.03602326, 0.0960074, -0.068176165, -0.008495414, -0.0049633626, -0.051415373, -0.08446118, 0.016197719, 0.0026110662, 0.045083035, -0.035325646, -0.00376496, 0.04928791, 0.020548718, 0.17370692, 0.06697796, -0.009019755, -0.32703176, -0.20283532, -0.0053642415, 0.057024546, -0.0005085634, -0.05348927, -0.048916258, -0.041639827, 0.03842029, -0.01758424, 0.043751076, -0.026025899, -0.035182755, -0.019794928, -0.010616203, -0.063369796, -0.009569658, -0.01193542, -0.012493463, 0.07313111, -0.013253152, 0.071404666, -0.049573034, -0.014464645, 0.0058249673, 0.003805942, -0.010346137, -0.05067673, -0.033012487, -0.054776527, 0.069027364, -0.16086854, 0.088765554, -0.0059790127, -0.11570337, -0.1913922, -0.20880768, -0.03784716, 0.08988683, 0.044581242, -0.012569491, 0.19531052, 0.0061133797, 0.047613025, -0.0019920503, -0.17681749, 0.0030720655, -0.06654167, -0.0063893218, -0.018616162, -0.06465533, -0.1578648, -0.03989192, -0.0054296083, -0.08356525, 0.007272478, 0.036450945, -0.0036435658, 0.018038778, 0.2301761, -0.09111222, 0.084619455, -0.06714206, -0.049655892, 0.048478235, -0.0014230865, -0.059644766, 0.055154216, -0.04223186, 0.0018940921, -0.12383199, -0.0059754783, 0.24493533, 0.0051228744, -0.017457515, -0.00089025905, -0.2503119, -0.20006865, 0.07000131, -0.053255692, 0.020378733, 0.027559686, 0.10088322, -0.0016650169, 0.05745256, 0.0029525026, 0.025644531, 0.06662342, -0.07087579, 0.010977723, 0.0041728076, -0.30048323, 0.013574838, 0.13625489, -0.082489826, -0.012134774, -0.030886153, 0.14288522, 0.043532226, -0.07911735, -0.06444171, 0.12847953, -0.029478643, 0.024901245, -0.01842781, 0.027421702, -0.042286426, 0.04566859, -0.035525054, 0.005808353, 0.19806024, 0.028504536, 0.02976911, -0.04578799, -0.02367535, -0.13199387, 0.13701375, -0.0766086, -0.08044923, -0.09788054, -0.070500635, 0.024108356, -0.014210334, -0.13382722, -0.061385468, -0.02911878, 0.12858066, -0.007539878, 0.10775476, -0.04999241, -0.02104413, -0.038757745, 0.061063576, 0.013916758, 0.10604773, 0.17770904, 0.04391899, 0.036944564, -0.025733849, -0.12034791, -0.027492067, 0.17885226, -0.00787277, 0.1986757, -0.07551806, 0.065866314, -0.02140132, -0.010053863, -0.01365379, 0.09244057, 0.05070856, 0.022650631, 0.12748556, -0.058880776, -0.15773366, -0.13917296, -0.023470735, -0.16286667, 0.024462635, -0.024207348, 0.03590457, 0.05023356, -0.23671006, -0.23983061, -0.12698306, -0.16037937, -0.11019566, -0.03154168, -0.013144895, -0.07300792, -0.07632097, 0.008460103, 0.038679667, -0.019066835, -0.0527733, 0.20605054, 0.12123652, -0.023346717, -0.17745426, -0.01787813, -0.017795809, -0.05879427, -0.2191264, 0.027897894, 0.106641285, 0.042595025, 0.12446109, 0.041398946, 0.049326472, 0.100786075, 0.05411154, -0.021906106, 0.10108546, -0.022233123, 0.038584016, 0.19609787, 0.06529532, 0.20153402, -0.09424687, 0.07479743, -0.10280431, -0.14459482, -0.010341526, 0.04829296, 0.1314084, -0.059613742, 0.033216413, 0.031916406, 0.041518506, 0.043097623, -0.025504725, -0.049902126, 0.03617652, 0.02375906, 0.1257508, -0.04388487, 0.110927425, -0.15548348, 0.08441412, 0.0028460228, -0.04718357, -0.04705719, 0.03255559, -0.038938947, 0.15632032, -0.11328544, 0.1720556, -0.032262187, -0.05131339, -0.12934358, 0.023582311, 0.00864699, 0.11196289, 0.015535254, -0.024554031, 0.07010159, 0.042396877, 0.0122191785, 0.04622102, 0.03637382, 0.015665652, -0.057256088, -0.06700885, -0.07046338, 0.05659622, 0.017948402, -0.018747475, -0.12424377, -0.05762517, -0.059351105, -0.023242123, 0.14599255, -0.06482691, 0.007724187, -0.054763183, 0.07305038, -0.20808744, -0.0276156, -0.07376943, 0.04998189, 0.0997311, -0.052098453, 0.045034397, -0.06843607, 0.03320227, -0.016409624, 0.008956989, 0.042165894, -0.0003792049, 0.09554264, 0.02595977, -0.13246562, -0.09176932, 0.011305934, -0.027225574, -0.040379137, -0.041143216, 0.15638594, 0.0026166057, 0.16427849, -0.15865585, -0.056753132, 0.06900704, -0.019452214, 0.04000348, -0.022623602, -0.04449888, 0.15403834, 0.2055126, -0.16484188, -0.0009546961, 0.13710006, -0.09939126, 0.022514679, -0.082697734, -0.028664673, -0.026275476, 0.003322449, 0.20218983, 0.037722915, -0.0837015, -0.15133023, -0.04954429, 0.10555166, -0.021587305, 0.024692036, -0.086414434, -0.079748325, 0.29662174, 0.25245202, 0.003084244, -0.056448042, 0.018718231, -0.046396893, 0.048757657, -0.06502401, -0.08811039, -0.14997149, -0.11265351, 0.059683867, -0.01346101, 0.06082502, -0.063374706, -0.02210663, -0.13233428, 0.004274739, 0.18753, 0.019050034, 0.049529802, -0.100353226, 0.0016383709, -0.09833159, 0.015539741, 0.008244988, 0.11962464, -0.07537563, -0.05706275, -0.05659276, -0.03603138, 0.052406374, 0.032562606, -0.022584785, 0.04051822, -0.013249754, 0.1107502, -0.007636627, -0.14955068, -0.18797344, -0.41510662, -0.07245437, -0.013271041, 0.014473264, -0.045370847, -0.015598249, 0.0393196, -0.003513632, 0.023547923, 0.010234845, 0.077341504, 0.1339956, -0.3473562, -0.11893949, -0.071711935, -0.10597392, -0.0065389415, 0.09963683, 0.11720811, 0.2194316, 0.047582302, -0.123860955, -0.13858077, -0.17425333, -0.4060138, -0.19255956, -0.042534973, -0.012059247, -0.046756584, -0.13357256, 0.0010670176, 0.056574993, 0.014191939, 0.0046255914, 0.032569144, 0.033886526, -0.066278756, -0.04032933, -0.034376353, -0.07342303, 0.054949302, -0.0028381706, 0.04149283, 0.04152353, -0.068231165, 0.01351543, 0.023914061, 0.22005484, -0.061623093, -0.1746562, -0.1397066, -0.12815243, -0.252505, -0.20119976, 0.078301825, 0.025073905, -0.06613796, 0.056361612, -0.0341445, -0.1112208, -0.043050285, -0.0714559, -0.057978738, -0.057291966, -0.13634923, -0.20224498, -0.013713999, -0.08111401, 0.012994871, 0.022228338, -0.052641578, 0.15689756, -0.010579908, 0.10172598, 0.07072334, -0.082081355, 0.013776636, -0.09577449, 0.0029862905, 0.032455724, 0.119171835, -0.06951442, -0.0028627845, -0.036463022, -0.038452085, -0.12511349, -0.13266714, -0.0059148995, 0.032105863, 0.066706955, 0.05923835, 0.028006993, 0.06924246, 0.09690728, -0.098659016, 0.035032444, 0.056867335, -0.075809754, -0.037613235, 0.037848942, -0.002243131, -0.09323986, -0.05827107, -0.1285286, 0.13682841, 0.008322029, -0.020691345, 0.010472249, 0.110644445, 0.17095743, 0.031784825, 0.03846845, 0.025314534, 0.10372192, 0.09930013, 0.046409246, 0.025055125, -0.003861798, 0.014160136, 0.022637026, 0.033678237, 0.08636595, 0.058751415, -0.047875244, -0.09783538, 0.044911515, -0.08093677, -0.07335239, 0.008699613, 0.008945331, -0.04186276, -0.0020210345, -0.14675313, -0.079464234, -0.12620658, 0.01998271, 0.2001149, 0.018970162, -0.017564226, 0.058500756, 0.052022, 0.063641556, 0.022255117, -0.0897517, 0.082773946, -0.02164144, -0.044100534, -0.020398155, -0.028604152, -0.012375874, 0.027257571, -0.096500695, 0.036570136, 0.029349765, -0.06727857, 0.029046224, 0.012768507, 0.11172883, -0.00850876, -0.089394614, -0.042486172, -0.023822565, 0.032149028, 0.049777694, 0.13467447, 0.111523256, -0.026507668, -0.020070588, 0.073096804, -0.10218365, 0.06776183, 0.15204935, -0.114484936, -0.094832815, 0.14298582, 0.08637811, -0.010811925, -0.061820284, 0.03200452, 0.06629424, -0.035611764, 0.048077863, 0.08819441, 0.08520406, 0.0111089125, -0.05895592, 0.114946075, -0.0012593131, 0.16123094, 0.16241018, -0.0145347025, -0.04314872, 0.05706607, 0.092124045, 0.010739737, -0.08081528, -0.0074636927, 0.17218035, -0.039349414, 0.043117255, -0.030327901, 0.08151362, -0.08744332, -0.011882666, -0.13192445, 0.0034999507, -0.05975893, -0.040932026, 0.08011613, 0.055437185, -0.09619115, -0.120268025, -0.12026282, 0.00062303495, 0.0835102, 0.116998725, 0.16169953, 0.1211465, 0.052231647, 0.054557182, 0.03975116, 0.024741016, -0.058704536, -0.11452103, 0.05033995, 0.10909905, -0.100013606, 0.0038450095, -0.026114117, -0.016524274, -0.06600528, -0.11016923, -0.050436154, -0.12655929, -0.19327657, -0.06962507, -0.23733959, -0.17845477, -0.029474743, -0.019025581, -0.1889505, -0.28191313, 0.1588312, -0.030302847, -0.059051488, -0.056411196, 0.027293993, 0.07736079, -0.048693195, -0.12514472, 0.035572167, -0.022447482, -0.011475522, 0.084913775, -0.1538082, -0.024685353, -0.21559198, 0.061077114, -0.06850212, -0.039247636, 0.026688393, -0.12820204, 0.12140773, 0.05045506, 0.1775282, -0.01676724, -0.021013042, 0.008417595, -0.05800764, -0.013730723, -0.062959135, 0.005415041, 0.09122352, -0.06685884, -0.004874572, -0.014684975, -0.103964, -0.08061783, -0.24197604, -0.24034318, -0.10507017, -0.13658172, 0.059905656, 0.04380632, 0.04366059, 0.033033412, 0.0064111976, -0.05227274, -0.006217514, 0.04209776, 0.07282959, 0.037664894, -0.08820381, 0.04464392, 0.13102521, -0.06393843, 0.027873313, 0.0199415, 0.117973424, 0.15759957, -0.012516616, -0.09952817, 0.0034520074, 0.08594902, 0.09158992, -0.2325791, -0.18050267, -0.015826229, -0.050637316, 0.10799141, -0.031650625, -0.0039254725, 0.071340084, -0.00721419, -0.017103232, -0.0055989726, -0.084255405, 0.0680613, -0.06334867, -0.16400586, 0.019660361, -0.122801475, -0.10001002, 0.009180079, -0.035134844, -0.13632071, -0.09895072, -0.040847614, 0.11837762, -0.016574094, -0.07427608, 0.13730907, 0.07935091, -0.048710953, 0.05333868, 0.019484889, 0.05464921, -0.04807031, -0.054189228, -0.1131557, -0.107100464, -0.16841242, -0.011346776, 0.0768063, -0.09005095, 0.13977876, 0.096771725, 0.015672117, -0.07197968, 0.031372856, -0.02906522, -0.0045790304, 0.009356298, -0.05439693, 0.071490444, 0.012110316, 0.11067498, -0.06776317, 0.04139941, -0.07865759, 0.13152456, -0.011900094, 0.01187459, 0.08604657, -0.0813562, 0.14724906, 0.049289756, -0.13648935, 0.04404353, -0.041942816, -0.024148418, -0.04497266, -0.118333146, -0.058487024, -0.040217776, -0.07081986, -0.053395063, -0.06866262, 0.024177566, 0.018869808, -0.06461902, 0.060517058, 0.06642252, 0.021313543, 0.04471968, -0.059686445, -0.0031880047, 0.06888014, -0.038855918, 0.04052185, 0.086530365, 0.1227374, 0.12365799, 0.028174749, 0.016546674, -0.039798345, -0.03268836, 0.013902502, 0.019420438, 0.10898949, -0.0539241, -0.10112885, 0.0016229537, -0.038001806, -0.03745817, 0.024355467, 0.061925393, -0.04795992, -0.015269535, -0.017310048, 0.06585398, -0.026298806, 0.02521656, -0.007820931, 0.0070811, -0.011635979, -0.003335148, -0.01750297, 0.03535005, 0.16634855, 0.070633404, 0.19635963, -0.041550756, -0.0037352645, -0.0041223327, 0.021093467, -0.12424176, 0.09273661, -0.030440517, 0.1512949, 0.013735339, -0.016335975, -0.01039006, 0.0026583984, -0.02832613, 0.0059642475, 0.0017923737, 0.0063465484, 0.034119494, -0.047912974, 0.0440169, 0.0624593, 0.12759393, 0.13383055, 0.003271461, 0.076261215, -0.0031969373, -0.0016442384, -0.09523868, -0.0853077, -0.046951145, -0.11066988, 0.048060633, 0.023051824, 0.011068274, 0.22379717, 0.12197038, 0.22688816, -0.028476685, -0.029558344, -0.114674196, 0.026072763, -0.10831655, -0.027160045, 0.006242544, 0.07960192, -0.09793541, 0.020457337, 0.04882012, 0.09158958, -0.08765896, 0.02602453, -0.24193682, -0.12726675, 0.049695868, 0.014460027, -0.021776272, 0.016243769, 0.038665157, 0.19949344, 0.08137285, -0.09521973, 0.0928192, 0.002152453, 0.09925485, 0.13841908, -0.017679373, -0.023161044, 0.027576817, 0.083711855, -0.038257677, 0.18384434, -0.017888883, -0.010975489, 0.05146633, -0.0508115, -0.030254403, -0.08955024, 0.06627664, 0.11092431, 0.10989406, -0.03874111, -0.024859922, 0.1387576, 0.044906788, 0.0003483827, 0.14505239, -0.028446639, 0.03668223, -0.10656204, -0.010185185, -0.26159582, -0.07843018, -0.10723721, 0.030691575, -9.105677e-05, 0.04148164, 0.027577603, 0.07216694, 0.040744774, 0.0035072435, -0.019958045, -0.087959394, 0.005779291, 0.017235834, 0.08608351, -0.07692395, -0.07839488, 0.0370774, 0.10571111, -0.27071375, -0.16765639, 0.005286379, -0.06411201, 0.13195556, 0.11049774, -0.07802812, -0.08729132, 0.09196251, -0.0199341, -0.036738466, -0.045596305, -0.15778825, 0.017762983, 0.06455669, 0.017883668, 0.06689659, -0.02147383, 0.025899032, -0.1223786, -0.005303058, -0.09248905, -0.025957672, -0.14000624, 0.028648667, 0.14270747, 0.020517996, -0.0800209, 0.033410102, -0.091005206, -0.04559358, -0.023271656, -0.06058811, -0.070531376, 0.02943461, -0.11422035, -0.001989661, -0.040871505, -0.039235797, -0.014036495, 0.098304465, -0.03780221, 0.064602435, -0.07947726, 0.077461556, 0.25343475, 0.13325673, 0.17487875, 0.11934563, -0.15432763, 0.013983904, -0.0027564086, 0.09894085, 0.2850803, 0.07249903, -0.12697151, 0.0020469935, -0.025723448, -0.01981394, 0.014471068, 0.004801525, 0.022048367, 0.0105345035, -0.01336748, -0.07792372, 0.055810694, -0.05958786, -0.07471372, -0.19529776, 0.018272307, 0.10318577, 0.1524077, 0.0114230225, -0.011549578, 0.031887252, -0.04658568, 0.031643897, -0.05138445, -0.037766043, -0.027942661, 0.025775861, 0.08348629, -0.020165918, -0.042148747, -0.12079597, -0.16300537, -0.045797657, -0.031436164, 0.12140424, 0.0065237456, 0.17745063, -0.079475634, -0.06909258, 0.068794884, 0.051532306, -0.062040333, 0.028965902, -0.04832684, -0.0980616, 0.013201215, 0.05834927, -0.09191434, 0.035477504, -0.024395678, -0.11856233, 0.06607637, 0.024699789, 0.054352004, -0.015041428, 0.017512038, -0.05873704, -0.09811447, -0.026204295, -0.12482044, -0.08286494, -0.08751179, -0.047692988, -0.037326656, 0.08197467, 0.098829746, 0.11584229, 0.014176283, 0.032555524, 0.10609457, 0.058999084, 0.022626862, -0.11103177, -0.115633614, -0.04733104, 0.044352688, 0.018346012, -0.049786866, -0.035070434, 0.0039469055, 0.09836462, 0.009710478, -0.0025584293, 0.0290332, -0.027681874, 0.01371951, -0.08276637, -0.083168626, -0.08321012, 0.09045977, -0.13811874, -0.0015496879, 0.048095014, -0.051609732, 0.00816382, 0.0975727, -0.10707196, -0.031791423, -0.08049769, -0.1694482, -0.00020710863, -0.041927308, 0.039266665, 0.07714181, -0.041199766, 0.06492702, 0.14337932, -0.0749734, 0.056107793, 0.0419865, 0.0016775301, 0.0019659768, -0.044029634, 0.009437774, 0.015084582, 0.19933297, 0.10907857, -0.0009876997, -0.030003948, 0.028444936, -0.11265158, -0.10986647, -0.09804027, -0.0045835916, -0.21227325, -0.08414671, -0.19525976, -0.17277275, 0.23563473, 0.040504504, 0.016258448, -0.116706856, -0.0024195968, 0.17530726, 0.06811126, 0.019800607, -0.16090342, -0.013242853, 0.06852174, -0.048491452, 0.022580478, 0.06939718, 0.04413574, 0.049734414, 0.13270873, 0.048721354, 0.06338435, 0.0094813565, -0.035469178, -0.008087857, 0.20996253, 0.17773645, 0.06506037, 0.22377595, -0.050206676, 0.06797676, -0.075095326, -0.071735576, -0.015787078, -0.003327472, -0.02787517, 0.020772437, 0.03743651, 0.08028272, 0.015631523, 0.13038276, 0.1508489, 0.08833639, -0.008696007, 0.019849215, 0.026397632, -0.0883032, -0.03388786, 0.07073988, -0.0005366705, -0.055794746, 0.016384663, 0.060879048, -0.020002466, -0.060231462, 0.056555174, -0.0792578, 0.100167505, -0.15479624, -0.054807197, -0.09530286, 0.057580754, 0.012837576, -0.10659171, 0.072456904, -0.030474257, -0.0609459, 0.03900664, 0.09030711, -0.08616852, 0.06755394, -0.11614743, 0.009928287, -0.082841165, 0.13415177, 0.040769573, -0.0833324, 0.0058429893, -0.085107416, 0.015120525, -0.086284444, 0.04748721, 0.009896097, -0.15006797, 0.020015854, -0.041915048, -0.044760674, 0.0029312228, -0.0036438864, -0.017049748, -0.13896742, -0.10431154, 0.06426386, -0.035249464, 0.08832844, 0.017717794, 0.010318185, 0.13038643, -0.072763845, -0.030918585, -0.063571624, 0.039283786, -0.050391883, 0.015014192, -0.1789334, 0.04590217, -0.18874954, -0.081771486, 0.12835379, 0.014714213, -0.015203777, 0.017492702, -0.014740064, -5.1372986e-05, -0.09536682, 0.019552639, -0.017093876, 0.0124943545, -0.07813015, -0.027088678, 0.09689702, -0.0147557445, 0.028168898, 0.14652999, 0.113870814, 0.039812747, -0.06323139, -0.04635125, 0.0026680734, 0.063183725, 0.25225955, 0.071577, 0.08950059, 0.022117745, 0.055576134, 0.0045974487, 0.02593334, -0.07532237, 0.013462135, -0.13166547, -0.031241318, -0.08968963, 0.053710464, 0.064185135, 0.038854323, -0.08572364, -0.12447223, 0.014673112, 0.15513477, 0.058285393, -0.0962832, 0.02275445, 0.073488064, -0.03370119, 0.058438763, 0.07124, -0.02477241, -0.018712826, 0.02851034, -0.06261263, -0.10969274, -0.118094936, -0.021279426, -0.015722273, -0.027392685, 0.13279302, -0.09062, 0.17231132, -0.07089108, 0.018523913, -0.06057292, -0.09700955, 0.039133828, 0.0049894587, 0.03730033, -0.084858, -0.07097981, 0.0157114, -0.0048721572, 0.060242992, 0.011838313, -0.02424262, 0.06097359, 0.04702651, -0.009828608, -0.0302228, -0.011871015, 0.11458211, 0.0037600636, -0.04311742, -0.13529783, -0.060558014, -0.19579755, -0.012015713, -0.14710677, 0.12033737, 0.2204124, -0.033298243, -0.065046586, 0.0012118244, 0.002171661, -0.01033039, 0.05943512, 0.05693955, 0.08383071, 0.029336058, -0.011460016, 0.05570999, 0.21273917, -0.013639593, 0.065018184, 0.169269, -0.042835843, 0.012513179, -0.028471509, -0.012312721, -0.06405083, 0.002726135, 0.022032583, -0.022159135, 0.028424906, -0.04436924, -0.09514739, -0.019516042, -0.038357064, 0.0924499, -0.055872705, -0.0044885664, 0.048801474, -0.01048463, 0.087972574, -0.005275818, -0.07308446, -0.042162903, -0.04058261, 0.025990844, -0.098880075, 0.06797127, 0.0013745516, 0.03689965, 0.06388372, 0.021940013, -0.09329056, -0.03422131, -0.12123855, -0.005606938, 0.15576908, 0.09494826, 0.055420917, -0.05584206, 0.08955835, -0.014245031, 0.022501254, 0.0013151406, 0.031585615, -0.04331615, -0.10538059, -0.027948583, -0.14351842, 0.05256389, 0.10182577, -0.022966597, -0.11918007, 0.04014171, -0.007699511, -0.10131446, 0.05119299, -0.07500065, -0.017900078, 0.034665115, 0.02744119, -0.104756184, 0.08559016, 0.03916035, -0.012595032, 0.019614283, -0.028960021, 0.042802207, 0.00045243453, -0.1034725, 0.10674005, 0.07027672, 0.1042459, 0.001976587, 0.21270429, 0.035501637, -0.017304769, -0.1101792, 0.08372997, -0.031382725, -0.17863765, 0.06486521, 0.08398968, 0.01912917, 0.07140169, -0.02950349, 0.12155635, 0.100198515, 0.12787694, 0.07539459, -0.099298015, 0.0131844655, -0.03823111, -0.023009228, 0.0050611864, -0.03683272, -0.047632497, -0.04528064, -0.05784317, 0.07173124, 0.014208228, -0.023675695, -0.043175768, 0.1171755, 0.12165699, 0.107092306, -0.06546586, 0.03345064, 0.062294718, -0.11361373, 0.097981885, -0.041498132, 0.07974841, 0.0016623934, 0.012720068, 0.13879545, 0.11034218, -0.1065616, -0.1803485, -0.0065326397, -0.057131097, 0.13444884, -0.009061444, 0.11477045, 0.15482093, -0.0957055, -0.078512706, 0.046570536, 0.07894957, 0.14201307, 0.09541283, -0.009036381, 0.11723247, -0.04580757, -0.0075769564, -0.04883906, -0.052337047, 0.009695496, 0.053818397, -0.05323084, 0.021351567, 0.0092044985, -0.0084780995, 0.11190267, -0.008205942, 0.017917737, 0.02060232, 0.023161244, -0.18280885, -0.016778428, 0.11714031, 0.05684508, -0.12924878, 0.13137212, 0.0021805558, 0.15324703, -0.014260381, -0.05123008, -0.2401817, 0.0043407828, 0.037965856, 0.0031996737, 0.035062656, -0.03050153, 0.09886219, -0.019799456, 0.06262158, 0.16248283, 0.06117177, 0.1374376, 0.12670231, -0.023221044, 0.08256299, 0.02041526, -0.16215481, 0.008657575, 0.05276726, -0.13776934, 0.04092875, -0.018451361, 0.034254014, -0.052879807, 0.048370197, 0.05266814, -0.024905251, 0.069301985, -0.049811866, 0.05630624, -0.023941344, -0.010799941, 0.1499673, 0.20362858, 0.1851106, -0.0014169643, 0.009889776, -0.060589824, -0.045700688, 0.05675289, 0.0024390896, 0.1215272, -0.050776962, 0.0041213664, -0.028301349, 0.0047345976, 0.023028707, 0.050497364, -0.035481736, 0.066683345, 0.017805414, -0.0041531664, -0.09495235, -0.16692445, 0.01730576, -0.004323993, 0.06710745, -0.008981361, -0.059648614, 0.17004748, -0.043313164, -0.100559354, 0.05791511, -0.07167681, 0.051495474, -0.03845863, 0.0044677258, 0.0067593963, -0.025933377, -0.10323805, -0.1747113, 0.07462398, 0.04037362, -0.023599798, -0.12267424, 0.029889531, 0.011975637, 0.024010109, -0.07655551, 0.035383906, 0.08562752, 0.13164495, 0.2274679, -0.13225158, -0.18059342, 0.06818189, -0.034376148, -0.094682865, -0.029656554, -0.016732682, -0.15326287, -0.005304811, 0.0054166163, -0.059084184, -0.05891421, -0.003439052, 0.1181659, -0.043885063, -0.019676536, 0.021293804, 0.057684474, 0.013599856, -0.032675356, 0.0036826225, 0.054381106, 0.084595695, 0.04917425, 0.011970332, 0.004637425, 0.065500796, -0.13525304, 0.034251384, -0.064974874, 0.15013824, -0.0011380055, 0.056857094, 0.049664088, 0.10275986, 0.054475185, -0.009033941, 0.07757412, 0.057916146, 0.04971001, -0.07110826, 0.063059054, -0.06646811, 0.015760312, -0.0006622712, 0.03117573, 0.011316641, -0.014100038, 0.045378078, -0.00035671057, -0.15783776, -0.053322382, -0.04145372, -0.00052027625, -0.06280866, -0.01853454, -0.03390652, -0.17233114, 0.052875273, 0.13300271, -0.06028637, 0.037880957, 0.13457604, -0.16784014, 0.015655715, -0.060396098, -0.03277345, -0.06951096, 0.083198935, -0.09005136, -0.04252535, -0.022347583, 0.24399024, -0.0034672068, 0.084775716, -0.087594755, -0.09460486, -0.06230174, -0.074916124, -0.03331026, 0.0315413, 0.053990327, -0.091590725, -0.019571654, 0.028541932, -0.14547822, 0.1259816, -0.15793623, -0.07575314, -0.16232957, -0.06512776, -0.012751554, 0.037964, -0.023124384, 0.064331375, -0.04754471, 0.07293148, 0.05962444, -0.038459167, 0.06155882, -0.057859983, -0.22209923, 0.2035252, 0.19252512, 0.022740949, 0.1708809, 0.07895053, 0.014426108, -0.026076699, -0.011823917, 0.02015103, -0.0386007, -0.0024955082, -0.07691552, 0.035560966, 0.01646546, 0.109929234, -0.08168765, 0.28492916, 0.049270157, 0.19106609, 0.10197058, -0.1360818, -0.10283005, -0.015747434, 0.040241405, -0.018839292, 0.015287124, 0.06955053, 0.021547025, -0.07032186, -0.032872476, 0.11405618, -0.038346082, 0.09942561, 0.072315976, 0.13234548, 0.02720872, -0.07538542, -0.21309674, -0.014672967, -0.09033589, -0.022371689, -0.10266477, -0.14166908, -0.0044446317, 0.0293633, -0.035520695, 0.08873755, -0.089090556, 0.032545257, -0.046055455, 0.08132511, 0.12402747, -0.0031443448, 0.029560296, -0.014422833, -0.074438155, 0.049682964, -0.10253306, -0.09894896, 0.13268556, -0.056540914, 0.105297685, -0.08126498, -0.078118436, 0.12313008, -0.05872378, 0.014455657, -0.03915008, -0.003988223, 0.10459407, 0.13867837, 0.0664487, 0.02218423, 0.04604848, -0.03875345, 0.038650878, -0.0011094587, -0.03343096, 0.10414912, 0.04631001, 0.017945258, 0.24228784, 0.0786279, 0.1440498, -0.022561293, -0.024708737, 0.07448391, 0.00852354, 0.12237157, -0.023364449, 0.10199364, -0.13683611, 0.010672816, -0.020399282, -0.012063317, -0.13342455, -0.013110581, -0.06304827, 0.05204569, 0.12622729, 0.16802655, 0.058977146, 0.025931215, 0.101404354, -0.099197276, 0.021542355, -0.06191605, 0.083753124, -0.09738097, 0.0611426, 0.076327674, -0.0426606, 0.05941385, -0.06895268, -0.023217881, -0.0028627093, 0.0003323426, -0.014546323, -0.034490746, 0.04518132, -0.024893366, -0.103781186, -0.09992113, -0.10536554, 0.22531243, 0.10316553, 0.078136995, 0.032959122, -0.09410842, 0.014659591, 0.054900378, 0.062419713, -0.023696141, -0.06011299, -0.061752133, -0.08894764, 0.0035424524, 0.056002717, -0.116742425, 0.026043661, -0.0041589686, -0.050799433, -0.036528822, 0.00048394376, -0.10277846, 0.028661886, -0.04788547, -0.037825912, -0.06474288, 0.010309601, -0.058329012, -0.15830292, 0.12007922, -0.07722972, -0.06392398, 0.077204764, -0.014058996, 0.03509212, -0.006576848, -0.038848236, -0.10658701, 0.065806754, 0.015492526, -0.051329628, 0.031260114, 0.03327242, -0.0097976485, 0.070506856, 0.014163811, 0.060055897, -0.046923432, 0.11174438, -0.032491267, 0.00047489596, 0.015300688, 0.065017566, -0.023440693, 0.041410938, 0.10171786, -0.04687373, -0.22423105, 0.104433306, -0.0794909, -0.014901941, 0.08776465, 0.035899244, 0.050248176, 0.030196102, -0.03937591, 0.011945326, 0.0822849, -0.05071963, -0.032978944, 0.05935882, 0.09521365, -0.03529139, -0.11143633, 0.081833385, -0.15507849, 0.051950242, -0.0558839, 0.09054831, -0.03305431, -3.102722e-05, 0.040682353, 0.19181207, 0.21565293, -0.107674696, 0.07697597, -0.03690479, -0.06313608, 0.0637635, -0.11932271, -0.04521864, -0.21738215, -0.062114988, 0.00018058141, -0.07485718, 0.062259518, 0.056461375, 0.016591476, -0.0271988, 0.034679573, -0.003977424, 0.09314429, -0.087514214, -0.09378348, -0.08282675, -0.076428734, -0.029675221, -0.016181631, -0.023899067, 0.10555375, 0.11126945, -0.05903951, 0.13262665, 0.072341725, 0.040464323, -0.02687778, 0.07604602, 0.22990933, 0.08200625, -0.011745361, 0.12211991, 0.072816454, 0.022075677, 0.00040120466, -0.11973821, -0.12058325, 0.069173485, -0.0655341, 0.07880077, 0.04218447, -0.046944372, 0.044054154, 0.17933062, 0.005521739, 0.06577508, 0.12844941, -0.0051623355, -0.03472986, -0.040704746, 0.11316435, -0.07332734, -0.024987284, 0.02399521, 0.00846084, -0.050961304, 0.016871477, -0.07242808, 0.08045262, -0.040891867, 0.12863193, -0.015389612, -0.061047576, 0.1224527, -0.054113746, -0.118569806, -0.016626481, 0.036192846, 0.04606471, -0.04303381, -0.051503684, -0.015878964, -0.027857339, -0.07623961, 0.12535013, -0.03645601, -0.062242523, -0.017373096, 0.12032809, 0.052867793, -0.039032284, 0.15609866, 0.046680745, 0.18384323, 0.03265551, -0.14090937, 0.2235894, 0.06943156, 0.055434257, 0.010352217, 0.05414737, 0.016338868, -0.012148249, -0.06613205, 0.03141382, -0.02980041, 0.07835183, -0.008108651, -0.0014588246, -0.0411834, -0.13057357, -0.008116222, 0.07753679, -0.11863052, 0.12504235, -0.013961588, -0.1146899, 0.03120844, -0.13520429, 0.025842443, -0.059428703, 0.08809467, 0.09183654, -0.20596544, -0.01486969, 0.11765322, 0.014626115, 0.04964336, 0.014130057, 0.06307729, -0.104874074, 0.054218892, -0.07085784, 0.03179179, 0.0035183094, -0.12693796, -0.048676558, 0.04785541, -0.034909762, -0.061233763, -0.013921779, -0.0706041, -0.23113778, -0.26909918, -0.026724838, 0.023183009, 0.122792274, -0.09822034, -0.079224214, -0.02049677, -0.09941003, -0.026328122, 0.046769753, 0.018353375, -0.026094329, 0.0870792, 0.064304456, 0.0015691837, 0.041052785, -0.13071449, -0.04694864, -0.14359793, -0.010671667, 0.00023944287, -0.04619366, -0.025031148, -0.03320157, 0.05167951, -0.044136126, 0.041495267, 0.015843663, -0.020783287, 0.03770635, -0.026700059, 0.05490448, 0.1129705, -0.08766493, 0.065053, 0.078457266, 0.02336724, -0.0678136, -0.16921489, -0.046575464, -0.061108075, -0.06258201, 0.00016996684, -0.06608094, 0.015428394, -0.043920863, -0.05066554, 0.038678303, 0.03959436, 0.019787965, -0.047153436, 0.09135538, -0.008366455, 0.06611913, 0.18963712, 0.006405714, -0.03734454, -0.039083857, 0.042808577, -0.29473102, -0.04517081, -0.03327185, 0.032913547, -0.0159596, -0.19123805, -0.004168876, -0.049321678, 0.11959011, 0.02161979, 0.0073109847, 0.020607369, -0.029002666, -0.010654252, -0.04973172, -0.113047644, -0.06656944, 0.0017517324, -0.06659735, -0.0048891823, -0.06389974, 0.015388922, 0.024863753, -0.040457107, -0.07469653, -0.13637121, 0.006424571, -0.060439397, -0.049570415, -0.07976217, 0.04074958, -0.058016624, 0.17565577, 0.0846325, -0.1946054, 0.0057447897, -0.02199261, -0.08784893, 0.10182352, -0.046009738, -0.025394375, 0.001673827, 0.0073804017, 0.047330502, -0.107494466, 0.10740449, 0.012544629, -0.009802048, -0.014629753, 0.02829862, -0.0245464, 0.026904713, -0.068641216, -0.010007891, 0.009301233, -0.000785335, -0.061928164, -0.07791446, 0.11847957, 0.058133237, 0.03202113, -0.008295582, 0.02057814, -0.03756529, -0.00021539163, -0.16595171, 0.18159285, -0.09133784, -0.11037308, 0.014585572, -0.15136325, -0.0053437995, -0.032951746, -0.027655004, -0.022527728, -0.0022790192, 0.101798676, -0.060954362, 0.027911328, -0.2612917, 0.038396664, 0.06790414, 0.074113585, 0.013771814, -0.15986967, -0.12287217, -0.073954955, -0.131804, 0.0049900077, -0.015850866, -0.13091026, -0.14349447, 0.08066693, 0.23352157, 0.2530593, 0.061555833, -0.10454068, 0.07864729, -0.09042719, 0.11041005, -0.06658714, -0.07880724, 0.08135521, 0.12867887, 0.029301709, 0.034466676, 0.285715, 0.09787945, 0.057521947, -0.026659213, -0.051442213, -0.033880133, -0.07537426, -0.010905199, 0.031583585, -0.011234388, 0.07942516, -0.026539315, 0.17269364, 0.030072447, 0.025212606, 0.004525567, -0.04226312, 0.12508713, 0.012083992, -0.3328726, -0.092518866, -0.06058759, 0.0010392145, -0.0030941442, 0.012774728, -0.07180928, 0.035301007, -0.031936835, -0.006297293, -0.050113373, 0.03977208, -0.07481662, -0.1230977, -0.052579183, 0.038222816, -0.025054153, -0.14324103, -0.0025961825, 0.04432141, 0.10454567, 0.031571005, 0.0074016424, -0.06131877, -0.2577165, -0.10383859, -0.19896398, 0.012603537, -0.04427655, -0.002471355, 0.016751323, -0.18379922, -0.019008549, 0.022502182, 0.020135878, -0.028741475, 0.03578879, -0.008791731, 0.07942454, -0.092344515, 0.061258297, -0.0022083132, 0.04479793, 0.13305067, 0.0888732, -0.13292877, -0.15834723, 0.0371878, 0.054430272, -0.12723583, -0.061797526, -0.027916923, -0.04739229, -0.03278415, -0.036482766, -0.14197792, -0.036569662, -0.063882284, 0.06264915, 0.008084366, 0.029025283, -0.06055086, -0.02523919, -0.017692475, 0.09246983, -0.04514138, 0.02729274, -0.099076346, 0.019392231, 0.074011296, -0.09754163, -0.08490455, -0.09518055, 0.04583865, -0.01305541, -0.023142477, 0.07855028, 0.12814318, -0.07386451, -0.10299044, 0.021319607, 0.03125711, -0.013199837, 0.023754397, 0.020263407, -0.16071853, -0.15797032, -0.043199755, -0.10102695, -0.08743807, 0.11624549, 0.0263134, 0.041630745, -0.04325567, -0.0087257335, 0.059813622, 0.005230868, -0.02605093, -0.022143606, -0.06709867, -0.050584223, 0.06269491, 0.049584817, -0.10742545, 0.02848531, 0.108857796, -0.08768555, 0.010205028, -0.017183345, 0.08625117, -0.01968622, -0.15777735, -0.034242395, 0.0039962824, -0.0026191126, 0.03655777, -0.04174517, -0.105298914, 0.069194086, -0.046060584, -0.058718923, -0.097874135, 0.037998237, -0.029980501, -0.11520451, -0.05858114, 0.039964277, -0.006652863, -0.053217508, 0.05007601, -0.06049137, -0.13263734, -0.049894813, -0.011427204, -0.02190729, 0.19941537, 0.06684911, 0.22115451, 0.1718273, 0.011320168, -0.03168667, 0.054328546, 0.032008115, 0.044690613, -0.06878498, -0.074874885, 0.12918022, 0.026138024, -0.002257066, -0.018422822, -0.010229297, -0.00874602, -0.031888798, -0.06704643, -0.06018554, -0.13157462, 0.06129624, 0.0023940261, 0.069432855, 0.016018014, 0.042119164, -0.01630941, 0.052027673, 0.2296818, 0.1289591, 0.069247834, 0.21395475, 0.084314935, -0.034586888, 0.09181555, 0.030061575, -0.013784406, 0.036748763, -0.026785051, -0.07584603, -0.055560127, -0.010787266, 0.084565915, 0.080583975, 0.013246245, -0.028859414, -0.027661627, -0.03866651, -0.02511228, 0.13742952, 0.023408258, -0.06454797, 0.008237572, 0.15550178, 0.028660892, 0.078418195, 0.04839545, 0.07847467, -0.14286627, -0.047671296, -0.11586837, -0.0006864688, 0.122808225, 0.025794435, -0.10656327, 0.38719937, 0.08907826, 0.15258305, 0.006526455, -0.012750915, -0.0031507977, -0.025795871, 0.12608334, -0.048608683, 0.049687862, -0.03447844, -0.0136945145, 0.034485392, -0.10800671, -0.06670413, -0.15398845, -0.044813983, 0.17906225, 0.07486607, -0.09184367, -0.025864018, 0.0064043826, 0.04126193, 0.0033968177, 0.21539941, 0.027787406, -0.01739617, 0.06337084, -0.03945206, -0.0210642, -0.0049413936, 0.10642725, -0.10343103, 0.02630123, -0.077460624, 0.09682108, 0.08998523, -0.06718749, 0.05033372, 0.013982477, 0.044159114, 0.0049248883, -0.22632627, -0.09945578, -0.041576926, 0.00825074, 0.07168287, 0.037980728, -0.06104369, 0.05816445, -0.023604298, 0.046985622, -0.04728913, 0.036302105, -0.0061701005, -0.32060486, 0.040691026, -0.29066008, -0.042121466, 0.030458894, -0.049314957, -0.0397031, 0.13605303, 0.07970132, 0.17002025, 0.09506382, 0.015070615, -0.016225131, 0.03310989, -0.066014476, 0.15837306, -0.017376535, 0.10242963, 0.029724224, 0.017964536, -0.09387126, -0.012774599, 0.020977924, 0.10395441, -0.14851683, -0.001265144, -0.1894402, -0.14021057, -0.05305079, 0.04405822, -0.08638415, -0.07890465, -0.0371956, -0.036297984, 0.10678632, -0.1145583, -0.04780791, 0.088265635, -0.063546725, -0.04123201, 4.505174e-05, 0.047746506, -0.0069154473, 0.013174132, -0.16175213, 0.034827817, -0.074011035, 0.047536533, 0.053601094, 0.069555804, 0.08160418, -0.14171065, -0.04417539, -0.22483878, 0.0929696, 0.08277717, 0.063708715, -0.020030575, 0.00062963367, 0.02650081, 0.053725593, -0.06338732, 0.00045664865, 0.0045542023, 0.020387104, -0.100749016, -0.2917284, -0.27555507, -0.04402997, -0.049869157, 0.06847001, -0.03413351, 0.0062213694, 0.16119008, -0.17105252, 0.064472854, -0.06383396, 0.014094493, -0.07042698, -0.050551035, -0.05071652, 0.014436082, -0.017604016, 0.10300807, 0.0022172688, 0.06289784, 0.07253362, 0.011084292, -0.024244087, 0.13098839, 0.14962661, 0.10232031, -0.013771185, -0.04671048, 0.091287315, -0.17032582, -0.0053111226, 0.053425312, -0.055185415, 0.020543313, 0.007523517, 0.074415386, -0.015280867, 0.051632505, -0.063815564, -0.10320451, 0.083075956, 0.20688133, -0.056008056, -0.10091489, -0.011442511, 0.2304747, 0.023465136, -0.023892036, 0.017305622, 0.075989865, -0.09789671, 0.0055821133, -0.08493174, 0.11408323, 0.006885757, 0.012400218, -0.06280222, -0.010273052, -0.12005096, -0.042609565, -0.09536646, -0.054418687, 0.10405766, 0.082877345, 0.03285091, 0.039971426, 0.2452229, 0.17862296, 0.15949555, -0.0065845232, -0.07102573, -0.18159832, 0.13287427, -0.026349945, -0.02116399, 0.026116297, -0.00882807, 0.07459203, 0.04606874, -0.016954761, -0.09728528, 0.0012624533, 0.042485032, -0.000682906, 0.101701416, -0.0103963055, -0.03517596, 0.09921408, -0.0068750284, -0.12878051, 0.019351244, -0.08956925, 0.038157195, -0.07282695, -0.021721283, -0.104236126, 0.019514574, 0.089176595, 0.019322012, -0.10300196, 0.1561416, 0.14856078, -0.10875554, -0.008515842, 0.037348848, 0.0469025, -0.009368775, 0.0048217275, 0.009534, 0.013368454, 0.035056826, -0.012727732, -0.058054987, 0.14417255, 0.022044085, 0.05527938, -0.025951399, 0.044794314, 0.00793996, -0.036601674, 0.1549966, 0.0017772835, -0.08030162, 0.03936339, -0.011438336, -0.13447046, 0.027708262, -0.08439826, 0.063172445, 0.13415845, -0.07177829, -0.030794796, -0.19757523, 0.04088226, -0.14484067, -0.048782367, 0.014813117, -0.19719966, 0.04843597, -0.07649472, 0.015331508, 0.017109679, -0.25026152, 0.019220795, 0.023562199, 0.09133106, -0.030347276, -0.06891787, -0.014690655, -0.05848549, 0.10760307, 0.017033614, 0.125586, 0.102718964, 0.016437821, 0.060221266, -0.021171529, -0.06267374, 0.073090024, 0.17106038, -0.17810966, -0.14748889, 0.050910387, 0.07544442, 0.089255765, 0.023898365, -0.0020238692, -0.0036518262, 0.09279845, -0.060552914, -0.006989493, 0.057360534, -0.13386849, -0.17498276, 0.026355496, 0.08585489, 0.0788839, -0.063377015, 0.052263733, 0.027308365, -0.090599276, -0.023288779, -0.033725776, 0.046777967, 0.011607568, 0.082717694, 0.03741361, -0.079150654, -0.069527104, 0.057356883, -0.024296403, -0.009033495, 0.13741015, -0.08519296, -0.051387023, 0.027396193, -0.056227315, -0.052387785, 0.056671195, -0.00884132, -0.08452811, -0.04984769, -0.052979723, -0.12933601, 0.30936772, -0.13771063, -0.08713802, 0.031684376, -0.0020944178, -0.01886208, -0.082299374, -0.0092378035, -0.059156436, 0.023909027, 0.049114496, -0.06808507, 0.013834551, 0.077850476, 0.043852307, -0.15762383, -0.068160586, 0.03030848, -0.017925736, -0.0023080176, 0.03037448, -0.042835817, -0.15361047, 0.005158278, -0.095211856, -0.042963106, -0.04435515, 0.013185924, -0.0012040673, -0.008355123, 0.043725412, -0.0725247, 0.1014813, -0.011284014, -0.04981859, -0.0037955593, 0.030025378, 0.045570612, 0.0013164991, 0.2872558, 0.008403081, 0.18235934, 0.04280623, 0.08214573, 0.12131826, 0.01789066, 0.02608834, 0.010276859, 0.049101647, 0.15908706, -0.15089755, -0.048442557, 0.0025590202, 0.06691196, -0.055850822, 0.0078066336, 0.024413958, 0.046250895, 0.069230035, -0.2077689, 0.17052218, -0.0316224, -0.00043907814, -0.08672195, -0.021924756, 0.12660706, -0.047576804, -0.008887801, 0.041903213, -0.030850431, 0.09020592, -0.093154564, -0.09555556, -0.08679992, -0.116168655, 0.09467416, -0.18522504, -0.14567497, 0.044331476, -0.034931824, 0.12257779, 0.029008722, 0.025958506, -0.054194983, 0.089921996, -0.03903089, 0.058315143, -0.05776317, 0.020157838, 0.051039133, 0.031185506, 0.13567306, 0.03682801, -0.06320091, 0.012180521, 0.15441157, 0.020359261, -0.061035305, 0.06268272, 0.06817145, 0.01903348, 0.024879267, 0.0782763, 0.026921997, -0.041515008, -0.051782113, -0.054294568, 0.044998463, 0.034308515, 0.050015148, -0.10276577, 0.05899757, 0.06470881, 0.047948834, 0.055639926, -0.16222924, -0.06416133, 0.06438059, -0.048492517, 0.14305703, -0.0017134105, 0.14930785, 0.018177442, -0.09381658, -0.14907984, 0.14545332, -0.013825186, 0.08407346, -0.013815584, 0.06228023, 0.070746735, 0.008481895, 0.0026570112, -0.031466745, 0.040396154, 0.011723893, -0.095460385, -0.027476188, 0.115181506, 0.039466623, -0.013492927, 0.02970241, 0.0028666046, -0.010022204, -0.0073018866, -0.031635232, -0.025369244, 0.0891386, 0.023494571, -0.034770813, -0.027486486, 0.089073166, 0.027954154, -0.17926545, 0.018796042, -0.08066409, 0.05609661, -0.0075446237, 0.030991819, 0.042232342, -0.044489443, 0.055757716, 0.004500292, 0.02700035, 0.07690996, -0.024443287, 0.059121944, -0.014839986, -0.005021458, 0.06010547, 0.07362555, -0.018146293, -0.030075422, 0.08927023, 0.06501859, -0.031987812, -0.037340928, -0.17708445, 0.08248529, -0.049470052, -0.078903645, 0.008789757, 0.10025719, 0.008942708, 0.14291357, -0.03773602, 0.13047719, 0.18993454, 0.067010015, 0.1816758, -0.11033195, -0.06380311, -0.016655458, 0.044495177, -0.12021619, -0.025983077, -0.1177177, -0.2305889, -0.07279083, -0.047520302, -0.0026905255, -0.015631534, 0.009028975, 0.0102895945, -0.2856794, -0.10613633, -0.01287451, -0.036192812, -0.09050319, 0.07341995, -0.04261563, -0.02980096, 0.08066294, -0.14671266, -0.05015083, -0.0046090507, 0.08296676, -0.041011997, 0.009149045, 0.04458714, 0.103552386, -0.046055716, -0.00592998, -0.06463938, 0.25490272, 0.20193712, -0.082126014, -0.13411511, 0.013178403, 0.07698337, -0.010675319, -0.012515851, -0.057451002, 0.0068441546, -0.14199269, 0.0020547747, 0.031494457, -0.022147097, 0.036327377, 0.06131399, 0.0015567645, 0.016209807, 0.034751378, 0.2312773, 0.09745473, -0.013670516, 0.04287895, -0.062512964, -0.07292681, -0.029745111, 0.008067642, 0.043339208, 0.03137226, 0.11236899, 0.053417433, 0.066029966, 0.015848668, -0.06704155, -0.09463531, -0.0068626856, -0.03156142, -0.0062372535, 0.07020267, -0.03005755, -0.0303426, -0.004320373, -0.02436781, 0.033994835, -0.1017419, 0.024964567, -0.009331964, 0.044339903, -0.05216364, 0.017378671, 0.090063736, 0.062333234, 0.015087903, 0.011642446, 0.03594521, 0.041069403, 0.03867303, 0.03718409, 0.035179812, 0.013579563, 0.09590802, 0.02117349, -0.054496918, -0.26103893, -0.15809554, -0.0008540223, 0.054016992, 0.1630557, 0.10812216, -0.21483694, -0.009567178, 0.08981088, 0.059577372, -0.013187922, -0.006260666, -0.021417229, 0.02283402, 0.055400625, 0.034162987, 0.15695406, -0.031224173, 0.020651132, -0.014262585, -0.017632231, 0.0189705, 0.12697683, 0.07428968, -0.007673073, -0.04565045, -0.021445911, 0.1204397, -0.088889025, 0.21561155, 0.047987353, 0.042505816, -0.05615569, 0.077080816, -0.032551363, -0.073076874, -0.0032606109, 0.027254663, -0.033703834, 0.026743319, -0.13799083, -0.019740267, 0.002408559, 0.19367032, 0.1851387, -0.10282067, 0.113764144, 0.044720117, -0.058222968, 0.10778114, 0.02726951, 0.045383718, -0.06585608, -0.0062581757, -0.09739105, 0.0031897286, 0.14296, 0.052345544, -0.06477906, 0.092915215, -0.13183129, 0.0857683, -0.20700257, 0.06144297, -0.13694133, -0.16919617, 0.17470773, -0.054865953, -0.006106342, -0.047554035, -0.052339774, -0.15124387, 0.08654893, 0.05666481, -0.018295798, 0.0955644, -0.0047974433, 0.039216354, -0.07091872, -0.058363136, -0.016452119, -0.0007819532, -0.0003185625, -0.10020808, 0.029706316, 0.006386205, -0.051972933, -0.15022367, -0.06256276, -0.10211933, 0.04065891, 0.00863508, 0.0045501655, 0.038217444, 0.14602816, -0.03776583, 0.033768624, 0.05729542, 0.027693696, 0.047011074, -0.05334502, 0.05715325, -0.04289776, 0.0031950728, 0.023600651, 0.026170779, -0.006467316, 0.04015355, -0.004216986, -0.054088395, 0.062285192, 0.08844472, -0.016671149, -0.049684856, -0.02514188, 0.0050246366, -0.112618715, 0.055656645, -0.031174632, 0.06253646, -0.04854785, 0.0977716, 0.06840693, 0.14617115, -0.03717263, 0.04394961, -0.009039648, 0.07573405, -0.07201603, 0.006177246, -0.018539736, 0.008273997, 0.016526064, 0.01261937, 0.027476797, 0.0044547897, 0.020235393, 0.14863689, -0.0725315, -0.081553444, -0.009892018, -0.03127648, 0.07505318, -0.011942843, -0.1281554, 0.21554664, 0.1088227, 0.031247346, -0.03794947, -0.022791203, 0.10722621, 0.11029636, -0.082626976, -0.112362064, 0.036824934, -0.0076098326, -0.07767722, 0.20867047, 0.19077103, 0.061059974, -0.0032707006, 0.084860854, 0.1715268, -0.26858056, -0.062384915, 0.19418688, 0.29385123, -0.01835909, 0.063206226, 0.016439827, -0.058656964, -0.06714197, 0.06848532, -0.31527334, -0.3331566, -0.04527881, -0.040215146, -0.05017199, 0.01327018, -0.11387564, -0.083596155, 0.0026243567, -0.114855036, 0.0178977, -0.053022806, 0.054758813, -0.015307557, 0.0068631144, -0.04690036, 0.023120545, 0.0038591616, -0.0650275, -0.13871625, -0.07605143, 0.11707218, 0.015251302, 0.07582843, 0.107148886, -0.021990722, -0.049230177, 0.025741056, -0.07704089, 0.10153847

};


#endif
