#ifndef FC2_H
#define FC2_H
// Header file of the 9-th layer of the model - The type of the layer is fc


float fc2_w[256][25] = {
	0.015975062, 0.027552819, -0.009054296, -0.17821315, 0.14214203, 0.14386362, -0.04918214, 0.027644793, 0.18277344, -0.0056736013, 0.15832372, -0.17330627, 0.0037630135, 0.115903094, -0.01997251, 0.08456872, 0.07075529, 0.011987241, -0.11036693, -0.16680829, -0.0232184, 0.28857753, -0.14269878, 0.13495822, -0.15537773, -0.052407485, 0.0112337135, -0.08816492, -0.1549257, 0.14922474, 0.10966762, -0.16732657, 0.21629408, 0.01785488, -0.07539015, 0.12359039, 0.0023310904, 0.05361017, 0.085626036, 0.31996772, 0.020366134, 0.14533027, 0.03411693, -0.15795013, -0.2193715, 0.042326707, 0.18014923, -0.24049449, 0.02041842, -0.029983448, -0.012214931, -0.18018888, 0.03106382, 0.11782491, 0.0759696, -0.10858147, -0.064227805, -0.10224389, 0.13151656, 0.22170939, -0.112622485, 0.21350391, 0.05275879, -0.0615354, -0.35828805, 0.00041794695, 0.014331222, -0.12969467, -0.017288677, 0.08663708, 0.16762897, -0.26879078, 0.26234493, 0.23399992, 0.14493689, 0.12895283, 0.06343059, 0.00439103, 0.060077067, 0.12487793, -0.051976107, 0.006569025, -0.081639506, -0.14440691, 0.15170223, -0.15262695, 0.23986682, 0.17808117, -0.1203334, 0.13250843, 0.097542025, 0.14804024, 0.038218573, 0.11717506, 0.13903144, -0.03459702, 0.094336174, 0.0811813, -0.053831447, 0.4715937, 0.07327592, 0.03389577, -0.042215522, -0.057400808, 0.19280586, 0.024196772, -0.24288908, 0.059502512, 0.16996358, -0.038706314, 0.00896286, -0.009839021, 0.19412225, 0.18282233, -0.051128197, -0.05982482, 0.20273732, 0.07013712, -0.17570823, -0.11579135, 0.17824905, -0.064791344, 0.011637783, 0.011237735, -0.37502053, 0.1498821, -0.09855957, -0.016491119, 0.08878824, 0.110295795, 0.04232744, 0.08762579, -0.22359084, -0.050915744, -0.0007202824, 0.06823926, -0.08765395, 0.056572836, 0.064763725, -0.013384184, 0.19005696, 0.15216349, 0.11635235, 0.15454274, 0.083195746, 0.16497637, 0.2430817, -0.0064591896, -0.08759069, -0.10225501, -0.09061197, -0.14405456, 0.13841645, -0.017749304, 0.05738512, 0.024259524, -0.057052474, 0.1341756, 0.0945634, 0.011878402, -0.3891892, 0.19336331, -0.049092777, 0.0037070788, -0.1496321, -0.13555019, 0.024974642, 0.087593116, -0.09337135, 0.3187259, 0.059536595, -0.05961476, -0.0953344, -0.07921965, -0.056134194, -0.13012496, 0.0008138452, -0.031177469, 0.0067094164, -0.07555596, -0.1577629, 0.2659342, -0.092622764, -0.03161011, 0.033809885, 0.42417213, -0.50669926, -0.31805313, 0.09053573, 0.17352378, 0.1099081, 0.0033208898, 0.05300852, 0.02247626, -0.042623527, -0.25722647, 0.14667419, 0.19924049, -0.10404791, -0.12839171, 0.071565025, -0.07974306, -0.046807736, -0.14582595, 0.29171252, 0.015210097, -0.012497101, 0.024267394, 0.15160836, -0.075057246, -0.10637082, 0.32585904, 0.10999466, -0.08937228, 0.112611875, 0.12317757, 0.094883546, -0.008809006, -0.17120638, 0.017235719, 0.22206566, -0.04514883, 0.07616517, -0.171152, 0.037651498, -0.09516909, 0.18356058, 0.017343132, -0.063346095, 0.0015362462, -0.19922091, 0.197987, 0.165814, -0.033077784, 0.021347519, 0.2378941, -0.11959323, 0.0974465, 0.19177048, -0.06059509, -0.021949515, 0.19137625, 0.2082976, 0.16427197, -0.2959085, -0.18981452, -0.1527994, 0.3505701, -0.17977886, -0.20241943, -0.025200466, -0.06290148, -0.0071627637, 0.17167479, -0.18239711, 0.023394713, 0.11506094, 0.07186328, -0.123012826, -0.21912959, -0.22650412, -0.11722395, -0.16347355, -0.010319517, 0.18694015, -0.012571966, -0.04058851, 0.08630653, 0.0029849862, 0.07190845, -0.29818794, 0.0062643504, 0.20132004, -0.06415943, 0.109456904, 0.09986868, 0.00630695, 0.13926983, -0.109487936, 0.19427389, 0.14693707, -0.1257434, 0.19214302, 0.30508715, -0.16683438, -0.15323798, 0.3691132, 0.16988574, -0.09633206, 0.066775225, 0.0033499575, 0.044827975, 0.10445109, -0.11084963, -0.21412258, 0.3142207, 0.06270426, 0.23002067, -0.13538958, -0.16876686, 0.044587396, 0.16735257, 0.032207053, -0.08768708, 0.1605223, -0.010776942, 0.07782951, -0.016750675, 0.23618607, 0.050215397, 0.16318966, -0.06356986, 0.116862185, -0.002193325, 0.09797385, 0.034197535, 0.029130368, 0.18546246, -0.116147585, -0.09148403, 0.2437713, 0.23297673, -0.09317013, 0.070327446, -0.27284354, -0.001261656, -0.19501607, 0.060852468, 0.10618969, -0.14297049, -0.13300605, -0.07095304, 0.18701553, -0.041109316, -0.24362993, -0.031149475, 0.13175212, -0.16573696, 0.0644857, 0.028353496, 0.03378828, -0.25207558, -0.13907944, -0.07060637, 0.18355812, -0.09604711, -0.306936, 0.32980043, 0.17632188, 0.11595566, 0.01517255, -0.06992464, 0.16525155, -0.06251258, -0.20245977, 0.11908338, 0.20315635, 0.13788481, 0.21784884, -0.14776309, 0.34615126, -0.0475499, -0.102822654, -0.07400928, -0.024391739, -0.07804259, -0.1486861, 0.029611547, 0.13916196, -0.18545835, -0.104458794, -0.099591, 0.13724531, -0.08067379, -0.08365667, 0.111192785, 0.042639393, -0.106276594, 0.05629814, -0.09674123, 0.09808213, -0.0139752515, -0.07102384, -0.17681281, 0.25722244, -0.12517813, -0.047928147, 0.087786175, -0.0040912763, 0.0759604, 0.033526953, 0.11039429, -0.06497034, 0.11124649, 0.10899311, 0.113295205, 0.31418753, -0.30721065, -0.0566975, 0.11419739, 0.22602507, -0.18226762, -0.3273149, 0.019420631, 0.049349967, -0.059444163, -0.09987531, -0.02517559, 0.09413415, 0.05639072, 0.11976521, -0.15796727, 0.23816024, 0.17888416, 0.045922484, 0.023341035, -0.11359035, 0.008409617, -0.14608526, -0.19616947, 0.22386762, 0.070167296, 0.0578456, 0.27310544, -0.33232427, -0.048967507, 0.04808139, -0.05464258, -0.02487338, -0.012288986, 0.1979829, 0.009876999, -0.04378519, -0.14386706, -0.038902577, -0.12228783, 0.02720125, -0.16072635, -0.028157573, 0.1839711, 0.11825154, 0.1334308, -0.018621242, -0.09119372, 0.22280115, 0.06880833, 0.30584356, -0.1088722, -0.022311123, 0.2696856, 0.0715585, -0.2421869, -0.005053688, 0.22190268, -0.14636466, 0.055786386, 0.1349137, -0.025848353, -0.062148564, -0.2541055, -0.1565962, 0.016823996, -0.23944801, 0.07603997, -0.2933563, -0.109469146, -0.09892847, -0.045171835, 0.1449711, -0.0015841185, 0.081047155, 0.012092771, -0.077461414, 0.068124145, -0.06997754, 0.20601653, -0.09060967, 0.0058298595, -0.07006329, 0.12222616, 0.09848629, 0.15283777, -0.16605893, 0.02385442, 0.15166454, 0.05578923, -0.020031022, -0.26258096, -0.03688748, 0.16504231, 0.07876141, 0.23863813, 0.07015027, 0.026450338, 0.3011444, -0.083399355, 0.35201886, -0.19982158, -0.13392514, -0.09199642, 0.058045603, -0.23263754, -0.012087374, -0.13728434, 0.08147619, 0.016468318, -0.07510974, 0.10099162, 0.2722984, -0.052432742, -0.012969074, -0.16480881, 0.19688016, 0.2562502, -0.0025249945, 0.0062737563, -0.060415182, 0.030525347, -0.14414176, 0.07406204, 0.19885652, 0.029249426, 0.11272943, 0.0012309112, -0.33021677, -0.004881579, -0.092951566, 0.037566364, 0.088276796, -0.12605026, -0.1274178, 0.12923875, -0.1459433, -0.08722379, 0.14691794, 0.20547232, -0.07753946, -0.026983358, -0.06816863, -0.33046463, 0.08476083, -0.17872027, -0.20094657, 0.20073454, -0.10404976, 0.0010485972, -0.30257094, 0.008975904, 0.119776465, 0.14902437, 0.29572883, -0.10897098, -0.12776019, 0.07684387, -0.21260764, 0.07173557, -0.10318848, -0.031812716, -0.031011505, -0.0070251245, 0.13974589, -0.2400015, 0.07315724, 0.23368739, -0.011480695, -0.061468624, -0.24690314, -0.036620747, 0.027146531, -0.13794598, 0.23619966, 0.25996682, -0.1964601, 0.08331846, -0.08742395, 0.0074716103, 0.19477274, -0.11231407, 0.18684003, -0.026875293, 0.006121508, -0.024042308, -0.23383404, -0.14954053, 0.23336741, 0.04573145, -0.013442021, 0.23734741, 0.014062363, -0.1240819, 0.212726, -0.12893343, 0.034227297, 0.03874962, -0.022916542, 0.16772765, -0.027050309, -0.11138558, 0.1621009, 0.114832334, 0.18804097, -0.17016742, -0.13415544, 0.034873147, -0.11283802, -0.12537389, 0.06619931, 0.074361876, -0.15712866, -0.13892046, -0.022082124, -0.1779406, 0.14984395, 0.30562514, 0.040968996, 0.0832273, -0.09448297, -0.080199316, 0.0035247214, -0.11052576, -0.06348529, 0.04693133, -0.017615626, 0.042158853, -0.45509493, -0.18061398, -0.21649243, 0.0078455685, -0.024168918, -0.13722083, 0.13851327, -0.02944826, 0.057602484, -0.1246392, -0.31410807, -0.14332439, 0.13448368, -0.17848082, -0.013749268, 0.24870864, -0.18715452, -0.021417117, -0.0017316721, -0.14173591, 0.26784134, -0.1531582, -0.029387379, -0.0781778, -0.0530684, 0.12404097, -0.09428013, -0.02536591, 0.17996438, -0.13282788, -0.08448422, 0.17984475, -0.09239813, 0.13842255, 0.20520486, -0.05144371, -0.06304376, -0.08767147, -0.024584476, -0.024066221, 0.13696449, -0.22547281, 0.025578316, 0.18059142, 0.05340775, -0.32769608, -0.011711259, 0.012411257, -0.22196591, -0.14269625, -0.14504215, 0.15859741, -0.26248422, -0.08155126, 0.028762475, 0.15727356, 0.047790647, 0.05261192, 0.031703945, 0.056573723, -0.0920737, 0.05213629, -0.004580689, -0.31949612, 0.20060295, 0.017242663, 0.021856276, 0.09755033, 0.007542343, -0.25298092, 0.33326828, 0.038771793, 0.18907635, 0.11695953, 0.09546839, -0.2713196, 0.107709564, -0.16332133, 0.009956795, 0.23160848, -0.18615654, 0.104822986, 0.22302379, -0.07987621, -0.0073648924, 0.04143195, 0.17351367, 0.10176008, -0.25143299, -0.026270976, -0.113287956, 0.0019121208, -0.10080703, -0.14752689, 0.11300577, 0.045660615, -0.18089674, -0.08022405, -0.0027587733, 0.07134292, 0.3577825, 0.068056434, -0.060907893, -0.05515223, 0.017449226, -0.23660164, 0.055391405, 0.10301781, 0.12037263, -0.1272665, -0.10754026, 0.20777884, -0.13955674, -0.18260808, 0.073663935, 0.08587861, 0.06183793, -0.07393228, -0.018014783, 0.06117363, 0.017077047, -0.26180297, 0.06409704, 0.07185187, -0.032387894, 0.14499433, 0.077113785, 0.061793264, -0.0056366995, 0.25676534, -0.2558234, 0.2610481, 0.10139826, -0.08363347, -0.023911705, -0.18947504, 0.2537851, -0.03331738, -0.20210265, -0.075035356, 0.12994307, 0.15903255, -0.18913399, -0.09866894, 0.11272769, -0.14671698, -0.2622709, 0.14524086, -0.03541875, 0.02905033, 0.30824408, -0.15139878, 0.29924116, -0.3020889, 0.03456995, -0.04520615, -0.2177269, -0.1505314, -0.053735755, -0.3535923, 0.13457943, 0.11532013, -0.15556636, 0.11063168, 0.029478386, 0.20228612, 0.092285275, 0.10117768, 0.10469368, 0.011710855, -0.01574, -0.18323058, -0.05073564, 0.0634922, -0.051496975, -0.10390893, -0.082582474, -0.08320588, 0.092742, -0.117032826, 0.090021044, -0.044251494, -0.14802015, 0.14521553, -0.06294474, -0.17816132, -0.21254893, 0.058250964, -0.09640913, 0.0911049, 0.10860306, -0.26959693, 0.15225881, 0.033678602, -0.15598471, 0.23409562, -0.08002325, 0.10240783, 0.0185161, -0.22451915, -0.51221037, 0.07198161, 0.123556785, -0.047466084, -0.07684264, 0.24539949, -0.14227767, 0.07644741, -0.23485138, 0.070348576, 0.16166325, -0.023574721, 0.097668886, 0.09158278, -0.22286, -0.23619671, 0.0002556147, 0.08457041, 0.011843013, 0.1081033, -0.035928775, 0.21826227, -0.25839952, -0.07850693, 0.029943338, 0.2769317, 0.10604773, -0.0010177568, 0.2037678, 0.14342909, -0.042237084, 0.03764583, 0.21192706, -0.20158562, 0.16001445, -0.17389227, -0.034314442, 0.12752254, -0.027266826, 0.039396256, -0.013399402, -0.030631933, 0.050962485, 0.055014294, 0.27835226, -0.06251592, 0.1244816, -0.14579096, 0.13892877, -0.37958908, 0.3718558, -0.16103648, 0.14853299, 0.15139914, -0.1440112, 0.07413082, -0.052782953, -0.16785845, 0.21101998, 0.111854516, -0.026256457, -0.043520316, 0.18151364, 0.03491532, -0.1381919, 0.16841432, -0.027104262, -0.034077484, -0.02254869, -0.16260858, -0.062163346, -0.17954388, -0.14423218, 0.28820935, 0.12600185, -0.001920896, 0.05178209, -0.2974927, -0.07849543, 0.029732842, 0.08035158, -0.0904667, 0.029646536, 0.055031072, 0.02562253, 0.11628819, 0.07056978, -0.28640506, 0.07863343, 0.3668461, -0.23314145, -0.06098984, -0.07923606, -0.053745747, 0.04641659, -0.07371722, 0.13313363, 0.10801111, -0.19724464, 0.14581455, -0.46436667, -0.03340556, -0.1680693, 0.019537479, -0.03344314, 0.24634601, -0.071809515, 0.034217145, -0.2311622, 0.122137494, 0.112040095, -0.024733094, 0.14731391, -0.22386655, 0.03358208, -0.3356499, -0.12806669, 0.16545248, 0.015339629, -0.19434051, 0.33515897, 0.11869035, -0.0674053, -0.095014274, -0.03590672, -0.110777, 0.15608412, 0.03688348, -0.025132032, -0.06373948, 0.05717311, 0.13135485, -0.15071233, -0.05373612, 0.111675255, -0.19338551, 0.14734732, 0.105456516, -0.12787117, -0.039812554, 0.10779725, 0.18821718, -0.1572679, -0.07981539, -0.2448971, 0.22060788, -0.0043542045, 0.19855829, -0.109959595, 0.2250799, 0.2851599, -0.01706993, -0.013296134, -0.1079326, 0.09452455, -0.049737822, -0.05849362, -0.04497174, 0.13281111, -0.11766136, -0.13910116, 0.046770986, -0.2780081, 0.026525524, 0.051145293, 0.35322067, 0.24367504, 0.053608675, -0.020548202, 0.113774754, -0.15936391, -0.24719164, 0.08976392, 0.46120718, -0.35864213, -0.24449024, 0.10855452, -0.17720789, -0.04633353, 0.19389719, -0.1521587, -0.21842147, 0.09679241, -0.19912827, -0.22866268, 0.021534076, -0.22795433, -0.23894082, 0.098397404, 0.078669176, -0.14510904, -0.03899449, 0.03920085, -0.018357303, 0.29900306, 0.14622657, -0.010018029, -0.070360765, 0.20199755, -0.23727387, -0.029074669, -0.28670308, 0.17335044, 0.15926807, -0.04398054, -0.21285276, 0.08438453, 0.05121797, 0.11057773, 0.111905284, 0.197915, -0.09547415, -0.07253806, -0.03477542, -0.10439903, 0.026439536, -0.12397761, 0.15166637, 0.19074588, 0.22315457, -0.17366832, -0.23221017, -0.14608248, -0.23731022, -0.22092591, 0.04065445, -0.13240975, 0.036398027, 0.0981771, -0.16510178, 0.10037076, -0.07806523, -0.09913074, -0.07636526, 0.2102853, 0.19907391, 0.018283466, 0.17840612, -0.05580122, -0.07348115, -0.19148128, -0.059565835, 0.07352036, -0.0062439125, 0.022623837, 0.0021641492, -0.12756628, -0.36390054, -0.02280121, 0.24162252, -0.038304262, -0.17422341, -0.09248478, -0.057941988, 0.07104621, -0.0041241907, -0.09159635, -0.010298159, -0.016521161, -0.15588994, 0.14197281, -0.5132383, 0.21952254, 0.09622174, -0.05550872, -0.23368296, -0.22346894, -0.06332348, -0.0058290586, 0.13720258, 0.053833947, 0.041697662, -0.13993695, -0.12881586, 0.059651967, 0.043351877, 0.074192435, 0.06375338, -0.23483543, 0.043993756, -0.102149375, 0.0067068567, -0.04368604, -0.13652526, -0.15165228, 0.12938283, 0.11559186, -0.091970526, -0.036856335, 0.011477724, 0.18497306, 0.069702536, 0.14464547, 0.157656, 0.049892828, 0.14764546, -0.32561982, 0.33357248, -0.13377321, -0.051140957, 0.09958674, -0.15745878, -0.07337337, 0.020428643, 0.17333467, -0.17895785, 0.038524162, 0.052456643, 0.0010372474, -0.057708472, 0.16344354, -0.08619496, -0.07190473, -0.12334506, -0.02372211, -0.1265216, -0.036418732, 0.014563185, 0.10321551, 0.36428723, -0.13159813, -0.05664787, -0.025522543, -0.1777965, -0.20657845, 0.26800436, 0.22059885, -0.14492708, -0.015303149, 0.16137467, 0.12712651, 0.0070568277, 0.15685838, -0.16704702, 0.011987354, 0.08708685, 0.2994731, 0.07996703, -0.2226735, -0.07145616, -0.30481476, 0.10259279, -0.22677267, -0.14068975, 0.16354947, -0.039640345, -0.017361874, -0.053358357, -0.08280647, 0.15485255, 0.24258682, 0.0641108, 0.051210895, -0.19469938, 0.03174852, -0.08928479, -0.008474436, 0.17679988, -0.18217976, -0.15221919, 0.10677455, 0.39970058, 0.02227989, 0.01540964, -0.11010232, -0.007860149, 0.110388234, 0.031856123, 0.017158754, -0.048732106, -0.010909853, -0.14331067, 0.04084617, 0.19304569, -0.004309919, 0.21959282, -0.14603238, 0.21417384, -0.04222668, 0.0012822088, -0.026839228, 0.22002701, -0.31097424, 0.21864581, -0.10980108, 0.038720485, 0.07759075, 0.30050382, -0.058386907, 0.0053045796, 0.24232857, 0.050546147, -0.1306039, 0.051475346, -0.0798873, -0.012724893, 0.0226423, 0.08614378, -0.3439735, 0.040071707, 0.317227, -0.03218968, 0.10603271, 0.0519779, -0.11442522, 0.08301052, 0.083304346, -0.16360117, 0.08621999, 0.0850626, -0.12259441, -0.37746122, 0.35792217, 0.28349042, -0.25034425, 0.23882128, 0.087936416, 0.086067446, 0.017801678, -0.02156465, 0.025929727, 0.17375015, -0.15904106, 0.18915333, -0.1846918, 0.18960585, -0.027444134, 0.043015055, -0.07057298, -0.124053694, 0.33, -0.16843395, -0.081952855, 0.029489696, -0.03490815, 0.07810435, -0.12376509, -0.02799539, 0.15979253, 0.057296813, 0.0018630698, 0.14652437, 0.18971178, 0.052048277, -0.051996298, 0.11853735, 0.15328842, -0.11550621, -0.015506331, 0.035724282, -0.14028177, 0.008952055, 0.12597966, 0.009049533, 0.0132262185, -0.15911195, 0.21397863, 0.046866417, 0.026259402, 0.07665446, 0.09538386, 0.2948639, -0.27468312, 0.08110834, 0.069829956, 0.1377656, 0.1073082, -0.04342573, -0.026512997, 0.14101402, -0.28618738, 0.044848036, 0.15680975, -0.2982853, 0.12554349, 0.09590212, -0.0107543785, -0.12098238, 0.03858509, -0.15029427, 0.2541829, 0.15134834, 0.049753387, -0.07686729, 0.2200731, 0.06436853, 0.020802964, 0.19606155, -0.10034505, -0.06773354, -0.16794418, -0.16396932, -0.0073684575, 0.06536236, -0.17309004, 0.12651116, 0.096714795, -0.08780587, -0.013052472, 0.011255322, -0.20831361, -0.07787144, 0.13098992, 0.024937421, 0.025452586, -0.14848979, 0.07653159, -0.026537526, 0.052743193, 0.0805997, -0.09934313, 0.256818, -0.06187329, -0.030545296, -0.016595155, 0.012106552, -0.060425688, -0.38137442, -0.21711725, 0.055011936, -0.36901036, -0.16873991, -0.07649995, 0.023090284, 0.1597764, 0.2011197, 0.07799717, -0.024587924, -0.2454823, -0.046270207, 0.24136843, -0.31289527, 0.10467326, -0.09963958, -0.06898952, 0.16005959, 0.038160164, -0.23349395, 0.23807125, 0.014159025, -0.17050858, 0.050698448, 0.040813245, -0.056347225, -0.060619965, -0.08966559, 0.018542713, -0.07185114, 0.25726914, 0.09375142, -0.2788859, 0.003512303, -0.09328254, 0.18591769, 0.07637494, 0.016660245, 0.329114, -0.08709186, 0.079477765, 0.28957605, -0.2921609, 0.031160444, 0.31837907, 0.08076311, -0.09415553, 0.057013653, -0.06653628, -0.23824963, -0.19791314, -0.24378611, -0.037710797, 0.12660995, 0.03494788, 0.16787195, 0.13415265, 0.3187883, 0.19582759, 0.12426851, -0.09800926, 8.202101e-05, 0.17060255, -0.07956018, -0.062690586, 0.03324391, 0.045823473, -0.02805771, -0.029660963, 0.20789221, 0.36229816, -0.11233894, -0.020715961, 0.2215703, -0.04467166, -0.06525357, -0.100816846, -0.16911426, 0.24660346, -0.13686343, 0.34093207, -0.014559693, 0.1063191, 0.04413115, -0.067764826, 0.007275956, 0.012144059, 0.18199332, 0.16519307, 0.19723171, -0.0008952852, 0.22205189, -0.011991045, 0.43333825, 0.08064401, -0.15815115, 0.0696185, 0.011306733, 0.2074118, 0.009915653, -0.0095724305, -0.07622254, -0.028261837, 0.05989598, 0.18567558, 0.11432208, -0.008202347, -0.035656422, -0.14894947, -0.14966188, -0.0634542, 0.03673045, 0.16691378, -0.24223764, -0.037368406, -0.09896285, 0.022948414, 0.14232388, -0.01595831, 0.004849664, 0.18775612, 0.23188551, -0.28795758, -0.18510623, -0.037789032, -0.12527928, -0.0012922635, -0.007830426, 0.14290477, -0.18529901, -0.029273905, 0.13933955, -0.29172635, 0.08578919, -0.03473505, 0.0935751, -0.19475459, 0.029778125, 0.05970894, -0.014120605, 0.06334848, 0.1962627, -0.023446128, 0.05821356, -0.103603564, 0.10090283, 0.24319862, 0.14208275, -0.09298069, -0.022074098, 0.07610005, -0.12003024, -0.23830032, 0.121917695, 0.27449897, -0.24176483, 0.15443285, -0.30081567, 0.05572203, -0.04949214, -0.08777162, 0.024661532, 0.010414246, -0.015497256, -0.14817415, 0.021676263, 0.024308052, -0.0436574, -0.1670803, -0.35285142, 0.17983598, 0.34226686, 0.20527491, 0.022045584, -0.02327573, 0.006152645, 0.0006360642, -0.095191926, 0.010503998, 0.22484481, -0.08962576, -0.12925711, -0.51161176, -0.062048156, 0.08316625, -0.12673603, 0.0070056454, 0.07086665, -0.10440236, -0.3610533, 0.14424624, -0.21225154, 0.12254958, -0.27350828, 0.044918407, 0.41179258, -0.032697346, 0.16124451, -0.10326696, -0.03759192, 0.11656039, -0.1140035, 0.09560315, 0.11019904, -0.17120677, -0.11582288, 0.13309291, -0.016441526, -0.037218347, 0.07826769, -0.07353682, -0.023435855, 0.14914152, -0.14913945, -0.19494973, -0.01955695, 0.110776156, 0.15854052, 0.0922755, 0.13244946, 0.23428278, -0.093701534, -0.062985614, 0.12722802, -0.1500088, -0.12379261, -0.13432537, -0.06882463, -0.0062005725, -0.12946467, -0.03253194, 0.41746378, 0.13214225, 0.13365257, 0.16428305, -0.09138842, -0.117671885, 0.13403669, -0.061892122, 0.024156341, -0.14467302, -0.12405439, 0.112353705, -0.057577085, 0.16662186, 0.10507257, -0.16231628, 0.0819912, 0.15291472, 0.1791672, -0.033681635, -0.06815758, 0.12636335, 0.04767292, -0.011961558, 0.18958347, 0.01375698, 0.17282848, 0.06266037, -0.035493363, -0.034976576, -0.19990508, -0.012333839, -0.17735775, -0.07295271, -0.044611365, -0.100992724, 0.15224586, -0.09957823, 0.037044764, -0.02982785, 0.0317276, -0.03524054, 0.021151887, 0.2777116, 0.24343531, -0.16534057, 0.3225818, -0.193247, 0.06839309, -0.11295165, 0.18887356, -0.016744886, 0.06218393, -0.09283944, 0.15231457, -0.008230444, 0.08143873, 0.17418517, 0.018292641, 0.17568064, 0.13588113, -0.2851565, -0.008092948, 0.06343095, 0.009562638, 0.013159001, -0.08907379, -0.12771259, -0.20039715, 0.028643334, 0.104956694, -0.27357584, 0.16209985, -0.12493316, -0.119473055, -0.012761268, 0.08136198, -0.18701832, -0.061968748, 0.104447074, -0.007416457, -0.160722, 0.063523285, -0.010317678, 0.15571032, -0.00051356695, -0.17428344, 0.073748715, 0.109037474, -0.24922365, -0.1187623, 0.26767305, 0.031392787, 0.019800166, 0.017123044, -0.047744635, 0.07207977, -0.26557112, 0.007116792, 0.0959374, -0.15626097, 0.07906631, 0.034026854, 0.00051085645, 0.07613684, 0.062166464, 0.20735896, 0.2113107, -0.12802127, -0.07786226, 0.12943025, 0.02783069, 0.12279159, 0.13495629, -0.1573204, -0.024719328, -0.009217363, 0.058035407, 0.009711695, -0.11551253, -0.31326106, 0.09807402, -0.09832831, 0.045538448, -0.25272444, 0.2783114, -0.015894892, 0.037478946, -0.084851906, -0.24305533, 0.006747163, 0.08863963, -0.19962144, 0.009593107, -0.05062221, 0.099513754, 0.050835863, 0.16126038, 0.049193196, -0.047893614, 0.1458706, -0.30847687, 0.05299191, -0.11412857, -0.08849788, -0.1703938, 0.047621764, 0.14456028, -0.0837655, -0.07376029, 0.4009507, -0.20512663, -0.09204874, 0.15234576, 0.07274594, -0.07794124, 0.21887311, 0.0050215996, 0.13772775, -0.1652858, 0.005909669, 0.22088768, 0.045645677, 0.10677319, 0.0048960643, -0.025970079, -0.18420225, 0.07091818, 0.22150171, 0.06321748, 0.050736755, 0.15740013, -0.1438826, -0.24445955, -0.04616799, 0.20343496, 0.04294356, 0.056626383, -0.21596986, 0.033112437, -0.041468598, -0.12457252, 0.06963652, -0.107095286, 0.19475265, -0.0041372655, -0.1115497, -0.04188075, -0.1919392, -0.06886948, 0.26012382, 0.08612658, -0.14593114, -0.13042392, -0.11563528, -0.06317957, 0.018416971, -0.17690358, 0.2515257, -0.17616951, 0.0009621633, -0.29216984, -0.1559621, 0.27713528, -0.077728264, -0.15686664, 0.011800121, 0.020834502, -0.070646994, -0.08592921, 0.082513735, 0.2812388, 0.12408493, 0.02736198, -0.06080398, -0.080142185, 0.122254886, -0.12503688, 0.11033361, 0.04847089, -0.11145452, 0.035684012, 0.020961124, 0.146121, -0.27536678, 0.35620812, -0.04133286, 0.039442744, 0.04024413, 0.041116737, -0.056142434, -0.05473815, 0.22696804, 0.012692817, -0.0046898993, -0.0020767972, 0.13992444, 0.11162495, 0.004282935, -0.18177348, 0.04928343, 0.03565631, 0.11666027, -0.0017523459, 0.071569204, -0.060317412, 0.18117104, -0.04519382, 0.09295673, -0.098114446, -0.005805745, 0.21286844, 0.1379344, -0.14243014, 0.042395085, 0.17084809, 0.07352143, -0.14523615, -0.15459278, -0.07301443, 0.091812186, -0.13840306, -0.092407204, 0.24411128, 0.22826602, 0.029464958, -0.20633319, -0.16217345, -0.24896951, -0.066274226, 0.07879226, -0.029555473, 0.22495237, -0.41828266, 0.20897287, 0.06651113, 0.08967358, -0.12423633, 0.18221585, -0.13838376, -0.10276854, 0.056292698, 0.09446594, -0.09650913, 0.123950385, -0.0017741323, 0.013509433, 0.037882227, -0.14326064, 0.09085306, 0.15572245, 0.23107654, 0.086377144, 0.015226329, 0.081365414, -0.17195833, -0.125023, 0.07794737, 0.17291525, -0.08930824, -0.025796087, -0.2466792, 0.1909453, -0.115487754, -0.087582946, 0.20433664, -0.10527405, 0.010490327, 0.06658533, 0.06316442, -0.082997404, -0.24521151, -0.03189814, -0.14013216, 0.11878841, 0.06420192, 0.060997885, 0.10574835, -0.090546876, -0.088541076, 0.121229805, -0.008609738, -0.08716592, 0.01895108, 0.24687429, -0.13600598, -0.07392461, 0.20492521, -0.15462823, -0.120605625, 0.023759156, 0.022523874, 0.061696593, 0.06864908, 0.02306491, 0.014461041, -0.21013975, 0.12534803, -0.2913062, 0.034069903, 0.24775806, -0.023186127, 0.17116815, -0.015559471, 0.035499353, 0.049775183, -0.026600065, 0.029317124, 0.2683328, 0.13458191, -0.19159026, -0.42762315, 0.15295169, -0.023091279, -0.016036445, 0.013088693, -0.11515326, 0.055118676, 0.13576292, 0.045758512, -0.043148775, 0.013064489, 0.055710845, -0.27458185, 0.044213872, -0.02640128, 0.21407357, 0.08249958, -0.007405156, -0.079743125, 0.0575112, -0.010943103, -0.124655336, 0.010434366, 0.1693388, -0.23548724, 0.150407, -0.15959935, -0.054446023, -0.1009003, 0.11574235, -0.22184841, -0.07336679, -0.047578737, -0.070883006, -0.2674519, 0.03562039, 0.00018229058, 0.04599226, -0.06628592, -0.030987373, -0.08196109, -0.020327521, -0.15161714, -0.16840246, -0.006703829, 0.14792557, -0.2102632, -0.1037492, -0.16913868, 0.25035328, 0.2968317, 0.060637675, 0.15042755, 0.017911611, 0.098138586, -0.08812161, 0.16597925, 0.09119329, -0.10812369, 0.020490257, -0.13811044, 0.14958881, 0.28389382, 0.00037882692, -0.2287782, 0.19162709, 0.0726669, -0.019694077, 0.08978635, 0.09084472, -0.053515676, -0.09100719, -0.18088941, 0.2618079, -0.137517, 0.51754075, 0.17991094, -0.21786673, -0.034343064, 0.055949744, -0.011073571, 0.15449655, 0.00023414145, 0.07385864, 0.12609561, -0.26359165, 0.08831297, -0.12409844, -0.031978868, 0.032859694, 0.3838487, 0.23791909, -0.058023833, -0.10045916, -0.030049417, 0.029947657, -0.015160419, 0.29863864, 0.041798335, -0.24242225, -0.23297347, -0.21941769, 0.10414732, -0.005715359, -0.20524338, -0.073538534, 0.22019082, -0.08196945, -0.017734312, 0.026109815, 0.059929296, -0.10213874, 0.064800225, -0.25387123, -0.11793784, 0.12131324, -0.1741325, 0.30098215, 0.25758323, 0.036600746, 0.1023713, -0.1150368, 0.13857426, -0.35230395, -0.14437982, 0.12791395, 0.22296713, -0.18740295, -0.10902615, 0.0062845647, 0.17046325, -0.04473071, 0.13696584, -0.1314713, -0.042812746, 0.09240809, 0.01931415, -0.15803064, -0.06463837, 0.14472449, 0.053307574, 0.122211196, 0.16661385, 0.113606796, 0.03943707, 0.29960537, 0.08445334, 0.27697057, -0.00934033, -0.05565299, -0.34188765, 0.008486027, 0.0700818, 0.1133899, 0.0062168287, -0.13774511, 0.12339636, -0.101789, -0.028505385, -0.14703883, -0.2306528, -0.29212075, 0.26003793, -0.031381574, -0.19478653, 0.26503634, 0.054696463, 0.08088717, 0.03850152, 0.00958182, 0.18687351, -0.1380776, 0.0027495774, -0.14725684, -0.19684179, 0.42861924, -0.005632203, 0.06704035, 0.09797981, -0.03935052, -0.062267557, -0.0607382, -0.14478979, 0.13418108, 0.11511108, -0.12370375, 0.15832959, -0.2548731, 0.070555426, 0.19226255, 0.09673627, -0.049668826, -0.087703995, 0.040977467, -0.002926873, -0.21918964, 0.004051391, 0.1505994, 0.052351423, -0.22115411, -0.31303903, -0.1778118, 0.03689517, 0.055149466, -0.024683725, -0.17427239, -0.15419327, 0.0676424, 0.008333958, -0.14480755, 0.10769514, 0.15423027, -0.09902859, -0.22614627, 0.032390486, -0.12449313, -0.09625288, 0.014306648, -0.05282211, 0.016329952, 0.07946755, -0.3163971, -0.19492063, -0.122077964, 0.36878192, 0.1869493, -0.099903084, -0.16932197, 0.2558421, -0.1568828, 0.034202512, -0.011683104, 0.054149702, 0.095794514, 0.2050674, -0.15956965, 0.15096904, -0.13075659, -0.20130196, 0.06758029, -0.1394095, -0.14608273, 0.047867067, 0.06438652, -0.12576598, 0.015626503, -0.30574867, -0.0018779952, 0.19654398, 0.063129164, -0.19482622, -0.12680426, -0.073053524, -0.0015469058, 0.038125023, -0.085974015, -0.060677476, 0.12415528, -0.12813823, -0.21159361, 0.17695898, -0.0029924086, -0.10723262, -0.08113505, -0.005273079, -0.33670023, -0.08350476, -0.07414686, 0.025107997, 0.094469, 0.23429415, -0.23963332, -0.17969231, -0.1824581, 0.09600285, 0.31566483, 0.21812916, -0.18888567, -0.12690641, 0.100596525, -0.07092554, 0.024742415, 0.12247262, -0.048244614, 0.0471392, -0.0747479, -0.35082126, -0.12721471, -0.18001445, 0.083913386, -0.0049144547, -0.047182772, 0.11241695, 0.05222878, 0.23841867, 0.20457064, -0.05842455, 0.13608986, 0.17742099, -0.4753953, -0.19549818, -0.09801145, -0.06029928, 0.16163124, 0.0092809135, 0.07505315, 0.06997746, 0.17726219, -0.18065046, 0.23532191, 0.15827279, 0.07814573, 0.24908009, -0.19567823, -0.016346738, -0.26852223, -0.0060693864, -0.06873325, -0.0007446328, 0.04724765, -0.08149454, 0.11782236, -0.118865855, -0.08088297, 0.20056769, 0.24211235, 0.14829698, 0.082690604, -0.15569416, 0.088417225, -0.034730762, 0.038887378, 0.08681604, -0.031084573, 0.006971246, -0.021033553, 0.20341955, -0.15039077, 0.014583948, 0.056442507, 0.09367808, 0.2723763, -0.035212263, -0.13771749, -0.03269605, -0.013948793, 0.103765324, 0.271776, -0.0759065, 0.00068325695, 0.13914588, -0.09927346, -0.24884191, 0.0044434755, -0.0830322, 0.09916444, -0.15814123, -0.111299805, 0.15513977, 0.07351707, -0.2350061, -0.21941657, -0.03947214, 0.09142504, -0.04436153, 0.036781836, -0.16981749, -0.09549476, -0.09998447, 0.032806385, 0.022131195, -0.100692295, -0.27990893, 0.4527932, 0.007654528, -0.17972419, -0.013918469, -0.07257413, -0.021519838, 0.031318482, 0.08758736, -0.106334984, -0.0066207554, -0.17899875, -0.022406416, -0.018662283, -0.1625762, 0.3129691, 0.15163478, -0.1139097, -0.07699828, 0.047502413, 0.19146143, 0.03634388, -0.102202594, 0.23655422, 0.15114883, 0.01022748, 0.23581144, 0.09931969, 0.09160669, -0.11913648, -0.15170231, -0.0019413596, -0.079950646, 0.008031418, -0.20746185, -0.005543783, -0.009121033, 0.04134918, 0.20087239, -0.2251677, -0.0930411, 0.024857374, 0.12114752, -0.29459336, -0.2097751, 0.1365107, 0.06762569, -0.004373446, 0.12055067, -0.060509685, -0.050084285, -0.21130967, 0.05204078, -0.41277623, -0.23914123, 0.18746592, -0.084471196, -0.18418562, -0.12439992, 0.030600833, 0.15437402, 0.14196573, -0.12906611, -0.028768232, 0.093407445, -0.27199316, -0.11531558, 0.111384585, 0.25019568, -0.04034227, 0.10790957, 0.05099825, -0.15733434, -0.07184418, -0.26181576, 0.15038742, 0.035800524, 0.030136574, -0.21993755, 0.116064526, 0.12571095, -0.2574186, 0.26737756, 0.10409068, -0.0925691, 0.015658032, -0.24878214, -0.38675997, 0.09504957, -0.4255709, 0.137864, 0.066229135, -0.16600032, 0.116499886, 0.031463124, 0.14048098, -0.004374408, 0.14325719, 0.34156984, 0.050822, 0.020792937, -0.0016005675, -0.082267374, 0.2793443, -0.23451239, 0.19375037, -0.28015283, -0.012264002, 0.03183375, -0.14092778, -0.09903503, -0.0133401975, -0.23697358, 0.16447902, 0.071408324, -0.049864292, 0.19938284, -0.056955475, 0.095643975, 0.13952577, -0.006659321, -0.04872576, -0.015900187, 0.15581611, -0.03454494, -0.12630036, -0.17673147, 0.20565869, 0.27111164, -0.18086953, 0.15256768, -0.018619463, -0.12670487, -0.23673555, -0.13238654, -0.12650248, 0.18005426, 0.09034268, -0.07025026, 0.35949978, -0.24899893, 0.0801175, 0.2152826, 0.059306145, -0.07638998, -0.3074757, -0.17272414, -0.08375308, -0.4378338, -0.2392683, -0.32021824, 0.008068417, 0.37258846, -0.062601365, 0.08460402, 0.026656436, 0.14482181, 0.008552464, -0.17328459, -0.07212613, 0.09871598, 0.21767572, 0.19053361, -0.20289485, 0.21128507, -0.1547016, -0.0072049215, 0.040200084, 0.050927565, 0.08415018, -0.057628613, -0.024741584, -0.08673719, -0.09011921, -0.04554054, -0.013831549, 0.35212418, -0.06623321, -0.073227674, 0.16231623, 0.19992764, 0.04211109, 0.06523682, -0.01136745, 0.16632195, -0.050429616, -0.13623355, -0.09663326, -0.020315902, -0.1895665, 0.13922748, 0.013357144, -0.14717482, 0.28184116, 0.16609053, -0.092587225, -0.005229076, -0.081619695, 0.061157614, 0.119147256, 0.1752484, 0.12206669, -0.102459796, 0.3619901, -0.074543744, 0.24526796, -0.053673036, 0.032883193, -0.0038450756, 0.08589276, 0.10077851, -0.0042774524, -0.21046083, 0.25193515, -0.0692367, 0.06932074, 0.12612957, -0.098893, -0.052112307, 0.06744936, 0.08867654, 0.112500705, 0.08010373, -0.09900724, 0.050687484, 0.028429663, -0.43575162, 0.22623067, 0.30239984, -0.108731546, -0.101823114, 0.099243805, 0.17282274, -0.1554905, -0.2815748, -0.0185325, 0.05007914, -0.012223356, -0.080061145, -0.1736659, -0.0556016, 0.18287562, -0.024565259, 0.04545328, -0.02934903, -0.055622827, -0.10890587, 0.14027047, -0.12834266, -0.15153489, -0.14271961, 0.32999247, -0.19265725, 0.16448776, -0.23077804, 0.20629686, -0.07204772, -0.28722256, -0.042549364, 0.020254051, -0.15299916, 0.037274197, -0.029290298, 0.09780339, 0.2370866, -0.15797456, 0.03302112, 0.12238403, 0.063923, -0.019344585, 0.1637455, 0.076727144, -0.052645933, -0.00087016367, 0.0056559807, 0.20246835, -0.40613902, 0.27634874, -0.20519742, 0.044187658, -0.17775737, 0.06852155, -0.091054566, 0.15602966, 0.15995939, 0.1910684, -0.07027546, 0.19913678, -0.003462659, 0.18265343, 0.14125264, -0.30095652, 0.032567494, -0.031216042, 0.20017277, 0.13670331, -0.01610003, -0.266015, 0.2725447, -0.06247614, 0.06713541, 0.2721822, 0.0915816, 0.018198049, 0.20636688, -0.11750299, -0.16155852, -0.12680395, 0.06821818, -0.046097282, 0.047646306, 0.029582018, 0.013032396, 0.051585224, 0.120265394, -0.22357118, -0.05781603, 0.19187829, 0.081542686, 0.02954335, 0.004899093, 0.12898529, -0.15155983, 0.107111394, -0.06898085, 0.13207257, 0.027228365, 0.095174536, -0.33233348, -0.14106861, -0.00397684, -0.21155459, 0.029367356, -0.26568326, -0.22063595, -0.19586931, 0.031194277, -0.46985537, 0.12917063, -0.3150919, -0.21366704, 0.18452828, 0.059167575, -0.0074695493, -0.13718311, -0.24204718, -0.05782717, 0.17930508, 0.08577271, -0.07629106, -0.24681234, -0.27136582, 0.14830543, 0.009477928, -0.123628095, -0.07666828, -0.16177444, 0.15583247, -0.18886201, -0.070606865, -0.041427977, 0.20015766, -0.21924146, -0.1518381, -0.277846, -0.14094916, -0.16402522, -0.0024778626, 0.17172743, -0.09027348, -0.15058209, -0.01702835, 0.04914997, 0.13323016, -0.17347752, 0.057444654, 0.08053586, -0.088812575, 0.055550337, -0.12100914, 0.040982064, -0.2002162, 0.14812067, -0.15623048, -0.052558653, 0.03464432, -0.105048135, -0.11648555, 0.10345009, 0.4250055, -0.19637324, 0.06989473, 0.027379368, 0.11744815, 0.189437, -0.12507431, -0.057709407, 0.022533873, -0.08771506, -0.2767956, -0.0035903703, 0.06071642, 0.16170119, 0.1559349, -0.036094856, 0.007947955, 0.07160453, 0.024498781, 0.031401772, 0.111885734, -0.102988146, 0.055921864, 0.20048706, -0.16645905, -0.07043169, 0.32853782, 0.013658364, -0.18889207, -0.05710401, 0.05089431, -0.09393768, -0.016206792, -0.15309934, -0.0404321, 0.061205283, -0.06576645, 0.16037613, 0.090576254, 0.21212918, -0.17629303, -0.015136859, 0.21663527, -0.10615272, 0.04520724, -0.017985215, 0.08415438, 0.10012593, 0.13265939, -0.16040227, 0.09249921, 0.03532395, -0.038036, 0.066081695, -0.12341527, -0.14338207, -0.12732846, -0.11797632, -0.08855801, -0.17075865, -0.19149913, -0.25371823, 0.1257487, 0.15163888, -0.093514316, -0.1020965, 0.2693321, -0.0029606728, -0.008620038, -0.1872426, -0.0070086997, -0.048171412, 0.066213906, -0.102427416, 0.16543463, 0.14281505, -0.07746743, 0.020143678, 0.0009898547, 0.3010928, 0.14551145, -0.06212963, 0.050236996, 0.08072452, -0.0065431353, -0.08234023, 0.012273576, -0.15845826, 0.049630117, 0.28447413, -0.13615157, 0.0028067871, 0.008174402, 0.20396839, 0.0071390504, -0.24500485, 0.005213047, -0.01957031, -0.0666136, -0.027214186, -0.017069122, -0.29378372, 0.14654014, 0.1350654, -0.14110936, -0.16508204, -0.21366897, -0.09586718, 0.11809956, -0.12499895, -0.18152273, -0.14966336, 0.07506931, 0.13999508, -0.036701944, -0.16875644, 0.24843161, 0.12154117, -0.2558583, 0.06927683, -0.06951927, -0.04112873, 0.05683912, -0.012061833, 0.055971764, 0.03658748, 0.17899603, -0.15825503, -0.27428383, 0.16037698, -0.1414579, 0.31610754, 0.17034735, -0.017748665, 0.06281751, -0.384321, -0.010288062, 0.3267145, -0.25860724, 0.13216572, 0.050114132, -0.06610345, -0.109032385, 0.14362809, -0.06159292, -0.15559727, 0.028023766, 0.02008491, -0.21030031, -0.17491803, -0.14627168, -0.24958074, 0.040914398, 0.13442574, 0.109957874, 0.0936887, 0.014935391, -0.16189402, 0.019833809, -0.0125822555, -0.052582838, 0.06850455, 0.20262587, -0.013468385, -0.20826341, 0.1030503, -0.21424931, -0.084600635, 0.19614422, -0.17442004, -0.047201846, -0.07818387, 0.09058942, -0.026960017, -0.2702817, 0.106765814, -0.082215585, 0.0653224, 0.052798964, 0.019575918, 0.024473269, -0.29662552, -0.2630726, -0.17118631, -0.15520969, -0.0709137, -0.043982223, 0.28735104, 0.15295748, -0.0065745455, -0.12864603, -0.029863145, -0.0800666, -0.17345344, 0.20543414, -0.18080333, 0.049007952, -0.0060265735, 0.020829527, 0.096671335, -0.10125674, 0.03238586, 0.06986752, 0.08199883, 0.067091085, 0.083546884, 0.2596153, 0.104761854, -0.15618461, 0.08282571, -0.13629772, -0.18502642, 0.3254393, -0.05311664, -0.4106226, 0.12454368, -0.040279243, 0.170097, -0.18584765, 0.16675423, 0.15850016, 0.0908716, -0.166488, 0.15023398, 0.031075742, 0.05462328, 0.2392296, -0.29837835, -0.17113401, -0.12069154, 0.054683432, 0.14493376, 0.084161304, 0.054880038, 0.28378087, 0.0540562, 0.26898918, -0.31367242, 0.09601497, 0.08097341, -0.031401243, 0.3171764, -0.14247502, 0.03400306, -0.15181236, 0.0933516, -0.029294543, 0.014385886, 0.064690195, 0.12712522, 0.25383475, -0.035992112, 0.30724785, -0.10922891, 0.07277008, 0.05862286, -0.20115691, -0.18369085, 0.08953557, -0.46187586, 0.0679991, -0.021104177, -0.15627111, 0.15485314, 0.33782384, 0.0028902404, 0.10855584, -0.01683113, -0.03820331, -0.050415654, 0.22840174, -0.13925919, 0.043048844, -0.05915239, -0.08652868, -0.17538461, 0.29484722, -0.12914957, -0.21322566, 0.08469562, -0.07124864, 0.17604378, 0.08187753, -0.14957754, 0.40586686, 0.033225287, 0.048985366, -0.17355706, -0.068937235, 0.30504692, -0.2437854, 0.2337182, 0.015999345, -0.2683459, 0.017921451, -0.07562047, 0.0014879422, 0.13791296, 0.13833518, -0.012928382, 0.2625891, -0.20300008, 0.102418214, 0.096439764, 0.2833348, 0.06240047, 0.051003154, 0.07390112, -0.22202876, -0.25026485, -0.19045323, 0.037347626, 0.25670052, 0.030488886, -0.16198264, 0.011737996, 0.053977694, 0.057072036, 0.0018029163, 0.17381696, 0.000523595, 0.112365015, -0.07168174, -0.09138129, -0.10182605, 0.060251035, 0.3438094, -0.109925725, -0.052246846, 0.22961545, 0.14094223, 0.25787014, -0.026847554, -0.08402612, 0.19180556, -0.10749146, 0.03406508, 0.40272453, -0.16184273, 0.28887352, -0.11355546, -0.015246515, 0.061305925, -0.063942, 0.10842787, -0.13649029, 0.21733826, -0.16244549, -0.013814724, 0.23907052, 0.18681937, 0.15550032, -0.2762868, -0.16001546, -0.20985511, 0.04890755, 0.09727452, 0.034074128, 0.011618627, 0.07765844, -0.19512855, -0.19756149, 0.14200206, 0.027994081, 0.17097016, 0.09028626, 0.06771833, -0.08642186, 0.21124782, -0.22657813, -0.051995087, 0.043316226, -0.065240644, -0.2300961, -0.03152147, -0.25469998, 0.12328434, -0.011042047, -0.15478592, 0.17011192, 0.124006115, -0.02659051, -0.12562363, 0.08657552, 0.061290205, -0.111992165, 0.08355153, 0.011070609, -0.10072948, 0.57631207, 0.07036235, -0.09699846, -0.05768921, 0.0493675, 0.044287324, 0.13106978, -0.20667224, -0.021847984, 0.11408654, -0.1995912, -0.21225673, 0.03648857, 0.028756734, 0.091100365, 0.083306655, -0.041201364, 0.07486372, 0.085856095, -0.11837532, 0.1544485, 0.27943453, 0.22671863, -0.17574178, -0.052049648, -0.2329309, 0.28841615, -0.10690111, -0.15455633, 0.109015666, -0.05967344, 0.079777166, 0.09293157, -0.04749895, 0.011418838, -0.20250708, 0.16108376, -0.18539236, 0.01817984, 0.17041475, 0.1233805, 0.26235104, -0.118100785, -0.08163123, -0.12829043, 0.004421499, -0.14974608, 0.158718, 0.14627132, -0.042359345, -0.06853049, -0.0026860428, -0.20265709, 0.19919148, -0.02222357, -0.045384143, -0.0330247, 0.06262563, -0.07869829, 0.15331677, -0.09370659, -0.19575745, 0.11790289, -0.046245296, 0.013800686, -0.29775104, -0.20483528, 0.10370093, -0.044193532, 0.07244224, 0.079559475, 0.052738167, 0.04089523, 0.013701054, -0.2754006, -0.26194525, -0.030877, -0.09474728, 0.1363616, -0.043623175, -0.05421392, 0.13357484, 0.14806516, 0.046778936, 0.111451, -0.031571403, 0.053929005, -0.07951524, -0.21145193, 0.043924708, -0.2391519, -0.14106278, 0.08528557, 0.17753819, 0.07241749, -0.13915746, -0.23220064, 0.06351064, 0.1059088, -0.29957896, -0.20013757, 0.121862635, -0.039769605, 0.048344, 0.03728286, -0.108105294, -0.101190664, 0.059581973, 0.021216398, -0.06364188, -0.084802456, 0.20226964, -0.23159918, -0.2352759, 0.037054494, 0.024864383, -0.07027638, 0.021069707, -0.055024695, 0.04487276, 0.072071485, -0.24341582, -0.0925126, 0.38193718, 0.14034054, -0.013093419, 0.0781147, 0.079882644, -0.11463049, -0.013985796, 0.13833661, 0.08894775, -0.09818257, -0.01088022, 0.10891198, -0.013514054, -0.10026699, 0.09410757, -0.03754091, -0.15066804, 0.10427817, 0.11331169, 0.056437645, -0.032124918, -0.23818916, 0.10350774, 0.07385217, 0.11129506, 0.025685182, 0.048619565, 0.18650363, 0.14112653, -0.0896286, 0.11962492, -0.03198016, 0.03617155, 0.15156633, 0.07866883, 0.051683806, 0.008072086, -0.04267289, -0.30018723, -0.035707526, -0.25028294, -0.0069424696, 0.08369766, -0.01861295, 0.37632167, 0.098013125, -0.034778856, 0.27142158, 0.107372284, 0.3821187, 0.10168481, -0.3531607, -0.032710027, -0.15498373, -0.10223611, 0.18832383, 0.10930686, -0.106843255, -0.075833015, 0.19686541, -0.12937503, -0.08731861, 0.09158938, -0.038982175, -0.053167015, -0.106956124, -0.040017735, -0.0887979, -0.2677257, -0.08192424, -0.061061174, 0.22416648, -0.03969541, -0.0539651, -0.23078875, -0.05181324, -0.17283787, 0.07544923, -0.048396934, 0.13687609, 0.11164008, 0.0039882595, -0.22570203, 0.2698285, 0.057807364, 0.045851, 0.15744561, -0.16176057, 0.13507557, -0.05829081, -0.010226365, -0.0077135013, 0.16318144, 0.1286383, -0.19938277, -0.0848934, 0.06927083, -0.44338268, 0.029901486, -0.01653585, 0.079919785, -0.1356051, 0.26571983, 0.14811721, -0.077618755, 0.005994734, -0.13018388, -0.050851736, 0.18091497, -0.2556256, 0.07881663, 0.029229699, -0.40938208, 0.08267882, 0.014206333, -0.035384536, 0.10206037, 0.2535708, 0.12045813, -0.16937055, -0.17096685, -0.08648519, -0.10339967, 0.032233056, 0.23144306, 0.010202774, 0.12607363, -0.19939204, -0.12458627, -0.087264575, 0.16269541, -0.21094497, 0.17911941, -0.060281564, -0.033231337, -0.0249698, 0.09899764, 0.0982977, -0.34971577, 0.33653906, -0.021609481, -0.16682732, -0.16847196, -0.0024222222, 0.3281755, 0.16957426, -0.020028455, 0.2519594, 0.26409233, -0.089593984, -0.024552707, -0.13738725, -0.059964765, 0.2542124, -0.17623782, -0.056815747, 0.10897743, 0.24254572, -0.032245886, 0.03975835, -0.28423807, -0.021054586, 0.073981926, -0.04706417, -0.072043166, 0.05690085, 0.25295484, -0.36173302, 0.08376329, -0.011054814, -0.091401346, 0.25465074, 0.117611684, 0.19126065, -0.01585227, -0.034396175, 0.09188962, -0.06660932, -0.19469665, -0.033099063, 0.15807973, -0.0953679, -0.012598768, -0.12388116, -0.17107688, 0.060982384, 0.06591311, -0.09157266, -0.07994601, 0.007064826, 0.024990708, 0.059043176, -0.218326, -0.20089924, -0.21678181, -0.048428215, -0.051547673, 0.053303942, 0.08120999, -0.2401974, 0.07913817, 0.13761137, -0.024501007, 0.08280464, -0.054120895, -0.044906445, -0.15343516, 0.17221016, -0.0022992082, -0.024910882, -0.035947315, 0.29052454, 0.15017323, -0.024619913, 0.07753735, -0.03809181, 0.14842102, -0.21227603, 0.0035511616, 0.044340923, 0.040839124, -0.04824659, -0.098964505, 0.32615367, 0.17805582, -0.21200451, 0.22511946, -0.28822842, -0.16741988, 0.1995084, -0.05997031, -0.14329992, 0.009074724, 0.044884816, -0.18838812, 0.1733664, -0.08868712, 0.0111797685, 0.11724629, -0.06837775, 0.06442142, 0.16909707, 0.127525, 0.07284181, -0.21658303, 0.13712963, -0.05002974, -0.053889617, -0.041768577, 0.23461126, -0.24044974, 0.26734942, -0.06902971, -0.066268764, 0.036854465, 0.081947215, -0.16229443, -0.0015420641, 0.104697056, 0.1436654, -0.19936816, 0.0050166454, 0.16870567, 0.070174895, 0.09923144, -0.39079314, -0.07463868, -0.0336525, 0.1263876, 0.18610542, 0.040320612, -0.08726173, 0.16689518, -0.24344046, 0.05532651, -0.036690727, -0.079707325, 0.27334183, 0.0016054175, -0.034109395, -0.002850598, 0.16823393, -0.08389151, -0.10001244, -0.09882006, -0.0067678653, 0.056451544, -0.14946789, -0.19624189, -0.08731484, 0.1262577, 0.09105619, -0.0532395, -0.12554996, -0.007825471, -0.041066334, 0.124553844, -0.16189407, 0.08829576, -0.30057698, 0.1478047, -0.022048736, 0.0033465251, -0.087804705, -0.023511708, 0.2245957, -0.081713475, -0.063840255, 0.1282649, -0.06622031, 0.2405156, 0.23772813, -0.31050733, -0.03077902, 0.091371246, -0.010877868, 0.031967137, -0.009612346, -0.15055047, -0.050120197, -0.111973085, -0.21021222, -0.09021883, -0.06903168, -0.18088189, 0.015326154, -0.023490626, 0.06777152, 0.11415466, -0.1124467, 0.09359948, -0.2602358, 0.17960013, -0.019770304, 0.002301749, 0.11372178, 0.16409858, -0.048684184, 0.54533505, 0.018320391, -0.06271311, 0.12650518, 0.03662688, 0.122530684, -0.10703943, -0.020577725, -0.218265, -0.0067055225, -0.13691048, -0.08525996, 0.31522623, 0.23516046, -0.24029449, -0.20145515, -0.007379163, -0.0173758, -0.07893755, -0.25395283, 0.14195842, 0.051508594, 0.018419942, -0.056074016, 0.13463444, -0.126757, -0.28711867, 0.01784688, 0.23195127, -0.066251785, -0.26485577, -0.057242133, 0.13188851, 0.08210568, 0.07879619, -0.050535567, 0.19249193, -0.3694248, -0.014287684, -0.44428357, 0.16204642, 0.027058635, -0.09358304, 0.123789206, -0.005951935, 0.07866875, -0.09847063, -0.1367073, -0.27531952, -0.0024410044, 0.0037384129, 0.059069686, -0.09603506, -0.15368809, 0.30428421, 0.16029459, 0.19563028, 0.11398301, 0.057905346, 0.027977679, -0.103553236, 0.04283632, 0.18736415, -0.119302265, 0.402781, -0.085994326, -0.11360828, 0.030054327, 0.06590718, -0.081257835, -0.053718854, -0.024783812, 0.13516203, 0.019539999, -0.042754043, -0.10725454, -0.18140899, -0.09261835, 0.2929651, -0.15258, -0.13012499, -0.121872894, -0.037288673, 0.055770915, 0.06216793, -0.059176866, 0.028807636, -0.07541199, 0.066346966, -0.34460306, -0.010028892, 0.2122266, 0.02190962, -0.20688483, 0.16391434, 0.18607153, -0.024708597, 0.07211262, -0.017866319, 0.048681505, 0.27580756, 0.10432242, 0.017023223, -0.02039124, 0.2086811, 0.082603335, -0.14444324, -0.065940954, -0.15628731, -0.0028814895, -0.12158894, -0.0030822088, -0.046420645, 0.33796215, 0.16574879, 0.013742867, 0.20942031, -0.12615508, -0.13799511, -0.04054766, 0.015374303, -0.039124805, 0.05053954, -0.07842158, 0.108683236, 0.07088126, 0.018856877, -0.17234895, -0.026317919, 0.11836612, -0.0014511993, 0.072500415, 0.07185982, -0.037050437, 0.18450134, -0.06368061, 0.1341164, -0.24055101, 0.24584103, 0.045656815, -0.28120968, -0.03636255, 0.039203834, -0.009403036, -0.20038061, -0.20818394, -0.06828141, -0.062092397, -0.06778955, 0.12659793, 0.09150396, -0.032122787, -0.088991806, 0.021423556, -0.18004176, -0.10878765, -0.18991502, -0.020221531, 0.07034596, -0.100376725, -0.008313503, -0.23236787, -0.42832914, 0.39438948, 0.025877506, 0.118239515, -0.11927238, -0.07500843, -0.051887784, 0.20738639, -0.029021423, 0.10838187, -0.19625758, 0.15498419, 0.19671826, 0.24542812, -0.05847489, -0.312155, 0.07608195, -0.04510278, 0.054132015, 0.0045718984, 0.0036452396, -0.22658908, 0.24218632, -0.060719654, 0.09094062, 0.27122965, 0.14134762, -0.17951088, 0.12145757, 0.013104165, -0.11308511, 0.026490951, 0.12014722, -0.0069063306, -0.13651618, 0.04040291, -0.057609603, -0.043268576, 0.115732804, -0.01840291, 0.035284057, 0.029649254, -0.05668135, 0.1878937, -0.18598591, -0.16513386, -0.15504305, 0.001038832, 0.09872195, 0.029008267, 0.14747635, 0.3344347, -0.018276773, 0.21211323, -0.07974041, 0.022259053, 0.16610876, 0.007051296, 0.19415331, 0.03650842, -0.09251697, 0.12287512, -0.30313796, 0.24452835, 0.19254783, -0.005078372, -0.06845062, 0.10243504, 0.29348898, -0.13668218, -0.11561172, -0.043130152, -0.07840974, 0.09354493, 0.13647674, 0.19600385, 0.029064251, 0.16513672, 0.025983013, 0.09708055, -0.038911186, 0.053213228, 0.218976, 0.011991917, 0.008205654, -0.14497124, 0.0042664227, 0.11343052, 0.15902703, 0.09477842, 0.10539236, -0.2105655, 0.019279756, 0.1813945, -0.0007085672, 0.051534973, -0.14622647, 0.015094177, 0.1394292, -0.19340678, 0.18225858, 0.013393175, 0.12451226, -0.08687052, 0.07697794, 0.1937816, -0.08168797, 0.060792733, 0.007935328, 0.13940336, 0.11836785, 0.19248725, -0.09292546, 0.32366705, -0.23938397, -0.14664976, 0.08853406, -0.14211406, -0.06888811, 0.09749687, 0.08952174, 0.023107449, -0.26898897, -0.12586507, -0.12554348, 0.28067625, -0.14159359, -0.2748783, 0.06914474, 0.08403192, 0.04783662, -0.06966859, 0.33927342, -0.036760706, -0.031746622, 0.07236985, -0.00903892, 0.05475255, -0.07694642, 0.19803046, 0.25742903, -0.049433947, 0.08259259, -0.07357231, 0.12288543, 0.10155211, -0.18173465, 0.12285938, 0.17087612, -0.034437697, 0.054702595, 0.020455755, -0.021123271, -0.022609416, -0.024237279, 0.30840316, -0.040792458, 0.1505241, -0.1150192, 0.22248706, 0.040440597, 0.2688921, -0.008693381, -0.0023000916, 0.004973747, -0.2602083, 0.03650994, -0.18235457, -0.16860251, 0.080542326, -0.07822387, -0.06767984, 0.15683973, -0.078031056, -0.19752787, 0.11050982, -0.04178914, -0.18072802, 0.3236941, 0.04996965, -0.024132734, 0.06446821, 0.026261378, 0.025755985, 0.19166946, -0.14965604, 0.19308792, -0.051986616, 0.28224093, -0.10154047, -0.24889219, 0.021075867, 0.16125348, 0.2535416, 0.08140466, -0.07067105, -0.026463166, -0.13220383, 0.049594995, 0.026899686, 0.4036341, -0.022145964, -0.04295819, 0.0067394366, -0.11020895, -0.17048965, -0.047869887, -0.18051723, 0.0060367975, -0.117465764, 0.02664536, -0.35374194, 0.022945553, -0.07261557, -0.43899104, -0.01990001, 0.17990243, 0.22165869, 0.034997977, 0.03207217, -0.010654685, 0.11293477, -0.07338588, -0.021631077, 0.28688386, 0.025528943, -0.1549911, -0.18020451, 0.10614013, 0.04641703, 0.08425315, -0.15528354, 0.1494198, 0.062408082, -0.028614918, 0.07399958, 0.129655, 0.28697044, 0.106074914, -0.07365846, 0.09507429, 0.04197539, -0.12341342, -0.043444898, 0.0054109315, 0.047778588, 0.06490803, -0.31418726, 0.3754897, 0.25092903, -0.46138647, 0.010613216, -0.18234958, 0.020513365, -0.2204159, -0.0014191312, -0.14067514, -0.10444608, -0.009252136, -0.097007826, 0.057682846, 0.05663156, 0.025507087, -0.1818343, -0.1686747, -0.19689135, 0.1095069, -0.07496466, -0.14195463, -0.05294173, -0.032616075, 0.051944207, 0.19593723, -0.09894208, -0.02903063, -0.13892573, -0.008073327, -0.23457475, 0.024468383, -0.22315814, 0.19406076, 0.03229175, -0.074932754, 0.13676718, 0.17734031, -0.018342398, 0.19025134, -0.2676909, 0.002965089, 0.011496787, -0.43668747, -0.045569062, 0.022797763, -0.076485485, 0.1590317, 0.088342756, -0.061802574, 0.21042697, -0.19292471, 0.19375344, 0.07058798, -0.116207995, -0.029405031, 0.09545103, 0.21864699, -0.106465675, 0.056397773, -0.10839899, 0.17093536, -0.11309501, -0.026478896, 0.10358882, -0.006539812, 0.1521556, 0.091637865, 0.24310754, -0.027734688, -0.03340338, 0.079438694, -0.38681066, -0.24375041, 0.1567979, -0.26118958, 0.33018255, -0.04940013, -0.33248886, 0.1913077, 0.16737236, -0.002295942, 0.07794456, -0.2795854, 0.124326505, 0.013064954, -0.27087346, -0.16663517, 0.1818036, -0.26488376, 0.015713431, -0.4715663, -0.072813034, 0.4536737, 0.0068971426, -0.036452577, -0.12860198, -0.054284777, -0.068075985, 0.17299525, -0.043332197, 0.20748384, -0.019284397, -0.18975407, -0.068121515, 0.02046981, 0.018339964, 0.09054024, -0.00022094432, -0.068039834, 0.20586665, -0.14169236, -0.098401, -0.054651853, -0.08452477, 0.09409586, 0.034803044, 0.074126944, 0.09435387, -0.034908377, 0.11838394, 0.29086345, -0.06546232, -0.019724304, -0.30702844, 0.12315615, -0.011696592, -0.2643516, 0.26650855, 0.3588959, 0.08072514, -0.05845388, -0.107886195, 0.08522363, -0.18238643, 0.025641425, -0.083446965, -0.044681348, 0.012738705, 0.12381945, -0.04379215, 0.107411236, -0.09516687, -0.012863746, 0.17706685, -0.0331621, -0.006282774, 0.01968461, 0.13509296, -0.028032647, 0.0028589945, -0.04185822, -0.037921, 0.098469265, 0.29425713, -0.29912096, 0.17070106, 0.046595074, -0.4229613, 0.132691, -0.028056353, -0.0495673, 0.05255263, -0.085638106, -0.19474645, 0.099190265, -0.23725952, 0.06104167, 0.21052423, -0.094449796, 0.09684643, 0.18576443, -0.06764784, 0.058833785, 0.038801502, 0.028375613, 0.17373645, -0.008321887, -0.0521382, -0.028019996, 0.3309363, -0.05239581, -0.015664607, 0.09137451, -0.04552367, -0.20275196, 0.019246371, 0.020304423, 0.17517029, 0.15976545, -0.065267205, -0.07155939, -0.120901644, 0.079029985, -0.017526109, 0.1192991, -0.094747186, 0.24401687, 0.17701522, 0.2191128, -0.114950724, -0.17608608, 0.061308764, 0.10035771, -0.4228407, -0.044397946, 0.0645056, -0.007908443, 0.12888817, 0.058509372, 0.0087286, -0.073891394, 0.0012706801, 0.050111502, 0.117191084, -0.0792455, -0.06336221, 0.03238396, 0.14305808, -0.031833004, -0.0011315834, -0.023650365, -0.17160301, -0.02368307, 0.05030386, -0.43909124, 0.13459381, -0.20192762, 0.4410935, -0.16903262, -0.050914526, -0.052847013, 0.093146876, 0.07838492, -0.018802471, -0.004174363, 0.17499731, 0.09189647, -0.3003139, -0.07728383, 0.15565838, 0.214759, 0.16235389, -0.24236949, -0.15653616, -0.11766507, 0.08877338, 0.041818935, 0.052706607, 0.053905107, 0.029601114, -0.16476151, -0.034832243, -0.0358993, 0.14496669, 0.41825965, -0.1515464, 0.12582013, -0.011485643, -0.15501839, 0.11799374, -0.115350865, -0.21723339, -0.0486545, 0.030682294, 0.15795842, -0.003337249, 0.18185087, 0.30420163, -0.077342674, -0.1983952, 0.0672029, -0.006128795, -0.08092651, -0.0797283, 0.14753745, -0.008136012, -0.23370096, 0.03349409, 0.20730795, 0.07744501, 0.004176692, -0.13669603, 0.06810526, -0.092196904, 0.10935504, -0.053244937, 0.1693267, 0.104203746, -0.08465818, 0.018397432, -0.0671913, -0.25676215, -0.32145935, 0.075962245, 0.13700455, -0.011715387, 0.44568697, 0.20352541, -0.17390251, 0.36833864, -0.17309417, 0.17170998, 0.24425398, -0.2628922, -0.35121506, -0.25197238, 0.064139806, 0.00016094442, -0.17692854, 0.045795374, -0.33673856, -0.0105617605, -0.13725182, -0.050001748, 0.26322532, -0.07743067, 0.006216374, 0.123287804, 0.16821449, -0.14719988, -0.09947651, 0.094299786, 0.06964538, -0.113222234, 0.13716798, -0.114244655, -0.14283112, -0.16459602, 0.24908194, -0.36235142, 0.0722798, -0.22462499, 0.12983711, 0.059739694, -0.022185504, 0.08602562, -0.03570439, 0.012671787, 0.1364324, -0.26373428, -0.030779112, 0.08058597, -0.07355944, -0.013785191, 0.18274088, -0.023456722, 0.085128896, -0.07015651, -0.10864913, 0.098021, -0.028889414, 0.14363196, 0.20263161, -0.3149995, -0.24032947, 0.04337129, -0.077828184, -0.061788093, 0.16882901, -0.018796379, -0.07987114, -0.017814798, -0.044876527, 0.014859347, 0.0043712733, -0.23220393, -0.2355655, 0.09168842, 0.2544129, -0.18546471, -0.19452737, 0.037041865, 0.09608619, 0.22429907, -0.084422424, 0.3402076, -0.056873914, -0.299005, -0.15228832, -0.11583159, 0.10599457, -0.014698886, -0.13811453, 0.08709111, -0.09047394, 0.115501426, 0.18586537, -0.15261692, -0.05865711, 0.024294727, 0.24464414, -0.18627556, -0.122421384, -0.25559974, 0.11730652, 0.13983522, -0.06287142, 0.002707434, 0.0023375757, 0.010764751, -0.13000995, 0.09213946, -0.21656416, 0.12292758, 0.3528378, 0.12622993, 0.09806531, -0.2175074, -0.0090782, 0.08258718, -0.005027064, -0.013536409, -0.04891083, -0.2625566, -0.031058736, -0.24197671, 0.07663823, 0.27636653, 0.039145198, 0.0543246, 0.084552355, -0.06873258, -0.07936194, 0.011803031, -0.051116426, 0.296199, 0.14919597, -0.088182814, 0.065387025, 0.10140936, 0.1788112, -0.11877109, 0.038575657, -0.063495785, 0.30480474, -0.022545544, 0.053780656, -0.076722056, -0.0074202134, 0.15140392, 0.045589335, -0.12258869, 0.12823431, 0.13862956, -0.06440001, 0.068832636, 0.15363711, 0.034859158, -0.15531436, 0.081382565, 0.11720556, 0.13122869, 0.10074907, 0.12480529, -0.40492612, 0.11045891, 0.00087551353, -0.17896631, 0.14484715, 0.08642561, 0.016844226, 0.113451436, -0.07780418, -0.11666413, 0.07021072, 0.25564122, 0.07679318, -0.10918801, -0.124698125, -0.02600115, 0.24719644, 0.06992338, -0.058326956, -0.12877181, 0.12744486, 0.045544066, -0.05973936, 0.3407735, 0.30441692, 0.24692574, 0.12536052, -0.054897558, -0.20369722, 0.041355796, -0.08182156, -0.022983449, -0.010710949, 0.07959561, -0.110990904, -0.056431662, 0.26214492, -0.20624682, 0.021422258, 0.16948451, -0.19793311, 0.05430941, -0.27357566, -0.17132796, 0.008359399, -0.11633783, 0.10761324, 0.1495373, -0.19101828, 0.37077835, -0.19440894, 0.16099955, -0.028121045, 0.25597727, -0.049206667, 0.09190916, 0.18580788, 0.094090946, -0.05358259, 0.19127269, -0.14806157, -0.12774062, 0.2037662, 0.011764845, -0.22046396, 0.14656638, -0.02078624, 0.08704413, 0.1470225, 0.12531444, -0.095810294, 0.32102197, 0.11704285, 0.105818, -0.40696025, 0.24097317, -0.10410836, -0.09058166, 0.1603586, 0.1070308, -0.110740416, 0.11499415, -0.007716464, 0.090491265, 0.18856925, -0.16129966, 0.05110555, 0.10844555, -0.007967866, -0.04860176, -0.11592159, -0.1519357, -0.3091716, -0.14910059, 0.11356632, -0.25332636, 0.08696521, -0.09021428, 0.03856894, -0.09065949, 0.07734235, 0.13749681, 0.16268903, -0.23089327, 0.08396013, 0.07116139, 0.12678169, -0.024144528, -0.06454676, -0.03439011, 0.10988334, 0.11129549, 0.013789788, -0.0034524617, -0.1259829, 0.09210352, 0.19919036, 0.009629868, -0.03556284, 0.05981966, -0.048613522, 0.100855425, 0.29879665, 0.06963186, 0.0883146, 0.08437523, 0.0102963615, 0.20673178, 0.19030581, 0.066671684, -0.2003127, 0.19279577, -0.018317204, 0.057722088, 0.0953421, -0.015185847, 0.25926483, 0.109166756, -0.15314683, -0.21323797, 0.109951615, -0.035908017, -0.20718008, 0.017755423, 0.17835303, -0.3395507, 0.018493248, -0.16195254, -0.052513205, -0.14382909, 0.36136544, 0.0070387544, 0.048972405, 0.03092981, -0.110870585, 0.081536196, 0.08276585, -0.021288376, 0.0420148, 0.19225912, -0.31016394, -0.0020419864, 0.18890975, -0.38474786, -0.113123186, 0.14500049, -0.041032173, 0.03575233, -0.011712848, -0.25392714, 0.12691905, -0.26492354, 0.08009701, 0.23423833, -0.17053428, 0.13316657, -0.15168133, 0.068200044, 0.16969387, -0.22479121, 0.20076387, 0.009896122, -0.07684763, -0.035411756, 0.04535708, 0.1258484, 0.041850045, 0.20842408, -0.117780745, -0.19908091, 0.020944018, 0.13388391, 0.3824511, 0.14324906, -0.1953157, 0.21753941, -0.12728634, 0.094019026, 0.02012296, -0.017460851, 0.033068694, 0.16438825, -0.121998124, -0.08831626, 0.17096598, 0.07624862, 0.024033615, 0.05378223, -0.27826262, -0.15692438, 0.13265827, -0.13241445, -0.109766796, -0.09149178, 0.23995997, -0.17957214, 0.09048912, 0.11510012, 0.0427138, 0.39954713, 0.08359368, 0.23201916, 0.19139737, -0.29793277, -0.029922934, -0.07041162, 0.13864021, -0.07876897, 0.057736415, 0.022819519, -0.09249275, 0.04352347, -0.0075142984, 0.15383823, 0.25028926, -0.18842764, 0.100557074, -0.010830057, 0.12154851, 0.05275797, 0.11606567, 0.050572608, 0.051658154, -0.11071687, 0.10924113, -0.13637331, 0.22450179, 0.11396672, 0.27762675, -0.30245513, -0.005141777, -0.15381436, -0.029654099, 0.007913415, -0.13205856, -0.09028868, -0.038448777, -0.09998002, 0.16977262, -0.24951826, 0.062410418, -0.31202853, -0.063794166, -0.14495416, 0.06492996, 0.19696225, -0.19539502, 0.24244125, 0.03534025, -0.15667218, 0.24720973, -0.33539674, -0.12825517, 0.06461612, -0.10971401, -0.20423153, 0.10079126, 0.13613681, -0.24996914, 0.09564503, -0.044013828, 0.08553632, -0.24582386, 0.024738079, -0.101038665, -0.10915243, 0.071302086, -0.046673097, 0.19913474, -0.0063598203, 0.08511942, 0.15184169, -0.05383534, -0.0017397127, -0.017859427, -0.0037914705, 0.14644226, 0.27373743, -0.12387621, 0.13434604, 0.23713316, 0.13205051, -0.00042895976, -0.2984828, 0.023489788, 0.064058386, 0.040920667, -0.018005896, -0.050927553, -0.03720231, -0.030113108, 0.12932868, -0.1443587, 0.17757054, 0.07742868, 0.2314802, 0.15712342, -0.029012928, -0.11174041, 0.08860282, -0.13160418, 0.059914004, 0.20395753, 0.15031189, 0.009192482, -0.12577248, -0.1042245, -0.024615431, 0.15263067, -0.0387294, -0.054915097, -0.16563618, -0.19230972, 0.07594075, 0.006539734, -0.104380816, 0.09312897, 0.1426207, 0.039120656, -0.11036929, 0.10341186, -0.15701307, -0.14599063, -0.04759106, -0.06584654, -0.11885191, -0.09251714, -0.27282304, 0.23452479, 0.14454554, -0.0022634207, -0.09371577, 0.14792661, -0.12733291, -0.07017728, -0.0605164, -0.028095158, -0.18314362, 0.04666732, -0.036510833, 0.19500591, -0.029611625, 0.14538531, 0.19893073, -0.079114325, 0.017007405, 0.054780178, -0.044993117, 0.23191513, -0.014784873, -0.03891095, 0.23072281, 0.01880462, -0.24069254, 0.16987514, 0.20042555, 0.11558787, 0.08908727, -0.14260751, 0.16351129, -0.10574395, 0.16202082, 0.015667466, -0.0039357026, 0.04810444, -0.18388906, 0.15388386, 0.021576192, 0.07220001, 0.024022933, 0.34282002, 0.2915006, -0.20790295, -0.08940578, 0.14987424, -0.19507565, 0.06420718, 0.04550905, 0.03767978, 0.07285077, 0.3787757, 0.08980168, 0.16791373, -0.064936556, -0.045129932, -0.14589243, 0.11474388, -0.12353516, 0.15938456, 0.004888034, -0.24054281, 0.078134246, -0.24131136, 0.15361013, 0.08507345, 0.38775074, 0.05978167, -0.18575008, -0.015902542, 0.054648183, -0.30019653, 0.06828733, 0.24202402, 0.030677767, -0.1948116, 0.004447775, -0.010557043, 0.16201279, -0.15399873, 0.057480782, -0.01784926, -0.030486885, -0.018487804, -0.1590012, 0.087920815, 0.19319771, 0.13997085, 0.13250841, 0.14982568, -0.06481904, -0.24010903, -0.03177672, -0.16435347, -0.029691026, 0.0700629, -0.05470361, 0.20006298, -0.03734395, -0.35887724, 0.24872115, 0.3308274, 0.025825717, 0.025974495, 0.20161013, -0.10744102, 0.44697836, -0.08372852, 0.037778, 0.03584053, 0.36070743, -0.07829164, 0.3334222, 0.31972992, 0.02194527, -0.12767178, 0.1010152, 0.10024268, 0.06257837, -0.10495116, -0.34593543, -0.18485878, 0.11616996, -0.042788394, 0.6930898, 0.14125095, -0.007807406, -0.24958417, 0.222258, -0.114274904, -0.21621566, -0.11353433, 0.15353116, -0.17620826, -0.024269648, -0.065209895, 0.0963935, -0.03939316, 0.12665536, -0.045866728, -0.058272425, -0.008008995, -0.10795983, -0.02261601, -0.026304046, -0.17731406, 0.12741496, -0.05730342, 0.2518048, -0.59221876, 0.20120454, 0.061339427, -0.058169313, 0.00804893, 0.22614156, -0.036164396, 0.11777379, 0.04213862, 0.12848829, 0.0036736384, 0.19382901, -0.06386383, 0.23870537, 0.05786954, -0.21364312, -0.016415682, -0.23452519, -0.053326156, 0.04760482, -0.08545338, 0.24870138, -0.069977954, -0.18798117, -0.15220289, 0.28784248, -0.2326935, 0.08253547, -0.10981158, 0.15025187, 0.2343079, -0.15716721, 0.2885446, 0.007800102, -0.10983915, 0.06885742, 0.32952148, 0.02233105, -0.090104856, 0.37070122, 0.025568131, -0.10077097, -0.08477513, -0.054544423, -0.027253618, -0.03597983, -0.21301149, -0.0076097106, 0.06613157, -0.13687152, 0.019505613, 0.037500482, -0.038352937, 0.036809262, -0.060143065, -0.07863016, 0.025213476, 0.017943673, -0.100378804, -0.24483916, 0.06182937, -0.14312235, -0.13732383, -0.36783668, -0.16057609, 0.22241694, 0.13948043, 0.034361877, -0.18360956, 0.10682897, 0.16696322, -0.023940394, 0.031413432, 0.054213215, -0.020274293, 0.07991423, -0.12539966, -0.25828686, -0.0356175, -0.0677788, 0.05328398, -0.13267022, 0.21597596, 0.110652916, -0.0048862686, 0.083354846, -0.046211675, -0.056299135, -0.3303991, -0.105810605, 0.3394239, 0.025286412, 0.19177218, -0.09660887, 0.15176582, 0.25084293, 0.1344769, -0.12276711, 0.16178715, 0.18542267, 0.16957171, -0.40831622, -0.32270643, 0.15275064, -0.14859289, -0.046384033, -0.069506064, -0.0014981423, -0.24884614, -0.052848056, 0.09505659, 0.11195034, 0.00979583, 0.17853203, -0.28347614, -0.013004218, 0.21572083, -0.20385285, 0.030664189, -0.02828356, -0.01896488, -0.016199334, -0.08372137, 0.004909828, 0.026845498, 0.16495204, 0.030231714, -0.41485763, 0.123545155, -0.17576505, -0.021936113, 0.012548032, 0.41525415, -0.019658236, 0.09938096, -0.071803406, 0.15772098, -0.037444845, 0.021897852, 0.123349905, -0.07912569, 0.033428792, -0.020151194, 0.055138975, 0.14539635, 0.13661279, -0.083730616, 0.29907843, 0.11022683, 0.18761083, 0.19186221, -0.0067928634, -0.230125, -0.06293066, -0.106076226, -0.19233696, 0.1639603, -0.105873965, -0.24745618, -0.095545545, 0.0995588, -0.44955197, -0.12134133, -0.3601643, -0.20797607, 0.2770681, 0.0104407715, 0.20706686, -0.02496591, 0.13780268, -0.034076247, 0.01616841, 0.30255544, -0.08658408, -0.046096362, 0.20501472, -0.06196984, -0.124385044, -0.091668956, 0.074542336, 0.021907222, 0.09396838, -0.1475517, 0.13733089, 0.17959994, -0.17178607, -0.09971284, 0.1978888, 0.06252166, 0.10097484, -0.20559555, -0.33999678, -0.1487896, 0.0010503554, 0.015978377, 0.09485877, 0.23041303, 0.0058048153, -0.04651556, -0.19243164, -0.17501754, 0.088648595, 0.4140442, -0.22658993, -0.035580598, 0.17034706, -0.021665659, -0.014953993, -0.06428621, -0.085377604, 0.21859469, 0.15031438, -0.05635632, 0.094257355, -0.07865921, 0.054868832, 0.09222592, 0.017092431, -0.14251253, -0.07920805, -0.13179025, -0.01444882, -0.23143442, 0.0031637778, -0.096240066, -0.025868973, 0.12206367, -0.34913912, 0.21933267, -0.28696474, 0.0061896504, 0.20349734, -0.09769912, 0.042624082, 0.2773684, -0.14900124, -0.1442564, 0.03928812, -0.14355761, -0.06795597, -0.21408097, 0.11395167, -0.3019309, 0.03216483, -0.026295548, -0.11743098, 0.20921056, 0.20569614, 0.010248659, -0.10844803, 0.02025062, -0.0028604548, 0.00378991, 0.15496302, -0.0064875428, 0.11693622, 0.055555094, -0.09623101, 0.16800652, -0.12339151, 0.21443279, 0.19845694, -0.09293459, -0.19672506, 0.16395353, 0.20862836, 0.053512342, -0.0027367698, -0.15674104, -0.16285552, -0.08450396, -0.027357507, -0.20839892, 0.23721491, 0.03090002, -0.15483008, -0.16816826, -0.20182759, 0.007838174, -0.11323487, -0.019443166, -0.14743908, 0.0736822, 0.081904486, -0.16442744, 0.051459152, 0.05421526, -0.24129039, -0.06848829, 0.074462295, 0.01248849, -0.15026596, 0.30499586, 0.08088013, -0.16025, 0.012792329, -0.21354227, -0.0295887, 0.22126241, 0.28599578, -0.049934614, -0.11769152, -0.0008295236, -0.17624825, -0.089590885, 0.19977848, -0.05757937, -0.08727963, 0.11203674, -0.040442493, 0.20987414, 0.11759928, -0.11470199, -0.24821186, 0.044934824, 0.0515857, 0.08872147, -0.15334761, -0.16758145, 0.049632136, 0.1943001, -0.14067896, -0.11232146, 0.029142851, -0.023544127, -0.20360279, -0.18270758, -0.19693728, -0.05271755, -0.15224376, -0.012827028, 0.04219684, 0.062252734, -0.043750495, -0.2693605, 0.15110251, -0.00034055425, -0.12260262, -0.45840743, 0.012826043, 0.06569125, 0.11205975, -0.16360727, -0.1387201, 0.09356375, -0.03613904, -0.0538759, 0.20473215, 0.23534898, 0.008032918, -0.29451683, -0.06189981, -0.3374422, 0.22415265, -0.17844227, -0.11044425, 0.03272419, 0.1519198, -0.0173974, 0.033445198, -0.17028092, 0.045681022, 0.026376914, -0.034592953, 0.04686163, -0.025153039, 0.14088966, -0.0048089465, 0.17042409, 0.101759136, 0.012897188, -0.0861346, 0.14737798, 0.2176713, 0.18021302, 0.15192896, 0.03386344, -0.27298316, 0.0027329633, -0.1076921, -0.03559312, 0.121959805, -0.04826296, -0.06643747, 0.18132482, -0.0040420075, -0.2651784, -0.025505388, 0.0877655, -0.32867423, -0.23625124, -0.09599844, 0.038233228, 0.09445517, 0.07627044, -0.050565872, 0.083569504, 0.25090888, -0.25184903, -0.06545766, 0.3664404, -0.08670162, 0.17923313, -0.075980715, -0.13915724, -0.018742211, 0.10537515, -0.06830305, -0.13997644, 0.114872985, -0.06421996, -0.21727267, 0.046733327, -0.21077378, -0.18036222, -0.033699885, 0.16051114, -0.08443528, -0.048603255, 0.15121605, 0.097277954, 0.20224784, 0.36601362, -0.15368196, 0.016266404, 0.008984995, -0.17733397, -0.29259372, -0.008189024, 0.08876946, 0.0049226014, -0.12401809, 0.3396127, -0.3201479, -0.031182896, -0.045934547, -0.084442556, 0.08161429, -0.18035318, 0.21410842, 0.15655173, -0.17862518, -0.004306674, 0.012751387, 0.1921096, 0.0804639, -0.13444798, 0.25350082, -0.01923326, -0.20245044, 0.362084, -0.013072422, -0.04295258, -0.018975822, -0.018688498, -0.1746843, -0.12852773, -0.012268374, -0.07030361, 0.192864, -0.19147441, -0.12908216, 0.13407435, 0.25616324, -0.24358962, -0.088612095, 0.14896128, -0.1362482, 0.07009215, 0.02266004, 0.044593696, -0.044435468, 0.14973117, -0.28044623, 0.06022205, 0.02104231, 0.3905739, -0.14589623, -0.06480174, -0.08080687, 0.15146345, 0.07691493, 0.10901822, -0.054941725, -0.12751158, -0.0727758, -0.058663033, 0.039130818, -0.38292155, 0.18201363, 0.08200878, -0.11249599, -0.24267565, -0.08162304, -0.060602155, 0.07202339, -0.089819655, 0.13040937, 0.17141414, -0.17964664, -0.0650291, 0.0625854, 0.19690897, -0.12907773, 0.07142124, 0.04508422, -0.04456334, 0.1503665, 0.021502573, -0.095963314, -0.06641511, 0.022184787, 0.3857237, -0.133872, 0.19922459, 0.16917726, -0.17470115, -0.25618973, -0.12574577, 0.0011017142, 0.03665776, -0.01630383, 0.12631707, 0.17352775, -0.13338168, -0.14770722, 0.34393096, 0.1894833, 0.22411518, 0.028230576, -0.2009636, -0.022802377, 0.0072193844, -0.031002332, 0.03288028, -0.23265745, -0.084769785, 0.05338406, 0.12151225, -0.20843288, 0.03005161, 0.054763008, -0.026213702, 0.007117787, 0.01616629, 0.0342271, -0.097836204, 0.15866351, 0.04595977, 0.25165224, -0.06730743, 0.059406865, -0.18907756, -0.006720543, -0.10027576, 0.08017062, 0.090435885, -0.013405198, -0.13506263, 0.14719377, 0.03269141, -0.18821393, -0.08220227, 0.029212512, -0.08104147, -0.13827796, 0.11753473, -0.012079689, 0.025698947, 0.033550348, -0.10099153, -0.029446863, 0.13726218, -0.26104918, -0.1536175, 0.6136412, -0.1241568, 0.0061384635, -0.148209, 0.14126001, 0.10881693, -0.260254, -0.0028280707, -0.0007090148, -0.13055582, 0.11353384, -0.040887464, 0.024305595, -0.15823656, -0.056725655, -0.0904404, -0.20604737, 0.21407314, -0.05911786, 0.3921079, 0.3485816, -0.07469469, -0.037293907, -0.13687277, 0.16440651, 0.04932702, -0.29786983, 0.001955946, -0.07600077, -0.015368881, -0.11876088, 0.027718332, 0.23194475, -0.16203925, -0.06377066, 0.03385118, -0.017483577, 0.18354855, 0.059272613, 0.007862117, 0.082274705, -0.14189407, 0.1287067, 0.17357434, 0.06900215, 0.017510872, -0.18890324, 0.19860083, -0.25101918, -0.059741054, 0.36771673, 0.20140089, -0.043408755, -0.0038132516, -0.17368585, 0.05386268, 0.2190133, 0.0066057816, -0.2704998, 0.035570726, 0.03443136, -0.006719335, -0.050519098, -0.15179823, -0.072454296, 0.0031213695, 0.04918482, -0.16724813, 0.00025201702, -0.1324839, 0.029330665, 0.09994431, -7.015528e-05, 0.008556256, -0.2104222, 0.22766465, -0.1403065, -0.18093333, -0.023974556, -0.1305396, 0.20441584, -0.102134, 0.08839537, 0.10029333, 0.09105823, 0.090668984, 0.39119142, -0.13384451, 0.30650532, -0.028590543, -0.40757248, -0.08242988, -0.20235342, -0.18334974, 0.1640016, -0.17218855, -0.033994813, 0.06773917, -0.13048749, -0.17135188, -0.007632503, 0.14730626, -0.19279897, -0.093584195, -0.09998158, -0.026123736, 0.06999731, -0.06376235, -0.11009469, -0.06662812, 0.12755331, -0.0021590875, -0.14194001, -0.16330029, -0.05267237, -0.07765826, 0.32582408, 0.06512312, -0.2715324, 0.055837076, 0.006585892, -0.09024696, -0.0009672424, -0.19146313, 0.030493777, 0.17154256, -0.11987493, -0.26019436, 0.065589935, 0.24324113, -0.22377525, 0.014048032, 0.010928865, -0.0033056939, -0.012375081, 0.08110262, -0.123012796, 0.024337977, -0.15700968, -0.022391643, 0.1887842, -0.060068708, 0.1692634, 0.14530568, -0.13423291, 0.038286667, -0.02617214, 0.09537066, 0.190754, 0.20887847, -0.280644, 0.08995921, 0.11536872, 0.060549617, 0.12620373, 0.044529635, -0.09864368, 0.21964511, -0.059407964, -0.0062536662, 0.07372232, 0.09125764, -0.021362742, -0.20462337, 0.10322574, 0.26473045, -0.0067649214, 0.1503046, -0.019485805, 0.028272416, 0.2621083, -0.032758918, 0.07160884, 0.17800748, 0.030768288, 0.19410607, -0.20831491, -0.21597195, -0.19222988, 0.012296343, 0.0032155854, -0.16997099, -0.04283623, -0.11217365, 0.008803343, -0.021488661, -0.00936151, 0.0792157, -0.10967456, -0.18670344, 0.043532696, 0.07994539, -0.33257094, -0.24585165, 0.115927204, 0.001824324, 0.029862195, 0.056174386, 0.04700071, -0.12110707, -0.15361947, 0.16315128, -0.30767024, 0.03432879, 0.13745186, -0.054983206, -0.18545485, 0.16692135, -0.057045974, 0.053796064, -0.047631133, -0.15630564, 0.012652604, 0.2682486, -0.12595999, 0.0766222, -0.021582162, 0.23649856, 0.19758323, 0.242355, 0.058575556, -0.11604918, -0.014807187, -0.08872776, 0.112106696, 0.23982053, -0.08208306, -0.12030519, 0.10830981, 0.10083357, -0.026991416, -0.07566965, 0.09784854, 0.018741528, -0.22056298, 0.25414371, 0.2448651, -0.215059, -0.057060268, 0.13201754, 0.3360124, -0.024981689, 0.213909, 0.0802751, -0.24411385, -0.07938588, -0.058936387, -0.17444652, 0.14414711, 0.104613595, 0.21197753, -0.024142954, -0.024890164, -0.12895839, -0.05825755, 0.19943617, -0.049388066, 0.016599372, 0.032937564, -0.23208219, 0.17145014, 0.053953547, -0.078041404, -0.121032014, 0.2973479, -0.21600054, -0.08306502, -0.03290819, -0.14754568, -0.0984701, -0.048792467, -0.34749335, 0.06488319, 0.045288365, -0.1825135, -0.20879328, 0.037638206, -0.03384741, -0.23338431, 0.04849659, 0.22928207, -0.08008938, -0.031657185, -0.13244219, -0.010669332, 0.03718361, 0.11084463, 0.31830442, -0.17690751, 0.15713164, 0.09016066, 0.009302831, -0.19367318, -0.28650114, 0.20407557, -0.0017250578, 0.090810046, -0.05442447, 0.09404597, -0.16661534, -0.1194271, -0.0034375577, -0.21331315, -0.09561767, 0.14465052, 0.0716034, -0.19496961, -0.022824615, -0.036696874, -0.028599499, -0.15709934, 0.035503257, 0.17103836, 0.004431195, 0.0584135, -0.15006542, -0.057095066, 0.002254638, 0.038327266, 0.1963395, 0.18479389, -0.026467497, 0.10747483, -0.016562885, 0.0756573, -0.351996, 0.11140882, 0.048817687, 0.020011362, 0.13315849, 0.09631983, -0.013747376, -0.0126906065, 0.1952506, 0.048141886, -0.10655814, -0.06372222, -0.11374732, 0.19466756, 0.14165199, -0.055451702, -0.32591507, -0.07097222, 0.12665392, -0.25558284, -0.04287177, 0.15331946, -0.15061487, 0.12305529, -0.1227998, 0.16473114, 0.0025551184, 0.51908594, -0.04066748, -0.07794341, -0.020704158, -0.002253814, 0.046837695, -0.014363872, -0.024656085, -0.019793564, -0.04993119, 0.15788746, -0.0646087, 0.12809724, 0.058463607, 0.16645192, -0.37689087, -0.21099101, -0.17194591, -0.074285, 0.024125317, 0.0018421875, 0.37009707, -0.13807462, -0.24053404, 0.27647418, 0.08278041, -0.03817442, -0.04215398, 0.1332337, 0.12613225, -0.25382945, 0.090949714, -0.1140322, 0.16877802, -0.054419976, -0.3279886, 0.06047992, 0.109531514, 0.022599494, -0.04794406, 0.08699538, 0.012113397, -0.26182827, -0.11513821, -0.010609192, -0.3077466, -0.0588084, 0.038197998, -0.02325627, 0.007876283, 0.041238964, -0.0023600343, 0.056853816, -0.056709524, -0.054576267, 0.008305342, -0.082781546, 0.031185562, -0.17275168, -0.37977007, 0.04428298, 0.011482787, -0.15198351, -0.006163585, -0.023726217, 0.22117937, 0.081467025, 0.23903073, 0.03994132, -0.14674811, 0.292681, -0.20262022, 0.1441212, 0.18719749, -0.07279214, -0.002405377, -0.059367437, -0.205612, 0.25718507, -0.1110641, 0.043305986, -0.040063635, 0.05667146, 0.17115358, 0.11329452, -0.051026665, 0.03442707, 0.08019428, 0.012607101, -0.007886603, -0.13884073, -0.032794096, 0.027677618, -0.08077911, -0.1607476, 0.05224682, -0.049736634, -0.20059368, 0.2601457, 0.009345342, -0.27209434, 0.047260545, 0.088113494, 0.1823636, -0.11085556, 0.26172745, 0.058192026, -0.034698557, -0.013682808, 0.16570388, 0.060025632, -0.11504009, -0.01593185, 0.12063559, -0.114827245, 0.004558534, -0.0052524633, 0.38439766, 0.22802863, -0.031733405, -0.12087167, 0.23627545, 0.0851697, -0.02858654, -0.24850985, -0.2804601, 0.15273958, -0.2098004, -0.1389883, 0.05026273, 0.045991782, 0.03207897, 0.006778235, -0.10234865, -0.13514894, -0.11275076, -0.21396562, 0.11365206, -0.13407372, 0.07841548, -0.033050824, 0.016470155, 0.022511063, -0.10845227, -0.031222658, 0.3261769, 0.19405001, 0.3428237, -0.36105946, 0.08800798, 0.09167826, 0.054663602, -0.06993187, -0.03588276, 0.05969855, -0.095358394, -0.021476217, 0.05535384, 0.03236048, -0.015171135, 0.0039386535, 0.018579908, -0.06592664, 0.09543637, 0.13574585, 0.058792263, -0.146244, -0.19293328, -0.09641738, 0.223912, 0.013315368, -0.035501957, -0.09938948, 0.37170944, -0.17614329, -0.11797026, 0.042341772, 0.18794782, -0.028482707, 0.026451753, -0.1129945, 0.08393176, 0.12942788, -0.07738277, -0.074472904, 0.09518747, 0.13886133, 0.12629814, 0.04694887, -0.097130634, 0.15647472, 0.27106366, 0.05481389, 0.031128557, -0.09629832, -0.03709713, 0.070828155, 0.22790685, -0.005652057, -0.1494017, 0.14455186, -0.0913361, -0.033862513, 0.07666197, -0.24773267, 0.17596905, 0.06747514, -0.22044678, 0.009647597, -0.052106537, -0.004540234, -0.11577927, 0.14226261, -0.054674417, -0.08585452, 0.14688846, -0.08061521, 0.21664184, 0.13946766, -0.17230514, 0.14409816, -0.0026187461, 0.2182315, -0.14909047, 0.14778998, -0.099405915, -0.082916245, -0.06905535, -0.13543946, 0.0814724, -0.15562062, 0.055017482, -0.06274742, 0.07527504, -0.065340504, -0.13791107, -0.33247122, -0.25332993, 0.20354751, 0.05225385, 0.03905089, -0.09861882, -0.05979513, -0.11036847, 0.21164885, -0.074749425, 0.10547767, 0.02490994, -0.06962621, -0.121058784, -0.1733716, -0.03940835, -0.057256747, 0.2606759, -0.046691746, -0.05087276, -0.08033706, 0.035531767, 0.1432637, 0.16948077, -0.0073519917, -0.026516251, -0.1957719, -0.20021974, 0.041330907, -0.18224375, -0.15367053, 0.06756304, 0.04280264, 0.030348908, 0.04088791, -0.09092347, -0.049047746, 0.15109283, -0.10193879, -0.35462484, 0.1709593, -0.15046632, -0.03860593, -0.028433975, 0.12827152, -0.07590634, -0.0777913, -0.16676849, 0.08880153, 0.06509985, -0.034103163, -0.19302253, 0.115409, 0.26394892, -0.098383754, 0.02158813, -0.018776407, -0.1523657, -0.13119707, -0.013922478, 0.27806383, 0.0045094294, 0.02304305, 0.19772528, -0.30342257, 0.08786995, 0.07757091, 0.06554174, 0.11865015, 0.08300342, -0.099191464, 0.1858686, -0.17764178, 0.026539491, 0.15872286, 0.11509137, 0.051807377, -0.022936733, -0.214401, 0.0154511845, 0.060898595, 0.1831286, 0.12994365, 0.020901231, 0.002621143, 0.020797845, -0.15914479, 0.11530735, -0.049694713, 0.26650867, 0.0070391526, 0.011464526, -0.11176808, -0.035944205, 0.05310075, 0.07261286, 0.007301883, -0.22369991, -0.20694023, 0.15492865, -0.10372486, -0.10953301, -0.22217691, -0.035456978, -0.0025654465, 0.1323325, 0.2373691, 0.12588048, -0.019995093, 0.3609891, -0.13124989, 0.10176528, -0.1636404, 0.069129825, -0.12724791, -0.07409945, -0.03932163, 0.07477016, -0.0074009066, -0.13592246, -0.05978953, 0.18427478, 0.063304484, -0.10014511, -0.04092306, 0.2192335, -0.27358007, -0.31486228, 0.05396228, -0.09504723, 0.023560792, 0.1640318, 0.017141607, 0.091250025, 0.18086697, -0.3982854, -0.0293927, 0.23956363, 0.011135247, -0.29801965, 0.077638865, 0.025863258, 0.15755184, 0.22306266, -0.13316265, 0.0753579, 0.18305673, -0.03614258, -0.021583883, 0.042271394, 0.1876222, 0.0005645455, 1.6716556e-05, -0.07482398, 0.015462352, 0.09655729, -0.058596555, -0.0876641, 0.20699438, -0.14975846, 0.038033668, -0.07299366, 0.16340308, -0.20012599, 0.29738224, -0.017737456, -0.08599053, -0.103470676, 0.24259597, -0.034949392, 0.040393554, 0.16772458, -0.056057353, -0.1816024, -0.047602247, 0.08054901, -0.20179525, -0.20310894, -0.051407762, 0.13884053, 0.01965121, 0.021458851, -0.0013489643, 0.090275146, 0.3223366, -0.35861152, -0.004635587, 0.25736293, 0.02202024, 0.22579369, 0.03095988, 0.14192542, 0.049962647, -0.13435175, 0.19681959, -0.089918904, -0.11407324, 0.0017656283, -0.030342227, 0.022425508, -0.047163837, 0.20332545, 0.15400878, -0.19761255, 0.096114255, 0.090389915, 0.16972908, 0.15154418, -0.107395224, 0.032933015, 0.092736475, 0.11680233, 0.026671, -0.09675228, 0.04189693, -0.08162602, -0.15339264, -0.04042597, -0.03249024, -0.06453981, 0.05830594, -0.014484875, 0.14882267, -0.04178213, -0.121728055, -0.28339362, -0.06205104, -0.14362311, 0.012518726, 0.13859692, -0.06756396, 0.17654535, 0.03580005, 0.09595053, -0.0038914464, -0.15123306, -0.042914923, 0.16223235, -0.48960152, -0.210325, -0.0953365, 0.2272942, -0.091769665, 0.008378446, -0.27459344, 0.11414916, -0.11837755, 0.06797206, -0.2039092, -0.064429976, -0.019112619, -0.10172607, 0.024143191, -0.08702985, 0.43451747, 0.094679825, 0.02031575, 0.012160454, 0.13951729, 0.04592852, -0.2124796, 0.055808615, 0.112177394, -0.17797047, 0.2351618, -0.20462535, 0.14795886, 0.14519882, -0.023365997, -0.07991678, -0.06802877, 0.05276111, 0.22029385, 0.107172504, -0.1397823, -0.074028224, 0.11830042, -0.07230406, -0.15054508, 0.084058106, -0.13337031, -0.11451883, 0.033203024, 0.11194831, -0.20220786, -0.07423744, -0.08518066, -0.021962266, 0.017206049, 0.088042066, 0.019071447, 0.15459344, -0.08795131, -0.15143205, 0.11386173, -0.09117961, 0.19797018, -0.2691026, -0.055086415, 0.27771696, -0.16363807, 0.09135047, -0.078236096, -0.09100383, -0.07771999, 0.115377575, 0.21661042, 0.15224418, 0.1416702, 0.14365683, -0.0035199432, -0.03522757, 0.01406017, -0.2348868, 0.16811347, 0.06557341, 0.021759083, -0.010047026, 0.0364374, -0.07262325, -0.06549166, 0.08466864, 0.09541864, -0.107131645, -0.04968022, 0.13045995, -0.107170284, -0.014977351, 0.06350717, 0.19995327, 0.032098483, 0.045238003, -0.065454215, 0.10477213, -0.00016670319, -0.22779466, 0.012653425, 0.33484086, -0.3010319, 0.039305

};

float fc2_b[256] = {
	0.0038900506, 0.025369035, 0.016022453, 0.028462939, 0.0119718425, -0.045795918, 0.017967135, -0.021718582, 0.048229393, 0.015785579, -0.041757856, 0.05118295, 0.03475765, -0.031416632, -0.023757871, -8.8129105e-05, -0.008693172, 0.014778688, -0.09672681, -0.039621294, -0.009538725, -0.04245449, -0.11258798, 0.050481882, -0.079402424, -0.022850903, 0.024508765, -0.08210166, -0.07340036, -0.06841751, -0.09952431, 0.061789326, -0.0072562317, 0.066515334, -0.05192852, 0.0814689, -0.07428754, -0.036800645, 0.004399614, -0.011947271, -0.047183044, 0.042039387, 0.08066425, 0.0044411807, 0.01069511, -0.016157532, -0.096033856, 0.013951665, 0.016308518, 0.112705335, 0.055242073, -0.006972363, 0.012355341, -0.0025880346, 0.03394801, -0.024971137, 0.06647783, -0.0409868, 0.030273065, -0.010331956, -0.038236775, 0.0912248, 0.07509258, 0.058751505, 0.03379215, -0.030279458, -0.008519376, -0.005813887, -0.01354554, 0.048322804, -0.061865464, 0.04861872, -0.007376373, 0.0011532834, 0.044625722, -0.06653682, -0.05694006, -0.01863273, -0.02538978, 0.016987763, -0.07169118, 0.029561251, -0.03899254, 0.02564733, -0.013240942, -0.0087805, -0.030108636, -0.001066901, -0.09339588, -0.018387642, -0.031103665, 0.0301938, 0.027818894, 0.01358111, 0.02212702, 0.02225735, 0.074083425, 0.016124453, -0.024337944, -0.003950235, 0.06511814, 0.01380762, 0.049588963, -0.047160447, -0.024506945, 0.029270401, -0.03155423, 0.006661447, 0.024323694, -0.0067096185, 0.036937736, 0.0025901457, 0.1015169, -0.039614916, -0.049886353, 0.07859727, -0.03505939, 0.05058358, 0.008291146, 0.06858137, 0.0056099375, 0.043428272, 0.0046160347, -0.021784471, -0.09027507, -0.045386218, -0.03301876, -0.032650363, 0.027783874, -0.051905148, -0.039316423, -0.011988486, -0.068932146, 0.07047516, -0.06524332, 0.0055638268, -0.014431622, 0.022669975, -0.0104318885, 0.005978154, 0.010028741, -0.020414775, -0.030374754, 0.020180652, -0.04968468, 0.033732228, 0.018244987, 0.018496575, -0.035957776, 0.0018223114, -0.07191832, 0.05219157, -0.0043033045, 0.06029939, -0.026351037, -0.048946396, -0.026778886, 0.009843286, -0.04064908, -0.08944132, -0.0050122016, 0.057365853, 0.058845345, -0.002155684, 0.029781356, 0.01341281, 0.026548898, 0.010941273, 0.09254405, -0.024898283, 0.07127197, -0.053991444, -0.024899308, -0.039381396, 0.010473097, -0.017966531, 0.005691949, -0.0585012, 0.018770047, -0.04108417, 0.016521491, -0.008626814, -0.017185291, 0.050561577, -0.07305085, -0.024481315, 0.006397265, 0.00908429, -0.016652653, 0.049869552, 0.07357127, -0.018954417, 0.0082227625, 0.028686611, 0.068629265, 0.045647047, -0.018068211, 0.06648519, 0.014728616, 0.05280627, -0.031507544, -0.027848763, 0.021058802, 0.041228056, 0.0075413743, -0.10666404, -0.045801908, 0.0063490923, 0.015319038, 0.01144995, -0.05137349, -0.01588379, -0.033936866, 0.08637114, -0.01523425, 0.024342857, 0.07500177, -0.024900643, -0.04419987, 0.08955717, 0.063969195, -0.029626656, -0.04771158, -0.024672834, 0.020773862, 0.070514135, 0.04910045, 0.054990206, 0.019302864, 0.006835657, 0.06622026, 0.030517332, -0.017504979, -0.020113796, -0.03994561, 0.020770902, -0.021915104, 0.057847623, -0.06224845, -0.019984223, 0.014343267, 0.038709763, -0.0013258391, -0.010312461, -0.027398935, 0.029781792, -0.00894166, -0.03737898, -0.018697798, -0.047911923, 0.072705984, -0.002321516, 0.018815309, 0.016295668, 0.040525172, -0.021302424

};


#endif
