#ifndef FC3_H
#define FC3_H
// Header file of the 10-th layer of the model - The type of the layer is fc


float fc3_w[64][256] = {
	0.014780844, 0.14674334, 0.041598003, -0.110451885, 0.11155444, -0.09133354, 0.06709959, -0.15624776, 0.06836425, -0.059223533, -0.09410776, 0.11960473, 0.07848148, 0.03107064, -0.07111822, -0.033915684, 0.116532594, -0.042024393, -0.14275041, -0.22346865, 0.081296, -0.07184602, 0.0631557, 0.026472747, 0.059146706, 0.04445006, 0.050653372, -0.10894478, -0.16627017, -0.1432962, -0.2819354, 0.049297858, 0.0712193, -0.0236377, -0.10141616, 0.22428925, 0.09871564, -0.07121943, 0.041558966, -0.081322335, -0.10689501, 0.053882763, 0.123792395, 0.13907924, -0.078619614, -0.05059691, -0.25350907, -0.17448264, 0.09930577, 0.0879409, 0.048757255, 0.017901834, -0.03321389, 0.090172805, 0.03519524, 0.07471516, 0.013177352, -0.07544844, 0.15383725, 0.075506836, 0.08932795, 0.2597929, 0.20510449, -0.091070354, -0.033012636, 0.010640576, 0.019861264, 0.020486973, 0.10605705, -0.0826024, 0.058381386, 0.12514292, -0.11378098, 0.06091702, 0.055429846, -0.024854712, -0.10073842, -0.082013525, -0.028521616, -0.20428544, -0.12239257, 0.0146445865, -0.16917248, -0.026764723, 0.12609197, -0.0025681865, -0.00644643, -0.10549692, -0.24800667, -0.06615599, -0.07516843, 0.09079263, 0.026831843, 0.15751809, -0.0008355195, -0.14409494, 0.06382638, 0.23452039, -0.05395477, -0.036140386, 0.049152546, -0.035087842, 0.06822631, -0.12582973, -0.03999996, 0.12648264, 0.07204632, -0.06879437, 0.082159035, 0.09140208, 0.015069971, 0.047663633, -0.038366437, 0.0031593218, 0.09785629, 0.01365616, -0.07644501, 0.10570887, -0.038473025, 0.09418166, -0.15903912, -0.11053054, -0.065280594, 0.061472286, -0.20291653, -0.07127247, -0.1333441, -0.15865837, -0.034328673, -0.22976954, 0.01227089, -0.02412829, 0.12424956, -0.04508727, -0.17318048, 0.15451527, 0.10433552, 0.18428867, -0.19208553, -0.014012954, 0.124534376, 0.011431605, 0.10699722, -0.17523189, 0.072936624, 0.0748778, 0.033297528, 0.123102196, -0.1697875, 0.06166212, -0.10282496, -0.0031268236, -0.009196744, 0.034708228, -0.08250987, -0.27914542, -0.029947078, 0.02861417, 0.05844891, -0.17496334, 0.17397188, 0.14761469, 0.079987586, 0.111898445, -0.0022061765, -0.09181621, 0.072943345, -0.12746082, 0.23677005, -0.27472088, 0.23946017, -0.0043066703, 0.012631726, -0.13421215, 0.115200706, -0.0027462028, -0.103485726, 0.06249139, -0.14395653, 0.020966798, -0.03693595, -0.0065154624, -0.07886205, 0.033290844, -0.20186925, -0.030462975, 0.02542719, 0.10408009, -0.045557298, 0.052308537, 0.12897307, -0.119953126, 0.15585938, 0.048481543, -0.0023801024, 0.20024969, -0.12661047, 0.15944007, 0.17848156, 0.11498869, 0.07465247, -0.14111172, 0.032204412, -0.14625135, 0.15427186, -0.24635999, 0.15770409, 0.07041859, 0.045443952, 0.21280585, -0.09196952, -0.10744234, -0.086220965, 0.030575804, -0.045175545, 0.056135587, 0.1360714, -0.09233494, -0.0783881, -0.020540195, 0.029718822, -0.050470486, -0.03997751, 0.094631255, 0.10367672, 0.031987756, 0.14335828, -0.06822893, 0.18943436, 0.15606615, 0.15395853, 0.025538055, -0.026142795, 0.1405042, 0.1283225, -0.12574548, 0.09030773, -0.024336291, -0.06020935, 0.043309763, -0.028666606, 0.117160834, 0.05448258, -0.016208572, 0.13058525, -0.12484698, -0.15781143, -0.12670305, -0.051473044, -0.2603183, 0.09163646, -0.0746013, 0.008789254, 0.12890682, -0.1369894, -0.09264479, -0.051369645, -0.055431623, -0.06215098, -0.10226723, -0.016038269, -0.07554481, 0.019664127, 0.0031916415, -0.103068195, 0.04988129, -0.039807845, 0.123913966, -0.032603916, -0.0006348341, 0.22717431, -0.047547318, -0.192787, -0.09025894, -0.034976352, -0.18405347, -0.08800974, 0.014248846, -0.03570407, -0.05293745, -0.16626315, 0.019392991, 0.22115158, -0.2824451, -0.019351736, 0.0014706817, 0.15774928, -0.07236042, -0.094885945, 0.053016532, 0.103083536, 0.12928246, -0.22253372, -0.11756956, -0.058335695, -0.114580475, -0.1454826, 0.24464831, 0.049066268, -0.026775675, -0.023709962, 0.08209926, -0.0024960658, 0.02560983, 0.14743647, 0.06557277, -0.14166257, 0.08132729, -0.040949572, 0.18916368, -0.1546719, 0.14165664, -0.03947314, -0.00012896454, -0.08552008, 0.027238958, -0.1545682, -0.09879259, 0.01392166, -0.099853724, -0.17235903, 0.07822275, 0.06784003, -0.028207358, -0.12626642, 0.0058456347, -0.042149834, 0.07901736, -0.03408413, 0.019465638, -0.06622184, -0.0937896, -0.16159825, -0.026168251, 0.01332259, 0.2744281, -0.048456293, 0.13028234, -0.16651039, 0.0008455374, 0.06484315, -0.0013880252, 0.05962678, -0.04199107, -0.105831176, 0.1988817, -0.08001503, -0.049028594, -0.14329273, -0.14259127, -0.06105625, -0.22747333, -0.044802886, 0.1638428, 0.057582792, -0.039584577, 0.014704996, 0.07896998, 0.03566522, -0.12897727, -0.1478554, -0.09095129, -0.02955617, -0.026784018, 0.07090435, 0.12972721, 0.04709152, -0.03928954, 0.14604408, -0.14562944, 0.026050512, -0.19261658, -0.00664046, 0.18659516, -0.062157065, 0.058781683, -0.08364707, 0.06601262, 0.0052660587, -0.105176926, -0.15364888, 0.038374465, 0.12474419, -0.00722437, -0.061232105, -0.117857024, 0.09028372, 0.2741052, 0.020675605, -0.018823417, -0.20719643, 0.10297429, -0.04225504, 0.05592294, 0.040652607, 0.0076323976, 0.16818863, -0.07283586, 0.040076856, -0.09579839, -0.079706065, 0.052676305, -0.072855785, 0.17249405, -0.14905018, -0.09720417, 0.012575592, -0.060545765, 0.16850723, -0.08439477, 0.022593014, -0.04336027, -0.13240205, 0.0751791, -0.034391254, 0.017892167, 0.17170514, -0.03711036, -0.06531961, -0.0039088028, -0.048117634, 0.102249704, 0.116653055, 0.041125286, 0.013289243, -0.38838512, -0.13576934, 0.009933009, -0.03425047, -0.0022985411, -0.05384648, -0.1501523, -0.14104736, -0.0052296473, 0.11643815, 0.16981232, 0.008126872, 0.38209543, 0.06095813, -0.017393958, -0.08258834, 0.09821884, -0.092960194, -0.054597143, -0.11523258, 0.12648314, 0.031900566, 0.13042732, 0.18912196, 0.07531207, 0.083567135, 0.074342735, 0.15309091, 0.10182705, -0.18967055, -0.08170593, -0.16431507, -0.13448708, -0.22289363, 0.14988849, 0.11051974, -0.13579452, 0.104544245, -0.006501029, 0.10848872, -0.16192788, -0.14442621, -0.08330293, -0.22896309, -0.16460583, -0.10750477, 0.041228294, -0.03787316, -0.1383235, -0.032953355, 0.027356304, -0.14123495, -0.015332013, 0.13521346, -0.059059005, -0.10363096, -0.013673002, -0.017570786, -0.11870295, 0.05114034, 0.11135233, 0.13543385, 0.036863178, 0.22922401, 0.061810408, 0.17697203, -0.12659101, 0.01143111, -0.05631014, -0.16377424, 0.084167525, 0.049773764, -0.019687284, -0.007320193, 0.039006665, -0.16545632, 0.037447758, -0.17689748, -0.086124584, 0.14650452, -0.16400969, -0.033859804, 0.04717691, 0.11981862, 0.1554128, -0.016694827, 0.011391476, 0.06865298, -0.030013923, -0.014149785, 0.016136294, 0.09523424, 0.0986539, 0.077357575, 0.03250983, 0.01138452, -0.014787094, 0.0458752, -0.018354077, 0.040809497, 0.030829739, -0.047709104, 0.062051304, 0.14337811, 0.019568311, 0.05654177, 0.16952167, 0.10998605, -0.123302415, 0.18128282, -0.02796219, 0.25615388, 0.037796665, -0.043812837, 0.20797811, -0.063532524, -0.03566609, -0.14589019, 0.06454987, 0.2459582, -0.1247018, 0.030960292, -0.16547516, 0.26102865, 0.024034295, -0.0013567974, 0.1749712, 0.19503194, -0.16804601, -0.28296354, -0.024193369, 0.07194036, -0.07365753, -0.12443612, -0.067172065, -0.14775543, -0.070483595, 0.031504475, -0.11255163, -0.074321866, -0.23151584, 0.14548786, -0.14349058, 0.051243845, 0.04578531, -0.016058799, 0.027679302, 0.23738681, 0.037108604, -0.2102868, 0.06883074, 0.0947168, -0.05838887, -0.10992188, 0.013850581, 0.025090044, -0.09091525, 0.07705414, -0.11280282, 0.03371962, -0.037791926, 0.0061274073, 0.1488048, 0.31753147, 0.07667791, -0.16664706, -0.19710231, 0.32219973, -0.04888698, 0.3204582, -0.090868935, 0.06439185, -0.15931864, 0.0072416724, -0.071357876, 0.32110897, -0.23939055, 0.081892304, 0.062588274, 0.07769167, 0.13905777, -0.026320463, 0.12243475, -0.05319311, -0.25028154, 0.016761824, -0.045955036, -0.1571698, -0.043843582, -0.06599941, 0.002494755, 0.18020332, -0.036309432, 0.114571534, -0.05671571, -0.12612486, -0.11410119, -0.1466569, -0.010194257, -0.10962558, 0.22379397, 0.024518918, 0.13673516, -0.019780938, -0.36101085, -0.014734114, -0.07754628, 0.0986861, -0.14598936, -0.0006699851, 0.13457714, 0.29638946, 0.09709533, 0.0026135838, -0.027477905, 0.06835239, 0.2568629, -0.04637984, -0.25804245, 0.10295682, 0.040058363, 0.24120708, -0.12397997, 0.015231549, -0.040920746, -0.056292135, 0.023161458, -0.14322457, 0.011743239, 0.07825655, 0.067448, 0.0059029376, -0.14624284, -0.01009329, -0.18070774, 0.13466477, 0.07084006, -0.047154814, -0.013907154, -0.018716346, 0.092433944, 0.0067287334, 0.12856771, 0.23852356, -0.07392423, 0.045676824, 0.03741106, -0.15456687, 0.15086965, 0.020504981, 0.0006656314, 0.024507461, -0.025215877, -0.04926785, -0.17156433, -0.1353674, 0.3891863, 0.014291229, 0.17822939, 0.10714381, -0.03668947, 0.12621795, 0.2079828, -0.03610984, 0.064093724, -0.04079614, -0.1059454, 0.054587852, -0.3372888, -0.00014152908, -0.057675704, 0.24428667, 0.0105495285, 0.10828484, 0.056305718, 0.07626793, -0.1589446, -0.12627035, -0.096694, 0.01923856, -0.23286463, -0.0793276, -0.13909122, -0.079901986, -0.13329463, 0.22028188, 0.2907175, 0.17629182, 0.21190615, 0.23037277, -0.22375984, -0.09961355, 0.07660039, 0.05166038, 0.043077655, -0.012110141, 0.27308223, 0.15412831, 0.10098007, 0.1671913, 0.12420673, 0.048727103, -0.05066647, -0.19292526, 0.1351434, 0.0597108, -0.0026232167, 0.066239566, 0.09600702, -0.080163665, 0.15723899, -0.00730624, 0.13235633, -0.08853092, 0.06430229, -0.0056996234, -0.14651689, -0.069658436, -0.054248065, -0.26033428, -0.14493218, -0.08247659, 0.16520225, -0.011911404, 0.093783274, 0.20720617, 0.08666792, 0.039697725, -0.043923683, 0.045306213, 0.025159983, 0.22556178, -0.06496848, 0.09959561, 0.05408754, -0.045675684, 0.13680929, 0.0026694036, 0.12858258, -0.052865207, -0.18226318, 0.090568334, 0.10934309, -0.016895164, 0.019726463, 0.15494484, 0.16341461, 0.07895955, 0.14533469, -0.18616176, -0.024458546, 0.27197525, -0.021611607, -0.13360667, 0.25190914, 0.14413062, -0.093237236, -0.083499596, -0.03042519, 0.1854493, 0.030964445, -0.18069644, 0.04824566, 0.023683745, -0.0027892794, 0.052776054, 0.105102755, -0.051201995, -0.25267014, -0.20858692, 0.021016225, -0.046316937, -0.15323317, -0.0049884627, 0.010981888, -0.19067104, 0.20607089, 0.021757137, 0.002750869, -0.079562105, -0.05313791, 0.087904945, 0.09252109, 0.043601193, -0.25981218, -0.039100375, -0.23022689, 0.012984701, -0.16282499, 0.15780146, 0.17524225, -0.036227454, 0.22396731, 0.1336481, 0.04358683, -0.012495666, -0.03643346, 0.24426043, 0.06775819, 0.35055625, 0.25189945, -0.014241228, -0.032086335, -0.0859146, 0.027350146, 0.14935973, 0.19642222, -0.0757968, -0.085134834, -0.18077865, 0.033404797, 0.1345799, 0.110331506, -0.23093699, -0.041139524, 0.05894837, 0.031801894, 0.039222915, 0.06813331, 0.101106144, 0.0058403667, -0.20898709, 0.21984246, 0.06871822, -0.23151588, 0.080277935, -0.047595885, -0.0536032, -0.19865264, -0.10867707, -0.08386453, -0.061089795, -0.008461187, 0.1535321, -0.056778442, 0.099459514, -0.22674255, -0.21163647, 0.06388129, 0.005036654, -0.2168817, 0.047650084, 0.18766238, -0.0051357653, -0.09595383, -0.06753609, 0.132226, 0.021351466, -0.20031446, -0.24144085, 0.048754755, 0.07159663, -0.08283961, 0.0075577414, -0.05296156, -0.12735008, 0.021290699, 0.02478607, 0.061898544, 0.055730402, 0.0990283, -0.0109340865, 0.032662734, 0.1848253, 0.08592642, 0.0590647, 0.017849168, 0.25691995, -0.089155845, -0.09472378, 0.027127719, 0.090501964, -0.033629775, -0.12828898, 0.033993345, -0.01074155, -0.0058135395, 0.1696365, -0.13918154, 0.101216964, -0.056344315, -0.049330574, 0.012508339, -0.09003112, 0.0867307, -0.32855338, 0.13617828, -0.25421625, -0.001411014, -0.04026684, -0.27545157, 0.09935011, 0.15125251, 0.25278276, 0.16653872, -0.0008796805, 0.17037131, -0.06836413, 0.2562003, -0.15973929, 0.08594407, -0.24343324, -0.18129306, 0.1334668, -0.030961188, 0.23516491, -0.046475224, 0.15028861, -0.08911578, 0.04403403, 0.012669506, 0.05301776, -0.08370488, -0.22966209, -0.040649254, -0.08114281, 0.09268642, 0.18474439, 0.185397, 0.24594925, -0.04012625, 0.18497668, -0.079571396, 0.21645448, -0.05815038, -0.0029108268, -0.01953117, 0.021294584, 0.1638729, -0.277996, 0.07119307, 0.22728325, -0.078173615, 0.009939157, 0.25783727, 0.00984401, 0.05058268, 0.5915377, -0.22504875, -0.013644054, -0.018123578, -0.0750911, -0.00032492785, 0.03017482, 0.13183407, -0.046025727, -0.029332304, -0.1659553, -0.00554758, 0.025494467, 0.04240664, -0.22281873, -0.15550467, 0.18467242, -0.047888625, -0.13331032, 0.27589858, 0.0273159, -0.09052229, 0.06643932, 0.14326201, 0.043652862, -0.08574069, 0.19006088, -0.010935726, -0.14052758, -0.1580532, 0.117760025, 0.14017397, -0.23831785, 0.19872928, 0.105083875, -0.16465789, -0.17708866, -0.042240173, 0.08436145, -0.039640293, -0.058004905, 0.100500464, -0.019915907, 0.1272836, -0.021056283, -0.026100973, 0.15833172, -0.06129211, -0.088292785, -0.13772671, 0.10509371, 0.106995605, 0.040281113, -0.13872553, 0.096166745, 0.025771562, 0.12706952, -0.1790758, -0.1348892, -0.13415347, 0.066984974, 0.03351454, -0.0060133347, -0.043655965, 0.1394006, 0.025660178, -0.011638851, 0.029670069, 0.043736354, -0.08178277, -0.008591544, 0.08927685, -0.13452269, 0.032080848, 0.064096585, -0.13458022, -0.003700947, -9.065763e-06, -0.02298452, -0.030566258, 0.09691476, -0.009365792, 0.04949635, 0.032627333, -0.089969315, -0.00068114814, -0.07242798, -0.11355737, 0.06881238, -0.09279126, -0.051481646, -0.22136667, -0.15905115, -0.13519733, 0.027371153, 0.12661491, 0.1313786, -0.16171497, 0.115563676, 0.06113995, -0.14018011, -0.20503564, 0.06346303, 0.07506889, 0.1849528, 0.17269388, -0.04321429, 0.10240341, 0.04252693, -0.12467001, -0.04578972, -0.037260037, 0.047347073, 0.046974227, 0.13960057, 0.017055076, -0.018032078, -0.087582104, -0.03981861, -0.04002521, 0.1512512, 0.014983493, 0.017213574, 0.013365539, -0.049190927, 0.010551583, 0.031289738, 0.007761424, -0.13086277, 0.006104465, 0.0004961148, 0.09167821, -0.066199616, -0.0032982235, -0.02994879, 0.05962637, -0.056720197, -0.067350775, -0.0004350313, -0.023755226, -0.13573453, -0.17320405, -0.23752782, 0.075349346, -0.015897933, -0.14892195, 0.0012371594, -0.030566093, 0.013859325, 0.08898474, -0.028630007, 0.15226375, -0.026761113, -0.037505917, -0.03248603, 0.23354976, -0.16241777, -0.008565303, -0.10461542, -0.11289989, -0.117521234, -0.06836413, 0.14044103, -0.08750641, 0.032376643, -0.10280664, -0.099332005, -0.06512839, -0.15772042, -0.106127165, -0.080295585, 0.055731315, -0.072520256, 0.039168686, -0.094391, -0.15777683, -0.18922532, -0.0039709136, 0.097359575, -0.021020787, -0.014360635, -0.05700339, -0.16249236, 0.06671384, -0.09888663, 0.007707009, -0.22413565, 0.121208265, 0.10091708, -0.1271572, -0.02070363, 0.0675325, 0.06577755, -0.09026295, -0.13340072, 0.23892422, 0.14077319, 0.05367074, 0.19652553, -0.072136916, 0.005244974, 0.031291887, 0.041197456, -0.15089406, 0.116352454, -0.12651819, -0.010498153, -0.05079176, -0.08016776, 0.09055285, -0.09599524, -0.13365942, -0.06545283, -0.032840565, 0.09623925, 0.06831526, 0.09029708, -0.10333351, -0.149716, 0.24396178, 0.0024430545, -0.011978202, 0.11090656, 0.09992252, -0.10686616, -0.024926776, -0.06286493, 0.06526105, 0.06575184, 0.049799986, -0.01937661, -0.11213312, 0.20148565, -0.018745136, 0.15976007, -0.022400165, -0.033323277, 0.014046272, -0.08568395, -0.03547369, 0.08264938, 0.015960647, -0.062043834, -0.027744293, -0.14224973, 0.072626956, 0.1424778, -0.047379367, -0.13112928, -0.07511862, -0.105496585, -0.008330465, 0.03509088, -0.20569637, -0.18175192, 0.1470016, -0.070122555, 0.05691606, 0.10109091, 0.11393328, 0.01989145, 0.12227168, 0.02148346, 0.04166689, -0.1914201, 0.061510097, 0.014059311, 0.06197553, 0.036212135, -0.06593828, 0.037392076, 0.11213073, -0.026095185, -0.10640269, 0.01792014, 0.025690379, -0.015118364, 0.081814125, 0.20999128, -0.005212959, -0.18917423, 0.014322948, -0.17293802, -0.011666688, 0.0681751, -0.067809805, -0.090670206, 0.090354346, 0.1314591, -0.120192, -0.11453758, -0.042842317, 0.14322768, 0.120962925, -0.063737996, 0.19527958, -0.10650297, -0.16156942, 0.02744299, 0.19084442, -0.00013098889, -0.014958168, -0.0541549, -0.03973192, 0.043325044, 0.049479466, 0.08835846, -0.0130645055, 0.034180354, -0.062414277, -0.01732393, -0.14589857, -0.010990274, -0.020919057, -0.25701034, 0.030299103, 0.1366451, -0.12059241, 0.10697628, 0.032081977, 0.008580405, -0.020478565, 0.16839948, 0.021893183, 0.17001149, -0.08026255, 0.24026594, -0.041107338, -0.071885966, 0.510039, 0.16432768, 0.017438475, 0.03603254, -0.103900604, 0.026363177, -0.029395703, 0.014689206, 0.07847951, 0.14784046, -0.11111787, -0.07442238, -0.06921205, -0.08245407, -0.03710393, 0.10885135, 0.16553949, -0.12335811, -0.11662862, -0.06917713, -0.17051248, 0.1306428, -0.03301244, 0.117377445, 0.07005128, -0.12801316, 0.116813734, 0.025974538, 0.0023816004, -0.15821013, -0.109669335, -0.015612917, -0.13983634, -0.13039729, -0.16852026, -0.07110282, -0.04013449, -0.02882071, 0.20862024, 0.06356641, -0.09937492, 0.27858666, -0.146969, -0.09194721, 0.11017627, 0.12702784, 0.14732762, -0.13159725, 0.21926299, -0.029237842, -0.034557737, -0.041704327, -0.019349286, 0.021999601, 0.11750117, 0.0494927, 0.08601941, -0.1226114, -0.085255854, 0.04411006, 0.013235849, 0.056461744, 0.037545085, -0.0018705509, -0.009141626, 0.05284847, -0.029381603, -0.18907379, 0.10139591, 0.20563869, 0.0063756313, -0.011342405, 0.044641897, 0.055369686, -0.2958164, 0.026410708, -0.31455523, 0.06267709, 0.01612623, 0.025381755, 0.004156652, 0.06541576, -0.12871434, -0.082265206, -0.052624207, -0.20888588, -0.13106431, 0.113885805, 0.067076735, -0.13356476, -0.013143601, -0.09647647, 0.17324346, 0.031282093, -0.37947056, -0.05898268, -0.19018717, 0.16225831, 0.076884314, -0.099907614, -0.1967802, 0.11151401, -0.058786288, -0.04566137, 0.0011548001, 0.14967589, -0.11760836, 0.08131758, 0.007396029, 0.18982916, -0.04690802, -0.18214881, 0.19817716, 0.018991783, 0.1138705, -0.025487913, -0.09443677, 0.13766266, 0.26491666, -0.122297905, 0.011067012, 0.18962577, 0.21370347, -0.01904095, -0.043025102, 0.14647038, -0.049588084, 0.021255746, -0.07549206, 0.1384112, 0.19018869, -0.1603942, -0.004103642, -0.071129836, 0.04380622, -0.010430462, -0.3009907, 0.13090591, -0.0037431354, 0.15928628, 0.08557148, 0.02511191, 0.1615777, 0.05209702, 0.1526797, -0.20155913, 0.07722271, 0.054958127, 0.052979227, -0.045494154, -0.1874292, 0.04423702, 0.064039886, -0.0692304, 0.04107896, 0.060247555, -0.06442362, -0.0328758, 0.13871358, -0.20507309, 0.16855048, -0.046751477, -0.13461803, 0.0387178, 0.14803217, -0.087546065, -0.17783132, 0.33470416, 0.051908027, 0.012243697, 0.049328655, 0.20526879, 0.16513619, -0.12333175, 0.14962342, -0.020691313, -0.07819431, -0.03509364, 0.036457747, -0.06935155, -0.06736818, 0.036605533, -0.090485655, 0.51582736, -0.066773675, 0.09809076, 0.15952249, -0.010873238, 0.20091453, 0.043320064, 0.21518852, -0.095239766, -0.20748778, 0.017809402, -0.14282605, 0.17797393, 0.20397204, 0.05477962, 0.037462413, 0.16440704, -0.16140573, -0.13240239, 0.03685117, -0.16249909, 0.054441985, -0.06503071, -0.058544833, -0.035060033, 0.14502168, -0.003366797, -0.047800913, 0.06292032, 0.043819197, -0.015357076, 0.12975733, -0.11644432, 0.028284466, 0.19567928, 0.1441811, 0.03658535, 0.031431694, 0.07810514, -0.037160754, -0.028103137, -0.107536, 0.091804504, 0.24002616, 0.05619241, 0.010669598, 0.037222542, 0.13328737, -0.07698215, 0.07561141, 0.08532438, -0.018534094, -0.065323286, -0.05835111, -0.01714282, -0.19893193, 0.14239208, 0.049214322, -0.1728534, 0.03438264, -0.008131486, -0.041305356, 0.07021803, 0.19882755, -0.2963627, -0.09432256, 0.087138355, -0.07748553, 0.09715208, 0.08925798, 0.028254714, 0.09688446, 0.15335509, 0.16751619, -0.04238451, 0.0075000697, -0.002555424, -0.050230578, 0.018862013, -0.07085606, -0.03288722, -0.009662208, 0.18610941, -0.1932381, 0.0035934604, -0.20295116, 0.15487504, 0.20357397, 0.12975739, 0.13018641, -0.13076921, 0.024150955, -0.17185365, 0.070152275, 0.32705504, -0.3157489, -0.05427943, 0.2692288, 0.063186295, -0.110519156, -0.09411067, 0.37276992, -0.04263184, 0.07165524, -0.0725958, -0.08935299, -0.011768661, -0.091552846, -0.3217662, -0.13714716, 0.041907515, 0.094962865, 0.036630437, -0.12834084, -0.0524151, -0.0013883717, -0.083664164, -0.0012186683, -0.092482515, -0.063566454, -0.083220825, 0.1397342, 0.27731207, 0.13800819, -0.12546481, -0.08498883, 0.045901947, 0.012086108, 0.18016247, -0.09816095, -0.14833172, -0.14208409, 0.21014258, -0.07458003, -0.071554676, -0.07966013, 0.18958741, 0.11672417, 0.1828782, 0.023231689, -0.05363235, -0.20231752, 0.26235583, 0.035406616, -0.026088877, 0.1018121, 0.27069864, -0.032302298, 0.18875708, -0.14459185, 0.090428956, -0.22416574, -0.10476686, 0.20433372, -0.042789273, 0.10511668, 0.16327111, -0.19038184, -0.038043167, 0.14729622, 0.14469644, -0.073770285, -0.18932968, 0.034861904, 0.1099576, -0.03937176, 0.10478378, 0.047587078, 0.13102473, -0.067136474, 0.022732174, 0.08228369, 0.032120388, -0.021084521, 0.18764037, 0.21614268, 0.05529591, 0.18009873, -0.12807667, -0.11260528, -0.008455687, 0.31759977, -0.0017772987, -0.1966166, -0.1288562, 0.11494173, 0.06801479, 0.055521343, 0.061218813, 0.015204113, 0.027980741, 0.14102411, -0.06961901, 0.036900487, 0.2434802, -0.020327387, -0.23049372, 0.046433594, -0.08057409, 0.09049681, -0.1539522, 0.043226644, 0.18188235, 0.09695848, 0.11230607, -0.0027567293, 0.07330657, -0.049712528, -0.019579595, -0.15976292, -0.10236562, -0.08686605, -0.040470745, -0.1652806, 0.14346388, -0.021414327, 0.046245307, -0.040786393, 0.20963195, -0.06833444, 0.08765382, 0.10785825, -0.11672289, 0.015458154, 0.043162048, 0.12675655, -0.081733115, 0.18888418, 0.0527377, -0.23898168, -0.03219828, 0.3379146, 0.03105091, 0.207753, -0.023649205, -0.21713889, -0.058331057, -0.02713375, -0.1971576, -0.106564626, -0.045867406, 0.0390638, -0.042710707, -0.11797426, 0.13095517, -0.015207133, -0.16527516, 0.1842616, 0.28214923, -0.022032563, 0.06679201, 0.09425815, -0.098341666, -0.1066356, 0.21312448, -0.3482896, 0.13129248, -0.023327183, -0.017527586, 0.019181492, 0.3052778, 0.32542777, 0.09640284, 0.041346833, 0.17676494, -0.2853836, 0.16782124, -0.20720471, 0.12395886, 0.16543019, 0.16487058, 0.1235312, -0.04394979, -0.03760617, 0.08820474, 0.018461924, -0.13599771, -0.10561259, -0.2656236, -0.042462647, 0.056142744, 0.27460012, 0.052288886, 0.059928674, -0.012620414, 0.1930803, -0.07760459, 0.15394995, 0.02667485, 0.09114715, 0.13813019, 0.056149796, -0.036899447, -0.052348815, -0.24072851, -0.23213091, 0.057104655, 0.05693945, 0.14737238, 0.035131216, -0.09109444, 0.088163905, -0.050835546, 0.105108485, 0.16774155, 0.0395985, -0.012086649, -0.18505797, 0.017415084, 0.064944796, -0.094153725, 0.034583203, -0.014426896, 0.21156564, 0.1974081, 0.060484145, -0.14983113, 0.07732716, 0.105496146, 0.030592822, -0.11210618, 0.118246295, -0.019167503, 0.08334777, -0.25283435, 0.05900204, -0.069258995, 0.17746997, -0.2053239, -0.17385738, 0.15934555, -0.23356402, 0.038418025, 0.125235, 0.0127235195, 0.0003945021, -0.1568923, 0.08055442, -0.13007541, 0.0938851, -0.060894724, 0.19588132, -0.10138701, -0.26879102, -0.033466086, -0.24453656, -0.0562104, -0.05745461, 0.04676145, 0.1551717, -0.24578133, 0.18458958, -0.059177242, -0.043940093, -0.0995065, -0.14368495, -0.061810557, -0.07810578, -0.058413167, 0.1828563, 0.07310477, -0.037946653, 0.13091636, 0.120101824, 0.0926158, 0.12248453, 0.0036902553, -0.11817816, 0.022779021, 0.32073355, -0.07482102, 0.060697086, 0.121829495, -0.14342427, -0.02337047, 0.03386414, -0.04777485, 0.007753597, -0.11653235, -0.060420994, 0.115338676, 0.09611858, 0.05769378, -0.07760193, -0.06834951, -0.038197238, -0.0513452, 0.21529932, -0.13522616, 0.13045976, 0.02577451, -0.09607007, 0.06200543, -0.15936913, -0.116718374, 0.069829695, 0.019744338, 0.14939635, -0.30900458, 0.11835283, -0.03139093, -0.07408338, -0.038895816, 0.020689933, -0.14511718, 0.14620037, -0.25188592, 0.055540312, 0.08856466, -0.20429, -0.093246914, -0.063701995, 0.12637825, -0.027168069, 0.16271748, 0.06268814, -0.055712525, -0.043046635, 0.17895766, -0.12409104, 0.22683297, -0.09261589, -0.05987588, 0.006664516, -0.18257393, 0.16476616, -0.05846728, -0.065712474, 0.2549722, -0.020585781, 0.16231088, -0.13011011, -0.18078382, -0.007882456, -0.023482222, 0.3073117, -0.03319022, 0.14922845, -0.060868174, 0.1304698, 0.040997222, -0.099070035, -0.19435883, -0.18799244, 0.04708678, -0.070943594, -0.018731745, -0.12284462, -0.048133682, 0.119590014, -0.23969261, -0.05866441, -0.059814088, -0.106766604, -0.023965724, 0.0812514, 0.17547685, -0.09387592, -0.18979234, -0.041114926, -0.0025871051, 0.023929227, -0.1447039, 0.09114379, 0.12077327, 0.11713471, -0.036407877, -0.07498517, -0.09711865, 0.11741087, 0.042051308, 0.027204059, -0.07697527, -0.0033967283, -0.02909224, 0.235972, -0.15818356, -0.14675744, 0.10865191, -0.04653243, -0.010567761, -0.027989728, 0.040318966, -0.03584081, -0.055428423, 0.18728504, 0.1066541, -0.15154444, 0.2122726, -0.29518294, 0.022372307, 0.12960607, 0.0008893528, -0.0763507, 0.049659815, 0.03316268, -0.063657664, -0.048920166, 0.17413874, 0.11589546, -0.14827296, 0.0047950265, 0.09560811, -0.07224055, -0.1668878, 0.12706289, 0.08077599, -0.11637273, 0.14853424, 0.056345012, -0.015695374, 0.2349397, -0.11316294, 0.11279605, 0.02674919, -0.10055327, -0.20676543, -0.04175367, -0.13101088, -0.075021334, -0.14150386, 0.2183603, -0.099880345, -0.09520863, -0.18061076, -0.13937032, -0.07157975, -0.3050369, -0.13174243, -0.019181103, -0.08089173, -0.056896362, 0.13461673, -0.0722357, 0.121528275, 0.04899981, -0.13470459, 0.08824742, -0.008685688, -0.07431301, -0.11107601, -0.15017839, 0.057237796, -0.015219327, 0.105275944, 0.07287648, -0.16376622, -0.11403915, 0.043786436, 0.21474515, 0.083833314, 0.03874977, -0.06128591, 0.040030964, -0.11538559, 0.09906018, -0.117397815, -0.028701898, 0.1845543, -0.018686159, -0.105381206, -0.12223326, -0.11568212, 0.09309532, 0.09093338, -0.01436747, 0.08536431, -0.026609711, 0.07181326, -0.15258087, 0.06213749, 0.0092520295, 0.21944964, 0.02463234, -0.07889561, 0.019080602, -0.03937283, 0.14701186, -0.054814126, 0.018586032, -0.030770352, -0.030774135, 0.054191083, -0.052200433, 0.11210328, -0.028544787, -0.0667675, 0.09266467, -0.16710447, 0.022810346, 0.14091122, 0.13067764, 0.013037926, -0.076938055, 0.05179231, -0.020386564, 0.15532322, 0.056753356, 0.14962521, 0.09892339, -0.113733076, 0.0694748, -0.029824585, 0.07152814, 0.09632794, 0.13387588, 0.011859049, -0.095967375, -0.08729696, -0.04124991, -0.07005909, -0.10202691, 0.03795885, 0.21305853, 0.12988473, -0.17352669, -0.31692466, 0.07324581, 0.097567946, -0.048430633, -0.16940019, -0.028158162, 0.082391, 0.10370253, 0.037687283, -0.07902863, -0.18276927, -0.11612813, -0.007426051, -0.040777586, 0.13350016, -0.1271837, -0.06738594, -0.08760493, 0.1065852, 0.25638667, 0.01959923, 0.11494781, 0.0682995, -0.07553504, -0.033055887, -0.051827174, -0.10161411, -0.14528969, 0.09652417, -0.12263642, 0.028117685, 0.068381414, 0.024259655, 0.13543186, 0.08258658, 0.011760622, 0.102497794, 0.08998879, 0.20471457, -0.081018746, 0.043392546, 0.15093988, -0.022814525, -0.091176115, -0.17049657, -0.053914078, 0.059807424, -0.20251699, 0.087649435, -0.020523706, 0.023762722, -0.18270786, -0.016780939, 0.29576275, 0.071665704, -0.03247687, -0.035209354, 0.1576652, 0.04317507, 0.033388022, -0.109510005, -0.017987777, 0.021223048, 0.13098688, 0.19383499, 0.06551261, -0.05018909, -0.12800476, 0.067171924, -0.035851743, -0.1719817, 0.20042346, 0.13610312, -0.052312102, -0.09887011, -0.09802347, 0.03407296, -0.060685735, 0.053691953, -0.16305147, 0.24440725, 0.06846976, 0.24681023, -0.05893186, -0.16672485, 0.0040673846, 0.015583982, -0.018003635, -0.07409225, -0.11405468, 0.076070875, -0.13679202, -0.009411451, -0.0005788162, -0.14612272, 0.06086683, -0.07138099, -0.026873326, -0.12818606, -0.07255367, -0.03505412, 0.18747477, -0.013875061, 0.021974772, 0.049069688, -0.083954744, 0.005311844, 0.104899324, 0.057815198, 0.032139715, -0.23761152, 0.025809076, -0.26793736, 0.003999597, 0.2113746, -0.18242899, -0.03374837, -0.035349824, -0.05567266, 0.20135328, 0.06526372, -0.06332722, 0.21395776, -0.003868258, 0.00992915, -0.10929434, -0.07986753, 0.03113613, -0.14403194, 0.00705654, 0.025522508, 0.007937534, 0.08542164, -0.009255833, 0.05114969, 0.028993135, -0.08767166, -0.059874367, 0.032108128, -0.17772159, 0.028581046, -0.11595749, -0.027159864, 0.015817717, 0.051807325, 0.16174331, 0.16200635, 0.009631578, -0.012283182, 0.27113822, 0.17109588, -0.055545438, -0.12637804, -0.04209678, -0.18770613, -0.18050161, 0.16738579, 0.03980652, -0.06649563, -0.036220375, 0.24538793, -0.14595184, -0.08537298, 0.07504179, 0.014725342, 0.109253414, -0.13363713, 0.07758837, 0.07821597, 0.12047489, 0.03590066, 0.11062512, -0.0070694666, 0.058418155, -0.06482943, 0.09065662, 0.047496572, -0.06232267, 0.06583194, 0.020580629, -0.26280427, 0.018713146, 0.08087053, 0.02115264, -0.122651696, 0.057089124, 0.11711104, 0.012671007, -0.19748352, -0.050099123, 0.03519049, -0.10062432, 0.11201285, 0.16877834, -0.10487412, -0.16670807, 0.11388712, 0.033251803, 0.059620038, 0.030831408, 0.04135529, -0.05645569, 0.002583917, -0.041734748, 0.041138027, -0.0371418, -0.058336034, 0.12733321, 0.033527788, 0.056225274, 0.25787666, -0.082231134, -0.07838906, 0.10015097, 0.10504364, 0.14790733, -0.29926816, -0.009399822, -0.043672893, 0.06933261, 0.010933319, 0.025239635, -0.14410634, 0.052201014, 0.0542147, -0.03562345, 0.05977403, -0.19502036, 0.04505372, 0.049325667, -0.056492426, 0.098118395, -0.016548507, 0.06763399, -0.08397341, -0.15192045, 0.092259, -0.05586136, -0.030669054, 0.004580998, 0.10640399, -0.054942455, -0.096882746, 0.049373314, 0.025531776, 0.07424341, 0.09985612, -0.062517434, 0.01234483, -0.11905203, 0.03935759, -0.08436866, -0.10585973, 0.06604613, -0.07156144, 0.2089571, -0.14362209, 0.006850694, 0.056382596, 0.08310941, -0.18927191, -0.07942015, 0.1188369, -0.09491158, -0.059758123, 0.18464921, -0.054310925, -0.049053892, -0.15197694, -0.12746307, -0.27215046, -0.03861806, -0.07838943, 0.15112764, 0.18900473, -0.01682761, -0.22854564, -0.017788453, 0.07901298, 0.02536418, 0.084509045, -0.031466365, -0.1610077, -0.041248035, 0.10465962, 0.14236014, 0.010354488, -0.2782478, 0.13043606, -0.09450645, 0.07620075, 0.018675607, -0.061690204, -0.13809401, 0.024737604, 0.34613574, -0.006459582, 0.12591414, 0.09776672, -0.020326827, -0.03366279, -0.049216166, 0.11023883, -0.10512925, -0.029605307, -0.07574938, -0.14086804, 0.08905953, 0.2191609, -0.022631885, -0.0523919, -0.04269831, -0.08533161, -0.04598446, 0.121493965, -0.07532105, 0.23356679, -0.10856047, -0.02174493, 0.013554277, -0.011745699, -0.0056511713, -0.09376562, -0.056706544, 0.06231408, -0.0983816, 0.11265837, -0.06544677, -0.21297887, -0.041304573, 0.109880395, 0.013909292, 0.06966332, 0.13844004, -0.096688524, -0.0761924, -0.09511084, 0.036193423, -0.07301064, 0.037569348, 0.07494884, -0.106714, -0.035298865, 0.07711876, -0.023531359, 0.020108309, 0.011693602, 0.018552361, -0.15646736, -0.032193866, 0.015906654, 0.15219042, 0.036247198, -0.072046794, -0.06362769, -0.09602008, 0.31373423, -0.06880928, 0.077450246, -0.011096682, 0.029065052, 0.060492292, -0.039910816, -0.09236607, -0.10984242, -0.12851737, 0.01831191, -0.004626547, -0.010223658, -0.13012572, 0.2055783, 0.118189074, 0.07193551, 0.031228513, 0.03669856, 0.022904165, -0.13634557, -0.0022923613, -0.07474022, 0.17195454, -0.111593336, -0.008136911, -0.18695511, 0.20911266, 0.04142375, 0.024705252, 0.059292916, 0.053897396, -0.0075685624, -0.040860612, -0.12762287, -0.06751898, 0.04464272, -0.040169694, -0.006544781, 0.10685288, 0.042745803, 0.05484823, 0.07311623, -0.0035525346, 0.10357527, 0.013518404, 0.037347823, -0.15449998, 0.034745883, -0.106360324, 0.21779774, -0.088188455, -0.5243208, 0.21278968, -0.050243594, -0.0825564, 0.083863266, 0.18981056, -0.06486028, -0.123595335, -0.07346466, -0.025642445, 0.0063372925, -0.046323292, 0.031484038, 0.07412605, 0.15790261, 0.07648393, -0.059325103, -0.057708107, 0.10727825, -0.25728828, -0.044150308, -0.08200089, -0.09384278, -0.029413225, -0.08235965, 0.30619323, -0.17064637, -0.09233538, -0.012101134, 0.04445416, 0.014332637, -0.033419233, 0.13023718, 0.05203344, -0.09009933, -0.064826086, 0.10970952, 0.11398846, -0.18509407, -0.097430155, 0.043787606, 0.04238131, -0.045324463, 0.12723145, -0.019131228, -0.07782962, 0.0390286, 0.049213115, 0.11882432, 0.07144323, -0.09214081, -0.009466964, 0.04854639, 0.02703431, -0.095842294, -0.088725105, -0.029047856, 0.092080995, 0.21014503, 0.07738634, -0.0009961014, -0.031000197, -0.13053285, -0.14690024, 0.02512171, -0.115387894, 0.03675367, -0.021892097, 0.087515354, -0.003997437, -0.062887974, 0.26712123, 0.19900894, -0.013872262, -0.11851812, 0.117264844, 0.0043727686, -0.049150445, 0.0707731, -0.072468475, 0.18578646, -0.10035797, 0.013426964, -0.011040289, 0.07187876, -0.0068010427, 0.30826843, 0.044877913, 0.0811342, -0.026633395, -0.029599736, 0.028681993, -0.17835523, -0.01185792, 0.18106563, -0.11862071, 0.11919489, -0.06644268, 0.24858056, -0.089855924, -0.25562322, 0.3148048, 0.2977888, -0.0126485, -0.16758332, 0.085594766, -0.055008825, 0.09559316, -0.1909079, -0.140729, -0.20435648, -0.03594849, -0.08404743, -0.15011758, -0.054224387, -0.012644157, 0.082000785, -0.13102412, -0.05135691, -0.17329551, 0.20323908, -0.048945375, 0.27422258, -0.0011518927, -0.17285119, -0.120861486, -0.06657535, 0.035909537, -0.01685926, -0.23148952, -0.1034094, -0.1187333, 0.094731145, -0.22529045, -0.16749781, 0.13783672, -0.045973755, 0.23773143, 0.13502581, 0.07892825, -0.040410157, -0.1587741, 0.1552686, -0.12339369, 0.064282514, -0.025115104, 0.17297095, -0.06950245, 0.09097523, 0.016472578, 0.25244147, -0.145141, -0.1484443, 0.19427206, -0.06286192, 0.21678309, -0.0053536957, -0.0072610704, -0.20468739, 0.034663685, 0.05380456, -0.1334333, -0.19994535, 0.2075427, -0.22863299, -0.08236394, -0.0050163786, 0.076076955, 0.13388275, -0.00668195, -0.03573766, 0.07761293, -0.17181894, 0.16940491, -0.06982052, 0.21890534, 0.0714252, 0.19276954, -0.22222754, -0.24268383, -0.10322731, -0.114345625, -0.027555963, -0.015815644, 0.0056630196, 0.032194637, 0.092986, 0.1422901, 0.12191077, 0.053955216, -0.111666106, 0.035181507, 0.13483758, -0.12633477, -0.051981546, -0.00010454138, 0.08336929, 0.039776266, -0.13295077, -0.15150043, -0.13563149, 0.1731937, 0.027404066, -0.14170513, 0.08821536, -0.11572786, 0.18846065, -0.21709447, -0.14817603, -0.0114803305, -0.06593373, -0.14246099, -0.17585789, -0.17144707, 0.1369365, -0.044819776, 0.11127104, -0.002072501, 0.14409323, -0.056210745, 0.06828825, -0.012830195, -0.23372243, 0.2445494, -0.095790006, -0.020882813, -0.054182272, 0.16883023, 0.16063713, -0.28111473, -0.064791925, 0.1917846, 0.028979782, 0.080486074, 0.13554414, -0.21987492, -0.049766425, 0.011828055, -0.16822591, -0.06553242, -0.06316276, 0.068213284, -0.16814616, -0.13318774, -0.08431228, -0.12514967, 0.04203785, 0.18416916, 0.18197583, -0.17902543, 0.04969652, 0.025600081, -0.19552755, -0.16343649, 0.09231308, -0.25829396, -0.21868928, -0.26118243, 0.11095702, -0.049230535, 0.3302499, 0.26149216, 0.21570197, -0.0037752665, 0.21373746, -0.054380283, 0.11515892, 0.18819065, 0.072955385, -0.12028515, 0.09113049, 0.16444136, 0.0020445702, 0.13918301, 0.234795, 0.03885786, -0.09893348, 0.03416792, -0.1589019, -0.046680532, 0.1871372, -0.06908618, -0.0896802, 0.24350415, -0.019013647, 0.23810816, -0.089257814, 0.08357069, 0.13302113, -0.07165903, -0.051170953, -0.014198852, 0.11316871, -0.21087894, -0.23573838, -0.05535823, 0.023486484, -0.017570136, 0.065455064, 0.0577214, -0.02768522, 0.19855912, -0.1329749, -0.16794598, 0.23327349, 0.18033603, 0.035218284, -0.030786783, -0.06818773, 0.07610689, 0.055551868, 0.05399863, -0.15893559, 0.20023516, 0.023914477, -0.0040100594, -0.06152058, 0.2012113, -0.10699424, -0.014201136, -0.15188214, -0.006638056, 0.029828994, -0.06987856, 0.027844364, -0.0053082355, -0.06329676, 0.088749655, 0.23669408, 0.0633205, -0.075501375, 0.044330455, -0.04468414, -0.08929819, 0.055195585, -0.0051996782, 0.035975464, -0.058448985, 0.02144283, -0.11796168, 0.017855756, -0.052025054, 0.1492603, 0.10943205, 0.038556747, 0.008885416, -0.11123852, 0.05743617, 0.027718643, 0.055764694, 0.16292286, -0.24528895, -0.04303551, 0.109092295, -0.028074281, -0.15221237, -0.034085486, 0.4228091, 0.099022925, 0.014782986, -0.2722178, -0.025103835, 0.045635205, -0.049598344, -0.1935335, 0.0043452894, -0.04384313, 0.13331865, -0.002206919, -0.00090207206, -0.16694306, -0.006199999, -0.049486168, 0.050760806, 0.014774098, -0.13148998, -0.058639236, -0.014248722, 0.30154154, 0.10071844, -0.17086482, 0.03832983, -0.054001298, 0.04395131, 0.12682724, -0.099911965, -0.21914704, -0.2268056, 0.14111567, -0.12459756, -0.078498244, 0.06334241, 0.10368231, 0.22074445, 0.093484975, 0.13685241, -0.0080219, 0.03227506, 0.20418656, -0.12160499, 0.017355753, 0.16796285, 0.0875232, -0.1293545, 0.03991636, -0.1331352, 0.19867142, -0.23438294, 0.015689211, 0.1926481, -0.0011255338, -0.118534535, 0.09974627, 0.09889241, -0.053814836, 0.036330752, 0.06924912, 0.01598, -0.17017001, 0.10519632, -0.12233504, -0.08265183, -0.03473119, 0.03738281, 0.16327862, 0.021321421, -0.0041440604, -0.07620221, 0.015602499, -0.00685003, 0.03549105, 0.17939007, 0.16178073, 0.07317618, -0.20096913, -0.12770408, -0.023209278, 0.05370635, 0.079142995, -0.14826709, 0.10059785, 0.06361615, 0.16710868, -0.00399752, 0.02939536, 0.082840465, -0.05050188, 0.12955752, -0.0041576177, 0.031067422, 0.08525935, -0.10219639, -0.13922188, -0.057095133, -0.16187188, -0.027286366, -0.2006, 0.10727043, 0.11302311, -0.06272834, -0.026717985, 0.13235143, 0.08968551, -0.0011234555, -0.11440752, -0.22613598, -0.12771492, -0.04704816, 0.0056500155, -0.044713892, 0.011311643, 0.003169607, -0.04558841, -0.04546897, 0.090532616, -0.17731936, 0.06830567, -0.0047102026, -0.14290626, 0.08658721, -0.001959242, 0.010460734, 0.014311259, 0.16046757, 0.11848033, -0.17496996, -0.11550933, 0.17027996, -0.22581322, 0.2220437, 0.027265852, -0.098941885, -0.027334338, -0.008305256, -0.029078197, -0.08838847, 0.072843954, -0.020016918, -0.00033941795, -0.007201868, 0.063445, -0.031713203, -0.13562079, 0.1549894, 0.13438846, 0.06475207, 0.13406815, 0.11308871, -0.076286055, 0.09689672, 0.26777282, -0.2724799, -0.08130071, -0.15539329, -0.09562768, -0.08016934, 0.2229167, 0.21209408, 0.055872332, -0.06948905, 0.28344864, -0.13304077, -0.010206373, 0.044818502, 0.019041225, 0.11241919, -0.037235618, 0.015127911, -0.037995424, 0.1163654, 0.1288372, 0.0029439623, -0.08370352, -0.060528215, -0.24782673, -0.038156167, 0.20063607, 0.11642597, 0.040666282, 0.091919854, -0.16128044, 0.18343319, 0.025224589, 0.06813323, -0.06355279, 0.08136063, 0.12893094, -0.02269155, -0.12036628, -0.20128201, -0.13143586, -0.1672151, 0.1128105, 0.102675654, 0.044530984, 0.004988343, -0.09057487, 0.05716471, -0.07799042, -0.072742544, 0.1663043, -0.04224561, 0.013794622, -0.10864828, -0.06366301, 0.022568827, 0.009046018, 0.14144628, 0.04099512, 0.1374063, 0.3410093, 0.0790327, -0.14874952, 0.20973858, 0.08942966, -0.0017358559, -0.09161027, -0.059091195, -0.07394184, 0.051946897, -0.21999046, 0.20345451, -0.074253604, 0.11731895, -0.024807747, -0.07227198, 0.010826424, -0.004238741, 0.14615798, 0.053146444, 0.22456098, -0.011388009, -0.006168844, -0.030945675, 0.03697998, 0.12424751, 0.242749, 0.052172516, 0.20652033, -0.1792513, -0.055943213, 0.025218535, 0.044647526, 0.17651731, 0.16686206, 0.04496984, -0.18678129, -0.11055428, -0.024117257, -0.12190446, 0.14296558, -0.17604053, -0.018563915, 0.25431982, 0.012734786, -0.047135748, -0.111899905, -0.21098602, 0.06551848, 0.034625825, 0.04155783, 0.14112511, -0.07884328, -0.2014805, -0.044371407, 0.2534437, -0.16749878, 0.14735608, 0.08275969, 0.0019352847, 0.013317404, 0.13796091, 0.016702402, 0.12240692, 0.10786441, -0.07831016, 0.009775756, -0.0420989, -0.0570837, -0.049141157, 0.0021404903, -0.017113212, 0.08085905, -0.0755044, 0.04027986, -0.057009347, 0.047549523, 0.012060218, 0.031550676, 0.12596837, 0.22240002, 0.11109706, -0.05485925, 0.011652749, 0.13303185, -0.21151276, 0.0795602, -0.18695162, 0.12620895, -0.041838836, -0.032018054, -0.034248274, -0.059199527, -0.077207506, 0.1778574, 0.014265344, -0.18228935, -0.13213633, 0.06469735, -0.08234109, 0.054805033, 0.22364306, 0.1533174, -0.11508443, -0.08443092, 0.0055876924, 0.041427996, -0.08571616, 0.13504903, 0.06650367, 0.0026191936, 0.21658385, -0.110561244, 0.0001699334, 0.058066826, 0.12206296, -0.18816707, 0.1532628, 0.16477267, -0.00056799897, -0.06646841, 0.14066845, -0.21860929, 0.13177013, -0.13632226, -0.028340235, 0.032107685, -0.03979827, 0.22809894, -0.059253734, 0.0032891678, 0.10250336, -0.023954416, -0.18837361, -0.06340943, 0.19699566, 0.11583675, -0.36484203, 0.045058455, -0.04728824, 0.01954024, 0.11465547, -0.07914496, 0.0035207006, 0.00858055, 0.12610833, 0.052749857, -0.021883838, 0.04200272, -0.008274251, -0.07465092, 0.04649972, 0.09556429, 0.10173834, 0.13760522, -0.031702645, 0.1748771, -0.10295925, -0.07586255, 0.21303496, 0.106389165, 0.049984798, -0.0028525481, -0.036048103, 0.10102308, 0.02406673, -0.05570581, 0.06040818, 0.019012611, 0.06668594, 0.07780333, -0.022828732, -0.08082461, -0.033991184, -0.1641157, -0.0424316, 0.06526517, 0.11579681, 0.014172755, 0.01916738, 0.0057716123, 0.22050461, -0.10475247, 0.0078527555, 0.08946669, 0.027114075, -0.07322006, -0.19672771, 0.0017401058, 0.04594027, -0.13795775, 0.0040136944, 0.18896152, 0.052354604, 0.0048534125, 0.26718855, 0.28470424, -0.056410685, -0.0004012208, -0.12131594, 0.0570028, -0.15965427, -0.10258179, -0.018218638, 0.23559217, -0.109800935, 0.02795173, -0.056419875, 0.090469174, 0.0028830827, -0.048985183, -0.09437848, -0.13148387, -0.15522075, -0.00072500773, 0.03949414, -0.030159352, -0.24883735, 0.11059818, -0.24675336, -0.23602895, 0.05606882, 0.058266435, -0.16635737, -0.050157115, -0.01671374, -0.03815635, -0.037531734, -0.046211056, -0.023099294, -0.02831536, 0.023440609, 0.08280958, -0.14016199, -0.11399828, -0.079421975, 0.0290501, -0.12307657, -0.0002474377, -0.03812019, -0.09808818, -0.14724623, -0.0662588, 0.14746654, 0.085306376, -0.1889249, 0.0015503843, 0.032512236, 0.12471696, -0.048783164, -0.03108244, 0.10554939, 0.07921237, -0.014497766, -0.1168644, -0.046570007, 0.044601858, -0.071078174, -0.12547766, 0.14161086, 0.17093131, 0.18027946, -0.21478866, -0.033810377, -0.020519342, -0.09044792, -0.20017803, 0.06111753, -0.01757521, -0.047281448, -0.05662456, -0.21342662, 0.11539777, -0.08578729, -0.16291782, 0.053163834, 0.03611634, 0.15852307, -0.121553235, 0.12843826, -0.103008546, -0.10190108, 0.06479009, 0.101454765, 0.014347796, 0.03281932, 0.055301294, 0.035295933, -0.050543047, 0.13164285, 0.046164278, 0.2914303, -0.052647125, -0.10447768, -0.35464594, 0.008204297, -0.011635281, -0.12670225, 0.1420581, -0.0626615, -0.17373435, 0.046959754, -0.05945392, -0.10249014, 0.22430938, -0.055661898, -0.14193593, 0.09588482, 0.24018145, -0.09734925, 0.053888593, 0.13983572, -0.02464917, 0.06408873, -0.05561929, -0.10967659, -0.19910893, 0.05038516, -0.07409178, 0.09695399, 0.07226928, 0.17920461, 0.097895354, 0.029385401, 0.18526302, -0.15333167, 0.03769165, 0.19704163, 0.042339068, 0.030417455, 0.026863856, 0.26783207, 0.14394693, -0.32392427, 0.19419569, -0.13671538, -0.10532269, -0.06875641, 0.11407012, -0.119388744, 0.032220077, 0.23228356, -0.047215942, 0.05749553, -0.00048221773, 0.15761442, -0.032737907, 0.04071266, -0.32203227, -0.08383082, 0.16375692, -0.16633472, -0.06717749, -0.039051663, 0.21252014, 0.0015916114, 0.2774632, 0.1807066, -0.16339226, 0.0919465, 0.22113469, -0.11782381, 0.361602, -0.006999966, 0.08574754, 0.15096748, -0.035815943, 0.19879225, -0.024761204, -0.07763686, 0.27348083, -0.11490271, 0.09220067, -0.08590617, -0.10995457, 0.014409327, 0.011993623, 0.16055064, 0.08338859, 0.22334655, -0.021139612, -0.06640095, -0.019090356, 0.06544233, -0.032132942, -0.290087, -0.15969296, -0.0035383946, 0.06769955, -0.074375466, -0.17600785, -0.02471318, 0.05995706, -0.06489734, -0.23271734, -0.07357482, 0.07306518, 0.27009696, 0.1132721, -0.16958092, -0.028556436, 0.05514019, 0.13800465, 0.06353876, -0.01718064, 0.22554876, 0.22166479, 0.1385963, 0.024313904, 0.042975012, -0.072560765, -0.036590315, -0.16442613, 0.07232799, -0.21146274, -0.10953431, 0.06568046, 0.091404475, 0.008999638, -0.15231398, 0.027199676, -0.03763444, 0.089569435, 0.042036206, 0.018719105, -0.13643926, -0.22204179, 0.12295618, 0.082171336, -0.06176334, 0.13962817, -0.12218456, -0.13521864, 0.14184648, 0.08503412, -0.0042299116, -0.036359444, 0.1747103, -0.2745528, -0.18038456, 0.03466257, -0.004221672, -0.04004345, 0.06540037, -0.05103467, -0.20946324, 0.13797934, 0.20617501, 0.07269324, -0.067022316, 0.16570076, 0.031059565, 0.12925981, 0.093690656, -0.20937805, 0.3219566, -0.26313806, -0.07765011, -0.040235024, -0.12783039, -0.06607933, -0.09913755, 0.028439354, 0.037442, -0.07489319, -0.2742696, -0.12561625, 0.08341349, -0.10622473, -0.08565155, -0.027879622, -0.02508925, -0.08133933, -0.103197046, 0.24993482, -0.13301937, 0.11484337, 0.15482312, -0.1148663, 0.14978233, 0.03313419, -0.2345879, -0.07450715, -0.11040028, 0.24363892, -0.030265566, -0.044511124, 0.14608923, 0.0014797557, -0.0032000956, -0.056237128, 0.14235243, -0.08052005, -0.08245451, -0.0158871, 0.1393352, -0.13509661, -0.12621465, 0.12441548, -0.18895529, 0.0665475, 0.20641612, -0.023953905, -0.13187902, -0.019080995, -0.089846954, 0.19512114, -0.050709996, -0.17722529, 0.006743303, 0.12035978, -0.16096555, 0.2226851, 0.012692849, 0.03553002, 0.008110274, -0.13854842, -0.05050386, -0.0918367, -0.16212022, -0.0051924624, -0.12645312, 0.021330845, 0.09586386, -0.25243735, 0.24168769, 0.10975375, -0.2721234, -0.13211209, 0.0057744603, 0.09858523, -0.037715927, -0.11936718, -0.04761684, 0.0107049225, -0.07755007, -0.10238404, 0.15477777, -0.143827, -0.050951894, 0.042892516, 0.0063440553, 0.13913678, -0.232209, -0.02233103, 0.075054936, -0.11710375, 0.061634142, 0.107946396, -0.100299686, -0.05456451, 0.020720523, 0.12254575, -0.04964999, -0.24169514, 0.12812753, 0.16240202, 0.24840716, 0.14198595, 0.12524725, -0.019151028, 0.18748455, -0.1409755, -0.035077002, -0.011235157, -0.08257905, -0.026594017, -0.037162054, -0.14458214, 0.12724943, 0.04000718, -0.22209103, -0.1805517, -0.17888084, 0.15187162, -0.04585441, 0.09846113, 0.010720611, -0.1449635, -0.13033324, 0.03136989, -0.010326032, 0.053796213, -0.1662379, -0.07843435, 0.044271134, 0.09933327, -0.022889292, -0.053786706, -0.05985176, 0.011527229, -0.04538771, -0.045627855, -0.055145364, 0.17255099, -0.1704023, -0.29562727, 0.12485135, -0.08701959, -0.06635317, 0.09018633, 0.2108597, 0.10067027, 0.14808929, 0.023413155, -0.06517277, -0.10938716, 0.060738973, -0.08561046, 0.31602922, 0.21191268, 0.012262594, 0.09838006, 0.20493071, 0.044543307, -0.19080189, 0.02476084, 0.14044076, 0.08386165, -0.18062368, 0.004727071, 0.34325406, 0.1290615, 0.12927434, -0.05451954, 0.026051436, 0.08972567, 0.20665134, 0.09847875, 0.14790733, -0.004247198, 0.13531274, -0.13290702, -0.014035446, -0.1284018, 0.10697015, -0.18914668, 0.011861689, -0.0026118685, -0.1484868, -0.21191444, 0.101883605, 0.077963576, 0.015518479, -0.22717944, -0.13498992, 0.16542563, -0.077156276, -0.23063529, -0.015404965, -0.13042448, 0.083027296, -0.16786025, 0.08798524, -0.07988411, 0.10431066, -0.029529523, -0.15877709, 0.29154852, -0.040728357, 0.15456882, -0.12054636, 0.016594307, 0.2413809, -0.16850136, -0.1673449, -0.39840755, -0.13017675, 0.17261726, -0.1662379, 0.07807099, -0.17101221, 0.113713965, -0.0943006, 0.10248328, -0.09426507, -0.15729795, 0.1081203, -0.07266194, 0.0033260798, -0.074555635, 0.16319633, -0.023933087, -0.055740397, -0.033919536, 0.04688199, 0.43417746, -0.13566396, 0.12773101, -0.06848306, -0.09131275, -0.14493473, -0.14823376, -0.04276864, -0.23864542, 0.025501182, -0.05865943, -0.057142153, -0.0665236, -0.10472253, 0.0010703503, -0.08346799, 0.22388577, -0.1759278, -0.1532224, 0.105357245, -0.07441197, -0.1775474, -0.039163206, -0.065840706, -0.4891241, 0.05940145, 0.11415483, -0.1306179, 0.09190126, 0.03857346, 0.11523942, -0.26168725, 0.17959498, 0.06413766, 0.071412906, -0.0055397097, -0.043604426, -0.14128979, 0.11201825, 0.08019234, -0.13214083, 0.07865063, 0.2415962, 0.016996173, 0.06626257, -0.05002272, 0.014180477, -0.04236662, 0.04554665, 0.11114524, -0.06803856, 0.12320255, -0.06453183, 0.1450599, -0.020593727, -0.13490167, 0.22962941, -0.018625107, -0.15626875, -0.060377166, 0.24959916, -0.0029245226, -0.18152276, 0.023205454, 0.023023568, 0.05383678, -0.050385363, -0.123052925, -0.1904037, 0.12876804, -0.10706655, -0.053402465, 0.13982925, 0.16632707, -0.18998075, -0.06404537, 0.001705171, 0.18491861, -0.05084139, 0.039344367, -0.10881454, 0.1568645, 0.07972645, 0.11444798, -0.011250157, 0.044879835, 0.005888058, 0.06795009, 0.0743237, 0.03126101, -0.0040752906, -0.11224864, -0.14569663, 0.07261176, 0.026568446, -0.008287408, -0.0074301097, -0.0128692, 0.032005627, 0.16901436, -0.05443669, -0.13693605, 0.11336858, 0.043716338, -0.1868102, -0.10588275, -0.0639285, -0.0028018968, -0.22701478, -0.025172297, -0.15152025, -0.0012049691, -0.115461655, 0.09396233, 0.009754445, 0.027402926, -0.001952549, 0.16194494, -0.05881781, -0.019836433, -0.18670832, 0.22955152, -0.26791388, -0.002708589, 0.13971013, -0.0005737594, -0.22761801, -0.14625649, 0.16998015, -0.099696554, 0.04632343, -0.25369272, -0.05256771, 0.084131934, 0.17715232, 0.034373883, 0.07906038, 0.018445194, 0.011852633, 0.13405076, 0.08520095, 0.000775031, 0.10646891, 0.058025584, -0.06396775, -0.0574091, -0.17420346, 0.16866918, 0.3010348, 0.12961608, 0.037094124, -0.06338745, 0.050114866, 0.16677809, 0.1739049, 0.04266231, -0.08364805, 0.18295725, 0.05280283, -0.0721823, 0.0638126, -0.08301534, -0.14406052, 0.02894985, 0.11923206, 0.16761361, -0.120011635, -0.092029944, -0.1430541, -0.012080979, -0.10280852, 0.17083523, 0.046384763, -0.0034096516, -0.35664636, -0.048791483, -0.024773935, 0.03832909, -0.016390827, -0.16847292, 0.16756022, -0.09091843, 0.21136834, 0.29602093, 0.015086958, 0.028033933, 0.060525812, -0.06936166, 0.08505896, 0.090951376, 0.017690938, -0.010399056, -0.050622903, 0.19170292, 0.11338689, 0.07790387, 0.044133622, -0.02873291, 0.20449272, -0.0910152, 0.084420964, 0.06810806, -0.06499246, 0.11568812, 0.066512085, 0.3055667, 0.20007205, 0.14886661, -0.0657691, -0.07105244, 0.012471495, -0.21671835, -0.23739184, 0.10236122, 0.0947037, -0.27044144, -0.12256291, -0.03679918, 0.038661446, -0.10748357, -0.18244162, 0.00943687, -0.07961508, 0.16069452, 0.03387131, -0.1156659, -0.0071755634, 0.35584885, -0.22145985, 0.10101813, -0.099484354, 0.28978938, 0.07238536, 0.008551175, 0.18391897, 0.16030298, 0.047906753, 0.1745544, 0.034476675, 0.066312104, 0.009174573, 0.11444131, -0.08100714, -0.14194629, -0.012315127, -0.109690726, -0.04561436, -0.15543075, 0.3329181, 0.03652283, 0.009354934, -0.1994626, 0.02334217, 0.067084976, 0.28846678, -0.044652708, 0.14948414, -0.045398463, -0.2972675, 0.026519697, -0.065959215, 0.0130381, 0.1651846, 0.063343406, -0.2932609, -0.053490978, 0.03469263, 0.013158038, 0.108674675, 0.18492734, -0.3025997, -0.14452933, -0.014754348, 0.11418828, 0.044837777, 0.1910298, 0.025678415, 0.11177215, 0.0061946874, -0.035121236, 0.5019662, 0.097540416, -0.05905048, 0.11371154, -0.08991494, -0.29948017, -0.009699158, -0.04186788, -0.0023948632, -0.01170118, 0.009389934, -0.21077095, -0.099525146, 0.07717047, -0.16206133, -0.26227242, -0.042230513, 0.06678052, -0.2010654, 0.22240788, 0.12266602, -0.061383676, 0.106304176, -0.014098535, 0.05312622, -0.025474243, 0.2784209, -0.091331966, 0.06831325, -0.011382843, -0.0060507376, -0.005740767, -0.12527093, 0.16331257, 0.08281803, 0.0685424, -0.09704699, 0.048100367, 0.13008787, -0.1126531, 0.046471916, 0.0782319, 0.029678924, -0.18054831, -0.104572214, -0.04583585, 0.05047311, 0.035872895, -0.22364911, -0.08136729, -0.06773104, -0.019770116, 0.0027739601, 0.03691947, -0.1202776, 0.034008685, 0.077793784, -0.089062035, 0.11783014, 0.014189949, 0.011706106, -0.021508202, 0.12581372, 0.036606375, 0.008492482, -0.01112401, -0.0065294905, 0.051011264, -0.17898455, 0.16471039, 0.015833152, 0.03366868, -0.09111371, 0.055236824, 0.18320066, -0.1389874, 0.098976605, -0.005891504, -0.04768386, 0.026449066, -0.08959253, 0.21073441, -0.07750933, 0.03043218, -0.09573681, 0.002428195, -0.09947944, -0.072896585, 0.042110164, 0.05067327, 0.1423842, 0.071054906, 0.20955293, -0.109987415, -0.13850284, 0.04919708, 0.15887015, -0.022264658, -0.13650358, 0.056741428, 0.06395742, -0.008583258, -0.14130919, 0.0249585, 0.0061656474, -0.30515033, 0.061345097, -0.0228069, 0.17084911, 0.12904027, -0.028548028, -0.028010767, -0.08094359, 0.13376819, 0.0961778, 0.089649335, -0.040327303, 0.03211777, 0.063139595, 0.36136192, -0.21583632, 0.027302021, -0.1928661, -0.35041863, -0.012466194, 0.0006525162, -0.09165071, -0.01158775, 0.022974394, 0.093166746, -0.022849454, 0.07785912, -0.08561549, 0.04036467, 0.042690784, -0.09587968, -0.04523011, -0.03264943, 0.09033444, 0.003015969, -0.174191, 0.23663066, 0.19413386, 0.057642423, 0.025657654, -0.10121044, -0.010785581, -0.02942745, 0.05409356, -0.06930811, -0.026201587, 0.16777286, 0.06822611, -0.15726255, -0.015089871, -0.19641204, 0.027391711, -0.09694773, -0.10916446, -0.09801135, 0.049969167, 0.028304636, -0.028729169, -0.12627831, -0.0059351386, 0.22744848, 0.043762073, -0.3323703, -0.19449162, 0.0806013, -0.0015582578, -0.025824193, -0.028903522, -0.16961953, 0.20795359, -0.09530924, -0.088634014, -0.070112705, 0.115553685, 0.030846614, -0.042863153, 0.06332051, 0.17476189, 0.17002502, -0.07244045, -0.06427721, 0.08685576, -0.0074144946, 0.10694171, 0.010556233, -0.0027570252, 0.03913758, -0.03490123, 0.16475427, 0.016011544, -0.055465925, -0.044337057, -0.15809816, 0.034123767, -0.111861855, 0.14370915, -0.1442572, -0.01564358, 0.20162834, -0.18164821, 0.07648651, -0.10249252, 0.08984482, -0.020506935, -0.15056238, 0.16569479, -0.014104294, 0.177566, 0.05969161, 0.16622646, -0.06119704, 0.077058494, 0.37768728, -0.056010198, 0.12893654, -0.101668574, 0.16786674, -0.018820267, -0.38811588, -0.040241458, -0.003576011, -0.0016817973, -0.005406669, 0.031526458, 0.14085868, -0.14437322, 0.07191556, -0.29532388, 0.08430178, -0.12657559, 0.1293105, -0.1523506, 0.08310872, 0.11810509, -0.031038338, 0.24538621, -0.047411893, 0.05885729, 0.18424873, 0.0928808, 0.10104588, 0.024484633, 0.18070455, -0.25699115, -0.06766895, 0.03551105, -0.092067085, -0.07980581, 0.14474133, 0.06639228, 0.020077104, 0.4455037, -0.016909983, 0.17137966, 0.072044164, -0.29891232, -0.08310928, -0.014678504, 0.1348293, -0.34052593, 0.072783664, -0.09429955, 0.013240657, -0.0071124528, -0.05080328, -0.1015392, -0.29363102, 0.0117186345, 0.05524187, -0.10992361, -0.111131385, 0.019795844, -0.20034575, -0.02035354, -0.008811924, -0.043654863, 0.02312736, -0.0003174902, -0.11002115, 0.17117359, -0.14370419, -0.08326487, -0.06503928, -0.14280328, 0.10689359, -0.056622908, -0.08326067, -0.122864336, 0.052949827, 0.14808267, -0.14430709, 0.009629204, 0.024053803, 0.012588026, 0.11504355, -0.034769207, -0.06350586, 0.074201964, -0.011738686, -0.22437418, 0.055582494, -0.039017472, 0.09842821, -0.011730741, 0.086395286, 0.13951686, 0.041048568, 0.03860427, -0.07035868, -0.053817853, -0.014116165, 0.0814345, -0.02020955, 0.0075109764, -0.048344877, 0.066106714, 0.07429996, -0.052866023, -0.043235585, -0.1634285, 0.13884822, 0.038013846, 0.1758832, -0.04754339, -0.05629617, 0.0053205397, 0.012437486, 0.019110436, -0.07639968, 0.01993727, -0.06442245, -0.18469754, -0.045107014, -0.11967041, 0.080996364, -0.15277134, 0.1902893, -0.09437197, -0.21354993, -0.15407453, -0.17228015, 0.012600185, -0.018677728, -0.021055782, 0.21125375, -0.30711496, 0.103093565, -0.041552726, 0.21438298, -0.17281292, -0.13839008, 0.027086316, 0.041684207, -0.03444013, -0.052908354, 0.16223875, -0.13368036, 0.034168605, -0.07617535, -0.030037278, 0.16487423, -0.013171202, 0.1287293, 0.10416628, 0.08707064, -0.07969877, 0.06939504, 0.22843133, -0.10201003, 0.27450645, -0.014247098, -0.01041728, -0.17481215, -0.22543298, 0.18147807, 0.3272093, 0.11023451, 0.05785972, -0.13785332, -0.07136686, -0.006550242, 0.13720042, 0.18565507, -0.21481909, 0.11118212, 0.026766593, 0.0030275271, 0.045917924, -0.003614365, -0.05952399, -0.0072893403, -0.0056864503, 0.27759483, -0.21866412, -0.18074773, 0.003666769, -0.07712733, -0.094914116, 0.037940383, -0.11716564, 0.0007549141, -0.25687584, -0.01164522, 0.056229956, 0.026049467, 0.09898251, -0.17866032, 0.07274124, 0.13132325, 0.2685208, 0.09101306, 0.013148762, 0.058305874, 0.0589394, 0.058277577, 0.043295033, 0.023002543, -0.025259323, 0.028573185, -0.1506818, 0.2930948, -0.02291702, -0.010284208, 0.18892722, 0.016576305, 0.21478659, -0.032295, -0.034318347, 0.14980106, -0.11723541, 0.2415581, -0.11800713, 0.24755087, 0.13336302, 0.1793801, 0.046251025, -0.20365225, -0.022888545, -0.22320653, -0.14867169, 0.038107745, 0.006100933, -0.29914516, -0.07834037, -0.017925994, -0.08594868, -0.06460724, -0.10530138, -0.10027793, -0.067365065, -0.019803552, 0.0057106474, -0.026641093, -0.10872876, 0.050850376, -0.3561078, 0.11862995, -0.1162413, 0.050461434, 0.038926773, 0.03807532, 0.1067467, 0.16442609, 0.018904442, 0.2212522, 0.01741085, 0.07159766, -0.09206962, 0.09203217, -0.036651373, -0.098117836, -0.2528289, -0.22224902, 0.088664256, 0.09023301, 0.2635784, 0.0034299546, 0.07732965, -0.07803366, 0.08787256, 0.17699777, 0.19214192, -0.19634627, 0.12953986, -0.16164897, -0.2151285, 0.08311517, -0.0023403321, 0.027226217, 0.21808562, -0.047702715, -0.1299725, -0.1556353, 0.14186119, -0.019409455, -0.033610012, 0.0835362, -0.17862499, -0.06122883, -0.07650972, 0.08361801, 0.10670919, 0.10474588, 0.1012789, 0.18809357, -0.004095483, 0.091134146, 0.419819, 0.0013149738, 0.054719977, 0.06176191, -0.13324982, -0.082495525, -0.038501326, -0.07133547, 0.08192522, 0.050235726, -0.004341864, -0.13731839, -0.18188544, -0.10743709, -0.22192328, -0.36665472, 0.021618923, 0.09450972, -0.12645708, 0.31252676, 0.13867186, -0.049920112, 0.13247786, 0.07581329, 0.038216002, 0.05610215, 0.24263684, -0.06998906, -0.14281426, -0.0662191, 0.04550781, 0.037405107, -0.034206174, 0.20518892, 0.033816166, -0.18155085, -0.031550143, 0.005576307, 0.08216268, -0.14692867, -0.11216274, 0.14692098, -0.03512009, 0.0011719272, -0.17409019, 0.0046293424, 0.0967066, -0.123565406, -0.08149824, -0.09324643, -0.003149501, 0.16940995, -0.03110921, 0.016822878, 0.06764353, 0.05469522, 0.100401685, -0.13161266, 0.116104916, -0.0155166695, 0.11389687, 0.028092677, -0.07702394, -0.035073105, 0.23777172, -0.07889249, 0.0059245317, -0.07719439, 0.18340588, -0.13455404, 0.06905619, -0.072161846, -0.044974096, 0.09061935, -0.05948415, 0.11336858, -0.04145297, -0.12670149, -0.014562615, -0.0042098965, -0.0074126166, 0.0182561, 0.101910524, 0.08135217, -0.21550652, -0.049578764, -0.0316396, 0.024300547, -0.021929024, 0.1621086, 0.051177222, -0.14408666, -0.21353887, -0.0904598, 0.09718231, 0.08124725, -0.07014691, 0.16161579, 0.034017917, 0.19998607, 0.06370586, -0.24251118, -0.08621117, -0.11790017, 0.31071258, 0.11326933, -0.11148853, -0.12734243, 0.085619666, -0.126783, -0.012113487, 0.007010081, 0.037193842, -0.24198723, 0.161304, -0.10343801, -0.019073443, 0.0635775, -0.015430051, -0.020329291, 0.1787421, 0.018768746, -0.1964342, -0.038053703, 0.12819465, 0.051681187, 0.077412724, -0.021879619, -0.012393857, 0.108060546, 0.1447269, 0.12373806, -0.040158413, 0.033795387, -0.017368238, 0.1724152, -0.1252448, -0.069545455, -0.18355982, -0.13414443, 0.042111885, -0.09849129, -0.20834498, 0.016056024, -0.04114477, -0.06288934, -0.117910944, 0.045634586, 0.15484339, 0.0596707, 0.013644873, 0.1495385, -0.10635207, 0.06400603, 0.12232312, 0.21249647, -0.103311315, -0.012486952, -0.047633056, -0.01991508, -0.001238662, -0.095673785, -0.12903485, 0.011132839, -0.015374002, 0.107362404, 0.015594083, -0.05995635, -0.001963424, -0.16596788, 0.10938623, 0.13984077, -0.2026248, 0.03420485, 0.084557295, -0.03219938, -0.0070699793, 0.09918929, 0.006484246, -0.20302474, -0.01408363, -0.048399054, 0.057228066, 0.14511411, -0.11240462, 0.007870677, -0.16942635, 0.15013222, 0.044363637, 0.037307393, 0.001816307, -0.040679425, -0.03147926, -0.13548662, -0.006561799, 0.24687287, 0.03222773, 0.15317622, 0.046264265, -0.050270937, 0.095644295, 0.024980804, 0.09360471, 0.14423828, -0.08743783, -0.1624732, 0.06717118, 0.04655526, -0.052418802, 0.08429048, 0.17896014, 0.036356833, 0.029401448, -0.0028588797, 0.022741327, 0.059520535, 0.2356902, -0.08669106, -0.19732586, -0.009413861, 0.013379747, 0.084940866, -0.13467595, -0.16447471, 0.08459911, 0.11324185, -0.091293976, -0.016998881, -0.040282406, 0.036326602, 0.08709669, 0.11700856, 0.2361538, 0.08520667, -0.0023942504, -0.113791116, -0.11684317, 0.03519968, 0.036492474, -0.12064376, -0.021791842, -0.021154234, -0.1026424, -0.08480112, 0.1602477, 0.10484797, -0.13013448, -0.11736421, 0.1001264, -0.07514694, -0.1225349, 0.1250188, -0.060658418, -0.21764882, -0.30893493, -0.056575537, 0.40126705, 0.018818635, 0.11944298, 0.12950903, 0.041515075, -0.16357806, 0.018833457, 0.14338747, -0.08245479, -0.07554071, 0.0057010073, 0.10306815, -0.04348192, -0.03241801, 0.09392321, 0.09659614, 0.015711745, -0.07652375, 0.0036041276, 0.24955308, -0.041242365, 0.078629814, 0.12800376, -0.07181183, 0.096000254, -0.108246244, 0.031651918, 0.026321173, 0.19602072, 0.08611474, -0.089467645, -0.020233965, 0.085294224, -0.029216563, 0.025808556, 0.11751875, 0.13366807, 0.0014512946, -0.010718546, 0.16679128, 0.017859703, -0.0650492, 0.15409705, 0.0038681815, 0.041488133, -0.04724416, -0.072088405, 0.006541907, -0.15627263, 0.1340412, 0.12781908, 0.046145223, 0.05643679, -0.05851887, -0.12662245, -0.028320964, -0.014922238, -0.021027906, -0.3456617, 0.054427084, 0.01152476, -0.15058427, -0.14382415, -0.1769902, 0.07041907, -0.011782705, -0.16644408, -0.03250266, 0.080011494, 0.17083907, -0.09285127, 0.04947178, 0.18414968, -0.27889565, -0.22698659, 0.13426346, 0.053354915, -0.09521028, -0.2414297, 0.057630856, 0.10542416, 0.054688856, -0.11177073, 0.11129979, -0.12624237, -0.067077085, 0.025960255, 0.16120338, -0.12052939, 0.09469531, 0.12761566, 0.16477653, 0.11719467, -0.0012398625, 0.009667981, -0.041632593, 0.10529526, -0.09977906, -0.015533753, 0.05061796, -0.039458796, 0.056246743, 0.14430602, 0.06061296, 0.031601846, 0.088771716, 0.009789922, 0.068798766, 0.065891534, 0.054070655, -0.13174221, -0.18928921, -0.04345167, -0.17093503, -0.021599367, -0.03510861, -0.052926708, -0.108341634, -0.25465655, -0.023912584, -0.077653565, -0.1808664, -0.17490767, -0.16412245, -0.19012749, -0.07565425, 0.05941503, -0.063598044, 0.15110825, -0.060683504, -0.03085453, 0.10271125, 0.04633913, -0.06121338, 0.0005087028, -0.01682611, -0.13220757, 0.0785874, -0.057814296, 0.037688475, 0.13831267, 0.09442975, -0.021150086, 0.103316404, 0.0044681807, 0.097178176, -0.084647425, 0.11175049, 0.0513136, 0.14060101, 0.21448925, -0.00198987, -0.12254917, 0.10440489, -0.029788349, 0.11498338, 0.018769525, 0.09601697, -0.043896414, -0.019305363, 0.06464803, -0.09371783, -0.026880782, 0.09168405, -0.073914796, 0.07369383, -0.005428632, 0.087110706, 0.15154506, 0.00045266212, -0.047642563, 0.051562365, -0.04367889, 0.082213156, 0.23770498, 0.08942148, 0.06843532, 0.058355816, 0.018879622, -0.30001035, -0.0019897567, -0.10707844, 0.07084442, 0.15875016, 0.12963033, -0.08571134, -0.03162656, 0.0126161715, 0.13144815, 0.15056336, -0.112541564, 0.18915962, 0.09127826, -0.080632426, -0.11487648, -0.03036415, 0.028106924, -0.024821369, -0.20461032, -0.108415715, 0.14218138, -0.029361274, 0.032254558, -0.039236646, 0.019339502, 0.09062428, 0.09848049, -0.077638194, -0.012059897, -0.0014130652, 0.12435274, -0.037231755, -0.044361398, -0.11735162, 0.044170715, -0.15561096, 0.15975381, 0.044833124, 0.0024628614, -0.3097162, 0.09211855, 0.19966555, -0.28313747, -0.1342408, -0.030910075, -0.014380953, -0.047812827, -0.008245963, -0.02463924, 0.10006696, -0.09813929, 0.2933945, 0.004705518, 0.108445875, -0.027293356, 0.023904422, -0.15813555, -0.058724355, 0.012903691, -0.06655681, -0.04413256, -0.054465707, -0.020653756, -0.043433897, 0.102457345, -0.037508383, 0.08751033, -0.08597365, 0.23477332, -0.16749696, -0.06263042, -0.011801589, -0.22957051, -0.2081087, -0.2754287, -0.12951848, -0.20617014, -0.09322762, 0.13006626, -0.08479422, -0.019915266, -0.09637965, 0.04794542, -0.0007453996, 0.17318861, 0.07212022, -0.071738705, 0.23606364, -0.13444373, -0.13177107, -0.04500097, -0.06370345, -0.06924742, 0.1808065, 0.21289094, -0.02652557, 0.14099151, -0.018677017, -0.121600375, -0.043888032, 0.2685817, 0.006595539, 0.017355101, 0.037238814, 0.086120985, 0.08406859, -0.14753397, -0.13391058, -0.0009571924, -0.05661089, -0.20229065, 0.051481143, -0.057798956, 0.004463558, -0.083121285, -0.02743504, -0.066631876, 0.11478972, 0.062574886, -0.14722872, 0.08544461, 0.0920422, 0.0062297704, -0.078599125, 0.027548755, 0.13662595, -0.13614902, 0.0076130717, 0.09499766, 0.20277996, 0.008616439, 0.18196107, -0.038234357, 0.0769621, 0.093176536, 0.0040495703, 0.014413495, 0.06782316, -0.12703344, -0.10384003, 0.06438577, 0.07351853, -0.17212045, 0.111460276, 0.060509335, 0.102029435, 0.01753814, -0.010919123, 0.15969291, -0.09380861, -0.11547408, 0.06717646, 0.15008461, -0.040621664, -0.22518525, -0.016523357, 0.09425723, 0.043907113, -0.05887197, 0.03972566, -0.08876127, -0.050404668, -0.10253671, -0.01578002, 0.011511906, 0.04771095, 0.1368571, 0.1434003, 0.20967431, -0.11013423, -0.020110384, 0.002572508, 0.2736784, -0.13727598, -0.17918855, 0.018938886, -0.004502331, 0.060474597, 0.1216037, 0.1149843, -0.050175395, 0.051340252, 0.056013882, 0.16528963, 0.20800072, -0.010869919, -0.11163323, -0.11831862, -0.16331314, -0.010871244, 0.047554307, 0.048399054, -0.13163705, -0.009231902, -0.07156624, 0.106199175, -0.10369708, -0.12669085, -0.19490178, -0.3161395, -0.18877894, -0.023514656, -0.0638331, -0.02724575, 0.08150795, -0.03320984, -0.16240469, 0.02609503, 0.02441726, -0.14045788, 0.07408254, 0.03891503, -0.16089559, 0.051676642, 0.08281238, 0.033441674, 0.022741113, 0.1958983, 0.046937134, -0.011416371, 0.10481672, 0.057249296, -0.050759666, 0.06363199, 0.01460089, 0.10409709, 0.21498798, 0.160745, -0.027355066, 0.006402937, 0.029251955, -0.07857758, -0.06458632, 0.07979623, -0.13619706, -0.15263027, 0.09248276, 0.0051505305, -0.023307607, 0.058683634, -0.24545881, 0.14670637, -0.008131475, -0.17888145, 0.02392257, -0.08805815, 0.023088899, -0.02787192, -0.08458087, -0.0320459, 0.14891875, 0.031812616, 0.022549445, -0.11936911, 0.08487654, -0.1754814, -0.010071803, -0.19336438, 0.14420414, 0.12089456, 0.11040836, -0.08727251, 0.06266164, 0.13556702, 0.119529165, 0.07183688, -0.005637827, 0.22529301, 0.12747468, 0.021688294, -0.07294206, 0.042257424, 0.09512854, -0.07681406, -0.09447286, -0.22872026, 0.17884867, -0.020804297, -0.030876437, -0.034627274, -0.10635903, 0.094426066, -0.054700647, -0.11281613, -0.008551681, -0.119764, 0.10004773, -0.06220998, 0.10629287, 0.00261473, 0.12291254, -0.067564934, 0.16055664, 0.23167792, -0.099559024, -0.06999921, -0.0047962894, 0.25489804, -0.10906809, -0.22073628, -0.12988703, -0.09421989, -0.032235235, 0.076922625, 0.079791844, 0.16120736, -0.17104745, 0.16400851, -0.351908, 0.124924086, 0.027478304, 0.0377082, -0.10946838, -0.10669656, 0.07116737, -0.13823014, 0.262814, 0.03621762, -0.026460093, 0.17607854, 0.022372067, -0.035095505, 0.0315062, 0.08981394, -0.04209442, -0.11816924, -0.09999875, -0.03255053, -0.17492251, 0.021936625, -0.096388206, -0.11873692, -0.011195499, -0.2522293, 0.24731383, -0.04579656, -0.1130582, -0.09222121, 0.0027224282, 0.04576745, -0.006663267, 0.17629221, -0.035037104, 0.17713834, 0.020389339, -0.08893014, -0.048416678, -0.16878076, 0.01499156, 0.16195601, 0.10376354, -0.06809699, -0.0050961953, -0.013087709, -0.10279313, -0.031614628, 0.07845863, -0.028029209, -0.08905344, 0.10239491, 0.079235196, 0.050481983, -0.14833097, -0.071557395, -0.12256614, -0.025129594, -0.15892358, -0.112051666, -0.03014219, -0.10423749, 0.13183838, -0.13368972, 0.07506094, -0.014061287, 0.05954092, -0.058138296, -0.00768018, 0.082897626, 0.014496865, -0.053256273, -0.008700811, 0.026361931, -0.16712128, 0.11895868, -0.035315353, 0.092314765, 0.12274554, 0.15826003, -0.097130686, 0.109137796, -0.047030713, 0.057423655, 0.028086025, 0.09744968, -0.012800688, -0.042768527, -0.020563552, 0.08446655, -0.05889529, -0.097688936, 0.067871585, 0.022342436, 0.035183515, 0.06417124, -0.038015295, 0.10302369, -0.040736396, -0.037659876, 0.07977062, 0.0072897775, -0.23295745, 0.049442492, -0.04762507, 0.017362606, -0.0954927, 0.0222014, -0.2838709, -0.03342186, -0.21465047, 0.053919382, 0.063371934, -0.10079137, 0.01228508, -0.05941216, -0.12741134, -0.06404241, 0.10563292, 0.09711392, 0.10691969, 0.15887812, -0.24843346, 0.11976238, -0.071182236, -0.087006494, -0.025621086, 0.17696677, 0.20718527, 0.09918574, -0.014048043, 0.10913994, -0.119354196, -0.07012326, 0.061778553, 0.14750838, 0.036562074, -0.1004904, 0.113666825, -0.038928866, -0.10122298, 0.010050136, -0.07560241, -0.012162637, -0.067411385, -0.09014385, -0.15702406, -0.04262379, -0.027905917, 0.019739283, -0.038782883, -0.022471095, 0.14722417, 0.032369487, -0.12101469, 0.14488208, -0.033610426, 0.11682351, 0.055421866, -0.13119283, -0.048551694, -0.14957261, -0.14170729, -0.044868473, -0.10548699, 0.1384861, -0.18629585, 0.24959688, -0.07439143, 0.16104195, -0.08005503, 0.060449705, 0.06144262, 0.07085155, -0.07287089, 0.037087362, -0.10066626, 0.027426103, 0.021862041, 0.05528307, -0.024002595, -0.06731186, -0.057381444, -0.04096523, -0.045854054, -0.04710013, 0.016545394, -0.006193373, 0.020642053, 0.010605215, -0.08982959, -0.16973989, -0.04272315, -0.13243482, 0.052645344, 0.0016774099, 0.025308825, -0.12942304, 0.42750287, -0.177614, -0.22636193, 0.04951508, 0.13831814, -0.064569816, 0.07265632, 0.04965802, 0.11615909, 0.16199918, 0.019145314, -0.019056313, -0.2768509, 0.049401995, 0.12941156, -0.042444177, -0.05729493, 0.03866422, 0.10796603, 0.07568142, -0.13330302, 0.1630504, -0.20407006, -0.007581484, -0.07458669, -0.060842592, 0.14942509, -0.001995956, 0.0029836462, -0.046418365, 0.019177089, 0.005881285, -0.09937554, 0.028639961, 0.044651385, -0.007315485, -0.032016285, -0.15917403, -0.058261745, 0.0047225817, 0.12077265, 0.063665636, 0.08275594, -0.12400335, -0.15700716, 0.037115816, -0.0542815, 0.06290279, -0.15018067, -0.09878609, -0.08745665, 0.016702354, -0.09841618, 0.12964322, 0.019028645, 0.05341031, 0.084257655, 0.13568884, 0.099280976, 0.03397642, -0.09314032, 0.020848546, -0.07066682, -0.09658227, -0.044428956, -0.26049638, 0.109098755, -0.006415565, -0.030310145, 0.08267077, 0.09631546, 0.1888967, -0.053442124, -0.031784967, 0.08682371, -0.16141172, -0.09774733, -0.015791962, -0.0340083, -0.22118746, -0.10614197, -0.08106554, 0.1444646, 0.09230477, 0.08593331, 0.063882455, -0.1341396, -0.0046113753, -0.1972111, -0.049286354, -0.16357377, 0.13936889, 0.018188812, -0.08572405, -0.004998139, -0.02292907, 0.058508772, -0.018701676, -0.05255451, 0.026548952, 0.017842637, 0.085174404, -0.024560517, -0.0035009042, 0.09260913, -0.061504897, 0.016652273, 0.29865384, -0.009474004, 0.0071989857, 0.1234923, 0.016392257, -0.10241435, -0.0075641996, 0.07150667, -0.01797459, -0.063914396, 0.042609375, 0.20906886, 0.17349073, 0.08697373, -0.08869883, -0.011580452, 0.038891345, -0.0011259039, 0.18191397, -0.097156465, -0.06969656, -0.027995542, 0.04046039, -0.1393827, 0.021103885, -0.2802643, 0.08573917, 0.034399565, 0.057016335, 0.022601847, -0.06875364, 0.06454646, 0.047904428, 0.0690314, 0.10619135, 0.111384496, 0.0502646, 0.049663123, 0.09591954, -0.062139656, 0.09980181, 0.012504765, -0.047007434, 0.1917399, -0.18599935, 0.06802391, -0.18707259, -0.098542415, 0.17593071, 0.035178255, -0.12758063, -0.065958865, 0.019616732, -0.25441405, 0.061883472, -0.06807838, 0.15492988, -0.03630837, -0.062407948, -0.130551, -0.040096056, -0.22527969, 0.0973766, 0.10404139, 0.015723575, -0.03349559, -0.14923084, -0.026316803, -0.12970279, 0.013304365, 0.041395165, 0.052281138, -0.06461557, -0.28915906, 0.17123517, 0.10970391, -0.2552776, -0.17243354, 0.0997129, 0.09100906, 0.016560635, -0.029464722, 0.036135413, -0.016604735, -0.12083437, 0.12147332, 0.15634069, -0.021466456, 0.046691917, 0.17798045, -0.11675993, -0.25463253, 0.09808912, -0.05248601, 0.016072646, -0.17884488, 0.022917578, -0.20437083, -0.020666156, -0.0887706, 0.09611643, 0.10112427, 0.028352361, -0.0126347765, 0.1336269, -0.11765553, 0.06506347, -0.1364766, 0.12473964, 0.06504369, -0.118562035, -0.012135395, -0.2017866, -0.26371858, -0.14872809, -0.0008608495, 0.17979665, -0.06617596, 0.27863067, -0.09835396, 0.28311548, -0.10534434, -0.015619727, -0.061204154, -0.057997197, 0.006447405, 0.15559521, -0.06036276, -0.11469559, 0.091494896, -0.011701601, -0.06761126, 0.024129758, -0.028744305, -0.209274, -0.13762473, 0.14261197, 0.15555592, -0.15279469, 0.03836636, 0.10839073, -0.09420521, -0.17264967, -0.06911001, -0.20351988, 0.056796376, -0.072569706, 0.0029394035, -0.2157788, 0.1896807, -0.21781398, -0.25188234, -0.14405012, 0.25286996, -0.08351091, 0.24506122, -0.14761128, 0.035894737, 0.030645952, 0.011459633, 0.07508094, -0.23406257, 0.07989336, -0.053742312, -0.18446809, 0.078282036, 0.19410871, 0.020188162, -0.005444598, -0.008587722, 0.24961008, -0.08400374, -0.023153057, 0.12510377, 0.054316737, 0.19237916, -0.13160133, 0.04390048, -0.1545591, 0.07071103, 0.009349193, -0.13126008, 0.07535207, 0.08265783, -0.039452042, -0.026985124, -0.081201494, -0.065516345, 0.046065062, -0.13050309, 0.029363753, -0.0017424457, -0.117175855, -0.16972724, 0.11200607, -0.019033996, 0.07697764, 0.004938991, -0.11944552, -0.02809709, -0.038104236, 0.017483503, 0.007055253, -0.0906418, 0.1488142, 0.08619186, -0.01760709, -0.050748084, -0.032641668, -0.028170912, -0.009815604, -0.031544413, -0.061886344, -0.058649022, -0.2280391, 0.22297649, 0.046048027, 0.023278251, 0.03608682, 0.07326695, 0.16061239, -0.0054373723, -0.09330992, 0.018037593, 0.053513434, -0.14661393, -0.04532054, 0.16233988, -0.08562949, -0.16983321, 0.0697305, -0.06868657, 0.21498938, 0.023314612, 0.16239251, -0.031137777, 0.09644274, -0.27291256, 0.00719889, -0.18296792, 0.12661079, -0.020264449, -0.024495311, 0.0005016019, 0.07880913, 0.107785285, 0.062043767, -0.060128395, -0.1421506, -0.14500414, 0.03435269, -0.1537588, 0.15817954, 0.22623688, -0.041933205, -0.20914803, 0.20331348, -0.08982791, -0.11715726, 0.012242424, -0.073083445, 0.07061164, 0.07418504, -0.06342394, -0.0352855, 0.01652848, 0.13356255, 0.110835694, 0.13710833, 0.12466889, 0.02059128, -0.07459957, -0.058456738, -0.07073704, 0.13101615, 0.1767792, -0.14719999, 0.08409473, 0.1323072, -0.12218966, -0.08645068, -0.2038679, 0.009257886, 0.054503363, -0.10441957, -0.065602995, -0.07406531, 0.051515546, -0.05608857, -0.0060815765, 0.05342858, 0.139151, -0.12563051, -0.041900996, -0.05632392, 0.155554, 0.19630176, -0.1631581, 0.0190951, -0.020751309, -0.11091462, 0.034442984, -0.13628227, -0.027234985, -0.01530288, -0.06367757, -0.08820164, 0.00012755035, 0.09355638, -0.1370582, 0.11656336, 0.06325246, -0.038807042, -0.26941854, 0.1708703, -0.14910923, 0.19037835, -0.30267555, -0.14030217, -0.083176814, -0.1975521, 0.19343571, -0.041250676, 0.23459665, -0.024433644, -0.44881317, 0.2313614, 0.101665616, -0.06965436, -0.3267123, -0.043371838, 0.08410589, -0.1672879, 0.020427035, -0.010071983, 0.038339544, 0.10601694, 0.03397219, 0.1277948, 0.297486, 0.12692957, 0.055520512, 0.114335515, -0.093534745, 0.014775055, -0.050208453, 0.10776343, -0.15023124, 0.06002302, 0.08661764, -0.026264392, -0.06785161, -0.19108155, -0.37218964, 0.0043655243, 0.15071435, 0.125932, -0.06806718, 0.05573321, -0.027559321, 0.033202827, -0.025228573, 0.15714933, -0.2923605, -0.009667481, 0.08613208, 0.051363263, -0.13499323, -0.14175756, -0.2878807, 0.038877137, 0.09485036, 0.44634098, -0.18598022, 0.026823336, -0.18154305, 0.2579065, -0.20525725, 0.036869172, -0.20998865, 0.13740064, -0.12131132, 0.124580674, 0.10647134, -0.070468806, 0.11515726, -0.2559215, -0.15736687, 0.26387703, 0.15294082, -0.039113794, -0.15351458, 0.061514158, 0.21896352, -0.02254857, -0.14049557, -0.06075918, -0.24768195, -0.021860259, -0.053413827, 0.0729877, 0.11709772, -0.10524843, 0.09297541, 0.0017720134, 0.03690607, -0.139925, -0.05064066, -0.20780692, 0.10315169, 0.31317532, 0.055669088, -0.24609676, 0.07767338, 0.15132688, 0.23603068, -0.086166926, -0.114118986, -0.059855815, -0.11355511, -0.07453506, 0.11745689, -0.106822275, 0.05283136, 0.118335925, -0.1717908, 0.019401334, 0.014384697, -0.010868548, -0.10801177, -0.020689301, 0.096977696, 0.031159623, -0.024130203, -0.149058, -0.22998443, 0.21919717, -0.21053529, 0.07829947, 0.09761347, 0.022890454, -0.07661053, -0.009811421, 0.07697929, 0.15462318, -0.1298449, -0.017508643, -0.09432727, -0.036459927, -0.1735826, -0.035648614, -0.13537125, -0.095127545, 0.20540826, 0.031381246, 0.08302317, -0.1817093, 0.17759117, -0.08566279, 0.054197665, 0.31216192, 0.12867591, -0.4060381, -0.31453598, -0.21411702, -0.057908263, 0.23832217, 0.038157236, -0.11610743, 0.11629033, -0.06983598, 0.18751265, 0.071549796, 0.052126445, 0.30293846, -0.036355264, -0.040091023, 0.066567264, -0.114562556, -0.23735227, 0.041444145, -0.10911703, -0.053586934, 0.09369525, 0.24685684, -0.118185915, 0.25131604, -0.022260386, 0.0436493, 0.08970333, 0.07320148, -0.3305292, -0.1526819, -0.2996493, -0.051923115, -0.08765764, 0.3556572, -0.10875876, -0.012835051, -0.043204505, 0.0041454914, -0.12115426, -0.2513265, -0.101811185, 0.045001443, -0.056725707, -0.049336474, -0.07141028, 0.167651, 0.12197082, -0.085277356, -0.10394816, -0.12647389, -0.041244622, 0.0004578567, -0.09517662, -0.21262889, 0.03583034, -0.11861755, -0.06305934, -0.047401812, -0.0021497174, -0.01660071, -0.010124293, 0.04593726, 0.3237781, 0.027055373, -0.053276464, -0.08592012, -0.1258245, -0.084366344, 0.013267202, -0.025457999, 0.12047527, -0.107087374, -0.038238898, -0.15821762, -0.12915854, 0.21994928, -0.030959763, -0.1438602, 0.1665288, 0.0013453274, 0.039636157, -0.15346849, 0.08615528, 0.03125828, 0.13927048, -0.057232942, 0.013786934, 0.030792955, -0.08888013, 0.20688316, 0.02010952, 0.05195658, -0.10700949, 0.022719607, 0.096676886, 0.023491925, 0.13986689, 0.18289204, 0.029785644, -0.0041152844, 0.0144789675, 0.08223391, 0.013658767, 0.092434704, -0.05277502, 0.050508887, 0.030555652, -0.18369405, -0.025388232, -0.0034360292, 0.072606, 0.07785104, -0.021503966, -0.08655953, 0.0041985745, 0.099917434, 0.16369462, 0.059150796, 0.041286647, -0.074860655, 0.040393233, 0.0015304098, -0.2781522, -0.106924474, 0.06311676, 0.34841385, 0.049093913, -0.057312973, -0.28556624, -0.054459654, 0.10161532, -0.014776804, -0.18759406, -0.04155795, 0.07648283, 0.30114883, 0.0380356, -0.051000807, -0.13822001, -0.074652836, -0.021298233, 0.038670715, 0.121007696, -0.03257198, -0.21245804, -0.11267838, 0.14201869, 0.033003774, -0.12698063, 0.058988575, -0.09585965, -0.077628754, 0.02212131, -0.05529349, -0.3315728, -0.19361283, 0.017435402, -0.16164097, -0.032530133, -0.040529262, 0.07284274, 0.20682026, 0.15964165, 0.07372168, -0.118272774, 0.25958198, 0.2906781, -0.017334828, 0.07242718, 0.22790147, 0.056923226, -0.15811546, -0.0777851, -0.09661739, 0.13401824, -0.22363292, 0.067852065, 0.0005447343, 0.116943985, -0.28359896, 0.008684134, 0.14077531, -0.046932526, -0.18979624, 0.07361055, 0.17942108, -0.0012385019, 0.11447243, -0.11619752, 0.0060407897, -0.037358347, -0.023915734, 0.04755611, -0.002077105, -0.04640556, -0.0707479, -0.011897377, -0.027368264, 0.1344551, 0.12209879, 0.032589044, 0.03666059, -0.12865019, -0.031910896, 0.093859255, -0.02461653, 0.17147066, -0.10461195, 0.10623718, 0.01838668, 0.12696707, -0.0808525, -0.010094393, -0.027637187, 0.092424266, 0.20169689, -0.09237425, 0.14876302, 0.09094826, 0.005024415, -0.10822827, -0.116344966, -0.12680432, -0.043782953, -0.06087121, 0.013997484, -0.018021075, -0.10241667, -0.14089772, 0.19516422, -0.14626773, -0.03459644, -0.09998473, -0.3041428, -0.168331, -0.077994324, 0.15295637, 0.05903909, -0.09399724, 0.027227014, -0.13976656, 0.07671259, 0.091286, -0.11758244, -0.11313611, -0.009068955, -0.01936179, 0.12835178, -0.07828298, -0.09787735, 0.12063763, 0.09691756, 0.12562983, -0.14102414, -0.12007751, 0.12988386, -0.36580482, 0.13024157, -0.032290835, -0.00077428855, 0.057525285, -0.018675279, -0.04273291, -0.17907305, 0.26983628, -0.06403296, 0.019214531, 0.09246667, 0.011870752, -0.016303997, 0.0053821825, 0.14067455, 0.022780146, 0.09407643, 0.09333621, 0.0072845905, -0.028097684, 0.29794616, 0.24555652, -0.22216576, 0.053214855, -0.11358767, -0.0650935, -0.02682542, 0.14555328, 0.32783523, -0.11761939, 0.04815882, 0.17633703, -0.083496645, -0.12415474, -0.025126286, 0.061986707, 0.11186048, 0.009174839, -0.064742945, 0.041158352, 0.01868303, -0.00046200046, 0.0819802, -0.17367077, -0.050764695, -0.15656918, -0.01790935, 0.090627946, 0.11265854, 0.016219474, -0.02602528, -0.17424321, 0.01989636, 0.02350672, 0.17582706, -0.2482196, 0.05742191, 0.1475231, -0.11400555, -0.13974893, -0.087636925, 0.016191775, -0.26513636, 0.014210768, 0.053442888, -0.061203916, 0.14019129, 0.03318135, 0.044937603, 0.08442303, 0.046952717, 0.09502771, -0.071442835, -0.034476817, 0.05584004, -0.065679245, -0.1146184, 0.03642338, 0.0013606424, 0.030572524, 0.07563855, 0.33003992, -0.0123305535, 0.028195085, 0.10092746, -0.006357327, 0.08630043, -0.1772539, -0.006741074, -0.12953891, -0.06142829, 0.09053081, -0.011221759, -0.060454726, -0.26671103, 0.14010057, -0.15792969, -0.10935801, 0.03814617, -0.0672781, 0.09771145, -0.1890567, 0.088505484, 0.12127482, 0.057684712, -0.17780627, -0.02864733, 0.094756305, -0.04654503, -0.080889195, 0.20717077, 0.08254258, 0.03221021, 0.13774228, 0.10283445, 0.29204032, -0.093626246, -0.056761958, -0.123769954, 0.052781586, -0.09426929, -0.17085604, 0.014446243, 0.12262247, -0.14722402, -0.023085011, 0.10895605, -0.13992472, 0.15809129, 0.064000964, 0.12800483, -0.06865915, -0.10278079, 0.24583991, -0.05984287, -0.14923745, 0.11437502, -0.12834562, -0.039718103, -0.3176485, 0.047708575, -0.29008675, -0.0573277, -0.21285251, -0.01705665, 0.011961178, -0.012203822, -0.14033598, -0.09416579, -0.022402713, 0.07216789, 0.12745199, 0.0969169, -0.20612793, -0.07650831, 0.09763896, 0.043695062, 0.11997074, -0.14289571, 0.0026801212, 0.061555132, -0.07118961, 0.011617335, 0.24218151, 0.059071776, 0.017500453, 0.29639784, -0.040931996, 0.3105352, -0.011497, 0.040630423, -0.10905694, 0.1122638, 0.09360349, -0.05172882, -0.014821845, -0.11017427, -0.121370725, -0.09372797, -0.015213196, 0.121197365, 0.03831942, -0.063659094, -0.083198525, 0.1256484, 0.026613725, -0.0005938938, 0.11436046, -0.057931837, -0.092269965, 0.1990732, 0.13013425, -0.013478749, -0.0013347027, -0.067660734, 0.11510225, -0.07722694, 0.032219086, 0.007864701, -0.07969901, -0.3187275, 0.07983332, 0.0016096233, 0.262562, -0.20389976, -0.055846978, -0.029685738, 0.19078651, 0.13005659, -0.019109828, -0.009378437, 0.02843862, -0.111389235, 0.061495047, 0.14210092, 0.064491674, 0.1060576, 0.026822945, -0.065065116, -0.114307374, -0.0812257, -0.08438103, 0.05207977, 0.13690218, -0.0010094801, 0.0356482, -0.32181463, 0.20815143, 0.024864033, 0.034760833, -0.018716205, 0.13420044, 0.08965405, -0.19418323, -0.0315303, -0.03624691, -0.14406386, -0.18882598, -0.10918395, -0.11802608, -0.13717915, 0.055530127, 0.024537165, 0.11062968, 0.12896967, 0.028424805, 0.0373368, -0.18914476, -0.05081266, 0.08363395, -0.024256334, -0.21922855, 0.10921233, -0.20999058, -0.049666237, -0.24877842, 0.048224356, 0.0580522, 0.12365837, -0.013315429, -0.21271405, -0.059196502, -0.030569188, 0.021562353, -0.016309416, -0.051559117, 0.068807855, 0.10511003, 0.0107676815, 0.07435833, -0.08959237, 0.0882446, 0.054945588, -0.11460583, -0.044852026, 0.058885615, 0.12711288, 0.048445784, -0.007930702, -0.71079344, 0.27159712, -0.14322062, -0.04779517, -0.062364362, -0.13224727, -0.28399155, -0.11663847, 0.047954924, 0.13162234, -0.015877802, 0.0060078693, 0.066052586, 0.03611501, 0.07065634, 0.06279125, -0.025390774, -0.0522037, -0.01574219, -0.22441581, -0.10939103, 0.03160113, -0.02614038, -0.017581875, -0.08955272, 0.008757983, -0.1511446, -0.10029573, -0.02284297, 0.037109025, 0.080959566, -0.15482834, -0.10763977, -0.09109436, -0.091011636, 0.0996546, -0.049616273, 0.124147534, 0.09192482, 0.00059530337, 0.11555414, 0.027318018, -0.09930855, -0.1583524, 0.20766692, -0.09474612, 0.045374867, 0.05072139, 0.04252311, -0.033960346, -0.19568697, -0.09517053, 0.07740284, -0.07775978, 0.021778475, 0.09484857, -0.058983374, 0.033876557, 0.2589747, 0.09562658, -0.005036693, -0.024369916, -0.070033155, -0.012435936, -0.10883182, -0.14470902, -0.15023717, -0.094621316, -0.024594003, 0.044573348, -0.1819369, -0.068817146, 0.18119822, -0.10242168, -0.06958331, 0.13287123, 0.23682836, -0.010598951, -0.037596025, 0.066329494, 0.16845486, 0.024793299, 0.013697146, 0.059144545, 0.09540575, -0.10032767, 0.008723259, 0.14874373, -0.012131297, 0.11774102, 0.1757935, 0.25225115, 0.3916495, -0.16398743, 0.01465017, -0.18347687, 0.11516562, -0.008497987, -0.0480763, -0.020577002, 0.0081120115, 0.11235848, -0.018110188, -0.0010301343, -0.109363854, -0.06947061, -0.023391569, 0.06079401, 0.16845517, 0.031364247, -0.003151044, -0.08004762, -0.25908658, 0.099746965, -0.0674855, 0.2364445, -0.21562779, 0.0854792, -0.15342249, 0.113376826, -0.14759853, -0.053013038, -0.008812632, -0.27656642, -0.06638595, -0.13482705, -0.04529681, 0.057986345, 0.20592089, 0.09898665, -0.017946221, -0.19335593, 0.17190899, -0.04546405, 0.08214225, -0.012574189, -0.06617421, 0.055122443, -0.0046206713, 0.045193337, 0.13495485, 0.1898906, 0.15330939, 0.039894685, -0.03915669, 0.03556282, 0.021478165, 0.11097973, 0.12955683, 0.07141847, 0.049328793, 0.0044423505, 0.087284, 0.007378693, -0.109501354, -0.14390858, 0.08462224, -0.08559602, -0.12560901, 0.12334311, 0.048541125, -0.017094932, -0.04172056, 0.023735942, -0.044819977, 0.14319934, 0.03180186, -0.07250506, 0.12772952, 0.060229655, 0.06300987, 0.086965084, 0.06533325, 0.03950279, -0.07851785, 0.00845311, 0.12896259, -0.21792023, 0.06804161, -0.06035777, 0.0021016821, -0.039176386, -0.04867713, 0.017757101, 0.056505997, -0.05137921, 0.18683845, -0.03130594, 0.05934192, 0.12660906, -0.054436956, 0.015871117, 0.03444228, 0.19101949, 0.1006825, -0.18981734, -0.13262384, 0.04356779, -0.14523025, -0.004635624, 0.063849345, 0.043069463, 0.09085204, 0.0101824505, -0.008347269, 0.059828788, 0.10400632, -0.024368525, 0.0044902684, 0.019358074, -0.011799069, 0.022136087, 0.17943013, -0.14457005, -0.0009668829, -0.16406915, 0.06959212, 0.035177015, 0.06586437, -0.1224163, 0.106615186, 0.21705727, -0.0020315407, -0.22256602, -0.086391576, -0.034284957, -0.0684244, 0.04065552, -0.041126437, -0.012889851, -0.2702165, -0.03773736, -0.3552675, 0.07036374, -0.052419443, 0.09193412, -0.12508462, -0.1794291, 0.003965146, 0.016528253, -0.012866795, 0.0913489, 0.018559897, 0.11995666, 0.066155024, -0.07240908, 0.019711833, 0.085891716, -0.04020662, 0.037372675, -0.0030310762, 0.027569588, -0.16973527, 0.24625258, 0.14658926, 0.011057025, -0.10590227, -0.0014950149, 0.11940386, -0.08806198, -0.13381776, -0.21769361, -0.056039684, -0.096718475, -0.09815933, 0.09883596, -0.028013857, 0.06276009, 0.027089864, 0.036132913, -0.025442993, -0.13209762, -0.110412344, 0.102649935, -0.003844479, -0.26759028, 0.022960946, -0.10232264, -0.27365172, -0.05082146, 0.042838477, -0.10456765, -0.107485846, 0.0447376, 0.10912874, 0.08501044, -0.090142645, -0.21016112, -0.12414158, -0.11425519, -0.019374521, 0.09720959, -0.14138462, -0.090689674, 0.1437353, -0.1319761, 0.1793153, -0.065613784, -0.005066506, -0.13741638, -0.009972375, 0.06545646, 0.015400019, -0.10263577, 0.036518577, -0.0039519956, -0.12551488, -0.06644176, -0.10388592, 0.13114747, 0.091885485, 0.16990429, -0.18132678, 0.067878716, 0.07732642, 0.037478223, -0.074079834, 0.016349604, -0.06546739, -0.069068015, 0.044629782, 0.1469266, -0.045373805, 0.1604897, 0.15740134, 0.016547358, 0.04641506, -0.16166544, 0.094327785, -0.13371353, -0.048371203, 0.014839639, -0.08417523, 0.098801, -0.006653571, 0.13281585, 0.09573481, 0.26386353, -0.004789645, -0.0075757476, -0.09823326, 0.011640725, -0.010760716, 0.012568811, -0.20212853, 0.31507683, 0.085210666, 0.061061308, -0.10293841, 0.025068613, 0.09195036, -0.035813954, 0.027458591, -0.17693889, 0.026172204, 0.17799293, 0.050092775, 0.0157012, 0.16234142, -0.16417953, -0.12047779, 0.06977834, 0.024266528, -0.07098364, 0.054236144, 0.07257968, -0.11940808, -0.13269876, 0.07236428, -0.24556111, 0.08513985, -0.31079778, 0.06900508, -0.041760605, -0.029833397, 0.027620796, -0.06297224, -0.1560347, 0.06931218, -0.09618855, -0.14625317, 0.0070621627, 0.14116527, -0.14014795, 0.040814947, 0.035378993, 0.0730316, 0.040481385, -0.046768673, -0.07110593, -0.0016419237, -0.11945736, -0.107551746, 0.039923064, 0.115814626, 0.06481655, 0.042423956, -0.11797027, 0.06270597, 0.06191413, 0.2805609, 0.094713695, -0.0944568, -0.019912902, -0.031816073, 0.019873273, 0.23195931, -0.044895977, 0.02442089, -0.042787187, 0.18607217, 0.16090658, -0.059102386, 0.25530022, -0.0686959, -0.30997625, -0.12321122, 0.01049713, -0.057952072, -0.05289648, -0.12482457, 0.1837527, 0.13071309, -0.042439453, 0.062371124, -0.06939525, -0.06267869, -0.12546818, -0.09021364, -0.11919088, 0.024058603, 0.061231174, -0.05041468, 0.14945395, 0.1570571, -0.3802238, 0.15478486, -0.21129896, 0.21953472, 0.11886263, 0.06929519, 0.025442358, 0.074176915, 0.062246054, 0.008495639, 0.03542181, 0.035342794, 0.31728864, -0.025887972, -0.38572055, -0.08808349, 0.15895253, 0.21303175, -0.081144586, 0.047584012, -0.12250227, 0.175605, -0.08320284, -0.099816665, -0.04287406, -0.03980394, 0.10717957, 0.071300134, -0.12404667, -0.024995793, -0.15452395, 0.23999128, -0.038455717, -0.039470103, 0.037650835, -0.11428692, 0.010732158, 0.078215286, 0.087621376, 0.0019319912, -0.16617793, 0.10941096, 0.20742367, -0.3275383, -0.053485576, 0.06291348, -0.016542634, 0.071792975, -0.029132994, -0.15784979, 0.054671805, -0.076123744, 0.5193011, 0.0983246, 0.060302, -0.05488014, 0.03791386, 0.08571227, 0.12432842, 0.082096644, -0.036215723, 0.0069717276, -0.07350873, -0.0030582245, -0.31091422, 0.08849559, 0.14804491, 0.22037576, -0.14250782, 0.15940675, 0.0066915965, 0.007273885, -0.18875712, -0.093891054, -0.17205234, -0.2422496, -0.17519824, -0.06914376, -0.030693194, -0.007781182, -0.10121756, 0.10708974, 0.06852588, -0.03336013, 0.21646753, 0.1524655, -0.06463746, -0.14673334, 0.2740433, -0.16805226, 0.01620925, -0.018694492, 0.09454535, 0.2071631, 0.11809252, 0.27283156, 0.1818548, 0.13907191, 0.099523716, -0.04334936, 0.08201518, 0.09040369, 0.026698707, 0.10349793, 0.023084087, -0.046451773, 0.036704697, -0.040655565, -0.022826122, 0.04530707, 0.040561017, -0.18324435, 0.022772297, -0.018487662, 0.08340532, -0.15687387, -0.10557574, -0.17999767, 0.17104696, -0.013949883, -0.052435506, 0.308791, 0.01588888, -0.032419074, 0.09136195, -0.08480918, 0.00013741781, 0.071598895, 0.057360332, 0.23461935, 0.0671965, -0.006939413, 0.19379738, 0.000354852, 0.035662606, -0.15391132, -0.12182542, 0.124007225, 0.017816776, 0.051280547, 0.095824264, 0.00934042, -0.029142186, 0.13958177, -0.12171428, 0.019932745, -0.059283607, 0.108592115, 0.1377651, -0.21232753, 0.15005995, 0.10403626, -0.029019846, 0.021684946, -0.124263294, 0.09855061, -0.108377315, -0.10668084, -0.21846472, 0.12076452, 0.0040097153, -0.06657229, 0.0034535555, 0.031950805, -0.15647097, 0.06363429, -0.15721859, -0.14919133, -0.174166, -0.42546496, 0.057021193, 0.0029935767, 0.042013418, -0.027838182, 0.15620445, 0.17486702, -0.014654947, -0.11972763, -0.0020650167, -0.09493972, -0.0029343732, 0.13276961, 0.09934211, -0.12934218, -0.12934965, -0.27582344, -0.047162622, 0.011030764, 0.17922163, 0.14543238, -0.033568475, 0.046772156, 0.113659106, 0.1817752, -0.02150533, 0.19054694, -0.1396395, 0.18714634, 0.09643463, 0.19465302, 0.22201104, 0.21462727, -0.024512893, -0.03135252, -0.0095955655, -0.07945184, -0.02068843, 0.12900758, 0.021746872, 0.018780624, -0.015392133, -0.055894192, 0.08649002, 0.105776936, -0.10932983, -0.07206957, -0.114848025, -0.123635106, -0.21479948, -0.13945994, -0.1435707, -0.14690691, -0.22981156, 0.20404515, -0.03680216, 0.011127362, -0.09419934, -0.13936758, -0.048790224, -0.109601766, 0.111335054, 0.0234325, 0.18127093, 0.03106254, -0.10935947, 0.035851717, 0.23221639, 0.051607158, -0.1065668, -0.056268964, 0.05493371, 0.07199732, -0.15008615, 0.036192894, 0.05337843, -0.08969928, -0.06739392, 0.03579195, 0.059720226, -0.024863934, 0.085830376, -0.012661287, 0.016923541, -0.008129878, 0.18910567, -0.16593045, 0.1626635, -0.10727383, 0.2261056, -0.20268893, -0.07908967, -0.18689574, 0.03296707, -0.20835434, -0.0059684645, -0.09183264, -0.041553054, -0.042160057, -0.15658532, -0.03647103, -0.017219553, -0.01994284, 0.031485308, -0.05271101, 0.12967286, 0.037294425, 0.11006081, -0.21629989, 0.08226207, 0.022653103, 0.105002314, 0.07832668, -0.15564397, 0.04751933, 0.0152743235, -0.028044287, 0.05790166, -0.098154575, 0.07181844, -0.1923795, 0.022196574, 0.038018648, 0.11348058, -0.02950124, -0.20150994, -0.02796464, 0.15546349, 0.022947144, -0.23868643, 0.044982627, 0.20673236, 0.10637311, 0.13862525, -0.03874552, -0.02568533, 0.123142585, -0.22472697, 0.2325959, -0.20581478, 0.3473714, -0.06797566, 0.08803, -0.26106837, 0.068323605, 0.057822954, -0.15178543, 0.028166415, -0.061786145, 0.030991694, -0.02475225, -0.035166986, -0.13327034, -0.07716755, -0.19650008, 0.0784673, 0.016439768, -0.04400085, -0.027338555, 0.15695144, 0.05713871, -0.1198912, 0.10155289, 0.05291991, 0.2707943, -0.04351837, -0.008280235, 0.18495512, 0.24643931, 0.16008666, 0.10276747, -0.009184776, 0.034310326, -0.112156674, 0.18727612, -0.19090314, 0.10131994, -0.0006601662, 0.13320866, 0.18714574, -0.008043572, -0.16972347, -0.11480113, 0.16009055, -0.024359453, 0.06701536, 0.1234466, -0.10570635, -0.11140484, -0.07019665, -0.010407277, 0.061582297, -0.016885657, 0.019556632, -0.018665712, 0.13696039, 0.1899647, -0.04945535, 0.18017821, 0.05736703, 0.15915586, -0.03811006, -0.14103909, 0.096906066, 0.048915554, -0.05588601, 0.061961, 0.11474599, -0.16518658, -0.016103651, -0.116540566, 0.012200769, 0.0761112, 0.02094029, 0.07423019, -0.05380796, -0.12533216, -0.14419252, -0.10079873, -0.23889703, 0.035289973, -0.079897046, -0.14954665, 0.0947101, -0.08634142, -0.06110986, 0.083415024, 0.13910319, -0.04253459, -0.30626047, 0.14934063, -0.11257136, 0.06161018, -0.06251561, -0.022990506, -0.0990663, -0.054379698, 0.14453192, 0.032073706, 0.015622099, 0.03668732, -0.115584224, 0.20681635, -0.059546262, 0.02822581, -0.077083915, 0.23425862, -0.0162129, 0.16277526, -0.14268693, 0.15357551, 0.06441794, 0.15067711, 0.054338526, -0.14947434, -0.0018133781, -0.07653349, -0.0585135, 0.2216693, -0.13810681, -0.14267072, 0.09453594, 0.2842141, 0.03236905, 0.08120156, -0.0430625, -0.11285538, -0.013307494, -0.044054154, 0.040855516, -0.15177834, -0.034110434, -0.09790815, -0.20534594, 0.022597194, -0.07351834, -0.0302314, 0.06151887, 0.015028381, 0.05371314, -0.08483423, 0.043987215, -0.033769127, -0.0038716304, 0.08269622, 0.26730537, 0.21194197, 0.05954116, 0.06445052, -0.12902258, -0.07675349, 0.080827855, 0.00046148984, 0.05253186, 0.18964595, -0.12121411, 0.28607026, 0.0636283, -0.08590897, 0.08308428, 0.08990338, -0.0144735, 0.098439045, -0.08902108, -0.039270893, -0.3392162, 0.12651564, -0.062055826, -0.023273652, -0.12235357, 0.17656255, 0.0016959936, 0.045378648, -0.07238828, -0.12067635, -0.073623836, -0.050825972, 0.09226655, -0.13594532, 0.093398385, 0.0401235, -0.31893158, -0.11564784, 0.2152845, 0.09892694, -0.10002589, -0.10812576, -0.013854116, 0.12591334, -0.026060462, 0.08242389, 0.040000644, 0.06590156, -0.09790423, 0.02968732, 0.1605585, -0.10849202, 0.08332505, -0.2984178, 0.05141707, 0.109233335, -0.067088574, -0.041734878, -0.066917896, -0.08612456, 0.1450499, -0.2396276, -0.16426592, -0.21406835, 0.06414962, 0.020411529, 0.050262168, 0.05032537, -0.07709314, -0.08501116, -0.082632594, -0.03396548, -0.014602512, 0.2319821, -0.11026529, -0.09143282, 0.13479514, 0.11957485, 0.1363795, -0.20200919, -0.008356377, 0.1919684, 0.12572476, 0.18403247, -0.17918447, 0.14309667, 0.09510808, -0.0035997096, 0.042806223, -0.02074254, 0.09445319, -0.054001063, -0.16578916, 0.031401068, 0.009131638, 0.039640915, -0.08607073, 0.028029287, 0.089036874, 0.12383999, 0.085362665, 0.11866961, -0.051739, -0.0065609543, 0.077229045, -0.17864472, -0.06251683, 0.025620889, -0.17482142, 0.042042293, -0.1015495, 0.1870196, 0.101829134, 0.048797615, -0.16863497, -0.06461974, 0.031475864, -0.18566515, 0.15485525, -0.12333577, 0.09078577, -0.12601113, -0.03366078, -0.0034874566, -0.045929868, -0.08399258, 0.08621873, 0.10116397, 0.015428533, 0.025542133, 0.0314924, -0.06986178, -0.057021905, 0.08752058, -0.06429874, 0.03301421, 0.060561668, -0.12815389, 0.04942573, 0.116937116, 0.018552031, 0.123842895, 0.034391273, -0.08617579, -0.25066897, 0.20665796, -0.08249758, 0.2066826, 0.051934194, 0.12923403, 0.27216527, 0.049032588, -0.17325367, -0.0373237, -0.17755587, -0.02074202, 0.047487408, -0.0134648895, 0.0025024249, -0.020854732, -0.05313285, -0.057147413, -0.028447911, 0.13705271, 0.19898957, -0.050002728, -0.0143678505, 0.047828954, -0.07281453, 0.12873286, 0.10721985, -0.015703402, -0.022912968, -0.19742846, 0.096751995, 0.14774582, -0.13183683, 0.08358292, -0.073778965, 0.047986697, 0.015936885, -0.08666193, 0.043754157, 0.1354039, 0.11360572, 0.19027886, -0.22972384, -0.14272915, -0.046233498, -0.15590483, -0.20613462, -0.049299993, -0.03924786, -0.1116854, 0.020954477, -0.2622203, -0.14814687, 0.058105815, 0.105220184, -0.25359213, 0.14298744, 0.027084956, 0.2039631, -0.115814075, -0.019247547, 0.03069818, -0.10391025, -0.0654646, -0.12548243, 0.1301253, -0.23501857, -0.173737, 0.28090283, 0.082048126, 0.23834865, -0.12049597, 0.13280958, -0.026225809, -0.13356973, 0.14969309, 0.15530026, 0.063422926, -0.079849124, -0.12953593, 0.08202245, -0.04083415, -0.03961297, 0.043328624, 0.24385156, -0.08497264, 0.049659044, -0.09109542, -0.1876572, -0.014759867, -0.09913763, 0.14507379, 0.032122456, -0.05199235, -0.15172267, -0.17959996, -0.07597194, 0.27961218, -0.08895592, -0.032173242, 0.14193012, 0.108457, 0.041994084, 0.052757874, 0.08889319, -0.07806189, -0.1455803, 0.10937608, -0.162413, 0.06296663, 0.04332629, -0.07014726, 0.01484258, 0.20066614, 0.118706405, 0.069268815, 0.19131032, 0.18736173, -0.22004448, -0.13002928, 0.041673496, -0.010140284, 0.0029520297, -0.04820785, 0.08970562, 0.14254951, -0.20636205, 0.21922646, -0.024080122, 0.048871424, 0.049590547, -0.0051511843, -0.06346186, 0.17656928, 0.13698253, 0.19688575, 0.11006157, 0.0040839473, -0.12897222, -0.29833335, -0.024942439, 0.050344758, -0.15947026, 0.24154353, -0.20863181, 0.06773584, -0.06713338, 0.103128806, 0.22185513, 0.15544322, -0.19046235, -0.18144545, 0.08680268, 0.22144444, -0.16702586, 0.1899096, -0.06576107, 0.09051807, 0.007087902, 0.041698683, 