#ifndef FC4_H
#define FC4_H
// Header file of the 11-th layer of the model - The type of the layer is fc


float fc4_w[10][64] = {
	-0.14210357, 0.07771114, -0.10126142, 0.05599655, -0.06427074, -0.03067687, -0.13036211, -0.121756025, -0.0026749063, -0.26457068, 0.066326074, 0.06530323, -0.08219889, -0.19365512, 0.056016013, -0.0006617898, -0.050539494, 0.073064424, 0.12340437, 0.1821791, 0.23808588, 0.10065935, -0.06862642, 0.28885022, 0.020703511, 0.01344245, 0.12559691, 0.029061204, -0.06453548, -0.16536689, -0.13048624, 0.21271697, 0.06667968, -0.18710135, 0.038168576, -0.15346912, -0.2507813, 0.019570893, 0.0904036, 0.19539264, 0.2619349, 0.12627421, 0.044349145, -0.23291036, 0.043805283, -0.033112284, 0.15207222, -0.039834782, -0.11036129, -0.10603494, -0.16748446, 0.16692759, 0.188063, -0.2444116, -0.012871937, -0.18223792, -0.11996157, -0.1879381, -0.09343258, 0.11505987, -0.15007049, -0.07617655, -0.035705455, -0.19870685, -0.067498274, 0.009273235, 0.17760886, -0.07174574, 0.002460172, 0.2956868, 0.27847344, -0.3033582, -0.19444157, 0.04689803, 0.17217144, 0.12349258, 0.06751821, -0.19273795, 0.06645537, -0.15045936, 0.045618303, -0.2514754, 0.19704361, 0.10833752, 0.17171589, 0.029512465, -0.14928298, -0.2904058, -0.06280495, -0.18546945, 0.16370423, 0.06667346, 0.067949675, 0.2460426, -0.19290347, -0.11888344, 0.07186583, 0.21699063, -0.3046242, 0.052285723, 0.24453974, 0.21578577, 0.11878478, -0.084781006, -0.10060842, -0.0736964, 0.18950288, -0.0544803, 0.074676506, 0.12705366, 0.20687158, -0.25660887, -0.19831441, -0.24364509, -0.1159824, 0.11833056, 0.18502837, 0.034515057, -0.18593705, 0.13811956, 0.043221675, 0.07518577, 0.12595338, 0.07419795, -0.05736504, -0.20972446, 0.2156023, 0.17892157, -0.23675758, -0.067522116, -0.0075337472, -0.08559445, 0.05108519, -0.17306677, -0.14536613, 0.15030567, -0.0902267, 0.23481359, -0.057324357, -0.100593194, -0.11781024, 0.12465851, 0.17153226, -0.050314408, 0.03331833, -0.023608688, -0.01891536, 0.22536738, 0.14461051, 0.18426183, 0.099118225, 0.1519303, -0.116343126, 0.28875166, 0.04098314, 0.23319733, -0.19224554, -0.18177107, 0.12132904, -0.13105999, -0.087799065, -0.088889994, 0.14408879, -0.14445303, 0.19113156, -0.10784952, -0.11147135, -0.13691321, 0.22604454, 0.10128516, 0.07105712, 0.14855668, 0.039324325, 0.059902273, -0.026590705, 0.12444789, -0.08901045, 0.09353848, 0.13439463, -0.10027516, -0.06538676, 0.17442489, 0.04512182, 0.111359246, -0.17645085, 0.045632914, 0.052761205, 0.03604724, -0.19733275, 0.021961084, -0.029904893, -0.088749565, -0.06407277, -0.14848438, 0.09360297, 0.22135544, 0.13522872, -0.033710334, -0.16950521, 0.17020296, -0.072346315, -0.05805588, -0.0010626094, -0.1089777, 0.07500562, 0.0016830368, 0.040240012, -0.004873778, 0.03359012, 0.18060583, -0.0015111659, -0.10695091, -0.0465086, -0.020446422, -0.11430921, 0.06576636, -0.09046681, -0.36901036, -0.18776867, 0.079227604, 0.12566276, -0.10857745, 0.12077537, -0.07961164, 0.16841528, 0.19907391, 0.17358641, 0.051068407, 0.20351885, 0.06750399, -0.16170123, -0.019302387, -0.019035153, -0.026148412, -0.19684225, -0.13054854, -0.0117357215, 0.15125671, -0.086183354, 0.19027291, 0.033182003, 0.04869683, 0.06070125, 0.023101067, -0.15187052, 0.15788496, -0.035257794, 0.1140782, -0.0710687, -0.2270433, -0.1011632, -0.06938386, 0.09241165, 0.14211929, 0.16765517, -0.02625379, 0.042824358, 0.1051563, -0.2273797, 0.116046846, -0.1381793, 0.1327667, 0.03428512, 0.13694003, -0.10925701, 0.042484846, -0.19849089, -0.05341862, -0.047828414, 0.17415588, -0.034810133, 0.26971266, 0.16456755, 0.21580708, 0.04565504, -0.116481766, -0.0608062, 0.23179851, 0.0747709, 0.14748022, -0.018516349, -0.055311978, -6.1558036e-05, -0.16318399, 0.045738526, -0.055854276, 0.05897338, -0.17185391, -0.19792342, -0.056656945, -0.027272139, 0.24236295, -0.23721875, -0.15439245, 0.07836872, -0.2496387, 0.16008659, -0.24796124, -0.050392613, 0.20944647, -0.09068849, -0.08988132, 0.02256545, 0.15527205, -0.08409101, -0.13017811, 0.14291532, -0.032993335, -0.17923413, -0.1784993, -0.1574304, 0.12816468, 0.03340986, -0.17115277, -0.033924237, -0.13311115, -0.14394931, -0.113426946, -0.07133371, 0.019972118, 0.0017885944, -0.21369013, 0.09073909, 0.15882051, -0.111383505, -0.10174248, -0.1836801, -0.014477806, 0.076224834, -0.18781225, -0.12771522, -0.11868879, 0.12735212, 0.14968045, -0.09352881, 0.17995775, -0.035764694, 0.09349956, 0.08505407, -0.052134488, -0.13168076, -0.25326553, -0.15380861, 0.04559545, -0.20869315, -0.103368856, -0.0033417512, 0.1395655, -0.0077140657, 0.080098905, 0.1438204, -0.18053803, 0.0050125294, 0.21087973, -0.007281966, -0.1586113, -0.015227465, -0.124416806, 0.12210014, -0.19918342, -0.18189992, 0.037914887, -0.17426907, 0.16531432, -0.18572915, 0.15939763, 0.1046934, 0.050116364, 0.10380418, 0.18442306, -0.06215517, 0.06854205, -0.102297895, 0.20439278, 0.07790128, 0.23679367, -0.09464486, 0.23691557, -0.09034535, 0.15222299, 0.077177465, 0.06314949, -0.029030642, -0.15617172, 0.12240852, -0.1952185, 0.23853782, 0.123332255, -0.00019303773, 0.3253043, 0.15684763, -0.15763414, 0.14397733, 0.10265822, -0.036577404, 0.083038785, -0.3264574, 0.07355518, -0.14222081, -0.031096553, -0.19100234, -0.072438985, 0.10536251, -0.16040468, -0.15524188, 0.059811834, 0.16580948, -0.0654141, 0.13979022, 0.061147965, -0.17686544, 0.21475281, 0.08949901, 0.06371465, 0.18500388, -0.030054258, -0.042074535, -0.29180446, 0.030672656, 0.07241842, 0.052138947, -0.09415224, -0.20882885, 0.17602867, -0.15864474, -0.1608372, -0.055351377, 0.18876745, -0.022894863, -0.40074176, -0.18695372, 0.032728966, -0.05852917, -0.03941745, 0.10628473, -0.10982365, -0.06339004, 0.0033524043, 0.3037577, 0.10053277, -0.17793442, 0.1692562, -0.21613577, -0.124472395, 0.26692137, 0.18237019, 0.1964688, 0.24213837, -0.12858263, 0.081424154, -0.02678736, 0.19697884, -0.12984805, 0.12207832, -0.12032176, 0.035916105, 0.0497586, 0.07934955, -0.14600079, -0.0010099127, 0.20806646, 0.059828475, -0.22439298, -0.051708695, 0.19876803, -0.023054449, -0.20845298, -0.23102055, 0.07245468, -0.14337403, 0.019731293, 0.2315747, 0.12480839, 0.18769147, 0.15687819, -0.14172627, -0.11298515, -0.010492679, 0.1774214, -0.08223666, 0.1582928, 0.11109896, -0.17270684, -0.04285626, 0.015404536, -0.18523397, 0.13482636, 0.002345805, 0.10406918, 0.1809589, 0.07407485, -0.1307659, -0.19296609, -0.017180564, -0.01343786, -0.02510182, 0.07951973, 0.19041751, -0.037854, -0.10302562, -0.1687853, 0.18212667, -0.1556128, -0.11290021, 0.28945804, 0.22401299, -0.20922531, -0.1458673, -0.042595718, -0.25158492, -0.13307686, 0.15138614, 0.33879074, 0.18940064, -0.22254078, -0.16020454, 0.29357445, 0.004863435, -0.109003, -0.05722341, -0.25922167, 0.011635011, 0.0128318295, -0.13540265, -0.1685714, -0.07423413, 0.15514493, -0.12857588, -0.21873999, -0.1792201, 0.22892827, -0.0971536, -0.074982435, 0.10625972, 0.07818574, 0.11418697, -0.30096698, 0.08681842, 0.013463281, -0.27480292, 0.26491332, 0.23096322, -0.1862841, 0.17979626, 0.19314103, -0.020179894, 0.024101075, -0.10050472, -0.20445082, 0.055935927, -0.04491555, 0.10626667, -0.16602817, 0.15735464, 0.15131798, 0.12845123, 0.16892222, -0.02016298, -0.03896168, -0.23447682, -0.10131182, 0.029976329, -0.16846101, 0.13904458, 0.13890281, -0.103176646, -0.05979235, -0.18736526, 0.19526629, -0.04706682, 0.17527708, 0.23043618, 0.14674133, 0.07221045, 0.23850515, -0.1335367, 0.19792381, 0.006991741, 0.12562765, -0.12304344, -0.17576379, -0.1766154, 0.29942715, -0.11708983, 0.1441074, 0.17744562, 0.1872422, 0.26026964, 0.228587, 0.028216466, 0.24938068, -0.078259684, -0.2871906, -0.07230575, -0.17287561, -0.0105988225, -0.098487996, -0.17007779, -0.27545297, -0.19409087, 0.07904044, 0.038961202, 0.10405225, -0.19958343, 0.18022811, 0.20697336, 0.03662876, 0.04357394, 0.22946368, 0.17159371, -0.19908313, -0.10669213, -0.09501925, 0.100630045, 0.21488306, 0.124039404, 0.04161599, 0.14382741, 0.13637087, -0.021529073, 0.097605936, 0.03934304, 0.092249274, 0.058250636, -0.19280551, -0.08951193, -0.045864772, -0.029310923, -0.0652131, 0.02127543, -0.12478493, -0.14977384, 0.03879041, -0.17188479, 0.13150762, 0.090950295, -0.1738516, 0.0055902232, -0.074747145, 0.21976475

};

float fc4_b[10] = {
	-0.017797392, -0.014463888, -0.14220712, 0.13120976, 0.046459705, -0.03114351, 0.01114352, -0.09100663, -0.015782665, 0.0916497

};


#endif
