#ifndef FC1_H
#define FC1_H
// Header file of the 8-th layer of the model - The type of the layer is fc


float fc1_w[25][256] = {
	0.09126942, -0.10575319, 0.061439652, -0.07947477, 0.033620693, 0.012313667, -0.038355853, 0.044936657, 0.11371906, -0.09574044, -0.17958671, -0.13425899, -0.17668445, -0.057767406, 0.012697347, 0.06667459, 0.022650568, -0.07603941, -0.07269381, -0.08169457, -0.043531474, 0.109572805, 0.026346752, 0.100385085, -0.030520335, 0.09228945, 0.06034661, 0.033657327, -0.00198949, 0.012651212, 0.09112806, 0.06402362, 0.14222945, -0.03953072, 0.063962236, -0.124826714, -0.07158727, -0.044673152, -0.0692313, -0.12035206, 0.16865322, 0.092995614, -0.026988335, 0.11293385, 0.07334111, -0.013739046, 0.06318978, 0.03687255, -0.009503683, 0.15252133, -0.07037405, 0.085849114, -0.0714249, -0.09480273, 0.07593764, -0.1831281, -0.014527912, -0.050565697, 0.11073668, 0.016138861, -0.10060969, -0.02754393, 0.06496353, -0.13138084, -0.12758988, -0.12276904, -0.1054128, -0.010118261, -0.017545028, 0.025211897, -0.04266275, 0.06847175, 0.16540639, 0.07251834, 0.06902214, -0.021708319, 0.07637199, 0.033355378, -0.16675092, -0.21297003, -0.0090962555, 0.0407642, -0.022241984, -0.08717184, -0.13116403, 0.06613092, 0.2192198, -0.1960931, 0.27988225, 0.2827282, -0.026581861, 0.09657787, -0.07959748, -0.04021196, 0.19232978, 0.19285727, 0.061718658, -0.032118075, -0.14156777, -0.08092012, -0.107638, -0.09784407, 0.02349244, -0.055267755, -0.015174897, -0.088549174, -0.009203746, -0.030034365, 0.049385503, -0.09941346, 0.2547709, 0.27280402, -0.09325433, -0.06727731, -0.20438854, 0.044517443, 0.13598578, 0.028016744, 0.07490956, 0.089761086, -0.039977685, 0.04631191, -0.00011260685, 0.17900604, 0.09752872, 0.0321368, -0.0006534849, -0.08909547, 0.03344547, 0.073012754, 0.025453318, -0.023062708, 0.120142885, 0.05449301, 0.088215046, -0.12893583, 0.11024613, 0.047340143, -0.13003509, -0.16989549, -0.006315722, 0.037793085, 0.12625906, -0.009007365, 0.12186642, 0.039383, 0.15728962, 0.11155302, -0.024688892, 0.07022931, -0.09909215, -0.023109857, -0.11961343, -0.0008529142, -0.049075782, 0.091202416, -0.08970678, -0.016432593, -0.023292754, -0.0961743, 0.07990122, -0.15175278, -0.10940885, -0.011733093, -0.03654182, 0.030250354, -0.035462316, 0.17569089, -0.08287768, 0.23081304, -0.14564353, -0.0036637478, -0.14924671, -0.022903463, 0.034402613, -0.042844705, -0.016451444, 0.009659718, -0.066757396, -0.08782584, 0.0829904, 0.025444474, 0.09016022, 0.07117643, 0.0071233083, -0.046323624, -0.065322265, -0.13377385, 0.13132386, -0.014697465, 0.03759559, 0.005362989, -0.16945408, 0.015432764, -0.091821514, 0.17647833, 0.049123123, -0.09806207, 0.17385806, -0.16042528, 0.088525884, -0.04227855, 0.32878745, 0.20565724, -0.0022117074, -0.10168954, -0.09886262, -0.0050611906, 0.023011513, -0.042756442, -0.008875131, -0.05949313, -0.12985586, -0.12082534, -0.15237464, -0.16997573, 0.028658735, 0.10147419, 0.15703416, 0.116836645, -0.0779189, -0.21748845, 0.04058284, -0.008208877, -0.013263226, -0.11458335, -0.060422555, 0.06242769, -0.079171084, 0.015994232, 0.048591856, -0.030184703, 0.056731753, 0.026239572, -0.21202761, -0.10070361, 0.040467378, 0.12587966, -0.027040878, -0.023311974, -0.13122715, 0.010306953, 0.35184392, 0.18134268, -0.0061215144, 0.089987144, 0.03456819, -0.069771804, -0.054360013, 0.0016862851, -0.15116607, 0.022379758, -0.14696099, -0.24740344, -0.030594932, -0.19327678, -0.22859125, -0.07599533, -0.0768705, -0.05732165, 0.047608618, 0.14054221, -0.06897492, 0.0083834585, 0.12609707, -0.20081873, 0.1907447, 0.1291388, 0.0850781, 0.18910092, -0.14276654, 0.06397322, 0.05874563, -0.01889993, 0.04808811, -0.06432988, -0.1473115, -0.043143824, 0.15266614, -0.13098858, 0.08154326, 0.013110219, 0.003398711, 0.0033206458, 0.037023503, -0.10673613, -0.076925196, 0.009441158, 0.3159999, 0.09745069, 0.09790318, -0.21853735, 0.029510362, 0.01632267, -0.13218106, -0.07095234, -0.05521795, -0.14749457, -0.024112467, 0.05208057, -0.046179276, -0.052511506, 0.003558258, -0.026442494, -0.04186195, 0.03517059, 0.0069786166, 0.061350927, -0.0622212, 0.08849712, -0.07549815, 0.059456833, -0.08864433, -0.15236849, 0.0042703557, 0.22662371, 0.14070977, 0.060590934, -0.029932516, 0.054695785, 0.21022877, 0.03416062, -0.19107382, -0.10684763, 0.06651507, 0.010021411, -0.19454446, 0.0349456, 0.03488323, -0.046104174, -0.08640374, -0.07122261, 0.16591178, 0.038472313, 0.07016865, 0.13114142, 0.013496316, 0.096902065, -0.10032163, 0.037994396, 0.086330004, -0.11171631, -0.18568544, 0.15105566, -8.138582e-05, 0.021778079, 0.077390134, 0.041616198, -0.058691006, 0.29130825, -0.13225423, -0.05803617, 0.15506071, 0.15410802, -0.028943678, -0.12793358, -0.062071014, 0.020047631, 0.05774567, -0.178345, -0.048392, -0.047654927, 0.0028537805, 0.011397814, 0.2917718, 0.08710687, 0.054714605, -0.13291687, 0.06383667, 0.16715465, -0.09734825, 0.08291064, -0.037577316, -0.14623408, -0.13950658, -0.04159469, -0.17954446, -0.20696318, -0.084201984, -0.102934524, 0.008834059, 0.038648587, 0.0795023, -0.015679484, -0.08054834, -0.030653957, -0.031051748, 0.08252695, -0.06635391, -0.027534036, 0.08307079, -0.04460438, -0.010486764, 0.10337394, 0.10219523, 0.2195583, 0.08136325, -0.16132535, -0.054965008, -0.045260638, -0.061614677, 0.11504446, 0.0018856452, 0.02703944, 0.17910324, 0.13782483, 0.15386508, 0.030966882, -0.09055191, -0.015873512, 0.1019067, -0.0024999506, -0.08799135, 0.044889376, 0.0006868954, -0.064438455, -0.020283958, 0.09011238, 0.1224321, 0.01632353, -0.048648182, 0.050365552, -0.0055471407, -0.056414492, -0.05147927, 0.08793099, -0.11942322, 0.08411585, -0.10368254, 0.13194826, 0.106779404, 0.028362602, 0.06627489, 0.018877374, 0.02986119, 0.061876662, 0.058511253, 0.03200459, -0.08356648, 0.0049906047, 0.032256246, -0.05340611, -0.045178406, -0.059693106, -0.03355928, -0.05481585, -0.0013728847, -0.04283647, -0.008046245, 0.029970976, -0.13933386, -0.07326377, 0.1349292, -0.18637423, -0.077329256, -0.19295013, 0.17614761, 0.017213318, -0.027840398, -0.20509052, -0.24896118, -0.024718978, 0.020072434, -0.022626756, 0.11251418, -0.01239984, 0.0057981494, 0.022107895, -0.004261005, 0.14212023, -0.2252257, 6.1826024e-05, 0.1551292, 0.028909542, -0.13414977, -0.12540603, 0.08075433, 0.04625126, 0.04183904, 0.030280825, 0.05802299, -0.068641424, 0.09551046, 0.0059619234, -0.03521041, -0.08482549, 0.04851796, -0.09558753, 0.09419672, 0.19167711, 0.053994764, -0.3076606, -0.023522068, 0.04318243, 0.051945828, -0.03922705, -0.3594532, -0.27306637, -0.4036998, -0.27463856, -0.0060595744, 0.051579982, 0.08821543, 0.12582508, 0.027110044, -0.09144086, -0.05801859, -0.08613338, -0.023980746, 0.15917191, -0.042226665, 0.07377785, 0.15308002, 0.2776573, 0.015394128, 0.011459437, 0.028841337, -0.008783814, -0.0011832333, -0.114024684, 0.30289236, 0.1619451, -0.20447813, -0.062970795, -0.01782735, 0.055634275, -0.14920214, -0.06375852, -0.02409357, 0.0419203, 0.041155584, -0.035547983, 0.08053874, 0.09054724, 0.019690944, 0.18291664, -0.015652787, 0.059721507, 0.024702724, -0.1917254, -0.02840469, -0.0056577465, -0.15906207, -0.06285761, -0.26780272, -0.06462241, -0.031438846, -0.012069774, 0.0724759, -0.051623717, -0.013446829, -0.029238991, 0.042220645, -0.03649977, -0.12567471, -0.10730265, 0.022102034, 0.051122867, -0.021392463, -0.007890811, 0.053356603, -0.15194133, 0.0011482147, 0.068457395, 0.041127674, -0.01785585, 0.15886343, -0.024806011, 0.08995006, 0.22906168, -0.21150248, 0.16761103, 0.037737, 0.0712672, -0.14599602, -0.059042748, 0.13445756, -0.06556008, -0.07748859, 0.0712541, 0.022933079, 0.15514165, 0.0075741303, 0.021721886, 0.00057596987, -0.03561582, -0.03898925, -0.112309, 0.040262815, -0.014181544, -0.026418513, -0.055217315, 0.25029713, 0.054439157, 0.111190245, 0.07547308, 0.11101287, 0.17024048, 0.03021439, 0.021464342, -0.058667485, -0.08287887, -0.18738656, -0.21937294, 0.17997164, 0.15075797, 0.0090178745, -0.00020147227, -0.14203672, -0.118206814, 0.12311219, 0.07307457, -0.04073373, -0.04337624, -0.14878625, 0.0073207114, -0.003748217, 0.017657096, -0.18139964, -0.04081394, -0.07446115, -0.095094725, -0.21649168, -0.23961574, -0.045280002, 0.19546854, -0.039094575, 0.0033302263, 0.08371406, -0.14611414, -0.26809314, 0.08545763, 0.17938513, 0.09193908, 0.114851445, -0.019012038, 0.054660942, -0.08758581, -0.012423207, 0.023923036, 0.025653739, 0.042504564, -0.061009888, -0.0050797155, -0.06231843, -0.014204789, -0.05270352, -0.01781081, 0.1583828, -0.05282628, 0.06778381, -0.0141621, 0.0006262147, -0.070826925, -0.36325055, -0.2287962, 0.10022831, -0.020098135, 0.13510962, -0.015370188, 0.01993939, 0.05696154, -0.04285559, -0.0063032694, 0.048138913, -0.0031622408, -0.012293424, 0.04660308, -0.17135061, -0.018252531, -0.15172923, -0.060684577, 0.009394866, -0.03340094, -0.07624306, -0.0010550575, 0.0077242865, -0.049530555, 0.01357638, -0.011056254, 0.00040566648, 0.20251392, 0.08178669, 0.30242628, 0.040455278, -0.059047, -0.004872843, -0.037325162, 0.05038328, -0.0481786, 0.107329875, -0.06920772, 0.056671415, 0.0734561, 0.018125426, 0.034635782, -0.03822912, 0.06420809, -0.0059628473, -0.051356684, -0.09500559, -0.03237917, -0.15856335, -0.14267316, -0.06858115, -0.15173934, -0.07862493, -0.13428572, -0.15304847, -0.3313627, -0.003910344, -0.112079345, -0.038049534, -0.27605027, -0.041635633, -0.09281511, 0.043865472, 0.1277014, 0.03263649, 0.000393759, 0.023590686, -0.07003619, -0.05900903, -0.044179402, 0.07889959, 0.059926074, 0.10185421, 0.022086125, -0.07687716, 0.031282905, 0.039172243, -0.13272813, -0.04174837, -0.12937056, 0.033999085, -0.03000259, -0.012134159, 0.03031266, 0.0006045753, 0.07561539, 0.12713563, -0.04112319, 0.13563913, 0.14787178, -0.08232017, -0.36963657, 0.018310184, -0.26102653, -0.012291069, 0.06395235, 0.029902738, 0.027882949, 0.12484078, 0.2618989, -0.047739584, 0.20916857, -0.04579114, -0.06649325, 0.08744849, -0.069299735, 0.17596626, 0.25071287, -0.17406884, 0.25191194, -0.13060834, -0.24991576, -0.16503702, 0.03874767, -0.22361019, 0.021697743, -0.071863994, 0.060922623, 0.039914798, -0.059115358, 0.062203493, -0.030036408, -0.35124838, -0.30155638, 0.049624167, -0.0700448, 0.026243001, 0.07909865, 0.019078095, -0.017494755, -0.008454159, 0.021291198, 0.027249537, 0.012180065, 0.034124468, -0.042657018, 0.024610458, -0.00035721963, 0.0018089777, 0.037758797, -0.16214238, -0.009490707, -0.03868859, 0.10290526, -0.17946714, -0.054626223, -0.04209957, 0.06831812, -0.049378093, -0.1811826, -0.08032849, 0.120095946, 0.0424826, 0.034079213, -0.08893848, -0.22770955, 0.13635565, 0.022940017, -0.057115924, -0.059047617, -0.11247294, 0.016364492, 0.039811943, 0.0036706405, 0.19853774, 0.0610064, 0.037459806, -0.050099462, 0.017288355, -0.0023714625, -0.1877635, -0.15165405, -0.19543697, 0.25839505, 0.02946318, -0.022558989, 0.017906774, -0.039999753, -0.003568694, -0.07803135, -0.274594, -0.19576806, -0.05181884, 0.0014347626, -0.11090082, -0.13463318, -0.061841488, 0.010553092, 0.026020342, -0.07123449, 0.22664651, 0.05565047, -0.033973735, -0.009455993, 0.19657762, 0.21011762, 0.09602618, 0.0014603953, 0.050074227, 0.19037221, -0.002826286, 0.11026326, 0.09555282, 0.10099927, -0.1784668, -0.09981435, -0.0077968426, 0.06775481, -0.14837064, 0.112831816, -0.11167449, 0.13100845, -0.12741603, -0.25788325, 0.08803645, 0.013140142, 0.035748158, 0.06545261, 0.011336826, 0.007779372, 0.053576756, 0.06087751, -0.03132381, -0.14816397, -0.058337774, 0.04410946, 0.010553976, 0.09366242, 0.060237814, 0.31280753, -0.094691046, -0.10346814, 0.09010427, -0.034560785, -0.101236604, -0.0026227713, -0.12653133, -0.049449727, -0.040679596, 0.019630104, -0.006762329, -0.02105212, 0.10309517, 0.032398894, -0.02846692, 0.0030625085, -0.030987194, -0.0649765, 0.03285358, 0.022501534, 0.06898399, 0.008726566, 0.41998008, 0.24453999, -0.07472247, -0.060294688, 0.11371353, -0.2433035, -0.05631841, -0.06344311, 0.12605523, -0.06110668, 0.16713464, 0.19020617, 0.11281775, 0.18667035, -0.05104028, -0.015553727, 0.081031255, -0.0058808024, -0.018229239, 0.09753555, -0.16749948, -0.06953293, 0.012382801, 0.07413878, 0.08943967, 0.014584108, 0.05983341, -0.088399604, -0.13145123, -0.016059298, -0.14471242, 0.15395382, -0.2545898, 0.13257176, 0.032116797, -0.06680872, -0.05124465, -0.0791304, -0.07314824, 0.059454676, 0.017495347, 0.021855908, -0.058863293, 0.04635945, -0.0800145, -0.0007390351, -0.014410013, -0.010226237, 0.025933404, -0.098054536, -0.052370753, 0.051913053, 0.017781572, 0.12567237, -0.033379804, -0.007674608, -0.019984854, -0.09890142, 0.057360485, -0.06280899, -0.26151145, -0.20252465, 0.05551083, -0.026507359, 0.038354095, -0.07913019, 0.038044125, 0.07195372, -0.09250987, -0.011620175, 0.06198466, 0.026521476, 0.0794592, 0.028180718, 0.13604294, 0.2501347, 0.08064095, -0.009436831, -0.028903931, 0.016148569, 0.123815596, -0.08862323, 0.14514424, 0.03689321, 0.06440562, -0.12592019, 0.04247989, 0.0024457895, 0.03210374, -0.028634792, -0.10312272, -0.14875776, -0.09244362, -0.042675693, -0.042044517, 0.10008381, -0.1144857, -0.17056209, -0.02154397, -0.049374428, 0.050022867, 0.010905399, -0.19399731, -0.07939132, -0.16948695, -0.13974814, -0.0037343935, 0.08105324, 0.048603013, 0.04079072, -0.27769697, -0.3410221, -0.3202806, -0.3019031, -0.1455678, -0.040493485, -0.14135566, -0.032827765, -0.13284121, 0.05212234, -0.05480046, 0.00041129324, 0.016025411, 0.083319545, -0.103376895, -0.02076892, 0.24566968, 0.39284453, 0.101470076, 0.20316823, -0.10081589, 0.07156887, 0.01936048, -0.01841037, -0.0677423, -0.019678995, 0.05167535, -0.12973739, -0.04833444, 0.07086471, -0.02599689, -0.00060113013, 0.009184716, -0.027040472, 0.01249769, -0.022107538, -0.046183117, 0.015624902, -0.018455876, -0.14361751, -0.3078976, -0.11512705, -0.11641323, -0.06381967, -0.0058110417, 0.1035773, 0.009750454, -0.025591467, 0.09941115, -0.12202206, -0.20306718, -0.117419414, -0.14472465, 0.043981187, 0.0605542, 0.01877737, -0.08779769, -0.049767464, 0.026153, -0.10703926, -0.145797, -0.014929529, 0.06490243, -0.044470087, 0.1803419, 0.11646637, -0.0832849, 0.080351844, 0.0042350106, -0.010994725, 0.043075673, -0.028233288, -0.05999471, -0.091256306, -0.13435966, 0.1612284, -0.0730063, 0.0012124553, 0.083432816, -0.20378105, 0.0848461, -0.00082448235, 0.06298029, -0.14982991, 0.103433125, -0.041186005, 0.16130702, 0.18605718, 0.32815164, -0.22149761, 0.13952823, 0.14357425, 0.08283121, 0.06870432, -0.014518149, 0.05874475, 0.06474278, -0.027879154, -0.10495513, -0.025289144, -0.013724442, -0.021834647, 0.012946938, -0.06179723, -0.1709012, -0.0364802, 0.10979413, -0.029661052, -0.015868537, 0.04458971, -0.0108699, 0.01152142, -0.009945882, 0.018275725, -0.053396843, 0.059600506, -0.06713785, -0.010745621, 0.019289846, 0.061155755, 0.000501101, 0.14281844, -0.062284984, 0.022845129, 0.03946406, 0.13956293, 0.041270446, 0.13715392, -0.026150243, 0.025644815, -0.083209746, -0.14142917, 0.064370595, 0.022654612, 0.009457595, -0.009415229, 0.07823159, 0.04282134, -0.0114031155, -0.041178394, -0.02087757, 0.015584162, -0.062804185, -0.063558735, -0.08364737, -0.30983785, 0.05159174, -0.042715088, 0.20110515, 0.1713068, -0.097257674, -0.08422232, -0.04242228, 0.1350443, 0.003908021, 0.02578586, -0.045856252, -0.06014507, 0.103831224, 0.1440354, -0.12199818, -0.058618195, 0.055836, 0.0048864, -0.06167377, 0.030300345, -0.022804685, 0.07676364, -0.111700416, 0.02536015, -0.00407381, 0.070034236, -0.035202447, 0.051964525, 0.103140496, 0.11436674, 0.20786358, 0.09589758, 0.0023616366, 0.13057216, -0.08220315, 0.075866446, -0.15300886, 0.1395483, 0.017182464, 0.0025826173, 0.10097928, -0.029906327, 0.096374355, -0.010591814, -0.076277345, -0.024303112, -0.05742871, 0.062683806, -0.078875445, 0.117596544, -0.05054363, 0.057545446, 0.016601421, 0.055465795, 0.21941599, -0.22098571, -0.30338883, -0.17050056, -0.15685372, 0.015691604, 0.20981705, 0.17791726, -0.05690184, -0.054114327, -0.056396283, -0.035164364, -0.03041318, -0.0033586104, -0.054023627, 0.124557704, -0.027634153, -0.084561795, 0.09120722, -0.04457421, 0.059216604, -0.09655424, 0.09870099, -0.13552243, 0.026024636, 0.11486264, 0.17948301, 0.11173517, 0.29510716, 0.15052113, 0.09761263, -0.02649226, 0.03425529, -0.14067249, 0.038886238, -0.021647139, -0.06904859, -0.0041484474, -0.09870832, -0.00042509352, 0.07847446, -0.17602022, -0.19932857, -0.21897572, -0.066385575, -0.07863174, 0.05311621, -0.08379196, 0.11446461, 0.13408151, -0.12485429, 0.2150057, -0.07498743, -0.0498152, 0.036583845, -0.009336245, 0.15216736, 0.03225357, 0.01704316, 0.17543033, -0.21831837, -0.3324194, 0.036028583, -0.053468384, -0.06633232, -0.066239975, 0.10653442, 0.030555148, 0.060801454, -0.057163686, -0.09452817, 0.09709655, 0.062243875, 0.19921386, 0.0936937, 0.16503541, 0.22299294, 0.19681004, 0.15127786, -0.03515307, 0.02154868, 0.12914431, -0.10449259, 0.09113673, -0.096367605, -0.051146705, 0.06211044, 0.14081576, 0.043321796, 0.2095818, -0.020678353, 0.044474754, 0.059489086, 0.00517926, -0.008072314, -0.12558395, 0.058948122, 0.10119638, -0.062329825, -0.06054299, -0.039143294, -0.06680168, 0.029233031, 0.027991017, -0.3776056, -0.16972394, -0.019208226, -0.1375596, 0.0077194558, 0.049109295, 0.022889946, 0.064265475, 0.074787304, -0.0550633, 0.056196738, -0.009137405, -0.012478858, -0.05906811, 0.098385766, 0.043025006, -0.17258301, 0.30160844, 0.14252223, -0.034064114, 0.017161442, 0.0056132916, 0.057311144, -0.020046934, -0.05823142, 0.018316502, -0.3062317, -0.09005468, 0.013188952, -0.07176726, -0.017938549, 0.06953256, 0.010225304, 0.088102154, 0.08340839, -0.030940298, 0.29181004, -0.0013871382, 0.19309987, 0.37056658, 0.024238614, -0.16566455, 0.2413737, -0.008887052, -0.024700956, 0.06989495, 0.025215073, 0.06431543, -0.12697671, -0.30760047, 0.103711054, -0.13369572, 0.09495578, -0.050440323, -0.064856954, -0.140156, -0.086930625, -0.11308321, 0.11843378, 0.0001361245, -0.03980797, 0.131513, 0.021480074, -0.118419245, 0.030915407, -0.00975021, -0.060736556, -0.03319028, -0.109995164, -0.06020685, -0.12223394, -0.15116048, 0.09118616, -0.10229767, -0.122486524, 0.16936837, -0.09902088, -0.042034667, 0.0656729, 0.14800042, -0.07050728, -0.036389407, -0.22455859, -0.09004442, -0.02218125, -0.059993584, 0.03340743, 0.079302944, -0.016089717, 0.082596034, 0.03208856, -0.045680285, 0.081220806, 0.1173072, -0.16877498, 0.016850928, 0.0012099954, -0.07351554, -0.043176744, -0.10018896, -0.10139584, 0.040246844, 0.0136029245, -0.09206766, 0.07377402, 0.06187826, 0.09668589, 0.010135031, 0.21804923, 0.13542576, 0.027952684, 0.008914199, -0.0663862, -0.07719622, -0.060404222, 0.01924435, 0.101972476, 0.119812824, 0.055820312, 0.0069571612, 0.008459297, -0.08176189, -0.020938084, 0.08980376, 0.025626296, 0.03577977, 0.046781734, 0.029990457, 0.13605912, 0.06038285, -0.08278268, 0.115889676, 0.022414934, -0.07894932, -0.004368352, 0.0050818017, 0.02479367, -0.10669515, -0.050968345, 0.08185731, -0.059485614, 0.03215697, 0.11602656, -0.0012771296, -0.02850437, 0.079500675, -0.042986598, -0.0191641, -0.007979358, -0.00777029, -0.073040284, -0.043882877, 0.17859164, -0.17201136, -0.067408495, -0.018210895, 0.04180937, 0.056626804, 0.14322692, 0.18721317, -0.15673828, -0.072323956, -0.16410431, -0.14411178, -0.019259024, 0.009991531, -0.0367873, -0.046278298, 0.029887572, -0.010460292, 0.08491455, -0.032859895, 0.14474513, 0.052024312, 0.0005869331, 0.03680218, 0.013022815, 0.00792179, 0.035515394, 0.093034275, 0.10973047, 0.16982904, 0.028791377, 0.08263292, 0.13097893, -0.11393105, 0.03597039, -0.027566055, -0.014957069, 0.01884388, 0.08548958, -0.1676741, 0.08144398, -0.09541833, -0.050688833, -0.22520702, 0.020061411, 0.061995137, -0.028977541, 0.039746013, -0.07536959, -0.057684805, 0.02605285, 0.13549736, -0.016057359, 0.0045984355, -0.026897253, 0.030262005, 0.16873844, -0.07128836, -0.04713233, -0.06681223, -0.050955083, -0.11040979, 0.025147228, -0.0015232824, 0.16222952, -0.010065287, -0.04546639, 0.119699396, 0.044067223, 0.034104276, -0.0839332, 0.12310437, 0.01674176, 0.050646447, 0.0814474, 0.0692099, 0.030179087, 0.04785937, 0.0073054447, 0.023275377, 0.023722256, 0.038332056, -0.05130487, 0.08092273, -0.08058953, 0.0072784643, 0.033695232, -0.011091343, 0.051166926, 0.07452424, -0.055409875, -0.0051152995, 0.034569636, -0.069791116, 0.027170554, 0.05574819, -0.22661497, 0.024177292, -0.033232275, 0.15689203, 0.0011603523, -0.009361152, 0.03966627, 0.06447478, 0.0061136284, -0.09444222, -0.105245166, -0.15661156, -0.02759893, -0.023632562, 0.09601129, -0.04246129, -0.16048257, -0.07139413, 0.0015173807, 0.002235041, 0.03976383, -0.05723735, -0.07486505, -0.08399207, 0.246586, 0.077950396, -0.015652515, -0.0021571594, 0.02101704, -0.18077073, -0.072014414, -0.09921574, -0.1362498, -0.027015135, -0.15242566, 0.15033656, 0.07172615, -0.079273745, 0.09065493, -0.13903588, -0.123556085, -0.11447909, 0.08054315, 0.059429288, 0.050190933, -0.023927933, 0.20405218, 0.12234482, -0.0094562825, -0.08088394, 0.1487765, 0.070093445, 0.16266295, 0.08969307, 0.00042512844, 0.13900559, -0.18316892, -0.24841614, -0.052171413, -0.04854581, 0.044237968, 0.07508162, -0.051692046, -0.09826842, 0.050660707, 0.010239696, 0.11679624, 0.11484561, 0.033786085, -0.11661113, 0.08409886, 0.02412112, -0.024125094, 0.08211486, 0.07770378, -0.0063620396, -0.1880307, 0.054964744, -0.11674899, -0.1657705, 0.07129053, 0.095299475, 0.12225206, -0.0003331419, -0.18089594, 0.10529024, 0.018636964, 0.13501832, -0.07237517, 0.011319452, -0.130278, 0.15410078, 0.001819844, -0.037991997, -0.031860508, -0.08051483, 0.04229368, 0.07525631, -0.14653687, 0.040241312, -0.01618609, 0.039877046, 0.0034196912, 0.023259291, -0.1447051, -0.1950422, -0.051090844, 0.055375252, -0.011936162, -0.082748726, -0.14193851, -0.027517507, 0.05147449, -0.07121622, 0.07263757, 0.06772014, -0.10435026, -0.1528314, 0.10110362, 0.11090136, 0.03109725, 0.11822967, -0.062668785, 0.010762017, -0.061987184, -0.0012805605, -0.10147899, -0.121227466, -0.026781004, 0.05590937, -0.055398695, -0.10415247, 0.06645348, -0.011550031, 0.012242172, 0.06611058, 0.21049875, -0.21139579, 0.16740303, 0.018201767, -0.099672064, 0.08873194, -0.05842135, -0.11977676, 0.035371687, 0.08634246, -0.08323009, 0.06806654, 0.01221237, -0.0359744, 0.11915654, 0.019570937, -0.081699856, -0.059641056, -0.0118432, 0.028617784, -0.037847668, 0.041129276, -0.042989396, -0.014960048, -0.088980995, -0.18983158, 0.0041816332, -0.08788708, -0.14490822, 0.19317456, -0.10593564, 0.08124458, -0.07431698, -0.15657449, -0.122880585, 0.014919707, -0.01577985, 0.020812605, -0.002237891, -0.12140847, -0.06211751, -0.040347215, -0.045350958, -0.007090981, 0.21310611, 0.09001042, 0.3269135, 0.17509261, -0.08622891, 0.063590534, 0.02507155, -0.0182475, 0.076833986, -0.021772653, -0.01827954, -0.17024139, -0.0016195199, 0.18694721, 0.028107285, 0.061758455, -0.03856237, 0.09597711, 0.05497744, -0.048000045, -0.028907174, -0.18402228, 0.017318938, 0.010026354, 0.034952182, -0.047120463, -0.07671728, 0.06890721, 0.2779733, 0.16007166, 0.096870966, 0.25729936, -0.13421649, 0.009580078, 0.065107696, 0.05722663, 0.058814418, 0.02597189, 0.18699802, -0.008799334, 0.026075257, 0.06510958, -0.10065405, 0.09189078, -0.12473299, 0.06341897, -0.043321885, -0.053156096, -0.13905193, 0.044041757, -0.029186219, -0.0044071996, 0.18884633, 0.24369985, 0.060829077, 0.15201053, 0.11034835, 0.15540308, 0.11579993, 0.0818498, 0.07713166, 0.15550128, -0.0049670483, -0.003875046, 0.06637866, 0.054048132, 0.09860391, 0.21927524, 0.133398, -0.063388266, -0.011099633, -0.024296222, 0.0148065975, -0.06840747, -0.05679259, 0.04762451, -0.176389, -0.0931644, 0.042092968, 0.18038736, -0.09107572, -0.00063715986, 0.040948242, -0.044477187, 0.16277607, 0.15187655, 0.16549668, 0.22528452, 0.14731094, 0.042382453, -0.07639474, -0.011335328, -0.052752778, 0.09691182, 0.0026018247, -0.1089587, -0.0021460725, 0.00026104457, 0.07791291, -0.046863914, -0.00745013, 0.1346917, -0.10668958, 0.013246358, -0.11885986, 0.081718676, -0.06616674, 0.053774577, -0.13398153, -0.2501682, 0.06235013, 0.21057339, 0.024495905, -0.0019959828, 0.010709636, 0.058050957, 0.020033471, 0.05406114, 0.010066963, -0.09606568, -0.07130601, -0.17745194, 0.25072172, 0.1277247, -0.0026164001, -0.14313969, -0.041064836, -0.086230956, 2.799087e-05, 0.09602623, -0.042836778, 0.09690047, -0.09136818, -0.09540574, -0.0748446, -0.11928496, -0.022225788, -0.040036857, -0.070602216, 0.059708305, 0.02538618, 0.014208124, 0.0070207375, 0.045587085, -0.058703933, 0.002339415, -0.012106427, -0.03026366, -0.008193513, -0.0068143704, 0.04720411, -0.051599257, -0.06339562, -0.08615404, 0.048601616, -0.202518, 0.06340458, 0.09774352, -0.027353132, -0.2267789, 0.05476616, 0.2010861, -0.07901994, -0.0050227577, 0.18973811, 0.040764447, -0.1196568, -0.3240715, -0.0012095652, 0.11562021, -0.027177332, -0.06790203, -0.06001758, -0.13421762, 0.048112538, 0.0928169, -0.08672074, -0.055699743, -0.0732764, 0.05864203, -0.09388925, 0.022027636, 0.010055822, -0.046582446, 0.005487036, -0.0670761, -0.38452548, 0.11380618, -0.04375049, -0.0021077695, -0.022107402, 0.027276322, 0.018390473, -0.010137731, 0.06254267, -0.05314137, 0.010981239, 0.07173661, 0.025366766, 0.122971565, -0.11506521, 0.026182499, -0.05269767, 0.065038435, -0.08903313, -0.05265042, 0.040331565, 0.0185308, 0.07797864, -0.033854358, -0.14609472, 0.02565394, 0.10230429, 0.21456203, 0.14069676, -0.053428758, 0.004663756, 0.002187107, -0.12343281, 0.011174489, 0.059633225, -0.06650804, -0.102575496, 0.10289762, -0.08914041, 0.06665164, 0.08620585, 0.02476031, -0.047990914, 0.06080459, -0.048114005, 0.008273806, 0.072441794, -0.09820885, 0.0013742553, -0.019539729, -0.1359844, -0.2764458, -0.1173249, -0.23880929, 0.039979447, 0.05093639, 0.15148973, 0.27357382, -0.11903704, -0.038167883, -0.06981351, -0.111867025, -0.006585656, 0.060945917, 0.1555711, -0.03887113, -0.028228598, -0.025961988, -0.09910518, -0.0037956082, 0.18089643, 0.102656975, 0.2556757, 0.0943327, 0.11764117, 0.20079517, -0.007956433, -0.048297208, -0.13168567, 0.009704592, -0.07124962, -0.12195769, 0.11069791, -0.07355429, -0.017914666, 0.075566, -0.031908818, 0.06514948, 0.012610609, 0.079675205, -0.13723914, -0.09829273, 0.107603244, -0.23229793, -0.12203843, 0.08673505, 0.00020223016, -0.05695518, 0.08852342, -0.03575645, -0.25953567, 0.21756676, 0.010208119, 0.07775278, -0.042602874, -0.16302152, 0.12562503, 0.2730118, -0.10768759, 0.030797193, -0.081327975, -0.12841316, 0.24866351, 0.0030889807, 0.38718197, 0.101299316, 0.23400101, -0.105704375, -0.15980332, -0.041353106, 0.15078068, 0.1292904, -0.023441257, -0.123622224, -0.18972132, -0.0038807332, 0.14788857, 0.1043676, 0.010602384, -0.14926113, -0.004620122, -0.043967105, -0.012461241, -0.010042564, -0.039878357, 0.10457447, 0.25022557, 0.23590656, -0.009481785, 0.030856712, 0.11259175, 0.14178059, 0.057314847, -0.07927337, -0.012176088, -0.065019146, -0.13729905, 0.11684434, -0.01577423, 0.016524868, 0.09682043, -0.025312275, -0.06602453, 0.0649919, -0.2441784, -0.26022762, -0.045987498, -0.16085446, -0.023688525, -0.103831254, -0.03871677, -0.06460768, -0.016998162, -0.013993474, 0.042765595, -0.0030647665, -0.05137804, 0.05465141, 0.016632805, -0.10796498, -0.046575114, 0.19006199, -0.17532608, 0.16857505, -0.027197402, 0.012306817, 0.13814625, -0.11210436, -0.024419483, -0.120233625, 0.039242126, -0.022692816, 0.05927186, 0.016970234, -0.13219225, 0.056672495, -0.052783806, 0.009094877, -0.07228899, -0.0785602, 0.023158552, -0.056773923, 0.087712646, 0.1934495, -0.032377403, -0.10830421, 0.29655483, 0.07078647, 0.07532206, -0.09808242, -0.07101492, -0.08973744, -0.18580917, -0.34210697, -0.05367334, 0.015018421, 0.02003644, 0.13628669, -0.021651845, -0.007437872, -0.0129027665, -0.223895, -0.21365678, 0.121895626, 0.044556398, 0.06706443, -0.023639305, 0.029121509, 0.12982596, -0.04059801, -0.057273626, 0.11582624, -0.11459799, -0.07388708, -0.22823584, -0.24048194, 0.0989894, 0.007766808, 0.013386123, 0.02124922, 0.030222597, -0.17269914, -0.010745275, -0.0016913633, 0.007582763, 0.11290627, -0.18172006, -0.039585073, -0.01599687, 0.05573225, 0.011779291, -0.045765273, -0.07740071, 0.08539847, -0.09676418, -0.03631972, 0.06394683, -0.061134316, -0.055843554, -0.03085529, 0.00067677, 0.052215323, -0.032556716, -0.09926532, -0.16789128, -0.19305788, 6.914549e-05, 0.06659194, 0.037594605, 0.003747836, -0.10233215, 0.060888465, 0.1706829, 0.021460898, 0.060941733, -0.06462018, 0.023441685, -0.047581933, -0.093652196, 0.103526324, -0.13835573, -0.07652625, -0.026957681, -0.06029681, 0.13344318, -0.015371917, 0.02093802, 0.0770474, -0.03165782, 0.0015882726, 0.021285854, -0.027864441, -0.017308867, 0.09619958, -0.10485555, 0.22598693, 0.06126061, -0.05090292, 0.043391276, -0.07294338, 0.004531232, -0.027777692, -0.011530366, -0.2001174, 0.054284487, -0.13847317, -0.001817438, 0.05017187, -0.07261331, -0.036518283, -0.055680636, 0.13480633, -0.0472241, 0.0085181175, 0.13193104, 0.034877114, -0.05362583, -0.08024678, 0.00015223758, -0.08790781, -0.14632988, 0.02437699, -0.10903732, 0.15455274, -0.31999168, -0.096669614, -0.123702206, 0.1441044, -0.009201539, -0.06663584, 0.04286443, -0.04209906, 0.018012809, -0.026871758, -0.007100093, -0.05118021, 0.21506597, 0.17030692, 0.23146643, 0.2784183, -0.036027636, 0.0026461484, -0.04449885, -0.04793202, -0.10821192, -0.04362293, 0.011763696, 0.1195099, -0.040265873, -0.018892225, 0.008605692, -0.13693261, 0.028427465, -0.016307792, 0.010437698, -0.01831494, -0.12680393, -0.17656447, 0.05431477, -0.18747756, 0.0141217485, -0.014127369, -0.039177664, 0.09484677, 0.22306351, 0.0908399, 0.123197, 0.21384971, -0.13582419, -0.08132188, -0.11932824, 0.026267117, 0.11531398, 0.10057637, 0.028643047, -0.23695558, 0.26800472, 0.16954952, 0.10779491, 0.046973277, -0.27520227, -0.16808552, -0.31672367, -0.17779018, -0.05073911, 8.945477e-05, -0.01089331, 0.1789042, -0.15701553, -0.04776556, 0.102647796, 0.2090875, 0.0046093785, 0.09785667, -0.066721305, 0.0742805, -0.050762765, -0.0671984, -0.09190641, 0.12801433, -0.04813595, -0.0261856, -0.07679389, -0.09451749, 0.054147348, 0.037168354, 0.072784014, -0.1334462, -0.037038986, -0.053127352, -0.038295697, 0.040497135, -0.1944024, -0.06314763, 0.18582752, 0.13261744, -0.05266009, 0.03251839, -0.031621948, 0.027181158, 0.047248766, 0.124001436, 0.09827318, 0.14354052, 0.01622682, -0.017625162, 0.029219994, 0.15966089, -0.02887962, -0.08810505, 0.0741211, 0.057944626, 0.015791848, -0.07640183, -0.0941802, 0.041314956, 0.03167668, -0.26861858, -0.038844727, -0.41179994, -0.053676054, -0.041640487, 0.10136768, -0.06441664, 0.0010773757, -0.051452138, 0.07212367, -0.027778862, -0.02461737, -0.01743756, 0.086700745, -0.037709244, 0.029582158, -0.023161106, -0.012794556, -0.09308798, -0.001140333, -0.21840511, 0.16470183, 0.16807707, -0.23504698, -0.16172779, -0.2097562, -0.12097581, -0.094494134, -0.03651435, 0.0780981, -0.008367006, 0.33440998, 0.3690696, 0.15301946, 0.1634491, -0.07797069, -0.11691697, 0.018298957, 0.11036054, -0.07523797, 0.14843899, -0.018491145, -0.08169423, 0.09368779, 0.025872974, 0.0522374, 0.024794195, 0.12094659, -0.048667766, -0.047184452, -0.008575964, 0.2237824, 0.18553886, 0.16002767, 0.12027339, -0.061741203, -0.1643728, -0.00810511, -0.0063047935, 0.022169262, 0.14036848, 0.24356313, 0.019439492, -0.0794394, -0.1552328, 0.0035753318, -0.14818488, -0.062553085, 0.018549874, -0.0912785, -0.0027635095, -0.056421734, -0.0545222, 0.04766076, 0.002685066, 0.06713117, -0.016871294, 0.034132328, 0.00883589, -0.05891518, -0.07405911, 0.023188189, -0.031008776, -0.09872725, -0.037399564, 0.011161052, -0.13127546, -0.09240678, -0.05295782, -0.031962167, 0.040697247, -0.116178066, -0.20223612, 0.16477431, 0.09410802, -0.16626726, 0.020388724, 0.02302639, 0.022599211, 0.04145873, 0.078620166, 0.123584695, 0.06413749, 0.08379986, 0.028120672, 0.0012190172, 0.02403815, 0.04094139, -0.02581792, -0.001035783, -0.13284044, 0.08756012, -0.14062174, -0.16471286, -0.30619898, -0.09175961, -0.031183803, -0.02665001, -0.10804811, 0.16678575, 0.007254878, -0.023094404, 0.00096142135, -0.00056367245, -0.045481823, 0.08899985, 0.1810653, 0.0297393, -0.051109, 0.019734312, -0.04616627, -0.019145023, 0.013818498, 0.11438076, 0.030131208, -0.045798384, -0.2219915, -0.027804695, 0.068468936, -0.07878735, 0.18742524, 0.03642895, -0.00842235, 0.097724944, -0.020995803, 0.05564626, -0.02895406, -0.043477643, -0.0741838, -0.020071527, 0.024984563, 0.020238431, -0.086649165, 0.0046030115, -0.064490184, 0.07131506, 0.16235772, 0.10203322, 0.18903887, 0.11793051, 0.12538971, -0.10866537, -0.15327294, -0.01567748, 0.18005133, -0.13890104, -0.0954665, 0.09064629, 0.06101298, 0.037401482, -0.038007922, 0.008576207, -0.000116468706, -0.047571134, -0.0078495545, -0.005101443, -0.018777426, 0.2350377, -0.0048538474, 0.024182877, 0.10193005, -0.04336231, 0.05601397, -0.075106084, -0.0009228896, 0.011445288, -0.12827177, -0.009673536, 0.019759808, -0.12310887, -0.05302932, -0.055868685, -0.32487154, 0.037501123, 0.08301808, -0.026413092, -0.05169466, -0.032694653, 0.11682144, -0.028849166, 0.0053718057, 0.0025470254, -0.017947122, 0.06095091, -0.049165137, 0.007978723, 0.024529198, 0.09301724, 0.0371945, -0.06396084, -0.073134005, 0.024907434, -0.016026871, -0.06738004, -0.04420904, 0.048553575, 0.061840616, 0.04362175, 0.021825852, 0.038996335, -0.07928728, -0.016862964, -0.11178575, -0.07430266, -0.010856797, -0.03387749, 0.029408094, -0.110611275, -0.1400082, 0.045826536, -0.09140534, 0.07786122, 0.20880176, 0.040493853, -0.0029772262, -0.06129967, 0.053972, -0.020816972, 0.023153795, -0.045870516, -0.03427975, 0.13644521, -0.04825237, 0.040352058, -0.03039615, -0.092557564, -0.025788711, 0.013052356, -0.00020386663, 3.4671215e-05, 0.058704626, -0.010966953, 0.049739942, -0.012221096, -0.09279201, -0.21089658, -0.07476204, 0.101587385, 0.23293824, -0.03383259, -0.010310012, -0.02352375, 0.0067195785, 0.1644575, 0.059324715, -0.005189386, 0.07914286, 0.053528756, 0.0194333, 0.0767801, -0.0036048312, 0.057932127, 0.06313282, 0.07624931, -0.024074102, 0.09938052, 0.04505982, 0.003802482, 0.14844236, 0.05174147, 0.048242338, -0.061682213, -0.0919198, -0.037998028, -0.28011903, -0.10926681, -0.24930279, -0.14376222, -0.21792203, 0.0905503, 0.16446623, 0.04804858, 0.09707385, -0.14126097, -0.0315845, -0.18990561, -0.2705041, -0.008846385, -0.032683168, 0.059163403, -0.014712885, 0.045871783, -0.04705272, 0.14329083, 0.20670117, 0.09801579, -0.04980725, 0.23050646, -0.013349915, 0.18663424, -0.1253016, -0.030729253, 0.057049315, -0.22424912, -0.16451485, 0.04121465, -0.1452694, -0.1917991, -0.40375495, -0.10039403, 0.061514232, -0.06926383, -0.24784037, -0.08429496, 0.15119411, -0.044673454, -0.059880637, 0.054497372, 0.012271824, -0.08249452, 0.09372295, 0.086480215, -0.13450868, -0.075162515, -0.03675416, 0.105227, 0.09294585, -0.13272959, -0.02763178, 0.025704298, -0.13973044, 0.11105607, 0.18246162, -0.088481545, -0.01725237, 0.048941076, -0.02986219, 0.16541363, 0.19345888, 0.18463425, -0.095425636, 0.07695729, -0.0813846, -0.049616434, -0.038339175, -0.0289838, 0.007344681, 0.03604723, 0.06648976, 0.052622654, -0.077040285, -0.04866931, -0.016856369, 0.02069206, -0.14757812, -0.11128187, -0.02423706, -0.05450945, -0.07476448, 0.008716686, 0.02158347, 0.12390114, 0.09316, -0.03386443, -0.021143556, 0.12769827, -0.046212737, 0.11638959, -0.12157034, -0.031125452, -0.06888806, 0.08255409, -0.039974656, -0.1321683, 0.029234447, 0.0930678, 0.023535488, 0.10549449, 0.07472777, -0.09507792, 0.0026375956, 0.12352307, -0.011558658, 0.114967816, -0.087508075, 0.03963956, -0.017260797, -0.08862298, -0.033477917, 0.0032164713, 0.07378027, -0.09525071, -0.098289885, -0.011736979, -0.04266133, -0.07555455, 0.03704629, -0.052653175, -0.08405398, 0.053941686, 0.075779475, -0.020988997, 0.026241465, -0.16301963, -0.13781162, -0.16524196, -0.10934471, -0.17029616, -0.09956009, 0.17251687, 0.027392456, -0.06031339, 0.19748017, 0.055835657, -0.031189295, 0.059300564, 0.028040336, -0.009308102, 0.02864348, 0.025680281, 0.07426973, 0.09747598, 0.048645012, 0.12152828, 0.08125603, 0.06789129, 0.10968095, -0.042292703, -0.045321867, -0.27304164, 0.03076608, -0.3455529, -0.25720888, 0.07535347, 0.11566994, 0.14460528, 0.05467707, 0.003310386, 0.07353716, -0.055960517, -0.09359624, 0.21363437, 0.20877962, 0.03096535, 0.18031798, -0.041437652, -0.10303166, -0.17544913, -0.027041383, 0.018439353, -0.03734805, -0.05882796, -0.12109311, 0.046943918, 0.11744447, 0.18721911, 0.14612114, -0.07395573, 0.073504046, -0.0633825, -0.05923468, -0.049773473, 0.04604968, 0.0010999863, -0.056726743, -0.13454592, -0.18923832, -0.1727759, -0.11153337, 0.088735744, 0.01653871, -0.09237056, 0.053640872, -0.005745528, -0.011849217, -0.01963624, 0.04205213, 0.00993421, -0.013324551, -0.14346972, -0.033679876, 0.019691296, -0.018054416, -0.04181857, 0.0053078197, -0.19264491, 0.02518865, -0.022112465, -0.1269251, 0.017393712, 0.025871063, 0.05530465, 0.0047730515, -0.03421185, 0.059536748, 0.0029336028, -0.06737294, -0.06477165, 0.041696783, 0.0059373453, -0.06832587, 0.30590758, 0.10323822, 0.06339445, -0.07259063, 0.006427576, 0.022871139, -0.07791769, -0.06495099, 0.048696157, 0.18156205, 0.079864345, 0.10927867, -0.090652354, 0.00515211, -0.05448501, -0.104014285, 0.04241919, -0.10230343, 0.055993494, -0.0035306166, 0.077116586, 0.13823335, 0.09353811, -0.033121586, 0.0635696, 0.052272722, -0.052360147, 0.11954498, 0.021491839, 0.036129836, 0.04814952, 0.23233709, -0.07740431, -0.25151518, -0.051776063, 0.05555492, 0.11707339, 0.05876933, -0.22119127, -0.11964962, 0.21952613, 0.31619948, 0.12521228, 0.07687583, 0.0064653894, 0.17329258, 0.058265295, -0.0015970428, -0.16875213, -0.008434285, -0.01963168, 0.092166364, 0.11619188, -0.021970402, -0.011594141, -0.067130186, -0.05934341, -0.019892689, 0.31516358, -0.073913746, -0.017957289, 0.21560195, -0.10585309, 0.21065782, -0.07430358, -0.12584446, 0.3014268, 0.13494675, -0.022704381, -0.02621231, 0.07079283, -0.0178315, -0.005580503, -0.016360922, 0.0022540078, -0.17176579, -0.09081223, -0.09414719, -0.058348443, 0.02811036, -0.11563726, -0.13020693, 0.038747333, -0.120932415, 0.03530945, 0.059161484, -0.15842688, -0.037685815, -0.034416515, 0.0390937, 0.100484535, 0.02080008, -0.009474184, -0.264315, -0.0031893689, -0.2394567, 0.09937015, 0.006816913, -0.04885664, 0.02508992, 0.057995297, 0.0013391209, 0.03239278, -0.028220268, -0.076729745, 0.030800842, 0.13627459, -0.06410117, -0.04240605, -0.013518492, -0.04540258, 0.044832777, 0.16668174, -0.23525703, 0.30312628, -0.37514776, 0.029614449, 0.06978026, 0.056523733, -0.017001681, 0.06474007, 0.077297136, 0.051109266, 0.03491586, -0.04256383, 0.05926761, 0.08772425, -0.008417776, 0.05329971, -0.004354308, 0.09302767, -0.042131625, -0.058709122, 0.09955519, -0.02196867, 0.0021094086, 0.08008248, 0.114734784, 0.17088057, -0.17941304, -0.06100651, 0.23511435, -0.0980208, 0.25381827, 0.09427623, 0.085984, -0.023754928, 0.0014407585, 0.010561551, -0.07938632, 0.0038970334, 0.09095968, 0.0047826106, -0.00086076546, -0.05768478, 0.08272171, 0.020525541, -0.084794536, 0.17144747, -0.063085526, 0.067364074, 0.07845199, -0.107315, -0.051756874, 0.1642403, 0.17053035, 0.06938087, 0.03503098, -0.025164928, -0.020612316, -0.043189783, 0.008779522, 0.0013711128, -0.031214675, -0.08121031, 0.0972514, -0.11830483, 0.02536294, 0.045785967, -0.04246963, 0.023844859, 0.03735827, -0.06876688, -0.004402269, 0.06270596, -0.030405063, 0.0383518, 0.014335299, -0.12805742, -0.03165665, 0.058486734, -0.049106818, 0.24812326, 0.17697145, 0.36385372, 0.15545273, 0.1800132, 0.22880256, 0.0063913236, 0.18528552, 0.027613113, 0.17495525, 0.13276812, 0.031291373, 0.06355918, -0.03212378, -0.046088547, -0.0004701764, -0.2522043, -0.1701397, -0.047229566, -0.22591768, -0.11461543, -0.18948707, 0.13411906, 0.04906388, 0.036953215, -0.0021585494, -0.009050953, -0.029109169, -0.053494856, 0.02774106, -0.06234921, 0.13302867, 0.05860717, 0.017823031, 0.07718345, -0.13919762, -0.008647396, -0.11985029, 0.00029844628, -0.09480425, 0.13711233, -0.10754194, -0.10442151, -0.17178813, -0.08469851, -0.019653356, -0.105832845, -0.0043761046, -0.03827426, 0.008342167, -0.05403568, 0.0025151893, 0.029689882, 0.05358624, -0.04871925, -0.002370657, -0.066346176, 0.045352757, -0.024249692, -0.09960448, -0.059712388, -0.04844785, 0.07931578, -0.050723687, -0.06099457, 0.09317982, 0.113158196, 0.0638935, 0.01274372, -0.010340823, -0.06446168, -0.13707693, -0.102697685, -0.20566486, 0.014284086, -0.045904405, 0.06286386, -0.067739055, 0.039480787, -0.009340232, -0.17793411, 0.0835374, 0.005163337, 0.06263285, -0.046608843, -0.034158323, -0.08951248, -0.40613914, -0.14256124, -0.027393559, 0.016274935, -0.1105342, -0.2566342, -0.014256485, 0.11119565, -0.079054125, 0.116400756, 0.094634965, -0.095901005, -0.2698956, -0.05380262, -0.17683351, 0.18618533, 0.111789554, -0.008099479, -0.08969956, -0.24032111, -0.09833582, 0.033423714, -0.025717042, -0.008890761, 0.00832171, 0.026647286, 0.0388897, -0.021818379, 0.003524459, -0.061264124, -0.029729877, -0.07432852, 0.1322572, 0.15516067, 0.16567333, -0.086597554, 0.030003173, 0.010167188, -0.16191688, 0.21185844, -0.05887935, 0.019229924, 0.0032450072, -0.136675, -0.040455062, -0.013999872, -0.06884093, 0.07736858, -0.1349936, -0.0014156823, 0.0411064, 0.00769762, -0.07790638, -0.0355832, 0.04083786, -0.028374763, -0.08473018, 0.0289659, 0.12714982, -0.006809891, -0.14129211, 0.029029563, 0.109587066, 0.12172476, 0.12338626, -0.005677436, -0.14659986, -0.029043391, 0.060934078, 0.100458436, 0.15835935, -0.06918232, 0.22018157, 0.032385025, -0.09868549, -0.015839115, -0.038858015, 0.026619872, 0.042227697, 0.07078861, 0.01276124, -0.06739326, 0.09512903, 0.034759775, 0.12718005, -0.008195502, -0.0748086, 0.022834541, -0.059770048, 0.026516417, -0.03182526, -0.042008895, 0.18378018, -0.03132039, 0.018959893, 0.061794505, 0.04035844, 6.6298194e-06, 0.0068519046, -0.030788276, 0.05654471, 0.02136866, -0.017373381, -0.069644, -0.034515847, 0.013233657, 0.03961476, -0.029477872, 0.048772633, -0.03198796, 0.09346094, 0.033968966, -0.090740584, -0.16559766, 0.10615034, 0.23899215, 0.26870793, -0.060284816, -0.06370518, 0.039456695, 0.015149743, 0.07360084, 0.08817817, 0.20170867, 0.15169516, 0.07101588, -0.01025398, -0.06104958, 0.04671991, -0.039818443, -0.032739688, -0.010855887, 0.14317113, -0.15336205, -0.10758286, -0.12985519, 0.056116994, -0.026726015, 0.037224077, 0.20094615, 0.26932347, -0.064382635, -0.0070196944, 0.0758802, 0.100446634, 0.051791407, -0.021217683, -0.08304128, -0.01768109, 0.0017173281, -0.038355358, -0.004514021, -0.042986706, 0.20115629, 0.23940483, -0.13253526, 0.074765146, 0.04110105, -0.009665245, -0.013890531, 0.10365106, -0.063518584, 0.10529545, 0.2143091, -0.038720913, 0.118296, -0.124916226, -0.044805497, -0.012558358, -0.20858064, -0.069146976, -0.106352486, -0.13065241, -0.05589994, -0.103860885, -0.011979074, -0.10627113, -0.0857602, -0.12653649, -0.026332565, -0.12624922, 0.008861096, 0.0015612843, 0.029443132, 0.02181632, 0.18406397, 0.035574824, -0.16982096, -0.111293145, -0.042799372, 0.005257458, -0.038348302, -0.07813375, 0.03161842, -0.042973522, 0.032970794, -0.07784169, 0.08879421, 0.017914964, 0.04717541, -0.11297996, -0.13482852, -0.01043518, 0.07664606, -0.016185105, 0.011334811, -0.038227282, 0.026711712, -0.06970465, 0.092809916, 0.050301783, 0.092271775, 0.08106071, -0.050495394, -0.022440376, 0.10260271, 0.014071938, -0.061144996, -0.07100449, -0.03905237, 0.067609824, -0.0031158375, 0.053908005, -0.022647955, 0.066912495, -0.0130549595, 0.016007204, 0.037402257, 0.02758691, 0.033251096, 0.015163721, -0.017435353, -0.016733235, -0.32892102, -0.2685028, -0.08969477, -0.16025819, 0.013533735, -0.047654986, 0.08291194, -0.10779616, -0.056917083, 0.020546861, -0.13160607, -0.09964557, 0.054356016, 0.079856716, 0.06596525, -0.046513647, 0.06785794, -0.011772576, 0.028840953, -0.08376293, 0.10904949, -0.021437166, 0.11319271, 0.16925035, 0.09965492, -0.0137626445, -0.080153294, -0.01651354, -0.0815246, -0.20200647, -0.048091494, -0.11064742, 0.20737939, 0.38258857, 0.081281625, 0.29092726, -0.011699348, 0.059378363, 0.087521635, 0.11909045, -0.1943434, -0.33596766, 0.094581, 0.10672541, 0.092756115, -0.07405633, 0.029036865, -0.11229356, 0.058492754, -0.05272337, -0.07783001, 0.039946433, 0.19214025, -0.12361675, 0.20023932, 0.06100207, -0.18319981, -0.00062475103, -0.26580307, -0.034490865, -0.029425636, -0.13216703, 0.06654326, -0.09382574, -0.100786224, 0.034270648, 0.028304629, -0.10672575, 0.0069735115, 0.009703849, -0.09195742, -0.04294756, -0.06952765, -0.038211547, 0.105703264, -0.061038695, 0.051224284, 0.06455454, 0.041456074, 0.045330286, -0.04113956, 0.0416534, -0.17895055, -0.03201169, -0.023658697, -0.04922374, 0.058895823, 0.18426082, -0.047287263, -0.036896393, -0.01044042, -0.02318977, 0.13720514, 0.0036125858, 0.17777954, -0.11528543, 0.15403023, -0.042092986, -0.10655418, -0.077393055, 0.06416762, -0.13601854, -0.058441605, -0.047661778, -0.039469197, -0.0054237745, 0.099796236, 0.017669234, 0.08286792, -0.07781718, 0.044625215, -0.03817049, -0.10641142, 0.015121789, -0.15337126, -0.035556175, 0.10704724, 0.11721081, 0.031550676, 0.0020144896, -0.012661245, 0.0678154, -0.047107995, 0.022876749, 0.05156273, 0.05755319, -0.009435659, -0.030115826, 0.07818452, 0.027857339, 0.071766324, -0.058281858, -0.07005934, -0.046491824, 0.02983155, 0.0733214, 0.12334298, -0.14757393, -0.20644778, 0.1563193, 0.055855606, -0.08002935, -0.040788326, 0.013653594, -0.05587145, -0.0640382, -0.020291777, -0.14199845, -0.047200385, -0.021228557, -0.060371123, -0.067444496, -0.022339778, 0.11300456, -0.032331306, -0.06955624, -0.070100024, 0.021818446, -0.1429757, 0.0443477, -0.075605616, -0.015834682, -0.09205402, -0.38713863, 0.101952896, 0.08098621, -0.18261173, 0.049981255, -0.09694551, -0.0018977904, 0.027624136, 0.022243993, 0.08796987, -0.11538677, 0.08988763, -0.028209781, 0.051036503, 0.03332373, 0.14624965, -0.073148035, 0.15549812, -0.03114704, -0.026453953, 0.017894693, -0.15123118, 0.047527775, -0.29857096, -0.0073204804, 0.048406973, 0.005117126, 0.09297247, -0.012674408, -0.18981129, -0.12707168, -0.13712464, -0.23356134, 0.07051525, 0.17110252, -0.106831186, -0.027266018, 0.3729257, -0.00089507696, 0.063402936, 0.088297985, -0.06440572, 0.024939662, -0.044731773, 0.030882213, -0.019038279, 0.10469345, -0.30275387, -0.14885375, 0.02192525, -0.19501223, -0.009899825, -0.12811439, 0.022893732, -0.07417342, -0.052251495, 0.03139006, 3.7457095e-05, -0.055322625, -0.036114413, -0.04785055, -0.1120666, 0.015464309, -0.033268556, -0.038931783, 0.018605199, 0.047464095, 0.02066229, -0.086139426, 0.07051137, 0.15652831, -0.22051932, -0.19308393, 0.019078227, 0.037794657, -0.015035263, 0.15850464, -0.22890666, -0.0433816, -0.07594662, -0.19109017, 0.121927224, -0.060520563, 0.013898262, 0.032468528, 0.0972147, 0.09238967, 0.029930832, 0.03226934, -0.09813406, 0.008562085, 0.011033659, 0.035387505, 0.14997657, -0.036846694, 0.33873427, 0.10193073, -0.0053510624, 0.029576546, -0.13248947, 0.077375405, 0.061481126, 0.23648085, -0.10670126, 0.049004264, 0.009165257, 0.09539096, -0.07367964, -0.05691999, 0.05383206, 0.07155248, -0.102803126, -0.005183305, 0.12682599, 0.06539865, -0.10178969, -0.02645412, 0.22165672, 0.053342987, 0.19191393, 0.040742215, -0.08671549, -0.22399129, -0.027177837, 0.010127768, -0.09453967, -0.19056275, -0.022113279, 0.003954207, -0.043857988, 0.051055286, -0.08722549, 0.100214854, -0.061854124, -0.167666, 0.11020059, 0.15064375, 0.028673071, -0.044658635, 0.047714543, 0.07556749, -0.008688752, 0.001193564, -0.0037562407, -0.19229798, -0.14747912, -0.04563677, 0.00539465, 0.009749653, 0.12632506, 0.21389727, 0.012741102, 0.07223978, 0.030519271, -0.16071115, -0.08286658, -0.04206317, -0.13849516, 0.10439026, 0.12738976, 0.14008814, 0.04060415, 0.014007971, -0.048841465, 0.096771024, -0.011780426, 0.08495113, 0.045123618, -0.0003852782, 0.026922025, -0.026394097, -0.1272504, 0.030082965, 0.11949559, -0.07525467, -0.22813295, -0.08685179, 0.20625183, 0.1903905, 0.16377464, 0.05330146, -0.10241167, 0.08104909, -0.044303592, -0.12549022, 0.011864063, 0.28668478, -0.088548444, -0.09195299, 0.0057359245, -0.033847343, 0.00965207, -0.09898059, 0.0458763, 0.017603822, -0.0061406344, -0.064920776, -0.05229197, 0.15869689, 0.08030683, 0.051296882, -0.082336396, -0.0047015296, 0.015136425, 0.06346868, 0.065270506, -0.014137891, 0.23542441, 0.17136164, -0.06972496, 0.05177565, 0.044322878, -0.09050298, -0.02578121, 0.06813273, -0.017537413, -0.018742172, 0.0045438544, -0.015840825, 0.06727905, 0.082821645, -0.060969483, -0.014101778, -0.05013659, -0.0014646748, -0.08559139, -0.12527409, 0.034299217, -0.068406165, 0.15455006, 0.32707453, 0.07911846, 0.008305221, -0.022039248, 0.03863149, -0.0031149986, 0.07679237, 0.023549715, 0.17469282, -0.0053463625, 0.14429376, 0.022131743, -0.003995846, 0.007146944, -0.07610772, -0.093212344, 0.012226542, -0.0028323184, 0.055929, -0.2171991, -0.10943657, -0.23386936, -0.10589888, -0.09659649, -0.17777991, -0.12386496, 0.09243191, -0.045345504, 0.0670165, 0.006351909, 0.13641435, 0.021792447, 0.024871618, 0.06397603, -0.05300737, -0.07553648, -0.019762259, 0.18315035, 0.014091246, 0.14326556, -0.021579096, -0.11230556, -0.19733624, -0.060162272, -0.014339288, -0.06293969, 0.00646217, 0.03806944, 0.062447146, 0.060237437, 0.07663746, -0.037518926, -0.04991473, 0.04292601, 0.04234327, 0.031119091, 0.035189774, 0.16592982, 0.043866143, 0.26046786, 0.2009158, 0.014719098, 0.018677969, -0.060297027, 0.17148669, -0.039882693, -0.05324436, -0.014089325, 0.06661829, -0.012434329, 0.016390294, 0.15741536, 0.012783184, 0.09364883, 0.16934139, 0.02896214, 0.074241616, -0.09261589, -0.0028357392, -0.08055755, -0.024764914, 0.04856555, -0.042375736, 0.033988737, -0.040388335, -0.050951254, 0.044635486, 0.038763743, -0.03624953, 0.011187973, 0.058209706, -0.034185678, -0.066942945, -0.03569579, -0.02739642, 0.068911366, 0.045585748, 0.09843089, 0.16270788, -0.06474538, 0.037799433, 0.052229267, -0.062575854, 0.21385407, 0.19873402, 0.24417536, 0.22120905, 0.09206598, -0.028763248, 0.038126785, -0.059454672, 0.081188664, 0.044510152, 0.01221667, -0.004241628, 0.08691738, -0.03963054, 0.09511387, -0.11740263, -0.07573919, -0.13608529, -0.01892744, -0.10363994, -0.0007000568, -0.034385778, -0.035213448, -0.05454826, 0.03990943, 0.011484323, 0.33733332, 0.010460814, -0.0005128495, -0.03503322, 0.067450516, -0.042110626, -0.040945187, -0.0372803, 0.06348905, -0.077240884, -0.23246272, -0.17774957, 0.10841724, 0.12855814, -0.050763465, 0.028484028, -0.14588648, -0.16682665, -0.034098, -0.10644496, -0.09166559, 0.08623368, -0.02717659, 0.026334276, 0.070451215, 0.034657575, -0.0035748074, -0.12517224, 0.0047646672, -0.15299906, -0.2092883, -0.11884546, 0.0021564767, 0.052890856, 0.06171653, -0.09603, -0.008362493, -0.04366004, 0.0031936252, 0.040702686, 0.011443277, 0.009556399, 0.23045823, 0.013701926, 0.06719453, -0.060498554, 0.09613468, -0.17753543, -0.103781044, -0.4017925, 0.12859714, 0.16094626, -0.13212097, -0.18490261, 0.1859556, 0.20076014, -0.2341918, -0.18112028, -0.01881434, 0.08046718, 0.09292219, 0.044183973, 0.028078083, 0.047979664, -0.15301445, 0.058102164, 0.09271615, 0.15222682, 0.034736585, -0.05522436, -0.022842987, 0.11566247, -0.10774227, -0.12051538, 0.088843405, -0.048509166, -0.14820215, 0.16344178, 0.058262944, -0.046304077, -0.05197019, -0.06716462, -0.06803173, -0.06472132, 0.027221097, -0.076982096, -0.052931566, -0.10848418, -0.024010148, -0.10007169, 0.07778595, -0.026296794, -0.021762485, -0.05069595, 0.019514652, -0.013139747, -0.03010525, -0.06595713, 0.059539806, -0.06551783, -0.009323397, -0.018496469, 0.06556634, -0.116514705, 0.19241838, -0.37571457, -0.0018541155, -0.0035644185, 0.04010112, -0.02438825, -0.041655846, -0.04296688, 0.10385455, 0.0035508783, 0.027628588, 0.023161653, -0.005065926, 0.039574824, 0.07262851, -0.11644538, -0.007564765, -0.049565103, -0.03718487, -0.03411487, 0.060538292, 0.014804695, -0.023916308, 0.0036982747, 0.048900414, 0.038736176, 0.026440805, 0.046413884, -0.15818426, 0.2110959, -0.090740316, -0.06579035, -0.18223096, 0.06569384, 0.053380225, -0.12594701, 0.019227955, -0.0525931, -0.008766079, -0.04775026, -0.041500647, 0.08453305, 0.06923978, 0.006160234, -0.037515223, -0.110271946, 0.04597065, 0.0049728244, -0.22730081, -0.27161157, -0.06582004, -0.03370023, -0.11978303, -0.06717749, -0.029406054, 0.033901814, -0.10234281, -0.0013661447, -0.000834817, -0.015011161, 0.092628226, 0.06613023, -0.06164053, 0.056824133, 0.23414846, 0.16475509, -0.066561624, 0.019810347, 0.081456855, -0.06369415, 0.04266145, 0.020245349, -0.24447653, 0.107184835, -0.028455975, -0.062134746, 0.011637174, 0.01449819, 0.119973265, 0.12536283, -0.044005167, 0.04557989, 0.1829746, 0.065458626, 0.27390096, 0.16022651, 0.16707522, -0.049411427, 0.14242893, 0.09286222, -0.05822764, 0.0023297898, -0.03901196, -0.009094657, -0.28775778, -0.180325, -0.061806496, -0.23698986, 0.048956912, 0.021526959, -0.07835717, -0.06657149, 0.09732076, 0.11977614, 0.07383267, -0.008092661, 0.113744184, 0.046933047, 0.029506937, 0.020521907, 0.046171024, -0.060926784, -0.025021391, -0.06156812, -0.025485402, -0.08085714, 0.039483286, 0.052958634, -0.14565371, 0.029349176, 0.13544708, 0.10010392, 0.057481308, -0.026898896, 0.066538125, 0.08617444, -0.019893229, -0.13446711, -0.052989755, -0.11042283, 0.0067030606, -0.10088487, -0.019053252, 0.1103442, 0.06381088, 0.025689568, 0.067342594, 0.055211063, -0.040169533, -0.019679205, 0.04729525, -0.030644707, -0.16047311, -0.26002306, -0.39319736, -0.11007407, 0.0978747, -0.030124418, 0.02565907, -0.038159594, -0.16101287, -0.15072343, 0.07024188, -0.0940107, 0.006947017, 0.05231755, -0.032971926, -0.038531665, 0.008456543, -0.10704329, 0.07437851, -0.0744345, -0.11464807, 0.00037765893, 0.09149269, -0.044919174, -0.0018146614, -0.18739505, 0.041703712, -0.028515073, -0.033139188, -0.050472677, 0.14878722, -0.26124504, 0.11288604, 0.34668088, 0.04555761, -0.00031155883, -0.01172511, 0.05673359, 0.07183815, -0.073198155, -0.13574944, -0.2492215, -0.06427408, -0.13171189, -0.0068568587, 0.0282274, -0.124673605, -0.07513562, 0.09576954, -0.06797367, 0.10450516, -0.08869871, 0.024941547, -0.039300907, -0.036160763, 0.19056822, -0.16365613, -0.14696956, 0.0684101, 0.10103984, -0.034993943, -0.16702834, 0.28521016, -0.060619283, -0.114059284, 0.15270676, -0.079725906, -0.027838016, -0.01635258, -0.07963563, -0.025340758, -0.040847257, -0.03930922, 0.0148186255, 0.028057382, -0.05061668, -0.049244072, 0.15204048, 0.04092664, -0.04135529, -0.033392433, -0.09332275, -0.2709711, -0.14149839, -0.15980701, -0.20582622, 0.13216473, 0.12245707, -0.064948544, 0.039323106, -0.089978516, -0.0690357, -0.090162694, 0.0033937995, 0.08006024, 0.00835604, -0.06251671, -0.09715837, 0.06480262, 0.053853665, 0.042423736, -0.08698544, 0.032632865, -0.0011762753, 0.08147418, 0.004969123, 0.07711574, 0.10094566, -0.008745845, 0.050721996, -0.06924391, 0.005843306, -0.07201703, -0.08876374, -0.15823111, 0.010751793, -0.07227376, -0.04714991, -0.11590483, 0.033003137, 0.022069655, -0.057930008, 0.022391375, -0.046086635, -0.059557457, 0.009330323, 0.032429986, 0.019829892, -0.0048215147, -0.10787002, -0.10023543, 0.0693723, -0.00903705, 0.062348872, -0.090198725, -0.022593748, -0.16737515, 0.011279745, 0.0014932189, 0.14146091, -0.03865702, -0.10361036, -0.08714052, -0.15144636, -0.089087896, -0.067319185, 0.0024977147, 0.00848851, 0.0673707, -0.032153204, -0.050812554, -0.06497398, 0.03657529, 0.058457624, 0.029005276, 0.1001456, 0.16172212, 0.31642455, 0.06448751, 0.23272324, -0.10962045, -0.23316632, -0.087380804, -0.13652024, -0.15967688, -0.14067307, 0.0696389, -0.008693041, -0.03988347, 0.030114388, -0.1146746, 0.030274985, 0.112037815, 0.16288015, -0.00986512, 0.0036345704, -0.0961624, -0.037099924, 0.044096734, 0.21462384, 0.019350722, 0.030413216, -0.13256545, 0.028109014, 0.21167302, 0.19585219, 0.38898057, 0.051624283, -0.0495764, -0.031976487, 0.00017262886, 0.012123163, -0.34606427, -0.18700334, -0.17387699, -0.15395185, 0.027953545, -0.068681784, -0.13819878, -0.012414021, 0.1635033, -0.17093845, -0.26024166, -0.17891687, 0.009572633, 0.030635612, -0.008741059, -0.033297423, -0.06412399, -0.09157085, 0.058185346, 0.12794778, 0.0666441, 0.013491993, 0.0033179903, 0.049728736, 0.040776048, -0.06645565, 0.07430225, 0.08884761, -0.046134807, -0.0026605972, 0.062150437, -0.044506356, 0.07637836, -0.0238964, -0.025640361, 0.04175953, 0.079000704, 0.011456003, -0.021831179, -0.018621417, 0.17000535, -0.1422706, 0.17270711, -0.086682476, -0.032916207, -0.03604366, 0.032437257, 0.1295, 0.164789, 0.05980615, 0.030256832, 0.04852766, 0.121278785, 0.008030059, 0.018914366, -0.11219133, 0.04064256, 0.06562628, 0.035155974, 0.16122231, 0.0098184, 0.072530836, -0.02689557, -0.09084335, 0.084823534, -0.09471748, -0.19159184, -0.02857706, -0.12500592, 0.0692533, 0.07810876, 0.049990565, 0.11040805, 0.16971247, -0.039994735, -0.15289512, 0.003881287, -0.026778338, -0.017177897, -0.09453278, 0.0040803035, 0.1066401, -0.011498709, -0.054928686, 0.16862187, -0.17463946, -0.104068205, 0.20222679, -0.24666925, 0.07185158, -0.12556413, -0.00010134501, 0.074511744, 0.020124588, -0.01576156, 0.0266507, -0.07559059, 0.18470968, 0.16228074, 0.22963713, -0.14048007, 0.24527909, -0.06677772, -0.045706823, 0.18327962, 0.1478342, 0.032098897, -0.015939252, -0.033518847, -0.063719556, 0.091607794, 0.015222787, -0.045452297, 0.044105716, -0.0069636735, -0.059454046, 0.423812, 0.055313203, 0.094164774, -0.09505661, -0.18779838, 0.039139688, -0.028238349, -0.03388447, -0.01070478, -0.044542428, 0.07637647, 0.16731684, -0.05828182, -0.11756589, -0.042619772, -0.08619868, 0.16396056, -0.053699195, 0.014451763, -0.098829985, 0.01067085, -0.049735986, -0.028957777, -0.035134863, 0.02475911, -0.033015657, 0.08483724, -0.049212802, -0.016331462, 0.09060968, 0.006698508, 0.19167191, 0.007673842, -0.18856409, -0.17874184, -0.15854053, -0.019445669, 0.040080562, 0.013237794, 0.07439906, 0.12257587, -0.11292637, 0.14708313, -0.12609054, -0.055450466, 0.018777799, -0.06328857, 0.1356724, 0.12247948, 0.05392066, 0.035547074, 0.1031162, -0.008184216, -0.07830867, -0.025028583, -0.040819865, 0.056809947, -0.043674223, -0.05855677, -0.05157138, -0.15928903, 0.091611296, -0.22611617, 0.028981872, 0.06806839, -0.069397464, -0.044936452, -0.01796466, 0.08073605, 0.053335004, -0.054020748, 0.066406496, -0.026138661, -0.038052924, -0.05826681, -0.020507792, 0.044523187, 0.07325352, -0.10120638, -0.035120822, 0.031266525, 0.00042671408, 0.03420343, -0.0046842988, -0.001043707, 0.04629652, -0.12211914, 0.068023235, 0.10836402, -0.11972173, -0.19853815, -0.12302713, -0.05566915, 0.055338245, 0.024858706, -0.16884951, 0.086772285, 0.014455044, 0.010352701, -0.028964827, 0.0036552937, 0.006976882, -0.06960506, -0.1498627, 0.302402, 0.030644929, -0.042855784, 0.1743836, 0.0069205705, 0.0994292, -0.18610895, -0.18224055, 0.0034012375, -0.06496366, 0.021658951, -0.061533064, -0.020736046, 0.01138572, 0.017158642, 0.011584919, 0.08347391, 0.01663429, 0.010104817, -0.06570837, -0.27250826, 0.2784421, 0.0027552173, -0.10732076, -0.10215783, -0.047383357, -0.0024345394, 0.023736158, -0.10691013, -0.11252159, -0.16546892, -0.2219105, -0.022389323, 0.009294219, 0.09153911, 0.053039543, 0.05360571, -0.09032507, -0.13694678, -0.13498278, 0.008732841, 0.21121134, 0.06823451, 0.15037239, -0.18301038, -0.033746682, -0.058295555, -0.10368761, -0.15874551, 0.064470954, -0.04378587, 0.01878994, 0.13413946, 0.22472785, -0.00999467, 0.12656814, 0.10959817, 0.2516297, 0.0036969194, 0.06555345, 0.002112011, 0.0271383, -0.03926556, 0.022284823, -0.13622995, -0.06539047, 0.1660146, 0.051377222, 0.044707626, 0.06078934, -0.05773463, -0.02086121, 0.088046774, -0.030211998, -0.08607888, -0.0057252147, -0.07471992, 0.12671001, 0.11898842, 0.1165724, 0.020176247, -0.04281825, 0.14666298, -0.013830644, -0.15412188, -0.21147032, 0.09851312, 0.10536002, 0.006059998, -0.070129365, -0.025100416, -0.20063305, 0.04290343, 0.020661835, -0.059036374, 0.030386327, 0.070998564, -0.037244804, -0.00010016098, -0.047074676, -0.18365254, 0.08365662, 0.019732634, 0.17049262, 0.018961934, -0.077186376, 0.020145616, -0.016585248, -0.07434447, -0.13470668, -0.038503826, 0.05096196, 0.08356091, 0.044299826, -0.027653838, -0.038104348, -0.031575087, 0.11399867, 0.023491498, 0.039319288, -0.06646045, -0.15300979, 0.23717678, 0.23176405, -0.17111209, -0.111874476, 0.07885818, -0.0034391778, -0.057391323, 0.034302253, -0.06682308, -0.15451093, -0.014953235, -0.27839866, -0.12791753, -0.115626134, -0.0030268508, 0.04203761, -0.09289168, 0.077683434, -0.055005476, -0.0688191, 0.091215886, -0.0060926643, 0.14124504, 0.0517034, 0.053807136, 0.0075812205, -0.014444481, 0.055206645, 0.014161764, -0.01459049, -0.086233154, 0.010360281, -0.047154356, -0.2245326, 0.03939834, 0.049370743, -0.006754968, -0.20081457, 0.10095834, -0.023133723, -0.014885585, -0.1326976, -0.10296729, -0.004805413, -0.34806243, -0.33448505, 0.014641916, -0.008637286, -0.094798975, -0.068152346, -0.038087152, 0.023733286, 0.013875805, -0.04586173, -0.01091481, 0.09043526, -0.09491834, 0.024252294, 0.1434259, 0.043731976, 0.061284482, -0.09674311, 0.09314569, 0.025565919, -0.08067867, 0.07205748, 0.041659955, -0.023947285, -0.035404284, -0.12877156, 0.14624383, 0.10926633, 0.0398829, 0.02947099, -0.07999283, 0.041419756, -0.062363714, 0.023929868, 0.0072474945, 0.08535742, -0.072541475, -0.10751531, -0.042706616, 0.08742216, -0.1095801, -0.039097104, -0.016222673, -0.022584744, 0.001616938, 0.12174174, 0.1666337, 0.1552396, -0.14483756, -0.09449903, 0.1332189, 0.044035424, 0.0060255844, 0.005118934, -0.058019437, -0.050676227, -0.004608149, -0.1369243, 0.05104956, -0.011598131, -0.05654922, 0.004835143, 0.0045308196, -0.0051703323, 0.038706414, -0.00014546931, -0.014755404, -0.030966116, 0.00892102, 0.001072581, 0.05572429, -0.14903377, -0.044566657, -0.032150578, -0.043235596, -0.0040381146, -0.016818535, 0.030879872, -0.11826087, -0.0712561, -0.10679563, -0.1497457, 0.068774305, 0.0888059, 0.026760101, -0.023606347, 0.087547235, 0.061895926, -0.0075215544, 0.07803377, 0.14482667, -0.022066686, 0.045033053, 0.065248236, 0.069918096, 0.02823454, -0.10744808, -0.065183744, 0.10441947, 0.116095915, 0.020576559, -0.04424087, 0.052563045, -0.08719604, -0.00074566767, -0.034380548, -0.012628935, 0.069785886, -0.053002536, -0.067581356, 0.15794045, 0.03672997, 0.123024166, -0.13764969, -0.08956118, -0.049934134, 0.050601844, -0.20839718, -0.3294182, -0.2048022, -0.23410866, -0.17025028, 0.09126916, 0.015761847, -0.0035726724, 0.043877404, 0.15564449, -0.066656485, 0.016514523, -0.2324212, 0.18556494, 0.028133253, 0.18459994, 0.078519896, 0.09819075, 0.009794825, -0.05766752, 0.12542903, -0.10314228, 0.031874105, 0.045219846, -0.07876811, 0.015202314, -0.022735404, 0.0009244777, -0.156808, -0.034862738, -0.06883283, -0.12357599, -0.007582618, 0.0091376975, -0.048207454, -0.031069286, 0.040435754, 0.051260628, 0.081969984, -0.04077906, -0.096786946, -0.023792831, -0.061407954, 0.04087561, 0.030397682, -0.108975545, -0.060964987, -0.015910026, -0.12373356, -0.22874333, -0.019325165, 0.019242657, -0.17217542, 0.06193554, -0.0643061, -0.051026713, 0.089598946, -0.096230544, -0.17170246, -0.1821153, -0.22585995, -0.014972884, -0.048186462, 0.0049346755, -0.019614695, 0.04015358, 0.05715999, -0.004491971, -0.012316979, -0.019501839, 0.009036635, 0.052982096, -0.059075, 0.021922782, 0.07023558, -0.31725767, 0.102004625, 0.036386497, -0.034991514, 0.072212026, -0.060619213, 0.16014735, 0.054439183, -0.20994124, -0.062459983, -0.030467097, -0.114985734, -0.065712616, -0.09385373, -0.007865058, 0.10358959, -0.03222698, 0.00698632, 0.13882238, 0.053013895, 0.028278735, 0.028377976, 0.28877774, 0.10886186, 0.33103585, 0.24127275, 0.14047676, 0.1571151, 0.032915212, 0.02030904, -0.013819867, 0.014420427, -0.10026463, 0.111742854, 0.058375463, 0.17873923, -0.14207481, -0.027816676, -0.011217355, 0.058106046, 0.11958873, 0.05570074, 0.048733436, -0.088540785, 0.07810313, -0.0036854125, -0.030858431, 0.0013612319, -0.047322396, 0.17937584, -0.14574455, -0.032818504, -0.03895252, -0.08528129, -0.0384142, 0.2728783, -0.0045764036, 0.2661675, 0.05028219, 0.026319781, -0.17259055, 0.03009898, -0.18559891, 0.06290006, 0.2555807, 0.17681788, 0.040273815, -0.024781035, 0.1534434, 0.088388994, -0.05411905, -0.021820908, 0.080064856, 0.092066176, 0.09424075, 0.11654948, 0.021058138, -0.048231464, -0.06562545, -0.10852853, 0.1656975, 0.05479223, -0.099057406, -0.12369181, -0.12547252, -0.089799896, 0.04185525, -0.00977488, 0.0543601, -0.049813658, 0.019793024, 0.15760261, -0.0151245445, 0.0058098077, -0.015230042, -0.0059618973, 0.027398817, 0.0364274, -0.107585646, -0.023056308, 0.07654725, 0.020086646, -0.0367609, 0.030761704, -0.002229163, -0.035100836, 0.011303518, -0.041795794, -0.0052008578, 0.032067657, -0.121064074, -0.027794952, -0.0069571855, 0.21080868, -0.056507815, 0.06694085, 0.0795174, -0.011890135, -0.0110254595, -0.054628816, -0.051169086, 0.04748921, -0.03399638, -0.01311014, -0.053041674, 0.05330593, 0.07855531, 0.048113946, -0.11818219, 0.056944013, -0.025079235, -0.013821536, -0.0075026276, -0.026002472, 0.113145106, -0.027749361, -0.032705788, -0.07109207, -0.062298693, -0.1974062, -0.021800352, -0.20859389, 0.13747543, 0.0021660016, -0.12873971, -0.22115345, 0.029867843, 0.06075087, 0.041756075, -0.045863565, -0.055305596, -0.11947725, 0.0018467286, 0.008819897, -0.039897203, 0.0406714, -0.032560404, -0.036510237, -0.048931077, 0.027466225, 0.11589433, -0.042086493, 0.037515517, 0.18347436, 0.14280045, -0.1378251, 0.057713117, 0.070644535, -0.028231628, 0.09067638, -0.041777954, -0.091667466, -0.005931537, 0.046671156, -0.2822634, -0.19493611, -0.19567524, -0.0853526, -0.00064251234, 0.08004359, 0.02947012, -0.057122495, -0.016983889, 0.18771167, -0.11122483, 0.1542234, 0.048527252, -0.056691553, 0.009103846, 0.0636563, -0.028632188, 0.027278092, -0.17652799, -0.022864182, -0.22697547, -0.08661118, -0.22995432, -0.09129639, -0.013068539, 0.10128342, 0.072002135, 0.1029108, -0.051465046, 0.008368222, -0.029664868, 0.04586821, -0.044935897, -0.18921359, 0.027558066, 0.018352201, -0.082120195, -0.086152315, -0.137496, 0.016959483, 0.07896845, 0.035493396, 0.12255329, 0.0753817, 0.098111786, 0.03215361, 0.0765208, 0.0014282682, -0.046145335, 0.08300082, -0.043468453, 0.0063730385, 0.010973732, 0.014016399, 0.047920324, 0.17170718, -0.17153984, -0.11392151, -0.06746061, 0.06461131, -0.054057706, 0.031112295, -0.05989922, 0.027806051, -0.022718986, -0.17283086, -0.28594166, -0.006672792, -0.053624395, -0.045614652, -0.04731957, -0.07790167, 0.013737548, -0.09251676, 0.008976259, 0.009700486, 0.02825783, -0.024804017, 0.03377273, 0.01046345, 0.005897778, -0.014427817, -0.34552488, -0.12871061, 0.062799215, 0.046724677, 0.0151975425, 0.029678453, 0.046751823, 0.092300884, -0.11626453, -0.0686861, -0.026296446, -0.056662336, -0.009580443, -0.002023747, -0.01851784, 0.09308978, -0.085060365, 0.12192344, 0.054984357, 0.0622252, 0.10697913, -0.073170796, 0.2591931, 0.0124976495, 0.066449516, 0.06535614, 0.17335588, 0.19063267, 0.12990448, 0.11518084, -0.0378762, 0.067037, -0.09464416, 0.061011046, 0.07233921, 0.11982799, -0.12441979, 0.06588741, -0.09257237, -0.10110738, 0.016359428, -0.07573171, 0.090334505, 0.051815182, -0.06353425, 0.040651318, -0.0582392, -0.1434428, 0.02720472, 0.062243994, -0.13848339, 0.008090718, -0.09361011, -0.006763162, 0.029982198, 0.11192135, 0.13494694, 0.2888438, -0.0021282677, -0.06131758, -0.079569876, 0.06355697, -0.19420741, 0.17744622, 0.07611547, 0.06370394, 0.18046118, -0.016932625, 0.016307693, -0.02015822, -0.008760058, 0.007725277, -0.010654389, 0.023021627, 0.031569116, -0.00798931, -0.103301756, -0.019485367, -0.09422725, -0.08613019, 0.015790844, 0.0727264, -0.100160904, -0.15829547, 0.03509009, -0.100017235, 0.05736463, -0.0025099544, 0.046274092, -0.002326461, -0.12712662, -0.088217296, 0.195718, 0.035985604, -0.014205231, 0.115524456, 0.017205494, 0.088182196, -0.045543365, -0.03190463, 0.1567111, 0.10448492, -0.004014662, 0.056791108, -0.0639466, -0.018701723, 0.15879104, -0.04245656, -0.11579473, 0.063569404, -0.052557603, -0.18764156, -0.07714113, 0.12629853, -0.023868734, -0.06829172, -0.06136636, -0.0038305807, -0.10137186, 0.009720417, 0.044455197, 0.008112841, 0.00016086211, 0.13838221, 0.07470344, -0.04505731, 0.03064618, 0.00891742, -0.0009548305, -0.015327789, 0.010473077, -0.14408083, -0.03383043, 0.051171307, 0.0828529, -0.10967287, -0.0644066, -0.06730734, -0.26868737, -0.038992513, -0.113249145, -0.15387945, -0.07035997, -0.047010023, 0.038866665, 0.023078531, 0.019941708, 0.008671741, -0.063121684, 0.079647616, -0.038616378, -0.02826126, -0.09265373, 0.06540497, 0.08029845, 0.14682184, 0.17266527, 0.22432294, -0.090827234, -0.053294305, -0.021158217, -0.006009885, 0.12671652, -0.005989495, 0.13200302, -0.21125525, 0.03663412, -0.07142697, 0.024864245, -0.026928056, 0.032465674, -0.03601213, 0.0051819445, -0.07668476, -0.18646276, -0.17363386, -0.045658205, 0.019271027, -0.0015858759, -0.061117724, 0.014505141, 0.035006654, 0.22209483, 0.22330332, 0.00377288, 0.035157427, -0.09105387, -0.10143685, 0.035085164, -0.09253294, -0.2588751, -0.013897196, -0.1986398, 0.1059734, -0.051025733, -0.12490954, -0.22346354, -0.10667394, -0.031729273, -0.0009126029, 0.11297605, -0.038796626, 0.04458924, -0.049991284, 0.072636954, 0.04767914, 0.16452043, 0.32690457, -0.13153549, -0.024783442, 0.09632201, 0.046701275, 0.079759575, -0.0052462476, -0.05835029, 0.0071815806, -0.018293843, 0.09050818, 0.005454914, -0.051910665, -0.02237929, -0.071813405, -0.027491063, -0.08548617, -0.02661644, 0.06838348, -0.026449258, -0.0656148, -0.009893086, 0.024605902, -0.1093243, 0.08667587, -0.020312361, -0.014540037, 0.040286355, -0.13336632, 0.101949014, -0.079531185, -0.28112164, -0.077924415, -0.06681455, -0.16081876, -0.014253915, 0.08792513, -0.15362047, 0.0796594, 0.01236386, 0.020114528, -0.034535725, 0.04533162, -0.009645348, -0.00055410335, 0.114777885, 0.13452864, -0.10085111, 0.016697902, 0.2676126, 0.16378988, -0.07924552, -0.06127783, -0.03884559, 0.09195958, 0.04082209, 0.010927596, -0.0035622625, 0.044371165, 0.04182808, 0.095891066, -0.06588068, 0.024991583, -0.04921456, -0.01698907, -0.02638564, 0.030135076, 0.1350087, -0.009455181, 0.020981392, 0.108372964, 0.05956264, 0.0649975, 0.031662535, 0.039787564, 0.004461513, -0.14635132, -0.06900814, -0.077317, -0.09897406, -0.274883, -0.0066100922, -0.06141888, -0.03184467, 0.039191484, -0.04699645, 0.037579082, -0.1194652, -0.38964435, 0.15481983, 0.07414868, 0.0762026, -0.043808635, -0.04202832, 0.0552607, -0.039397072, -0.09342776, -0.0017958456, -0.037174564, 0.095477596, -0.02320908, 0.041635334, -0.12793732, 0.17271623, 0.07191206, -0.24158455, -0.006078833, 0.024465974, 0.00851635, -0.16766512, -0.11808368, -0.09700484, -0.06264135, -0.25348863, -0.07122891, -0.05750336, -0.084194794, -0.009492008, -0.05514092, -0.017910305, -0.0392703, 0.105969466, -0.03470287, -0.0023597975, -0.0106346095, -0.029711097, -0.021030897, 0.051020302, -0.19478622, -0.06786423, -0.1827261, 0.26961723, 0.2007178, 0.030289615, 0.13496976, 0.068817034, 0.028987817, -0.08047298, -0.05703038, 0.17833258, 0.27913734, 0.015757907, -0.10886469, -0.050816532, -0.07918922, -0.043549888, -0.0015577786, -0.0685213, -0.030085843, 0.056121122, -0.06400733, -0.044488855, -0.057276405, -0.006440652, 0.0867217, 0.11389606, -0.103958935, -0.041928846, 0.099933654, 0.16221157, 0.01236275, 0.14698865, 0.05260609, -0.055935252, -0.0062791784, -0.014772462, -0.10414945, -0.020673951, 0.037480187, 0.0345228, -0.0074738394, 0.17707932, 0.033201095, -0.11591161, -0.040286474, 0.046849288, -0.0703741, 0.120387815, 0.13911271, 0.05417825, 0.046138726, 0.054363385, 0.047887918, 0.17684804, 0.047756907, 0.10202043, -0.013629187, 0.09082629, 0.15817015, 0.072794154, 0.08877841, -0.04593721, -0.078139484, -0.10469459, 0.025742847, -0.08500753, -0.05906174, 0.17461812, -0.03498657, 0.04024541, 0.05990142, 0.099037014, 0.0006384991, -0.0025226432, -0.06780061, -0.016532071, -0.17878014, -0.012876951, -0.111962624, -0.119829364, -0.02979349, 0.25766036, 0.12469089, -0.02529043, 0.2142473, 0.03837413, -0.011815382, 0.049376097, 0.025399217, 0.015436759, -0.0027217865, -0.07210535, -0.017313696, 0.10811426, -0.04331467, -0.07089027, -0.057073873, -0.022946797, 0.14863956, 0.053462546, 0.034976542, -0.12574062, -0.07934861, -0.16889815, 0.023034126, -0.06503874, -0.033158623, 0.023075162, 0.060484033, 0.08156092, -0.025278568, 0.11967318, 0.042778496, 0.057425622, 0.11508219, 0.100076504, 0.08048794, -0.14284912, 0.06708798, -0.21028589, 0.12403716, -0.05348607, 0.057148438, -0.036100123, 0.003762528, -0.08542595, -0.041934207, 0.06907137, -0.016010972, -0.28204414, -0.0989291, -0.121244825, 0.13173075, -0.0025148732, -0.00717773, -0.03639969, 0.050836615, 0.073381424, -0.076499574, 0.09401658, 0.0035273456, -0.07607207, -0.031104546, -0.021784293, 0.1372194, -0.023523556, -0.06365136, 0.03324714, -0.0041317367, -0.12803225, -0.18182747, -0.035845272, -0.04931576, 0.04121354, 0.043261692, 0.09039189, 0.09018927, 0.20304509, 0.1463786, -0.0005123496, -0.0535257, 0.02059025, -0.02154882, 0.0036852018, -0.045200206, 0.041995306, -0.033073932, -0.0028346968, 0.007467649, 0.04655548, -0.05173894, 0.020002902, 0.05084616, 0.15211979, 0.047878776, -0.17334254, -0.04706232, 0.00020554302, 0.05593561, 0.06889171, 0.038418233, 0.07601887, 0.08149972, -0.07931927, 0.0905626, -0.121467486, 0.03688708, -0.020156799, -0.06049267, 0.13332996, -0.022255221, 0.14186564, 0.005437267, -0.06561545, 0.04401924, -0.06946834, -0.104082696, 0.16471812, -0.086396724, -0.07295118, 0.14305605, 0.07380328, 0.24512304, -0.075163156, 0.29411533, -0.07221319, 0.16782585, -0.101868406, -0.08389814, -0.03859088, -0.010612424, -0.022636928, -0.031698525, 0.1798049, 0.34889698, 0.014039551, -0.11600449, -0.061018176, -0.07079597, -0.0770526, -0.02735972, 0.01926891, 0.07052955, -0.013548466, 0.022641977, -0.0065060756, 0.043689873, -0.07063219, 0.0810255, -0.0779261, 0.06400388, 0.29966614, 0.2699676, -0.03692764, 0.19588451, -0.082612254, 0.114417404, 0.052703895, -0.1068017, 0.36841017, 0.1100642, 0.0063378313, 0.02540377, 0.08948929, -0.15703379, -0.03365026, 0.0347007, 0.0071148784, 0.02752049, 0.090716474, -0.042729646, -0.08147125, 0.03138364, -0.11667766, 0.023524705, 0.3081965, 0.25186267, 0.024077196, 0.01782681, -0.076658204, -0.25142652, 0.09992986, -0.016713876, 0.0061840015, -0.007862982, -0.05191859, -0.093468584, 0.08817014, 0.09544943, -0.016082248, -0.10563913, -0.07437856, -0.005651409, -0.011350977, 0.003180115, -0.014012252, 0.07889613, 0.015817778, -0.08623653, 0.033057693, -0.080809884, -0.034070857, -0.045766447, 0.017232478, 0.046877936, 0.13127334, -0.14398582, 0.024587112, -0.06987212, 0.008527822, -0.010605682, 0.04436021, -0.058199834, -0.008789389, -0.026955022, -0.008877658, -0.06666515, -0.022151258, -0.04089298, -0.025474077, 0.03539882, 0.062384065, 0.0046733874, -0.03611813, 0.01671537, -0.01789652, -0.036654342, -0.05643282, -0.08414646, -0.039713375, 0.06907263, -0.17952855, -0.1771495, 0.066965036, -0.09762143, -0.08618952, -0.038502187, 0.12273104, -0.050478596, -0.009185285, -0.09537581, -0.041686207, 0.022481855, 0.024054894, 0.0522436, 0.119960554, -0.0151939085, -0.016350107, 0.15180945, -0.0030730218, -0.048904788, 0.125488, 0.080365464, 0.03578387, 0.093225345, 0.08674413, 0.0028640402, 0.1263466, -0.0060955966, 0.045861147, -0.2551685, -0.06698581, -0.12714377, -0.030971002, 0.08353939, 0.01211977, 0.000482191, -0.0026831334, -0.071473524, -0.071289666, 0.047407985, 0.0019589758, -0.11614374, -0.03945891, 0.056953423, 0.048899766, 0.041904956, 0.06896828, 0.037794326, -0.1772799, -0.0037092024, -0.033830054, 0.026983574, -0.016644156, 0.084823385, -0.05941171, -0.035734903, -0.038106594, 0.21148461, -0.25589654, -0.12259298, -0.22758223, -0.043031596, -0.0033864256, 0.11262732, 0.034478083, -0.009265178, -0.13937412, -0.15744051, -0.044023845, 0.0022007055, 0.24542929, 0.20954998, -0.039186515, 0.06802675, -0.0692613, -0.0839887, -0.11351521, 0.13407247, 0.07243214, 0.004576391, 0.011818441, -0.02917753, 0.21766143, 0.018476397, 0.010702567, -0.0066776103, 0.066085115, 0.030846985, -0.041386437, -0.03442251, -0.042433947, -0.040548887, -0.01973908, -0.005927055, -0.1769239, -0.00052736234, -0.033431917, 0.15407476, 0.07684843, -0.05089126, 0.0027950653, 0.043837957, 0.18613508, 0.09441387, 0.19992885, -0.09491795, -0.042262923, -0.02467439, 0.037473682, 0.07937275, 0.07460755, 0.013366346, 0.011486115, 0.0453463, 0.021628395, -0.04389059, -0.020287, -0.071283005, 0.039119966, -0.02396213, 0.030458204, 0.094858654, -0.048976403, -0.116656005, -0.033525024, 0.027643116, 0.18839131, 0.019980477, 0.25467518, 0.08913846, 0.053813823, -0.1072646, -0.010093756, -0.025203912, -0.040738303, -0.0064609717, 0.1145151, -0.03160388, -0.18142441, -0.12877259, -0.062067907, -0.038231406, 0.09918089, -0.079557925, -0.16475482, -0.023104576, 0.045062304, -0.042040825, -0.028694743, -0.18668723, 0.027336838, 0.07396466, 0.054939397, 0.16230133, 0.10758651, -0.097476594, 0.03348484, -0.026379505, -0.16186187, -0.30996305, 0.1110289, 0.1334932, 0.003874767, -0.008147449, 0.030644631, 0.007843607, 0.0015059003, -0.00031704214, -0.08066766, -0.016460791, 0.054082107, 0.012212658, 0.13115132, -0.062965825, -0.13650337, 0.06975294, -0.14179827, -0.3468918, 0.02752259, 0.11285102, -0.25421092, -0.22468652, 0.17072055, 0.17654857, 0.10092287, 0.064867884, -0.07440117, -0.044303373, 0.00060442265, -0.06996777, 0.043173082, -0.04783576, 0.069637306, -0.014266687, -0.10074264, -0.025491698, -0.047037907, 0.035086673, 0.023126075, 0.07276883, -0.18335906, -0.14233384, 0.14198902, 0.08963641, -0.12325467, 0.22353096, 0.040061302, -0.01592071, 0.072105706, -0.06045838, -0.028478267, -0.2082411, 0.043399047, -0.13519897, 0.0586575, -0.08413907, 0.023448886, 0.038631048, 0.04246965, 0.022488773, -0.03455002, 0.014901384, 0.12404918, -0.037966955, 0.09519763, -0.029092941, 0.0631331, 0.057872623, -0.02350399, 0.060305454, 0.04329736, -0.16396031, 0.19668521, -0.17422706, -0.029323312, -0.03932155, 0.0075437794, 0.002205999, -0.0073646116, 0.071164474, 0.01409343, 0.073787384, -0.06471465, -0.048064105, -0.030138802, 0.028658628, 0.018614614, -0.077822104, 0.028468575, -0.003923508, -0.08493965, -0.039439734, 0.0755799, 0.061698634, -0.081790715, 0.06541962, 0.101592034, 0.029325916, 0.15910846, -0.09496404, 0.08695906, 0.16348544, 0.10083011, -0.1297228, -0.085027196, 0.051846083, -0.16383892, 0.06905102, -0.058954194, 0.058990944, -0.050178617, 0.115909785, 0.08673988, -0.025523357, -0.11483426, -0.18064283, -0.22034675, -0.19834484, -0.0878247, 0.047040876, -0.14514282, -0.10321261, -0.0081287045, 0.008948049, -0.11765215, 0.051129106, -0.0012161178, -0.05395902, 0.05549989, 0.012214693, -0.05177976, -0.021004306, 0.06136479, -0.009977145, 0.10169806, -0.048327606, 0.008706069, 0.026834331, 0.008882487, -0.0927134, 0.038131062, 0.03790388, 0.084503606, 0.0079765525, -0.30481797, -0.011580162, -0.02711663, -0.041159026, 0.06292502, -0.09844361, 0.027408468, 0.45579532, 0.084400505, 0.24827027, 0.16518377, 0.00738725, 0.10003581, 0.10912177, -0.17023912, -0.06738568, -0.11408215, -0.039324183, 0.09751479, 0.014572639, -0.027697967, 0.059641633, -0.059022073, -0.008914367, 0.0143009145, 0.1225567, 0.23105244, 0.17166083, -0.10584969, -0.05830849, 0.016273957, -0.034183357, 0.04774603, -0.013622121, 0.15689485, 0.032043565, 0.05549055, 0.02532735, 0.07422697, 0.061761554, -0.03406535, -0.07091654, 0.06777691, 0.036134828, 0.022990104, 0.021390611, -0.016763518, 0.13713214, 0.18739222, 0.101949625, 0.056868017, -0.047247842, 0.016211733, 0.005408416, 0.11240861, 0.11916152, 0.17433742, 0.09653813, -0.07570527, 0.04069346, -0.018620394, 0.010300348, 0.06477799, 0.018937659, 0.10940348, 0.0038214992, -0.1326415, -0.10666126, 0.037866812, -0.03198492, -0.22645622, -0.005892334, -0.17769708, 0.15547423, 0.06516317, 0.052292533, 0.029842747, -0.04864764, 0.01413325, 0.043616682, 0.063900426, 0.10751188, 0.059053537, 0.020988926, -0.014889597, -0.020565014, 0.064156644, 0.08214402, 0.0080355285, 0.003484927, -0.067820825, -0.18411389, 0.08620011, 0.1425296, 0.02401351, -0.044150054, -0.036813393, -0.003677008, 0.034389753, -0.18637128, -0.0510748, -0.025170865, 0.019430138, 0.08340905, 0.0120876515, 0.13831772, 0.074555784, 0.19205469, -0.15765598, -0.0726557, -0.09035131, -0.16854496, 0.034186836, -0.083195105, 0.10424577, 0.077621005, -0.1015201, 0.03221742, -0.15502141, -0.10276676, -0.020080399, 0.042799015, 0.1816255, 0.08272876, 0.1048924, -0.2359571, -0.035465065, -0.07249117, -0.07198722, -0.032980442, 0.046479452, -0.027154958, -0.23618354, -0.32081857, 0.121760175, 0.057549894, -0.014784794, -0.21386941, 0.05404881, -0.054713834, -0.0023068136, -0.06405767, -0.024584038, -0.035289343, -0.095068544, -0.08781759, 0.027702583, -0.000633608, 0.01787123, -0.08427173, -0.017476596, 0.053850077, 0.042147983, 0.18772024, -0.060469996, -0.090336315, 0.046411157, -0.06269798, -0.012723828, -0.11750057, -0.09063802, 0.064546086, 0.054403096, -0.10229717, 0.1840986, -0.015438022, 0.029238513, -0.039369747, -0.038370334, -0.115395084, -0.032026973, 0.0041471366, -0.020652793, -0.03490647, -0.049874745, 0.02109034, -0.0012030016, -0.01006488, 0.103756085, -0.015997216, 0.02455325, -0.040397566, -0.0931023, -0.050272133, -0.1068116, -0.116146415, 0.041032895, 0.13663223, -0.0796996, 0.037093893, 0.038794924, 0.009306361, 0.058845054, -0.00440121, 0.01381911, 0.032376096, 0.03673616, 0.09754607, 0.10032446, -0.070555255, -0.06487335, -0.029428829, 0.022150047, -0.01595741, 0.00427477, -0.07031672, -0.01549217, -0.0420533, 0.016290477, -0.09952125, 0.12723555, -0.15840897, -0.2540853, -0.24659368, -0.023243967, 0.015168922, -0.21729042, -0.24542339, -0.044173375, 0.14332613, -0.03933463, -0.01942591, -0.05985285, 0.027128302, 0.04674065, 0.08672835, 0.14642501, 0.13142405, 0.03802838, 0.064120576, -0.10549042, 0.12906025, -0.19155596, -0.30719113, 0.074599266, -0.032921225, -0.112088405, -0.108397946, -0.0058246613, 0.025653, -0.019286953, -0.03578131, -0.10594415, 0.024308166, -0.041506145, 0.032125838, -0.06357357, 0.08505769, 0.1171895, 0.028996177, 0.008619058, 0.04624656, -0.06879332, 0.011224322, -0.2203385, -0.09464923, -0.5108679, -0.2359472, 0.015326577, -0.0051604207, -0.034690574, -0.0037386308, -0.05300536, -0.15063772, -0.08214523, -0.09139505, -0.0041826316, 0.18321516, 0.16534218, 0.12724604

};


#endif
