#ifndef FC2_H
#define FC2_H
// Header file of the 9-th layer of the model - The type of the layer is fc


float fc2_w[256][25] = {
	0.25626057, -0.14236064, -0.35630426, -0.08925922, -0.35121626, -0.08937037, -0.21801002, -0.14616208, -0.07419432, 0.13423681, 0.034981307, -0.14279807, 0.14207616, 0.1889463, -0.07480501, 0.041316103, 0.21891962, 0.105774865, -0.21046583, -0.25222084, -0.06777825, -0.08822147, -0.107610434, -0.06555841, 0.016133312, -0.17665802, -0.23163156, 0.33471406, -0.3600221, 0.2394841, 0.038868926, 0.16597848, 0.4452621, 0.123297356, -0.123140395, -0.06030173, 0.0434847, -0.15395896, -0.073155135, -0.12029372, 0.21365291, -0.0088413125, -0.1242977, 0.1547955, -0.25882494, -0.112689726, 0.08872707, -0.09092163, 0.23601514, -0.0071774633, -0.12879968, -0.0815068, 0.0856152, 0.052162778, -0.23995574, -0.26779255, 0.11131438, -0.2707376, -0.058620952, -0.04677177, 0.21399444, 0.20584889, -0.26232973, 0.04495664, 0.08813896, -0.050472666, 0.06881468, 0.10369251, -0.39872622, 0.25096947, 0.16256411, -0.1707128, 0.32722905, 0.112355016, 0.16196215, -0.061144486, -0.16119316, 0.22344409, -0.2611826, -0.06349091, -0.045815144, 0.13959321, 0.2779807, 0.3991066, -0.17730342, 0.074174, -0.100353554, -0.15524797, 0.07153574, -0.071532026, 0.33240482, 0.040427774, -0.039917834, 0.11488626, -0.09308449, -0.036979627, -0.020765737, -0.36490697, 0.31301525, 0.11219793, -0.030601567, 0.09834264, -0.100352526, 0.0660717, 0.33841106, 0.37323058, 0.1787752, -0.016132817, 0.1328115, 0.199733, -0.0913428, 0.111634195, -0.24484587, 0.12044544, 0.05912003, -0.42738333, 0.019632144, 0.20119022, 0.2347518, 0.17079622, 0.16580349, 0.26872438, -0.03834534, -0.4413189, -0.232737, 0.12834127, -0.04664567, 0.1950023, -0.27794456, 0.24442585, 0.0679532, 0.017529124, -0.10072012, -0.33472472, -0.07579847, -0.11218842, 0.31496182, -0.13775305, 0.0026462534, 0.20986314, -0.17984213, -0.14626914, -0.062612325, -0.22462189, 0.1419968, -0.07594096, 0.06733631, 0.27001238, 0.299276, -0.29626366, 0.044447605, -0.35515797, 0.19988342, -0.38228762, 0.24537434, 0.13411497, 0.14492181, 0.32736418, 0.0894418, 0.11296088, -0.1599407, 0.13651058, -0.11234057, -0.11008298, -0.24617262, 0.13882591, 0.07916992, -0.06762232, 0.27401093, -0.20836046, -0.06492734, 0.11454224, -0.20084447, 0.015833344, -0.06841749, 0.07845354, -0.21179366, 0.11464208, -0.0883087, 0.013395524, -0.1492627, 0.10450202, 0.19419281, -0.107890226, -0.10463812, -0.39880615, 0.20811813, 0.18297777, -0.25753668, -0.29463494, -0.013009766, 0.021706372, -0.08967262, -0.22975852, -0.14278631, 0.07009071, -0.3278102, 0.2854426, -0.004821032, -0.20226656, -0.12751377, 0.27679238, -0.056102566, 0.49114877, -0.095753156, 0.06486719, -0.15746988, -0.16903383, -0.016392147, -0.042169925, 0.27729023, -0.22070964, 0.15163901, 0.08194533, 0.1688116, -0.123731464, 0.050430566, 0.010566181, 0.24763325, 0.104101814, 0.1160824, 0.11032838, 0.116698824, -0.25099003, 0.26682106, -0.13256435, -0.051200744, -0.10534165, -0.17510757, -0.51250416, -0.08153178, -0.034372516, -0.19011745, 0.30726653, -0.2990626, 0.2884401, -0.031668074, 0.027246336, -0.023065088, 0.19897513, 0.14151737, -0.007425322, 0.01537595, -0.006481882, -0.15047263, -0.15633652, 0.014270339, -0.2967591, 0.12719597, 0.0589741, -0.0065208706, -0.07113793, 0.2705662, -0.053721964, 0.4639533, 0.32937038, 0.17447788, 0.16882834, 0.08393718, -0.041109458, 0.31438679, -0.07981831, -0.08545945, 0.010953727, 0.09962007, -0.025860818, -0.07924015, -0.24643289, 0.33930656, 0.14758292, 0.041544434, 0.36561957, -0.2867783, 0.08618263, -0.06583194, 0.07234645, -0.41556793, -0.004644901, -0.27622715, 0.11830306, 0.004670434, 0.020051882, -0.07737763, 0.0543296, -0.005858949, -0.27358517, -0.08234449, 0.14088994, -0.13661708, 0.06930172, -0.017488252, 0.09265254, -0.35065898, 0.011773222, -0.25891882, -0.0040145814, 0.014727229, -0.13329089, 0.0281307, -0.18130869, 0.09860566, 0.1374603, -0.020798035, 0.13940248, -0.020659912, -0.09099338, 0.021679724, 0.1303079, -0.08533554, 0.14250164, 0.033656754, -0.20253505, -0.080519296, 0.11013304, -0.16856025, 0.16606891, 0.12695056, 0.14565322, 0.12284108, -0.046766505, -0.07332137, -0.088212945, 0.13892253, 0.07485032, 0.1390544, -0.0052176057, -0.07138088, 0.16404459, -0.047013856, 0.23265553, 0.10089504, 0.110581554, 0.13198948, 0.11456525, -0.2099892, -0.045944273, 0.12727457, -0.16292357, -0.20860514, 0.091702044, -0.116102055, -0.03505278, -0.09850117, 0.02584481, 0.21417384, 0.24869283, -0.054845244, 0.08747335, 0.03107849, -0.058510605, -0.0033449547, 0.12170887, -0.04942437, 0.106426515, 0.101320975, 0.10600307, -0.050816804, -0.18459281, -0.15198334, 0.006530269, 0.058979727, 0.10103869, -0.05329634, 0.13234177, 0.3944931, -0.202936, -0.16154042, -0.015833544, -0.10425267, 0.2548556, 0.062122766, 0.07537068, 0.16147703, -0.12857814, -0.11679338, -0.04754234, -0.37734088, 0.13079344, 0.06221542, 0.18825862, 0.15340322, 0.034210075, -0.149963, 0.23305558, -0.1339875, -0.23204081, -0.010374582, 0.26227355, -0.23591961, 0.19307654, -0.121268995, 0.13297382, -0.2737707, -0.0771456, -0.1002256, 0.25254118, 0.03138321, -0.099275865, -0.19981596, -0.52160317, 0.22038491, -0.13671726, -0.22923596, 0.1630277, 0.05233243, -0.007476737, -0.064970456, 0.15266396, -0.09253889, 0.26390588, -0.33308038, -0.075900406, 0.35808876, -0.1784795, -0.3831395, -0.101085424, -0.10030229, -0.020505466, -0.08075216, -0.18987557, -0.13136268, -0.22596672, 0.12835519, -0.20377034, -0.24054761, 0.043895286, -0.30771956, -0.09662869, -0.46372387, 0.1406564, 0.06482428, 0.018106896, 0.08485063, -0.12180966, 0.12860654, 0.047084942, 0.11867764, -0.12936808, 0.22598034, -0.043532107, 0.25040805, 0.07895091, -0.18331051, -0.033106793, -0.2150577, 0.04724185, 0.015122678, -0.16047193, 0.3010477, -0.04709839, 0.054136243, 0.020114217, -0.016340427, 0.23940895, 0.29227972, 0.029674264, 0.051533822, 0.020357544, -0.280333, 0.15838452, -0.3603356, 0.044213563, -0.1746272, -0.15217517, -0.2568691, -0.23700732, -0.05442495, 0.08616952, -0.14462523, 0.046979755, 0.23854907, -0.1816437, 0.28521812, -0.19764937, 0.062305246, -0.10236972, 0.022867514, -0.11966497, 0.13274717, -0.064776495, 0.007414408, 0.1460575, -0.16490431, -0.04178483, 0.1710413, -0.20925495, 0.22411631, -0.12775435, -0.09271475, -0.11906763, -0.2904473, -0.08392107, 0.18961833, -0.18323721, 0.24255344, 0.17376563, -0.23574154, 0.18731916, -0.30874592, -0.07288847, -0.05429446, 0.10138939, 0.13471612, 0.2625033, 0.507414, 0.3186833, 0.14647235, 0.20591521, -0.07098504, -0.047284137, 0.16596884, 0.017522525, -0.043951154, 0.04729697, -0.063923806, -0.067927755, -0.28335935, -0.1978897, 0.4911491, 0.053137053, -0.15479496, 0.20998442, 0.0641508, 0.019684695, 0.100627705, -0.14098181, 0.18911366, 0.16309547, 0.06732584, 0.061097346, 0.34003678, 0.09370125, 0.15292592, 0.11847278, 0.048923656, 0.13308853, -0.0660908, -0.17403395, 0.040740088, 0.025062118, 0.07702454, -0.15205777, -0.0043592975, 0.3213197, 0.07208973, -0.028519828, 0.07112075, -0.22100908, -0.08654143, 0.06612036, 0.28080362, 0.02405926, -0.0030006778, -0.024184074, 0.07372196, -0.02289812, -0.17265806, -0.02259768, 0.011917407, 0.19757439, 0.052262638, -0.075947136, 0.038803875, 0.2194815, -0.12094017, 0.045366317, 0.07801001, 0.06434373, 0.03919348, -0.048654288, -0.14277461, -0.06119953, -0.11579903, 0.12421593, 0.089123234, -0.3074953, -0.33079505, -0.21793796, -0.15842009, -0.0026765328, -0.07846095, 0.15218788, 0.0092164595, -0.106925026, 0.4185702, -0.12318419, 0.24160251, -0.0048304107, -0.06014931, -0.36773714, 0.33527577, 0.09291096, -0.25472873, 0.119277395, -0.2585446, 0.10237794, -0.0061835307, 0.16843395, 0.027620358, 0.056189805, 0.13107997, -0.14907695, -0.21467766, -0.23394562, 0.116245314, 0.021140145, -0.082961164, 0.02197888, -0.0697088, 0.2525525, 0.034861002, 0.0954901, 0.038162325, 0.11090367, -0.07658778, -0.030039808, 0.09446439, -0.029989455, 0.039775167, -0.29487002, -0.2089568, 0.0145514095, -0.11542982, 0.0072822445, -0.15312105, 0.028536731, -0.1674586, -0.028830748, -0.41319042, 0.1257866, 0.13293783, -0.02063863, -0.12606402, -0.16779368, 0.09031704, 0.16913532, 0.2872863, -0.23342541, 0.071439676, 0.2991469, 0.17456402, 0.0706062, -0.09350188, -0.20366268, -0.12335337, -0.13401599, 0.2012461, -0.11911707, 0.36039257, -0.01871497, -0.060266275, -0.17400122, -0.18366855, -0.4326397, 0.08030849, 0.31856903, -0.050176453, 0.030076692, 0.041196276, 0.12005247, -0.0034746728, 0.12268533, 0.044438668, -0.010313279, 0.15936486, 0.108326554, -0.056929033, -0.17798124, 0.31873825, -0.29571164, -0.26378766, 0.32800028, -0.09469175, -0.062103048, -0.12093957, 0.07658189, 0.036111765, -0.29814157, 0.17244016, -0.0912634, -0.12499402, -0.17386782, 0.1610792, -0.5050035, 0.3564675, -0.1932943, 0.15375504, -0.06329443, 0.03134461, -0.44217703, 0.09658348, -0.10284889, 0.026197081, -0.013938223, -0.20044807, -0.13166474, -0.17217113, 0.28642702, 0.17135637, 0.09340412, -0.11070019, 0.40623143, 0.28926456, 0.037139583, -0.20048265, 0.11253062, 0.0885174, 0.25503772, 0.28783005, -0.03374038, -0.13581069, 0.0071900114, -0.27831492, -0.04009138, -0.2876958, 0.021363446, -0.1969765, 0.4930064, 0.25062442, -0.0008892979, 0.058517568, -0.14655592, 0.10055225, -0.23137544, 0.28555053, -0.4937633, 0.11724886, -0.12545888, -0.14055069, -0.024734696, -0.040361736, 0.15232769, 0.13346313, -0.042895652, 0.17517723, 0.267679, 0.13407806, -0.3940002, 0.27562433, 0.012602195, 0.21761642, 0.06790744, -0.005064339, 0.31300014, -0.020527573, -0.033485856, 0.26076615, -0.14903471, 0.22623937, 0.2797151, -0.2129615, 0.11562465, 0.03849708, 0.17415601, -0.006350595, 0.04616042, 0.12884931, 0.11655047, -0.07939296, 0.16308121, -0.043236334, 0.03359194, -0.07517136, -0.07186094, -0.3986885, 0.101652466, -0.028971117, 0.029112224, 0.1965346, -0.0979883, 0.082186334, -0.11418526, 0.04712919, -0.18812887, 0.15978602, 0.0016383844, 0.18990509, 0.06009053, -0.06530457, -0.09234452, -0.20115936, 0.009824236, -0.13895904, 0.022496268, -0.09491356, 0.30727816, 0.021734053, -0.058213655, 0.064935155, 0.077370524, 0.06529664, -0.04728989, 0.24279098, -0.15570708, 0.08871391, -0.03548694, -0.03912021, -0.08669795, 0.07749204, 0.31581336, 0.08076909, 0.0120673, -0.28176957, 0.10962409, -0.23510818, 0.10745671, -0.009747599, -0.20737527, -0.023615481, -0.081773765, -0.08129352, 0.1418048, 0.4133755, -0.03172409, 0.14492296, -0.190419, 0.022367975, -0.10780358, -0.15856375, -0.2549037, 0.036314987, 0.0526215, -0.14080015, -0.41876233, -0.3074011, -0.1433063, 0.16744225, 0.10630709, 0.14966293, 0.011659415, 0.17022532, 0.12106085, -0.04983096, 0.0890163, -0.2111558, 0.0025321576, 0.20092419, -0.05292375, -0.2355423, 0.15829116, -0.19206128, -0.12933859, 0.053584743, 0.061954524, 0.116274185, -0.015222871, 0.1817891, -0.040610183, 0.050714727, -0.069850415, 0.11438481, -0.17804238, 0.017482525, -0.11922983, 0.0682132, -0.09510179, -0.06619361, -0.04879088, -0.18607247, 0.018080164, 0.20491107, 0.00067696127, 0.017071323, 0.021640886, -0.08094364, 0.3138251, -0.002526936, -0.32303455, 0.30373222, -0.22365391, -0.10775124, 0.111844406, -0.16589817, 0.3767025, 0.12018138, 0.098318584, -0.19208023, 0.32311642, 0.20336133, -0.039423343, -0.037632126, 0.0642515, -0.22204031, 0.24097903, -0.2967001, 0.029240318, -0.07495344, 0.14338097, 0.00900377, 0.10956021, -0.17623557, 0.19262569, -0.14230423, -0.39677298, 0.272178, 0.43555328, -0.25793338, -0.046600647, -0.042517386, -0.12454793, -0.45855704, -0.012476488, -0.331419, -0.17160748, 0.09727206, 0.17567368, 0.3096848, 0.0069255033, 0.21605712, 0.44277552, -0.06366236, 0.3889956, -0.2732641, 0.088189974, -0.34568357, 0.11022934, 0.15448003, 0.19345711, 0.18367548, -0.046358425, 0.14566179, -0.03007519, -0.013596885, -0.16731827, 0.10070026, -0.2970581, 0.25736952, -0.25480676, 0.17100112, -0.086020075, 0.05663446, 0.059731513, -0.05086221, -0.02113228, 0.052198242, -0.021951344, 0.37580836, -0.32878745, -0.031145843, -0.12940916, -0.04854443, -0.18108676, 0.33905026, 0.068088934, -0.05953031, -0.0049193217, -0.053586666, 0.27489132, -0.2499521, 0.029979747, -0.1519497, -0.031776, 0.007485193, 0.018190548, -0.43766025, -0.050061196, 0.029480845, 0.21083055, 0.2863973, 0.054248873, 0.033945113, -0.028871281, -0.055752292, -0.036307152, -0.20409788, 0.2502924, 0.16198242, 0.451483, 0.18814723, -0.26205686, -0.16064456, -0.13490494, -0.2792316, -0.031306777, 0.2764943, 0.05101186, -0.107487686, -0.09495681, -0.33289063, -0.09915053, -0.17180856, -0.063538566, -0.15563865, 0.028442664, 0.19341777, -0.014833012, -0.026923439, -0.17466256, 0.19745481, -0.07563819, 0.2119272, 0.23614627, 0.1484771, -0.18147796, -0.2772639, -0.008415255, -0.086163945, -0.26316667, 0.083622225, 0.0056841043, 0.21550211, 0.083421074, -0.06619334, -0.1480477, -0.13533612, -0.070114814, -0.3046019, -0.12046153, 0.050274115, 0.24426761, 0.026838694, -0.12214522, -0.067186564, 0.2661934, -0.09854493, 0.15548122, 0.10416649, 0.28727645, -0.03861504, -0.16249506, -0.18366048, 0.0060056387, -0.39768222, 0.13683066, 0.099971816, 0.12728786, -0.169413, -0.26273134, -0.30712986, -0.08828314, -0.20188619, -0.22825703, -0.1924639, -0.27487582, 0.094313085, 0.0004493805, 0.16680726, 0.1780095, -0.045803152, 0.14804913, 0.15580176, 0.0852349, -0.15188166, -0.31500798, -0.2777513, -0.24816205, 0.019405223, -0.05456911, 0.1759486, -0.07491442, 0.2241864, -0.13204604, 0.0533476, -0.004062743, -0.28676417, -0.3139795, -0.14524613, -0.11255385, -0.14670388, -0.2033134, -0.20928933, -0.25563878, 0.31551197, -0.15232301, -0.061626878, 0.05660796, 0.12891947, 0.09130939, -0.3482733, -0.091911666, -0.05885545, -0.23965521, 0.077842, 0.0300343, -0.25285396, -0.07655418, 0.28063494, 0.35090765, 0.3611198, -0.1359044, 0.016806105, -0.06665762, -0.036765367, 0.13474463, -0.32535836, 0.10342519, -0.018857313, -0.17674324, -0.060306046, 0.027399521, -0.02811984, -0.064919144, 0.2854251, 0.09826904, 0.22056572, 0.051543783, -0.14841223, 0.16432945, -0.042785514, 0.2031695, 0.14836697, -0.18123162, -0.16997248, 0.17249295, -0.12040391, -0.21035832, 0.020723775, -0.027235074, -0.0042792913, 0.22889227, -0.27453405, -0.15910831, 0.16585301, -0.075588875, -0.2807217, 0.013120507, 0.23734108, 0.16059199, -0.21516629, -0.15172195, -0.01554188, -0.3778208, 0.17254286, -0.3135292, 0.115822025, -0.51491255, 0.026526688, 0.1439371, -0.027310312, -0.059947994, 0.03356274, 0.07887729, 0.01735957, 0.15520011, -0.20980935, 0.23456867, 0.43100494, -0.1960006, -0.26656333, 0.3090938, 0.13964958, -0.13751176, -0.24673906, 0.046195067, -0.022269621, -0.019346016, 0.14186388, -0.009976821, 0.059998415, 0.16736482, 0.04294273, 0.10113272, 0.06517857, -0.07188689, 0.009929434, -0.11588109, -0.066390924, 0.08717726, -0.058773704, 0.040412746, 0.12584564, -0.18148394, 0.10996278, 0.0051260255, -0.18489529, 0.078081466, -0.0608029, 0.08787344, 0.15174127, -0.123479575, -0.16279191, -0.013473724, -0.12414336, 0.050892975, 0.087368995, -0.17025566, 0.14399545, -0.1448617, 0.11200663, -0.041549735, -0.060824834, -0.043508265, 0.02388269, -0.038711883, 0.1589664, 0.28408918, 0.026674878, -0.11761986, 0.027958289, -0.098602146, 0.12734462, -0.033670817, 0.05205362, 0.084507965, -0.052636266, -0.016163513, 0.082799904, 0.15084444, -0.08718593, 0.24155302, -0.061471995, -0.4624577, 0.28065273, -0.104802266, 0.15912314, 0.12806788, 0.21673815, -0.06757575, 0.15773277, -0.18230224, 0.03710706, -0.061213158, -0.14770582, 0.03414715, 0.038057353, 0.07794381, 0.13151552, -0.40842795, -0.077376835, 0.22824329, 0.32077006, 0.08071989, -0.11349029, 0.11326018, 0.037334993, -0.12391713, 0.12154933, -0.17791545, -0.31717104, -0.071217984, -0.16102299, -0.114655614, -0.2580256, -0.20663129, -0.18962513, 0.1405796, 0.4772862, -0.1526964, -0.062531374, 0.4922635, -0.04564846, -0.29779685, 0.07026231, -0.49810308, 0.01994605, -0.12392093, 0.07891595, 0.13285556, 0.117152736, -0.15707453, 0.037756052, -0.24006015, 0.1649172, 0.020067614, 0.0864072, 0.111277856, 0.1505472, 0.069100335, 0.23976584, -0.20589794, -0.110029824, -0.03230337, 0.043864008, -0.093915984, 0.0069574416, -0.19690037, 0.09924853, -0.054458518, 0.04534848, 0.06276366, -0.027717086, 0.08059886, -0.20265862, -0.10416907, -0.21374017, 0.117396794, 0.07669515, -0.23543516, -0.0014876957, -0.36500368, -0.20477648, -0.08236892, -0.3456463, 0.083278306, 0.12384088, 0.048987266, -0.13217254, -0.0064590774, 0.17303787, 0.14893551, -0.1081908, 0.19698402, 0.21027748, -0.366119, 0.0012459904, 0.11309082, -0.08478522, -0.12908742, -0.038157064, 0.03236321, -0.20151193, -0.28972992, -0.092857696, -0.17644206, -0.2739824, -0.040081695, 0.07214171, -0.19988021, 0.19313693, -0.20885445, 0.26628515, -0.14348295, 0.26517215, -0.058031954, 0.065691724, 0.23246136, 0.25121883, -0.2858173, 0.16652924, -0.37012312, -0.03792062, -0.052389428, -0.32359904, 0.08919726, 0.08075514, 0.1613129, -0.07425379, 0.19166711, 0.31176832, 0.07160887, -0.13823886, -0.011265176, -0.24581084, -0.19899023, -0.018216265, -0.29923546, -0.1276852, 0.15501097, -0.07276485, -0.010485733, -0.22406594, 0.03151169, -0.16413291, -0.19699842, 0.3414754, 0.31776395, -0.21746045, 0.23810613, -0.07508266, -0.19763167, -0.09451498, -0.09175051, 0.22594002, -0.23346277, -0.0900932, -0.021885, 0.14741647, 0.00369503, 0.3207503, -0.24973299, 0.3043892, 0.13274819, -0.26074514, 0.023402462, 0.2924699, 0.1403412, 0.11642266, -0.18267451, -0.23430963, 0.15873025, 0.2999635, 0.050263416, -0.14026521, 0.2984029, 0.17829788, -0.3744024, 0.05555732, 0.07166837, 0.31111658, -0.049801085, 0.037083846, 0.111551955, -0.36160833, 0.19237378, 0.047894347, 0.25070137, 0.066230305, -0.06849561, 0.23031187, 0.2787565, -0.17454042, 0.187207, -0.09974591, 0.019110406, 0.35480812, 0.3850792, 0.061516102, -0.018909976, -0.13372964, 0.24799816, -0.12641144, 0.3076645, -0.17388836, 0.18854102, -0.22405824, 0.09601697, -0.2194433, -0.20000398, -0.05018889, 0.014007295, 0.3262388, -0.16521226, 0.12975551, 0.11327429, 0.21105467, -0.0012340968, 0.20983937, -0.048284687, 0.19526969, -0.07919421, -0.06781211, 0.14725414, -0.23210059, -0.042811763, 0.24402641, 0.039901353, -0.06270907, -0.1132159, -0.13745764, -0.04063509, 0.2557668, 0.081174396, -0.14641711, 0.31286994, 0.07924678, 0.06333545, -0.2935257, -0.0034952585, 0.3178538, 0.08554645, -0.06601558, 0.35974434, 0.122842565, 0.010702494, -0.12338045, -0.08707715, 0.011294592, -0.48332322, -0.18730189, -0.14888577, -0.15629254, -0.23000818, -0.38050497, 0.18541126, -0.0049839807, 0.014789054, 0.19441587, 0.004421951, -0.41874394, 0.31917942, -0.20954973, 0.13038503, 0.32365483, -0.1713542, -0.28567645, -0.07287731, -0.05596261, -0.23140113, 0.075216636, -0.3529832, -0.10575462, -0.051251326, 0.17128603, -0.2018873, -0.14022604, 0.2192834, 0.1375372, -0.15979396, 0.19443718, -0.035162598, -0.17978963, -0.1997822, -0.08039783, -0.064143784, -0.04255189, -0.021671258, -0.21600403, 0.24051926, 0.02936504, -0.031614006, 0.07197811, 0.04658794, 0.19803935, -0.057108253, -0.060882434, -0.098472394, -0.10910882, -0.055721387, -0.18225953, -0.06799867, 0.18565093, 0.17652357, -0.21224539, 0.06521776, -0.18795873, -0.22509389, -0.36407542, -0.052795213, -0.34939796, -0.016588321, 0.0007390758, -0.032088455, 0.34926173, -0.12922904, -0.02308655, -0.11705737, -0.3349033, 0.19746657, -0.14393969, -0.028797666, -0.27622402, -0.03105562, 0.2548432, -0.09201397, -0.0874394, 0.07228551, 0.12153855, -0.214912, -0.3556066, -0.20335826, -0.1000136, 0.045139827, 0.14296077, 0.04405195, 0.29357478, 0.012937302, 0.1512114, -0.411689, 0.03535767, -0.35119703, 0.17685455, 0.118769184, 0.44400245, 0.02727439, -0.32068205, -0.061416283, -0.22754331, 0.0058886036, -0.043982413, 0.17482021, -0.15328021, 0.3322515, 0.036386635, 0.11263085, -0.15032488, -0.09149456, -0.061228745, -0.0029503251, 0.023981536, -0.060050733, 0.1648248, -0.019275606, 0.023303844, -0.060975634, 0.0004270346, 0.20394525, -0.09279567, 0.11536372, 0.22475925, -0.09994418, -0.13963383, 0.016812993, 0.001982775, -0.14496659, 0.20536585, -0.009825911, -0.08701441, -0.26267216, 0.018767968, 0.02403024, -0.012593841, 0.009412799, -0.053595405, -0.14759508, 0.19174296, 0.15943809, -0.105755396, -0.032138277, 0.23327754, -0.12822974, 0.2568469, 0.16365552, -0.057586413, -0.08546641, -0.12502475, 0.0338744, -0.035527952, -0.031109514, 0.17584829, 0.08082453, -0.21707748, -0.23324639, -0.18965365, -0.36741057, -0.059729513, -0.260655, 0.20426205, 0.026153352, -0.061289947, 0.30805326, -0.20027944, 0.3361235, -0.2947785, -0.1353818, -0.23978962, 0.2940724, 0.16288742, -0.05379268, -0.16044764, -0.039815784, 0.083716854, -0.23129988, 0.13357177, 0.14585406, 0.032583732, -0.05579083, -0.020948946, 0.044378567, -0.14698641, 0.0190415, 0.32786962, 0.03448812, 0.06303397, 0.07821023, -0.28201103, -0.1011111, 0.16235265, -0.044407688, -0.27791482, 0.25530595, -0.25023043, -0.34766188, 0.018570801, 0.013680092, -0.0656075, -0.17293341, 0.2491954, -0.08236472, -0.08028245, -0.22301534, 0.17437227, -0.19426504, -0.22489676, -0.18737853, -0.16372669, -0.02040849, -0.18357173, -0.106464975, 0.077650845, 0.22744194, -0.058723003, -0.020995678, 0.12169946, 0.064989306, -0.10763415, 0.023507405, 0.24439728, 0.05828309, -0.111976534, -0.25914362, -0.1135919, -0.067898065, -0.23961781, 0.06538815, -0.12121046, 0.30446154, -0.16434807, 0.41343054, -0.11660836, -0.017552607, -0.0730488, -0.14790569, -0.03231613, 0.0829415, -0.19207962, -0.039337322, -0.11945483, 0.13971427, 0.052673697, 0.48185697, -0.116444856, -0.009032319, -0.0024458477, -0.1917703, 0.2601559, 0.022597099, 0.0066968133, -0.2820736, 0.16853255, -0.18114755, 0.16654208, -0.019014824, -0.15224166, -0.48524854, 0.19316876, 0.16262056, 0.1292649, 0.17095676, -0.055674978, 0.33761874, 0.10469608, 0.0039249165, -0.30537108, 0.27219683, -0.003340004, 0.15035044, 0.07643663, 0.21108197, 0.07525552, 0.07857493, -0.107467346, 0.15841497, -0.23344472, 0.23683462, -0.001940311, 0.08224014, 0.21264508, -0.5049558, -0.14053996, -0.2491426, -0.075916104, -0.040841512, -0.29838097, 0.061285064, 0.0919909, -0.053650662, 0.13378057, -0.11134828, -0.073603384, 0.106302984, -0.12243847, -0.13189742, 0.41208303, -0.24168718, -0.2712462, -0.21475355, -0.14552774, -0.16777322, -0.16915534, -0.04741385, -0.041774124, -0.16421181, 0.024284793, -0.040985506, -0.12857871, 0.22891867, 0.088094994, 0.171905, 0.3645119, 0.07870292, -0.060976103, -0.2920214, 0.10452713, 0.077920385, -0.32197353, 0.08075662, 0.27058718, -0.011323266, 0.4174835, -0.39027536, 0.0025555596, -0.04572964, -0.41362837, -0.0711591, 0.058325134, 0.2411536, 0.027024852, 0.20978433, 0.0733168, 0.11065701, -0.07361913, 0.035524335, 0.13181892, -0.29117185, 0.15193473, -0.12177325, -0.020299228, -0.12943682, -0.021290785, -0.3711751, 0.031282946, -0.21541631, 0.22643943, -0.04861679, 0.10371487, 0.055199552, -0.20157735, 0.4271651, 0.09281613, 0.08350333, 0.12775134, -0.17116247, 0.17773172, -0.18158513, 0.22973478, 0.1840835, -0.057451382, 0.054413285, -0.04038929, -0.143175, -0.10543565, 0.035677515, 0.01763431, -0.07746423, 0.10234303, -0.24133423, -0.14292179, -0.12741314, 0.009207512, -0.027116755, -0.017839083, 0.2619011, 0.010690944, -0.111799836, -0.2685241, -0.07222667, 0.39193422, -0.1316735, -0.06913033, -0.095543995, 0.013114486, -0.10208516, -0.09912466, -0.13322558, 0.17529728, 0.25438786, 0.08492065, -0.32866177, 0.21664916, 0.003920113, 0.037820023, -0.115996994, 0.4478931, 0.0968817, 0.035520915, 0.07130298, -0.057075597, -0.07997055, 0.044978056, 0.2940445, -0.03919558, -0.053676117, -0.13755703, 0.10210436, -0.060241953, 0.08940315, -0.11105878, -0.1065238, -0.041000396, -0.0740733, 0.23743063, -0.1840864, 0.31859407, -0.057300877, 0.088173896, 0.05071066, -0.004106019, -0.18301438, 0.27048498, -0.15909526, -0.1676405, 0.16756317, -0.20955604, -0.027004313, 0.118739866, -0.017786246, 0.18053114, -0.23113334, 0.09515383, -0.023868654, 0.13759726, -0.1623849, 0.045343865, -0.109341554, 0.15392193, 0.23495807, -0.22314928, 0.024066854, 0.25340524, -0.067072466, 0.044192098, 0.02729772, -0.051884826, 0.2537457, -0.057396717, -0.054493107, 0.086240314, -0.19224198, 0.014346121, 0.11474594, -0.038451232, 0.17754762, -0.096903786, 0.36080775, 0.009986089, -0.1121788, -0.06660966, 0.052383386, -0.1913393, 0.19415112, 0.2635599, -0.3175592, 0.023453904, 0.17706099, -0.19768018, 0.082554236, 0.11208548, 0.08292336, 0.350625, -0.12549855, -0.0429103, 0.14624786, -0.03883786, 0.05144003, 0.31609717, -0.14726645, -0.24555229, 0.047651455, -0.24486628, 0.17043185, 0.10707696, 0.22047102, -0.00575197, -0.023459198, 0.097621225, -0.1486026, 0.13074537, -0.19033752, 0.044762734, 0.19475952, -0.062778376, -0.057002377, -0.11984933, -0.035873424, 0.23097368, 0.13775705, 0.09304826, 0.071161546, -0.00414361, -0.030639023, -0.37397063, 0.13649501, -0.196741, 0.048049074, 0.0058280933, -0.019219225, 0.17498489, 0.0979954, 0.024829125, 0.09684421, -0.020305471, 0.23984607, -0.22059229, -0.15506671, -0.28233448, 0.19376054, -0.17440194, 0.22484912, 0.16620101, -0.08800689, 0.013163106, -0.018358253, 0.26860702, -0.0052624745, 0.144552, -0.0638819, 0.0027549847, 0.14765759, 0.0053813355, 0.3019554, 0.27779022, 0.07527323, 0.04998442, 0.096208476, 0.066610575, 0.053674396, 0.080130845, -0.10312477, 0.15108766, 0.040179312, -0.10657903, -0.026863113, 0.12257682, 0.24820101, 0.11819972, 0.12499985, 0.099695385, 0.029087726, -0.012537545, 0.09080813, -0.13929778, -0.3493535, -0.06817848, 0.011633867, 0.29122674, 0.17741632, 0.23911314, 0.030876607, -0.016614811, 0.15519223, -0.2920728, 0.19362335, -0.025450846, -0.14239815, -0.00445902, -0.13906495, -0.0026976396, -0.27087972, 0.03663315, 0.1672763, 0.19976762, -0.035320297, 0.20292154, -0.21974441, -0.29557016, 0.010190096, -0.2582299, 0.26598293, -0.4461546, 0.29635352, 0.18989876, 0.13171074, 0.25463352, 0.28195277, -0.105065465, -0.1040721, 0.24849547, -0.25311986, -0.101541914, 0.26035115, -0.14546703, -0.06700626, -0.0048875827, -0.06425947, 0.13937958, 0.029183773, 0.12246877, -0.124350026, 0.17935397, -0.27163824, -0.0577979, 0.20265308, -0.114671834, 0.10604075, -0.055630535, -0.19988453, -0.08325525, -0.030411704, -0.21316491, -0.034874957, -0.03603584, 0.1378297, -0.20034498, 0.029463883, -0.11946234, -0.03251646, -0.026433112, 0.23470257, -0.25188366, 0.03267982, -0.11246358, -0.08849982, 0.20772305, -0.011548515, 0.17544182, -0.043475628, -0.08882507, -0.2340091, 0.13029586, -0.36008257, -0.25293434, -0.19945383, -0.28853154, -0.2525116, -0.18082997, 0.013779554, 0.093240224, 0.19657227, -0.09570623, -0.06475507, 0.023369024, 0.06301539, 0.047394585, -0.43945745, -0.0075158137, 0.13048589, -0.22891405, 0.21001367, -0.052966967, 0.004197932, 0.060354665, 0.2848282, 0.19710405, 0.15280576, 0.038784653, 0.15316875, 0.02206384, 0.21233748, 0.21729167, -0.03225056, -0.1384705, -0.005450774, -0.13871379, -0.03156011, -0.111343786, -0.3482708, -0.097842164, 0.2529967, 0.1386725, 0.110609196, -0.029479371, -0.051242523, 0.018076751, -0.27140382, -0.022021504, 0.4669358, -0.29789993, 0.014838755, 0.0968615, 0.087089404, -0.20267035, -0.12550467, 0.12356793, -0.09818827, 0.090425156, -0.06045022, -0.5138017, 0.33804646, -0.018702714, -0.322446, 0.017365085, 0.11713811, -0.18602395, 0.112125024, -0.13631782, 0.027497303, -0.11979445, -0.059662394, 0.14931753, -0.013631911, -0.12810555, -0.07437333, -0.06772331, 0.012598458, -0.14809059, -0.13590015, 0.097280234, 0.05009908, 0.029067433, 0.06919584, 0.26203865, -0.0109182075, -0.12765267, -0.006753681, -0.1010232, 0.1448516, 0.00016535784, 0.10177632, 0.081895605, -0.037164386, 0.08159423, -0.023309274, 0.055411678, 0.09810561, 0.20586635, 0.072762184, -0.03222948, -0.0629305, 0.14832824, 0.017092427, -0.026276892, -0.010816401, -0.12676726, -0.22616272, 0.50148755, -0.26486096, -0.07316827, 0.031950638, 0.20810528, -0.34508795, -0.06297429, 0.30889404, 0.057901368, -0.26018563, 0.002889678, 0.25926343, -0.1950727, 0.2687189, 0.083921574, -0.0040975194, 0.008715881, -0.21089183, 0.2500996, -0.27102718, -0.11161554, 0.11289806, 0.20000632, -0.0245172, 0.44340876, -0.125778, 0.20316699, -0.048564333, -0.10150373, 0.030278249, 0.09601436, 0.035749048, 0.24619377, 0.061363544, 0.09977251, -0.02579239, -0.023435432, 0.11313884, -0.4194682, 0.034762092, -0.07915504, -0.24250749, 0.15662065, 0.100122556, 0.34426335, 0.011916798, -0.24097933, 0.031957913, -0.2118299, -0.2668902, 0.07087309, 0.01749945, 0.13983013, 0.062394317, -0.16254294, -0.05287746, -0.07637638, -0.2371894, -0.19937344, -0.19544905, 0.14804031, 0.16929303, -0.24515885, 0.5117206, 0.10768595, 0.06802319, 0.35451463, -0.0145864105, 0.10714916, -0.26183602, -0.08936828, -0.2865407, -0.14999631, 0.08460952, -0.059946187, -0.1626325, -0.15375829, 0.10692243, 0.014032246, -0.1972038, -0.04879537, 0.029501827, -0.2528793, 0.27360934, -0.22744799, -0.12339947, -0.07203573, -0.14272273, 0.32193053, 0.17471923, -0.08698304, -0.090112865, -0.17047575, -0.03126995, -0.21525751, -0.004370851, 0.16638237, 0.11219289, -0.031159205, 0.08113323, -0.00046353895, -0.09749847, 0.023303071, 0.1163714, -0.07217473, 0.15282829, 0.030949231, -0.10893244, -0.10940808, 0.02504202, -0.13483733, -0.03700395, 0.101977475, -0.27391443, 0.016545314, -0.14943331, 0.22283539, -0.17703494, 0.15350755, -0.28565255, 0.003998768, 0.087360814, -0.018884365, 0.2009229, 0.090991355, 0.0031267873, 0.030351102, 0.0974319, -0.110821955, -0.076906, -0.054885525, -0.037291534, 0.030988537, 0.160525, 0.04234152, 0.14233688, -0.091401644, -0.013736034, -0.039442975, 0.076779805, -0.19696665, 0.015678745, -0.022934044, 0.051396456, 0.01658, -0.22621301, -0.052470013, -0.14474767, -0.14202012, 0.056483317, -0.021299312, 0.20531148, -0.23596442, 0.19274527, 0.008450983, 0.10164367, -0.060246125, 0.13645913, 0.00885499, -0.05162123, -0.16881527, -0.037072625, 0.05580799, -0.27165297, -0.018464524, 0.0042333347, -0.04955065, 0.019935623, -0.16012596, 0.14390813, -0.13474493, 0.007373778, -0.059059236, -0.12849346, 0.059286613, 0.04214584, 0.13797611, -0.31609318, 0.16674834, 0.06618756, 0.07898315, 0.0306687, 0.20999362, -0.21726687, 0.2415099, -0.09840474, 0.08110434, 0.111178935, -0.29291114, 0.035304356, 0.14230081, 0.2859526, -0.19071628, 0.019506719, -0.081838176, -0.077718586, -0.1822664, 0.1321986, -0.18229716, -0.013542854, 0.09124196, -0.23160826, -0.13285865, 0.101039566, 0.14743139, -0.01813904, -0.18114626, 0.38563302, -0.065476224, -0.46647808, 0.21816641, 0.36974216, -0.3017533, 0.04454404, -0.07763809, -0.12138895, -0.32063842, 0.20814355, 0.033359185, 0.20061964, -0.041243717, -0.070449196, 0.1500804, 0.023134777, -0.06625151, -0.03969926, 0.18566929, 0.17946118, -0.16149266, 0.05949471, -0.006071957, 0.0636851, -0.10481559, -0.01921354, 0.10585894, 0.21426101, 0.21298292, -0.048454236, 0.2064903, 0.01190525, 0.1357561, 0.35877264, 0.071969315, -0.03167069, -0.057671085, 0.15552248, -0.09077821, -0.19138841, -0.16447087, -0.28923038, -0.001721371, -0.09459232, -0.3547011, 0.44763085, -0.016906621, 0.17294817, -0.22869101, -0.15275349, -0.15320751, -0.24349456, -0.045869738, -0.25416616, 0.13375844, -0.14274949, -0.073050074, -0.42101514, 0.30526015, 0.356257, -0.26959258, 0.3797543, -0.090831846, -0.11694381, -0.25974602, -0.2708823, -0.22187547, 0.10674414, -0.05940405, -0.22579071, 0.09152164, 0.14947845, 0.015115306, -0.19589505, -0.07309729, 0.22538091, -0.12219203, -0.018261842, -0.03506342, 0.047249347, 0.059159134, -0.18069644, -0.013085938, 0.16185683, 0.23954141, -0.13319269, 0.11935372, -0.045510434, 0.33837414, -0.029521437, -0.16249791, 0.23312041, -0.059018888, 0.08559648, -0.1397906, 0.2279488, 0.15449925, 0.19268374, -0.18341565, 0.13592963, 0.059101194, 0.21628733, 0.014606207, -0.11477094, 0.2990806, -0.43899417, -0.23352116, -0.009222825, 0.08733453, 0.2616907, 0.12632826, 0.14869127, 0.07715381, -0.052812133, 0.083620004, -0.055929694, -0.044667304, 0.32154185, 0.063876174, -0.08790416, -0.28859565, 0.24913327, -0.27602768, -0.072379194, 0.15174341, 0.2725026, -0.0682166, 0.28654477, 0.23360346, -0.10995055, 0.06248988, -0.15566124, 0.29920304, 0.1526648, -0.11395083, 0.3490347, -0.40684757, 0.24824913, -0.02026199, 0.096598655, 0.30386266, 0.3204783, -0.074125566, 0.087910436, 0.078388326, -0.18342881, 0.10369137, 0.13663876, 0.1492827, -0.05341572, -0.013200172, 0.1690146, -0.01802584, 0.014458814, 0.121716335, -0.3400547, 0.24924606, -0.07345245, -0.19880901, -0.20989871, 0.037503198, -0.032884195, 0.25911313, 0.05977243, 0.1890226, -0.020458834, 0.07824135, 0.10742046, -0.2674546, 0.25632262, 0.045545124, -0.17163631, -0.06005304, -0.0013059662, 0.15637447, -0.18238378, -0.0117150815, 0.09392627, 0.20514604, -0.11861066, 0.24346733, -0.11302458, -0.20081529, 0.07050073, -0.11985383, 0.10470686, -0.15130405, 0.09115879, -0.027863221, 0.06701637, 0.30210477, 0.12570812, 0.08265971, -0.16796514, 0.02150909, -0.24298972, -0.014621595, -0.33989063, 0.027089885, 0.17625344, 0.07706837, -0.10813581, 0.1901736, 0.19703498, -0.263542, 0.1075599, -0.07444251, 0.050680976, -0.22898555, -0.13445185, 0.04398424, 0.06708965, 0.10161232, 0.09216659, 0.10133097, -0.096969806, -0.100283764, -0.05505448, -0.07941025, 0.3386901, -0.16288953, -0.16340105, 0.09255608, -0.18299203, -0.12574852, -0.21541522, -0.09150485, 0.3156884, 0.17493433, 0.062420335, 0.21149637, -0.06753308, -0.4020894, 0.08895716, 0.13606198, -0.21062286, 0.3303748, 0.018778138, -0.12825353, -0.17269701, -0.29156741, -0.33493236, 0.08433416, 0.124667086, -0.21677704, 0.22284755, -0.020120537, -0.059419345, -0.17913747, 0.062476248, -0.15766896, -0.1662819, 0.16849133, 0.20347838, -0.12361986, 0.33588424, 0.012295919, 0.016063645, 0.03033114, -0.08103752, -0.009107415, -0.07141972, -0.16905051, -0.035736773, -0.054289926, -0.3329901, -0.051162492, -0.2252706, 0.080184504, 0.051860265, 0.1245046, -0.039103877, 0.5948636, -0.24523294, -0.044847433, -0.14820383, -0.3402217, 0.2547389, 0.06261918, 0.13674983, -0.017790461, 0.009296395, -0.22295277, -0.19712503, -0.013397509, -0.087177984, -0.27345574, -0.3909836, -0.057946626, 0.11723088, 0.024480354, 0.18546928, 0.08351067, 0.13045304, -0.02768419, -0.07531582, 0.15584657, -0.004609233, 0.262559, 0.15062325, 0.30781484, 0.105749026, -0.37995994, -0.16033253, -0.10187271, -0.2926257, -0.08796886, -0.012165528, -0.034543518, -0.1102055, -0.18996918, -0.18495002, 0.2615076, 0.08767919, 0.021562507, 0.05664869, -0.4564693, 0.21100706, -0.15655454, 0.34667093, -0.0856279, 0.016993143, -0.120647766, -0.034733098, -0.3107157, -0.071861, 0.041102737, -0.15571313, -0.08430059, 0.037091292, 0.29213348, -0.054920457, -0.17756352, -0.020908464, -0.12747438, -0.32167548, -0.19432813, -0.38121137, 0.048278585, 0.18366908, -0.09601188, 0.1282266, 0.119380295, 0.006469743, 0.03571093, -0.0228198, 0.108084865, 0.06205177, 0.049591254, 0.29743493, 0.10760485, 0.03294059, -0.34492072, -0.07325077, -0.022305401, -0.45806658, -0.16703545, -0.08748699, -0.3104969, 0.42532784, -0.10388343, 0.2983193, -0.041769866, 0.13918264, 0.11858856, -0.019902319, 0.20030908, 0.116478674, 0.23228529, -0.043590073, -0.25936306, 0.17419608, -0.08673263, -0.071276076, 0.11089739, 0.07823738, 0.44684145, 0.25328895, 0.023443934, 0.052320607, -0.035373643, -0.104144566, 0.32244265, 0.021059193, -0.25857902, 0.19617027, 0.076943964, 0.121690504, -0.054016046, 0.029180449, 0.06185366, -0.009664339, -0.12538783, -0.15977299, -0.04101167, 0.050438743, -0.17072688, 0.12535341, -0.039049216, 0.027972823, -0.17534077, 0.0034426423, 0.25968266, 0.16371751, 0.08919288, -0.06939127, -0.056441307, -0.12713999, -0.16965014, 0.08718064, 0.104817, 0.23068017, -0.09837868, 0.35399204, 0.098042816, 0.14647537, 0.49247342, -0.16816984, 0.077098265, -0.31583604, 0.17197396, -0.25273973, 0.017787615, -0.13475642, 0.14458734, -0.116817735, 0.3856244, -0.04710253, 0.092800625, 0.055530448, -0.27506784, -0.26422355, 0.05003856, 0.25889716, -0.017777227, -0.036961414, 0.08714511, 0.10291988, -0.16836388, -0.06286768, 0.27610573, -0.22683385, 0.11534882, -0.3380438, 0.04707762, 0.12817737, -0.17506704, -0.32057637, 0.061998688, -0.22955343, 0.0042029275, -0.12528506, -0.21331482, -0.18631086, -0.06319962, 0.40809876, 0.03709647, -0.29739174, 0.35509178, 0.3015657, 0.06907173, 0.067455746, -0.109170094, -0.03973601, -0.3617007, -0.056272905, -0.16995728, -0.08244553, 0.33203337, -0.36242276, 0.16582577, 0.18410023, -0.021994287, 0.15028617, -0.13384758, 0.1725251, 0.1296395, -0.10245439, -0.31619066, 0.045927685, -0.15350579, 0.10223913, 0.07370726, -0.34548262, 0.076637655, 0.055735305, 0.0008458957, 0.10627209, 0.27434653, 0.25955188, 0.12975049, 0.31691265, -0.09896479, -0.037579186, 0.02521626, -0.008839193, -0.2185396, -0.036973156, 0.025335642, -0.07565382, -0.06343764, 0.38237694, -0.0078001292, 0.0017152007, 0.14752872, -0.23421091, -0.2626403, 0.07840805, -0.067777246, -0.31844774, 0.11456214, -0.09946127, 0.19534563, -0.20245863, 0.01896, 0.15996085, -0.23919241, 0.019873822, -0.15157242, 0.053629007, 0.009740892, -0.061036475, -0.21664484, 0.20829913, -0.0151381595, -0.11702682, -0.20309986, 0.036897175, 0.15097854, -0.37230134, 0.28561935, 0.19723314, 0.08046413, 0.22019622, -0.038105935, 0.2871554, -0.017323177, 0.16843837, -0.21285355, 0.008871602, 0.09499819, -0.09500257, 0.06951504, -0.21019845, 0.17214674, -0.18590982, 0.0045938487, -0.13695966, -0.21494633, 0.13803333, 0.16105364, -0.28164148, 0.35612077, 0.28206632, -0.25017875, 0.40362555, 0.010508906, -0.14726922, -0.15074624, 0.0424442, -0.19009323, -0.30561742, 0.04682001, 0.35043415, 0.082818925, -0.0037519122, 0.12757365, 0.07550543, -0.08130661, 0.24130207, -0.21261084, -0.03498945, 0.35604388, -0.3845411, -0.06851042, 0.1414957, -0.06792566, 0.010794062, -0.20204617, 0.17227519, -0.21802653, -0.19561538, -0.29110578, -0.34099928, 0.1330684, -0.06958828, 0.31985202, 0.04220282, 0.23379554, 0.14346579, 0.2769921, 0.15574746, 0.18264478, 0.033414904, -0.009610329, -0.21088754, 0.017370524, -0.28795072, 0.06525255, -0.052258663, -0.04327995, 0.40963766, -0.061858896, -0.050982323, 0.094606474, 0.022304032, -0.029530695, 0.22588448, -0.016731812, -0.32842964, 0.21497674, 0.16161871, 0.20047104, 0.09436377, 0.14095095, 0.11029619, 0.16472138, -0.13980387, -0.29988268, -0.17380878, 0.2289864, -0.24189608, -0.04917761, -0.20214504, -0.12725623, -0.22117268, 0.26278502, 0.06775074, 0.13340184, 0.0102482755, 0.046439037, -0.19219536, -0.29491895, 0.1498906, -0.0048158634, 0.10687367, -0.08858773, -0.038269266, -0.0043801526, -0.054664474, -0.25981638, -0.06798672, -0.44528246, 0.15744032, 0.22767575, 0.15144598, 0.0070919776, 0.62134373, -0.19216046, -0.13958168, -0.14000884, -0.28879854, 0.28168508, -0.06486522, 0.13491362, -0.083082765, 0.00023461468, -0.25341257, -0.012420148, -0.090031825, -0.29083297, -0.08520458, -0.027176088, 0.044772316, 0.01864157, -0.034219332, 0.039916117, 0.3731719, 0.09949944, 0.093943946, -0.0015143524, 0.03549542, -0.07065252, 0.042391658, 0.088889405, 0.06193434, 0.12452429, -0.20896663, -0.13319011, 0.01760945, -0.19749403, -0.1609216, 0.046854455, -0.13595279, -0.31328887, 0.17601588, -0.37932572, 0.07086317, 0.06404047, 0.13400851, 0.2756005, 0.246216, -0.0369707, 0.13170776, 0.027864728, -0.043976583, -0.044365916, -0.1002389, 0.22722909, 0.0019243894, -0.15893096, 0.114304185, -0.06255978, 0.053391993, 0.015022455, -0.09604925, 0.24025263, 0.05693212, -0.3211105, 0.05088687, 0.040077735, 0.07847844, 0.0265181, -0.04406578, 0.20322438, 0.36417973, 0.112574406, 0.21256573, -0.09864902, -0.06975635, -0.43782905, 0.055165645, -0.48676488, 0.26451993, 0.13044749, 0.27902028, 0.25702924, -0.024524113, 0.12874448, -0.1939735, 0.0437667, -0.046957374, 0.47086877, -0.00206504, 0.38612738, 0.08766322, 0.017867357, 0.17652674, 0.12458161, 0.02454671, 0.08255366, -0.004925178, 0.025371194, 0.21871239, 0.15690437, -0.3390393, 0.22059526, 0.24129276, 0.07175186, -0.20052242, 0.3922253, 0.04267556, 0.2618237, -0.011191572, 0.05376151, 0.08044148, -0.006223405, 0.043515522, -0.105120465, 0.015035649, 0.12109756, 0.015450018, -0.091844514, 0.16538037, 0.051042102, -0.30069277, 0.39738524, -0.35535926, 0.065276794, 0.055663522, -0.012920424, 0.0019282063, 0.37805223, -0.122795984, -0.025488328, 0.06115841, 0.026301552, 0.34606707, 0.03392606, 0.043210927, -0.18755645, -0.018331693, -0.07718216, -0.060862936, 0.03697149, 0.17898339, 0.023951115, 0.15218887, 0.33867055, 0.22680825, -0.024765508, 0.21311808, 0.04562885, -0.30272752, 0.031016577, -0.32360637, 0.03389981, 0.15530194, -0.17881478, 0.041715283, 0.34767693, 0.08639369, 0.24267347, 0.1369965, 0.07963441, 0.008172504, -0.39538792, -0.18673567, 0.41245878, -0.2258451, -0.10030849, -0.121143214, 0.36028218, -0.052556083, -0.030563194, -0.1250038, -0.2954955, 0.3164417, -0.2858421, -0.1033877, 0.1230128, 0.05487975, -0.13726631, 0.0075106947, -0.018940827, -0.21346894, -0.2290665, -0.06759913, 0.0056714024, -0.02950578, 0.19222204, 0.05033166, -0.36947018, -0.011452528, 0.2534368, -0.052351322, 0.537218, 0.06714727, 0.05250028, -0.23730405, -0.102606475, -0.03139881, -0.041908648, 0.01606075, -0.1481355, 0.25218186, 0.03598418, -0.0750493, -0.085009985, -0.07540353, -0.1795436, 0.06784605, 0.041664172, -0.029938502, 0.031776443, 0.15624617, -0.26281038, 0.061495364, -0.039643366, -0.11224465, 0.1714472, -0.10217389, 0.20139584, -0.011843087, 0.25302422, 0.11064897, -0.016827416, -0.048494175, -0.089395285, 0.11294988, -0.0898913, -0.14866838, 0.08397433, 0.08223097, -0.058587283, -0.053364273, 0.18174572, 0.13666487, -0.017484719, 0.13552575, 0.03241321, -0.013351706, -0.10599944, -0.18772592, 0.28120786, -0.028778741, 0.29797924, 0.121622846, 0.3036674, 0.22628652, 0.072998375, -0.011370518, 0.030700648, 0.05771978, 0.18367101, -0.2150466, -0.026942762, 0.01718393, -0.13051176, -0.091584496, 0.019569505, 0.28893217, 0.06300276, -0.10613316, 0.20453964, 0.11017116, -0.25805432, 0.12694547, 0.18925424, -0.120544046, 0.27141735, -0.047597762, 0.3555932, 0.07430998, 0.13989934, 0.11956738, -0.14043765, -0.08133267, -0.22518556, 0.11145521, -0.12532553, -0.028829128, 0.01771459, -0.17123935, -0.04943349, -0.1717743, -0.20598565, 0.32875222, 0.071596734, 0.040150836, 0.39271918, 0.14257543, -0.30083954, -0.0049991524, -0.27409658, 0.2057896, -0.16514535, 0.0008413903, -0.10799415, 0.043173123, 0.24442369, -0.010729967, -0.016357575, 0.3433028, -0.08638044, 0.041856762, 0.04409941, -0.013684503, 0.38353327, 0.12456477, -0.18463266, 0.0490324, -0.09755223, 0.072436266, 0.1417648, -0.06269586, 0.5072613, 0.17079523, -0.021434378, -0.011822307, -0.082675554, 0.16670278, -0.19282128, -0.026408723, -0.2605186, -0.20541638, 0.16830808, -0.09274781, 0.18833658, -0.45439687, 0.4211452, 0.16612855, 0.19510077, 0.035496604, 0.27141622, -0.039946686, 0.036788467, -0.07600704, 0.068496, -0.028400524, -0.2327539, -0.043291718, 0.104397655, -0.19177315, 0.33856094, 0.1849247, -0.051010355, 0.116750345, 0.124654025, -0.03614424, 0.0786846, 0.029337207, -0.15969175, 0.22293252, 0.16377676, -0.3873028, 0.095732406, 0.10944923, 0.11892864, -0.1152654, 0.21424827, 0.33522058, 0.2493, 0.10003133, 0.24666104, -0.08930019, 0.17023253, 0.18853807, -0.23050572, -0.11890761, 0.054779068, 0.2905076, 0.010879028, 0.1169554, 0.1852541, 0.04548174, 0.104630195, -0.11810884, -0.1176368, 0.041764136, 0.06359137, -0.25863665, 0.04808738, -0.14441928, -0.09640808, -0.2672416, 0.07276842, 0.14532192, 0.10717021, -0.10866046, 0.27025637, -0.3083374, -0.075952515, 0.034601312, 0.12500186, 0.32338697, 0.3852124, 0.12657024, -0.12709402, -0.1318858, -0.14403394, -0.03180535, 0.06541719, 0.1215331, -0.2220672, -0.06730901, 0.23114985, -0.1767187, -0.1259351, 0.11717274, 0.010820722, -0.03696023, 0.33493733, 0.29921097, -0.094026245, 0.05429547, -0.03389771, 0.29615378, 0.02094034, -0.06295086, -0.09191842, -0.19984685, -0.071538456, -0.028458025, -0.10322289, -0.06903771, -0.24030536, 0.16502225, 0.11159588, 0.12829705, -0.013355087, 0.18815093, -0.10185433, 0.18296462, 0.040507026, -0.078780875, -0.17888398, -0.03214352, 0.02396058, -0.038605247, 0.011677617, 0.25925285, 0.16226357, 0.0101262955, -0.19752932, -0.17880964, -0.29753032, 0.023072107, -0.0838419, -0.032895304, -0.3667793, -0.12351897, 0.08271717, 0.11734948, 0.12930447, -0.049852874, -0.0003436314, 0.11232487, 0.08252237, 0.2361339, -0.21158618, -0.42015156, 0.0040977537, 0.14051606, 0.0882529, -0.09577392, 0.15786691, -0.10070374, -0.3254171, -0.016638981, 0.047134798, 0.05459337, 0.072901145, -0.09760953, -0.023550719, 0.009521994, -0.17585494, 0.16217123, 0.12219628, 0.055037968, -0.265402, 0.25870463, -0.20875151, 0.24019788, 0.26571146, -0.020447146, -0.11913502, 0.17630921, 0.21956745, -0.1510218, 0.2448967, 0.33181578, 0.43639266, 0.014872885, 0.08070528, 0.17166488, 0.21876514, -0.16128331, -0.20456062, -0.14910889, 0.15620318, 0.043860007, 0.032696646, -0.029644214, -0.2314244, -0.009151169, -0.09064812, -0.19488059, -0.0008830139, 0.14714535, 0.29288504, -0.0113517735, 0.013559478, 0.047602523, -0.36183763, 0.088400126, -0.116492726, 0.17130719, 0.12917952, -0.14760847, -0.09738265, 0.22191428, -0.23088709, -0.22670607, -0.23186292, -0.18409595, -0.10482443, -0.23158513, 0.07023083, -0.32974243, 0.4270714, -0.050220024, 0.08113322, -0.026172966, 0.08109943, -0.20253739, -0.105507955, -0.096276894, 0.02575882, 0.016668957, -0.1441642, 0.037840836, -0.14681356, 0.108124755, -0.080076054, 0.050765213, 0.1818538, 0.006760509, -0.20214596, 0.025941988, -0.1416109, -0.09833365, -0.19979331, -0.2448962, -0.13360617, 0.31546584, -0.1132603, -0.05219039, -0.24761333, 0.19238111, -0.16873488, -0.36086214, 0.20743114, 0.19835056, -0.11639251, 0.31294206, -0.13974313, -0.17343868, 0.28626016, 2.4715248e-06, 0.018610418, -0.15596901, -0.02532009, 0.08396966, -0.109891, 0.09798989, -0.16049659, 0.05811765, 0.13984683, -0.09886266, -0.0011765072, -0.016200181, -0.03276051, 0.18169034, -0.12288327, 0.012082016, 0.08889867, -0.21469182, -0.29297864, 0.043161087, -0.12448418, 0.16359143, -0.025472919, -0.11934681, -0.21293259, 0.14302953, -0.34598175, -0.2602451, -0.22211026, 0.13037358, 0.018302063, 0.2087212, -0.10285201, -0.10046909, 0.14020208, -0.13612102, -0.247366, -0.10249438, 0.11992213, 0.13516627, 0.18820675, -0.19065464, -0.050681964, 0.009528847, -0.10811015, -0.06253125, 0.14981404, 0.11297433, 0.56042135, 0.07471314, 0.035171516, -0.0011204503, -0.07434258, -0.011289196, -0.29264095, 0.16159712, -0.19339906, 0.012697497, -0.01895838, -0.44834754, 0.23738939, 0.103076026, -0.028949097, 0.007257378, 0.018356737, 0.07543027, 0.09497099, -0.1667958, -0.016993992, 0.04537704, -0.11159444, 0.11533807, -0.21906939, 0.09787858, 0.051991124, 0.21097688, -0.08351755, -0.036947545, -0.08621353, -0.024212863, 0.034253098, -0.17026359, 0.04644428, -0.204088, 0.11646324, -0.009409884, -0.04073496, 0.10634161, -0.14962675, -0.07634464, 0.12076839, -0.17254892, 0.12674643, 0.10851974, -0.041634697, 0.2309469, -0.10323171, -0.06306565, 0.026069798, -0.18561691, -0.1438305, -0.05218205, -0.08469081, -0.15232238, -0.058562957, 0.01990826, -0.0613042, 0.09735123, 0.1295882, -0.08719819, 0.15477128, 0.12514289, -0.12603937, 0.14656135, 0.076579906, -0.0053995037, -0.027949007, -0.20718545, -0.04315493, -0.04325381, -0.129978, 0.024256783, 0.055045817, -0.011706538, -0.039076596, -0.15684141, 0.17267853, -0.12434278, -0.043199737, -0.059281323, -0.2712154, -0.12012862, 0.14630051, 0.07779764, -0.01713463, 0.012685599, 0.18414211, 0.053836033, -0.07377561, 0.19933034, 0.07351429, -0.13802114, 0.023843935, 0.013818989, 0.08038325, -0.13379869, -0.09388289, -0.032168187, -0.1205671, -0.04045768, 0.04934433, -0.29790974, 0.03820629, -0.36035854, 0.01958859, 0.20351726, -0.2576333, 0.22666845, -0.07796901, 0.24799323, -0.42893428, 0.03935569, -0.43320003, 0.3731471, -0.20270912, 0.29011875, -0.19306087, 0.036194444, 0.11479041, -0.13023427, 0.25646096, 0.3646032, 0.25831464, -0.06480687, -0.015542051, -0.14796768, 0.009078321, -0.3804923, -0.0993782, -0.14570148, 0.14162572, 0.09985688, 0.09449616, -0.043646835, -0.18982592, 0.33902225, -0.052772526, -0.34797433, 0.32288158, 0.11964205, -0.017037263, 0.037177876, -0.4304549, -0.22493799, -0.16516656, 0.03487695, 0.0799208, 0.1650422, -0.030649813, 0.04143438, -0.28840074, -0.26811016, -0.13470222, -0.18331018, -0.10795971, -0.25396794, -0.35372597, 0.094869226, 0.07656629, 0.23127733, 0.02428156, 0.1356949, 0.1307025, 0.22580272, -0.10140889, 0.068715625, -0.07551364, -0.20883487, -0.09375418, 0.12592256, 0.026545271, 0.35955217, 0.010489113, 0.24739634, 0.10431552, -0.093443185, -0.07030316, -0.07808169, -0.2584956, -0.23847006, -0.11899429, -0.17766364, 0.24127103, 0.04221936, -0.16931753, -0.14049713, 0.2097546, -0.046322376, 0.1315689, 0.088268295, 0.33881655, -0.20863633, 0.00547817, -0.057937503, -0.11882471, 0.17463142, 0.16085567, 0.1436002, -0.2484569, -0.035859913, 0.1025211, 0.10266586, 0.34634942, 0.017849542, 0.087518156, -0.03950541, -0.08335484, -0.08260525, -0.09257863, 0.25599658, 0.029677017, -0.050294463, 0.050639037, -0.32095876, -0.12053916, -0.23169751, -0.13331595, 0.30924052, 0.14268519, 0.09130674, 0.3328998, -0.2013599, -0.22338767, -0.26004335, 0.08660769, 0.09231429, -0.023140639, 0.2421634, 0.18588902, 0.15484889, 0.39696443, 0.15406433, 0.27632234, -0.15505098, 0.026145037, -0.29765347, -0.022660758, -0.52715516, 0.11327622, -0.066399105, 0.25924635, 0.23436733, 0.0503405, 0.075125284, -0.17509411, 0.17799425, -0.07097521, 0.19232649, -0.2010519, 0.22088468, -0.031053348, 0.20774625, -0.015810143, 0.013204128, -0.020978024, -0.0928112, -0.116302945, -0.16560382, -0.1410221, 0.14276385, -0.12559453, -0.12004084, 0.12473593, -0.3145915, -0.051670913, 0.19485112, -0.21560982, 0.21439701, 0.12831618, -0.1604649, 0.32127172, -0.1370827, -0.08478713, 0.17668931, 0.25737748, -0.12840515, 0.0874932, 0.15309474, 0.18649529, 0.056959994, -0.2212243, 0.11849823, 0.13105671, -0.11170672, -0.14462529, -0.12958845, 0.0819312, 0.13559563, -0.42296737, 0.039316453, 0.2910587, -0.18018213, 0.26340386, 0.095001966, -0.040286988, -0.10583256, -0.40325525, -0.099215366, 0.045914494, 0.02964961, -0.099620864, 0.110373676, -0.30382347, -0.22704254, -0.15604115, -0.17002894, -0.14346516, -0.09977252, 0.1962872, 0.061854236, 0.11524831, -0.12267354, 0.21846399, 0.039273005, -0.041451253, -0.03349677, -0.2609941, -0.15909728, -0.065280825, -0.12535453, -0.055398367, 0.14532748, -0.10915551, 0.18123192, -0.17587408, 0.30671284, -0.18159156, 0.118768305, -0.08512833, -0.06780606, -0.18720473, -0.05656937, -0.30384845, -0.07124469, 0.00991742, 0.3953509, -0.16879855, 0.34158045, -0.20014635, 0.03082831, -0.23755355, -0.25302154, 0.19080208, 0.009736167, 0.10229347, -0.0603769, 0.12015256, -0.28676552, -0.16015856, 0.36838397, 0.017737681, 0.21184647, -0.0693226, -0.19343506, -0.02595042, -0.047933616, -0.20997272, 0.16363129, 0.039332133, 0.15205048, -0.1773223, 0.022113485, -0.19513777, -0.14884113, -0.021958025, 0.36152902, -0.22235806, 0.21394415, 0.004092516, -0.21113047, 0.25192887, -0.057993934, 0.17142236, 0.113761365, 0.06761136, -0.33311197, -0.13745621, -0.20230894, -0.2127148, -0.28661472, -0.08003363, -0.12975276, 0.22212148, 0.19170867, -0.092961736, -0.020344563, 0.32518196, 0.039877143, 0.20622106, 0.060316414, 0.13329343, -0.07418836, -0.10646228, -0.15710826, 0.01408715, -0.223966, 0.19558294, 0.13653798, -0.33336863, 0.104559526, -0.24023186, 0.14853989, -0.2292057, 0.057847444, 0.18022504, -0.07064025, 0.086200655, 0.17269842, -0.16203545, 0.35859036, -0.22843368, -0.08980541, -0.16208626, -0.088362776, -0.103393175, 0.4596606, -0.087395996, 0.088057496, 0.18820831, -0.20963687, 0.08201247, -0.24407023, 0.07531133, -0.14634703, 0.057596803, 0.040621128, -0.060406487, 0.10377072, 0.18783501, 0.016682364, 0.0016014224, 0.025596552, 0.08302746, 0.015236094, 0.078413375, -0.19345835, 0.21505968, 0.023289412, 0.15820168, -0.2526892, -0.023261271, 0.06152168, 0.082340546, -0.0761571, 0.27128544, -0.037395015, 0.080887966, 0.10971942, -0.3616501, -0.06588774, -0.20725167, 0.45892772, -0.13515016, 0.08366031, 0.10860515, -0.1612781, 0.41120288, 0.21568699, 0.185009, -0.10132983, 0.13531402, -0.027810866, -0.15252966, 0.07273948, 0.28178105, -0.22068135, 0.22364178, -0.11941624, 0.18150415, 0.15272509, -0.26897126, -0.26099095, 0.19221735, -0.019201001, -0.0867976, -0.0035311051, 0.081240624, 0.13302468, 0.15906757, 0.26708487, 0.053765297, 0.15624824, 0.08175603, -0.078157514, 0.117764235, -0.023279062, -0.007514112, 0.083210155, -0.1645493, -0.0019134197, 0.052376013, 0.17491752, -0.04350094, 0.0031121715, 0.01116714, 0.023555718, -0.108468466, -0.047064923, 0.48353392, 0.10768327, -0.09093121, -0.22647804, -0.028575819, 0.023262987, -0.1760834, -0.17840889, -0.0030793888, 0.102019556, 0.049367134, -0.33571082, -0.068273984, 0.3802399, 0.025181701, -0.13688186, 0.19384621, 0.3016572, -0.20330615, 0.011632089, -0.04000643, -0.047574293, -0.2837611, 0.1908935, 0.012512157, 0.11484709, -0.0671123, 0.2134707, -0.044483658, -0.018238455, -0.0018174634, 0.025797067, 0.16371033, 0.18873788, 0.24459432, 0.05067818, -0.23198223, -0.2132562, 0.24826403, -0.19208439, 0.2231472, 0.36066017, 0.26129606, 0.10309065, 0.13669525, 0.21604057, -0.021034619, -0.11286551, 0.08102052, 0.30152893, -0.054492813, 0.12547435, -0.23687455, -0.0041493378, 0.32722846, 0.37205788, 0.0056194565, 0.12804784, -0.026328946, 0.18190487, 0.015902122, -0.05307889, 0.111604124, 0.031018924, -0.041254155, 0.0794837, -0.05394591, -0.11371326, 0.4717175, -0.1747549, -0.2689996, 0.18803503, -0.19403905, -0.033672802, -0.10294064, -0.10029684, 0.17243627, 0.2453924, 0.22606282, 0.2525204, 0.037349835, 0.031190049, 0.1139591, -2.1752976e-05, 0.093349166, 0.30349803, -0.115589626, -0.17423944, 0.22087471, -0.21172117, 0.09909179, 0.11169428, 0.13200717, 0.2146808, 0.1901042, 0.2627359, -0.053199667, 0.24816391, 0.18747367, 0.36142817, -0.014368559, 0.14104371, -0.27903646, -0.08199516, 0.19639084, 0.18539998, -0.097964704, 0.21066251, -0.27518174, 0.14438868, 0.023445973, -0.025190247, 0.014190697, 0.09098347, -0.17418037, 0.13388139, -0.16367105, 0.11555706, 0.44158465, -0.30135462, -0.21963778, 0.127192, -0.13332517, 0.069203496, 0.15940465, 0.25370118, 0.21184543, 0.30011916, -0.13040718, 0.15668851, 0.12756222, -0.21391186, 0.16357465, -0.007979051, -0.010043891, 0.05628795, -0.21590063, 0.04126639, 0.20683159, 0.09788691, -0.028471803, -0.10770921, -0.0061779744, 0.21106781, -0.049209423, -0.10509154, 0.16663322, -0.14356585, 0.27512205, 0.08643033, 0.057024855, -0.0042501446, -0.021859452, -0.1870045, -0.08237777, -0.08066273, -0.15354162, 0.052688524, -0.12741464, 0.004037069, 0.057141762, -0.08956232, 0.08020773, 0.027369326, -0.0032259186, -0.002793418, -0.0053517167, 0.035198957, -0.015736243, -0.14686984, -0.329893, -0.0917004, -0.12778743, 0.18372284, -0.14907008, 0.012906215, -0.007526058, 0.08101685, 0.47641727, 0.32714608, 0.05028104, 0.11379601, 0.2027724, 0.009870577, 0.14702307, 0.09335663, -0.38443983, 0.015926307, 0.15568553, -0.2542774, -0.19541074, 0.10456236, -0.18585694, 0.42767522, 0.09828441, 0.21499713, 0.0813174, 0.17692913, 0.0021156818, 0.24349068, 0.08567684, -0.2191668, 0.17388819, -0.12242136, -0.24579774, -0.05185015, 0.049557775, 0.08201333, 0.32833576, -0.37182716, -0.14028195, -0.074153736, 0.18386756, -0.24232638, 0.18641713, -0.23009408, -0.055262297, 0.027810102, -0.11875493, 0.03984419, 0.04348487, -0.24625313, -0.22121634, -0.2216493, -0.32560688, -0.0048620766, 0.18384989, 0.18089642, 0.2037399, 0.29128325, 0.34760472, 0.23085502, 0.19126013, 0.26991612, -0.0536276, -0.04006235, -0.06738821, -0.16832818, -0.010444265, 0.027253706, -0.22208345, 0.006011482, 0.21115284, 0.33014125, 0.0036252295, 0.16786277, 0.15667808, 0.059476968, -0.28105956, -0.11203198, -0.012082483, -0.44616663, 0.25670272, -0.2630686, 0.18978669, 0.09039465, 0.30200365, 0.24624127, 0.2274003, -0.0070598815, -0.2670753, 0.040188547, -0.15123095, -0.079562984, -0.15634291, 0.13626365, 0.29470515, -0.21434191, 0.15039167, -0.049500268, 0.11872857, -0.03470613, -0.10198981, 0.111055285, -0.10798815, -0.21393172, -0.084907584, -0.16891767, 0.19972289, 0.017242035, 0.43484566, 0.24147533, -0.11984245, 0.22694792, 0.12993494, 0.09592382, 0.08915872, -0.04450075, 0.25141212, 0.20227979, -0.08495319, 0.1721866, -0.19608583, 0.20036934, 0.011879555, 0.09528383, 0.18635911, -0.31169116, -0.25898078, 0.031874713, -0.35504723, 0.016303038, 0.26303235, 0.21902856, -0.17470694, -0.004367639, -0.062437918, 0.2897995, 0.121416815, -0.13662368, 0.091239385, -0.08074605, 0.033724885, -0.22924428, -0.40270004, 0.26102257, -0.111012, 0.02005689, 0.37562183, -0.037470877, -0.04295847, -0.00034827885, 0.016730353, -0.028151572, 0.3420297, -0.1112004, 0.13683136, 0.38553435, 0.28125748, 0.10130045, 0.07957171, 0.038918585, 0.26021233, 0.15654741, -0.298579, -0.11415353, -0.092623904, -0.08470838, -0.16411637, -0.11378297, -0.016223725, -0.123075835, -0.04966166, 0.29724708, 0.31315315, 0.08819484, -0.02720976, 0.3247444, -0.046908516, 0.15460758, 0.21995349, 0.23452297, -0.06340803, 0.04365591, 0.019693108, 0.063519016, -0.15515639, 0.070105314, -0.03758459, -0.061485622, 0.26654643, -0.21515515, -0.07792643, 0.31507477, 0.0142322825, 0.20868514, -0.088994086, 0.18664974, 0.3219801, -0.10533974, -0.19637387, 0.18372108, -0.27026212, 0.19465992, 0.255092, 0.45182362, -0.09067442, -0.16064905, 0.10867657, -0.10856694, -0.06912691, -0.18675622, -0.18068653, -0.07642753, 0.14756988, -0.094898134, -0.3467458, 0.3696957, 0.095870435, -0.15323476, -0.026770987, 0.19231911, -0.09251124, -0.05339367, -0.13126643, -0.10242782, -0.18633047, -0.14777002, -0.23065875, -0.1959394, -0.03578296, -0.054154858, 0.14648083, 0.037322395, -0.058345906, -0.054644983, -0.00045706143, 0.19478928, 0.26968855, -0.13944255, -0.094315685, -0.07912596, 0.11752834, -0.11607337, -0.19820833, -0.074507646, -0.06257739, -0.0647541, 0.17691234, 0.10678513, 0.063133135, 0.00646289, -0.086095065, -0.22591195, -0.12603319, -0.07795989, 0.28759095, -0.016152464, 0.24917817, -0.020860821, -0.2125953, -0.12743114, -0.034219403, -0.13911706, 0.16598566, 0.3680753, -0.10767851, -0.20397443, 0.10242396, -0.14481328, 0.13455231, -0.02597574, 0.12237016, 0.08671167, 0.06356933, 0.16155152, -0.1007172, 0.09100444, 0.17670876, 0.2475901, 0.047512468, -0.115281634, -0.3833522, -0.2284483, -0.2523718, -0.26728216, -0.06781044, -0.30101222, -0.17242461, -0.07129581, -0.024050033, 0.21153137, 0.16563943, -0.037715998, 0.2641092, 0.082261615, -0.05534416, -0.0844236, -0.3839164, -0.23580691, -0.23134753, 0.05023723, -0.039403316, 0.20323822, -0.22482118, -0.005694595, 0.019300986, 0.16213854, -0.11948785, -0.014946899, -0.055503946, 0.004365198, 0.083716355, 0.18200828, -0.38925105, -0.11550179, 0.14164196, -0.0635864, -0.16286576, 0.065069385, -0.016423738, -0.08614463, -0.059418857, -0.020658344, 0.19384879, 0.06535791, -0.07976299, 0.17149019, 0.023653591, -0.08371354, -0.46385193, -0.09238768, 0.18819423, 0.021518102, 0.023420213, 0.0335093, 0.016980194, 0.17263202, 0.01984307, -0.4176803, 0.13560352, 0.194527, -0.11705901, -0.21264859, 0.1077367, 0.15735064, -0.2025399, -0.27457854, 0.3047428, 0.14328356, -0.01809307, 0.10398041, 0.09701186, 0.047176637, 0.15823928, -0.09656037, -0.014262973, 0.05722788, 0.019786468, 0.17427719, 0.011759496, 0.16410942, -0.05301581, 0.015151752, -0.08484886, -0.28463772, 0.27419883, -0.23303393, -0.16036755, 0.0893983, -0.13635068, -0.19121407, 0.02106929, -0.25084108, 0.26496735, 0.04359811, -0.097722255, 0.296103, -0.12275289, -0.15100366, -0.15734936, -0.13407135, -0.25629443, -0.36092377, 0.17756207, 0.37728035, 0.18105982, 0.21439041, 0.061865836, 0.26748642, -0.15197903, 0.2512619, -0.27597663, -0.08907511, -0.0045112194, 0.20884384, -0.051385924, -0.0494799, 0.25735497, -0.2897599, -0.13519408, 0.14053003, -0.12581164, -0.046557903, -0.15374929, 0.42070368, 0.11774411, -0.05992752, 0.13812274, -0.18039444, -0.1341769, -0.2563287, 0.044677936, 0.015094173, -0.09492478, 0.084602974, -0.48515737, 0.39179283, 0.1309561, -0.21105051, -0.07327143, 0.05478471, 0.24392746, -0.030330524, -0.21195264, -0.15202156, -0.16450037, -0.055431202, -0.16746041, 0.071011305, -0.4154345, -0.19833222, 0.19666506, 0.09226088, 0.053384926, 0.1887586, 0.14354931, -0.0052340003, 0.23220864, -0.25238934, -0.019036781, 0.13404042, -0.15116939, -0.20415129, 0.18357456, -0.02105734, -0.059036694, -0.2777377, 0.10769993, 0.14239645, 0.11933412, 0.036526527, 0.082724705, -0.0455514, 0.043487288, -0.39185396, 0.08166413, -0.24245694, -0.17771469, 0.042575467, -0.022954034, 0.041466147, 0.13321118, -0.23139244, 0.08335754, 0.12724905, 0.26958925, -0.29198593, 0.0369739, -0.001371905, 0.456221, -0.14733389, -0.14474258, 0.3037811, -0.2947909, -0.12774149, 0.18329237, 0.044921555, 0.33161107, 0.22104102, 0.21217702, 0.41238126, -0.052626126, 0.12785813, -0.2691399, -0.25991404, -0.19570217, 0.030133419, -0.03438307, -0.06718053, 0.014156438, -0.064482905, -0.03644376, 0.1528589, -0.20908654, 0.14949723, -0.05644745, 0.45455313, 0.099485464, -0.099772766, -0.11958741, -0.20826627, 0.09506889, -0.015182984, 0.19491163, -0.09910646, 0.16335464, -0.2649988, 0.19887054, -0.14509891, 0.029652238, 0.0028071494, -0.14708678, 0.037218206, 0.1353905, 0.03768249, 0.047713738, -0.008454758, 0.017234664, 0.14653663, -0.048781242, 0.05717921, 0.22045882, 0.039572448, -0.075767644, 0.15438117, -0.046392825, -0.08447614, -0.2527868, 0.13862343, 0.1706368, -0.2993881, 0.059322607, -0.04938627, 0.13496397, 0.06857629, 0.08821492, -0.1116122, 0.12290873, -0.1316231, -0.11246517, -0.098268054, 0.16742748, -0.024266845, 0.110074066, -0.08131382, 0.12820472, -0.16297966, -0.094005644, 0.20088248, 0.06348664, -0.017863434, 0.0014253024, -0.14898221, -0.25112683, -0.056768227, 0.21935984, -0.036050666, 0.13506916, -0.426566, -0.12521636, -0.1370121, -0.25682527, 0.1070374, -0.37144133, 0.18681109, 0.040844597, -0.038396508, 0.038035683, 0.25951883, -0.106935546, 0.02633529, 0.2726343, -0.09056517, 0.22711262, 0.09140056, 0.04152697, 0.0070158355, -0.10701687, 0.23624638, 0.15285149, 0.057705656, -0.11537761, 0.38084164, -0.11337063, -0.040914282, -0.20416696, -0.22755426, -0.19440593, 0.06950189, 0.16732939, -0.34403932, 0.23942441, 0.3285966, -0.03560688, -0.08679167, 0.054102816, -0.0097348895, 0.090883285, 0.044574667, 0.06846704, -0.044221178, -0.10565777, 0.0042390507, 0.18334939, 0.1513664, -0.17273504, 0.0037126704, 0.15323362, -0.109335296, -0.12780862, 0.06122956, -0.19700243, 0.027062446, -0.17456453, -0.31794453, -0.025212644, 0.1976804, -0.16728455, 0.09636971, -0.27772814, 0.09054159, 0.0561055, -0.37737766, 0.16571556, 0.2804744, -0.28419456, 0.09586272, -0.2640265, -0.31583127, -0.18497862, 0.053767484, 0.06734813, 0.39517364, 0.017599065, -0.028359562, 0.0029417437, -0.14998846, -0.019154897, -0.0688383, -0.13970208, 0.05699854, 0.020178434, -0.024251398, -0.13365589, -0.25525278, 0.01003902, 0.043023143, -0.13607496, 0.28731847, 0.27734068, 0.034771226, 0.24220788, -0.14285642, -0.02416574, 0.21968831, 0.22946343, -0.116283506, -0.08449898, 0.045101993, 0.14799936, 0.040473986, -0.058843844, -0.11270321, 0.14136729, 0.16331597, -0.14472343, 0.10125153, 0.38738292, 0.03641291, 0.054413848, 0.022172185, 0.1424229, 0.18730816, -0.038156047, -0.16328341, 0.19437882, -0.3802461, 0.066795416, 0.046767667, 0.2100743, 0.03339903, 0.033015188, -0.2973471, 0.12185168, 0.20917097, -0.15313575, 0.2075738, 0.056883924, -0.19487092, 0.1946991, -0.109192066, 0.024021696, -0.0991557, 0.1771973, 0.08502328, -0.10774104, -0.17895344, 0.24994035, -0.10573898, -0.40378225, 0.16380224, -0.3148397, 0.2662017, -0.06626764, -0.23963736, -0.1025251, -0.06862728, 0.0443704, -0.09758292, 0.112082176, 0.24668105, -0.18551102, 0.31070814, -0.15637448, -0.074182585, 0.31087628, -0.12910126, -0.26618063, 0.2174897, -0.19211586, 0.09311115, 0.043356415, -0.06880336, 0.25322837, 0.43856192, -0.06357723, 0.041158885, -0.33058092, -0.14133647, 0.10917267, -0.1451438, 0.0746435, 0.0040040575, 0.017322253, -0.06497617, 0.18857823, -0.23792358, 0.13275735, 0.15099505, -0.12530644, -0.08811255, -0.021159759, 0.05199813, 0.084597535, -0.112933226, 0.3598528, 0.141372, -0.42054707, 0.24884842, 0.40162888, -0.12788655, 0.013874243, -0.27811018, -0.096682966, 0.19036861, -0.19846098, -0.2308279, 0.15805103, 0.06820197, 0.19811203, -0.04275819, -0.081445985, -0.047859922, 0.23189902, 0.11439655, -0.38030595, 0.33779144, 0.17330402, -0.051015865, -0.07627382, 0.24673353, -0.10160332, 0.16658188, -0.13631688, 0.016343415, 0.16743532, -0.26521865, -0.076334566, -0.07093078, -0.027025418, -0.074502714, 0.32331333, 0.26217967, 0.059475925, -0.021986943, 0.14307278, 0.23507841, 0.11060119, -0.21403155, -0.15766387, -0.11083201, 0.17902257, -0.313298, -0.07819354, -0.09621565, -0.031493295, -0.2623601, 0.1768806, 0.21771361, 0.13947655, -0.001785799, 0.17095177, -0.13932885, -0.15677667, -0.20960857, -0.13782327, -0.28155562, 0.22721349, -0.0025960794, 0.07906492, 0.23841216, -0.3172668, 0.13876598, 0.10710253, 0.0012476223, 0.030278187, 0.056374207, -0.058972914, 0.113818645, -0.19108945, 0.32442313, -0.028473422, -0.26801914, 0.19843237, 0.4211045, -0.19050474, -0.02862729, -0.26253563, 0.019501785, 0.12133398, -0.20307416, -0.23314725, -0.21427724, -0.2965939, -0.15178573, -0.23037402, -0.1037881, 0.023656234, -0.03462169, 0.07070358, -0.18626438, 0.3822765, -0.089017995, -0.036199037, 0.24946159, 0.1264731, -0.072186306, -0.15769103, -0.2727579, -0.29229036, -0.14491762, -0.20505899, 0.1847342, -0.0808649, -0.46217144, -0.071665905, 0.08066116, -0.04163973, 0.19965182, 0.002973876, 0.30103436, 0.021825766, 0.00038205483, 0.051576953, -0.033947345, 0.4523582, -0.15525569, -0.16372412, -0.029315617, 0.091227144, -0.20580333, -0.3023538, -0.068808295, 0.16850045, 0.16899388, -0.051595338, 0.40513405, 0.16415833, 0.10927396, -0.17747708, -0.166091, 0.24223338, 0.25011376, -0.070804104, 0.011794618, 0.15655737, 0.008307817, 0.05602785, -0.23978823, -0.0118765505, 0.14019723, -0.005466427, -0.21177176, 0.0900681, 0.002564663, -0.004787794, -0.43130887, -0.044298075, 0.38906485, 0.24490872, -0.042477667, 0.13039355, -0.043647315, -0.06080437, 0.007879491, 0.36782068, -0.039846767, 0.26452446, 0.2025636, 0.30327785, -0.13416848, 0.051190343, -0.036195453, -0.18249781, 0.18829066, -0.17338964, 0.09887038, 0.023621896, 0.20214851, -0.33332455, -0.24103262, 0.021685442, 0.40461653, 0.029621957, -0.081555635, 0.21307133, -0.16686162, -0.16675709, 0.016308667, 0.06987814, 0.04681351, -0.30443713, -0.13590603, -0.18097065, -0.04125516, -0.13910475, -0.36331096, 0.010951053, 0.15110977, 0.056371488, -0.12595564, -0.1676921, 0.27786604, 0.1883553, -0.13044469, 0.11330284, 0.29898977, -0.27577257, -0.005745581, 0.0019310246, -0.009003905, -0.23703958, -0.059935838, -0.065174125, 0.010253347, 0.15921706, -0.20122811, 0.045160238, -0.14563932, -0.018631004, -0.15600894, -0.28496662, -0.15805188, 0.17733541, 0.36481997, 0.04919833, -0.10805541, 0.22675827, 0.15353805, 0.050298203, 0.10966896, -0.018649606, -0.024952594, 0.02141884, 0.084630564, 0.14700556, -0.2334912, 0.24179825, 0.3095584, -0.29100263, -0.07230443, -0.14550245, 0.122182995, -0.038384072, -0.00023785666, 0.057527464, -0.10435251, 0.012136958, -0.09261437, 0.17375392, 0.30647597, -0.16266982, 0.058307316, 0.15797593, -0.091417074, 0.05315742, -0.07892305, -0.14620514, 0.26172736, 0.12817542, 0.0799407, 0.2807237, 0.032244463, 0.089574054, 0.12012021, -0.00055522396, 0.0048982925, -0.052342486, -0.08055092, -0.11888777, -0.09947766, 0.03333007, 0.034358304, 0.18808895, 0.13763307, -0.2104674, -0.079350695, 0.1500976, -0.13266689, 0.20329788, -0.077305585, 0.11967671, 0.116341025, -0.19775806, -0.04671156, -0.017472804, -0.054752953, 0.07385283, 0.15481009, -0.060252033, 0.17515862, 0.023327924, 0.016869511, -0.28888434, -0.10057972, 0.008188089, -0.13265605, 0.020125754, -0.052310817, 0.12369185, -0.009014225, -0.0066581713, 0.111268595, -0.038119502, 0.11528354, 0.15802383, 0.19438654, -0.1056353, -0.10502117, -0.08320235, -0.16689667, 0.042384665, -0.029391693, 0.21837477, 0.0038687617, 0.27506688, -0.17370395, 0.26248148, -0.27445427, -0.088854745, -0.17165416, -0.12858991, -0.1158375, 0.20900442, 0.24089296, -0.16711225, -0.09687329, 0.02347645, -0.20681217, 0.050307106, 0.104995854, 0.32910585, -0.06678712, 0.08890689, 0.10730571, -0.20830777, 0.21600892, -0.023883518, 0.44107237, -0.0036026684, -0.2574462, 0.18194427, -0.20180908, 0.1894018, 0.13129066, 0.00079847116, 0.00018151893, 0.09174301, -0.22146046, 0.12182776, -0.1038772, -0.06113831, 0.042667586, 0.3928032, -0.007259087, 0.09854802, -0.5224109, -0.091008514, 0.21215299, 0.092830226, 0.3063369, -0.1789292, 0.18209161, -0.16374551, 0.23952457, 0.018382668, -0.1970884, -0.4685338, -0.21155728, -0.22370885, -0.1458203, 0.02022449, 0.011548606, 0.068244606, 0.071319066, 0.05840971, -0.1423486, 0.3312426, 0.07649711, 0.18099153, 0.14276782, 0.27671507, -0.13941073, -0.19312957, -0.07387169, 0.016049135, -0.25542197, 0.25901946, 0.12884986, 0.0063036573, 0.0338665, 0.1063799, 0.06973129, -0.043299016, -0.10001801, -0.03731312, 0.0821829, 0.016172199, 0.07382559, 0.1244608, -0.08802933, 0.1341903, 0.066805765, -0.20466964, 0.22746049, -0.02426818, 0.06880117, 0.08237123, 0.014720643, 0.042849652, -0.042770833, 0.07734605, 0.11142176, 0.3591969, -0.018229274, -0.0018502988, 0.14497398, -0.023851557, 0.2379927, 0.11849559, 0.0699866, -0.03055045, -0.063789725, -0.21460816, -0.001672714, 0.18983357, 0.059586752, 0.031977247, 0.36726695, -0.3372784, -0.23493956, -0.29743317, -0.13221703, 0.18303636, -0.012162122, 0.15341537, 0.21765187, 0.16018689, -0.354277, -0.23551859, -0.113066226, -0.25826988, -0.08215837, -0.08830916, -0.14069067, -0.013364335, 0.09490277, 0.15506393, -0.014314823, -0.012744989, 0.015536996, 0.16723184, -0.27553448, -0.0046150577, 0.12099148, -0.019391906, -0.27928144, 0.16586128, -0.51193446, -0.1266422, 0.10128175, -0.19145526, -0.07183642, 0.005858541, -0.08894881, 0.08176425, 0.32622322, 0.32138133, 0.3949495, -0.0020850962, 0.07881563, 0.047659323, -0.15564644, 0.056165475, -0.056400016, -0.066039056, -0.2231136, 0.036520965, -0.22695458, -0.2666736, 0.034907244, -0.042254295, 0.069750704, 0.31428066, 0.2776873, 0.0025453314, 0.32991722, -0.11327645, 0.21622454, -0.28205162, 0.061626915, -0.21513171, 0.26185313, -0.093540564, 0.13414526, -0.1834651, -0.030872349, 0.016507559, 0.09854293, 0.31480885, -0.022094944, 0.096144386, -0.028320108, -0.1332877, 0.18784954, 0.03556264, -0.048241153, 0.46451348, -0.21398471, -0.12226292, 0.111887395, -0.23657429, 0.056830242, 0.22590403, 0.075685635, -0.056235727, -0.27791166, -0.31675228, -0.25217965, -0.11135328, 0.029647954, -0.13414176, -0.02726955, 0.22438298, 0.049938656, 0.047718823, -0.02720204, 0.18762222, 0.05775787, 0.11012269, 0.07388555, 0.06341184, -0.17546995, -0.35485905, -0.19868417, -0.019209221, -0.36940306, 0.016348634, -0.13667461, -0.05692481, 0.1583853, -0.33452377, 0.20077969, -0.40429246, -0.21789733, -0.08285387, -0.13507429, 0.12323579, 0.15776782, -0.038932975, 0.083870865, -0.04665915, 0.02086155, -0.12331676, 0.12823133, 0.14356624, 0.43359134, -0.17531012, -0.27741125, -0.06926881, -0.24011429, 0.12951198, -0.4055328, 0.19785994, -0.26436213, 0.16193263, 0.0048049283, -0.068480514, -0.12731265, 0.15113807, 0.28122663, 0.19893214, 0.090641476, 0.06136476, 0.25836533, 0.1612676, -0.26867172, 0.072330594, -0.11884554, 0.28565466, -0.0025669097, 0.26713428, 0.34471717, -0.08365174, -0.032584827, 0.08220284, -0.16278517, 0.09745143, 0.40696946, -0.037042093, 0.061968174, 0.08123729, 0.09970789, -0.110177614, -0.04227853, -0.0853553, 0.02986974, 0.051613115, 0.044499315, -0.12789288, -0.08929192, -0.03000958, -0.16487212, 0.01833062, -0.078585714, -0.008618501, 0.0016844677, -0.044330727, 0.22429396, 0.21366031, -0.051560346, 0.2419192, -0.12314204, 0.022012811, 0.05566366, 0.16921286, -0.050415814, 0.21720327, -0.04453389, 0.06831328, -0.08164454, -0.059952095, -0.18261985, -0.0017515875, 0.21101724, -0.0779853, 0.0405218, 0.05992137, 0.06370783, -0.050666437, 0.23292422, -0.021956397, -0.13207452, 0.11535604, 0.10877969, 0.026101781, -0.16633905, -0.10354989, 0.107408695, -0.16101395, 0.14341906, -0.005087487, -0.13437352, -0.09325319, 0.19960533, -0.03355765, 0.04717927, 0.15398936, -0.24125342, 0.12141837, 0.36263147, -0.033100832, -0.28445622, 0.31568906, 0.053720597, -0.32313076, 0.09666142, 0.2677588, -0.15636383, -0.26832858, 0.22263332, -0.31622016, -0.092468075, -0.045229018, 0.21793471, -0.17068364, -0.17225285, -0.1529679, -0.30829677, -0.18543944, -0.1999197, -0.046147604, 0.05730743, 0.17594358, -0.16032293, -0.083782315, 0.32165784, -0.16104075, -0.18821548, 0.14044541, 0.047428664, -0.0832577, 0.035801765, -0.37052593, -0.22408438, -0.25665557, -0.15407355, -0.076267146, -0.05307908, 0.049142636, 0.3342283, -0.32354897, 0.28649837, 0.00764529, 0.21949151, -0.21353531, -0.10841151, -0.23873481, -0.06497622, 0.031365145, 0.018966423, 0.41653773, -0.050565906, 0.24532832, -0.2206869, -0.31452078, -0.071085155, 0.15253851, -0.14574431, -0.15775573, 0.13300154, -0.014854292, -0.28262922, -0.079848364, -0.14260903, 0.22121754, -0.29279506, 0.24933024, -0.07618451, -0.0703182, -0.043446068, 0.18018933, -0.056287337, 0.15931515, -0.036961682, -0.21603113, 0.27985004, -0.20262489, -0.4322363, 0.10416129, 0.016927898, -0.05945663, 0.4563084, -0.33113906, -0.18123923, -0.121862605, -0.06189186, -0.29181543, 0.09248092, 0.3185721, -0.10383933, 0.022436608, 0.1276875, 0.011373126, 0.13502221, -0.019808417, 0.12924412, 0.16359553, -0.0128487395, -0.45455334, -0.10492925, 0.20622301, -0.15677592, -0.17368478, -0.0817834, 0.00860821, -0.05582848, -0.010303941, -0.082313895, -0.05619089, -0.25076824, -0.008264167, -0.44932628, -0.3609177, -0.06585597, 0.19722189, 0.050201274, 0.30551326, 0.23513578, 0.19990893, 0.14917362, 0.07855855, 0.07390368, 0.06344753, -0.07402014, 0.043153606, -0.36696988, -0.096524656, -0.12328319, -0.16592923, 0.0040115775, 0.21573226, 0.2064729, 0.10596481, -0.0027478118, 0.08894391, 0.16113454, -0.25553164, -0.012020489, 0.36569503, 0.0702705, 0.1530273, -0.2101262, 0.083960995, -0.19134966, -0.3068806, -0.13112058, -0.4052962, -0.07914555, 0.13839696, -0.22863162, -0.046569984, 0.32319292, 0.13120246, 0.040981762, -0.110787556, -0.04913816, -0.27331498, 0.1399355, -0.17647158, 0.08726134, -0.07858327, 0.41734114, 0.08621379, -0.057048682, 0.20561397, -0.32975283, 0.18852511, -0.09168423, 0.08227502, -0.08802641, 0.10783409, -0.015338144, 0.14757061, -0.1356879, -0.10853845, 0.06848362, -0.067993246, -0.025415823, -0.1533114, -0.026179498, 0.18759413, 0.19428515, -0.15713301, -0.026966216, 0.15966152, -0.05687464, -0.3955014, -0.17283605, -0.11533486, -0.15008809, 0.22175182, -0.048756283, 0.27215925, 0.10959544, 0.13891594, 0.090512834, -0.029072732, -0.050750002, -0.22123103, 0.16333336, -0.17603427, -0.18933116, 0.11962853, -0.15414369, -0.13592686, -0.09600122, -0.061843947, 0.2755959, 0.02860045, -0.036648788, 0.36653587, 0.009312588, -0.24263436, -0.17526644, 0.31867418, 0.04784304, 0.08668281, -0.16925524, -0.1485306, -0.056439452, 0.08410222, 0.12749483, 0.05937411, 0.19719638, -0.014638266, -0.19648384, 0.10272883, -0.18507591, 0.25154072, 0.08182486, 0.33552298, 0.14925717, -0.009662362, 0.045463555, -0.029667357, 0.04308478, 0.23782825, 0.44272742, -0.1907348, 0.23088351, 0.054955274, 0.126161, -0.083323054, 0.166762, 0.11467316, 0.07602975, 0.068294674, 0.04587388, 0.005864444, 0.1071389, -0.14612585, -0.09583143, -0.048431274, -0.04434109, -0.1253627, 0.16446747, 0.098344624, 0.089727335, 0.19569397, 0.033415437, 0.118336596, -0.089629024, 0.09714994, -0.07702288, -0.0021138715, 0.006779438, -0.035321396, -0.06540846, 0.11481705, 0.026346445, -0.09112138, -0.01840499, 0.098925464, 0.20361488, -0.16318734, -0.007941021, 0.07968866, 0.19148752, 0.16746981, 0.002067645, -0.12672415, -0.01810441, -0.0653222, 0.0018609014, 0.15950376, -0.2119644, 0.17140695, 0.14478616, 0.17287916, 0.040428814, -0.049252693, 0.29994377, 0.2150529, -0.09288032, -0.056844708, 0.13671167, -0.091561474, 0.27004313, -0.19036257, -0.16368888, 0.09400451, 0.08370898, -0.25317574, -0.101420686, 0.09996308, 0.27199483, 0.054661572, 0.066368066, 0.039262768, -0.20101817, 0.13908155, -0.09511191, 0.04346078, -0.11139017, 0.18535893, 0.19649322, 0.13839689, 0.104258925, 0.14276299, 0.14724655, 0.01939191, 0.20338662, -0.060788833, -0.17187898, 0.03728133, -0.057343755, -0.092332825, -0.074739814, -0.25504842, -0.0028119693, 0.19374639, 0.024666527, 0.39191014, 0.14569756, 0.0075661577, 0.21522114, -0.24992876, -0.15340242, -0.29430443, 0.18290234, -0.08164976, -0.008431826, 0.16607521, 0.24335234, 0.056992125, 0.0054913983, -0.038537253, 0.17913617, 0.40098742, 0.039219562, -0.36893833, 0.19481893, 0.10088742, 0.08032542, -0.17007798, 0.07317279, 0.27523932, -0.07016379, -0.04617193, 0.3154294, -0.36141533, 0.13607687, 0.19968353, -0.3699918, 0.23150587, 0.038829163, -0.13553691, -0.105114974, -0.018274989, -0.024013085, 0.19068931, 0.15441415, -0.09525874, 0.35314932, 0.09307442, -0.27867788, 0.021916866, 0.112652056, 0.2595401, -0.24129683, 0.013573501, 0.3740845, 0.0031100467, -0.20868075, 0.085728034, -0.13283709, 0.29505113, 0.34423304, 0.30872747, -0.033937324, 0.3391095, -0.19440371, -0.027641812, -0.25421488, 0.05820839, 0.27638224, -0.07949271, 0.13290617, -0.11643006, -0.06837843, -0.20676659, -0.008929826, -0.3674696, 0.14893818, 0.035538927, 0.17531972, -0.11172929, 0.06370296, 0.0820834, -0.29188383, 0.15506506, 0.18635269, 0.0286899, -0.2097992, 0.12313126, 0.06624391, 0.14362378, 0.17824265, 0.11254796, 0.056235608, 0.11657687, 0.07396232, 0.05078273, 0.06297475, 0.11382774, -0.071687505, 0.01852238, 0.019171685, -0.10472679, -0.2448503, 0.027449321, 0.33608896, -0.09953544, -0.026153468, 0.11538594, -0.09354503, 0.019801725, 0.15236388, -0.4007551, -0.21527985, 0.10756963, 0.055627484, 0.26737073, 0.2024842, 0.1663653, 0.095508285, -0.055346273, -0.1640185, -0.116247855, 0.15984231, -0.12679552, -0.23463644, -0.05362226, -0.04033175, -0.21902046, -0.10694141, -0.060486868, 0.14354955, 0.11602226, 0.016379455, 0.23460612, -0.046404306, -0.077150516, 0.11826821, -0.10108949, -0.04913415, -0.06692901, -0.4483754, -0.2975792, -0.10132457, 0.020437669, -0.1551007, -0.12531376, 0.01566564, -0.21882728, 0.30811766, -0.038526267, -0.28059345, 0.36080876, 0.109918654, -0.1711331, -0.044929024, -0.24186562, -0.09160992, -0.1574088, 0.050329488, 0.18622567, 0.32869285, 0.020386472, 0.31586128, -0.011069845, 0.61150897, -0.14382342, -0.087266594, -0.056798015, -0.09191287, -0.078141496, -0.1670986, 0.031913918, -0.19605225, 0.23622543, -0.25534546, -0.22307038, -0.19694644, -0.09702392, 0.04699529, 0.14419007, 0.14743361, -0.073274575, 0.004587608, 0.24904221, -0.26401922, 0.11987681, -0.037181303, -0.018013403, 0.25887087, 0.24274817, 0.4732171, 0.31383094, 0.102980696, 0.06305042, 0.18541853, -0.10861019, -0.09021347, -0.15957724, -0.043599173, 0.11753792, -0.119475454, -0.16829905, 0.15038013, -0.16079994, 0.29483297, 0.35848176, 0.22063437, 0.20937058, -0.08144123, -0.074786834, 0.1083872, 0.4807057, 0.064166754, 0.15873978, -0.29563606, 0.13613449, 0.035185933, -0.16968542, 0.0073521244, 0.14232449, 0.14698103, 0.17502964, -0.13073456, -0.25934345, 0.3316932, 0.19172646, 0.08157005, 0.003964274, 0.26263672, -0.1146638, 0.16279751, -0.16123828, 0.15896451, -0.2882033, 0.27224803, 0.0038478957, -0.20597486, -0.18139477, -0.028740153, -0.26012993, -0.1295845, -0.081618525, -0.084828824, 0.15589948, 0.20743015, -0.21483065, 0.20311193, 0.0987688, -0.054315366, 0.0738695, 0.109554455, 0.24201119, -0.0747996, -0.19552802, 0.34058872, -0.34131208, -0.2249291, 0.033418186, -0.31864104, 0.1787074, 0.032949507, -0.10083648, 0.100512125, 0.19158001, 0.18062952, 0.28735092, 0.30045155, 0.106236555, 0.24000598, 0.15067853, -0.070321634, 0.064038984, -0.037816603, -0.078080535, -0.031334877, 0.0937936, -0.106229655, -0.016138954, -0.25082165, 0.2951011, 0.010854642, 0.057439882, 0.25704738, -0.20167969, -0.3197908, -0.027798608, -0.009431423, 0.18647279, -0.026689814, 0.1683576, -0.31419733, -0.26027656, -0.24213822, -0.080116555, -0.0877602, -0.20042627, 0.41810998, -0.28080878, 0.15075274, 0.114624746, -0.21986146, 0.16017254, -0.039769627, 0.064151645, -0.07413113, -0.048124302, 0.046154547, -0.23692678, 0.091669224, 0.013255828, 0.1916466, 0.18340693, 0.37727702, 0.026542226, 0.10406168, -0.08874764, 0.14016631, -0.17897063, 0.18944046, 0.2305015, 0.1359271, 0.049678825, -0.3157726, -0.12739725, 0.12248353, -0.27293143, 0.053235296, -0.0034983545, 0.27017733, 0.44167385, -0.16192847, -0.17334855, -0.024535261, -0.21820727, -0.19383588, 0.02583332, 0.26855016, -0.23608054, -0.15259908, -0.26849678, -0.034665853, -0.26958403, -0.1261939, 0.044345837, -0.18553881, 0.07931137, -0.117198035, -0.023673212, 0.12529577, 0.109702826, -0.1054824, 0.19034639, 0.08793039, 0.07568044, -0.33092558, -0.09996733, -0.07081017, -0.16357239, -0.1792057, 0.15524372, -0.12326146

};

float fc2_b[256] = {
	0.03011573, 0.020517763, -0.0005178475, 0.059717543, -0.06583141, -0.011930921, 0.04657657, -0.00044210727, -0.021675808, -0.00829701, 0.0062322705, 0.07045975, 0.044790164, -0.040335387, -0.041788083, 0.029638242, -0.035966832, 0.11276894, -0.024918357, -0.07135951, -0.042855904, -0.023014609, 0.03724988, 0.089135505, 0.032898866, 0.05076081, -0.015910568, 0.024546543, -0.12091211, 0.05922362, -0.0370591, 0.0014418638, -0.031301238, -0.08730432, 0.09169795, 0.028164664, 0.005632503, -0.116608165, -0.0074964385, 0.08336949, 0.055651076, 0.037539084, 0.030241894, -0.06349509, 0.032510202, -0.052025616, 0.011511498, -0.023106888, 0.1142504, -0.09846729, -0.0039110365, 0.025031107, 0.091227345, 0.034402087, 0.04245894, 0.03313182, 0.011592969, 0.043946154, -0.016178478, 0.008056472, -0.08818473, 0.0014374105, -0.059934806, 0.08369753, 0.072333194, -0.11874943, 0.07029419, 0.023429334, 0.05215835, -0.10826883, 0.063883446, -0.021391815, -0.035203967, -0.035242766, 0.024519287, 0.034403928, 0.04215447, -0.0065668244, -0.06579354, -0.0016832825, -0.007612715, -0.013803997, -0.036308233, 0.01989438, -0.09090252, 0.098770164, 0.014096393, 0.074058905, 0.032390673, -0.026505614, -0.054023005, -0.020910747, 0.012322307, 0.03804131, 0.07563161, 0.09620968, -0.02302089, 0.0064172214, -0.029891657, -0.034544457, 0.048802614, 0.030910486, 0.04649647, 0.011724885, -0.041352693, 0.029204026, -0.037242588, 0.005225701, -0.055173658, 0.03845253, -0.030248936, 0.03667608, -0.019963136, -0.035003792, -0.008631424, -0.051400837, 0.07542216, 0.010609558, -0.09079559, -0.022489445, -0.0068015875, -0.06646298, 0.0037930121, 0.07339367, 0.007832095, -0.07049069, -0.025664628, -0.053480715, 0.06452068, -0.032938655, -0.015616063, -0.088454574, -0.014322448, 0.13186257, 0.0882696, -0.036423914, -0.041903693, 0.05202984, 0.077842884, 0.07616241, 0.1037315, 0.021081755, 0.025578065, 0.0027848673, 0.0023473229, 0.014977275, 0.026985714, -0.04406077, 0.071198076, 0.029115513, 0.0072069536, 0.04314114, 0.022286423, 0.030137932, -0.059012834, 0.008847796, -0.09744681, -0.05972532, -0.025312759, 0.009600485, -0.04310366, 0.05551804, -0.07752981, -0.03120494, 0.069158755, -0.029105788, 0.043947004, 0.10697976, -0.020021081, 0.058139764, -0.031228986, 0.012129159, 0.007847637, 0.0649095, -0.0555634, -0.066964194, 0.08401131, 0.022695838, -0.00092819217, -0.04553693, 0.009973139, 0.06281597, -0.010227446, 0.023863385, -0.004509548, -0.038005047, -0.018920507, -0.055196054, -0.0152378045, -0.0061538704, -0.019883875, 0.044506267, -0.035202485, -0.054565426, 0.036577724, -0.05270654, 0.052700367, -0.013027467, -0.035486557, 0.017108496, -0.0042995256, -0.042844854, 0.06511875, 0.073291056, -0.006328713, 0.059925094, 0.055608023, 0.0017420674, 0.023181062, -0.07978367, 0.009417194, 0.051090237, -0.011899724, 0.043323465, 0.026284067, 0.03130448, 0.078718215, 0.07821478, 0.04470393, -0.074685976, -0.021834796, 0.0042349747, 0.03812284, 0.023745291, -0.044917393, 0.016716797, -0.005329605, 0.03950066, -0.08549126, 0.0329284, -0.103484064, 0.008608419, -0.06267265, -0.06764164, 0.054085482, -0.070405975, -0.04833688, 0.03227035, -0.058523137, 0.055430066, 0.0023659861, -0.07233351, 0.018829836, -0.003291701, 0.018972723, -0.0647157, -0.04782458, 0.077336214, -0.07101532, 0.038293142, 0.025320891, 0.037008256, -0.044936955, 0.015799081, -0.041994583, 0.069671266

};


#endif
