#ifndef FC4_H
#define FC4_H
// Header file of the 11-th layer of the model - The type of the layer is fc


float fc4_w[10][64] = {
	0.32890546, 0.14491816, -0.08678019, -0.09660713, -0.08027648, 0.006032796, 0.22979318, 0.22530715, -0.18060595, 0.25320238, -0.18554741, 0.22313216, 0.08553203, 0.14680445, -0.25353038, 0.17859206, 0.08603835, 0.0632595, -0.086096525, 0.16512874, 0.12368644, 0.22946762, -0.30751517, -0.2601859, 0.052103948, -0.32474166, -0.18884088, -0.22930816, 0.19974366, -0.0018923009, -0.16315043, 0.070766136, 0.2529403, 0.20537525, 0.14128178, -0.1208807, -0.11093564, -0.2633148, -0.034475215, -0.19792135, 0.005998126, -0.24350806, 0.047441304, 0.1458988, -0.23526774, 0.25444588, 0.18418337, 0.076131694, 0.06321973, -0.16343684, 0.102445446, 0.1478285, -0.042022806, 0.12732202, 0.23955119, -0.111381866, -0.1295276, -0.17100666, -0.0022303406, 0.14539845, 0.16689299, 0.24506706, -0.2941192, -0.10122098, 0.019928487, -0.29583508, 0.25736588, 0.20941333, 0.16244912, -0.3005535, -0.013105333, -0.24578822, -0.2559654, 0.011933599, -0.31363082, 0.27438572, -0.33768162, 0.2355999, -0.043203846, 0.2510093, 0.30105373, -0.0865933, 0.2858005, 0.1188171, 0.32202902, 0.16623092, 0.14508972, -0.23930217, 0.2398797, 0.06462619, -0.08923028, 0.2540146, -0.24532881, -0.17947562, 0.3453684, 0.2083085, -0.12093954, 0.16685192, 0.05301217, 0.018598856, 0.12807254, 0.17477416, 0.035476163, -0.07359859, 0.21402287, 0.15445204, -0.12622201, -0.28578988, 0.113078065, -0.21681458, -0.21184927, 0.11284598, -0.28900483, 0.03743554, -0.1267758, -0.018919077, 0.27168447, 0.12734795, -0.069714315, -0.2349705, -0.31349543, 0.083147675, 0.32127014, -0.17477596, 0.078446954, 0.19586565, -0.07888111, 0.19281706, -0.37821245, 0.16477887, 0.002873261, -0.029592788, 0.08308269, -0.14159644, -0.14666805, -0.064588234, 0.22373044, 0.1175428, 0.33014455, 0.024056634, -0.20803715, 0.22793463, 0.112583466, 0.0072291195, 0.15638466, -0.17770262, -0.23293003, 0.044161346, 0.09054638, -0.3224873, 0.21753888, 0.02900787, -0.091342844, -0.13557683, 0.088764325, -0.12755133, 0.201678, 0.165631, -0.057602152, -0.27224407, 0.13790272, 0.19512044, -0.041779086, 0.18293883, -0.23942365, -0.2408812, -0.02553036, -0.20039386, -0.25308785, -0.1906388, -0.07536185, 0.038764965, 0.022132661, 0.26390448, -0.2380869, 0.016133202, 0.16593619, -0.11695448, -0.26615238, 0.06642144, -0.0013631238, 0.0965172, 0.05496145, 0.13385507, 0.15299743, -0.111063, -0.076946676, 0.3073152, -0.17501333, -0.09847684, -0.19665945, -0.18618132, 0.03302383, 0.13698107, -0.1360827, -0.03018212, -0.21516193, 0.122129254, -0.2821525, 0.072456494, -0.15893988, -0.15596758, 0.23357591, -0.13140857, -0.06376066, -0.018411435, -0.12761877, 0.17561227, -0.22437915, -0.063202485, -0.11700732, -0.08090006, -0.24733561, -0.035510387, 0.096289895, 0.08633172, 0.17328379, 0.16654103, 0.09321554, -0.032322578, -0.010710838, 0.1281385, -0.14990535, -0.19167016, -0.058806427, -0.09013058, -0.20715995, 0.05443796, -0.12535419, -0.04179303, 0.26301017, 0.04802149, 0.28113747, 0.1948527, -0.20362249, 0.14295721, -0.10703569, -0.11344486, 0.15727976, -0.28524733, 0.09400726, -0.24067652, 0.18045573, -0.09745176, 0.1560338, -0.17155948, -0.11271537, 0.1893927, 0.09476069, 0.15017574, 0.22938001, -0.07495272, -0.23946323, -0.17151774, 0.23750035, -0.15315405, 0.15239666, 0.03151446, -0.0010455424, -0.06281621, 0.31957293, -0.09576044, 0.14184804, -0.13921171, 0.10876555, -0.23589648, 0.0693223, -0.19461294, 0.1680952, -0.062395502, 0.29861522, -0.36898106, -0.25183767, -0.080416575, -0.22595122, 0.3213187, 0.3030754, 0.13426293, -0.17954361, 0.19735824, -0.049266003, 0.19832745, 0.22287638, -0.11913808, -0.06582257, 0.23039699, -0.22808921, 0.27805373, -0.22210053, -0.28303334, -0.15176572, 0.09780621, 0.18428867, -0.22499752, -0.101912506, 0.22359991, 0.04914606, -0.22849715, 0.19985828, 0.17379838, 0.049292047, 0.23950623, 0.0375636, -0.19221695, 0.15470944, 0.03885385, -0.18080567, 0.035969574, 0.14225276, -0.20150916, 0.14142402, 0.10432883, -0.103990935, -0.20288652, 0.11494572, 0.17557356, 0.005040864, -0.19163698, 0.34375334, -0.23127778, -0.14744629, -0.085415676, -0.17771216, 0.18355206, -0.1684849, 0.22578569, -0.17964649, -0.007855856, 0.06334271, -0.28448808, -0.1298452, -0.1220189, 0.045369096, -0.2960823, 0.26285097, 0.1772694, 0.09381996, 0.020076595, 0.23604016, -0.08962001, -0.053555522, -0.10157346, 0.16068928, 0.21208553, 0.14314076, 0.2061597, 0.031714845, 0.20340842, 0.30741915, 0.26157546, -0.015834145, -0.19272496, -0.11154872, 0.11603531, 0.15784633, 0.088929914, -0.12007345, 0.2006949, 0.04325072, 0.047530193, 0.2143712, 0.15863855, -0.025623903, 0.12283, 0.09500573, 0.14784124, 0.059987217, -0.15526132, 0.22834131, -0.23521507, 0.33745492, 0.060399592, -0.08535088, -0.29343063, -0.23323378, 0.0010138822, -0.04055944, 0.1732142, -0.2072908, 0.21582381, 0.11434613, -0.2137098, -0.074093565, -0.23425624, 0.13017409, -0.28629127, 0.21498954, 0.2662624, -0.028130105, 0.25225836, -0.24300608, 0.20361823, 0.12083562, -0.15749711, -0.024669752, 0.037114628, -0.22233324, -0.23977917, 0.032832313, 0.0035054993, 0.06967627, -0.23641038, -0.11085965, 0.31240487, -0.22105299, -0.10409236, -0.35978833, 0.15872583, -0.2502346, -0.315479, 0.22078373, 0.25896537, -0.07380976, 0.26865453, 0.20083123, -0.09334935, -0.24689372, -0.24962692, 0.037050676, 0.26760653, 0.3647946, -0.06532571, -0.02395525, 0.25336835, -0.26953268, 0.13465121, -0.27113223, 0.069442496, 0.29215473, -0.23635268, -0.30515367, 0.07954541, -0.17377266, 0.23720661, -0.21507412, -0.16104315, -0.114644356, 0.14569849, -0.26639354, 0.2668669, 0.1912274, -0.27610135, 0.2770549, -0.1050282, -0.18053886, 0.25223982, 0.26232424, -0.20898841, 0.022221262, 0.29257265, 0.19336542, 0.24111034, 0.10375756, 0.29641154, -0.142177, -0.27740803, 0.17642821, 0.13724901, -0.16684644, -0.21795303, 0.18758863, -0.05981277, 0.066014305, 0.06004522, -0.09797433, 0.2807181, -0.06624322, 0.13290548, 0.20366861, 0.053609718, 0.14831054, 0.25638953, 0.13876405, 0.14023483, 0.2129808, -0.011885869, -0.12939659, -0.26670295, 0.0091006085, 0.2177095, -0.23311938, -0.29299834, -0.20101671, -0.26344922, -0.10426429, -0.12133634, -0.34721777, 0.12911074, 0.055987928, -0.22307818, 0.2641718, 0.003913302, -0.18661603, -0.051039938, 0.025867855, 0.2616798, 0.1338765, -0.27732024, 0.168108, 0.2788912, -0.22060207, -0.23421654, -0.11611269, -0.17322999, 0.27223492, 0.26072392, -0.12641872, 0.02239511, 0.2334061, -0.14958791, 0.018951904, 0.114373155, -0.007814356, -0.390589, -0.07918022, -0.31843007, -0.11512241, -0.1806732, 0.038617942, 0.2799289, -0.046571393, 0.14101513, 0.050852247, 0.22013459, 0.034897115, 0.12189097, -0.18223388, -0.14122912, 0.097814485, -0.2444098, 0.2743112, -0.10703559, -0.4303777, 0.020901464, -0.0279197, -0.05160339, -0.03206074, 0.044266976, 0.015545293, -0.22829226, -0.08442504, 0.03482169, 0.23222396, -0.109025784, 0.07767739, -0.17238885, 0.23698083, -0.29925334, 0.05398536, 0.41757628, 0.29430848, -0.2947535, -0.31580633, -0.21400271, 0.30856264, -0.032428015, -0.12577975, -0.1863902, 0.29657277, -0.22811165, -0.11189039, 0.2724998, -0.012016662, -0.33763883, 0.28547627, 0.039605744, 0.17374542, -0.23584166, -0.19510879, -0.12627271, -0.29136455, 0.03198896, 0.013146616, 0.1522853, 0.14448851, 0.16701847, 0.24825668, 0.06883069, 0.3405029, -0.19569413, -0.19491377, -0.1437193, 0.12977786, -0.24920002, 0.06663607, 0.13636667, 0.04193667, -0.15031612, 0.14009845, -0.06044154, -0.077087104, -0.037586275, 0.004422512, 0.30953273, 0.12440094, -0.2056796, -0.0013203109, 0.2482475, 0.024779733, -0.20926394, 0.2791319, -0.06612938, -0.2883598, 0.076127864, -0.25547984, -0.12764259, 0.07791847, -0.04107767, 0.1493915, 0.24212134, 0.11906346, -0.0055762446, 0.34370336, -0.014309857, -0.12496562, 0.13515802, -0.23935221, 0.3483159, -0.086708635, -0.28425086, 0.38703033, -0.081844896, 0.11122523, 0.2906289, -0.30328372, 0.28070325, 0.13331884, -0.05686994, -0.0980991, 0.11640722, -0.07434307, -0.15650794, -0.14718515, 0.29777816, -0.18102926, -0.13721414, 0.081832856, -0.1735814, -0.22476672, 0.2276007

};

float fc4_b[10] = {
	0.0050349548, -0.19042237, 0.09188527, 0.08585288, 0.14511955, -0.019128473, -0.027345782, -0.14445178, -0.10599984, 0.07205845

};


#endif
