#ifndef FC1_H
#define FC1_H
// Header file of the 8-th layer of the model - The type of the layer is fc


float fc1_w[25][256] = {
	0.0022563217, -0.108966, -0.097062066, 0.16215579, -0.0584642, -0.07919142, -0.027333591, 0.1459775, 0.013180137, 0.036181677, -0.025634574, -0.082012676, -0.052898034, 0.15278286, -0.12751533, -0.104189925, -0.0066636405, -0.03943424, -0.10259247, -0.018243358, 0.053290807, 0.019582536, 0.12794466, 0.039422568, -0.08321998, -0.19240293, -0.04238643, -0.0034897495, 0.06721585, 0.11220521, -0.06848084, -0.07791873, -0.053935528, -0.027455341, 0.17502409, 0.10223086, -0.045092627, -0.12460206, 0.016079847, 0.03143236, -0.05743449, -0.07702102, 0.0223049, 0.013256625, 0.07351316, -0.059846435, 0.04513935, 0.1042372, -0.039759763, 0.035904944, 0.107931614, 0.10135301, 0.11494068, -0.00890457, -0.03679039, 0.014501281, -0.01787363, -0.00020572946, -0.078925766, -0.048511036, 0.14699386, -0.026628619, 0.12216019, -0.021563636, 0.105866976, 0.095828295, 0.013018257, -0.023518817, -0.111584894, -0.19123149, -0.13270898, -0.07141618, 0.03800243, -0.030793978, -0.0011557715, 0.08427121, 0.016322961, -0.009048736, -0.043947365, -0.049446512, 0.058448397, 0.0037695628, -0.052362278, 0.03984607, 0.058936786, 0.09455793, 0.14978632, 0.00045669972, -0.059897996, 0.052221555, 0.15649983, 0.27268595, -0.0669769, 0.0883961, -0.08065953, 0.06244421, 0.11707669, 0.037616856, 0.0170615, 0.0011797621, 0.078370444, -0.008099563, 0.1259659, -0.035577815, 0.10474992, -0.07739523, 0.026364049, -0.014420138, -0.08897805, 0.021802561, -0.10579494, 0.041925453, 0.093251675, 0.07777577, 0.19701402, 0.19735248, -0.03663857, 0.057978764, -0.122472264, 0.02030425, 0.13835536, -0.0083044795, -0.20703222, 0.021982187, 0.05343121, -0.08053618, -0.0463706, 0.002461682, 0.07910558, -0.071643874, 0.064335085, -0.00014442041, 0.095872246, -0.0062830113, 0.03756634, -0.003903347, -0.08961141, -0.0507505, 0.089522034, -0.022647444, -0.036292564, -0.015790552, -0.013892175, -0.042869277, 0.12825088, -0.13931349, -0.102864556, -0.00095029233, -0.16451195, 0.073197044, -0.028223988, 0.13458933, -0.08110511, 0.033280194, -0.00833048, -0.1453294, 0.01398193, -0.051414363, 0.14503218, 0.10378913, 0.010486233, -0.015727399, 0.02841306, -0.046495788, -0.025194159, -0.06141231, -0.016418057, -0.006344257, -0.0055368147, 0.12729143, -0.050196134, 0.07041507, -0.15859985, 0.012963954, 0.03448114, 0.1629723, -0.0367274, -0.08265574, 0.0070764464, -0.112339176, 0.24351469, 0.101624995, 0.05636644, 0.024699993, 0.084905736, -0.15734717, 0.0035312788, -0.08091674, 0.050381027, 0.07436326, -0.07174248, 0.12814075, -0.062251065, 0.027772613, 0.049311157, 0.13284901, 0.019490026, -0.02713033, 0.050435662, -0.05952575, -0.14457062, 0.001352767, -0.022199234, 0.0016698623, 0.10261738, 0.05289943, -0.05758633, -0.033527132, 0.07883379, -0.08225308, 0.024187839, 0.0041513415, -0.06042727, -0.06274887, -0.015283352, 0.037388124, -0.089660436, 0.078839175, 0.14326283, -0.0028812045, -0.029348567, 0.12562104, 0.048414294, 0.03757629, -0.073138766, 0.0002935867, -0.06938829, 0.042661447, 0.050437745, 0.048969597, 0.09075861, 0.055779517, -0.02481322, -0.03908252, 0.088432014, 0.100424625, -0.026724016, 0.010301572, -0.025146564, 0.09622846, -0.015157174, 0.046334255, -0.0244706, 0.027151287, -0.06494935, 0.14985277, -0.07395514, -0.027483532, 0.061943263, 0.021217972, -0.090234235, 0.09411169, -0.0013591704, 0.0003209744, 0.026695998, 0.06546026, -0.0045990157, -0.054255947, -0.048676066, -0.046178218, -0.008538611, -0.06872255, 0.08703352, 0.07616076, -0.0049412213, -0.09094745, 0.022324983, 0.044091947, -0.013053163, 0.087019145, -0.014847227, -0.02591583, -0.1326402, 0.12553349, 0.021556504, -0.06323634, -0.10453206, 0.17383665, -0.048054285, -0.16375656, 0.00032041242, 0.07465841, 0.00453851, 0.023925085, -0.08468216, 0.0045181257, 0.021688938, -0.011814571, 0.11130102, 0.1867636, 0.011130953, -0.08135741, 0.028496115, 0.13858116, -0.08037113, 0.025956465, 0.02409372, 0.036585078, 0.046043202, 0.060687847, 0.048467852, 0.0035972146, 0.097048074, -0.02571896, -0.09253555, -0.16304792, -0.09391532, -0.08168863, 0.019694075, -0.023531083, -0.09562341, -0.016904552, -0.16935354, 0.01580968, -0.005931234, 0.022154288, -0.08240941, 0.09596511, 0.025701769, 0.009990828, 0.09332755, -0.093368545, -0.02684559, -0.0038778167, 0.123482615, 0.09319425, -0.0010824233, 0.0667127, -0.16961204, -0.019614283, -0.1840146, -0.030901026, 0.00085794384, -0.02199376, 0.11837511, -0.036054924, 0.022765644, 0.20561713, -0.054306086, -0.11858022, -0.015541484, -0.060046207, 0.026124286, -0.08065802, 0.022077324, 0.0055196164, -0.04760457, -0.03209054, -0.08519786, 0.030457227, -0.0056307362, 0.01999689, -0.099723466, -0.12710941, 0.018082257, 0.026495071, -0.061012916, 0.019458322, -0.045570437, 0.006262856, -0.00597195, 0.037948646, -0.05240284, -0.13678263, 0.10328819, -0.10425752, -0.05891115, -0.058973104, 0.06323155, -0.08256024, 0.008976905, 0.07822509, -0.002382321, 0.019136976, 0.04393446, 0.028948281, -0.047586706, -0.09189902, 0.1095263, 0.12671039, 0.024998104, 0.02624287, 0.009021957, -0.08803188, 0.07691306, -0.05383047, 0.021210672, -0.049395982, -0.054914195, 0.0007900428, -0.12283041, -0.15380746, -0.02243129, -0.02271515, -0.0459811, -0.080434605, 0.038133405, -0.02085873, -0.09801369, 0.053718228, -0.046233904, -0.05993254, -0.041695602, 0.102581665, -0.017989146, -0.0096392585, 0.028415794, -0.20303221, 0.07377941, 0.03504885, -0.06800865, -0.02261956, -0.08617355, -0.018592373, -0.07312072, -0.044715665, -0.06789389, -0.1026196, -0.1166089, -0.030450016, -0.10958562, -0.014491313, -0.0502133, 0.03542577, -0.10998166, 0.07493238, -0.076866806, 0.1197439, 0.0225555, 0.022837443, 0.0030312822, -0.19214968, 0.055123452, 0.015087778, 0.0060865553, -0.16626537, 0.03502162, -0.07589804, 0.104550436, -0.08026629, -0.091918625, -0.055114347, -0.17018287, -0.1062726, 0.08304055, -0.02289789, 0.01637324, 0.040986396, -0.0120216, -0.019789092, 0.10104371, -0.05375721, -0.031690218, 0.057727914, 0.028689064, -0.122888096, -0.044225194, -0.06435751, -0.016579289, 0.07257636, 0.06674388, 0.1173881, 0.034409877, 0.08010465, 0.12534289, -0.0036823829, 0.14559472, 0.13157547, 0.006879866, 0.072201096, -0.04319457, 0.025240527, 0.06407302, 0.040362336, -0.01418537, 0.004828002, 0.15165536, -0.063049756, 0.057088614, -0.0119858105, -0.09018192, -0.08584838, -0.06108751, -0.0917625, 0.0006623192, 0.008439075, 0.14870116, -0.12814473, 0.020631883, -0.20355627, 0.071134605, 0.041956615, 0.061404224, -0.07021008, -0.0039357855, 0.08241832, 0.038296014, -0.034508232, 0.0533644, -0.11801095, -0.020707015, -0.07876088, -0.05670496, -0.11283076, 0.0007026935, 0.07864468, 0.010167137, -0.05198372, -0.058363482, 0.0764194, -0.056772143, -0.06830114, -0.13595721, 0.1845671, -0.05891586, -0.2126836, 0.054718398, -0.015641836, -0.046009723, 0.1306292, 0.030059425, 0.023191458, -0.10537615, -0.15592438, -0.009213202, -0.02172881, 0.0022716292, 0.14961645, -0.13869916, 0.08790558, 0.03360844, -0.06904719, 0.077857375, 0.05437721, 0.09769393, -0.03566053, -0.07692814, 0.15245461, 0.0606076, 0.06359468, 0.08333407, 0.07219809, 0.017855836, -0.1465233, 0.0054569473, 0.007492523, -0.0006309472, -0.12761778, 0.11409796, 0.002527404, 0.012614889, -0.093046844, -0.037761535, -0.11186605, -0.019760441, -0.13223962, -0.10644553, -0.012984254, 0.032924492, -0.042679228, 0.0536537, 0.02363261, -0.02959735, 0.010720523, -0.028078856, 0.09759102, -0.047592964, -0.008245241, 0.06638333, 0.03821482, -0.10761783, 0.00576834, -0.0059637264, 0.048118673, -0.021389285, 0.01753259, -0.045714095, 0.12943071, 0.078941874, 0.04179709, -0.03617468, 0.011656501, 0.038563486, 0.11186649, 0.12481396, 0.03643758, 0.11608742, -0.16471165, -0.08393613, -0.052331507, -0.05576258, 0.05557574, -0.04735531, -0.07387195, 0.0050761765, -0.013209501, 0.0004617489, 0.08564259, -0.009516382, -0.13969533, -0.049259167, -0.067755595, -0.0042500165, -0.11063679, 0.11640933, 0.07729328, -0.09203515, -0.045664072, 0.04450134, 0.0027978944, 0.024818134, -0.050189123, 0.07394791, 0.0798808, 0.0139856385, 0.08403986, -0.047038604, -0.004303029, 0.058306176, 0.0078427065, 0.116179906, 0.040547825, 0.07054981, -0.02302196, -0.07093369, 0.066096716, -0.101659626, -0.030584427, 0.17995912, 0.08092615, 0.23096213, 0.048394717, -0.071724355, -0.14869738, 0.12020591, 0.086404204, 0.019995516, -0.07727786, -0.0074621565, 0.0833453, -0.12695166, -0.03867144, 0.052279767, 0.21682838, -0.042339224, 0.110286005, 0.1621898, 0.14585951, 0.01268991, -0.05900343, -0.004190702, 0.06759269, 0.13118413, -0.033484206, 0.02155771, 0.026293602, 0.06187974, -0.012653663, 0.06342696, 0.031941466, 0.09690959, 0.02432921, 0.2614689, -0.08256432, -0.028034551, -0.0035540797, 0.05238923, -0.069397986, -0.102538384, -0.071537934, -0.017897699, -0.03740112, 0.037714, 0.14982359, 0.03347109, 0.07487279, -0.096859515, 0.026837679, 0.000680119, -0.038126945, -0.040724117, -0.079118095, 0.053289138, 0.064341985, 0.05810718, 0.06498412, 0.015014412, -0.014292505, -0.09533985, 0.04161082, 0.1025673, -0.024553921, -0.08336496, -0.0005569095, -0.12381539, 0.12749824, 0.037469022, 0.05613288, -0.024518324, 0.0325074, 0.036067408, 0.055164177, 0.1593733, 0.2017453, -0.036368124, -0.069254555, 0.09852589, -0.00030738933, -0.0041385633, -0.078494474, 0.10608303, -0.020241706, -0.034681372, 0.09948281, 0.15871073, 0.06448947, -0.055399075, 0.05330658, -0.045272756, 0.08068742, -0.12950811, 0.050258838, -0.09986501, 0.09930184, 0.02698275, -0.09297322, 0.029174084, 0.045249853, 0.051369745, 0.06647251, -0.03750653, 0.10141904, -0.07679693, -0.099899836, 0.06846951, -0.031364802, 0.0037955702, -0.05205651, -0.017126223, -0.06329357, 0.07495757, 0.0644176, 0.004631406, -0.026453035, -0.095631756, -0.1159348, 0.12847371, 0.06519706, -0.08809348, -0.0516603, 0.06864766, -0.026944714, -0.10997977, 0.16573949, 0.044435073, -0.055963006, -0.0023724148, -0.033781577, -0.046204086, 0.16093041, 0.18899766, -0.021466117, -0.01842296, -0.0034861104, 0.071923256, 0.09238481, 0.048255492, 0.08302271, 0.054882333, 0.15547328, 0.091025785, -0.081393294, -0.10614693, -0.029330637, 0.07484595, -0.10554134, 0.08099415, -0.040301602, -0.009641727, -0.1443432, 0.11438648, 0.096109375, 0.003369067, -0.0154898, 0.14196259, 0.12213462, 0.06319739, -0.021050712, 0.15656452, -0.068133086, 0.0379073, -0.020370452, 0.059678834, -0.0048613437, 0.19323733, 0.08510285, -0.058376223, 0.117209084, -0.0033297658, 0.06976378, -0.06816171, -0.070603795, 0.13101122, 0.021756014, 0.09247897, -0.02518567, 0.027905336, 0.024783544, -0.059055716, 0.011693899, 0.03429434, 0.021641897, -0.047812734, 0.07066148, 0.089726135, 0.03659165, -0.094579145, 0.13511917, 0.07579908, 0.07109141, 0.029775526, 0.033367522, 0.09457309, 0.045054127, -0.09422372, -0.031105582, -0.075125806, 0.015532391, -0.094511755, 0.1008248, -0.25344342, -0.07608574, 0.09147132, 0.008464347, -0.1480361, 0.07843551, 0.10957986, -0.00074157387, 0.10045186, 0.063635536, 0.053694356, -0.10752866, -0.055928126, -0.08526153, 0.02478715, -0.10026722, -0.0005690125, 0.00047107827, -0.09416404, -0.15236412, 0.12541835, 0.07270993, 0.00745923, -0.10956672, 0.017201798, 0.08670876, -0.03993358, 0.086400576, -0.04231002, -0.11353841, 0.028878396, 0.016186947, -0.011730389, 0.0701131, -0.045105677, 0.120318234, -0.05337938, -0.021765856, -0.13635746, -0.0012714752, 0.064215206, 0.07535392, -0.10136266, 0.017970884, -0.067431286, -0.061780278, 0.0117397215, -0.0027471161, -0.08366453, 0.043949734, -0.010312081, -0.07717512, -0.11161429, -0.10483659, 0.06533842, -0.021366328, 0.07603015, -0.0025194397, -0.006265983, -0.14322856, -0.04764901, 0.08903911, 0.07564976, -0.07136598, 0.029034385, -0.007370031, 0.05582185, -0.011179494, 0.09263763, 0.035321847, 0.034478676, 0.015143885, 0.031083269, 0.23186412, 0.053495545, -0.20910086, 0.008170873, -0.036818594, 0.023518583, 0.032458376, -0.0093136225, 0.09974029, -0.16930354, 0.19561529, 0.090743735, 0.010658581, -0.030365733, -0.043200277, -0.010387845, -0.13221996, -0.10319631, 0.108189285, -0.046936546, 0.093499385, -0.17125705, 0.080497816, -0.10109201, 0.032300822, 0.074538425, 0.10850873, -0.21226268, -0.11964222, 0.09095263, -0.005151988, -0.036104538, -0.1059951, -0.052059468, -0.021916073, -0.0012504112, -0.056566417, -0.024360279, 0.036548413, -0.059848778, 0.07658247, 0.01679432, -0.055138044, 0.15236056, 0.008762203, 0.02008153, -0.040790185, 0.031548765, 0.0060533825, 0.091357656, 0.03424408, -0.018426266, -0.07658364, 0.15613115, 0.01345854, -0.019360794, 0.026888736, 0.021086277, -0.04104108, 0.071709536, 0.018750869, -0.0252503, 0.14684351, -0.096750334, 0.015836654, -0.114972375, -0.025125371, 0.10412967, -0.08777785, 0.053983547, -0.065042764, 0.00672724, -0.072729826, 0.06499543, 0.045473825, -0.0046987394, 0.08337827, -0.011308496, 0.11799427, -0.039907433, -0.02794545, -0.07347943, 0.053515654, -0.007446454, -0.08600981, 0.02852098, 0.13410807, 0.050699063, -0.011520973, -0.017951222, 0.0069509363, -0.017642146, -0.067260504, -0.00545975, -0.024623236, -0.047856495, -0.089504525, -0.0019548275, -0.23175219, 0.17648454, -0.0101900995, 0.08562224, 0.08664068, -0.0024552688, 0.0010920056, 0.080255866, 0.02304439, 0.029013453, -0.1377611, 0.0656759, -0.005902455, 0.13365458, 0.03287111, 0.00047010678, -0.09865132, 0.033223793, 0.012928854, -0.079447374, -0.004174575, 0.1158774, -0.01973012, -0.13575508, -0.09319573, -0.01567745, 0.03249, -0.014716753, -0.16103263, -0.07609632, -0.034143064, -0.03372668, -0.03749053, 0.034875207, 0.056886394, 0.028592657, -0.07981982, 0.03400547, 0.017182913, 0.1653048, -0.041602697, 0.04289917, -0.061305135, -0.022067834, 0.07806155, 0.009840123, 0.05647565, -0.009519355, 0.07281202, 0.04446572, -0.11162864, -0.022974724, -0.09559046, 0.03348902, 0.033025786, 0.023377882, 0.05225735, 0.21437782, 0.12741606, 0.04265516, -0.1022543, 0.03014989, 0.024343805, -0.06542165, -0.055726174, -0.17075366, -0.07645492, 0.07232693, -0.029316504, -0.07255252, 0.052849595, 0.0637692, -0.07306238, -0.0057607773, 0.03250566, 0.08285311, -0.046181332, 0.03471212, 0.00753595, 0.105461285, -0.098503985, -0.018483788, 0.11096709, 0.029329592, -0.032556884, 0.22754298, -0.12210449, -0.058079075, 0.10261913, -0.16466478, 0.049631115, -0.11523052, 0.005989029, -0.116230145, -0.13242304, -0.066726714, 0.19442151, 0.05954025, 0.07205016, 0.074238956, 0.0065137665, 0.059432846, -0.00922726, 0.13116279, 0.085398786, -0.16135384, -0.17863949, -0.09307357, -0.068215124, -0.097813345, 0.015430154, 0.14381379, 0.028450876, -0.0274165, 0.057066657, -0.037147455, -0.045175068, 0.09911811, 0.13965774, 0.011344329, -0.13289325, -0.009729749, 0.045731824, -0.09152769, -0.15184048, -0.035705518, -0.10655709, 0.16986667, 0.12631907, 0.09921841, 0.041714024, -0.05551659, -0.011271993, -0.0704935, -0.018758832, 0.010409594, 0.18298295, 0.12563856, 0.18996991, 0.046455666, 0.023252618, -0.0017701252, -0.027481662, 0.031608507, 0.037264142, -0.08290355, 0.1780106, -0.09273859, -0.028456295, 0.16296872, 0.061081707, 0.042662375, -0.06656619, 0.05489514, 0.12192118, 0.050144102, 0.007484172, -0.0111647695, 0.020189716, 0.07768664, -0.022960661, -0.048852306, 0.04543751, 0.013488055, 0.115829796, 0.030447043, 0.015344401, -0.0124167735, 0.044383347, 0.06580116, -0.0712953, -0.031993926, -0.06028365, -0.19949645, -0.14338681, -0.014216418, 0.042596865, 0.058716252, -0.07616918, 0.010861757, -0.0052749244, -0.04265849, 0.023211755, 0.062493354, 0.13272339, 0.035744388, -0.13105647, 0.0990052, -0.119976625, 0.12210877, -0.00035029318, -0.004022641, -0.07519538, 0.023726769, 0.009438786, -0.011756234, 0.015323042, -0.045518402, 0.020284692, -0.061484043, -0.23952082, -0.025264233, 0.10208221, 0.002225605, 0.050746597, -0.064236514, -0.04183852, -0.06481873, 0.05888637, -0.07572931, -0.002030226, 0.07287469, 0.024049642, -0.026614599, 0.08206614, -0.040802497, 0.016738757, 0.12236912, -0.17885193, -0.108901195, -0.006054087, -0.009128095, 0.019978767, -0.020348087, 0.0074103777, 0.072164014, 0.07253505, -0.05174216, 0.036229905, 0.034432743, -0.08033335, 0.010020889, 0.08494547, 0.06477116, -0.00934776, 0.05692251, -0.037179522, 0.044768445, 0.011663148, -0.030932695, -0.014693627, 0.11360445, -0.07547645, -0.01118115, -0.08720841, -0.041268352, -0.14084108, 0.050587628, 0.010591677, -0.0066596135, -0.048697066, 0.07803348, -0.0605956, -0.038268484, 0.019227728, 0.1453318, 0.033390865, 0.106655225, -0.058894023, 0.0850235, -0.11833697, 0.06281658, -0.027142659, -0.026988568, 0.0045293155, 0.03805363, 0.041358724, 0.00669154, -0.0448515, -0.12520047, -0.22338526, 0.057162307, -0.07968412, 0.013936074, -0.01259901, 0.046264365, 0.12115193, -0.15516452, -0.080497414, -0.10717693, 0.11034938, -0.013518275, -0.3202016, -0.10699591, 0.05482704, -0.09597324, 0.046829153, 0.03247615, 0.13730334, 0.09739015, 0.13193116, -0.23679364, -0.20038168, 0.019623421, 0.031016268, -0.09205103, 0.020980101, 0.004430984, -0.036531404, -0.12327983, -0.097790696, 0.062394325, -0.011143774, 0.13402651, 0.0477431, -0.109433584, -0.07784049, -0.0025257166, -0.07322838, 0.029677574, -0.024000375, -0.15488234, 0.063722074, -0.063282795, -0.018912101, -0.058205597, -0.08448972, 0.011612033, 0.041887946, 0.10424517, -0.06356203, 0.048672497, 0.056164, -0.086292535, 0.07029085, -0.01697905, 0.112454444, -0.03972877, -0.029429082, 0.009768876, -0.06810577, 0.02866491, -0.018372368, -0.061075807, 0.104704015, 0.011360048, 0.0007111904, 0.046569336, -0.03770489, 0.100300156, -0.053048857, 0.08380848, 0.04507284, -0.13383903, 0.016227983, 0.111509345, -0.02624748, 0.014899762, -0.056049634, -0.052369587, -0.1097132, -0.18995427, 0.21123606, 0.012995025, 0.07387504, -0.15667717, -0.10700726, 0.12203644, -0.11495405, 0.10027781, 0.03153715, -0.069340944, -0.050743878, -0.103725106, -0.022377638, 0.037517007, 0.03928648, -0.081341185, -0.18392676, 0.096784666, 0.0984121, 0.060504783, -0.032714557, -0.019718675, 0.049428344, 0.055997718, 0.08623243, -0.06711029, 0.10055944, 0.10259748, -0.10407199, -0.004102234, 0.023689674, 0.10276225, 0.0053830603, 0.119394064, -0.01111991, -0.04263881, 0.0036778173, 0.07267354, 0.07682068, 0.08623234, 0.05144126, 0.053776365, 0.1901866, 0.22110118, 0.07309016, 0.15339899, 0.056257702, -0.016270364, 0.13636659, 0.11035182, 0.15649965, 0.09564794, -0.014099765, -0.085934415, 0.028908992, -0.1815946, -0.15123591, 0.009040575, 0.1910781, 0.013614316, 0.05860982, -0.040194158, 0.046372324, -0.08140883, -0.07679687, 0.0690775, -0.043396562, 0.01634171, -0.08408225, -0.11002972, 0.08920419, -0.06736415, 0.06800711, 0.04387071, -0.09246518, -0.23893076, 0.08461215, 0.03040352, 0.042147942, 0.09181219, -0.0015607364, 0.019072136, -0.09140203, 0.20862934, -0.059798747, 0.12466351, -0.10908033, 0.04378287, -0.10167314, 0.1568445, 0.023406971, 0.07443621, -0.016777178, 0.0921185, -0.00728094, 0.10232887, 0.028139656, 0.0891233, 0.037214015, -0.030199643, 0.022981089, 0.039162926, -0.0044879117, 0.044484895, 0.07731508, 0.04640698, -0.012712836, 0.06825352, 0.06574879, -0.010107497, 0.061795726, -0.022440663, 0.006447002, -0.060777638, -0.052559894, 0.029118113, 0.009072287, -0.04507339, -0.032580137, 0.042312797, -0.0073001324, 0.08477646, -0.06973029, 0.045021065, -0.04681451, -0.06292396, -0.041616153, -0.0018641073, 0.08803225, 0.03074922, -0.017833833, -0.14033666, -0.06838685, -0.09517005, -0.04881187, 0.0319988, -0.075043835, 0.11646131, -0.008227412, -0.023908904, -0.017766422, 0.12017537, -0.04719626, 0.003885507, -0.07086393, -0.07174447, 0.063294314, -0.038254708, -0.33602977, 0.098096006, 0.13521935, 0.07655752, 0.066130884, -0.013397271, 0.02144478, 0.0066639683, -0.025498096, 0.006540991, -0.099776775, -0.13466492, -0.09440425, 0.1421473, -0.04342178, 0.048147053, 0.08631488, -0.009835258, -0.0010162931, 0.1305302, 0.09221609, -0.025417423, 0.04064187, -0.15711483, 0.13786168, -0.016885577, -0.18415175, -0.08373834, -0.060494203, -0.12416086, 0.020339059, 0.02069312, 0.057795294, 0.048742477, -0.17350142, -0.058947954, 0.11805938, 0.04270124, -0.010453416, 0.015896201, 0.040885407, -0.03620517, -0.09645607, -0.035702296, 0.08163802, -0.0676316, 0.13612375, 0.040845584, 0.14678313, 0.069512576, -0.16965522, 0.032837164, 0.04395862, 0.037341796, -0.0006286036, 0.020443168, -0.01719479, -0.032791797, -0.08234204, 0.0017017109, 0.28696188, 0.021221615, 0.09805776, 0.056602556, 0.07496348, -0.09160674, 0.14370148, 0.021526199, 0.113754176, -0.009345238, 0.048294347, 0.03812515, 0.029208275, -0.013204944, -0.009159133, -0.06304834, -0.11508671, -0.1182978, 0.105898134, -0.008891335, -0.081169106, -0.007043505, -0.046262722, -0.0073523666, -0.029166045, 0.065704286, 0.037157174, -0.070706345, 0.010136862, 0.048572462, 0.02131779, 0.032651875, 0.15246423, -0.041257113, 0.049874384, -0.046789244, -0.03766146, -0.09320207, 0.0152327, 0.13777523, -0.072870985, -0.001847281, -0.08317505, 0.17256705, 0.050754018, 0.120006904, -0.0070764823, -0.18376212, -0.057335336, -0.086703934, 0.16260824, 0.038568836, -0.035119824, 0.014668366, 0.13771982, 0.007698241, -0.044646624, -0.014378093, 0.054117676, -0.1289392, -0.011173954, 0.09180535, 0.04407503, -0.0365457, -0.09051987, -0.1879243, -0.046226706, 0.1252362, 0.05270626, -0.044530343, 0.02109768, -0.012154754, -0.059748095, -0.09189043, -0.17337446, -0.043510504, 0.022535173, 0.0020141646, 0.07696888, -0.094246104, -0.051610418, -0.15847726, -0.1411362, 0.05435254, -0.05556112, 0.02214664, -0.0048489086, -0.20494075, -0.14229183, -0.07814683, -0.14172529, 0.08980695, 0.044178076, 0.08832755, -0.008817789, 0.054474674, -0.076260336, 0.24975836, 0.114798985, -0.12522328, 0.04623446, 0.1102463, -0.012257425, -0.019646306, -0.14079687, 0.07066228, 0.08801993, -0.027871555, -0.08528723, -0.058747184, 0.06806712, 0.074181706, 0.0064736614, -0.033886187, 0.007720215, -0.04540065, -0.026288364, -0.04795807, -0.045204267, -0.019910589, -0.0023716053, -0.06486499, 0.03730309, -0.15699467, -0.18217742, -0.23666295, -0.21764614, 0.05109763, 0.030645365, -0.059376575, -0.07468627, 0.020386226, 0.06416718, -0.0017129752, -0.10357243, -0.0845911, 0.027298056, 0.01586591, 0.013731879, 0.06805433, -0.07785951, -0.01491918, -0.13173434, -0.03403795, -0.0723469, 0.033211276, -0.041855857, -0.09979503, 0.060838833, -0.12854202, -0.005416251, -0.02910542, 0.16381402, 0.052113462, -0.038418505, -0.07904008, -0.058805548, 0.0036585578, -0.059877, 0.012934589, 0.0050461222, -0.041223526, -0.059773047, 0.02241883, 0.06286861, 0.06931977, 0.0012310336, -0.06835978, 0.022647254, 0.04072013, 0.08825778, -0.045209203, -0.049753122, 0.06173599, 0.035216715, 0.09219874, -0.0013358869, 0.054058198, -0.036897752, 0.010530704, -0.03190099, 0.069616914, -0.120581105, 0.020410808, -0.13012977, 0.12713215, -0.10964803, -0.14328472, 0.0052345777, 0.14639407, -0.04210432, 0.14101057, 0.049243778, -0.055469517, -0.08609994, 0.060165927, 0.113240965, 0.04865252, -0.057436727, 0.023413567, 0.09227615, -0.09728203, 0.0459756, 0.03721522, 0.09727245, 0.019195432, 0.014538088, -0.16910748, -0.27586085, 0.062400293, -0.01865419, -0.0886607, -0.009174318, -0.057886943, 0.060163625, -0.0058237547, -0.13093206, 0.034568083, 0.038297083, -0.012853611, -0.07544804, -0.041552965, -0.09105935, 0.08883417, 0.08399606, 0.02601378, 0.01893497, 0.06820028, -0.042761512, -0.05295802, -0.07481885, 0.012873089, 0.3164079, -0.1257405, -0.050522253, 0.05815331, -0.028486434, -0.019641731, -0.008835733, 0.07967857, -0.053338144, -0.19951396, -0.029260471, -0.026913686, -0.0013374493, 0.13916802, 0.07821019, -0.019326698, -0.024419961, 0.11437238, 0.035897635, 0.13264102, -0.014729343, 0.023858719, 0.05793923, 0.028640619, 0.10565326, 0.10456065, 0.17690116, -0.07001673, -0.09733783, -0.03599738, -0.08386765, -0.13007763, -0.026523069, -0.014826998, -0.16589043, -0.06410117, -0.17426518, -0.028637538, 0.0075293104, -0.011064797, 0.09060316, 0.024110088, -0.13462493, -0.1193455, -0.03103865, -0.03768334, -0.07093993, -0.0016392072, -0.07912982, -0.06332068, 0.020527536, 0.031838935, 0.08618838, -0.044475984, -0.07201057, -0.09546812, 0.058095142, -0.058479495, 0.057840146, -0.075663574, 0.1948256, -0.067431375, -0.008416566, 0.07983427, -0.06467685, 0.0119566955, 0.079529256, 0.09682237, 0.015636016, -0.0028852266, 0.063311145, -0.05182517, -0.1996665, 0.07838792, -0.03921933, 0.038712047, 0.041402116, -0.012186146, 0.021195177, -0.08489542, -0.0914471, 0.014391372, 0.01881622, -0.0092530465, 0.018596824, -0.064146966, 0.01970256, -0.14160663, -0.01025283, -0.024330692, 0.018259747, 0.03289353, -0.047621313, -0.09022812, 0.07933376, -0.023921633, -0.02404569, -0.05153146, 0.03157291, 0.010880027, 0.0624206, 0.014680595, -0.03467867, -0.1209971, 0.06834295, 0.07872958, 0.14225286, -0.0772815, -0.015264826, -0.047358442, -0.095491916, -0.04394725, -0.10315001, -0.0743889, 0.057455417, -0.07021611, 0.1314437, 0.13610052, -0.031229502, -0.070563465, -0.190637, 0.11677165, -0.023163294, -0.042429354, -0.040586926, 0.022760194, 0.0863892, -0.16449574, 0.08542944, 0.14078747, 0.10065399, -0.04775828, -0.07242859, 0.14782263, 0.095093794, 0.08984544, 0.014623077, 0.050846204, -0.11714642, -0.049459234, 0.015423794, 0.107418574, -0.024654092, -0.051549744, 0.051247768, -0.006478398, 0.04650582, -0.047593, -0.12279519, 0.13198054, -0.04830364, -0.07110892, 0.10326696, -0.04020041, 0.0006295135, 0.17974088, 0.10538987, 0.05304198, 0.056205638, -0.0016885651, 0.13193597, 0.041586127, 0.046366375, 0.055803657, -0.07408978, -0.056949783, -0.0077052373, 0.094508335, -0.010969527, -0.04935318, 0.036240067, -0.098505154, -0.11563147, 0.015425664, -0.04066776, -0.025011629, 0.057972837, -0.05677797, -0.030230116, 0.03160253, -0.041898794, 0.1175465, -0.007517617, -0.012853436, 0.06667147, 0.0023748123, 0.055583134, 0.05882728, -0.15245792, -0.0036333355, -0.010750372, -0.14778419, -0.032918144, -0.03017538, -0.09340728, -0.062105197, 0.09402863, -0.018100692, -0.16279751, -0.05332937, 0.013390098, 0.049250297, -0.07622431, -0.09490372, 0.023248909, -0.09192407, -0.07651745, 0.043131147, -0.093603596, -0.08279078, 0.07289244, 0.03695864, 0.048699025, -0.08849178, 0.02477527, 0.023789888, -0.09234327, 0.06014549, -0.08301388, -0.028758992, -0.18271358, -0.004473171, -0.01341852, -0.04349999, -0.032218408, -0.004219717, -0.04292758, 0.16890213, 0.0042820545, -0.007386732, 0.0049210913, -0.11238879, -0.088858075, 0.09563569, 0.098739296, -0.10803701, -0.08519986, -0.09555592, -0.018725792, -0.004880688, -0.07090297, 0.022794703, -0.045020375, 0.09325272, -0.09814478, 0.107712656, 0.077753745, -0.045072693, 0.03694743, 0.038768016, -0.14790313, 0.13576756, 0.029215867, -0.034882374, 0.040784325, -0.006305672, -0.15116625, 0.03477073, 0.19992076, -0.03765549, -0.07423664, 0.03044, -0.0039367005, -0.027513715, 0.12300848, -0.16337761, -0.11832468, 0.12428664, 0.08061358, 0.11427721, 0.002740041, -0.0743, -0.0006957182, 0.076158434, -0.024256751, -0.10596184, 0.053219214, -0.09449546, 0.16389966, -0.01564738, -0.0012269922, -0.046714325, -0.066211976, 0.057720795, 0.14666355, -0.040503982, -0.11251262, 0.04011037, 0.023413584, -0.070654124, -0.05841309, -0.004076309, 0.1267561, 0.06566402, -0.0013676885, 0.022480043, -0.01381232, 0.050830826, 0.05305362, 0.036762707, 0.011154289, 0.12457862, 0.087787, 0.13271989, 0.099915065, 0.06166774, -0.1144474, -0.15141536, 0.0136739025, -0.10920142, -0.10356002, 0.10436405, -0.013837369, -0.01005143, 0.10733103, -0.10944752, 0.036529236, 0.0123920655, -0.027014574, -0.02732176, 0.08643185, 0.16895585, 0.097979866, -0.04069451, -0.08960572, -0.16186666, 0.008568901, 0.21447828, 0.1471624, 0.19768403, -0.05753868, 0.0138952015, -0.10413755, 0.05354479, 0.049721446, -0.03877747, 0.033243828, 0.011269532, 0.093257, -0.12657659, -0.019340271, -0.1143856, 0.020451525, 0.07619294, -0.012330531, -0.0063101444, -0.121530935, 0.012631036, -0.07431667, -0.030230362, -0.10688979, -0.016383458, -0.070336, -0.08494399, -0.012635592, 0.021851536, -0.24473073, -0.098084286, -0.1855782, 0.06916378, 0.04768454, -0.025712503, 0.0790542, -0.03424306, -0.0057047475, -0.015372859, -0.07258077, 0.056450136, 0.12263918, -0.0769106, 0.030422445, -0.15950517, -0.2550836, 0.0011189469, 0.13948864, 0.16335586, 0.01317869, -0.22374938, -0.18840252, 0.11332627, 0.064513035, 0.038612038, 0.05689076, 0.031370748, 0.117802516, -0.059941705, 0.0055886144, 0.01275995, 0.017030846, -0.018909156, -0.051405013, 0.16304497, -0.05301164, -0.010467046, -0.098169096, 0.07578108, -0.051603995, -0.044061966, 0.06842499, -0.11328592, -0.04522674, -0.07044127, -0.04319818, -0.002711844, 0.0075966935, 0.09244374, 0.0034561753, 0.01040293, -0.009368167, -0.021706562, 0.07921227, 0.06640245, 0.03377137, 0.03908553, -0.0231088, -0.0591601, -0.16123351, 0.15030338, 0.17464738, -0.019525068, -0.039656874, -0.10698191, 0.0260274, 0.10538323, -0.034182347, -0.038595885, -0.046739276, -0.05610388, -0.035496388, -0.060753923, 0.11135802, 0.096221134, -0.0028990975, -0.01347589, -0.003880394, 0.05771394, 0.017783368, 0.02593276, -0.025369225, -0.13919488, -0.054677527, 0.0024106426, 0.09687465, 0.078857414, 0.10043136, -0.017120142, -0.024487315, -0.09571945, -0.01232784, -0.057927057, 0.008963964, 0.047296103, -0.009525292, 0.028114347, 0.061740782, -0.026931457, -0.1045803, -0.012752077, 0.13481997, -0.020766346, 0.04807644, 0.097129405, -0.05514251, 0.069762446, 0.0018367241, 0.06765515, 0.019671014, -0.035212543, 0.009264489, 0.08225605, 0.03450215, -0.08209656, -0.037281696, 0.098438956, -0.0020361217, 0.12785389, -0.013180098, 0.031471677, 0.16225152, -0.02077072, -0.009910048, 0.16209994, -0.07120525, -0.022613106, 0.06470283, 0.004864673, -0.026253559, -0.045919336, 0.12239714, -0.1737443, -0.08323671, -0.09711433, 0.014466059, 0.010104163, -0.04275266, 0.04817813, 0.04425111, 0.09867833, 0.030926919, 0.13347423, 0.057914183, 0.048357658, 0.03984316, 0.042536657, -0.016270328, -0.07282475, -0.034846265, 0.08531362, -0.075069375, -0.02127935, -0.00071048026, 0.11839442, -0.15481928, -0.12821458, -0.0106647, 0.10804073, -0.08952123, 0.06097816, -0.048964594, -0.044130318, 0.08929823, 0.018193394, 0.017447507, 0.034172006, -0.02633385, -0.068662696, -0.00999873, -0.093706846, 0.010806624, 0.023326047, 0.021558069, -0.043074448, -0.10352043, 0.09565463, 0.017351376, -0.094105855, -0.111414276, 0.013416736, -0.0034234517, 0.004886672, 0.017914658, -0.016755374, 0.017187465, 0.17686248, 0.13030694, -0.08756256, -0.13009252, -0.018551536, -0.16167313, 0.058383137, -0.014885459, 0.11784646, -0.025279358, -0.10889119, -0.07303605, -0.036995407, -0.029192485, 0.013189212, -0.025791671, 0.028604006, -0.05781818, 0.07808705, -0.02332209, 0.005087216, 0.023368739, 0.007965377, 0.056682914, 0.13881885, 0.13025914, 0.02867833, -0.067522064, -0.04285997, -0.08910164, -0.11357254, -0.123330496, -0.12259656, -0.12007449, 0.09303353, 0.02117206, -0.033578094, -0.14354074, -0.10773231, -0.14550953, 0.056288496, 0.17490543, 0.058167286, 0.07270383, -0.1417678, -0.08530544, 0.07375566, 0.037968308, 0.10817776, -0.013304194, 0.20075293, 0.14405574, 0.1016612, 0.046113588, 0.0037324557, -0.048917808, 0.108151175, 0.016049404, 0.054421484, -0.10428005, 0.012512851, 0.030642318, -0.04756761, 0.13757484, -0.011916938, -0.038558833, -0.0665667, 0.10410542, -0.10230627, -0.09438668, 0.022782097, 0.11636689, -0.0151455235, -0.10310998, -0.10856288, -0.044754133, 0.007799254, -0.11038738, 0.011223565, 0.0066101113, -0.09470575, -0.21081924, -0.05020345, -0.057934128, 0.010500483, 0.041784596, 0.091468774, 0.090909064, -0.012088903, -0.11310212, 0.077927314, 0.025522064, -0.020886168, 0.10505181, -0.0052406513, -0.07409592, 0.07833871, 0.15097326, -0.04246366, -0.023031654, 0.031406675, -0.01497661, 0.10449002, 0.08883083, 0.03002256, 0.036073826, -0.014277769, -0.05898638, 0.033309206, -0.062392183, -0.029158928, 0.0026004545, -0.038321216, -0.08007825, -0.013918891, -0.0015417052, 0.023727195, 0.17137563, 0.06878422, 0.114677295, 0.06638917, 0.06827122, -0.027061548, 0.028869715, 0.0020709601, -0.036894098, -0.065838, -0.1345308, 0.06240314, 0.09575957, 0.020335307, -0.11476038, -0.06586349, 0.031444844, -0.088150844, 0.017021738, 0.060068797, -0.020890145, -0.0030042368, 0.12983923, -0.028409744, -0.14979294, -0.0049472423, -0.07915772, 0.051485103, -0.026035551, 0.022293825, 0.054122813, -0.055518348, -0.14363027, -0.049600426, 0.10939781, 0.006300784, 0.08467433, 0.053068385, 0.04273728, 0.025541637, 0.07176402, 0.076375715, 0.038973127, 0.019146763, 0.06174044, -0.022418221, 0.064899825, 0.047724865, -0.029536596, 0.009646976, 0.10402056, -0.09993387, 0.12132858, 0.060380522, -0.03444221, 0.070297286, -0.08853911, -0.059108093, 0.018362446, 0.013404508, 0.07877532, -0.044405613, -0.061562695, -0.016592829, 0.034323797, -0.12210789, 0.11105675, -0.064446576, -0.06057282, -0.0045311903, 0.05296422, -0.04903651, -0.043782026, 0.057707906, -0.114551656, 0.10504415, 0.10497373, 0.011170552, -0.0038443648, 0.018074268, 0.06392321, 0.015466618, 0.06626452, 0.05720464, -0.029906325, 0.0011893879, 0.04966642, -0.009779065, 0.03913066, -0.012610794, -0.06577166, 0.10264406, 0.053855803, 0.0016195262, 0.08440869, 0.06001475, 0.10149031, -0.0015780352, -0.041686594, -0.097326264, -0.06668564, -0.0045698564, -0.023020374, 0.03397539, 0.022151973, 0.2142359, 0.23848239, -0.042418476, -0.08089796, 0.048367534, 0.12207976, 0.021988072, -0.024119888, 0.01742073, -0.010202428, 0.062369943, 0.031967945, 0.08771724, 0.09618333, 0.051062994, 0.09677038, 0.06707513, -0.114708714, -0.06126909, -0.055448834, -0.029035572, 0.16354539, -0.074685164, -0.007264739, -0.100522526, 0.11382007, 0.05684415, 0.11344405, -0.0751487, -0.12142044, 0.010022868, -0.029229766, 0.008501758, -0.13318694, -0.04244555, -0.114691086, 0.020541899, 0.064487234, 0.03787318, 0.042773444, 0.018530732, -0.05718289, -0.037595026, 0.11069561, -0.011448461, -0.025727985, 0.008986171, -0.005218327, 0.06998145, -0.011081167, 0.07414535, -0.048422076, 0.11541549, 0.07285414, -0.056128383, 0.040648285, 0.17292835, 0.0017052441, -0.1403195, -0.0073561366, -0.042521752, 0.060572084, 0.15295196, 0.09435697, 0.08576052, 0.09074217, 0.09710916, 0.027349718, -0.18414737, -0.035606004, 0.021230495, 0.055264212, 0.00413512, 0.056259774, -0.006745326, 0.22889893, -0.07734995, -0.0461287, 0.018433135, -0.06371359, -0.036863938, 0.008280256, 0.15513828, 0.07594589, -0.03731838, -0.1740029, -0.01067031, 0.012440991, -0.016241472, 0.05362123, 0.07316778, 0.011017382, -0.14960478, -0.29674962, 0.003476764, 0.077556916, -0.03516965, -0.034524146, 0.07305928, -0.03733011, 0.114126556, -0.044335894, 0.020642726, 0.08048069, 0.024025131, -0.03070751, 0.036679942, 0.019246986, 0.14510345, 0.15673509, 0.04189188, -0.0065473276, 0.00212444, -0.038653273, 0.09255308, 0.036001563, -0.000622784, -0.105591424, -5.4255626e-05, 0.10229544, -0.13136132, 0.0499753, 0.12352261, 0.09030521, -0.15742226, -0.03149839, 0.11148174, -0.026950415, 0.064955965, 0.13867745, 0.10350597, 0.02540224, -0.007889546, 0.038005754, -0.1680448, -0.0824606, -0.10013041, -0.15697047, 0.060111813, 0.05113507, 0.022779595, -0.11496804, -0.024166739, -0.06174815, 0.063890584, -0.036451727, 0.013888433, 0.015501148, -0.0734847, -0.012340433, 0.021489495, -0.12757479, -0.23305224, -0.15365167, 0.06402466, 0.0751503, -0.06078722, -0.12675284, -0.10663912, -0.10132739, -0.051014837, -0.08796132, -0.06162825, -0.28522447, 0.067929, -0.0028041934, 0.06561401, -0.061929766, 0.07185178, -0.0741781, -0.0034054648, 0.0601248, 0.12793273, 0.09527683, -0.0048341295, -0.08402272, 0.030651927, -0.07968369, -0.09554236, -0.00535022, -0.021500286, 0.05945252, 0.012151508, 0.011677388, 0.104187466, -0.013365983, -0.008863498, 0.13307376, 0.026000967, -0.034415387, 0.033076122, 0.09458501, 0.13875972, -0.027504997, -0.05204919, -0.0061546583, -0.017546438, 0.008338111, -0.13367516, 0.078411624, -0.044687532, 0.048847098, 0.049973965, 0.08136121, -0.0841422, -0.12852706, 0.03308158, 0.053350966, -0.04247074, 0.017065164, -0.009911484, 0.04878556, -0.036315553, -0.025519686, 0.0031942604, -0.043835644, 0.052276615, 0.0019451177, 0.009846834, -0.0002397711, 0.021696659, 0.13032426, 0.026559796, 0.030805044, -0.13156927, 0.039252795, -0.022774713, -0.08834416, 0.06536997, 0.027478945, -0.105977945, 0.05157827, 0.0046612266, -0.06853374, 0.06800366, 0.07847393, 0.05210015, -0.17956764, 0.07762551, -0.01067516, -0.09276399, 0.0069032805, 0.12064077, 0.06684073, -0.0158642, -0.025402045, -0.0018727555, 0.165697, 0.056267846, 0.06304967, 0.000797932, 0.06266055, -0.039761428, 0.08910729, -0.105570935, 0.06342907, -0.03688525, -0.06612624, 0.120478, 0.07664318, 0.05982283, 0.060173083, -0.0190376, -0.04546788, -0.06840342, 0.034843456, 0.00054454885, 0.13485283, -0.14398326, -0.14620583, 0.14464365, 0.11426243, 0.045079365, -0.051521603, 0.018917225, -0.032452557, -0.02770914, -0.058915935, 0.0051774657, -0.053343322, -0.029643128, 0.08146621, -0.028976064, -0.12742598, -0.0066932505, 0.0060309367, -0.0636872, 0.008369537, 0.10817224, -0.055610914, -0.051262062, -0.036929596, 0.0022347914, 0.1754538, -0.0032227067, -0.01057389, -0.058599897, -0.035049688, -0.050386645, 6.323239e-05, -0.025010616, 0.070879474, 0.027244173, 0.13484402, 0.057802, -0.10822364, 0.0053056204, -0.10267871, 0.0048426483, -0.061442398, 0.055818062, 0.17600004, 0.120546825, -0.013459558, 0.033642635, 0.096856244, 0.0033135426, 0.06802239, 0.15826929, 0.11061242, 0.05266476, 0.17539039, 0.033819325, 0.06428099, -0.027857268, 0.08918467, -0.08476275, -0.0021332, -0.08757268, -0.10055084, 0.13038693, 0.16891827, 0.09371088, -0.070915885, -0.028390689, 0.046657912, 0.09655882, 0.029541744, 0.04571939, -0.07776589, 0.0020111166, 0.024219356, -0.10485983, -0.08081779, 0.028727733, 0.092249066, 0.047146622, 0.07941367, -0.07014368, -0.060707767, -0.050962977, 0.032968942, -0.05420827, -0.075952604, 0.095135234, -0.022648789, 0.022648266, 0.034916427, -0.068588726, -0.15018634, -0.0037283401, -0.115767516, 0.02553421, 0.0044682194, 0.06501083, 0.12114833, 0.010860057, 0.004816025, -8.461746e-06, 0.062026538, -0.084392205, -0.11707426, -0.048038285, 0.003010466, 0.03928315, 0.06575237, -0.121351466, 0.050173853, 0.055839695, -0.03276597, -0.034774233, -0.06875836, -0.007958624, -0.017774142, 0.058338054, -0.11797242, 0.13984166, 0.12660605, 0.049030066, -0.12943697, 0.17219022, 0.062411144, -0.04112639, 0.26007596, -0.16670232, -0.074338704, 0.06583485, 0.09747103, -0.012967842, -0.037067644, -0.065176, -0.08828918, 0.03070588, -0.14336725, 0.015637493, 0.005586463, -0.0115904445, -0.03610043, -0.08919304, -0.0103816, -0.009465002, -0.032097578, -0.019544547, -0.07780349, 0.041647937, -0.017740542, 0.008753234, -0.023757359, -0.03177952, 0.17491321, -0.007666524, 0.06322172, -0.006259274, 0.060513172, -0.041286007, 0.017637327, 0.071784444, -0.029429583, 0.05807242, 0.0070068086, 0.08878818, -0.00071956695, -0.073667094, -0.15868923, 0.0016735333, -0.058962252, 0.07292439, -0.10454681, -0.015911479, 0.077225715, 0.033336345, -0.023672119, -0.080849305, -0.046129167, 0.0004953612, 0.029197099, 0.14457496, -0.033055484, -0.0037018422, -0.18666567, 0.054767877, 0.050873164, -0.046742253, 0.05915493, 0.015930088, 0.0014597614, -0.07176336, -0.0045802114, 0.023446701, 0.0018434674, -0.048717804, 0.000481165, -0.069524206, 0.09308527, -0.030915806, 0.113814615, -0.11129108, 0.099067844, 0.012234439, -0.0009898896, 0.11091758, 0.017418472, -0.026057096, -0.06479089, 0.022103589, 0.00573822, 0.019822834, -0.07474674, -0.068754725, 0.056417424, -0.034357235, -0.14050026, 0.10084799, -0.023206241, -0.044138547, -0.014794694, -0.008563472, 0.07560992, 0.026230458, 0.10314782, -0.078671925, 0.051254667, -0.010387009, -0.16192876, 0.10760161, 0.063049994, 0.08384492, -0.08542439, 0.08173464, 0.020831311, -0.081210114, 0.012521857, 0.09865013, 0.15067783, 0.06854573, 0.17258088, 0.06684553, 0.02254623, -0.041659817, 0.018411297, 0.07622634, 0.025467182, 0.010285155, 0.11261217, -0.00050488394, -0.05030437, -0.037045397, 0.11565611, 0.031941492, -0.0494526, -0.0077369763, -0.03180664, 0.12491421, 0.17731872, 0.100035675, -0.045870174, 0.112519465, -0.10853878, 0.05108403, -0.23379083, -0.16804872, 0.004501494, -0.06552304, 0.012528328, -0.087608054, 0.065008804, -0.17017522, 0.18139732, 0.00672536, -0.018473936, 0.023179052, -0.099186346, -0.029233648, 0.08209723, 0.07602296, -0.11731543, 0.00027047726, -0.007654934, 0.02226958, -0.06758104, -0.0647864, 0.090179354, -0.047296077, 0.05820453, -0.11584712, 0.025825374, -0.03226907, 0.12161484, -0.030870076, 0.0427343, 0.018202273, -0.0907576, -0.023189899, 0.0037534432, 0.03990354, 0.040589303, 0.13862723, 0.08128755, -0.023153996, -0.13000856, 0.0036455889, -0.06583051, 0.06707378, -0.053879444, 0.11477156, -0.01711288, 0.07225238, 0.09163468, 0.1561342, -0.079711854, 0.049256068, -0.03417149, -0.007223712, 0.06338521, 0.018900327, -0.090174735, -0.028187467, 0.2331738, 0.06630651, 0.13581218, 0.072183855, 0.0017410576, -0.005389811, 0.047475457, -0.04077738, 0.059135817, -0.08821174, -0.009170156, 0.004632307, 0.03174947, 0.066306666, 0.13221897, -0.057681046, -0.12753949, 0.004321273, -0.083952755, -0.0060753105, -0.089770034, -0.10631954, 0.011881506, -0.01208761, 0.060790867, 0.023462309, 0.061584763, 0.028290557, -0.13728024, -0.025584115, 0.08886953, 0.12813757, 0.18729626, 0.15549003, 0.071422905, -0.018471584, -0.07792849, 0.08131517, -0.071808144, 0.102594264, -0.026248585, 0.11138528, -0.018857634, 0.044875447, 0.041104026, 0.08056846, 0.13244084, 0.19676894, 0.18861212, -0.12925279, -0.050797928, 0.07633819, -0.010482696, -0.05830201, 0.0049761087, 0.040305585, 0.03581332, -0.036033418, -0.051782884, 0.049483303, 0.010771321, -0.1894801, -0.07636473, 0.06422221, -0.016704421, 0.047870506, 0.0107809, 0.065674424, 0.03809541, 0.014957146, 0.089356355, 0.011993487, -0.011957132, 0.05237154, -0.0076159323, -0.04808199, -0.0076119243, -0.18961136, 0.07662651, -0.08866917, -0.038901087, -0.07989599, -0.028146813, 0.1702669, 0.019334408, -0.003605109, -0.22587009, -0.043353457, -0.08495503, 0.07091043, -0.028330307, 0.07766002, 0.026221182, -0.17185687, 0.06426303, -0.027682109, -0.05045549, -0.051709317, 0.016504455, -0.03513926, 0.04545311, -0.034285944, 0.111648306, -0.11489394, -0.03776765, -0.08913472, 0.02957992, 0.060793433, 0.074932426, 0.0068323156, -0.008215469, -0.019048147, 0.06407326, 0.035484556, -0.07037624, -0.019302672, -0.05183707, 0.07731189, 0.10322768, 0.15938902, 0.058527324, 0.030984484, 0.08077725, -0.07773272, -0.024433045, 0.023798348, 0.074799836, 0.042123817, 0.08343962, 0.073943526, -0.052856583, 0.080491565, 0.010663821, 0.018488973, 0.087724656, -0.06719421, 0.004699888, -0.056643628, 0.08597826, 0.079864234, -0.023700317, 0.07272016, 0.045260146, 0.038472, 0.113437966, -0.022028474, -0.0890158, 0.20351477, 0.052896637, 0.08057517, -0.14129077, 0.0769411, 0.10011591, -0.030775232, -0.010815362, -0.0907187, 0.074887164, -0.0067557115, -0.011411316, 0.056825247, 0.07341802, -0.19090888, 0.016983276, -0.06170405, 0.007133093, 0.05259233, -0.058441997, 0.0027451422, -0.017086713, 0.055613432, -0.05627992, -0.11588464, 0.049157914, -0.013050974, -0.10314302, 0.01797723, 0.101374306, 0.010107263, 0.0022956738, 0.0019911355, 0.015535061, -0.12007586, -0.15027706, 0.13155913, 0.15775669, -0.12875812, -0.116142996, -0.020742351, -0.017915387, -0.033772506, 0.0118325325, 0.002872061, 0.116950415, 0.018545931, -0.041701052, 0.007871206, 0.04996677, -0.12773192, -0.17109002, -0.053220894, -0.014785145, -0.0009552305, -0.1303584, 0.13149616, 0.035893627, 0.20462249, -0.09054282, -0.016276035, -0.15950616, 0.20905113, -0.0006162832, 0.08843866, -0.012363306, -0.030447502, 0.029142583, 0.0025308346, 0.015056953, 0.014770663, 0.13095286, 0.07567467, 0.0107264435, -0.010810435, -0.0130005535, 0.022265011, 0.08678681, -0.008787611, -0.00084830297, -0.12798937, 0.0627205, -0.0035750312, 0.047899943, -0.014477044, -0.0110674435, -0.03016403, 0.0012935505, -0.038990278, -0.04873506, 0.06097639, -0.07759326, -0.053905778, -0.016979482, -0.11143513, -0.02029996, -0.07506939, 0.083566375, -0.02352015, -0.12739155, 0.027686449, 0.010642865, -0.012058759, 0.116977155, -0.02507331, -0.098138325, -0.12299876, -0.21819054, 0.102117, 0.034696277, 0.021003574, 0.1742876, 0.021296874, 0.02297468, -0.030821769, 0.07991016, 0.015888145, -0.05585072, -0.039705373, 0.12050102, 0.12561499, -0.051144674, -0.01174956, 0.030348724, -0.0037670583, 0.018341022, 0.08400164, 0.13864991, -0.037962817, -0.0710913, 0.06906195, -0.0092108, 0.14675696, 0.059911594, 0.015827848, 0.03408305, -0.111717455, -0.19535902, -0.11062601, 0.049020372, -0.11899017, -0.06703104, -0.07778532, -0.16670987, 0.049602143, -0.0076553784, 0.05017484, 0.04270037, -0.013810176, 0.036463227, -0.076290146, 0.055167977, 0.029844826, -0.0062299203, -0.057974685, 0.117286585, 0.12561189, 0.08461831, 0.015368293, 0.04317373, -0.028123047, -0.08037893, -0.057004385, 0.07039337, 0.029833265, -0.042954516, -0.1332257, -0.15118404, -0.04226604, 0.13586883, 0.23891243, 0.07815783, -0.033921216, 0.031077137, -0.0132802185, -0.042898986, -0.0033446725, 0.0027496347, 0.015856717, 0.03736491, -0.026400758, 0.0057830443, -0.014253774, -0.032701377, 0.080044806, -0.00022519653, 0.07184988, 0.08326573, 0.0095515, -0.036957454, -0.0012339328, -0.03850055, 0.15267389, 0.10293993, 0.0872946, -0.022773206, 0.0063039074, 0.08972433, -0.031682815, 0.0062270993, 0.011662125, -0.02594193, -0.09937647, 0.0014281098, -0.044237662, 0.06858011, -0.037490983, 0.0567261, -0.010242184, -0.046535164, -0.043824933, 0.07145167, 0.046701536, 0.008154372, 0.07232909, 0.015696794, -0.09472238, -0.12654713, 0.055260576, -0.048730288, -0.009669239, 0.04436313, 0.06696477, -0.06627861, 0.058718406, 0.0684332, 0.03792078, -0.07159872, -0.026859079, 0.04113859, -0.02287831, -0.037471507, 0.062009037, -0.059173893, -0.005894284, 0.018369492, -0.043505188, 0.04899474, -0.02218364, -0.08242517, -0.009944083, 0.07793114, -0.006605358, -0.008622942, -0.011670679, -0.035303615, 0.07031068, 0.0020938327, 0.070222706, -0.08041539, 0.15016714, -0.19770193, 0.016815474, 0.05161537, 0.0540022, -0.0066855624, 0.08177911, 0.09904169, -0.11080788, 0.006148684, -0.03516912, 0.008906929, -0.003176539, -0.07904919, 0.05164157, -0.12710829, 0.09852226, 0.028517937, 0.037735328, 0.013206753, -0.035580438, 0.173012, -0.012633607, -0.07129265, -0.12531558, -0.047549173, 0.03849543, -0.017227111, -0.027084153, 0.115306474, 0.07698242, 0.045675572, -0.1920752, -0.069516085, 0.096534066, -0.044046514, 0.050753944, -0.11457501, -0.069083795, 0.056389973, 0.1989221, 0.07260048, -0.04717236, 0.061853424, -0.17013747, -0.041357044, 0.061102394, -0.038637865, -0.06130345, 0.051843744, 0.076671906, 0.020757783, 0.102130614, -0.044106707, -0.077510245, 0.13952464, -0.15435301, -0.02079379, -0.041252006, 0.05688641, -0.099212244, -0.009377822, 0.18682766, -0.027885415, 0.11787169, -0.17680632, -0.17685308, -0.16269319, 0.14492416, 0.041629687, -0.0019182641, 0.039834864, 0.016142257, 0.008535449, 0.061243348, -0.022665735, 0.11649046, 0.1256006, -0.05218235, 0.022597093, 0.018733725, -0.15851359, -0.112507425, 0.016776724, 0.035296116, 0.112005375, 0.04570706, 0.030995715, -0.012662091, -0.053938534, -0.05034009, -0.030644786, -0.06307533, -0.07970515, -0.064703956, -0.0007944862, -0.05969264, -0.08769174, -0.038683377, -0.044177864, 0.008397567, -0.0062461956, -0.13800672, -0.007045076, -0.0014599576, -0.06361504, -0.05448896, 0.03509796, -0.14159036, 0.10469447, -0.18265213, -0.088638864, -0.08921863, -0.077440105, -0.011412981, -0.20050524, 0.008506391, 0.16059956, -0.01904123, -0.080403246, 0.009504097, 0.0203269, 0.20866899, -0.035620615, -0.063626386, 0.047175042, -0.072160855, 0.07355715, -0.05489722, -0.026927423, -0.10228142, -0.03212403, 0.04739669, 0.25034538, 0.11094648, -0.10139445, 0.11111623, -0.025108576, 0.10031672, 0.070981815, 0.0059020547, 0.017775146, 0.041214142, -0.014564913, 0.17154899, 0.12264631, 0.00963863, 0.10000175, -0.005549921, -0.063234046, -0.06136807, 0.027838297, -0.01820123, -0.05172628, 0.029111592, 0.035730146, 0.040597383, 0.07658045, -8.27477e-05, 0.08287852, -0.14702447, 0.07282223, -0.022188457, 0.022053182, -0.002570428, 0.14435332, 0.04611483, 0.08667706, 0.011459329, 0.07515315, 0.041455954, 0.033263456, -0.0609746, -0.23786074, -0.14715454, 0.01657155, 0.08971174, 0.25004816, 0.0069909804, -0.08317524, 0.005528546, 0.080471806, -0.04963736, -0.0706517, 0.061637197, 0.10665146, 0.03096147, -0.021290181, 0.006997671, 0.026519904, -0.24195465, 0.0900765, 0.08767935, 0.036476187, 0.041166548, 0.04792378, -0.033543162, 0.01726995, 0.03844068, 0.15023579, 0.0055320854, 0.009591056, -0.014985578, 0.06861204, -0.13285178, -0.10769888, 0.004490949, -0.11407675, -0.03500388, -0.17339604, 0.067218915, 0.065278694, -0.031710055, -0.047340736, -0.1803903, 0.010315503, 0.02834499, 0.025714202, -0.0045296615, 0.000762255, 0.0033170322, 0.013765713, 0.043969795, -0.04766942, -0.005038118, 0.06856371, 0.095318, -0.07582997, -0.039074544, 0.05180869, -0.0023164048, 0.08876656, 0.008661054, -0.059225235, 0.047359984, -0.030639116, -0.05647204, -0.018300207, -0.024475513, -0.04685516, -0.048614196, -0.07021367, 0.039333634, -0.05431163, 0.050277304, -0.040293384, -0.057963785, -0.007412587, -0.111169435, -0.017081305, -0.07017454, -0.063319825, -0.021347338, -0.031848993, -0.029761035, 0.08813297, -0.10445257, -0.03459934, -0.058371965, -0.00032598336, 0.036773622, 0.024890592, 0.087638475, 0.10993062, -0.091079116, -0.11107454, 0.10349934, 0.072363205, -0.022688612, 0.05283566, -0.0895021, 0.012141677, 0.074607536, -0.11418712, -0.08711802, 0.16513751, 0.010824533, 0.08930304, 0.055513676, -0.0057717813, 0.05267636, -0.09500639, -0.09733303, -0.012423433, 0.05102301, 0.003571542, -0.03791306, 0.08347738, -0.15329677, -0.10753194, -0.07810395, 0.0038589109, 0.061011285, 0.060910515, 0.01967247, 0.03295258, 0.0037871723, -0.058028996, -0.0077388044, -0.06987689, 0.16330492, 0.013665898, -0.07147286, 0.049486343, -0.084952, -0.052216094, 0.01661129, 0.04176239, -0.0123356525, 0.075352296, 0.009908027, -0.0298053, 0.15355475, 0.046654433, -0.05886411, 0.06623812, 0.0070264614, 0.05498178, -0.054941826, 0.10453325, -0.060880672, 0.07600119, 0.18895505, 0.01379203, -0.052040316, -0.06441131, -0.07611283, 0.042279497, 0.10354459, 0.04459629, -0.04042587, 0.09289452, -0.290113, -0.08286162, -0.04596922, -0.012973771, 0.064630456, -0.11149164, -0.07582013, -0.02242299, -0.018636553, -0.010540092, 0.050876796, -0.018864084, -0.03561683, -0.07330692, 0.0152663095, 0.026885204, -0.00010650941, 0.036341134, 0.16785182, -0.03270375, 0.022314966, 0.06819277, 0.00046593588, -0.046605755, -0.025823813, 0.0076457392, 0.0010710553, 0.14446838, 0.111333385, -0.11524142, -0.06716327, -0.010462468, 0.049352527, 0.06453284, -0.005310548, 0.020210164, -1.588746e-05, 0.049126033, 0.042078223, 0.42074907, 0.13089691, -0.0070271823, -0.06377152, -0.016492493, 0.009719013, 0.007615595, 0.026283823, 0.027879728, 0.11366476, -0.03353839, 0.04145443, -0.0057823635, 0.08307834, -0.01293559, 0.080632955, -0.07872466, -0.07374291, -0.12573567, 0.07586135, -0.010391879, -0.04828168, -0.053089704, 0.02268592, -0.06255875, 0.027219646, 0.020236468, -0.061007682, -0.037299313, -0.15209933, -0.05988911, 0.14026211, 0.1265179, -0.0012448451, 0.12446681, 0.10756846, -0.03956293, -0.020157024, 0.055526495, -0.15875548, -0.028684907, -0.014847165, 0.012276968, -0.04016338, 0.039779395, 0.17870428, 0.087418415, -0.0902706, -0.13108023, -0.0025812513, -0.046236746, -0.007780439, 0.02361332, 0.13347033, 0.12749374, -0.05218623, -0.030889645, -0.049628973, 0.022415603, 0.13501884, 0.25777704, -0.1645098, -0.10857866, 0.007553488, 0.03140623, 0.0013548594, -0.051064935, 0.06071861, 0.11023602, -0.042117573, 0.012860144, 0.11275192, -0.07296562, 0.07225083, 0.074569955, 0.09693815, -0.049880903, -0.07615052, 0.019646792, -0.016514352, -0.05426002, -0.03210196, -0.009402285, 0.11169235, -0.07975977, 0.0005376299, -0.23387103, 0.07985478, 0.03663136, 0.021926142, -0.006724303, 0.036143277, -0.0041866074, 0.028737543, 0.0025698952, -0.021182245, 0.086598024, 0.0572524, -0.015798068, -0.12978974, -0.025647964, -0.073084034, 0.124841, -0.06690344, -0.029150845, -0.021248622, 0.04013224, -0.12918888, 0.063912146, 0.049460698, 0.0669839, -0.009578647, -0.059701636, -0.06699502, -0.0730177, -0.09284592, -0.04598019, 0.032335162, -0.080922864, 0.0052091912, 0.056420762, -0.0029455184, 0.039444707, -0.00499842, 0.03686715, -0.00923068, -0.07768134, -0.030319199, -0.04047429, -0.03292812, 0.0790381, 0.08668155, -0.0007504419, -0.009276726, -0.021503495, 0.09287227, -0.07670942, -0.06444066, 0.01923621, -0.11122371, 0.012568, 0.05904422, 0.011575101, -0.00656428, -0.15051067, -0.015273149, 0.00086713285, -0.06367119, -0.12220021, -0.019676566, 0.1642001, -0.06762198, 0.05647008, 0.020616995, -0.07045352, -0.05268021, 0.09824375, -0.061769582, -0.09431031, 0.035313193, 0.12820494, 0.11854522, 0.039551776, -0.034997188, 0.01847349, 0.14237648, 0.0105960835, 0.037427228, 0.020637792, -0.008983306, 0.08775429, -0.007397374, -0.022122527, -0.081617855, 0.036264144, 0.038353626, -0.080616474, 0.010090825, 0.088268936, 0.03483968, 0.07156881, -0.020882754, 0.13830715, -0.040684175, -0.124400325, 0.08002713, 0.039596528, 0.03219533, 0.01907375, 0.049805235, 0.015497406, -0.07524655, -0.008557389, -0.23558205, 0.019499885, -0.008771153, -0.16520222, -0.047517512, 0.18088742, -0.06729425, -0.079857156, 0.0032183283, 0.12235279, -0.04144946, -0.12576973, 0.026921337, -0.052015025, 0.041945126, -0.05888425, 0.0639849, -0.028468158, 0.03533422, -0.07794984, -0.08874024, -0.061374553, -0.057895336, 0.034490228, -0.111175895, -0.20538494, 0.010106862, 0.017623672, -0.039064135, 0.03709645, 0.061534714, -0.11157634, -0.05853692, 0.074894756, -0.029802758, -0.015929718, 0.039104152, -0.018203184, -0.018400371, 0.058602445, 0.058763213, -0.059123572, 0.08413229, -0.0068685054, 0.06327589, -0.0026863103, 0.01014278, 0.047477342, -0.07072455, 0.021697694, 0.043759264, -0.19735165, 0.06840362, -0.11387884, -0.20732802, -0.0725351, 0.20300007, 0.107891224, -0.051944956, -0.07785978, -0.013385602, -0.0011374665, 0.18043964, 0.20104222, 0.21225213, -0.1656618, 0.09475772, -0.027942596, 0.06437326, -0.07003862, 0.043895442, -0.11185424, 0.09769087, 0.07237254, 0.03954756, -0.016295457, -0.031295918, -0.015080083, 0.08063131, 0.032666624, 0.22981545, 0.059457514, 0.059140272, 0.04542004, -0.06336956, 0.011056083, -0.063656546, -0.10935964, -0.041690025, -0.0015018631, -0.028321726, -0.14396322, -0.05753129, -0.04472327, 0.036376465, 0.070562616, 0.13485037, 0.10850231, 0.032833554, 0.0891534, 0.029521458, -0.057101764, -0.026205167, -0.04885524, -0.06626404, 0.036486078, 0.0007286194, -0.049775206, 0.1638934, 0.11631342, 9.355857e-05, -0.15066737, 0.09368033, 0.06666173, 0.00064624957, 0.0908888, -0.05013472, 0.052716497, -0.14392327, 0.026225924, -0.007611108, 0.10227092, 0.08455627, 0.01731201, 0.020722425, 0.026096653, 0.055040892, 0.07827012, -0.0022290645, 0.0069497363, -0.03395479, 0.0015348786, 0.042856216, -0.025054352, -0.04883375, -0.032548822, 0.018626116, -0.026628722, 0.16047405, 0.043818418, 0.008083948, 0.1754439, 0.026861643, 0.05223429, -0.06526027, 0.03176285, -0.031980492, -0.01776704, -0.07156792, -0.09831215, -0.021144127, -0.021472827, 0.02730731, 0.18938616, -0.06212798, 0.052715316, 0.07787089, 0.045906078, -0.00550533, 0.08380988, -0.009611639, -0.10868128, 0.032350525, 0.0669876, 0.0035118742, -0.057040878, 0.0246679, -0.010553552, -0.04579933, -0.040247187, -0.014728435, 0.03347156, -0.074888185, 0.07385337, 0.035282668, -0.04669927, -0.12997018, -0.0962836, -0.020244945, 0.007815993, 0.054872807, -0.04200887, -0.034488503, 0.143383, -0.007016752, 0.08325052, -0.0266577, -0.004897429, -0.21530509, -0.067559555, -0.011016045, 0.049958922, 0.08452401, -0.05549953, -0.0030939693, 0.027354235, 0.0463357, -0.073730215, -0.077550985, -0.05484831, -0.06313197, 0.011682325, -0.06532123, 0.075897284, 0.07324947, -0.12372619, 0.04290686, 0.015179188, 0.07940729, -0.011822857, -0.0076579894, -0.11876182, 0.023019694, 0.06823215, -0.15381655, -0.11294962, -0.104842834, 0.013856798, -0.01867984, 0.0027365154, 0.078568466, 0.043963257, 0.059159372, 0.15072179, -0.020839408, 0.08223659, 0.044760093, 0.0018222036, -0.040608305, -0.13445055, -0.061464783, -0.012175702, -0.05183553, 0.008736541, -0.013341429, 0.14244646, -0.02068574, 0.05673891, 0.05995495, -0.010490926, -0.01788767, -0.008945304, -0.01813241, 0.041336328, 0.149688, 0.12297196, 0.11450807, -0.13825804, -0.038269926, 0.035850674, -0.0381024, 0.0011695664, 0.019330893, 0.06696467, -0.041254602, 0.15880294, 0.13693677, 0.14791583, -0.019559542, -0.026820993, -0.041053943, -0.03372002, -0.13108742, 0.10494597, 0.04376634, -0.010050951, -0.08093893, -0.023732057, 0.01615814, 0.14229503, -0.04492253, -0.07359287, -0.11951185, -0.18423797, -0.053963717, 0.06373026, -0.06570695, -0.012082582, -0.1568127, 0.008381502, -0.17921229, -0.11347779, -0.00019977629, 0.014090192, 0.06854593, -0.035089206, 0.17327896, 0.062220726, 0.05736692, 0.053506196, 0.050403442, 0.0037867802, 0.012309264, -0.050579585, -0.025397588, -0.05647346, 0.04023678, 0.014690027, 0.08103851, 0.058890775, 0.1220512, -0.08109243, 0.09889895, -0.01746409, -0.07745654, 0.047969937, 0.041274723, -0.016165305, -0.058890495, 0.04776389, 0.04476143, 0.02023438, 0.15547515, 0.01761546, -0.07918821, -0.018187214, 0.076240964, 0.030791486, -0.04047385, -0.2114816, -0.025032567, -0.10720089, 0.0013999528, -0.013122817, -0.07732155, -0.038974732, -0.093573004, 0.08481931, -0.12574925, 0.21564002, 0.0040562423, -0.064362206, -0.025815558, -0.011797781, -0.15256839, -0.10513963, -0.081659585, -0.025545096, 0.026372626, 0.014752722, 0.014483505, 0.077474274, -0.020785661, -0.07035, -0.10817863, -0.023278276, 0.12988111, 0.03976859, 0.028133044, 0.114726566, 0.05614573, -0.038235933, 0.13691236, 0.018384479, -0.031648617, 0.014904216, -0.06759921, 0.0116894655, 0.1326133, 0.16215213, 0.029444942, 0.11547237, -0.005843883, 0.14922918, -0.0607325, 0.12705322, -0.00074108166, -0.042364173, 0.12740466, -0.22504, 0.0702943, -0.12745035, 0.12598316, 0.060748056, -0.11777388, -0.11374148, 0.014155045, 0.09059046, -0.017699033, 0.025531229, -0.1461405, -0.04514292, -0.09024316, 0.024697714, -0.07922968, -0.13428102, -0.086759545, 0.046790726, 0.028820243, 0.12989672, 0.006835143, 0.033978783, -0.013761219, -0.013758697, -0.06843057, -0.0028568462, 0.2448469, 0.08293911, 0.06346788, -0.0130172195, 0.16659105, -0.054659866, 0.08611039, 0.048472542, -0.11428751, -0.06234871, -0.16884072, -0.1739553, 0.12713146, 0.062508285, -0.019978965, 0.042752605, 0.10610749, 0.09601571, 0.018325625, 0.03068704, -0.060984366, -0.08437473, 0.09314415, -0.071871266, -0.0671334, -0.04934798, -0.16223632, -0.00095636526, -0.023290755, -0.0116493385, -0.08225879, 0.008571518, -0.0825071, 0.10117366, 0.075928874, -0.10398657, -0.027116127, -0.01625472, 0.06374141, 0.01760826, -0.014431151, 0.04014411, 0.112738125, -0.069255054, 0.004624296, 0.04402936, 0.022278301, 0.09286917, 0.026769007, 0.04017234, 0.009952228, 0.00514871, -0.02805387, 0.08135655, -0.05324002, 0.022087587, -0.05959484, 0.002674801, 0.07550526, 0.02876596, 0.11940801, 0.023264676, -0.01750344, 0.020400792, -0.015877642, 0.07437673, -0.0018207815, -0.051966924, -0.022315787, -0.010600035, 0.0706503, 0.03951936, 0.10714527, 0.0792454, -0.004158234, -0.032446127, -0.0792875, -0.017512873, -0.010540719, -0.004573635, 0.0043903515, -0.14397095, 0.08427718, 0.09665051, -0.21066761, -0.047321983, -0.111923344, -0.116791576, -0.11596596, -0.023717063, -0.10590611, 0.0370077, 0.03812738, 0.0043179346, -0.07276301, -0.033557955, 0.08563959, 0.04868015, -0.02900243, 0.14431004, 0.011497672, -0.030658012, -0.020913247, -0.07181151, 0.029604534, -0.07201554, -0.03987725, -0.050119467, -0.018091356, 0.20645417, 0.062535845, 0.08866086, -0.05501171, 0.03842895, -0.07412426, -0.0017881012, 0.1285624, 0.014799144, -0.00703402, 0.026184868, 0.20754524, -0.101704, 0.11088685, 0.037192956, -0.14278448, -0.15650122, 0.010964012, 0.0898999, -0.10047076, -0.061347786, 0.058554355, 0.023857266, -0.10179353, -0.00886767, -0.07004489, -0.12043013, 0.006802469, 0.11216873, 0.034641076, -0.18830232, 0.10548065, -0.028802656, -0.044563815, -0.026254488, 0.01647278, -0.063763216, -0.026201067, -0.13529006, 0.03873718, -0.05434415, 0.10109585, 0.13277231, 0.038831957, 0.036318563, -0.012670273, 0.035403997, 0.06952954, 0.10374764, -0.004292828, 0.025764775, 0.038064267, -0.06533469, -0.044163074, 0.06548903, -0.07561964, 0.0047885207, 0.10860869, -0.015265705, 0.10342644, -0.045949012, 0.058631275, 0.108325936, -0.17328566, -0.051592004, -0.048428766, -0.12190148, -0.030790532, -0.10022923, -0.006328882, 0.1702192, -0.03418709, 0.04632001, 0.07244461, 0.074894406, 0.07735953, 0.006179018, 0.07696661, 0.013487828, -0.14592765, -0.17167011, -0.0053639137, -0.005656151, -0.0025012563, -0.06492713, -0.0066341283, 0.0584516, 0.12079748, 0.06852694, 0.033516742, 0.07514976, 0.016085466, -0.052405562, 0.027329609, -0.033896755, -0.0030693745, 0.07575105, 0.09794457, -0.15434496, 0.11500254, -0.09113964, 0.18821838, 0.12385979, 0.023081275, 0.17471112, -0.014772939, -0.075506955, -0.04217666, 0.017131539, 0.05765327, 0.12143093, 0.18697213, 0.11412038, 0.012108782, 0.086186424, -0.00758653, 0.1613504, -0.004299744, 0.04600025, -0.14262106, -0.01804845, 0.036688015, 0.07694588, -0.032230835, -0.0630225, 0.06120508, -0.021009648, -0.11930201, -0.07706669, 0.120309696, -0.007198839, 0.08170256, -0.0663319, -0.04619866, -0.022393111, -0.034121364, 0.06980079, 0.014423076, 0.02397157, 0.054442853, 0.113282375, 0.0033844293, -0.029670378, 0.068522096, 0.021272553, -0.020696146, -0.03448313, -0.11239815, -0.086058676, 0.0041515557, -0.06168412, -0.0103225205, -0.094139434, 0.06390201, 0.071969144, 0.21635184, -0.033483706, 0.0380277, -0.074124955, -0.12116252, 0.03663898, 0.19063027, -0.07132699, 0.11575324, -0.009454197, -0.10435217, 0.031062584, -0.019190487, 0.021722443, 0.053118743, -0.062163487, 0.09970883, -0.058309752, 0.04687617, 0.014623914, 0.024151566, -0.07676486, 0.02276639, -0.011442642, -0.042241048, 0.09932179, 0.07723194, 0.002949528, 0.094412744, -0.05549986, -0.00033862164, -0.01867898, 0.0030760022, 0.043666743, 0.014620524, 0.03932951, -0.05430188, -0.098495275, 0.042537358, 0.06421209, -0.010669104, 0.13631868, 0.0072393827, 0.033919275, 0.06454063, -0.0023904324, 0.009870794, 0.04294161, -0.017476965, -0.0376581, 0.076619856, 0.034764264, 0.08435569, -0.10393249, 0.037361085, 0.04293387, 0.06411537, 0.000190026, 0.06170975, 0.019961441, -0.090516545, -0.002906768, 0.0026129715, -0.11602411, 0.0070716236, 0.046690293, 0.045215994, 0.03942569, 0.06515822, -0.008457903, -0.023480503, -0.081083916, -0.07388487, 0.046809036, 0.13886584, 0.026425842, 0.12051616, -0.069015436, 0.02964512, 0.00020258987, 0.000999972, 0.016261594, -0.09449112, 0.029829051, 0.048322793, -0.0940935, -0.046038445, -0.021656305, -0.10101411, -0.021369446, -0.05704316, 0.052174054, -0.00046130794, -0.079730116, 0.07454126, 0.021361247, -0.22807935, -0.13543339, 0.065671116, -0.18752564, 0.07350586, -0.046346106, 0.07723747, 0.0029554178, -0.06361938, 0.0066077895, -0.12240466, -0.03887223, 0.094981015, 0.07765062, -0.20610245, 0.01962022, -0.055183735, -0.008532765, -0.032014627, 0.052164022, -0.06818413, 0.014311156, -0.23880084, -0.017800784, -0.039438836, -0.06308047, -0.064023905, -0.117521085, 0.03777215, 0.09774159, -0.071582176, 0.035052076, -0.105666704, -0.012866234, 0.012510061, 0.14897934, -0.07917695, -0.1510511, 0.023636205, -0.07755695, 0.040076546, -0.046222713, 0.013011985, -0.08674747, -0.07822137, 0.061556917, -0.056170076, -0.026717627, -0.032236785, 0.031859953, -0.0470563, 0.11765496, -0.0060234223, -0.026680779, 0.0777813, -0.07285545, -0.016594997, -0.06730976, 0.010151976, -0.057202462, -0.05157126, 0.032429423, 0.016302515, -0.06541174, -0.10232456, 0.06370213, 0.18782683, 0.014959459, -0.011294249, -0.07425107, 0.06457285, 0.21766205, 0.024389137, 0.11001995, -0.13787456, -0.08634627, -0.18148974, 0.04124955, 0.078672625, -0.015451998, 0.007356837, -0.027290573, 0.040891934, 0.035899706, -0.045800395, 0.018856792, -0.015304045, -0.044683676, 0.027799461, -0.020378971, 0.04191541, 0.043645535, -0.025486177, -0.27205706, -0.017315436, 0.08423487, -0.0628031, 0.024875827, -0.07819397, -0.026460549, -0.051191658, -0.024535319, -0.02924739, 0.10463421, -0.09604125, 0.040251836, -0.14321649, -0.13044491, -0.12770168, -0.18836848, -0.04313146, 0.01670458, -0.01765649, 0.005112739, 0.02339396, -0.1305263, -0.13469815, -0.06712593, -0.08302071, -0.14696328, -0.002901626, -0.036374457, -0.011886808, -0.018763993, 0.062182512, -0.06123408, 0.020079022, -0.04399416, -0.0043777633, 0.0005331393, 0.15378268, -0.077656835, 0.043159723, -0.1279016, -0.07651734, -0.021334404, -0.20904046, -0.057191327, -0.08466542, -0.02313234, -0.02358815, 0.14819555, 0.034319002, 0.015699396, 0.05845204, 0.05438412, -0.082179084, 0.0439539, -0.040572982, -0.0686254, 0.24708378, 0.058875483, 0.05645915, -0.043695074, -0.027546681, 0.002836303, 0.07457877, -0.060051918, -0.13399267, 0.0066576037, -0.06754387, 0.08699244, -0.078030445, -0.0089870645, -0.020584857, -0.05855249, 0.05680222, -0.073462576, -0.07356379, -0.044403117, 0.028540095, 0.1004601, 0.020541774, -0.049104188, 0.011701904, -0.17408885, 0.013660295, -0.04980579, 0.06897988, 0.010578008, 0.078256495, 0.08056752, 0.011244399, -0.042326614, 0.032344356, 0.00037067916, -0.02404558, -0.011282358, -0.022077696, 0.094825976, -0.020110575, -0.009867296, -0.031674307, 0.09888143, -0.18184735, 0.05366044, -0.022386447, 0.1334639, -0.023495413, 0.020128159, 0.0019708637, -0.055362035, 0.054585077, -0.013704563, -0.08816671, -0.03281273, 0.009972303, 0.034807675, 0.009246323, 0.02054933, 0.017932972, 0.06429251, -0.042453066, 0.030794242, 0.049984526, -0.022835677, 0.0650071, -0.055546608, 0.052465502, -0.108420275, -0.012570652, 0.032019198, -0.0057596667, -0.12245432, 0.08864851, 0.0056499145, -0.007624131, 0.060776513, -0.011388522, 0.1240804, 0.030052228, 0.028464658, -0.046427295, 0.07188657, -0.015495906, 0.16943432, -0.11981176, -0.04379452, -0.0502732, 0.111977495, -0.022501767, -0.052006688, -0.14701273, -0.1079344, 0.07613518, -0.05094322, 0.0663854, 0.048560508, -0.03591782, 0.0010877224, 0.03775455, 0.022884324, -0.063941024, 0.050877776, -0.15158495, -0.17194769, -0.02218216, 0.04341822, -0.13215676, -0.13980487, 0.057614945, 0.074840575, -0.091017745, 0.040325638, 0.120684355, 0.06491542, -0.047983583, 0.035798717, 0.068685986, 0.13038096, -0.054411326, -0.0015035319, 0.09858478, -0.06432654, -0.0012116166, 0.025584355, 0.056297097, 0.00057848427, -0.2807357, 0.06542992, -0.06466491, 0.12104677, 0.11402492, 0.070625246, -0.084881276, -0.03253909, -0.037736263, -0.0663348, -0.0355373, 0.15520406, -0.036492612, 0.045532163, -0.08033736, -0.030615253, 0.013352177, 0.00039876663, 0.01611742, 0.0013817741, -0.06255499, 0.0062688924, -0.079799764, 0.09182793, -0.050869346, 0.03268727, -0.030797776, -0.09020872, -0.030074386, 0.030186668, -0.03915293, 0.111911476, -0.046032086, 0.03735845, 0.08232671, -0.07577667, 0.095343955, -0.08799761, -0.08892632, 0.100191966, -0.0753033, 0.091387674, 0.15682705, 0.15182805, -0.07619618, -0.027659887, 0.040586628, -0.04079603, -0.017329449, 0.17536032, 0.04312249, 0.10975282, -0.07043037, 0.0578343, 0.056430873, 0.061287235, 0.041036494, -0.012492503, -0.046675276, 0.06418861, -0.0519026, 0.026277851, -0.037111692, 0.01591238, 0.083511226, 0.067368284, 0.0071602375, -0.040648706, 0.056534417, 0.1130022, -0.11122885, -0.048727177, 0.0323129, -0.060751617, 0.10723849, -0.0026644678, -0.14035174, -0.036429606, 0.023657026, 0.04507502, -0.0029295294, 0.003344391, -0.019826274, -0.00849374, -0.02165073, -0.040890116, -0.04370542, -0.055900328, -0.0023807096, 0.06553314, -0.044314872, -5.5295644e-05, 0.01847412, -0.03411547, -0.0019108712, 0.10495505, -0.09535092, 0.07812642, -0.036639545, 0.12580094, -0.0722146, -0.0008968968, 0.0052804253, -0.02677196, 0.022065626, -0.08446615, -0.097187184, -0.07205832, -0.028440658, -0.01876013, 0.0415811, 0.060945205, 0.06815871, -0.024735967, -0.23178163, -0.145969, 0.019287579, -0.0023836195, 0.069592334, -0.007192328, -0.04714708, -0.090105385, 0.06074209, -0.03631479, -0.0017923509, 0.017751852, -0.0019707077, -0.012304595, -0.050447058, -0.078397885, 0.051333353, -0.0072142687, -0.12310382, 0.017713381, -0.10033411, 0.14263918, -0.029110286, -0.013269098, -0.06276559, -0.10153913, -0.049181364, -0.22752343, 0.044638075, 0.14608245, -0.120966434, 0.07290824, -0.06018318, -0.15326928, 0.021966819, -0.014808569, -0.019589365, 0.022938374, -0.044329226, 0.06391402, -0.057144433, 0.028762016, -0.08399977, 0.04266772, 0.015461957, 0.034042083, 0.013247032, 0.07709631, -0.01840488, 0.0076910155, 0.016226625, 0.07003737, 0.08566046, -0.05317369, 0.029305534, -0.030786607, -0.03182242, -0.0076658055, 0.016288659, 0.04051466, 0.0071425443, -0.059878577, 0.0156165, -0.028252456, 0.0683001, -0.059558526, -0.09317676, 0.05091271, 0.050605915, -0.096371844, -0.06279004, 0.052662704, 0.0023937048, -0.07026849, -0.07097312, 0.15710321, -0.025326554, -0.031150127, -0.06784851, 0.011632773, 0.007949672, 0.00048918946, 0.016699482, 0.01919532, 0.051134538, 0.09977904, 0.04324068, -0.039005868, -0.0030478726, 0.077553496, -0.06405917, 0.08534393, 0.106342115, 0.020298926, 0.039822113, -0.067138754, 0.055739835, 0.0033786616, -0.07683382, -0.07791776, -0.12258737, -0.11173994, -0.0035355627, -0.0529497, 0.020265872, 0.0261431, 0.05349162, 0.038991407, -0.01683115, -0.0810661, -0.07186666, -0.0732286, 0.027562572, 0.01588303, 0.018748509, 0.044143494, -0.061844498, -0.04693877, 0.084525764, -0.044979237, -0.015226049, -0.03556146, 0.080523, -0.07571509, -0.10439006, 0.1038978, 0.10739389, -0.0064154794, -0.03615317, -0.00026663605, 0.16485359, 0.19048512, 0.053062286, -0.009020216, -0.1297924, 0.12079819, -0.050237086, -0.110231005, -0.0035721841, -0.066906124, -0.04518089, 0.04074128, -0.16749159, -0.021804858, -0.13269848, -0.102690466, 0.08588701, 0.028913517, -0.17567277, 0.0451388, 0.052250072, 0.051579487, 0.06527499, -0.004672557, 0.008859708, -0.025492003, 0.07115565, 0.10958882, -0.024860881, 0.024588024, -0.10818891, 0.053461358, -0.007303864, 0.07652909, -0.013479939, 0.0014960165, 0.057222914, 0.07220146, -0.1150916, -0.051673587, -0.120308824, -0.080164984, 0.13451937, -0.0032185179, 0.041462943, 0.0013830446, -0.08396713, 0.1061422, 0.06478983, -0.009917568, -0.018441768, -0.14038552, 0.027348934, 0.04550533, -0.09020968, 0.08823411, 0.16781127, -0.08527322, 0.011935184, 0.04851578, -0.053171273, -0.05806272, -0.01856959, -0.07309851, -0.0729578, -0.046786938, 0.08074615, 0.15743805, -0.04941924, -0.051122654, 0.014781141, 0.009852334, -0.07875797, 0.069640994, -0.05316196, 0.17088054, 0.033965435, 0.0053903265, 0.087349065, 0.024233129, 0.0050762747, -0.02414591, -0.016380996, -0.105694585, -0.019167777, -0.026586503, -0.005531708, -0.062922575, 0.07767587, -0.045011275, 0.0075529423, 0.065006346, 0.010087931, -0.032498747, 0.04310193, 0.04474633, -0.026423177, -0.12201993, 0.06782251, 0.023980455, 0.08778305, 0.035870377, 0.012437828, 0.020594055, 0.047081687, 0.13778894, -0.032319307, -0.004500328, -0.037533697, 0.07740326, -0.027287066, -0.012557272, 0.1297962, 0.057745825, -0.047614295, -0.06318688, 0.017839065, 0.012074163, -0.026252493, 0.019595828, -0.016369436, -0.028602323, -0.10370863, -0.100097254, -0.20043112, -0.02197998, -0.0990432, -0.0120738195, 0.08836235, 0.10241674, 0.11688067, 0.0042194063, 0.069697075, 0.040017676, 0.0019373996, 0.09133036, 0.024232836, 0.066372365, -0.021673994, 0.0011235196, -0.14184591, -0.041277546, -0.029849596, 0.0037650408, -0.0073510427, 0.017332148, 0.023577113, -0.071765564, 0.008697141, 0.11235672, -0.023311961, -0.07987537, -0.120024934, -0.09905068, -0.052491315, -0.037141405, -0.011213183, -0.0106196795, 0.06118594, -0.06554061, -0.08968118, -0.008095045, -0.0648311, 0.050283086, -0.030624662, 0.020825889, 0.048822276, 0.012187374, -0.032354876, -0.13688616, 0.06386174, -0.008270168, -0.021336205, 0.0155129945, -0.006943071, -0.047469277, -0.087800324, 0.06701733, -0.119732805, -0.08963761, 0.056091383, 0.035493776, 0.08446609, 0.008675526, 0.021601982, 0.015820885, -0.027419612, 0.0141318515, 0.076921895, 0.016656011, 0.10945415, -0.041248623, -0.07351361, -0.1967028, -0.16943732, -0.021673264, -0.08615958, -0.001662503, 0.05852527, -0.02007359, -0.032334093, 0.13321869, 0.051002175, -0.022029418, -0.07937257, 0.0070405705, -0.07397055, -0.010595522, 0.007167909, -0.03064365, 0.029557183, 0.070540056, 0.27032092, 0.13054167, 0.06387394, 0.08516088, 0.0016709989, -0.002044686, -0.024849748, 0.011820703, 0.018130504, -0.0836872, -0.11897651, 0.04611758, -0.13020091, 0.06486347, -0.2083133, -0.0929477, 0.07034786, 0.002236863, -0.06843004, 0.038009807, -0.11336225, -0.0934333, 0.013112906, -0.048211806, -0.16621044, -0.057642356, -0.0127651105, -0.101721935, 0.041821185, 0.011885481, -0.0040660365, -0.080185875, -0.019238736, -0.11183651, -0.033644605, -0.07928557, 0.017991876, -0.0022761046, 3.9558872e-05, 0.042685505, 0.05514639, 0.045460425, -0.13025436, 0.014831721, -0.028099107, -0.15281767, -0.045658883, 0.11858148, 0.030195327, 0.021690402, 0.056003317, -0.14081135, -6.598247e-05, 0.025661506, -0.084800005, -0.047646657, -0.027438415, 0.076535776, 0.03985272, -0.11590279, 0.090538405, 0.12194015, 0.12506378, 0.03516112, 0.042822346, 0.028818378, -0.059522513, -0.10078624, -0.053396277, -0.15859511, 0.03186996, 0.07194312, 0.032404665, 0.06228198, -0.027097829, 0.033395287, -0.0014109476, 0.00551614, -0.0395397, -0.0025567252, -0.009212438, -0.013467806, -0.0231576, 0.03289122, 0.08530353, -0.003951726, 0.0314427, 0.102099456, -0.04968018, -0.039705884, -0.10689675, 0.017392455, -0.0824416, 0.030071976, 0.025829768, -0.0319346, -0.24681626, -0.035484098, 0.10709466, 0.1264018, 0.14355044, 0.09519201, -0.16025199, -0.007914081, 0.15918012, 0.04081418, 0.023913005, 0.13734236, -0.16844271, -0.3378037, -0.13166918, -0.14761782, -0.031375553, -0.001392361, -0.009253828, -0.029257853, -0.03531701, 0.1781972, -0.06111753, -0.045451526, 0.052075297, 0.0071488195, -0.075677834, 0.092680104, 0.059508402, -0.028435087, 0.0021991325, 0.07878271, -0.03132771, -0.061489828, 0.13091561, 0.003383569, 0.025880635, 0.012945354, 0.06913256, 0.07267994, 0.11068542, 0.25750348, 0.0008787628, -0.013957192, 0.08289619, -0.08876498, -0.101676874, 0.018084688, -0.09048626, 0.090075724, -0.05145419, 0.09727602, 0.07302441, 0.035613317, 0.06994976, 0.10715426, -0.020477513, 0.045363452, -0.17920554, -0.11043059, -0.05446317, -0.14877647, -0.054102246, 0.02347766, -0.07947243, -0.10693138, -0.0073505417, -0.060631078, -0.07176044, -0.03751972, -0.040843, -0.03766986, -0.10573161, -0.06325279, -0.10235986, -0.051280323, -0.07437914, -0.055973824, 0.04115583, -0.00883251, 0.14001678, 0.03137509, 0.027194751, 0.044962656, -0.12286872, -0.01944533, 0.017291928, 0.081307195, -0.05956551, -0.060503736, -0.15961787, -0.12010584, 0.027420228, -0.0047215396, 0.0038817907, 0.007585831, -0.098741636, 0.022871895, -0.019388622, 0.0054596364, -0.0712633, -0.058959525, 0.0103842355, -0.08091968, -0.009180742, 0.012478372, -0.0118758455, 0.0041660853, 0.037115578, -0.043720547, 0.06850645, 0.032227192, 0.044138215, -0.084729604, -0.07123903, 0.03361831, -0.055345442, -0.10321659, -0.050445147, -0.009223456, -0.012956383, 0.06678755, -0.045739293, 0.059172425, -0.0066237976, -0.023221908, 0.0712942, -0.058708627, 0.06200786, 0.0887397, -0.016342275, 0.022749435, 0.06128806, 0.025336139, 0.06995951, 0.0493696, 0.1355465, 0.00042733568, -0.058886934, -0.072971866, 0.08614451, -0.054616995, 0.0061852033, -0.057354383, -0.0040396214, 0.045519765, -0.0038971952, -0.08337626, -0.0028692605, -0.0080708265, -0.12929517, -0.007702633, 0.006249298, -0.041788142, 0.024312133, 0.04244448, 0.06913044, -0.014618653, -0.026378429, 0.09920184, 0.032616522, -0.077104814, -0.04408992, -0.004901378, -0.008846872, -0.046806436, -0.068906605, 0.09235602, 0.010813969, -0.073010534, 0.008327923, -0.00911341, 0.07425621, -0.07603421, 0.09944244, 0.0024463215, -0.078629926, 0.042206954, -0.09122039, -0.06342372, -0.02608497, 0.0861186, 0.0195787, -0.10990994, -0.09445219, -0.17561837, 0.07942858, -0.09195932, -0.050210573, 0.015337113, 0.11301825, -0.013468118, 0.15151748, -9.557532e-05, -0.20670162, -0.21016017, -0.05556308, -0.06482202, 0.104040444, -0.009464779, 0.09475385, -0.020003347, -0.006260794, -0.0026881793, -0.013926038, 0.1794059, -0.04218229, 0.08095378, 0.18132105, 0.12233233, 0.1025213, -0.034439564, -0.12809439, -0.036942724, -0.04403037, -0.0052613174, -0.06924638, 0.031763088, -0.07564999, 0.0036112966, 0.058043156, -0.05475727, -0.091595866, -0.0811292, 0.10188346, 0.034643587, -0.07833457, -0.025195848, 0.025586503, 0.04082679, -0.026550975, -0.043713156, -0.014103587, -0.017661475, 0.04361427, -0.0019597416, 0.045770913, 0.014851714, 0.06846235, 0.061385088, -0.0054538166, -0.05766413, 0.05577265, 0.093921416, -0.034832828, -0.058039896, -0.0717743, 0.02138723, 0.055110607, 0.1162814, -0.1394607, -0.02627407, -0.032301847, -0.01715562, -0.11991219, -0.05282486, 0.17609926, 0.18149675, 0.008572073, 0.17190747, 0.026239075, -0.10779193, 0.0819787, -0.077053584, 0.013918311, 0.12698719, -0.027123373, 0.00216651, 0.0030416516, 0.04198246, 0.23921998, -0.08765577, -0.03443645, -0.02466551, 0.07606194, 0.027843278, -0.08260993, -0.05508296, -0.0043903934, 0.07078916, 0.095628634, -0.08387583, -0.019313356, 0.05141047, 0.09070627, -0.06830249, -0.14214446, -0.26183054, -0.08838928, 0.03290143, 0.013590046, 0.0043993215, -0.08250954, -0.15063664, -0.11533168, -0.10777427, 0.057415195, -0.09671479, 0.10313658, -0.04607075, -0.04682775, -0.034122165, 0.114012256, -0.028284302, -0.022698274, -0.11976599, 0.0064327056, -0.11186294, -0.1794833, -0.01438565, 0.09142804, -0.0391443, 0.0635587, -0.049842406, 0.039442636, 0.050373614, 0.052214514, 0.0145505285, 0.058817428, -0.14408104, 0.10009676, -0.132215, -0.007902437, 0.11122285, -0.21304643, 0.15645286, 0.019439457, 0.16159628, 0.07876692, 0.0063234484, -0.05472568, -0.028685935, 0.025311934, -0.008665522, -0.070371315, 0.022954825, 0.079710364, -0.0121359, 0.009079868, -0.018696133, 0.0744766, 0.061018273, 0.095641546, 0.13495778, -0.023795258, 0.006468137, -0.030514365, -0.05005007, 0.005759883, 0.014445629, -0.04779953, 0.026223712, 0.07556645, -0.028892828, 0.024086276, -0.100773014, 0.114881895, -0.022388048, 0.083042555, 0.036549646, -0.10428112, 0.1257503, 0.06951625, -0.01657348, 0.0806468, -0.02353931, -0.013170868, -0.027645584, -0.0021786548, -0.033383913, -0.081826545, 0.055074386, -0.019265644, 0.0372243, 0.040183492, 0.062981896, 0.08330583, 0.045428574, 0.017313896, -0.022011738, -0.0043282635, 7.617343e-05, 0.0014520927, -0.11951155, -0.021906856, 0.092347205, -0.027345046, 0.042524267, 0.021609612, -0.027215192, 0.05561949, -0.054344673, 0.05835463, 0.030940965, -0.0789454, 0.11154261, -0.036972478, -0.0039777556, 0.032272577, -0.03166994, -0.06835059, 0.024979847, -0.023678215, 0.025369415, 0.010437453, -0.051277388, 0.028037746, -0.043333553, -0.03446805, 0.03270525, -0.04749867, -0.06323697, 0.021347005, 0.029517096, -0.006426845, 0.054929793, 0.06254448, 0.06077735, 0.032969613, -0.09852559, 0.0007927176, -0.028409678, -0.09499286, 0.015653307, 0.016540708, -0.038391057, -0.05493434, 0.07823862, -0.05267182, 0.078228086, -0.17831694, -0.06950217, 0.0472735, 0.066413224, 0.030387832, -0.07846158, 0.013607453, -0.08858458, -0.09902528, 0.07722844, 0.17922798, 0.1641898, 0.11641018, 0.24282297, 0.004704863, 0.041396108, -0.0058790264, 0.06267752, -0.16886899, -0.023674363, 0.048473164, -0.015365215, -0.066415556, -0.04070947, 0.1088133, 0.038564812, -0.007079968, -0.020858994, -0.030405585, -0.040808566, -0.11360689, -0.19316927, -0.06813554, -0.06918038, -0.015990978, 0.021480903, 0.051806055, 0.031285375, -0.04511658, -0.057569362, -0.009473514, 0.12592271, -0.063686654, 0.072280966, -0.017601293, 0.19184488, -0.011862042, -0.022539312, 0.018518405, 0.03871175, -0.035241704, -0.031900745, -0.114581175, 0.030074693, -0.0063560903, -0.085721366, -0.1229763, -0.09540402, -0.040353768, 0.0012239974, 0.019428136, -0.025115013, 0.013912238, -0.052895013, -0.016602462, 0.019460887, 0.06555742, 1.2103496e-05, -0.08814478, 0.056038577, -0.054873403, -0.004578001, 0.003828427, -0.024043094, 0.050760426, 0.07955387, 0.08122142, 0.10671278, 0.009222265, -0.038447972, -0.057734583, -0.025608055, -0.014949554, -0.15984686, 0.1372417, -0.034463692, -0.08009482, 0.08000005, -0.18182583, 0.024067141, -0.06881782, -0.18187979, 0.02916347, 0.080406755, 0.12279457, 0.11327839, -0.06507987, -0.025226524, -0.021911686, -0.00075945415, -0.0383682, -0.028535577, 0.117059894, 0.14927551, 0.066948086, -0.05065839, 0.07775018, 0.10386827, -0.014327114, 0.03408787, 0.1779779, 0.17335525, 0.013026883, 0.08801629, -0.02756973, -0.15712991, -0.08626091, 0.03437205, 0.047172837, 0.005043604, 0.09024547, 0.04937117, -0.04350943, -0.18917932, -0.112147294, -0.0915149, 0.0388547, 0.1322489, 0.10399652, 0.18464749, 0.08805296, -0.07399726, -0.049198825, 0.026215697, 0.056756396, -0.062890716, 0.041722905, -0.043305423, -0.083035104, -0.095501065, -0.008390164, 0.037804835, 0.050343327, 0.024288664, -0.09408898, -0.11669589, 0.016260704, -0.06983094, -0.011320375, -0.09416572, 0.13446054, 0.034024943, 0.04121324, 0.021151094, 0.024955824, 0.05343249, 0.069198735, -0.059237633, -0.041080847, -0.027857877, -0.0041646822, 0.019866938, 0.037808344, -0.11951955, 0.10986004, -0.049203925, -0.0151054645, 0.024633951, 0.0070986836, -0.02135224, 0.031679425, 0.16846748, 0.022467831, 0.05330836, 0.0117549375, 0.032369662, 0.03482469, 0.017345756, -0.02426919, -0.12266822, -0.026176104, 0.11974085, 0.09067912, 0.07818131, -0.051998317, 0.0004131146, 0.048339635, -0.10359153, 0.081937514, 0.11105064, 0.106474236, -0.102225274, 0.09302049, 0.040615886, 0.055417452, -0.001019961, -0.10424618, 0.059629377, 0.03516807, 0.033117, 0.00037840108, 0.023683477, -0.016400486, -0.14936629, -0.02540681, 0.10015989, -0.054228976, -0.1460389, -0.044031918, 0.006127943, -0.027877871, -0.041078415, 0.074464776, 0.0017435012, 0.020508332, 0.03331069, -0.058371335, -0.1405136, -0.00434464, -0.116158605, -0.015129266, -0.03298206, -0.054736253, 0.07106669, -0.023842588, 0.17912947, -0.027859649, 0.059039574, 0.055371158, 0.019058775, 0.0036344102, -0.012420351, -0.14460261, -0.06654474, -0.014842741, -0.014893899, -0.041424364, -0.00819725, 0.044727657, 0.027202696, 0.05727435, -0.115723915, -0.1625777, -0.0890853, -0.10468617, 0.025155444, 0.014309879, -0.09805652, -0.057614096, -0.062228624, 0.0007301055, -0.030570224, -0.106883235, 0.07971577, 0.11651552, 0.024480226, 0.13606769, -0.03073944, 0.093024835, 0.010423028, 0.064279296, -0.044038076, -0.02686643, -0.042480536, -0.007166829, 0.0023691922, -0.0509367, 0.035790328, -0.14902483, 0.12965803, 0.07110646, 0.04415217, 0.073774084, 0.010401687, -0.060489673, -0.08462009, 0.014608422, -0.10406473

};


#endif
