#ifndef FC2_H
#define FC2_H
// Header file of the 9-th layer of the model - The type of the layer is fc


float fc2_w[256][25] = {
	0.013660645, 0.055920675, -0.15497458, -0.11924941, -0.07983774, 0.03255949, -0.14914954, -0.17148043, 0.22961816, -0.054880414, 0.13300489, -0.055748235, 0.06802499, -0.1538877, -0.18569587, 0.08890333, -0.01892342, 0.302097, -0.054066654, 0.16200484, 0.20529364, 0.23339784, -0.05178507, 0.16285004, -0.01785535, -0.0032843023, -0.08871625, -0.027642388, -0.15936719, -0.035016622, 0.036047205, -0.05162611, -0.0096345665, -0.16961548, -0.006398395, -0.14841565, -0.18432677, -0.22315758, -0.124032415, 0.026224323, -0.17763884, -0.020235322, 0.36375776, -0.059920866, 0.13208103, 0.10611059, 0.15069209, 0.21862298, -0.095655926, 0.021161843, -0.025946215, -0.054572668, 0.048027728, 0.10707992, -0.054770604, 0.030807294, -0.10843755, 0.15092401, 0.1666368, 0.04378104, -0.25293502, -0.025851551, -0.027308222, 0.054821085, -0.19507314, 0.2173499, 0.117981434, 0.08003771, -0.21919042, -0.17674913, 0.04383162, -0.060074333, -0.15600902, 0.10561506, 0.016383229, 0.0047414284, -0.06251983, -0.049027313, 0.047838792, 0.22403292, 0.018087503, -0.13341495, 0.0022241743, 0.22517028, -0.030379983, 0.11502462, -0.06577636, 0.10485789, 0.10398976, 0.11576266, 0.03901486, -0.08325621, -0.11660646, 0.29973468, -0.072828256, -0.04391795, 0.052449036, 0.13013186, -0.21531415, -0.025201704, 0.100935735, -0.005288358, 0.11459725, 0.066404365, -0.22101541, -0.12312031, -0.1704067, 0.16865583, -0.0059752283, -0.20626843, -0.2725202, -0.035224732, -0.1033923, 0.023107316, 0.14115664, -0.17731683, -0.052699294, 0.019741274, -0.109220475, -0.07723376, -0.12518644, 0.034084104, 0.1352482, -0.27204064, -0.00025161786, -0.09786357, 0.11685259, -0.10756421, -0.012545477, 0.16459455, 0.08580543, 0.10168061, -0.15671885, 0.16050416, -0.00059630827, 0.13420318, 0.0025390433, 0.22362256, 0.08618144, -0.033961803, 0.23271058, -0.04848005, -0.2613482, 0.30046198, -0.015600828, 0.093793534, 0.08246181, -0.17409179, -0.07298558, -0.049791887, -0.13230239, 0.10800389, -0.29930052, -0.15704545, 0.035712, -0.00030395255, 0.06565387, -0.12708859, 0.27782887, 0.11742157, -0.06687906, -0.106818646, 0.1174715, 0.018268248, -0.12702124, 0.26718843, 0.08242578, -0.12586188, 0.04518855, 0.08432201, 0.2137423, 0.084369875, -0.04648212, -0.10791913, 0.043941475, -0.01403921, -0.10232823, 0.0019841706, 0.09814882, 0.017187178, -0.029173305, 0.03629469, -0.002826603, 0.14570549, -0.047411203, 0.21635124, 0.1910759, 0.15185612, -0.20364021, -0.22541806, 0.18270287, -0.047466446, 0.07544938, 0.0115505075, -0.019217692, 0.01120437, 0.08284844, -0.059276417, 0.30109957, 0.15669952, 0.009235934, -0.035940632, 0.09922337, 0.12813158, 0.13986379, -0.17192048, 0.066619985, 0.035956547, 0.036996737, 0.082630165, 0.03686479, 0.23878099, 0.03907894, 0.1438087, 0.077502094, 0.046469837, 0.04447162, -0.16830587, 0.050427396, 0.004462927, -0.27536714, -0.17763251, -0.056008283, -0.14448434, 0.021665312, -0.111217506, -0.0253919, 0.04928222, -0.21945399, 0.0059153764, 0.15898181, 0.0728663, -0.09382911, -0.029051812, -0.07336613, -0.08646197, -0.1941299, -0.056020588, -0.11417773, -0.075731106, -0.06930787, 0.013550308, 0.04068248, 0.11447917, 0.043578, 0.12163173, -0.06271238, 0.12753683, -0.08159869, 0.08765048, -0.1634683, 0.07734547, -0.02886281, -0.099249154, -0.01915971, 0.010626194, -0.083612755, -0.12841517, 0.15117551, 0.0035472396, 0.015416433, -0.08609289, -0.011569605, -0.1603511, -0.26808515, 0.058844548, 0.023076484, 0.07474407, -0.021864077, 0.013545318, 0.09128562, 0.030174922, -0.01142661, 0.04128098, 0.11337331, 0.13659999, 0.08215475, -0.17463857, 0.044036943, 0.15592521, 0.053697605, 0.0425237, -0.1507866, -0.029397106, -0.09165033, 0.13744926, 0.08232086, 0.067279145, 0.060702275, 0.09796686, -0.10615344, -0.09405203, -0.15327987, 0.1827559, -0.0220987, -0.060323868, 0.11172816, -0.035693083, -0.14329486, 0.021671524, -0.019013084, 0.113319926, 0.042403247, 0.11106858, 0.03222265, -0.15652323, 0.0074416343, 0.056076664, -0.112238675, 0.0963009, -0.1955017, 0.047458827, -0.09958332, 0.023394886, 0.11778661, -0.010554206, -0.10553394, -0.17057072, -0.05736066, 0.028517665, 0.003292226, -0.17301679, 0.026746627, -0.23036784, 0.07910653, -0.041263435, 0.13177513, 0.01953245, -0.0110580595, 0.06600599, 0.15882486, 0.21432395, -0.13883527, 0.00750443, 0.032744925, -0.062278416, -0.25764495, 0.0069259317, -0.18878764, -0.080623135, 0.04573744, -0.012368333, -0.05997062, 0.00948852, 0.17112789, 0.13079621, 0.16836679, 0.0012757526, -0.063854106, -0.26140717, -0.0049482873, -0.22624825, 0.14202024, 0.073144495, -0.05480721, 0.10017133, -0.06514848, 0.11552267, -0.08626611, -0.17377439, 0.07233867, 0.20124634, 0.30120283, -0.054844663, 0.07155126, -0.042175554, 0.06943519, 0.08487824, 0.031904135, -0.23192307, -0.066958115, -0.008137487, -0.059825484, 0.2959742, -0.08302884, -0.029758012, 0.1178383, -0.08985784, 0.13539113, 0.07351756, 0.007665665, 0.32141295, -0.083392456, -0.18199635, 0.019044673, 0.1427637, 0.059061915, 0.06341276, -0.035057828, -0.046165057, 0.21563937, -0.097486906, -0.20412137, 0.1283849, 0.17290404, 0.041553296, 0.1578749, -0.03377075, -0.09101833, -0.077197574, -0.06442561, 0.23915644, -0.18282248, -0.13937218, 0.03497166, 0.14886166, 0.1637757, -0.13846412, -0.12618616, -0.0090663675, -0.15950611, -0.3522525, -0.03515278, -0.1159315, -0.097608455, -0.07225755, 0.08344504, 0.11452855, 0.09581177, 0.11014035, 0.025083726, 0.12972862, 0.09715007, -0.10163566, -0.023037381, 0.08310877, -0.07167037, 0.24727586, -0.07833995, -0.006446627, 0.028661273, -0.09363284, 0.30097806, 0.1061637, -0.055957228, -0.13797697, -0.013858933, 0.09650014, 0.07964324, 0.08982502, 0.16396849, 0.017026028, -0.02351348, -0.02154182, -0.2986672, -0.068726994, 0.026777875, 0.066341214, -0.13548, -0.015600043, -0.035285052, -0.049736798, -0.051242467, 0.047497306, 0.010066184, -0.17573942, 0.027839169, -0.01140199, 0.26907006, 0.16023122, 0.10100751, -0.002129402, 0.23369227, 0.058465667, -0.21382812, 0.098429345, 0.035760805, -0.09722298, 0.0062032323, -0.016318876, -0.10662522, 0.17173035, -0.17244701, 0.21952282, -0.018595736, 0.02676591, -0.03868607, 0.081731394, -0.042104505, -0.028377503, 0.1084814, -0.20411846, -0.03179182, -0.026742836, -0.08017751, -0.060530353, 0.108384065, -0.0157563, 0.09952917, 0.27937052, -0.15896888, 0.116498284, 0.11369182, 0.0032746391, 0.007833726, -0.06888007, -0.08591924, -0.21573424, 0.11985634, 0.062168255, 0.04990971, 0.080331035, -0.18746543, 0.01067239, 0.02217314, 0.13649228, 0.062869, -0.070695296, 0.010216285, 0.094685294, 0.17389338, -0.083305, 0.0800693, 0.0029580705, 0.044394143, -0.038879406, -0.11975988, 0.23050298, 0.10159067, -0.051112127, 0.108430736, 0.2687653, 0.0635426, 0.16348368, -0.24200863, -0.054396488, -0.17404285, 0.33906555, 0.13937335, -0.0071489103, 0.2566859, -0.026019925, 0.17601803, -0.06465554, 0.1316614, -0.13004842, 0.08637799, 0.024709236, -0.021572402, -0.017108787, 0.1252544, 0.18319285, 0.0067296005, -0.16190816, -0.10256083, -0.1565705, -0.07232457, -0.18786065, 0.09610833, 0.0196515, -0.2816551, 0.12685522, -0.11500236, -0.12355635, -0.039489135, 0.025210796, 0.037752416, -0.027243124, 0.0065453886, 0.07696893, 0.04048653, -0.11060122, 0.06507427, -0.050289515, -0.024492003, 0.10320585, -0.008853924, 0.14433272, -0.072177134, 0.08245407, 0.1830537, 0.111263014, 0.017025601, 0.10594247, -0.22541, 0.14121751, 0.033955086, -0.071214765, 0.1451611, -0.07489133, -0.03398327, 0.11716574, -0.12632802, -0.34331685, 0.0799036, 0.06427535, -0.026810173, 0.006402843, 0.1644372, 0.2659205, -0.20670424, -0.13328248, -0.062080275, -0.08903631, 0.08493043, -0.21552004, 0.15058038, 0.0345142, 0.06494687, -0.022501932, -0.070338584, -0.10399595, 0.2935272, 0.15033586, -0.15035407, 0.059050504, 0.13339098, 0.24189557, -0.05943598, -0.007231902, -0.37542683, 0.021267924, -0.10952477, 0.04265246, -0.14777566, 0.18287052, 0.19835374, -0.010481522, -0.14169651, -0.024557797, 0.035252422, -0.27531195, -0.086997285, -0.04411472, -0.05347368, -0.019396476, -0.05330558, 0.06015419, 0.035683665, 0.032293618, -0.09394359, -0.08080416, 0.07559365, -0.12041258, -0.17906666, 0.04142202, -0.1940974, -0.12284388, -0.122263335, 0.016675418, -0.17121278, 0.029426474, -0.032285392, 0.14664982, 0.12931542, 0.07088482, -0.10847616, 0.25823483, -0.13882314, 0.078250006, -0.09035087, -0.10583486, 0.14587685, 0.16929705, 0.0004111994, 0.12941556, -0.07338002, 0.21063286, -0.14358653, -0.09580363, -0.036218926, 0.09706029, -0.015758187, 0.025233181, -0.0017353994, 0.10885362, 0.08799539, -0.09780078, 0.04947494, -0.050034776, -0.14811285, -0.26900873, 0.050503757, -0.020133523, 0.16422841, -0.09433717, -0.09991669, -0.120620504, 0.10106669, 0.2231725, 0.053866383, -0.03371241, -0.008682541, 0.011745136, 0.033675604, 0.16301692, 0.16749406, 0.12239753, 0.09545402, 0.16122052, -0.031881895, -0.08120296, -0.15443166, 0.15178946, -0.13423824, -0.12843077, -0.047891084, -0.04858766, 0.04686054, 0.091964625, -0.020939246, -0.06355308, -0.21323894, 0.0153395105, 0.11322112, -0.1177582, 0.086049736, -0.13357958, -0.03629579, 0.2374177, 0.09421745, 0.026159449, 0.09642944, 0.109142534, 0.26761314, -0.06838246, 0.031855218, 0.106008895, -0.15832557, 0.12422725, -0.07990101, 0.22401744, -0.10175295, -0.1239597, -0.10535974, -0.06915293, -0.15611069, 0.21060207, -0.069827676, -0.16960064, 0.06552556, -0.24027365, 0.17576951, -0.01704191, 0.049367126, -0.18105471, 0.12197968, 0.05347191, -0.036591105, -0.12672748, 0.0971723, 0.09782837, 0.15686823, -0.30274794, 0.037182383, -0.1144801, -0.23455402, -0.018404676, 0.13239333, 0.016986582, -0.013685249, 0.07505484, -0.08944838, -0.2287208, 0.20612672, 0.08954236, -0.062328197, -0.15370142, -0.07568783, -0.16450852, 0.34321162, -0.09775114, -0.011089912, -0.048912004, 0.001093491, 0.029242657, -0.15244879, -0.08593842, 0.40588817, -0.03782858, 0.06708036, -0.033240754, 0.15194453, -0.10290772, 0.11544003, -0.034157395, -0.11291207, -0.037475005, 0.30918235, -0.044475466, -0.24611272, 0.020756483, 0.0054385406, -0.04394807, -0.043821156, 0.12239589, 0.15065257, 0.103911445, 0.1487326, 0.13183814, 0.034706283, -0.20775388, -0.11634472, -0.030223114, 0.00023376549, -0.18158971, 0.080596626, -0.12995966, 0.1446878, 0.026409594, -0.13555546, 0.040841665, -0.0081793675, -0.021008732, 0.0048480206, 0.03363514, -0.05109166, -0.15927857, -0.03732791, 0.0042953524, 0.003575399, -0.13413844, 0.0018218404, -0.16724299, -0.15569526, 0.07912612, 0.07983925, 0.08213242, -0.038698703, 0.1757671, -0.05004026, -0.0025665183, -0.002645461, 0.059994802, -0.023368873, -0.0269278, 0.07328527, 0.036093898, 0.068898916, 0.1533029, 0.050816216, 0.0062877196, 0.01893221, -0.07041471, -0.03581357, 0.14808252, 0.005425562, 0.002398086, -0.13506916, 0.12239111, 0.018237192, -0.1484898, -0.1426536, 0.42640552, 0.009135625, -0.04850102, -0.19581655, 0.19648616, -0.18514808, 0.19612537, -0.03567617, 0.07821481, 0.07769723, -0.010986598, 0.19561514, 0.42302504, 0.19373831, -0.034143094, -0.10009409, 0.04145163, 0.00305422, 0.07792331, -0.0068374765, 0.08727118, 0.12693529, 0.20219992, 0.12465095, -0.13449368, 0.11520847, -0.13074729, -0.17249666, -0.16261762, -0.09368925, 0.023617305, -0.12152612, -0.011681781, 0.14036182, -0.053264048, 0.16376454, -0.0062378366, -0.14110821, 0.18531567, 0.017613579, -0.25111294, 0.0022085907, -0.0001680128, 0.06669069, -0.051182877, -0.08271271, 0.10628616, -0.17830198, -0.24533267, 0.015345571, 0.02143932, 0.22372031, 0.019743243, -0.022342201, 0.012472013, 0.069920026, -0.09653918, 0.056111243, 0.008637846, 0.18102162, 0.16751704, 0.09910554, -0.13634406, 0.03475791, 0.2803506, 0.0024826673, -0.11921542, 0.109233774, 0.13062738, 0.01464777, -0.08411331, -0.05462854, 0.102591306, 0.089021035, -0.25936005, 0.19103213, -0.21470577, -0.25726238, -0.1867521, -0.05231603, -0.0008620139, 0.08539966, 0.038608942, -0.110783935, 0.02876447, -0.011291462, 0.09087852, -0.08500098, -0.057881687, 0.048779495, -0.013747253, -0.28343552, 0.19347, -0.08193345, -0.18094197, -0.20079923, -0.0751322, 0.015988335, -0.13999297, -0.15761325, 0.20172507, 0.047967568, 0.028376523, -0.14185666, 0.14696683, -0.22608905, 0.08843009, -0.18911967, 0.11767653, 0.16354547, 0.036003843, 0.008979115, -0.09404318, -0.07057241, 0.06983644, 0.0133575825, 0.050975636, -0.2773783, -0.063151926, -0.11617235, 0.110377274, -0.04410756, -0.14070065, 0.18366255, -0.10385175, -0.18511301, 0.061846618, -0.12735021, -0.13773116, -0.08869508, -0.04716202, 0.16530015, 0.033791486, 0.13078971, 0.08666653, 0.057984255, -0.015014074, -0.093497045, -0.03420799, 0.18752962, -0.10152674, -0.22014472, 0.06109399, 0.021080153, -0.03994361, -0.13025759, 0.09247688, -0.07318496, -0.117755234, 0.115431294, -0.04565165, -0.110677056, -0.055059247, 0.05051582, 0.15815522, -0.04182425, -0.23415536, 0.04824245, -0.02017619, -0.043592848, -0.37200123, 0.010782005, 0.15993938, -0.178112, -0.032907702, 0.12847714, -0.11649355, -0.14658047, -0.14415891, -0.17935704, -0.08390176, -0.09478353, -0.0042164405, 0.13287246, 0.19929579, 0.12953362, 0.1984418, -0.008246197, -0.06435956, -0.05637973, -0.13720208, 0.16746864, 0.081389174, -0.05646983, -0.016385801, -0.022123648, -0.043593436, -0.10682728, -0.05676112, 0.18192141, 0.10224939, -0.10509503, 0.019099388, -0.13188078, 0.045568272, -0.12403827, -0.04706868, -0.17232133, -0.17331026, 0.29375207, -0.09034813, 0.026499484, 0.24141684, 0.17462704, 0.17049839, 0.07482156, -0.20048638, -0.09854798, 0.014650364, -0.21418253, 0.06983163, 0.070262834, -0.20592178, 0.22766286, -0.14383863, 0.0048505776, -0.03008288, 0.31929284, 0.035997204, 0.06729812, -0.022390252, -0.14799266, -0.09181837, -0.12436333, -0.14073293, 0.0022043001, 0.06392368, 0.15218192, 0.112397656, -0.2021371, 0.1952367, 0.05045891, 0.09995867, 0.007691412, 0.12981382, -0.167918, 0.21703026, 0.39047357, 0.1028687, -0.07941299, -0.028924068, -0.028867938, -0.11013936, -0.038226612, -0.05389549, 0.120275125, 0.25889394, -0.0045865024, -0.012213921, -0.021224085, 0.08549464, -0.2057712, 0.11021317, 0.0609179, 0.0014649071, 0.1261263, -0.077137604, 0.16444328, -0.098296024, 0.011746841, -0.09916577, -0.10033615, 0.13181528, -0.0767141, -0.066625476, 0.13060585, 0.120041944, 0.016542424, -0.012930516, 0.07039596, 0.014077904, -0.061571617, -0.055206228, 0.044361115, 0.17091976, -0.09127604, -0.06855649, 0.09719711, 0.01076963, -0.15468156, 0.21228886, -0.054799534, -0.07966251, -0.00040643447, 0.009270802, -0.11486639, -0.15298824, 0.18304034, -0.013091063, 0.014773318, -0.032878704, 0.13382113, -0.06866815, -0.11343731, -0.079348646, -0.20813842, -0.14781168, 0.23354964, 0.059128102, 0.05427148, -0.052331004, 0.030391768, 0.03787685, 0.015215778, -0.08666133, -0.034262843, -0.02593223, 0.045160957, 0.06626676, -0.31068605, -0.2831144, -0.07509903, -0.30041683, -0.17682257, -0.15028112, 0.10979686, 0.09091878, -0.048684906, -0.18485409, -0.01311215, 0.09736357, 0.008305567, 0.028250162, 0.08338782, 0.23480092, -0.04599118, 0.055302504, 0.11999956, 0.2263606, 0.049141366, -0.10372155, -0.115861125, -0.012308299, 0.057936784, -0.14254355, -0.10551302, -0.008713826, -0.16243404, -0.16663305, 0.08209628, 0.04545373, 0.18061434, 0.075226575, 0.09619113, -0.05400406, -0.08638864, -0.30486092, -0.02033644, 0.088321835, -0.17552742, -0.09646261, 0.14696884, 0.061512906, -0.08679154, -0.061059874, 0.0010755847, 0.2036596, -0.05419468, 0.08624117, 0.0008780554, -0.058223985, -0.0941261, 0.06859629, 0.13678187, -0.0067913644, 0.22404855, 0.07548167, 0.14649418, 0.05596375, 0.16653126, -0.0005554464, -0.19320531, 0.19403338, 0.1267239, -0.14765067, -0.2150174, -0.046202336, 0.00040071175, 0.13932388, -0.120514736, 0.1781521, -0.1575511, 0.018207686, -0.024324121, 0.0021512168, 0.07181108, 0.05491421, 0.035849884, -0.11181845, -0.051567376, 0.16136023, 0.045702368, -0.025128791, 0.16175239, 0.017783599, 0.24598557, 0.019660326, 0.005730309, 0.09681451, -0.10515778, 0.048497085, -0.14175855, -0.12772249, 0.11536401, -0.182438, -0.12462231, 0.042467687, 0.0014602334, 0.03178139, 0.11812524, 0.04199948, 0.08670913, -0.0045735827, 0.020790786, 0.051043324, 0.17357948, 0.053965118, 0.16639492, 0.30254516, 0.122702904, 0.15912563, -0.01532614, 0.056464437, 0.03744609, -0.059129044, 0.070452884, -0.20495917, -0.06637298, -0.06682163, -0.14286736, 0.14702936, -0.05731691, 0.058258723, -0.0049856068, -0.06912393, 0.011655954, -0.020240536, -0.030418882, 0.008205335, -0.29010636, 0.033978418, 0.1467296, 0.037688334, 0.25825113, 0.01899675, 0.16453418, 0.06762521, -0.054470778, -0.03367573, -0.0021414533, 0.012163127, -0.065762624, -0.17213237, 0.13463129, -0.16318463, 0.14009638, -0.024487298, 0.09460027, 0.12893723, -0.11712476, -0.08303212, 0.091091126, 0.024704793, -0.2353789, -0.0903407, 0.029949956, -0.0475301, -0.050012063, -0.05784748, -0.008968241, 0.007641644, 0.18364911, 0.08477871, -0.1514448, 0.0060472176, 0.3060379, -0.1428043, 0.01674196, -0.0074940585, 0.12698023, -0.21529846, 0.22817002, -0.113269724, 0.071495965, 0.059759524, 0.1710779, 0.022180792, -0.009373321, 0.00316082, 0.0724121, -0.06806532, 0.017607339, -0.25940472, -0.1432439, -0.16625923, 0.16987611, 0.176982, -0.21757233, -0.13502896, -0.16314344, -0.12330555, -0.018692337, -0.16860265, -0.14962557, 0.025934953, -0.095756754, -0.1714128, -0.04131429, -0.15277511, 0.22104853, -0.06593075, -0.03327482, 0.112580225, -0.06935416, 0.11023193, 0.1213963, 0.028778473, -0.019212425, 0.11541556, 0.09185835, 0.10570698, -0.12264078, 0.08830635, 0.12151978, 0.09684964, -0.051327057, -0.12828778, -0.08388946, 0.0438101, -0.13905033, 0.17053045, -0.06319312, 0.06644931, 0.10258553, -0.2006672, -0.1330218, 0.17249568, -0.05262857, -0.16564663, -0.080370136, 0.31924385, 0.117963694, -0.011127104, -0.10463708, 0.026478348, 0.17367746, 0.018361825, 0.048065677, 0.069848105, -0.077733696, 0.027608896, -0.05705018, 0.113884464, 0.03258835, -0.07775735, -0.06580699, 0.0812363, 0.09857864, -0.012586792, -0.19240399, 0.081008255, 0.13909118, -0.05481526, -0.085991375, -0.110162385, -0.020694377, -0.23462205, 0.4048543, 0.14548816, 0.1254364, -0.046103362, 0.0099737225, 0.0063077705, -0.11291701, -0.10108444, 0.2714317, -0.12730868, -0.050178345, 0.05061439, -0.02998459, 0.18788598, 0.089386, 0.09821522, 0.040283713, -0.2984711, -0.1540276, 0.09781044, -0.057605498, -0.13861974, -0.09665441, 0.0043677622, -0.055171747, 0.07637708, -0.16963817, -0.046497967, 0.007715726, -0.010346473, -0.002226011, -0.118310556, -0.0029805077, 0.13089195, 0.07156822, -0.0402289, 0.08217003, -0.051899727, -0.099173866, 0.08283863, 0.038458288, -0.05349061, -0.004352548, -0.034800086, 0.20410976, 0.115651086, -0.1307561, 0.045691814, 0.14911862, -0.035125807, 0.035057735, -0.00075483054, -0.058985602, -0.124297336, -0.08360099, 0.19457069, 0.2015445, -0.14217582, -0.09054394, -0.101385236, 0.07680157, -0.24110432, -0.07494953, 0.1492645, 0.15895869, -0.060428735, 0.019391524, 0.1132116, -0.002100883, 0.079130754, 0.34045285, 0.022756416, 0.14872566, -0.14920026, 0.040045433, 0.17854771, 0.041361317, 0.09051491, -0.07236928, -0.25170803, 0.0700226, 0.112386994, 0.06710245, 0.08365567, -0.14777385, 0.08716711, -0.18068528, -0.052837446, 0.12824449, 0.07672522, -0.07146737, -0.050969254, 0.16179071, 0.11427964, 0.014191175, 0.103425734, -0.038456336, 0.10052106, -0.17322356, 0.092486836, -0.31976804, -0.10017999, -0.14774616, -0.014277065, 0.1355157, -0.02947737, 0.11928902, -0.20425282, -0.28854528, 0.035633083, -0.14992094, -0.27033544, -0.030430302, 0.0026618633, 0.06306079, 0.038788736, 0.023218974, -0.18523745, -0.02952644, -0.027071035, -0.18931237, -0.12143516, -0.18805186, 0.16907516, -0.021448268, 0.031861838, 0.022553151, 0.11829519, 0.04968135, -0.10877002, -0.13528444, -0.06376654, 0.16444679, -0.15852602, 0.24080537, 0.18696687, 0.28595296, -0.014540955, 0.20199633, -0.10905726, -0.15407449, -0.07239124, 0.002861745, 0.026820306, 0.052038133, -0.2556859, -0.060304835, -0.18146867, 0.08642744, 0.18849254, -0.03513095, -0.010748543, -0.064231396, -0.015445266, -0.020340025, 0.07251831, 0.06699435, -0.23189189, -0.0098322425, 0.14054571, -0.07860346, -0.03285296, -0.08768531, -0.034852806, 0.1813566, -0.056483507, 0.05524992, 0.015540304, 0.013296819, -0.02325689, 0.06926644, 0.022124885, -0.00813423, -0.18699513, 0.10902921, -0.45802882, -0.069014005, -0.2716201, 0.12730898, -0.02049538, -0.14033617, 0.16147405, -0.052317157, -0.20306046, 0.23804545, -0.087287255, -0.0064586033, -0.08081752, -0.23461027, -0.004626048, -0.049723215, 0.013601711, -0.039257064, 0.06421071, -0.22077312, -0.2062128, 0.07755473, 0.04593815, 0.120186135, 0.24611126, 0.18605733, 0.13335526, 0.14308956, -0.030810865, -0.11362839, 0.11578388, -0.014342167, -0.08292677, -0.102862105, 0.030119162, -0.15267293, 0.117220774, -0.21202518, 0.27780792, -0.04946807, 0.15533774, -0.10223492, -0.16429433, -0.13424069, -0.18266669, -0.20651858, -0.28032354, -0.074395426, 0.07980889, 0.041751236, 0.05872411, 0.03820265, -0.08760958, -0.027804425, 0.083089806, -0.1974049, -0.026517525, 0.16018327, 0.029038578, 0.06812414, -0.060764022, -0.045886282, 0.019655462, 0.056105617, 0.13023065, 0.0785488, 0.15691783, -0.24237843, -0.15718146, -0.0289531, 0.069254056, 0.23008704, -0.07126617, -0.037301403, -0.12923051, 0.03530145, -0.15003493, 0.027049124, 0.040514562, 0.14480355, -0.1099223, -0.21354148, 0.13321386, 0.19511095, 0.04571015, 0.12530233, 0.29125282, 0.1186694, -0.16913974, -0.21273859, 0.012415346, 0.021302648, 0.2572585, 0.13570668, 0.0025053546, 0.034518156, -0.021840904, -0.02714791, -0.29615998, 0.16865107, 0.027716614, 0.077461995, -0.10051814, -0.18495108, -0.08147715, 0.02202472, 0.06488909, -0.17915955, -0.058536623, 0.01950996, -0.07560032, -0.24734056, 0.07623482, -0.15266997, 0.00062517443, 0.15035506, -0.1064809, -0.05545071, 0.13609345, 0.05214924, -0.021294372, -0.023672579, 0.14458431, 0.12967055, -0.12694182, -0.09288517, 0.18799265, 0.0026497722, 0.09762894, 0.14736648, -0.048719026, -0.15312578, -0.050538614, 0.18617728, -0.27198827, 0.075321026, 0.06680923, 0.02941735, 0.21572739, 0.027654042, 0.023636619, -0.05354507, -0.16862719, 0.0036520471, 0.06288701, -0.1730487, -0.13249893, -0.1425328, 0.08972646, -0.15657608, 0.27823988, 0.054754227, -0.074019074, -0.14961493, -0.1993138, 0.008414685, 0.02648433, -0.050188366, 0.289585, 0.05815127, 0.15161256, -0.030144555, 0.06785515, -0.021417214, 0.22099486, 0.06694927, -0.046843525, 0.10017198, -0.120610796, 0.08142171, 0.26972228, 0.01325723, -0.0019527359, -0.09439306, -0.007041007, -0.16346815, -0.02174824, 0.102498025, 0.14550072, 0.16160293, 0.06385474, 0.073088914, 0.30126742, -0.0051085553, -0.010580501, -0.022224557, -0.077541746, -0.042531002, 0.071642965, -0.104094915, -0.07227223, 0.16979864, -0.13476074, -0.012954879, 0.08189464, -0.010868272, -0.0421353, -0.086289845, 0.09199641, -0.07014689, -0.15448269, -0.118303016, -0.04317624, -0.032180414, -0.11381596, 0.10563505, 0.12541953, -0.14000633, 0.09826113, 0.035337962, 0.068892404, -0.047955763, -0.014103707, -0.2121304, 0.28088483, 0.082182355, 0.06522548, 0.113334514, 0.1411537, 0.016470656, 0.006862684, 0.20116496, 0.15619437, 0.014640536, 0.05338181, -0.06462484, 0.02881849, -0.10486039, 0.1339123, 0.20245646, -0.18824242, -0.012855341, 0.002118137, -0.026068209, -0.09477391, -0.12489323, 0.011780835, 0.093212485, 0.10345896, -0.15672094, 0.019878296, -0.06337091, 0.05455139, -0.03188157, -0.018371502, -0.055075288, -0.1006391, 0.0075876284, 0.023270702, 0.2270278, -0.21776977, -0.00032592408, 0.07808027, 0.2931841, 0.1406428, 0.09917546, 0.03984851, -0.18616492, -0.07122576, -0.1501253, -0.06198806, -0.030315213, -0.21274991, -0.006998957, 0.08205543, -0.10628619, 0.046212763, 0.124834865, 0.18299474, -0.07993614, -0.16777253, 0.27528754, 0.21631911, -0.07701156, -0.10523172, 0.15942824, 0.11535984, 0.033395868, 0.066277914, -0.021474553, 0.0038356879, -0.10083882, -0.026585503, -0.12672924, 0.035525776, -0.03269014, -0.021645553, 0.10941602, 0.111203946, -0.091006085, 0.012402288, 0.058334813, 0.029864093, -0.029892076, 0.014228926, 0.040851194, 0.0046489188, 0.093410894, -0.14273071, -0.100020245, 0.09009653, 0.049510088, -0.1118127, 0.07514597, 0.14810349, -0.19996294, -0.14010859, -0.19863005, 0.2406578, 0.057333827, -0.11854881, -0.1733592, 0.10909377, -0.23044804, 0.17414771, -0.08503792, -0.034081493, 0.092505105, 0.07673931, -0.071603596, 0.0937116, 0.11713741, -0.013738045, 0.17810623, 0.03363149, 0.17023213, 0.103144586, 0.015107643, -0.09394067, -0.25551254, 0.30082348, 0.178141, -0.025189234, -0.088218324, 0.019429868, 0.07572581, 0.06395112, -0.06090536, 0.02801998, 0.003246051, 0.008191938, -0.048279196, 0.044072967, 0.106375985, -0.21336967, -0.4130238, 0.05575896, 0.049306728, 0.106162235, 0.1266275, -0.013861927, 0.131622, 0.04331596, 0.17052175, 0.07188725, -0.1454846, -0.15424974, 0.009756776, -0.17142282, -0.028384965, -0.17719084, 0.14982532, -0.05424078, 0.1779793, -0.13558532, -0.038728848, 0.10377581, -0.17597075, 0.27558938, 0.07816024, -0.078135684, 0.04694871, -0.048975725, 0.0106521435, -0.057866488, 0.22706491, -0.02166965, 0.057888143, -0.06212437, 0.015512096, -0.1825408, -0.26484668, -0.19473533, 0.16802575, -0.08482797, 0.03811426, -0.006521859, 0.03402277, 0.072714224, -0.04142196, -0.08742808, -0.061669793, 0.007050623, 0.08662838, -0.08146356, -0.192905, 0.1345308, -0.0053804056, -0.10616003, -0.06310918, -0.21212445, -0.05356472, -0.17093144, -0.13468131, -0.10060778, -0.24743354, 0.014128165, 0.048530497, -0.15404163, 0.12590183, 0.16819575, -0.13281403, 0.13502723, -0.016127765, -0.042186044, 0.1290068, -0.1129252, -0.021532368, 0.023193603, -0.047805037, -0.02986993, -0.16559333, -0.06928899, -0.07216677, 0.036581717, -0.10258221, 0.05440069, 0.025642745, 0.23181333, 0.2522716, -0.08243951, 0.043075114, -0.11221823, -0.16000609, -0.07257205, -0.09181148, 0.007335574, -0.033036377, -0.08865859, 0.02716296, 0.12034412, -0.000795654, -0.1513755, -0.06677511, -0.0068780365, -0.16741583, -0.1048896, 0.036349196, 0.019510072, -0.12679633, 0.28882527, 0.03771606, 0.21154505, -0.033782795, 0.024238879, -0.06408866, -0.068793096, 0.21851029, 0.21516266, -0.04551426, 0.10170424, 0.18434659, -0.08550063, 0.21548067, -0.16639726, -0.084586546, 0.1689356, 0.22477765, 0.034592725, -0.020808402, 0.0262369, 0.16797133, 0.16977559, -0.06622324, -0.05650038, -0.114064544, 0.006499235, -0.08939738, -0.16179109, -0.11623547, 0.053420722, -0.075073965, -0.07062829, -0.16822413, 0.076768644, 0.069531575, -0.045654107, 0.057719905, 0.050288986, -0.15055731, -0.0041069565, 0.015634775, -0.12517506, -0.034978367, -0.026280893, -0.04034616, 0.023858078, -0.06550783, 0.15945193, -0.06297196, 0.22263923, -0.10210543, 0.07464979, -0.17727771, -0.25768852, 0.1162533, 0.10637549, 0.040914357, -0.047631267, 0.084839344, 0.10949757, 0.014664947, 0.07808116, 0.09230063, 0.1718405, 0.054253135, -0.11993221, 0.23761015, -0.16224279, -0.0056532477, 0.46349302, -0.03655702, -0.09025554, -0.40740582, -0.014975901, -0.09987197, -0.27645686, -0.1080447, -0.030917473, 0.1678947, -0.02676114, 0.110634066, 0.05930974, 0.14292231, 0.10412472, -0.04065591, -0.20661959, 0.13429502, -0.21520413, 0.09207678, 0.06886877, -0.017549643, -0.09216323, -0.097664066, 0.052640773, -0.065171026, -0.083986536, -0.09726855, -0.018521333, 0.07621481, -0.039120223, 0.08287513, 0.07219293, 0.1819345, 0.30645338, -0.18687859, -0.05039984, -0.08980362, 0.0042456896, -0.03935525, -0.08652902, 0.03621393, -0.055249836, -0.18915045, -0.090131074, 0.05444423, 0.024806911, -0.015246657, -0.15511636, 0.034992963, 0.3396009, -0.10119935, -0.07160436, 0.0012422337, -0.019659214, 0.25592265, 0.14165308, 0.18066542, 0.014606124, 0.057647277, 0.0067955228, 0.11488626, -0.024928965, 0.19727814, -0.12936786, -0.107838295, 0.04302157, -0.2148336, 0.14331964, -0.12467917, -0.026430517, 0.050204482, 0.121729426, -0.02298664, 0.094313584, 0.13495837, 0.10410722, -0.05876493, -0.0066623753, -0.021393422, 0.021277709, -0.085112356, 0.17235722, -0.092902936, -0.23980789, 0.23526119, 0.094199784, -0.017392669, -0.09659682, 0.08391729, 0.10030633, -0.09320143, 0.09299717, -0.011552614, 0.011752235, 0.20057315, -0.16069058, -0.028165117, -0.116986826, -0.11883888, 0.111424655, -0.10540719, -0.11158895, 0.03029197, -0.011740035, 0.03414416, 0.112147234, 0.09899146, 0.09623224, 0.24700896, 0.059953436, 0.14400405, 0.067828655, 0.02678474, -0.13540216, -0.15400684, 0.23862629, -0.08089531, -0.02743636, 0.02011016, 0.09460911, -0.03127487, 0.18763554, 0.17184713, 0.1666574, 0.18756627, 0.17648838, 0.14032635, -0.108647555, -0.08809041, 0.01181526, -0.027694283, -0.06406673, 0.060997944, 0.19168909, -0.033873305, -0.089959264, -0.32209924, 0.17005187, -0.13876782, -0.11517585, -0.215739, 0.080838405, 0.06842464, -0.06254941, -0.03303848, 0.08888142, -0.016776234, -0.050969318, -0.07330061, 0.04037863, 0.0067668315, -0.06238674, -0.024246834, -0.13266245, 0.07272819, 0.050445426, -0.0394402, -0.2611794, -0.29331148, 0.00086748874, 0.02952979, 0.1193598, -0.075708956, 0.0458765, 0.2018913, -0.008467032, -0.03934487, 0.15197359, -0.007221638, -0.04915884, -0.12877199, -0.18544497, 0.018640507, 0.12135467, -0.15317181, 0.051775444, -0.07255082, 0.16460268, 0.17947613, -0.2267332, 0.008745774, -0.013168964, 0.24136998, 0.11731009, -0.15671071, 0.055790786, -0.09277696, -0.15542975, 0.00852997, -0.11287194, -0.06404874, -0.06857988, 0.054887015, -0.06965554, 0.08884909, 0.16251183, -0.012992743, 0.105108865, 0.010758393, -0.1053214, 0.055307988, 0.014127742, -0.15005632, 0.0051763826, -0.018589798, 0.045484766, 0.05006616, -0.0059360787, 0.2318367, -0.24645625, -0.17400351, -0.027284337, -0.07268271, 0.018844785, -0.0770722, 0.067786045, 0.061881237, -0.16157027, -0.0023330036, -0.016529422, 0.050369583, -0.21032615, -0.09716952, 0.12997513, -0.042535532, -0.103725515, -0.07389616, 0.22128649, -0.21698931, 0.048554745, -0.053376205, 0.01894769, -0.12874545, -0.099543236, 0.010272621, 0.10526382, 0.012539448, 0.20496854, -0.05431574, 0.11639211, 0.030977255, 0.0021762673, -0.046836715, 0.27948987, 0.032840457, 0.04706358, -0.19366431, 0.054169413, 0.07266843, -0.37794447, 0.11311258, 0.17287308, 0.13062997, -0.10484391, 0.075596794, 0.06769766, -0.056076523, 0.08588649, 0.06604834, -0.114024386, -0.18079618, -0.005492152, -0.12434105, 0.043695208, 0.100525215, 0.24876252, 0.15460849, 0.1064987, -0.06173926, -0.06886857, -0.015972639, 0.120019324, -0.041150544, 0.107449345, 0.20508076, 0.052495625, 0.23400694, 0.11342115, -0.07587467, 0.032196164, -0.067415476, 0.11403962, -0.08847113, -0.14166452, 0.112772964, 0.11824572, -0.19964863, 0.061349526, -0.34006602, 0.17359109, -0.13125528, 0.085677534, 0.06593118, 0.11213404, 0.02132536, 0.0068618576, 0.031762186, -0.17744191, 0.112310365, 0.36894083, -0.065228224, -0.17891055, -0.049813785, 0.17191982, 0.059464507, 0.007725658, 0.09658762, -0.082719564, -0.20587008, 0.05522273, 0.19879262, 0.10982757, 0.15963723, 0.14297165, 0.0696397, 0.086784594, -0.111182414, 0.012035278, 0.17244098, -0.030458588, -0.0041330564, -0.036545113, -0.16149913, 0.03869194, 0.009038045, -0.11212519, -0.10393008, 0.2490879, 0.053565707, -0.007618966, 0.05766813, 0.07998009, -0.17727569, -0.27612925, 0.17404677, 0.057087068, -0.075504154, -0.034216557, 0.033454094, 0.24276406, 0.026725968, -0.04584844, 0.0824274, 0.06771238, 0.07839615, -0.028166834, 0.112326264, -0.09792555, 0.09609317, 0.20779204, -0.09154056, -0.011819586, 0.012162094, -0.1569344, -0.028117204, -0.062376723, -0.036326908, -0.19752581, -0.037341833, -0.1191314, -0.1326626, 0.034884553, 0.10058509, 0.026002113, 0.009853359, 0.010293122, 0.17954436, -0.037062615, -0.013993743, -0.0774584, 0.04310588, 0.15909, 0.36523408, 0.13623282, -0.025885599, 0.10120388, 0.19790852, -0.08455502, -0.21121846, 0.14636283, 0.11605208, 0.001942838, -0.12144759, -0.1667358, 0.11178489, 0.0045690066, -0.3538607, 0.12434826, -0.12512366, 0.0058135837, -0.25981092, 0.014886149, 0.20665513, -0.030789196, -0.045186233, 0.06656004, 0.03689777, -0.12330055, 0.034658868, -0.024430418, -0.24668509, 0.07363628, 0.09994742, -0.085754596, 0.11096695, 0.03710671, -0.119946055, -0.2064946, -0.26277488, 0.11051651, 0.031181272, -0.07266077, 0.13201109, 0.096474394, 0.10212696, -0.1685242, 0.119894385, 0.14983183, 0.21484025, -0.07582639, 0.0025009664, 0.08119111, -0.006004319, 0.007221628, 0.29662198, 0.12627281, 0.13688722, 0.0896115, -0.06854247, -0.30517665, -0.08765382, -0.111878864, -0.013084414, -0.0076606073, -0.038789112, 0.07201165, 0.04327324, -0.004660014, -0.18129526, 0.059566475, -0.009962428, -0.07875347, 0.043845907, -0.1445966, 0.08405496, -0.04087773, 0.0929513, -0.050982777, 0.09121014, 0.095720455, -0.055369537, 0.062674455, 0.033780977, -0.036714833, -0.025578994, 0.016874986, -0.015275211, -0.07969714, -0.04072274, 0.13968635, 0.11301535, 0.052002154, 0.11508753, -0.07378282, 0.0138264, -0.2643542, -0.16395497, -0.09696598, 0.14176199, -0.028445287, 0.01470303, -0.12159944, -0.09049935, -0.17737482, -0.012155194, -0.31439918, -0.103233725, -0.007515073, 0.0962982, 0.22505973, 0.12171733, 0.010414483, 0.074149296, -0.0043846094, -0.016135916, -0.008532619, 0.04277713, 0.047566995, 0.07969179, -0.10875414, -0.04125554, -0.20632334, 0.07920497, 0.3462296, -0.104992546, -0.058117166, -0.1793172, -0.020960523, -0.1098568, -0.045539327, 0.052039295, -0.037925176, -0.0010236776, -0.0030640576, -0.13271624, -0.15703991, 0.0041028033, 0.031612653, 0.16283555, -0.090054914, -0.09930425, 0.32756275, -0.10862175, 0.056861464, 0.0614509, 0.25500774, 0.06774908, -0.22970872, -0.31156498, 0.010382899, -0.16553974, -0.027671343, -0.18240932, -0.08668871, 0.10952736, -0.2747897, -0.035013873, 0.20836899, -0.015055568, -0.011219767, 0.006276386, 0.034702163, -0.032242153, -0.16926947, -0.07661368, 0.14924242, 0.17663424, -0.08589278, -0.09565173, 0.07656191, -0.11217333, -0.041459933, 0.12901463, 0.0151068745, 0.06893638, 0.00895861, -0.07985583, 0.09784578, 0.050594036, -0.17582114, -0.080779895, -0.0039125285, 0.15127736, -0.19556028, 0.4166013, 0.021817138, 0.013654877, -0.28495425, 0.00820765, -0.1760189, -0.18324074, -0.03296345, 0.10264436, -0.08782413, 0.14180401, -0.055128686, 0.088686995, 0.0157892, 0.16406651, -0.103656135, -0.0008576573, 0.023689557, 0.28851125, -0.08041293, -0.3476319, 0.22307838, 0.09949486, -0.017707787, 0.026054254, -0.078161806, 0.06278995, -0.044093277, 0.22305387, 0.063937485, 0.010229127, -0.05270136, -0.07841098, -0.13019437, 0.13292262, -0.006451024, -0.006936696, 0.14398119, 0.06473217, -0.054345883, 0.004436679, -0.044577315, -0.193953, -0.15826342, 0.24080521, 0.25427493, 0.17794126, -0.23403361, -0.025965242, -0.011528567, -0.06505615, -0.100816086, -0.040645357, 0.008558143, 0.15384105, -0.040657476, -0.07089067, -0.115452096, 0.17669386, -0.027180122, 0.1306942, -0.0049332855, 0.010635706, 0.016477467, 0.08815724, 0.006126825, 0.16522008, -0.1386418, 0.064184815, -0.18055643, 0.056299753, 0.23466524, -0.02384388, 0.008901299, 0.19238749, -0.014282541, 0.040488992, 0.07393497, 0.26618475, 0.24541202, -0.09548501, -0.1142643, 0.069263995, -0.20835926, 0.016945474, -0.055139765, 0.24946833, -0.080164395, 0.18646225, -0.3936361, 0.038446773, 0.05833297, 0.034470826, 0.015446358, 0.067811854, 0.19639073, 0.18051611, -0.034454953, -0.12546907, 0.08246212, -0.024314642, 0.0027651258, 0.1914496, 0.26064888, 0.282805, 0.059307825, -0.12190344, -0.21498753, 0.16342951, -0.029589718, -0.07705147, 0.019026991, -0.18093295, -0.033361204, -0.081858724, 0.057350755, -0.06373496, -0.051665008, -0.062457107, -0.1412389, -0.081089444, -0.06560664, -0.18346418, -0.035381272, 0.22766638, 0.17379147, 0.08434317, 0.09892563, -0.007037475, 0.038460363, 0.1689134, 0.08263296, 0.011472631, -0.0855208, 0.058124986, -0.15304959, 0.16362157, -0.15825601, -0.067445874, 0.045562122, -0.04947013, -0.07781802, 0.13573982, -0.054178398, 0.028260654, 0.08978458, -0.0785812, 0.054626826, 0.028590603, -0.021198452, 0.052055858, -0.024302058, -0.20597334, -0.26732242, -0.1410456, 0.016258413, 0.17120032, 0.2150665, 0.039129417, -0.13696401, -0.06615498, -0.26819137, -0.10226548, -0.032543518, 0.16359086, 0.06613826, 0.05994282, 0.101225525, 0.16639698, 0.10838014, 0.15325494, 0.10428004, 0.14897439, -0.1518214, 0.047867823, 0.013575063, 0.10435404, -0.10305653, 0.016098708, 0.34170267, -0.17761087, -0.122150466, -0.19132729, 0.030081285, -0.0065781963, -0.18081164, -0.080968864, -0.015552049, -0.04383804, 0.13522889, -0.08042758, -0.060876478, -0.09301917, 0.0137372315, -0.19798791, -0.094822854, 0.10469147, 0.07204947, 0.016300265, -0.13136624, -0.19894575, -0.048222825, -0.0787765, 0.0473995, 0.0029244155, -0.090534985, -0.015026403, 0.21549176, -0.32686532, 0.09532764, 0.06611977, 0.09410541, 0.09930025, 0.13432346, -0.070519954, 0.1906823, -0.104230285, -0.09824115, -0.16741566, 0.075022615, -0.013624783, -0.19726124, -0.17636082, 0.025250057, 0.12175898, 0.026868794, 0.07945829, -0.048121665, 0.12810455, 0.089905955, -0.09786464, 0.11350656, 0.08142868, 0.1568575, -0.034005277, -0.1269976, -0.06568781, -0.20488472, -0.00016871492, 0.16819414, 0.028124355, 0.04722084, 0.0391234, -0.012463059, 0.062727034, 0.054313835, -0.12797983, -0.06613621, 0.09138226, -0.093736954, -0.079286516, 0.04037215, -0.11016827, 0.010551956, 0.079642974, -0.10872372, 0.08934915, -0.19663967, 0.21006885, -0.111125395, 0.03682255, -0.40807024, 0.056110315, 0.08165913, 0.19431123, 0.06332762, 0.042650696, -0.041166328, 0.0024374863, -0.0662451, -0.042423096, 0.09991955, -0.15097827, 0.030025892, 0.22556852, 0.182295, 0.13746703, 0.11049497, 0.2631336, 0.1399705, -0.018594485, -0.11091359, -0.0033570447, -0.06337258, -0.009953025, -0.055754732, 0.09000421, -0.10497572, 0.019192012, -0.066723965, 0.09305931, -0.10740323, 0.10178325, 0.05899163, 0.19675665, -0.049047552, -0.08361905, 0.09793319, 0.12478981, -0.09173202, -0.015584974, -0.0177978, 0.10891485, 0.035303913, 0.06287211, 0.081622265, -0.06133878, -0.13084388, 0.25213197, -0.18512824, -0.11649646, -0.111518845, -0.06363366, -0.05434311, 0.1025608, -0.041201107, 0.088954374, 0.070496015, 0.09070641, 0.022045253, 0.25774345, 0.09979033, 0.035059612, -0.010379005, 0.06938557, -0.11626119, -0.13502714, 0.07831236, 0.08085515, 0.093258746, 0.026676318, -0.057433166, 0.14201713, -0.061412625, 0.07065524, -0.027411737, 0.25373486, 0.1298981, -0.17061159, -0.16089548, 0.20014521, -0.052545432, 0.028074555, 0.19597967, -0.0932352, -0.0620358, -0.0659925, 0.1504008, -0.21676578, 0.037311327, 0.2650398, 0.011481742, 0.16407293, -0.062113952, 0.09578266, -0.07752391, -0.097133934, 0.20111123, 0.111447535, -0.08080461, -0.2344147, -0.050347656, 0.008490255, -0.037122983, -0.007782001, -0.15664363, 0.04660908, 0.17121768, 0.2170567, 0.021005772, -0.19182718, 0.19355524, 0.35775676, 0.0431024, -0.1484267, 0.08854538, 0.01984853, 0.067274995, -0.12845875, -0.12354279, 0.021696799, -0.0946291, -0.113475464, -0.03264476, -0.1503189, 0.044076134, -0.11060169, -0.04328733, -0.03522643, -0.016491098, -0.08772124, 0.108047925, 0.09590901, 0.09564829, -0.018412199, 0.13789941, 0.22612204, 0.043134004, -0.086163275, 0.0058343792, -0.059238035, -0.019687135, 0.0860429, -0.054027464, -0.25904077, 0.093650974, -0.16403037, -0.014418012, -0.024541263, 0.061668053, 0.051025964, -0.011674004, 0.10264702, -0.00058588776, 0.019293144, -0.018028835, -0.007660909, 0.13041656, 0.08425583, 0.06074464, 0.0018415572, -0.08909913, -0.1096557, -0.06753826, 0.13030225, -0.22485664, 0.06046488, -0.021770218, 0.015403421, 0.18053441, -0.01978122, 0.050181985, -0.11209792, -0.07598691, -0.182219, -0.11987173, -0.21801825, 0.046754014, -0.038602877, 0.021146039, -0.045301758, 0.049058188, -0.08108089, -0.03584454, -0.0893852, -0.019818768, 0.024764279, -0.0005609261, -0.054335054, -0.20325176, 0.10551661, -0.06759268, 0.016590362, -0.009922474, 0.16699302, -0.12016948, -0.3154866, -0.06860704, 0.20219721, 0.038156904, 0.12882957, 0.10715063, 0.13104945, -0.02002992, -0.17041734, 0.07168028, 0.07778564, -0.03940627, -0.16297953, 0.0924428, 0.31458706, 0.0832395, 0.011588455, -0.12215066, -0.08917168, -0.3417683, -0.1867069, -0.15451844, 0.07419983, 0.15534066, -0.14764746, -0.01804219, -0.009490164, -0.049728908, -0.0590827, -0.03369875, -0.0801629, 0.053260885, -0.23198567, 0.04747299, -0.05961358, 0.10381188, 0.038953274, -0.035213523, 0.08887158, 0.02724051, 0.018283607, 0.051567335, -0.028534614, -0.1780408, 0.24381077, 0.051028393, -0.0034599907, -0.10185764, -0.15017402, -0.008266763, -0.21049915, -0.025829844, 0.21922451, -0.040122703, 0.088265754, -0.09801156, 0.17208187, -0.22930935, -0.06979871, -0.08393294, 0.084592246, -0.07404581, -0.0057035713, 0.0132957315, 0.037395928, 0.10631408, -0.06602017, 0.09910157, -0.10551862, 0.016728517, -0.06337191, 0.0340603, -0.2196143, -0.12034916, 0.09889062, -0.003281782, 0.06115028, 0.18089621, 0.039538458, 0.24785046, 0.06663599, 0.19695733, -0.0361578, 0.06455752, 0.120018855, -0.13164918, -0.044280767, 0.041064333, 0.02265114, -0.16666976, -0.12372751, 0.0067921337, 0.15778743, 0.03818537, -0.17904237, 0.13606404, 0.04150357, 0.11341619, 0.19639802, -0.11202065, -0.061991654, -0.03155028, 0.016774368, -0.06140628, -0.12149458, 0.011392027, -0.0019655463, -0.075997844, -0.12686433, -0.072112426, 0.0480935, 0.12504868, -0.0047601294, 0.002776825, -0.04109663, 0.0106962295, 0.10264954, 0.17158474, 0.0591112, -0.21897765, 0.00873652, 0.005074526, 0.15647131, -0.093037345, 0.08328896, 0.11069547, 0.028499145, -0.25250474, -0.046135172, 0.09411101, 0.06106227, -0.048893686, 0.04629358, -0.021060199, 0.039779525, 0.091275595, -0.19103664, 0.1317238, 0.050608728, 0.11553342, 0.2175832, -0.1378459, -0.18509689, -0.04560678, 0.24321264, 0.035552826, 0.22615565, 0.059568405, 0.106647305, -0.035938095, -0.19005953, 0.048674405, 0.077511996, -0.021583075, 0.0503006, 0.20683911, -0.014396283, 0.08076684, -0.23944364, 0.010114357, -0.13161878, -0.073040456, -0.040185425, 0.012692153, 0.008327499, 0.024376098, -0.019661538, 0.32354873, 0.07468799, 0.24513419, 0.1483133, 0.12601912, -0.14412074, -0.15293622, 0.046564557, 0.016593343, -0.06171316, -0.001048931, 0.067748696, 0.13583414, -0.0053472095, -0.045257337, 0.22517309, 0.030654633, 0.10309127, 0.056586973, -0.25843188, -0.15939954, 0.063562475, 0.060841832, -0.05636947, -0.1148216, 0.17371936, -0.17427547, 0.4140163, 0.092215605, 0.14171451, -0.26011878, -0.16692334, 0.10481229, -0.0043303594, 0.11055811, 0.1820179, 0.088754036, 0.12305743, -0.02181317, 0.08538896, 0.15151794, 0.1241363, 0.088865355, -0.067703076, 0.1725579, -0.0046767173, -0.00011427661, 0.23356202, 0.010147545, 0.13279219, 0.010144726, -0.05469324, -0.23273483, -0.103871346, 0.10523862, 0.2307249, 0.21921302, 0.023224453, 0.0340574, 0.043321993, 0.054777183, -0.01705313, 0.020606283, 0.19042479, 0.017400036, 0.043698814, -0.14442062, 0.08890632, -0.026507782, 0.06853061, 0.09768852, -0.06843199, -0.19307162, -0.053700157, 0.19920036, 0.07094564, 0.113991626, -0.28166363, 0.07178094, 0.12349305, 0.14037956, 0.20053667, -0.1604679, 0.03830986, 0.24602167, -0.1327647, 0.039045103, -0.08665264, 0.0984079, 0.06856385, 0.26000693, -0.13556089, -0.10236865, 0.13685718, -0.15447427, 0.13001516, 0.020152995, -0.026056496, 0.4087317, -0.0045175096, 0.0072136708, -0.054824483, -0.0045924727, -0.07303764, -0.01766948, -0.036959134, -0.11589998, -0.011026209, -0.14153306, -0.25837046, 0.044014327, 0.09266447, -0.01753831, -0.047289316, 0.047270004, 0.17758812, -0.06292042, 0.019097647, -0.10127787, 0.06130936, -0.005911414, 0.20362398, 0.35899356, -0.068997644, 0.07781609, 0.13107668, -0.14678548, -0.18141922, 0.08023933, -0.13640095, 0.0077055763, 0.029860439, -0.042089965, 0.03818479, 0.091437295, 0.14050028, -0.10591345, 0.19189407, 0.00017492202, -0.08697684, 0.15100007, -0.09323975, 0.14256209, -0.041299373, -0.0690871, 0.01379469, -0.04422347, -0.03995078, -0.047784366, 0.0014606003, -0.16707459, -0.09003045, 0.26411355, 0.11207466, 0.06482538, 0.07185914, 0.19596222, -0.1828147, -0.18475199, -0.03644591, 0.1574515, -0.21308161, -0.044142593, 0.10756431, 0.15122928, -0.07917809, 0.13161106, 0.0970418, -0.052095465, -0.09423261, 0.10594364, -0.011921928, -0.24018165, 0.051833592, -0.17805706, -0.10718037, 0.13960148, 0.2909322, 0.083647475, 0.018240867, 0.06098735, -0.07900825, 0.11547093, -0.12210387, -0.24398027, -0.091013804, 0.12883663, -0.077642046, -0.005425188, -0.067132145, -0.1005592, 0.14060757, -0.00060530356, 0.047971904, 0.030578466, -0.2041355, 0.13300571, 0.011048894, -0.3057155, 0.0092423735, 0.018893905, 0.020467658, -0.09842403, -0.03729769, -0.091724396, -0.08754401, -0.14623557, 0.16169855, 0.13727197, 0.002837547, 0.13966832, -0.042837, -0.07492446, -0.09934789, 0.15486011, -0.19740412, 0.20702726, 0.10261113, -0.09434496, 0.08833274, -0.10992936, 0.06133492, 0.24139555, 0.044941384, 0.010102098, -0.072936945, -0.1851693, 0.06882267, -0.10311692, 0.047206722, -0.18699725, 0.015946839, 0.015683245, 0.10202504, 0.17743623, 0.15497033, -0.07405775, 0.15485124, 0.07405895, 0.09088015, 0.16682479, -0.13367341, 0.020629875, -0.063721575, 0.016184099, -0.07970086, 0.19962499, 0.32824454, -0.15360644, -0.10972429, -0.2211647, -0.044167474, 0.09001938, 0.070561744, -0.0032566632, -0.06618709, 0.008099696, 0.070050895, -0.20542519, 0.03303578, 0.28760475, -0.13579848, 0.023289071, -0.025011852, 0.0706565, -0.07824483, -0.016636716, 0.12629227, -0.12662508, -0.07124764, -0.015882123, -0.062906526, -0.16394778, -0.1961014, -0.14046161, 0.19262154, 0.07193368, 0.06271834, 0.071792655, -0.113191776, 0.0059811054, 0.11178369, -0.08545384, 0.0073407004, -0.058813475, 0.0149461115, 0.052277125, -0.15814136, 0.043265328, -0.03598533, -0.059284084, 0.16669126, 0.07729451, 0.07474344, 0.11347231, -0.0033374424, 0.055149432, 0.29405415, 0.077469364, 0.09270115, -0.21576168, 0.03228986, -0.024239602, -0.0018684565, -0.0075899623, -0.1324204, 0.025268707, -0.124824196, -0.0908775, 0.029743567, 0.0035637221, 0.08946481, 0.1039913, 0.00068355957, 0.049709156, 0.23016995, -0.21244982, -0.009295421, 0.17266485, 0.064340495, 0.21797329, 0.12082695, -0.04121014, 0.13651778, 0.10589247, -0.1885697, -0.20397204, 0.16138369, -0.06728856, -0.011449098, -0.063319676, 0.13347162, 0.12886229, -0.18418829, -0.16348723, 0.16782005, -0.08440036, -0.07876248, 0.14872496, 0.06281233, -0.1731136, -0.017193452, 0.15632048, -0.1260218, -0.061894964, -0.033575866, -0.07191982, 0.1157176, -0.039625045, -0.07643561, -0.10317547, 0.13561954, 0.04971414, 0.16953295, 0.07586819, 0.15669794, 0.1305929, -0.13155189, -0.050074764, 0.026100319, 0.114314154, -0.044137288, -0.07097643, 0.06205322, -0.1335506, 0.23719847, -0.15792872, 0.013860163, -0.05339898, 0.11100966, -0.04237707, -0.23100904, 0.054534465, 0.16522108, 0.035509326, -0.09010149, 0.13785265, -0.30557904, 0.020539666, -0.12380602, 0.07103663, -0.15935607, 0.03998454, 0.21043761, 0.21705024, -0.34095803, 0.10454073, 0.05248988, -0.020255623, -0.08759517, 0.13024808, -0.19344783, -0.12114045, 0.036246408, 0.007511331, 0.29009596, -0.019413244, -0.17918836, 0.11206443, 0.048962336, -0.0948906, 0.15033023, 0.1245548, -0.048934504, 0.023348233, -0.13479853, -0.19210774, 0.30473676, 0.033280786, -0.2496862, -0.062971726, 0.12678441, 0.021829274, -0.07595727, -0.07889692, -0.10407726, 0.03731496, 0.09884336, 0.009199688, -0.17546253, -0.21137574, 0.09032487, 0.19716133, -0.05498898, -0.10471719, -0.04148301, -0.11936649, 0.20847939, -0.13593686, 0.16028868, -0.27948102, -0.022277292, -0.020740563, -0.16680263, 0.050132018, 0.21283166, 0.17070933, 0.04413025, 0.077042386, 0.11999512, -0.12595546, 0.08414726, 0.03999087, 0.03340247, -0.034739323, -0.22667308, 0.16114837, 0.10729014, 0.15504768, -0.12081184, 0.1085745, -0.020280592, 0.030906415, -0.106089145, 0.07462063, -0.06904866, 0.054873403, 0.040499788, 0.03824167, -0.11262644, 0.14124943, -0.1242625, -0.07663554, 0.102914855, -0.09422791, -0.12761867, 0.0015066843, -0.20594467, -0.009053168, 0.09880848, 0.041706525, -0.021251256, 0.023379056, 0.067167595, 0.23795384, -0.14723802, -0.055304818, -0.15197654, -0.045580573, -0.11016855, -0.16489436, -0.20302644, -0.00465422, -0.02248457, 0.09779419, -0.117719494, -0.042853445, -0.06264541, -0.1690876, 0.16162801, 0.04223342, 0.19633545, -0.022490669, -0.092133835, 0.08600571, 0.17342569, -0.10804317, -0.28508765, -0.07294816, 0.21977983, 0.33447358, -0.13448572, 0.100637324, -0.0114799505, -0.06387682, 0.024513185, -0.21964219, 0.03748308, 0.04552856, 0.163028, -0.1064732, -0.089517504, 0.072055615, 0.008561286, 0.086167514, 0.1316598, 0.08891575, -0.07317088, 0.023567872, 0.14811054, 0.09537412, 0.061878305, -0.060422193, 0.23027804, -0.05499351, -0.3952646, 0.08029542, 0.05577134, 0.023290886, -0.101369634, -0.0039459444, 0.15827641, -0.08205837, -0.25004765, 0.009528682, -0.10527428, 0.18565278, -0.032950353, -0.038144093, -0.08256379, 0.09486114, -0.07732784, -0.07619472, 0.074117154, 0.0487804, -0.03901379, 0.10950429, -0.0033840074, -0.0143356, -0.03315254, -0.097285874, -0.09286942, 0.2026992, -0.013857288, -0.0330808, -0.24576224, -0.2503706, 0.011607531, -0.038816817, 0.104102075, 0.0131819965, 0.027394464, 0.20391075, 0.045518853, 0.04709899, -0.0070018214, 0.08702377, 0.119740464, 0.0031912404, -0.053707715, 0.041495122, 0.12079982, 0.18747623, 0.08042782, -0.032325156, -0.112118624, 0.15635681, -0.022955094, -0.0044998685, 0.15072851, 0.16850147, 0.10755164, 0.0824933, 0.015461387, -0.31105572, 0.22412097, -0.13891412, -0.06480538, -0.014650925, -0.03736621, -0.07668201, -0.00050288095, 0.0058935867, -0.08919739, -0.05322606, 0.21506, 0.0621439, -0.28127474, 0.068721965, -0.02081664, 0.09049636, 0.011764784, 0.20325504, 0.13217181, 0.047734443, 0.16417094, 0.094630145, -0.116434254, -0.14238968, -0.15111154, 0.0988841, -0.21373956, -0.098585, 0.16989125, -0.0907787, 0.1799077, -0.012820668, 0.07636518, -0.015544811, 0.0049919356, -0.25612196, 0.05976372, 0.015752006, -0.062290072, -0.2959744, 0.106023416, -0.019395825, -0.08750878, 0.0029525345, 0.01976499, 0.11401965, -0.061805025, 0.0638957, 0.09009351, 0.097494766, 0.04779718, 0.0017995995, 0.014825507, 0.08000467, -0.17884126, 0.031167358, 0.06668767, 0.12349714, 0.030187724, -0.23911747, -0.15815026, 0.13085915, 0.021419328, -0.049019836, -0.20532912, 0.19112788, -0.11365357, 0.39423355, -0.06438919, 0.074651636, -0.12497518, -0.008381178, -0.009223035, -0.14869298, 0.20491657, 0.31891894, 0.13510309, 0.14501108, 0.000823866, 0.03311448, 0.06609271, 0.061070424, -0.056136083, 0.028685445, 0.017436814, -0.088833205, -0.05399015, 0.015293855, 0.13189948, 0.010675817, -0.0447561, 0.06562489, 0.047401905, -0.022923127, -0.022752745, -0.099501565, -0.22360909, 0.008035921, -0.026542714, 0.08957142, -0.33260188, 0.17445616, 0.032711264, 0.09689733, 0.06415654, 0.09969429, -0.21475263, -0.030347753, 0.08408546, 0.004333744, 0.0011133843, -0.10735378, 0.01941977, 0.15883517, 0.07410176, -0.15218148, -0.0062826118, -0.22767721, 0.029665474, -0.05900253, -0.06332966, -0.18232366, 0.115399614, 0.08414191, 0.11669033, -0.1783121, 0.013053652, 0.05875499, 0.13784233, 0.12531686, -0.05070524, -0.14184207, 0.07722358, -0.038537998, 0.01813195, -0.15395238, 0.1519996, 0.35723817, -0.09285641, -0.071795546, -0.008642245, 0.0471174, 0.07228613, -0.054735, 0.24796075, 0.16474529, -0.010912711, 0.21778974, 0.1454884, -0.013849148, -0.008609661, -0.08819207, -0.008661931, -0.05366003, -0.12255619, 0.01692866, -0.049628355, -0.04190622, 0.011143096, -0.036200117, 0.25379962, -0.022039063, -0.19007272, 0.033572856, 0.19204998, -0.0556603, -0.050884675, -0.10505103, 0.0056404374, -0.14470007, -0.06700477, 0.02775963, -0.121186174, -0.10979809, -0.17362392, -0.17442174, -0.025163246, -0.054206595, -0.047798954, 0.17039146, -0.17380957, -0.029779805, -0.050776567, 0.006448715, -0.01159508, -0.06980476, -0.10028128, 0.035628017, 0.04897056, -0.088849455, -0.13145444, -0.114696346, 0.17184775, 0.0045576217, 0.2612884, -0.175506, -0.038910296, 0.051667612, -0.217986, 0.03662677, 0.088470735, -0.07490748, -0.024964243, 0.10989923, 0.061568383, 0.020830646, -0.09333902, 0.045326963, 0.027221946, 0.05849789, 0.10598101, 0.096226096, 0.31844944, 0.14271015, 0.19284791, -0.16397846, 0.007832646, 0.002045807, -0.013970913, 0.1435084, 0.01733827, 0.13321392, -0.003912432, -0.12636459, -0.004717875, 0.12940985, -0.08530058, -0.08803093, 0.17748302, 0.021427736, 0.03113491, -0.16947651, -0.046313103, 0.031032247, 0.1517593, 0.16520935, 0.010035233, -0.10413913, 0.074275404, 0.10087459, -0.18753749, 0.048895292, -0.2497886, 0.00074890116, -0.3169362, -0.031122267, -0.0030217883, -0.033645317, -0.06496305, -0.09960124, -0.17814486, 0.0828276, -0.0652789, -0.2374437, 0.114691645, 0.051337257, 0.0012378416, 0.09696589, 0.025550669, 0.38383475, 0.2234456, -0.0452468, 0.30426276, 0.12099627, 0.1531119, -0.2226521, 0.009470876, -0.11561886, -0.024481827, -0.081483215, 0.17620133, 0.1676674, -0.07324537, -0.0021748985, -0.10405697, -0.117793076, -0.20005913, -0.10414117, -0.08203739, -0.09005381, -0.06003213, -0.071277715, 0.032238193, -0.013322014, 0.10359614, 0.1300991, -0.011505636, 0.28056565, 0.12072821, 0.05098414, -0.17616928, -0.121714905, -0.058078017, -0.07178106, 0.021623118, -0.06339265, -0.14270331, -0.0489928, -0.16642927, 0.002258041, 0.04057942, -0.02266137, 0.12619008, -0.059993573, 0.026041154, 0.093459554, -0.091682866, -0.0033409726, 0.017376278, 0.13056625, 0.007638174, 0.011661529, 0.18644935, 0.13754037, 0.0794436, 0.031867974, 0.03075889, -0.0713574, 0.040033706, -0.037139237, 0.06138707, -0.1794001, 0.10939452, 0.18579504, -0.06408899, -0.056150768, 0.0448812, 0.16982044, -0.2951999, -0.03263805, -0.0034458907, 0.14486317, -0.090554506, 0.22918794, -0.082453996, -0.01891182, 0.018703865, -0.051546086, 0.04887645, -0.20646974, -0.15289426, 0.06867892, -0.011721391, -0.14435829, -0.053315416, 0.040769055, -0.046779297, -0.088664725, -0.082860194, -0.1690186, 0.024723895, 0.33499715, 0.03502721, 0.12039405, 0.10461752, -0.1865375, 0.09519632, -0.050745748, -0.0732961, -0.12344205, -0.098924264, 0.08537062, 0.06653776, -0.2072756, -0.075521864, -0.014650499, -0.0034979042, 0.24535859, 0.06584315, 0.025595102, -0.07377416, -0.13599686, 0.3057062, 0.0583575, -0.05420455, 0.36954486, -0.09172744, 0.071796075, -0.038332112, 0.045249257, 0.015388738, 0.22520262, 0.07360922, -0.08575181, 0.017958298, 0.013506711, 0.083591595, 0.0076382393, -0.0522076, 0.1238905, 0.010386184, 0.023501677, -0.13018814, -0.038544577, 0.029215945, 0.21935807, 0.12381469, -0.016039072, 0.011150547, 0.093899675, 0.09827806, -0.022889234, -0.10721552, 0.15392345, 0.023775557, -0.11368331, -0.13177179, 0.025384003, -0.023567513, -0.109619096, -0.03373907, 0.1156431, -0.19075535, -0.10040011, -0.15193099, -0.17690995, -0.047401164, 0.21222702, 0.14860287, 0.020982122, 0.00095140445, 0.12560526, -0.064045295, -0.051198293, -0.15276553, 0.18365204, 0.05520877, -0.081523016, 0.07753284, 0.15787792, -0.060505886, 0.1375025, -0.0912571, 0.13945909, 0.09156658, 0.095099546, 0.11583165, 0.034129128, 0.29170984, 0.052934643, -0.14356297, 0.028096726, 0.098504364, -0.10214326, 0.014553469, -0.15244795, 0.060372576, -0.004655039, 0.0061827633, -0.013491327, 0.015796067, 0.07288912, 0.102607004, 0.030868018, 0.08348494, -0.01990926, -0.07567612, -0.01836215, -0.031786084, 0.043819893, -0.14408524, -0.023980249, 0.24391389, -0.101453386, -0.079973735, -0.065273345, -0.08302641, 0.1811742, -0.12609017, -0.049108963, -0.09207151, -0.15805234, 0.1259474, -0.06290928, 0.21212587, 0.06383174, -0.053631403, 0.08125935, -0.052929893, 0.050265796, 0.064575166, 0.05429037, 0.051344212, 0.008261427, -0.03921193, 0.28691074, 0.055299837, -0.39751476, -0.08414128, 0.047910895, 0.172367, -0.11504944, 0.2067577, 0.038080696, 0.024759667, 0.12355481, 0.0090117045, -0.12306188, -0.12331534, -0.1297997, 0.12663397, -0.18684605, -0.027156292, 0.030817386, 0.103649884, -0.102124415, 0.055732083, 0.11645362, 0.14394726, -0.051035304, 0.14502582, 0.22599152, 0.045896824, 0.09686943, 0.060572285, -0.003229471, 0.00236113, 0.10237231, 0.019557869, 0.027020412, 0.19094935, 0.12750232, -0.12384256, -0.055803105, -0.2716523, 0.23092875, -0.10697285, -0.117064625, 0.036957826, 0.054264456, 0.10208317, -0.0945929, 0.061601873, -0.021037435, -0.026955722, 0.086290985, -0.025457107, -0.16502634, -0.12990221, 0.09330075, -0.030937497, 0.002339374, 0.11442359, 0.035514407, 0.034367654, 0.06868026, 0.30368847, -0.20780306, -0.1842589, -0.009063913, 0.12237308, -0.00046504437, -0.14618982, 0.07620569, 0.017413048, 0.064860776, 0.0944435, -0.056769066, -0.097550675, 0.25079167, 0.21630055, -0.033890296, -0.0086480025, 0.08066179, 0.056419037, -0.08404347, 0.1974644, 0.07441205, 0.19189087, -0.03946599, 0.0004759419, -0.10256139, -0.041413628, 0.045782566, -0.10381463, -0.23900202, 0.2474329, -0.07627245, -0.1437399, -0.1485011, 0.16591792, -0.046309736, -0.1539353, 0.07414166, 0.08087435, -0.014819579, -0.008663452, 0.13526522, 0.007851612, 0.03254101, -0.18762778, -0.044491414, -0.13080399, -0.052654907, -0.05454308, -0.19162649, -0.22262007, 0.11417261, 0.027399356, 0.101659715, -0.12499505, 0.110236466, -0.07775858, -0.24549343, 0.021400943, 0.06618598, 0.01360549, -0.05055183, -0.087082334, -0.09818494, -0.1740678, 0.034830898, 0.05122687, 0.010401781, -0.06670433, 0.05035367, -0.05897974, 0.32364738, 0.041533954, -5.5677523e-05, 0.00021431554, -0.16844054, 0.014418487, 0.016309453, 0.03648193, 0.16826175, -0.06606784, 0.07250295, 0.09084725, 0.028397428, 0.26938424, -0.17387898, 0.04554041, 0.029271109, -0.26833022, -0.1393563, 0.051622786, -0.08762051, 0.167012, -0.22627039, 0.03335916, 0.119192205, 0.30368844, 0.21302535, 0.20833683, 0.0459995, 0.105614595, -0.060991775, -0.056727633, -0.080604255, 0.19738293, 0.12942871, -0.061968066, 0.25720534, -0.26069635, 0.25917286, 0.035528067, 0.030595368, -0.05431641, -0.068202116, -0.10916092, -0.08164884, -0.1408969, -0.12280528, -0.04296675, -0.061748113, -0.004557749, 0.0020772906, -0.020563243, -0.0333708, -0.004137003, 0.16430847, 0.016501026, 0.04709459, 0.1357217, 0.109978646, -0.03873505, -0.077731766, -0.005107761, 0.034672517, -0.2082453, 0.12204702, -0.0972662, 0.13918543, 0.012114678, -0.04559081, 0.045026872, 0.23625402, 0.069764666, 0.15155707, -0.15369771, -0.107665494, 0.08387208, -0.13890165, 0.1594112, -0.17456205, -0.0065953285, 0.15371323, -0.16520616, 0.1038707, 0.15327471, -0.029740583, 0.14189795, 0.09903008, 0.08574937, -0.1409675, -0.15137996, -0.24609123, 0.18328959, 0.15175787, 0.1364642, -0.05741531, -0.18360265, 0.014413274, 0.07620588, -0.07792397, 0.17451176, -0.14715202, 0.0533246, -0.11088449, 0.0536843, 0.0042855823, 0.10382252, 0.056288972, -0.19595844, -0.11558819, 0.07142844, -0.07115523, -0.19730142, -0.07753413, -0.19631359, 0.106763795, 0.09392963, -0.067950554, -0.06483183, -0.11125399, 0.06567455, -0.09987343, -0.33010304, -0.018703895, 0.07353871, -0.059563346, 0.04705248, -0.006459856, -0.04417732, -0.3336905, -0.00819949, -0.059505466, -0.016450826, 0.028946139, 0.15817837, 0.082419515, -0.05720101, -0.14779094, 0.17633122, -0.18213348, 0.28515533, -0.03313674, 0.1627436, -0.042888585, 0.12096333, 0.17079204, -0.17163193, 0.34843844, 0.027152196, 0.19462465, -0.11622402, 0.14345686, 0.08042814, 0.14237414, 0.06530258, 0.0020843328, 0.16818035, -0.1461494, -0.3585612, 0.20799112, -0.22100419, 0.019197686, 0.1501251, 0.0042559835, 0.21431215, -0.071417235, 0.038930282, -0.023576304, -0.11042821, -0.23494391, -0.09525154, 0.28322023, -0.15661047, -0.23230128, -0.1131006, 0.13641717, -0.24520129, -0.011360083, -0.09461393, 0.058244884, 0.08461091, -0.075650394, 0.21094498, 0.05247863, -0.08730121, 0.10727631, -0.047378782, 0.009490325, -0.015410261, -0.09337794, 0.14509869, -0.04147136, 0.076603, -0.029622441, 0.10484246, 0.16980521, 0.007595431, 0.14810407, -0.11847126, 0.14158116, 0.12806931, 0.29105788, 0.1384033, 0.09798082, 0.10059977, -0.12089377, 0.23768279, -0.032495305, -0.1978524, 0.10388583, -0.13659447, 0.02272692, 0.0067032403, -0.1371666, 0.07257987, 0.12275237, 0.06240673, -0.07413706, -0.07544399, -0.10112737, 0.13133948, 0.118255146, -0.044395283, -0.18980452, -0.17059016, 0.013866446, -0.0018190257, 0.08425673, 0.036691274, 0.0779475, 0.21610504, -0.031002609, -0.0088997735, 0.032855887, 0.14564371, 0.05164143, -0.1669379, 0.06445773, -0.112072356, -0.0801826, 0.07934266, -0.022235906, 0.15166321, 0.1081038, -0.08289218, 0.20336226, 0.13256787, 0.100396685, 0.06960233, 0.031405564, -0.07096973, -0.15450253, -0.0044314098, 0.07688129, 0.1775097, 0.16398244, 0.10268584, 0.09668014, -0.15177627, 0.07804105, -0.21117254, -0.02477324, -0.023978326, 0.0029848698, -0.17417286, -0.05087051, 0.029069733, 0.04043605, 0.046367347, 0.17870194, -0.07143302, -0.13285294, 0.1934975, 0.055213794, 0.059043348, -0.06754239, -0.0086334385, -0.08167182, 0.09080904, 0.09558517, 0.19965501, -0.07673979, -0.27878127, -0.03373249, 0.0881213, -0.14808579, -0.1893857, 0.059081525, 0.18176931, -0.17380613, -0.052378345, -0.024441004, 0.05274443, -0.23474982, -0.16056998, 0.086303405, 0.25716725, 0.029747415, -0.33362442, -0.107040435, 0.21716939, 0.23116958, 0.2406172, 0.031327203, 0.102287546, 0.12070273, -0.024563912, -0.12170463, -0.020627946, 0.16636793, 0.22846717, -0.12158202, 0.16768147, -0.09319789, 0.032138955, 0.03384446, -0.046169527, 0.025979226, 0.1272933, 0.14411385, -0.06013618, -0.19361798, 0.1764597, 0.15443541, -0.16367859, 0.032898538, -0.23171373, -0.0023731717, -0.14955766, 0.035114717, 0.046943706, -0.06889625, -0.06157236, -0.22546783, -0.14305428, 0.22233503, -0.016689593, -0.010049203, -0.027897468, -0.2407644, -0.030593075, -0.008375214, 0.054662604, 0.11105896, 0.069278, 0.14716193, 0.12605663, -0.029698975, 0.044930667, -0.05142355, -0.31730682, 0.15414475, -0.047387432, 0.020773718, -0.08110231, 0.040720575, -0.06406248, -0.17659742, -0.0315467, 0.25223565, -0.12836438, 0.0046476093, -0.0897515, 0.15300994, 0.001579586, 0.033164468, 0.029462662, -0.040084362, -0.030270832, -0.05757934, 0.006463515, 0.056562096, 0.03930766, 0.09474022, -0.1670082, 0.05795183, -0.2716928, 0.07492334, -0.018207345, 0.09927708, 0.24640745, -0.2173308, -0.088781446, -0.16846658, -0.034565624, 0.0714528, -0.101352766, -0.0025204357, -0.057001296, -0.14326441, -0.19868363, 0.21318816, 0.045879573, -0.06445393, -0.027330955, 0.08322186, 0.06442846, -0.18194622, -0.10049293, 0.034435622, -0.090188235, -0.003119484, -0.13108554, -0.056773636, 0.03318138, 0.21040899, -0.05568222, -0.19912477, 0.12330235, 0.22777677, -0.0745367, -0.116877824, 0.17631684, 0.17337358, -0.18974914, -0.046676792, -0.043450225, -0.029900514, 0.15901217, 0.01804993, 0.053374227, -0.2223924, 0.19160809, 0.2856501, 0.010978614, -0.14470197, 0.17671104, -0.04605208, -0.007215337, -0.04129779, -0.14226615, 0.02489729, -0.228296, 0.07310496, -0.017118087, -0.08704686, 0.023746263, -0.00957432, 0.14300703, 0.1798088, 0.0029900866, 0.010348199, 0.16765818, 0.0562121, 0.14709736, 0.06944693, -0.024256315, 0.20822535, 0.0062668207, -0.1818247, 0.002362641, 0.15981439, 0.018946541, -0.024428641, -0.17092957, -0.1570343, 0.048128646, -0.09671435, -0.0546131, 0.09989682, 0.044624146, 0.050774615, 0.09531586, 0.019394519, 0.08567614, -0.103409484, 0.0852078, 0.14978066, -0.10309702, -0.08123862, 0.03872019, -0.0044157556, 0.015415379, -0.27513513, -0.2026679, 0.076757446, -0.015559568, -0.08425486, 0.03890751, 0.07549132, 0.0651317, -0.056507044, -0.0115447845, -0.13220885, 0.10447288, 0.1345775, -0.027481033, -0.022752205, -0.010705482, -0.31808412, 0.03909921, 0.033440396, 0.064796135, -0.2189618, -0.31328425, -0.17853504, 0.04857957, -0.16195174, -0.34904596, -0.04798461, 0.24911611, -0.09375021, -0.103524685, 0.045737457, -0.034379244, 0.1016844, -0.029677495, 0.14635399, 0.30460474, -0.18326089, 0.22491278, 0.20834222, 0.14673294, -0.11083407, 0.03538064, -0.1828384, 0.05032116, 0.057854462, -0.10045112, -0.14165395, -0.034559783, 0.122204386, -0.020488515, 0.013480728, -0.122914016, -0.0387983, -0.18262218, -0.1286711, -0.10155569, 0.01542739, 0.25618634, -0.1385969, 0.018489487, 0.12234541, 0.089677684, 0.111890756, -0.037031524, 0.11860854, 0.27314788, -0.22120912, -0.07809856, -0.011493712, 0.17785138, 0.15960003, 0.034648385, -0.19443409, -0.09165952, 0.2504094, 0.0032016584, -0.2552067, 0.23471914, -0.00073928875, 0.09686982, -0.040705413, 0.069681436, 0.011970367, 0.052177213, 0.011746683, -0.02056638, -0.15783864, 0.2168445, -0.10273184, 0.0014848254, -0.006876306, -0.04478673, -0.089197844, 0.132512, -0.16151206, 0.10086872, 0.29308677, 0.026382748, -0.22279517, -0.12540925, -0.062080678, -0.14786133, 0.028888514, 0.38234428, 0.15156892, 0.11987867, -0.09276477, -0.12496376, -0.059329923, -0.112517156, -0.12844153, 0.13410878, -0.09965955, -0.21938096, -0.20619263, 0.078168005, 0.13522823, 0.11128121, -0.0020857537, 0.0673821, -0.21266696, -0.29061538, 0.09744153, 0.15850078, -0.11959703, -0.25050083, 0.18876797, 0.04876524, -0.0021135632, -0.15969677, 0.031431317, 0.146939, 0.18844996, -0.031768955, 0.08932189, 0.03206623, 0.10666768, 0.01251867, 0.031415526, 0.23307548, -0.17889716, 0.04490992, -0.006675689, -0.057381116, 0.15735362, -0.2319818, 0.0030449627, 0.08299249, -0.15122494, 0.04469664, -0.18873642, -0.019987939, 0.07780378, 0.06737255, -0.0033648424, -0.12894, 0.110100776, 0.26467377, 0.048858725, -0.15100543, -0.21817283, 0.052365858, 0.117380254, -0.09531203, 0.10932323, 0.15878096, -0.17342126, -0.0025389793, -0.016206766, 0.12788884, 0.10204766, 0.3415676, -0.07544244, -0.17570803, 0.28956664, 0.031258944, -0.25517663, -0.04580894, 0.15406576, 0.09587419, 0.061450668, 0.031601924, 0.042686906, 0.072027236, -0.14140034, -0.20267545, -0.06862365, 0.14550936, -0.034797534, 0.027620142, 0.012216647, 0.015543175, -0.10733388, -0.07998283, -0.059434567, 0.10870749, -0.01989989, -0.113457724, -0.08622772, 0.025866041, 0.054586805, 0.07348632, -0.057375595, 0.15894505, -0.09801143, 0.09221099, -0.00078570354, -0.20539202, 0.074574165, -0.110768676, 0.17437556, -0.033939008, 0.07274611, 0.08960232, 0.19011304, 0.0065696402, 0.09873652, -0.100418866, 0.025066119, -0.025074994, -0.08119353, -0.22422537, -0.07896637, 0.09595986, -0.08773155, 0.05159006, 0.07194217, -0.036701847, 0.19313514, -0.078088656, -0.02661577, -0.18050975, 0.009965018, -0.07434808, -0.19133528, 0.2232387, 0.09504144, 0.039355658, 0.18177915, 0.08779474, 0.05314881, 0.14577195, -0.010555379, -0.049811285, 0.02789575, 0.025298437, -0.040718183, 0.18892251, 0.28444052, 0.023952065, 0.10379654, -0.018103162, -0.04370108, 0.18520436, -0.0069934833, 0.05828675, -0.056067925, -0.22116259, -0.047405586, 0.00042439066, -0.003923371, 0.32200846, -0.18465237, 0.22562611, -0.06278538, 0.05303609, -0.033459004, 0.0671804, -0.022366732, 0.024835994, 0.004165248, -0.11781409, 0.22072747, -0.09342478, -0.07243993, -0.022825506, 0.025223035, -0.1953091, 0.17899077, -0.07687453, -0.010512732, -0.10137209, 0.054657403, 0.06969296, -0.123846695, -0.13149065, 0.28940132, -0.040243242, 0.04049736, -0.065785885, -0.046577, -0.23105192, 0.15495758, -0.060198106, 0.038991228, 0.11984409, -0.058566537, 0.08422772, 0.21181409, 0.0282714, -0.0057012658, -0.32071233, 0.07589668, -0.099274375, -0.14348988, -0.016146446, -0.066339135, -0.0028967026, 0.06423304, 0.112088926, -0.07318626, -0.024717048, 0.03974973, -0.15825413, -0.34273875, -0.04648591, -0.14697914, 0.1536564, -0.1531714, 0.13798076, 0.08315799, 0.200206, -0.0018343701, -0.23314525, 0.049044248, 0.02878303, 0.024484828, 0.029785547, 0.025889251, 0.09019079, 0.087629884, -0.06137943, -0.16754217, 0.37253085, 0.118508175, -0.04442248, -0.1739779, 0.01715238, 0.048490316, -0.19108467, -0.009440951, -0.18274647, 0.08362356, 0.0629678, -0.09045, -0.0031781646, -0.053577267, 0.10239505, 0.20545855, 0.057631426, -0.008530529, 0.079637855, -0.09530117, 0.22543795, -0.04427611, 0.21388757, -0.0030721263, 0.057275735, -0.0818628, -0.029128712, 0.17836602, 0.29091594, -0.2411177, 0.018315366, 0.078007996, 0.05524443, 0.20968725, -0.091926076, -0.045311682, -0.03855189, 0.13243462, 0.03126486, -0.023874912, 0.03134888, 0.11541807, -0.057822578, -0.030247988, 0.10833114, 0.22400518, 0.056519862, 0.16476844, -0.15805487, -0.29045004, 0.27112815, -0.05021155, -0.12648626, 0.051180065, 0.008647626, 0.030497637, -0.058626708, -0.10555808, 0.08936476, 0.13023138, 0.07691307, 0.065740064, -0.16006005, -0.11982127, 0.0725238, -0.013388033, -0.012114655, -0.16455606, -0.02426945, -0.07591844, 0.23848271, -0.02833421, 0.029094238, -0.14127685, -0.03087145, -0.0648192, -0.17307724, 0.13273649, 0.16888106, 0.23838197, 0.15318646, 0.12569076, 0.045932725, 0.021659903, 0.07593521, 0.07446739, 0.12489115, -0.081378624, -0.06890829, 0.029284248, 0.00367828, -0.013950235, -0.036404595, -0.14543861, -0.11030837, -0.02264136, -0.055856172, -0.017113503, -0.09523597, -0.110535495, -0.09341612, -0.016169865, 0.04652757, 0.17498247, 0.1048501, 0.2432139, 0.07355788, 0.11341713, 0.17738585, -0.065741085, -0.02983872, -0.07872086, 0.031235548, -0.104088336, -0.09523389, -0.058443245, -0.14234775, 0.06886301, 0.21696378, 0.0102542415, -0.07774225, 0.121429846, 0.06969352, 0.07171535, -0.0989371, 0.25271004, 0.26004937, 0.07720077, -0.115770094, 0.0018762372, -0.085710555, 0.007417834, -0.008368383, -0.037680224, 0.15894902, 0.06545271, -0.041242853, -0.105256855, -0.06519084, -0.15963896, -0.102114886, -0.112058446, -0.21322456, 0.24312797, 0.11916786, 0.056331705, 0.11517952, 0.070593216, -0.014776818, -0.090630814, -0.079277724, 0.2048629, 0.37044424, -0.04204532, 0.16520576, 0.0074710725, 0.11074228, 0.019437432, 0.16797641, 0.11102846, 0.02055559, -0.0483689, -0.114831276, -0.03476518, 0.086072266, 0.124323666, 0.02992522, 0.056851644, -0.0015195863, -0.17067534, 0.35049772, 0.08132016, 0.21313186, 0.023197975, -0.01254487, 0.07999252, -0.08187137, 0.12059222, 0.27233857, -0.116005056, 0.07483445, 0.18606293, 0.028590534, 0.113529325, -0.11024105, 0.090393454, -0.1631779, 0.21096684, 0.008862082, 0.07349684, 0.059550878, -0.12784417, 0.010308677, 0.017775215, -0.08120569, -0.25909075, 0.084881105, -0.08752582, 0.07127852, 0.15153617, -0.2564931, 0.07069834, -0.028281888, -0.1688269, -0.04981771, -0.14938574, -0.12812118, 0.10764027, 0.03617975, 0.11221283, 0.12871604, -0.010802949, -0.16324408, 0.114166915, 0.036115002, -0.13579232, -0.1300588, -0.083808616, 0.1443005, -0.03860843, 0.007928268, 0.036987662, -0.10662947, 0.20569985, 0.098954625, -0.12199842, -0.042595707, -0.2380935, 0.11095827, -0.023286676, -0.040904887, -0.020553274, -0.04458614, 0.1141769, 0.043901842, 0.021788675, 0.022685656, -0.007716829, -0.023189997, 0.041213192, -0.11882047, -0.025354687, -0.057441425, 0.12364731, 0.15191329, 0.035068978, -0.06974661, 0.012404418, -0.07532859, -0.15170418, 0.2515653, 0.19058608, -0.0551516, -0.12803403, 0.17762385, 0.11426432, -0.19937755, -0.13249144, 0.20053929, 0.15757671, -0.0035531956, 0.124672875, 0.12237014, 0.029499415, 0.029366173, -0.050363027, 0.16702522, 0.0336186, -0.19217499, -0.055089053, -0.10998153, -0.20230211, -0.13123743, 0.13424483, 0.08605167, 0.032199316, -0.12796502, -0.16539474, -0.10600024, 0.03412408, -0.02927184, -0.028994782, 0.13080414, -0.19315451, -0.041886553, -0.00903856, -0.07499556, 0.03697281, 0.027304912, -0.047090974, 0.10620752, 0.03191656, 0.06295019, 0.12975195, 0.06886401, -0.14770594, -0.04768249, 0.06709603, -0.121185064, -0.2690734, 0.18259296, 0.16338931, 0.051615916, -0.07616201, -0.1424119, 0.0739923, -0.057833992, -0.022462044, 0.2898063, 0.043072157, -0.034072675, -0.01912617, -0.011837982, 0.19179714, -0.03959694, -0.32312602, -0.014218026, -0.07302331, 0.106050216, -0.11759043, 0.2009243, 0.19381352, -0.21309032, -0.09781019, 0.01928221, -0.09683665, -0.11865835, -0.11777255, -0.06562628, -0.007135619, -0.033957068, -0.16053641, 0.08774018, 0.1486358, 0.16854878, 0.061176293, -0.01081935, 0.05626168, -0.08360573, 0.09232159, 0.31796327, 0.1597173, -0.00849357, -0.052188113, -0.043600455, -0.17857096, -0.08994636, -0.026030134, 0.14921238, 0.18776304, -0.16388762, -0.0885145, -0.009629527, -0.014296088, -0.097563244, 0.02779695, 0.105514824, 0.027243342, -0.048252832, -0.25800532, -0.13985048, 0.012367809, 0.074093476, 0.23871265, -0.06410944, -0.009244308, 0.2686213, 0.07213427, -0.13180768, 0.068147875, 0.21518086, 0.07968807, -0.043828357, 0.039947223, -0.011031299, -0.039241318, -0.20855303, -0.15527554, 0.02761435, 0.12577112, -0.029258704, -0.11003474, 0.041144107, 0.102844216, -0.045105804, 0.015804874, -0.1562226, 0.06269697, 0.0977092, -0.09071846, -0.15424599, 0.05384634, 0.024069628, 0.17247915, 0.12681088, -0.15546653, 0.1821614, 0.15535454, 0.06273732, -0.19763105, 0.019309971, 0.20555963, -0.15493941, -0.0544521, 0.022165867, -0.037305187, -0.10593024, -0.13475777, 0.14284167, 0.008327131, 0.013188468, -0.037754945, -0.11784089, -0.036691792, 0.06680962, 0.23086864, -0.0073371325, -0.1425001, 0.098064005, -0.05607383, -0.03172243, 0.09998377, 0.08674555, 0.17189819, 0.13939053, -0.038517196, 0.033869766, 0.02813101, 0.019658756, -0.017407276, -0.14365722, 0.046905752, -0.2603972, 0.13229294, -0.146563, 0.08798303, 0.0892861, -0.23004931, -0.11562727, -0.048396114, -0.081277, -0.10640822, -0.117902935, -0.06736122, -0.06954619, 0.051701255, -0.22558439, -0.06025172, -0.09608894, 0.0038918182, -0.24378008, -0.06620352, 0.2240563, 0.041605845, 0.056817554, 0.018746397, 0.03051861, 0.1360245, -0.24354735, 0.022979757, 0.16739447, -0.030091213, 0.12369008, 0.09737595, 0.024769552, -0.047003794, -0.07559389, 0.20323113, 0.0547522, 0.10645486, -0.21098657, 0.09926016, -0.04127747, 0.14248583, 0.17820239, 0.07209321, 0.12288725, -0.1239889, -0.06733549, -0.1266815, -0.2203165, -0.19622406, -0.10700119, -0.0069525875, 0.1576149, 0.01526294, -0.062281746, -0.11527161, -0.045569073, -0.17934974, -0.06713222, -0.04014937, -0.17103104, -0.066883124, 0.0653186, -0.12864126, 0.04621943, -0.107599884, 0.043591637, 0.20909818, -0.22859813, -0.017182777, 0.2317601, -0.26350394, 0.21322818, -0.00905776, 0.09888423, -0.00095024507, -0.08580382, -0.04665239, 0.027525807, -0.02466735, 0.043434504, 0.32256448, -0.15493922, -0.36502025, 0.1300653, 0.2023871, 0.063068375, -0.037046537, 0.15065189, 0.23424596, 0.04654182, -0.13529779, -0.14759807, 0.027310025, -0.287545, 0.023489026, -0.23363219, -0.028466877, 0.034192033, 0.035488956, 0.015744893, -0.0051152827, 0.014056026, 0.09177717, 0.079958774, -0.009712804, -0.1613594, -0.10425748, 0.038741607, -0.16753659, -0.2649377, -0.04030573, 0.14764406, -0.056866072, -0.060692552, -0.062997565, 0.01527003, 0.27808762, -0.016500846, 0.064021915, 0.057172865, 0.09583407, 0.15947987, -0.1262706, 0.052119315, -0.059807952, -0.2598196, 0.09182812, 0.013739688, -0.0617053, 0.25808173, -0.05481554, 0.1534416, 0.15162028, -0.12443568, 0.10477873, -0.06788998, 0.023740353, 0.103376254, 0.1025286, 0.08691669, -0.08279103, 0.008086537, 0.06698837, 0.11910492, -0.07244076, 0.07220953, -0.1565903, -0.010728062, -0.13561615, -0.12209419, 0.057816096, 0.17357884, -0.13462986, 0.05365834, 0.040905118, 0.18838395, 0.055965636, -0.1133829, 0.08193187, 0.12690777, 0.09414956, -0.23416834, 0.028430205, -0.082661815, 0.02608989, -0.184578, -0.11128517, 0.06453839, -0.056614306, -0.2671462, 0.111113556, -0.14088915, 0.1181243, -0.18583834, 0.18559255, -0.16936205, 0.08250999, 0.024039378, 0.07660387, 0.10143997, 0.042805992, -0.0044362927, 0.13597964, 0.0461917, 0.024604289, 0.02048348, -0.08298467, 0.005161667, -0.047003474, 0.100677185, -0.019310385, 0.05707474, -0.0071196305, -0.047076914, 0.24430253, 0.033264183, -0.17767449, 0.042581156, 0.07202614, 0.14624578, 0.01281155, -0.13658698, -0.058630254, 0.12054233, 0.10711211, 0.08446547, 0.12173207, 0.24010901, 0.09734789, 0.022225332, -0.23333669, -0.17564017, 0.13132599, -0.122694016, -0.11249125, -0.067245126, -0.111962035, 0.06100134, -0.15727584, -0.093350016, 0.0839263, 0.034235954, -0.049513057, -0.28262708, 0.12799555, -0.1365387, -0.070381895, -0.0737946, 0.03982894, 0.4575014, 0.064712666, -0.10040473, -0.10955931, 0.01788549, 0.19658251, 0.03209533, 0.08420775, -0.40000466, 0.014300656, -0.1839584, 0.053972587, -0.087305605, 0.02233035, 0.06476482, -0.08550323, -0.24597223, -0.17689306, -0.108595416, -0.15663202, 0.009182077, -0.036577415, -0.03960737, 0.24695623, -0.09269501, -0.011547094, -0.08220544, 0.030972188, 0.28517243, -0.10557011, -0.07005958, -0.06351147, 0.14328419, 0.09670586, 0.024543077, -0.0540381, -0.12938999, -0.12793458, 0.008671712, -0.087634906, 0.117568955, 0.15329805, 0.012598317, -0.12550518, -0.0039223614, -0.21152708, 0.1803204, 0.034008697, -0.0994045, -0.02249028, -0.00038701054, -0.08132711, -0.053359568, 0.26900592, 0.12493806, -0.0008857243, 0.20038083, 0.022221696, -0.3723207, -0.11216082, -0.06447926, 0.110348366, -0.0027071408, 0.34198183, 0.21943106, -0.121133305, -0.120129555, -0.047873545, 0.13124914, -0.1502603, -0.17588414, -0.07533468, -0.03216708, -0.02035095, 0.03128445, -0.116320446, 0.010813751, -0.078803405, -0.28347215, -0.122231245, -0.23435488, 0.159423, 0.08203338, 0.29341272, 0.14457604, 0.25155112, -0.0006968171, -0.13865621, 0.034322955, 0.025314925, 0.03292045, -0.02036759, 0.15404648, 0.0016773806, 0.18066795, -0.17576449, 0.172593, 0.072335556, 0.10564283, -0.018644696, -0.0791969, -0.19344234, 0.17237574, 0.09568804, -0.22265023, -0.14877817, 0.12506689, 0.0035961936, -0.18450321, 0.01826313, 0.11727587, 0.03221057, 0.272012, 0.0019365435, 0.06935213, 0.0958834, 0.17919947, -0.090648964, -0.0048876223, -0.018846571, 0.0658156, -0.07757853, 0.059602596, 0.030147556, -0.1400987, -0.019261906, -0.047684535, -0.23679958, 0.035589274, 0.10807573, -0.023703782, 0.1296416, 0.30837193, -0.008950009, 0.03018211, 0.06586789, 0.12700523, -0.03766399, 0.08312218, 0.10864364, 0.17738052, -0.12535854, -0.037075635, 0.11701455, 0.07903335, -0.15136401, 0.20347308, -0.11116353, -0.15149587, 0.13776825, -0.115850896, 0.08129786, -0.0815597, -0.24114281, 0.019301025, 0.1688562, 0.14805798, -0.16631635, -0.16395362, -0.025319995, 0.025941497, 0.047443558, -0.018208884, -0.114984386, -0.112700194, 0.052927025, -0.17225324, 0.13699892, 0.0055444688, 0.04899937, 0.19248708, -0.030319834, -0.08361944, -0.01623985, -0.06343194, 0.12420342, 0.14626494, -0.31251684, -0.26392934, 0.044748172, 0.18633458, -0.010478395, -0.08651456, 0.015398172, 0.011697711, 0.013597581, -0.043222986, -0.0857054, -0.04885862, -0.16091415, 0.14232811, -0.31287214, 0.040001072, -0.036679845, 0.05213573, -0.016284913, 0.29412282, -0.1289542, 0.0077645737, -0.10490674, -0.019197868, 0.013684223, 0.0036957073, -0.029178062, -0.14132062, 0.054217834, 0.1767526, 0.09116522, -0.14923002, 0.12437012, 0.07504702, 0.10110989, 0.20990072, -0.017828425, 0.1546172, -0.1372942, -0.012825455, -0.18177857, -0.008405473, 0.014095725, -0.15401664, 0.17626356, 0.03157004, -0.071013816, -0.12309584, -0.050025053, -0.004958607, -0.0469142, 0.09217542, -0.07298254, -0.15223354, -0.20371877, 0.14855798, -0.02902676, 0.17633086, -0.2020588, -0.12839225, -0.041933123, -0.039947335, 0.041541398, -0.094417326, -0.09610248, 0.18161827, -0.1128638, -0.10161929, -0.12043485, 0.12555806, 0.06797544, -0.10636318, 0.07816652, -0.05449753, 0.053913724, 0.09824, -0.08285225, 0.034922734, -0.0721316, -0.080493174, -0.09357957, 0.27099714, -0.0033736737, 0.067464, -0.08863199, -0.02865319, -0.036065977, -0.21343035, 0.12109333, 0.0015782521, 0.09071719, 0.014393624, 0.2484047, 0.057768237, 0.05196865, 0.004186939, 0.11971022, -0.245817, -0.060897056, -0.085313834, 0.055055104, -0.002436602, -0.16679975, -0.066078454, -0.065886594, -0.0055130385, 0.13576694, 0.18183017, -0.021098321, -0.05263223, 0.05323983, -0.11172973, -0.027256906, 0.022594329, 0.19950289, -0.06527813, -0.18118683, -0.2045358, -0.08782938, 0.12819797, 0.08635256, 0.044305854, -0.010451162, -0.11935713, -0.17739645, -0.07186912, 0.12225525, 0.0933332, -0.108652785, 0.13984384, -0.05332589, 0.16281399, 0.024202326, 0.23638247, -0.13781023, -0.17792684, -0.08442008, -0.06531826, 0.16988733, 0.17811806, -0.0777916, 0.15821636, 0.27273396, 0.015017565, 0.13053127, -0.14308216, 0.026606921, 0.024993718, -0.11434714, -0.21597062, -0.041189, -0.1730491, -0.050256457, -0.1461845, 0.1421752, 0.043405723, -0.122453764, 0.039734203, 0.19141996, 0.09980628, -0.06628448, -0.012565102, 0.01975417, -0.032333784, 0.013991961, 0.05382855, 0.047966134, -0.062373225, -0.084450215, -0.14943153, 0.27529317, 0.1404311, -0.060603455, -0.1427559, -0.15886277, 0.030203253, 0.07004212, -0.053555455, 0.17220698, 0.1292467, -0.16124669, -0.10645432, -0.12675007, -0.015132378, 0.280354, 0.09674148, -0.12615615, -0.036847644, 0.1614087, -0.02997149, -0.06555442, 0.0013813217, 0.07750257, 0.10468246, -0.037674144, -0.037887827, 0.039337233, -0.0042309803, -0.2349895, 0.039636593, 0.07148633, -0.3599493, 0.08613061, -0.108781405, 0.034786284, 0.08784957, 0.1332673, 0.077989966, -0.021512143, 0.099841096, 0.18008488, -0.1290128, -0.13087222, -0.246602, 0.024183387, 0.16026816, -0.20252013, 0.081828535, 0.014545206, -0.07824436, 0.014654265, 0.060716283, 0.1397923, -0.1814811, -0.13403817, -0.09176322, -0.049869347, 0.105675384, -0.11100349, 0.25210848, -0.046656083, 0.11847282, -0.014858831, 0.11138671, -0.093834996, -0.18476342, 0.1901064, -0.031652477, 0.13096629, -0.10109693, 0.14196566, 0.08594029, 0.19031848, 0.018045193, 0.10756776, -0.11078674, -0.0047445213, 0.011349584, 0.115848534, 0.005895507, -0.12951082, 0.07676533, 0.10659042, 0.14349912, -0.08041598, -0.09141685, 0.10881161, -0.11690733, 0.03133835, -0.1532987, -0.106745645, 0.1025244, 0.096928544, -0.001421168, -0.051251505, 0.029285207, 0.11749448, 0.116971076, -0.00459044, 0.052409336, 0.003507762

};

float fc2_b[256] = {
	0.032632563, 0.069206804, -0.02995729, -0.0223356, -0.054310367, -0.04069082, 0.045099594, 0.025159273, -0.0649048, 0.068719886, 0.07244386, -0.027404761, -0.0037296433, 0.023707062, -0.06263286, 0.0023435971, 0.05583676, -0.0852148, -0.060257334, -0.017507495, -0.053266473, -0.06033361, -0.0006277741, -0.001981453, -0.018281346, 0.08345852, 0.019356212, -0.06761623, -0.044799108, 0.00092845433, 0.005034531, -0.059964497, 0.0754593, 0.032572303, -0.03212444, 0.034478977, -0.034824595, 0.06849322, 0.075924166, -0.020133898, 0.046462353, -0.025923748, 0.06741939, -0.0723007, -0.04954748, 0.03230724, 0.026710683, 0.08010356, -0.00045311317, -0.07099859, -0.06694968, -0.049451057, -0.029189674, 0.016674196, -0.06265901, 0.00079223764, 0.014849644, 0.02678741, 0.019519303, 0.0026745202, 0.06758109, 0.0042778566, 0.082039215, 0.049403876, 0.0016424113, 0.043929026, -0.05843236, 0.033063173, -0.079749815, 0.101454094, -0.06607316, 0.07976797, -0.064264745, -0.074911445, -0.013209723, 0.03226171, 0.049328055, -0.020565445, 0.018012706, 0.08227944, -0.04075986, -0.07367852, 0.042619053, 0.05519966, 0.06275111, -0.051466674, -0.03563947, 0.028162025, -0.07303389, -0.029686078, 0.04481846, -0.048100483, -0.0010454231, 0.021480467, -0.025564468, -0.038506348, 0.025674213, 0.04784099, 0.0156015325, -0.00090891996, 0.08834747, -0.016496142, 0.00016233005, 0.034869257, -0.027440585, 0.0012928006, 0.043460704, 0.013573802, 0.008010704, -0.107608385, -0.0979424, -0.012373585, 0.057457253, -0.01620924, 0.013869366, 0.017857525, 0.00993733, -0.0712907, -0.08613475, -0.035713896, -0.05718637, -0.0041829334, 0.021860028, -0.028745875, 0.02324294, -0.03509745, 0.016361516, 0.061683655, -0.053164557, -0.032293532, -0.007964889, 0.011887635, 0.029497927, -0.0860289, -0.0691335, 0.04089603, -0.017383492, -0.037046228, -0.0029135123, 0.034953963, 0.008590567, -0.045865275, 0.028643588, 0.007605107, -0.048187364, -0.06979885, -0.023166185, 0.04085991, 0.006278324, -0.029377352, 0.045709454, 0.02788179, 0.02555293, 0.06756471, -0.05035432, -0.030560723, -0.025707206, -0.023158824, 0.048083253, 0.025162881, -0.07146996, 0.03368459, 0.009848676, -0.091191374, 0.056047566, -0.076659866, 0.028941886, 0.051655583, 0.09653316, 0.03726744, -0.06880057, 0.030173777, 0.031111537, 0.059925158, -0.0015027577, -0.04322396, -0.033316918, 0.056739565, 0.023401545, 0.013299795, -0.0036516048, 0.010053069, 0.004285867, 0.08832198, 0.06745328, -0.07517915, 0.041922104, -0.06385198, -0.020796537, -0.09510391, -0.078204684, 0.02745524, 0.042122748, 0.00226609, -0.065672204, -0.06341952, -0.021579703, 0.023192901, 0.038255386, 0.03384199, -0.032459192, -0.0045211655, -0.0065896986, -0.020645278, 0.029241389, 0.0016500334, 0.01763737, 0.012567853, 0.00834836, 0.050023362, 0.0647289, 0.01644939, -0.06010893, 0.01127898, 0.039523978, 0.05067705, -0.014612822, 0.052954257, -0.08292932, 0.01692495, -0.006052754, 0.06238988, -0.019627118, -0.00904324, 0.070971265, -0.06558109, 0.026961267, 0.03644588, -0.06349862, 0.05380478, -0.05969294, 0.040652584, -0.055791765, 0.00069927564, -0.02263267, 0.045729846, -0.07728275, 0.048406243, 0.040231414, -0.040044606, -0.020301208, 0.059258644, -0.0374775, -0.0516135, 0.03927135, 0.029568689, -0.024950279, 0.08110424, 0.013181081, -0.017999414, -0.03361728, 0.0015082669, -0.050447304, -0.016091129, 0.025984762, 0.026176125

};


#endif
