#ifndef FC3_H
#define FC3_H
// Header file of the 10-th layer of the model - The type of the layer is fc


float fc3_w[64][256] = {
	0.035490785, 0.05355957, -0.045983285, -0.06803517, -0.02483735, -0.091183305, -0.21779767, 0.055144556, -0.038077347, -0.120826386, -0.033016346, 0.046120986, -0.09639752, -0.06913706, 0.2169168, 0.023393288, -0.10073337, -0.08607324, -0.016311059, 0.041297447, 0.08787727, 0.0367407, 0.019862588, 0.11034722, -0.051795233, -0.078505225, 0.02898878, 0.013049041, 0.019727554, 0.08723372, -0.038611673, 0.121162504, -0.02749468, 0.004587825, 0.066949286, 0.06377956, -0.0034698166, -0.13481465, -0.1602079, 0.07098762, -0.01978958, 0.027670205, 0.035231024, -0.017788982, 0.11340872, 0.06460223, -0.10126294, -0.09037601, -0.009557439, -0.010487316, 0.014759534, 0.07262062, -0.11233175, -0.101134785, 0.07803708, -0.1404586, 0.090545595, -0.034267955, -0.017546387, 0.079664655, -0.09026699, 0.02931861, -0.08591136, -0.14835042, 0.09211694, 0.06496437, 0.0077373157, 0.10439882, 0.027733138, -0.0345342, 0.10811858, -0.25360385, -0.009811691, -0.063874595, 0.047660872, -0.080150805, 0.046851415, 0.070124306, -0.013739014, -0.06995412, 0.049028717, 0.111711904, -0.07147963, -0.046062704, 0.030080307, -0.038381055, 0.13898909, 0.025566118, 0.11605016, 0.025207952, 0.083486594, -0.13159016, 0.03284391, -0.124678016, -0.06705202, -0.09903488, 0.13775106, -0.03951388, 0.09372542, 0.041604027, 0.0010382015, -0.07818359, -0.008523791, 0.07286052, -0.019350726, 0.016023858, 0.061049305, -0.04810292, -0.09210113, 0.061725684, 0.05934991, 0.13587931, 0.0018133079, -0.017913477, 0.022228092, -0.025306283, 0.00049561093, 0.04107931, -0.05464974, 0.050436005, 0.25484455, -0.07989841, 0.030663844, 0.0045340033, 0.00010167826, -0.12918589, -0.03277183, -0.037459984, -0.015370415, -0.11914773, 0.0903453, 0.07705783, 0.052462477, -0.021231942, 0.093124904, -0.036691416, 0.06464827, 0.15543261, 0.058940005, -0.05971649, 0.12264679, 0.16341287, -0.041907046, 0.097974494, 0.043420617, 0.19636302, 0.043052744, -0.005041144, 0.051933084, -0.011986311, -0.039209988, -0.10475859, 0.07906424, 0.04525496, -0.0018883538, -0.030989124, 0.023932904, 0.15859416, 0.021540524, 0.03318295, 0.050893236, -0.105704844, 0.04999678, 0.12121033, -0.119363055, 0.08043607, 0.018571727, -0.026947606, -0.023697643, -0.0015259737, 0.0012628906, 0.015329169, 0.0493814, 0.062302288, -0.10926647, -0.0027850994, 0.084044375, 0.08769131, 0.052729327, 0.09838219, 0.12605932, 0.043271165, 0.08351498, -0.2243828, -0.056658022, -0.047750328, 6.152222e-05, -0.044140488, 0.06440753, -0.05623691, -0.018608054, 0.13713023, -0.106140345, -0.034033705, 0.04645112, 0.0071326606, -0.022207592, 0.086925566, -0.064517364, 0.035669584, -0.008728974, 0.043213237, 0.15338135, 0.008796731, -0.12524341, 0.033517264, 0.025136948, 0.09863172, -0.0010029098, -0.10218706, 0.03608662, -0.093711436, 0.113338135, 0.060235053, 0.042996258, 0.057579163, -0.08135024, 0.062485304, 0.19486001, -0.004094662, -0.030837543, -0.09037928, -0.05151662, 0.06295488, -0.008548522, 0.03195753, 0.031438064, -0.033610754, 0.111013256, -0.035682935, 0.00074779324, 0.1219822, 0.0248776, 0.010845683, 0.07060126, -0.19210403, 0.011029908, -0.005183592, -0.15923658, 0.15009475, -0.21943964, 0.035753563, 0.007976056, 0.06962172, -0.12937377, 0.06338628, -0.010963645, 0.11002342, 0.087337725, 0.1267241, 0.13280791, -0.08955532, -0.077707954, -0.015425063, -0.044336278, 0.05331891, -0.14958256, 0.015391062, 0.004459977, 0.053915158, 0.048982874, -0.028059646, 0.050079364, -0.11822206, 0.14028025, 0.059426665, 0.030278318, -0.03739113, 0.14961722, -0.036903813, -0.16191663, -0.0412792, -0.0192387, 0.018361634, 0.028962098, -0.010786294, -0.24711518, 0.06359292, -0.09983943, -0.14295146, 0.06374966, 0.111797385, 0.15862437, 0.0528799, -0.09705256, -0.00016533077, 0.033723623, -0.050219312, 0.04799826, 0.13056254, 0.029051946, -0.07975973, 0.11702067, 0.13087653, 0.18079206, -0.112015344, 0.069156975, -0.18003847, -0.056600127, -0.1656133, -0.103142776, 0.05535846, 0.007511624, 0.19537403, -0.020415042, 0.032831866, -0.011251406, 0.006083485, 0.014561117, 0.06599863, -0.10946651, 0.030837934, -0.12178155, -0.0148845, 0.109569594, -0.0483925, 0.25471014, -0.1879434, 0.23494148, 0.119775265, -0.110488154, 0.007937555, -0.17876557, 0.14374068, -0.1650539, 0.10639957, -0.107474886, 0.2528145, -0.16475932, 0.008572106, -0.0706431, 0.13034722, -0.01434458, -0.15080422, -0.017845856, 0.018772585, 0.061033513, -0.26967964, -0.037208807, 0.020886607, 0.08128517, -0.027815584, -0.10047878, 0.009611636, -0.08246745, -0.047375787, -0.09228803, 0.036283962, -0.06035657, 0.009040451, -0.15787873, 0.07508981, 0.07041538, 0.056163993, -0.07915097, 0.07153512, 0.15929842, -0.028034864, -0.00059731386, 0.060154933, -0.10983919, -0.035996668, -0.022753883, 0.03200403, -0.040075608, -0.31747967, -0.005460364, 0.10897125, 0.06515773, 0.085138746, -0.10718357, 0.0025034058, 0.14514986, -0.115102, -0.0138359405, -0.04765769, -0.04769609, 0.01859157, -0.07286084, 0.040944498, -0.1338217, 0.077941366, 0.0014887495, -0.021445489, -0.050467968, 0.029645177, -0.16036001, -0.054096457, -0.095309146, -0.13629514, -0.21051018, -0.05289593, -0.12287644, -0.13798432, 0.18129517, 0.15607564, -0.16405469, -0.0031504326, 0.10567863, -0.054314446, 0.0630896, -0.15353546, -0.038905323, 0.18264091, -0.101557724, 0.006641234, 0.03772574, -0.07765756, -0.022753688, -0.025062177, -0.011959848, -0.030261444, 0.040411238, -0.14449248, -0.09728932, 0.0031648362, 0.021392118, 0.10658247, -0.14050108, -0.21158417, 0.13949397, 0.06908974, -0.11699047, 0.121272884, 0.0998721, 0.03288545, -0.018616227, 0.033402476, -0.03675593, -0.05555633, 0.036520388, 0.0018834346, -0.05756611, -0.03604335, 0.069637746, -0.21415558, -0.082127295, 0.07235235, -0.107208386, 0.33343425, 0.14248432, -0.022026416, 0.1289395, -0.001568421, 0.027421514, 0.0013292377, -0.019560736, -0.05166322, 0.06511077, -0.123748496, 0.011548072, -0.065306865, -0.09676872, -0.07966205, 0.19828413, -0.1343108, 0.06041451, 0.093145035, 0.02688951, 0.01636019, 0.09353567, 0.0032824895, -0.1038968, -0.21222268, -0.014857715, 0.04930658, 0.14852396, 0.24063244, -0.15107766, 0.06985184, -0.16311468, -0.11429227, 0.11786213, -0.12517495, -0.27210945, 0.012778889, 0.063666254, 0.15169282, 0.03731915, 0.00024526348, 0.06005914, -0.19713774, -0.06266058, 0.04489333, -0.07788021, -0.0063668503, 0.015450849, -0.000842555, 0.0022838071, 0.12471013, 0.08141767, 0.16262633, -0.073227145, 0.010960853, 0.21899316, -0.031875357, 0.1560696, -0.09662731, -0.0075197434, -0.1592584, 0.03223155, -0.14404257, 0.053533666, 0.07381721, -0.12057022, 0.010479351, -0.23008348, 0.08157337, -0.10089718, 0.040553585, -0.14237419, -0.060713287, 0.1631779, -0.022295315, -0.13223161, -0.04253512, -0.09788163, 0.013216078, 0.047014464, -0.0027121943, 0.0129015455, -0.02479145, -0.0472885, -0.0020011072, -0.12913588, 0.13839051, 0.012671024, 0.20827849, 0.040298432, -0.086140774, 0.12165667, -0.0599544, 0.22422796, -0.06471176, 0.06801639, 0.12104229, -0.051880963, -0.10616065, -0.10296956, 0.008535392, 0.12928952, -0.021291574, -0.021467661, 0.16948603, 0.021624198, -0.07151115, -0.04146182, 0.077865444, -0.12365229, -0.07989692, -0.108840756, 0.053190637, -0.11789488, 0.020571938, 0.11828775, -0.08689079, 0.018089468, 0.09614897, 0.053417966, -0.11944866, 0.10643886, -0.08796506, -0.02676867, 0.06774329, -0.07378225, -0.08377288, 0.029185714, -0.08507494, -0.0012875497, -0.063796036, -0.11514381, -0.08967003, -0.1876616, 0.14183788, -0.07712213, -0.09807872, 0.1590255, -0.06531421, 0.1214692, 0.029872442, -0.10898368, -0.072295256, 0.04470745, -0.14947127, 0.06876118, -0.06593675, 0.10613516, -0.119379744, 0.024041068, 0.11938206, 0.016299486, -0.036954116, -0.007970951, 0.14685646, 0.051990956, 0.021874066, -0.10213544, -0.07361852, 0.08165393, -0.017437521, -0.046004023, -0.09650267, 0.025138559, -0.06415873, -0.017852476, -0.12534784, 0.10217412, -0.2029174, 0.011337092, -0.030781945, -0.038733028, -0.103146456, -0.18357866, -0.098659664, -0.14878988, -0.016959542, 0.17985648, -0.08764259, -0.056940302, 0.1338855, -0.030209592, 0.34699044, 0.034779184, 0.14457972, -0.12686321, -0.0024955973, 0.0024651703, -0.06554655, -0.2136138, 0.16975047, -0.114650205, 0.0847666, 0.09688221, -0.006161092, 0.12683849, -0.08443726, 0.08756048, -0.15313293, -0.0522334, -0.0146292215, -0.07929017, -0.012051148, 0.061068576, 0.02205445, 0.075199276, -0.047470666, 0.04524794, 0.050650816, -0.10678414, -0.011788363, 0.04705819, -0.21515636, 0.045127098, 0.0029928994, -0.040421154, 0.10780002, 0.07091524, 0.13600492, 0.047229268, 0.106821865, 0.0585581, -0.09198831, -0.08341131, -0.06944876, 0.099090785, 0.10222673, -0.05582174, 0.009425816, -0.021888053, 0.100141235, 0.07937464, 0.008531066, -0.024033487, -0.077612095, 0.14426093, 0.10067509, -0.0989923, -0.014330903, -0.029753353, -0.13679841, 0.09111023, -0.14817227, 0.011260388, -0.016046887, 0.05019234, -0.049989413, -0.031903453, 0.022267105, 0.036289964, 0.026135389, 0.046149477, 0.1430726, 0.17092104, 0.023244541, 0.1130127, -0.10811221, -0.16019164, 0.022702925, -0.092829086, 4.7482874e-05, 0.0077541685, -0.11835992, -0.037877608, 0.10486078, 0.019032031, -0.029877927, -0.06522947, -0.040898785, 0.06564285, 0.0668752, -0.037624784, 0.124089286, 0.009724225, 0.08888795, -0.02548638, 0.040567197, -0.029782368, 0.20262098, 0.06701433, 0.055674143, -0.11144541, -0.077151135, -0.113987, 0.054335702, 0.027266515, 0.14360888, 0.06805978, 0.09172022, -0.06296141, 0.039177552, 0.17593746, -0.16689879, -0.09398641, -0.0716864, -0.01714001, -0.052772634, -0.056335244, -0.0033704394, 0.11473117, 0.033247225, -0.043500923, 0.054084968, -0.14640602, 0.08252898, 0.10972123, 0.002118973, -0.03833203, -0.07460735, -0.029980212, -0.02644347, -0.11885936, 0.008874652, -0.16004282, 0.17960614, -0.094548054, 0.18971476, 0.05600434, 0.04669748, -0.12042729, -0.04268775, 0.17821568, -0.05935484, 0.16294074, -0.07306649, -0.0664754, 0.049352586, 0.115294926, 0.09296465, -0.07103994, 0.100011155, -0.12724267, -0.13562536, 0.0018048807, -0.20906264, -0.0880549, -0.043215822, -0.06875535, 0.10593061, -0.040158894, 0.052809045, 0.0060129836, 0.051167086, -0.0012724154, 0.008885953, 0.08302111, -0.18282768, -0.14469512, 0.08624488, 0.014095961, 0.058288086, -0.0034681135, 0.14500277, 0.02054968, 0.012069029, 0.0006085269, -0.068178795, -0.090293795, 0.042742822, -0.045505863, -0.12708779, 0.07593455, 0.031613767, 0.11636804, 0.10722385, -0.058276873, -0.07492439, -0.022697859, -0.009238074, 0.051903892, 0.047470797, 0.03372715, 0.24759121, 0.078544356, 0.019317929, -0.1327797, -0.10118225, -0.02386891, -0.03484135, -0.03222467, 0.034073025, -0.08992053, 0.088854514, -0.02718036, -0.10858446, -0.03840214, 0.010128821, -0.013282519, 0.061271194, 0.23064391, -0.034298126, -0.049381085, 0.06882545, -0.14186157, -0.022382047, -0.014858469, 0.0017692153, 0.010192353, -0.17235735, 0.13748065, -0.07499491, 0.16841443, -0.08083118, -0.053320378, 0.008622844, -0.049035683, -0.14538412, 0.049766127, 0.09469609, -0.03588004, -0.10224145, 0.06279551, -0.08492421, 0.35816258, -0.054827396, 0.014896691, 0.03500628, -0.0781893, 0.17674139, 0.031582702, 0.018948393, -0.012042452, -0.0736031, -0.015431588, -0.020685557, 0.055280067, -0.12705444, 0.14423297, 0.07127367, 0.035996955, 0.0851511, -0.052427, -0.046843875, 0.0076977964, 0.0043454254, -0.101570666, -0.0537536, 0.22276239, 0.12008188, 0.057797525, -0.15860246, 0.09803479, 0.16665973, 0.045464113, 0.07400712, 0.036055777, -0.08931535, -0.08322591, -0.007904004, -0.06999881, -0.053648893, 0.019546932, -0.048408885, 0.09140993, 0.18013376, -0.073719956, -0.027705107, -0.021221995, -0.12600449, -0.009550771, -0.07463482, -0.029895252, 0.087328814, 0.021916084, 0.013375914, 0.12969406, -0.026102815, -0.14170477, -0.07233217, 0.13351615, 0.17154004, -0.06443946, 0.15870719, -0.078893125, 0.13856252, 0.10648002, -0.1311704, -0.0349816, -0.07654537, 0.028964031, -0.09024731, 0.16663972, 0.06119505, -0.02121592, -0.09280604, -0.0056362464, -0.050835557, 0.05977928, 0.026867513, 0.04419982, -0.0223628, -0.06550944, 0.075272575, 0.088944174, 0.21131046, 0.053558145, 0.10604844, -0.0056196344, -0.050586697, -0.08203503, -0.047738727, 0.0069073257, 0.051915955, -0.17482671, 0.02966028, 0.03729065, 0.15222178, 0.09665892, -0.0046563987, 0.017666498, -0.064682014, 0.01386987, -0.08425951, -0.02274189, -0.100550085, 0.07254659, -0.15102087, -0.001393983, -0.098253995, -0.14660981, 0.08348017, -0.02291563, 0.07836404, 0.106393605, -0.07171603, -0.03010155, 0.07532403, 0.005215095, 0.09756813, -0.008181271, 0.04106246, -0.098662734, 0.06534826, -0.075881064, -0.056075864, -0.0426621, 0.045268543, 0.010977453, -0.11999897, 0.11980607, -0.27846172, 0.07729543, -0.08966726, 0.014439082, 0.06287995, -0.15375353, 0.0022665898, -0.09609775, 0.08456959, -0.035610065, -0.030772803, 0.018444737, -0.02872189, -0.01217403, 0.21966887, 0.10241199, -0.07339394, 0.11254293, -0.002001137, -0.054254733, 0.043871608, -0.13734874, -0.014695685, 0.056013867, -0.13019358, -0.039937902, 0.09849982, 0.042805057, 0.09912343, -0.046986625, -0.061485533, -0.051785395, 0.014007861, -0.09574665, 0.004051113, 0.034859084, 0.17895086, -0.06293074, 0.027124876, -0.047653373, -0.08179702, 0.014541898, -0.09764974, -0.06743805, 0.005411645, 0.018981688, 0.06401383, -0.06407178, 0.056811813, 0.033858847, 0.08787484, -0.0031884687, -0.05419483, -0.06769463, -0.008570509, -0.0764641, 0.033567112, -0.07071717, 0.13819957, 0.033396408, 0.16902046, 0.1248162, 0.006292119, -0.04376181, -0.056212384, 0.21258649, 0.03927813, 0.15742283, 0.027747903, 0.0054058167, -0.09197554, -0.10787746, -0.07466984, 0.08797493, -0.12161857, 0.01581009, 0.0601996, -0.009556599, -0.073073134, 0.102196135, -0.002866222, -0.057899725, -0.15024105, -0.13694227, 0.09880215, -0.04374006, 0.085918784, -0.013656492, 0.08051548, -0.03551462, 0.0811079, 0.0010112268, -0.29004598, 0.07196621, -0.0555229, -0.06648137, -0.025394777, -0.08264702, 0.019155294, 0.019264512, -0.116230756, -0.066850014, -0.096060246, -0.20247893, -0.037990108, -0.14553754, 0.064946, -0.16132928, -0.05349902, -0.012580473, -0.17220576, 0.20724511, -0.037520234, -0.008407872, -0.1739157, 0.05474727, -0.15684785, 0.061982084, -0.02894795, 0.11815826, -0.08861663, 0.04140986, 0.017484754, -0.017529512, 0.01105194, -0.02835048, 0.11889717, 0.083475076, -0.104035884, 0.067648314, -0.02216108, 0.05321594, 0.07645401, 0.035743073, -3.577878e-05, -0.053558543, -0.014660144, 0.02524569, -0.12590986, 0.099685475, -0.04258321, -0.020534925, -0.08786102, 0.012582254, -0.024032718, -0.284003, 0.034236297, -0.109051436, -0.21850744, 0.15152042, -0.17130615, -0.06789147, 0.05980459, 0.028114557, 0.22526492, 0.18381296, -0.0114228465, -0.13284598, 0.010099008, -0.024380708, -0.14787568, -0.1837148, 0.10674252, -0.0866637, 0.17148119, 0.027968, -0.004482761, 0.05728131, -0.096967526, 0.11841934, 0.06205897, 0.0764898, 0.081532374, -0.07041286, -0.059859775, 0.10572657, -0.09961085, -0.050366905, 0.18456605, 0.030162498, 0.048465386, 0.024993904, 0.02827161, -0.04152457, -0.08381495, 0.12607302, 0.10076294, -0.15651366, 0.116518416, 0.17692985, 0.0009400205, 0.08651807, 0.0023484672, 0.14039364, 0.0100585595, -0.069085166, -0.087581895, 0.023753218, -0.034587234, 0.05146142, 0.010910493, -0.057178635, 0.016683972, 0.121643506, 0.15967162, 0.074526474, 0.011436555, 0.045924716, 0.26233098, -0.07541329, 0.10689451, 0.037588004, -0.09808207, 0.043045513, -0.07931819, 0.016621944, -0.12262565, 0.1196661, 0.06619321, -0.11491087, 0.05204019, -0.07580418, -0.07529982, 0.0036439912, 0.0877693, 0.024000231, 0.026069056, 0.12230271, -0.09944425, -0.12605742, 0.12484446, -0.031858563, -0.0032624516, 0.016440535, 0.05603367, 0.044709805, 0.039047226, 0.041804228, -0.005814651, 0.03949671, 0.071641974, -0.00035354897, 0.08765129, -0.0110836895, 0.072145976, 0.08102753, 0.041938566, -0.19964637, 0.026472433, 0.0751852, 0.15998088, 0.12093466, -0.020000963, 0.09054044, -0.07399155, -0.06640095, -0.021096444, 0.040431105, -0.034362502, 0.07277121, -0.039572943, -0.1300342, -0.054017745, 0.21973954, -0.079009496, -0.16257262, -0.09761916, 0.060052074, 0.02731538, -0.18240531, 0.15519951, 0.070192896, -0.10361595, 0.058308806, -0.0323609, -0.12437756, -0.023791604, -0.010447772, -0.042057987, -0.06232847, -0.06529239, 0.17218827, 0.030366058, -0.123341, -0.03782995, 0.048259847, -0.014489256, -0.06780808, 0.06804567, 0.10021816, 0.076827995, -0.028018571, -0.19181775, 0.032128707, -0.123808116, 0.10518127, -0.040972523, 0.07067977, -0.07261345, 0.030138649, 0.06120998, 0.10113354, 0.21489002, -0.03331888, -0.055254743, 0.0376172, -0.13775565, 0.10685297, -0.11126402, -0.15811302, 0.200555, 0.113424405, -0.12685566, 0.07716297, 0.12344668, -0.18794905, 0.043215033, 0.16226089, -0.080399945, -0.0728196, -0.09827636, 0.03577594, -0.08171647, 0.12924702, -0.029497406, 0.047902692, 0.15382694, -0.027611755, -0.09587169, -0.07056267, -0.028708868, 0.044284638, -0.21307763, 0.13300218, 0.08882363, -0.08854793, 0.11607703, -0.17873913, 0.12915039, 0.06932904, -0.02069869, 0.105789244, 0.08976672, 0.03574432, -0.03682577, -0.13197552, 0.10324001, 0.0363574, 0.045435704, -0.033488456, -0.17284374, -0.2147182, -0.17461511, -0.0822459, 0.1133641, -0.14576149, -0.096082814, -0.14523111, -0.020051684, -0.10450549, 0.0318552, 0.035342075, 0.11149063, 0.030331999, 0.09244893, -0.10639887, 0.0080359485, 0.0501848, 0.0068322076, -0.123013034, 0.10106891, -0.044048537, 0.079560444, -0.11060965, -0.1332695, 0.043764416, 0.023296697, -0.013244536, -0.19993034, -0.035512432, 0.18021247, -0.15017195, -0.08577785, 0.13936718, 0.14735948, 0.18051898, -0.17593291, -0.1342644, 0.09709615, -0.15195893, -0.04990605, 0.14829932, -0.11925919, -0.014453828, 0.02172528, -0.05869659, -0.0053159064, 0.054439515, 0.0021097478, 0.055015378, -0.07032828, 0.1477059, 0.066157706, -0.05859997, -0.05999975, 0.17590366, -0.05834118, -0.05849833, 0.07747358, -0.010694569, -0.103192806, -0.21806836, -0.10992575, 0.009053673, -0.04423657, 0.095435485, -0.12994094, -0.10239809, -0.19233203, -0.09885713, 0.1048134, -0.112696595, -0.035698567, 0.13612905, -0.06991633, 0.11095777, 0.041876175, 0.14730538, 0.1739952, -0.17098203, 0.031129826, -0.06036174, -0.03528045, -0.04767241, -0.07281766, -0.091119565, 0.089400806, -0.05055287, -0.11787328, -0.002404708, 0.053708766, 0.098457776, -0.08217785, -0.09680898, 0.03897446, -0.010241084, -0.13619792, 0.15738073, 0.060458757, 0.17623697, -0.041197095, 0.09069226, 0.010864205, 0.04637039, 0.14629315, -0.09756746, -0.19738705, -0.0902821, 0.027130704, 0.07661342, 0.15441231, -0.12697804, 0.08835374, 0.03171057, -0.020273067, 0.18705675, -0.12161267, 0.037101008, 0.06348956, 0.19452715, -0.0822748, -0.074876696, 0.0003562582, 0.1440095, 0.085578345, -0.112733275, -0.12626752, -0.17766888, 0.0057294653, 0.10071897, -0.02369506, -0.056822617, -0.036543943, 0.12905449, 0.08467991, 0.12228877, -0.1031464, 0.059103474, -0.115231924, -0.07327421, -0.08026046, -0.03613012, -0.060327508, 0.06902742, 0.05310764, -0.08137677, 0.015771972, 0.03552949, 0.07049283, 0.10100647, 0.09585994, 0.019227302, 0.118633166, -0.22348008, -0.10172456, 0.0086143715, -0.026878435, 0.01802714, 0.064653784, -0.009214072, -0.03402676, 0.069655426, 0.028474838, -0.1080845, -0.030033052, 0.14564855, 0.06730999, -0.07946595, -0.04510872, -0.12339729, -0.13020216, -0.15141158, -0.032087985, 0.11790201, 0.014561705, -0.071232654, 0.017336102, -0.0068966174, -0.09179196, -0.15448715, 0.16671003, -0.1289217, 0.15080188, 0.028217182, -0.031778, -0.06893476, 0.110923864, 0.07604632, 0.107731216, 0.017361075, -0.104210794, 0.054100648, -0.08746307, -0.12002501, -0.03771971, 0.13335587, -0.003863194, -0.16432115, 0.025700146, 0.09746775, -0.094861716, 0.043378964, -0.054517996, -0.091247745, -0.054203864, 0.06455581, 0.13194087, 0.018478718, -0.18722107, 0.12616533, -0.026153982, -0.116968624, -0.044228025, -0.090558976, 0.08940816, 0.08404075, -0.10766632, 0.014623101, -0.17704481, -0.09866357, -0.09591917, 0.18989015, -0.058513567, -0.06754699, 0.07822563, 0.1114477, 0.041529678, -0.13308983, 0.32008108, 0.0015292938, -0.1361909, 0.1808946, -0.040055476, 0.18779767, -0.039807886, -0.107261695, 0.24751197, -0.18037139, -0.028580008, 0.04175945, -0.06895689, 0.14526868, -0.06781011, 0.1057841, -0.11368136, 0.009264144, -0.02046441, -0.07562789, -0.106166616, 0.044147544, -0.06981086, 0.075609095, 0.08941089, -0.1910592, 0.052010093, 0.13595541, 0.0006867179, 0.14359282, 0.0083738975, -0.113627985, -0.013426262, 0.21376757, -0.07752102, -0.031711344, -0.13502869, 0.08558482, 0.23855883, 0.20576571, -0.18569823, 0.015562932, -0.0075741652, 0.22230619, -0.14085971, -0.18620501, 0.057800516, 0.005451641, -0.06912102, 0.040634908, -0.06742003, 0.0036492243, -0.003211962, 0.10699837, -0.17122498, 0.18658422, 0.05207871, -0.12085725, -0.03543548, -0.09550641, -0.017126411, 0.08060212, 0.06360047, -0.0959129, -0.15789004, 0.044292726, 0.1414042, -0.0094424095, 0.08105764, 0.03691751, -0.031842504, -0.14230354, -0.027352834, -0.17825294, 0.22045894, 0.04602629, 0.048838947, -0.046616465, 0.19163302, 0.10161596, 0.017479219, 0.06350456, 0.07384838, -0.09517621, 0.108095676, -0.045981564, -0.040010888, -0.07773039, -0.0134164905, -0.029830314, 0.0091530355, 0.20300986, 0.041411906, -0.0074425517, 0.017276736, 0.042150233, -0.008410892, -0.03141941, -0.11057651, 0.093691744, 0.042781256, 0.041575696, 0.045257982, -0.11894586, -0.12271276, -0.054081406, -0.011316959, -0.06848272, 0.09909731, -0.073990636, 0.12022603, -0.026468774, -0.037636857, -0.026582494, -0.04177178, 0.0032045553, -0.15557255, -0.0063947835, -0.017187439, 0.045234762, -0.024836296, -0.036192134, -0.005855158, -0.051004644, 0.0021574679, 0.15424365, 0.11352201, -0.18095182, -0.035041824, 0.08468845, 0.049431555, 0.05470227, 0.0484954, 0.037048582, 0.03965745, -0.057905164, -0.1753132, 0.03381114, 0.055640996, 0.08305478, -0.048544146, -0.0037666233, 0.041904252, 0.123622894, 0.1863293, 0.053191405, 0.18173958, -0.19488914, 0.07374257, -0.026415868, -0.18815535, -0.05369879, -0.007134568, -0.05844452, -0.095938146, -0.091577545, 0.22068432, 0.099707715, 0.09266675, -0.008793243, -0.041084588, 0.016660329, 0.08188646, -0.09528058, 0.049735438, -0.03085332, 0.09367165, -0.0145362355, -0.026677448, -0.1031816, -0.014776138, -0.08660776, -0.08267092, -0.15164256, -0.19583051, 0.019382352, 0.04276023, -0.15866391, -0.045803066, -0.13980009, -0.019714886, 0.18953851, -0.13171056, -0.19460319, -0.004795213, 0.040720273, -0.085077174, 0.023481729, -0.11536741, 0.05743046, 0.09032585, -0.040119603, 0.27098367, -0.07558087, -0.012253334, 0.1408731, -0.04975396, -0.043413654, 0.062928766, -0.104036264, 0.09868783, -0.053016987, 0.24874638, 0.04044085, -0.071127355, 0.032288123, 0.15568277, 0.0009453612, -0.1705323, 0.039881393, -0.16051534, 0.08612853, -0.11494832, 0.18294097, -0.07808333, 0.020341996, -0.013860841, 0.26293457, 0.0899862, 0.101803996, 0.07749693, -0.12999348, 0.15334456, -0.1073801, 0.04636775, 0.039855946, 0.07683684, -0.11960609, 0.06823732, 0.014510529, -0.112258166, -0.12606366, -0.12661827, 0.041615043, 0.076088294, -0.2197642, 0.016899157, -0.16898353, 0.015619174, 0.0794699, -0.05065879, -0.120482124, -0.065346, 0.029232627, -0.08073298, -0.22225586, 0.030110182, 0.12964655, -0.043511946, -0.022441423, 0.11205759, -0.06334109, 0.055592477, -0.015791576, -0.062428225, 0.03386328, -0.0052764495, -0.05623025, 0.17482877, 0.018475935, 0.06541057, 0.02322561, -0.056672838, 0.08854964, -0.09969018, 0.057170372, 0.13192, -0.08274349, 0.07193628, -0.002328232, 0.05140355, 0.11284723, 0.096568495, -0.071152404, 0.14171104, -0.12910375, -0.0033898784, -0.031348042, -0.03435472, -0.10645298, -0.06568156, -0.1113111, -0.22239114, -0.066269934, -0.020525921, -0.035275586, -0.023486845, 0.034410585, 0.11988902, -0.06298799, -0.09281105, 0.021637307, -0.033506695, -0.16108555, -0.0160791, 0.03221707, -0.12571245, -0.05505381, -0.046988003, -0.018517442, -0.14021447, 0.029869154, 0.11369862, 0.00766974, -0.14731424, -0.010607602, -0.15250833, 0.14828396, 0.038757995, 0.12647848, 0.13991095, -0.11354509, 0.12936665, 0.039819833, 0.05424519, 0.07285016, -0.0053329486, 0.104168706, -0.09177138, 0.002263662, -0.022403931, -0.09437869, -0.057351835, -0.022490628, 0.095728464, -0.059927683, -0.016140832, 0.18751274, -0.14975022, 0.08397261, -0.04992417, -0.19277564, -0.2604169, -0.029328775, 0.08686596, -0.17674343, -0.13363221, -0.07323249, -0.12182726, 0.021875376, -0.19267918, -0.048584364, 0.120883234, -0.14257127, 0.19659458, 0.16151522, 0.041429695, -0.09704727, 0.06914046, 0.038068123, -0.061754037, -0.026386725, 0.10472255, -0.020120917, 0.15930864, 0.13832077, 0.07574772, 0.03549411, -0.015506896, 0.11860272, -0.0200328, 0.079727694, 0.009269504, 0.006182288, -0.02297242, 0.11351055, -0.19409835, -0.11656535, 0.12256371, 0.07153719, 0.07113216, -0.09976399, 0.11799139, 0.044696253, -0.02488615, -0.054346237, 0.06648886, -0.10968273, -0.009166054, 0.24679425, -0.06997454, 0.020479387, 0.02554804, -0.00095286325, -0.016386796, 0.0018858878, 0.0125025045, 0.065182745, -0.0653335, -0.024386188, 0.012472188, -0.12094994, -0.08504506, 0.022098592, 0.0085962145, -0.061593827, 0.072276846, 0.056470264, 0.23313089, 0.036742523, 0.20466344, 0.0014963204, -0.086188875, 0.005353868, -0.059520457, 0.07995777, 0.10037308, 0.119581476, -0.11594645, 0.11634034, 0.062193405, 0.050909, -0.0049471376, 0.025809737, -0.10980627, -0.028996725, -0.017691081, 0.09396766, 0.07411383, -0.054204643, 0.13584451, -0.19832098, 0.038731307, -0.0020187716, 0.0739832, 0.25240174, -0.08151774, 0.18003322, 0.05516069, 0.13651094, 0.1053361, 0.09809048, 0.12520231, 0.018943682, -0.1275502, 0.07825018, 0.16501342, 0.12113818, -0.17949243, 0.092520416, 0.1839385, 0.05741931, 0.0016337154, -0.0073674778, 0.033395074, -0.021000896, 0.08803663, 0.0116973, 0.0025505878, -0.10070469, -0.039007016, -0.03629451, -0.17171235, 0.11057987, -0.03436185, -0.027365716, -0.19372293, 0.13140012, -0.21675178, -0.034018047, 0.10726184, 0.14289765, -0.1076256, -0.11411611, 0.03207868, -0.045176327, 0.020943785, 0.18353185, 0.012147416, -0.07068543, 0.14070255, 0.108110644, 0.07649311, 0.11040525, -0.08510768, -0.12446962, -0.1703891, -0.0762697, -0.11385033, 0.07804574, 0.05669371, -0.039799724, -0.13886778, 0.05729727, -0.08789489, -0.064572126, -0.09883882, -0.07824414, 0.0922451, -0.053848803, 0.03683118, 0.12476858, 0.1782237, 0.039198425, -0.0775242, 0.15446673, -0.30284706, -0.14867897, 0.023250572, -0.10470653, 0.059324782, 0.04688929, -0.09463242, -0.10285068, -0.0006457525, 0.00066818454, -0.17793405, 0.10009161, 0.06196065, -0.18053871, -0.00018085769, 0.05359156, 0.07613506, 0.002952357, -0.020396916, 0.11974795, 0.073333025, -0.037247088, -0.19109462, -0.12085885, 0.101216875, -0.036229778, -0.17282175, -0.0015007809, -0.11199528, -0.110809535, 0.025219414, -0.073583126, 0.04828015, -0.08059608, 0.13296509, 0.06006351, 0.21055496, -0.1948419, -0.0679215, -0.002024814, 0.063234866, 0.035083048, -0.18672924, -0.10500617, -0.15354848, -0.062284123, -0.14381415, -0.024158124, -0.043866273, -0.0005626539, -0.15069647, -0.091346495, -0.045188848, -0.0969043, 0.06647595, 0.017721895, 0.06690202, -0.14158195, 0.0023164612, -0.146171, 0.08229583, 0.0072851386, -0.027312556, -0.011935539, -0.13652009, 0.10127858, -0.12445949, -0.002983761, -0.18025438, 0.07458779, -0.037066195, -0.067682624, -0.03163261, -0.11009618, 0.09414793, -0.086263955, 0.0063740774, 0.09640404, 0.019190323, 0.24656546, -0.038391512, -0.09692279, 0.0310528, -0.0664989, -0.032883763, 0.06851437, -0.07733108, 0.009173818, 0.00765816, -0.04791575, 0.02946407, 0.010972699, -0.029422686, 0.14502472, -0.07488475, 0.056138035, 0.1008049, -0.02897296, -0.05127726, 0.1582577, 0.12606406, -0.029144049, -0.05116549, -0.11677157, 0.030268466, -0.23798832, -0.12550208, 0.11818324, -0.024564942, 0.15517746, -0.080740996, -0.07425109, -0.2035176, -0.079901375, 0.10238112, 0.07504624, 0.078884475, 0.007611651, -0.03436277, 0.091221645, 0.044551827, 0.077589735, 0.08974506, -0.07397915, -0.026648525, -0.065661624, -0.06548843, 0.01977483, 0.135436, 0.13049756, -0.10785003, -0.023131045, -0.054718856, -0.21404845, -0.000149156, 0.18038954, 0.013798532, -0.10847248, 0.09495024, -0.022064826, -0.08495438, 0.069767326, -0.05688682, 0.12916794, -0.14185297, 0.14324218, 0.10064631, -0.013259154, 0.028095005, -0.19152313, -0.16401795, -0.12351995, -0.0724457, 0.14658171, 0.19174865, -0.07311996, 0.08609757, 0.07723921, 0.07264706, 0.032638755, 0.047257047, 0.048315194, -0.067727596, -0.08910841, -0.14125559, 0.039981533, -0.11562321, -0.019430999, 0.111002564, -0.038264383, -0.07512928, 0.031497397, -0.08833772, 0.02866675, -0.04275642, -0.18388665, 0.050293617, 0.096224934, -0.13774623, 0.13617146, -0.14370312, 0.0044478993, -0.27009398, -0.06633279, -0.07698733, 0.048986286, -0.08815458, -0.048113894, 0.04321476, -0.029232806, 0.095392324, 0.107418075, 0.012532921, -0.13696896, 0.12968633, 0.14286509, 0.015919099, -0.077332534, -0.1476763, -0.15804866, -0.026542779, 0.06162306, 0.12817681, 0.011426583, -0.08329488, -0.04096939, -0.0014452902, 0.0070863026, -0.03511324, 0.012212688, 0.072132975, -0.048229713, 0.09066689, 0.023272086, 0.03516284, -0.1786483, -0.12405272, 0.043697566, 0.08331375, -0.12112504, 0.09670674, -0.06321915, -0.13292316, -0.07252327, 0.16042244, -0.09871827, 0.10158273, 0.04729667, -0.021010006, -0.007909044, 0.042362973, 0.18455362, 0.07823269, 0.08656036, -0.047777142, -0.06189373, -0.08873315, -0.06690381, -0.025168233, 0.14352372, 0.12716481, -0.044841755, -0.028876333, 0.007181859, -0.033587627, 0.09011486, -0.10471413, 0.12642127, -0.23662466, -0.014089621, 0.15014505, -0.028032849, -0.20790042, 0.11342038, 0.06333114, -0.027798986, 0.12107455, -0.041901097, 0.024157884, 0.022566387, -0.09425538, -0.06833597, 0.09581661, -0.0846196, -0.09735476, 0.10161802, -0.13045469, -0.13278076, 0.16697237, 0.15194748, 0.08558427, -0.011587533, 0.10558895, -0.0957696, -0.15759659, 0.029085405, -0.14211732, 0.10767082, 0.11482866, -0.08073025, -0.042299975, 0.07549793, 0.06637408, -0.07766689, 0.021858081, 0.17613688, -0.18247749, 0.1371006, 0.028521586, 0.020074021, 0.013511067, -0.03578435, -0.023101175, -0.04006579, 0.21433857, 0.1133847, -0.09813558, -0.023829011, -0.10403561, 0.13780871, 0.06953248, 0.2225299, 0.016080854, 0.12004641, -0.023178162, 0.10992223, 0.14512065, 0.032273248, 0.015361197, 0.18410179, 0.1407817, -0.12364375, -0.13955002, -0.03841471, -0.106245525, -0.043765806, -0.07154372, -0.061719954, -0.10616066, 0.22437221, 0.019514028, 0.08904733, 0.050195597, 0.017520487, 0.08688954, -0.032385875, -0.01825353, -0.013822756, -0.016495012, 0.043868892, -0.12733874, 0.03533029, 0.021002524, -0.0075122677, -0.016226945, -0.17965993, 0.016152589, 0.071837164, 0.0054567526, 0.07960679, 0.14254779, -0.07114795, 0.023147047, -0.04087846, 0.0734165, 0.023992116, 0.28181225, -0.008496794, 0.09661236, -0.015992722, 0.1527782, 0.05232338, 0.12916486, 0.0571458, -0.027787458, -0.09991934, 0.106628664, 0.022450317, -0.0873207, 0.078458905, -0.04304572, 0.04976134, -0.07626228, -0.014012153, 0.054308224, -0.14381868, 0.048930734, 0.14175132, -0.016888669, 0.16074577, -0.1109855, -0.07587265, 0.06443611, -0.057314828, -0.005983138, -0.08413194, 0.020516543, 0.016124798, -0.048752636, 0.009082451, 0.086420745, -0.06635936, 0.1278822, 0.11708155, 0.15171386, 0.055344913, -0.05264146, 0.1789995, 0.0142940665, -0.0844541, -0.013586777, 0.07367748, 0.1286448, 0.023949249, -0.018103115, 0.0015884383, 0.020415427, -0.14729194, -0.14379576, -0.1000785, 0.091387056, -0.099011995, 0.13122188, -0.15229043, -0.049103256, 0.16342199, 0.10255045, 0.06917908, 0.008641126, -0.16438589, -0.1503207, 0.11702771, -0.123210095, -0.046099495, 0.019016111, -0.12720239, 0.092446454, -0.06308145, 0.057813708, -0.18595472, 0.12901615, 0.0736007, -0.025360558, -0.06685247, -0.044471577, 0.1363349, 0.1504488, 0.016266221, -0.06972704, -0.051431324, 0.11980303, 0.029968694, -0.053342476, -0.033530362, -0.13098444, 0.017263068, 0.19363144, -0.06613885, 0.19065553, 0.023181591, 0.09487616, 0.019444304, -0.11023316, -0.19642085, 0.102727674, -0.10978037, 0.032068007, 0.0027728577, -0.04542498, -0.09198359, -0.2325474, -0.071604595, -0.20951954, 0.086109705, 0.0022616338, -0.09077012, -0.09317635, -0.0016477524, -0.041755755, 0.21281245, 0.025092712, -0.028335216, 0.02336831, 0.23955119, -0.021376505, -0.179283, -0.04834594, 0.09103314, -0.10232581, 0.11499559, 0.082524665, 0.04199042, 0.059299473, -0.033320878, 0.07527759, -0.034421865, 0.012522436, -0.082909286, 0.07172795, 0.114461325, -0.14055909, 0.15311286, -0.18668339, -0.036493294, -0.07204161, 0.1546146, 0.025149705, 0.07806295, 0.009052404, 0.00059289887, 0.10419227, 0.16352133, -0.08273813, 0.124317855, -0.014453048, -0.092451006, -0.08025215, 0.17697021, -0.07627454, -0.12642834, 0.041664634, -0.002191398, -0.036132485, 0.1167086, -0.105984844, -0.021011347, -0.060891688, -0.03700506, -0.0180608, -0.0798449, 0.0054238974, -0.021158881, 0.035112854, 0.07232309, -0.010493678, 0.047998637, 0.08763452, 0.088263616, 0.012725499, 0.109209485, -0.040828045, -0.07168969, -0.038632635, 0.06507261, -0.030228086, -0.06629162, -0.0075448817, -0.17384614, -0.03988278, -0.09764743, -0.1275566, 0.041126534, 0.12107813, 0.091457546, -0.020563079, -0.13064232, 0.00072228565, 0.12251445, -0.06536874, 0.043875042, 0.19345851, -0.005790905, -0.0016465706, 0.06322123, 0.23331486, 0.1527131, -0.08776879, 0.05005584, -0.116275996, 0.06327118, -0.063423686, -0.1710436, 0.011327822, -0.11007438, 0.2684136, -0.116276, -0.02065418, -0.077283874, -0.0725541, 0.10915512, -0.034888946, -0.12942529, -0.022775264, 0.07653394, 0.038540978, 0.08063715, 0.017273946, 0.17005071, -0.12138979, 0.10182546, 0.07412881, -0.124068044, 0.007291993, -0.13535585, 0.13924932, -0.07138388, 0.2987367, -0.12006366, 0.24325354, -0.100936115, -0.008777327, -0.038401403, 0.21422392, -0.016062167, -0.2353777, -0.021612778, 0.039393112, -0.046285875, -0.1345545, 0.045875832, 0.02765709, 0.15527216, -0.11233464, -0.058691576, 0.08507754, -0.14869072, 0.103619315, 0.062900975, 0.016397374, -0.07554819, 0.15642554, -0.019734131, 0.051829893, 0.055934846, 0.023161033, 0.09383638, 0.14093228, 0.3326798, -0.107627384, 0.09462066, 0.02415472, -0.119213164, 0.035853226, 0.07893795, -0.07990346, 0.059888624, -0.4067766, -0.10473712, -0.019026909, 0.1816989, -0.0027322653, -0.07153459, -0.012163871, 0.095404044, -0.16182576, 0.055024385, -0.19447997, -0.06967982, 0.06693175, 0.044116642, 0.08057873, -0.03392093, -0.008377714, 0.049464185, 0.09082594, -0.11672366, -0.09724016, -0.1378256, 0.05801254, 0.01888328, -0.25123924, -0.20541064, 0.05585532, -0.04516686, 0.0064576995, 0.05093353, 0.20479593, -0.080245614, 0.06297077, -0.008916572, -0.06404277, 0.05661274, -0.18397672, -0.17994526, 0.12772088, 0.12285832, -0.011193585, 0.11222609, 0.03883925, -0.040839646, 0.10839307, 0.031017305, -0.10902904, -0.009260957, 0.005984781, -0.064560086, -0.008721353, -0.034095995, 0.06597727, 0.015035567, -0.13542174, 0.1126098, -0.09733257, 0.0003000589, 0.074151844, 0.123489015, 0.15585189, -0.14255321, 0.124951564, 0.014651717, 0.017113194, 0.011969098, -0.06985673, -0.028985994, 0.06577596, 0.08256497, 0.0010744747, -0.0424684, 0.021241289, -0.018592296, 0.16918005, 0.26834753, -0.031347148, -0.016933873, 0.05675854, -0.041713335, -0.05335419, -0.12061376, -0.066149384, 0.10274878, 0.049702164, -0.13637963, -0.06783673, 0.04076802, -0.043671686, 0.020086586, -0.14672577, -0.0048425137, -0.096977144, 0.08728867, -0.089764886, 0.017503912, -0.02710438, -0.07443806, -0.006943519, 0.10034196, 0.15372364, 0.20969824, 0.15300351, -0.12845649, 0.074490756, -0.020773496, -0.024980493, 0.02246204, -0.07266148, -0.11606267, 0.05025573, 0.05289336, 0.1397314, 0.05375492, 0.0023156037, 0.22677809, -0.19856259, -0.024788985, -0.03473774, -0.16032907, 0.053206395, 0.03456009, -0.05248981, -0.08199159, 0.028639156, 0.06843814, 0.12179923, -0.1078807, 0.13631064, -0.0050204173, 0.010926764, -0.032175004, -0.057235453, -0.06423106, -0.23445652, -0.030660713, -0.031286303, -0.04420684, 0.1532784, -0.062042534, 0.021894332, -0.20000035, -0.009048959, -0.1454598, 0.015457261, -0.10388557, -0.020158775, -0.18647657, 0.10637072, -0.060611367, 0.07086673, 0.16714759, -0.13495332, -0.09500469, -0.187392, -0.02567998, 0.009851066, -0.17306444, 0.09390442, 0.114210784, -0.011205876, -0.064210705, -0.043982994, -0.020915685, -0.009326622, -0.2203576, 0.01814167, -0.05076165, -0.07673765, -0.045070607, 0.11905111, 0.052755907, 0.10256821, 0.044278562, 0.0031825986, -0.019903602, -0.065289944, -0.0022548414, -0.007433247, -0.041287728, 0.1695674, 0.04746903, 0.023602365, 0.030594315, 0.13052373, 0.042333346, 0.12121036, -0.03517215, 0.07068857, -0.06819485, 0.07846859, -0.10473059, -0.11394986, 0.012168128, -0.170924, -0.2235051, -0.03378266, -0.11252506, -0.03854752, -0.0009633128, 0.187046, -0.11686136, -0.009444922, 0.031829778, 0.012402303, 0.01942808, -0.09333042, 0.18413632, -0.08031058, -0.013665744, 0.13252942, -0.26318765, -0.03102824, 0.05547383, -0.06816398, 0.09548001, -0.16846173, 0.011978342, -0.006432369, 0.21147062, 0.007979625, 0.038546007, 0.17906228, -0.13209264, -0.033023532, 0.0722109, 0.06760521, 0.059805345, -0.049058996, 0.042878527, -0.12367514, 0.08747765, 0.0999936, -0.101599395, -0.15331504, -0.039933357, 0.07436341, -0.037392717, 0.06461889, 0.053972002, -0.07322192, 0.029917922, 0.019325726, -0.20799187, -0.23748325, 0.08999387, 0.072292924, -0.13225035, 0.09967558, -0.0075171106, -0.17674868, 0.048209164, -0.043797992, 0.042388294, 0.12497917, 0.066589095, 0.02948762, 0.0144232875, -0.2785918, -0.050464183, 0.07674238, -0.015474862, -0.03577508, 0.13350335, -0.057983346, 0.075835735, 0.0046828203, -0.01137829, 0.060759816, 0.04446716, 0.10720493, 0.05496838, 0.24858561, 0.061214413, -0.064874746, 0.0135987755, -0.05083258, 0.041782904, -0.22035918, -0.24671464, 0.098045185, 0.084352285, 0.08351569, 0.114470825, 0.124144584, -0.111302204, 0.008239649, -0.0013975642, 0.06280261, -0.044612277, 0.11024972, 0.1080597, -0.011104773, 0.0006291045, -0.15300223, -0.04705609, -0.047900256, 0.015976692, -0.11923199, 0.0648056, -0.05431621, -0.0033118152, -0.0029362936, -0.12447443, -0.09641259, -0.04786873, 0.028450126, -0.123773836, 0.13697413, -0.1117226, 0.08483068, 0.1829706, 0.1553677, 0.10306523, 0.0008602809, 0.036292672, -0.10603662, 0.019637173, -0.016891671, 0.021253781, -0.118643604, 0.046070904, 0.088126555, 0.037715588, -0.055278834, 0.0099302195, -0.022458956, -0.063474655, 0.0385953, 0.002360705, -0.05522708, -0.049713578, 0.032379843, -0.019203769, -0.15040787, 0.04593943, 0.06628704, 0.16028978, -0.08836978, 0.1349544, 0.101453744, 0.17848182, 0.118924834, 0.029141666, 0.034315135, -0.0032962183, -0.079370916, 0.13507175, -0.07171526, -0.10235815, 0.0027983228, 0.12282208, -0.0321545, -0.13628241, 0.029517047, -0.046600617, -0.011296014, -0.019733563, -0.19590817, -0.025203204, -0.28459835, -0.032311678, 0.11894714, -0.14347357, -0.15431385, -0.14479227, 0.079585195, 0.0559418, -0.2111643, 0.09728989, -0.105484664, 0.10230735, 0.2603727, 0.03498611, -0.04902782, -0.05540861, 0.042170703, 0.048464596, 0.08970523, -0.059010834, -0.049988177, -0.066794075, 0.08071393, 0.0049731773, 0.10017521, 0.09295541, -0.0036795754, -0.014242405, -0.25552705, 0.07193238, -0.20601343, 0.116795935, -0.046511356, 0.024076654, -0.005436911, 0.008001351, -0.058445252, -0.14525494, -0.11190857, 0.09398448, 0.08414004, -0.11941414, -0.066356, -0.08049976, 0.16441903, -0.07186982, -0.02594316, 0.16583031, -0.13947539, -0.1281657, -0.010697991, -0.08939566, 0.028829515, -0.024262058, -0.082378305, 0.03460721, 0.086287804, 0.031447113, -0.04136087, 0.021783577, 0.039348707, -0.2104891, -0.0723482, 0.032713383, -0.051511854, 0.027743528, -0.043019544, 0.023397002, 0.18385538, 0.020357743, -0.05198016, -0.18169285, 0.016751112, 0.12371369, -0.15676038, -0.0066094743, 0.14687538, -0.052701477, 0.076935135, -0.021479143, 0.22055282, 0.014309287, 0.23179094, 0.08913515, 0.16172034, -0.19285047, 0.08116689, -0.04278308, -0.021937093, -0.054179534, -0.17845815, -0.09788991, -0.13845232, -0.04053799, -0.19858639, 0.065005206, 0.11368922, 0.016147144, -0.14878848, -0.0016599053, -0.08297348, -0.043989018, 0.07697909, 0.092185184, -0.13971804, -0.16901161, -0.091353685, -0.31390676, -0.025766443, 0.048811354, 0.07967971, 0.016042653, 0.020726841, 0.07734407, -0.0057038497, 0.026233831, -0.11465821, -0.0074942866, 0.09294831, -0.096499965, -0.16634265, -0.028114762, 0.120790035, -0.028538734, -0.04098776, 0.13681926, 0.03119273, 0.17299882, -0.11001387, -0.07193631, 0.09225509, -0.02321246, 0.071624555, -0.00057656574, -0.09517099, 0.038427703, -0.020461883, 0.024104206, 0.20778477, -0.13977668, -0.0870782, 0.18488562, 0.14368616, 0.059189305, 0.06110068, -0.039103035, -0.18809085, 0.09009461, -0.05575159, 0.1593426, -0.019118477, -0.0565078, -0.11537997, -0.07669219, -0.26994953, 0.09215152, 0.04022672, 0.08230357, -0.11993896, 0.031695902, -0.23865138, 0.04407537, 0.05266165, 0.007824342, 0.09112188, 0.117758214, -0.013497516, 0.08366269, 0.15903714, 0.13821134, 0.12881093, 0.0079982765, -0.048944455, -0.08464546, -0.13189924, -0.0011727437, 0.07145845, -0.05152212, -0.04078776, -0.00095673976, -0.005967597, -0.19712465, 0.016934773, 0.13435428, 0.1184209, -0.1180575, 0.10984764, 0.16183552, -0.087746695, 0.04023256, -0.019291893, 0.045779366, -0.042851232, 0.06978982, 0.073336676, -0.023884734, 0.0695872, -0.047237102, -0.03897192, -0.052114926, -0.0126635255, 0.03381082, 0.028275084, 0.0009176419, 0.07843699, 0.065867715, 0.06776489, 0.13719273, 0.17938599, 0.14898911, 0.010164431, -0.009476163, -0.08261594, -0.014391122, -0.017365556, 0.11741738, 0.108607404, 0.028485032, -0.010185689, -0.025610533, -0.1290005, 0.08591153, -0.036481272, -0.23616768, 0.03826669, 0.1236041, -0.04542635, 0.065638684, -0.004341162, -0.0954065, -0.16312802, -0.12091409, 0.05790071, 0.14438193, -0.15741634, 0.03399526, 0.25464472, 0.027346086, 0.053156037, 0.09633675, 0.04701613, -0.11137485, -0.11606732, 0.11686145, -0.047321606, 0.058318596, -0.19608487, 0.017207054, 0.032414827, 0.06305856, 0.101538375, 0.12678659, 0.036056247, -0.0070500122, -0.0165377, 0.09018532, -0.05799655, 0.013136464, 0.114825286, -0.10914609, -0.17689003, -0.0026051218, 0.06529602, -0.06591142, -0.16803874, 0.02675174, 0.0299622, -0.012360187, 0.101203896, 0.0077256854, -0.0823134, -0.16607071, 0.06920085, -0.0988823, -0.062106684, 0.011294108, -0.018080426, -0.028380696, 0.2139001, 0.10152858, 0.21356596, 0.13780932, -0.092272095, -0.09483632, -0.20892976, 0.0049179383, -0.1737068, 0.040628094, 0.009219112, -0.11031371, -0.14345177, -0.005913861, -0.06235759, -0.002510948, -0.1316606, 0.060777638, -0.17928609, -0.031646222, 0.019717753, 0.17240234, 0.1543103, -0.010181888, 0.054584146, -0.11783449, 0.06676573, 0.13070844, 0.051076118, -0.18113649, 0.180149, 0.040517822, 0.0507459, -0.1415294, 0.12052374, 0.028550694, 0.022422248, 0.17383043, -0.08598363, 0.025339458, -0.05491028, 0.24318269, -0.09645417, 0.1427639, -0.055064376, -0.088367246, -0.00053354114, -0.11115118, -0.067613825, -0.012433424, -0.15318564, 0.070684254, -0.23542339, 0.0766845, -0.11022789, 0.06750708, -0.039973274, -0.21940422, -0.008858763, -0.074190296, 0.027989758, 0.0063805026, 0.133648, 0.053130727, 0.17664091, 0.12972146, 0.055644568, 0.05348017, -0.11376115, 0.08125163, -0.083816685, -0.009063163, -0.024468618, -0.0068066893, -0.08242285, -0.050999936, 0.05452596, 0.00983848, 0.029574942, 0.032255646, 0.008074906, -0.16860427, 0.1716724, -0.17056566, -0.0073187114, -0.037148055, -0.110175274, 0.1806837, -0.19997588, 0.04732857, -0.06499395, 0.10343782, 0.043680105, -0.020024689, -0.12841883, -0.06987016, -0.11429508, 0.06955789, -0.18462, 0.017396944, 0.02123622, -0.07051742, 0.050588004, 0.007396621, 0.034170747, 0.035678282, -0.04965246, 0.08736238, 0.09564866, -0.013790075, 0.021177752, 0.08840324, -0.044467, -0.09444761, 0.057165872, 0.0018825172, 0.11143032, 0.14289527, 0.12644145, 0.15017387, -0.11245644, -0.0020493476, 0.15596394, -0.0011170793, -0.17374212, 0.08083123, 0.0028515551, -0.034999575, -0.065373585, 0.21791272, 0.13125387, 0.066671416, -0.18774316, -0.062115207, -0.15038145, 0.06634739, 0.020903915, -0.02392329, -0.06261739, -0.04378335, 0.098596334, -0.24466178, -0.05541425, 0.024157787, -0.024152467, 0.12121595, 0.06646937, 0.049823575, 0.18104382, -0.08611785, 0.048499983, 0.101055264, 0.0979215, 0.06386774, 0.10737091, 0.022227617, 0.09222239, 0.13894147, -0.13371456, -0.22478004, -0.032583095, 0.17821918, 0.098137595, -0.1444313, 0.09670005, -0.018417096, 0.043457553, -0.0103978915, -0.14255995, 0.23700507, 0.10669472, 0.0056709154, -0.04592594, -0.0016040324, 0.031036474, -0.039927084, -0.037079502, -0.001192829, 0.24668954, 0.046719585, 0.09577321, 0.0060037244, -0.09682346, 0.05043735, 0.08852511, -0.07585322, -0.048052385, 0.12733166, 0.04284074, 0.0009633622, -0.012549989, 0.045874435, -0.10755134, 0.061587714, 0.042989545, -0.12403461, 0.06126443, -0.16585095, -0.15147626, -0.031899557, 0.11748707, 0.041857462, -0.07153481, 0.12657797, -0.18916668, -0.11714962, 0.029033476, 0.03469405, 0.014111388, -0.08116527, 0.018648792, -0.068181746, 0.0863255, -0.11444139, 0.109227926, -0.07650016, 0.022300852, 0.006556657, -0.021195302, -0.027748529, 0.14453706, 0.077703856, -0.07545156, -0.30312675, 0.11787223, -0.03577565, -0.09731111, 0.08104747, 0.12559532, 0.108613856, -0.042744536, -0.07755224, -0.2159317, 0.09220065, 0.013155658, 0.11014994, 0.17325203, -0.048317328, -0.02661103, 0.17818786, -0.060228247, -0.07114492, -0.080960795, -0.02295483, 0.12296658, -0.15319552, 0.22295687, -0.036058117, -0.08983269, 0.03930411, 0.07248495, -0.17504033, 0.005032962, -0.19654691, -0.039033215, -0.020839974, -0.07069618, 0.111137494, 0.014022315, -0.13881622, -0.0023873155, 0.14554054, -0.017443854, 0.031509116, 0.041674707, 0.023992727, -0.018340291, 0.02927151, -0.12135297, -0.002976793, -0.09901089, 0.20997936, -0.09433617, 0.10988805, -0.07043547, 0.096550636, 0.083062395, 0.009018639, -0.105574116, -0.022170145, 0.14277259, 0.08519749, -0.06551455, -0.15027621, 0.06743184, 0.03514968, -0.043572903, -0.10758637, 0.037684318, -0.06585313, -0.12227279, 0.14836505, -0.17013028, -0.15574531, 0.10143834, 0.068549536, 0.0854026, 0.018197779, 0.054995682, -0.11667943, -0.03913759, -0.10721674, 0.07090597, 0.0925464, 0.122089215, -0.110266656, 0.038479302, 0.08339044, 0.09068319, -0.088220246, 0.17902094, 0.03140964, -0.020095939, 0.17758591, 0.08602595, -0.052857187, 0.06556197, -0.008126792, 0.036330987, 0.0038946848, 0.08785543, 0.042734955, -0.12020505, -0.061498642, -0.03204593, -0.09486633, 0.0079429755, 0.13450164, -0.022157867, 0.1300565, -0.041689157, 0.027969481, 0.068996795, 0.097991645, -0.0057667666, 0.049914554, -0.026664607, -0.062099464, 0.004327459, 0.009565896, -0.18886916, -0.0854917, 0.16167785, -0.09957538, -0.044920675, 0.2248815, 0.1919897, 0.02185178, -0.06933605, 0.07484699, 0.045911096, -0.10907063, 0.054211237, -0.09802808, -0.012158574, 0.03131435, -0.13312781, 0.05443767, 0.11760962, -0.091326654, -0.049275618, -0.048268355, 0.11458166, 0.07019945, -0.12685438, 0.14981161, 0.11813472, -0.012894202, -0.049021002, -0.009264839, 0.027875418, 0.06518454, 0.14248033, -0.11292199, -0.021188367, 0.0922856, 0.06023534, 0.049190618, -0.059932955, 0.020109363, 0.11317434, -0.12422812, 0.035369717, 0.20822142, -0.074710034, -0.044252135, -0.20303324, 0.02876887, -0.022278143, 0.09274071, 0.111848004, -0.052069582, 0.05187141, 0.03783988, -0.03081142, 0.15355304, -0.1520357, 0.12495758, -0.022348907, -0.12323773, 0.08560273, 0.05580908, -0.08600947, 0.07684466, -0.017864784, 0.09197199, -0.07650066, 0.005468159, 0.020005085, 0.10681415, 0.06494347, -0.020311393, -0.13959888, 0.05499733, 0.21934058, -0.0046335408, 0.124867536, 0.065373875, 0.1551381, 0.045019917, -0.07286492, 0.07495789, 0.11579994, -0.25154826, -0.10371557, 0.07343545, 0.055914897, -0.09152897, 0.06916188, -0.041438617, -0.05202407, 0.07986983, 0.10324836, 0.011011757, 0.14770588, -0.15260556, -0.17560388, 0.070378706, 0.026860692, -0.037496697, -0.016007693, -0.12717141, 0.053591914, -0.036193095, -0.10518397, -0.18358675, 0.08614245, -0.0012044027, 0.15923508, -0.095250376, 0.058652304, 0.15495488, 0.1377342, 0.10893934, -0.135647, -0.08160458, 0.0068003125, -0.029052775, 0.094401464, -0.0015631624, -0.18013093, 0.13939382, 0.0825546, -0.094882615, 0.073591776, 0.009793705, 0.009781964, 0.029518517, -0.101049356, -0.118882805, 0.125026, -0.0047619105, 0.18342511, 0.037622657, -0.086421214, -0.0616594, -0.20402667, -0.07036655, -0.11393631, 0.24816695, 0.0011431943, -0.027270338, -0.041479036, -0.10789204, 0.015230872, 0.13403001, 0.13113315, -0.08427595, -0.099868834, 0.06483372, -0.03529515, -0.03204463, -0.08480224, 0.03889402, -0.04482797, 0.16880594, 0.13694295, 0.103209175, -0.09280064, -0.115408875, 0.028508646, 0.102019526, 0.0020285696, -0.101815216, -0.032418553, 0.07979822, 0.050392915, 0.11542042, -0.13431954, 0.0840828, -0.05466784, 0.12507293, 0.06989788, 0.012059848, -0.04086472, -0.025959065, 0.060511198, -0.11642316, 0.061767314, 0.110661075, -0.0783076, -0.06997364, 0.0033781542, 0.1422495, -0.11567156, -0.01490747, 0.19044167, 0.00497102, -0.015600893, 0.05212246, 0.06490063, -0.07152809, -0.023425458, -0.10402554, 0.054857362, 0.012930121, -0.004472691, 0.08341858, -0.081197955, -0.15730672, -0.047125347, -0.029523788, 0.03232955, -0.1351449, 0.007801024, -0.005142636, 0.013879196, 0.17386383, -0.061305422, -0.03349294, 0.14977847, -0.120433435, -0.019369297, 0.16101868, 0.029197512, -0.017758036, 0.07884121, -0.0070167687, 0.01912636, -0.0023140535, 0.07794967, -0.09079071, -0.00863351, 0.10646418, -0.005954635, -0.10554888, 0.025866132, -0.02626603, -0.02172505, 0.043675393, 0.061595604, -0.12966895, 0.14745213, -0.09227953, 0.13568346, -0.06341541, 0.1649405, -0.028052218, -0.07575228, -0.034758784, -0.35210732, -0.034365367, -0.032353617, 0.021734895, -0.07183073, 0.07269738, 0.077579185, 0.038395792, 0.009002819, -0.025825145, -0.101684295, -0.045921937, 0.032496113, -0.020564264, -0.02393252, -0.254892, -0.09864684, -0.1271532, -0.082433596, 0.028341068, -0.052243095, 0.115827106, -0.12742649, 0.12457797, -0.15427597, 0.2695385, 0.021799844, 0.088056475, 0.08355502, -0.13462888, 0.034110658, 0.097364426, 0.04273349, 0.011631647, 0.15499616, -0.028864019, -0.1383984, 0.031355932, 0.058583625, 0.070811436, -0.08963409, -0.024683723, 0.09900876, -0.045255736, -0.06986316, 0.09968655, -0.0117287785, 0.10383937, 0.11256195, -0.14877415, -0.17699854, 0.057398148, 0.06499286, -0.12922738, 0.1176071, 0.0040277457, -0.1565096, 0.024344409, 0.04074349, 0.13886374, -0.036767803, 0.004113559, 0.0629877, 0.00094668055, -0.25741535, -0.06995466, 0.09329371, 0.07817876, -0.05990286, 0.042422462, -0.10018476, 0.025389334, 0.03912378, 0.12148922, 0.047024515, 0.036443993, 0.017313367, 0.11316741, 0.100885965, 0.15398768, 0.0078092325, 0.064249285, -0.016869957, 0.10726986, -0.036199387, -0.09431023, 0.20290424, 0.1907277, -0.0011606846, 0.031759348, 0.1896913, -0.15852712, -0.04290628, 0.114064336, 0.1753111, -0.09273331, 0.13305925, 0.08018372, 0.036035035, -0.08681305, -0.14788751, 0.03615987, -0.01601497, 0.07967351, 0.08104021, 0.038805448, -0.030722905, -0.03374052, 0.043888643, -0.10825002, 0.0598865, -0.022661159, 0.023097415, -0.012187586, 0.095934674, 0.00023277084, 0.20659359, 0.047654998, 0.18244366, 0.09323572, -0.05327924, -0.14381681, -0.085227616, 0.06590649, -0.0749825, 0.0066158264, 0.03808372, 0.11583996, 0.07283258, 0.14746329, -0.112106815, -0.049535695, 0.08151154, -0.08468243, -0.07006398, 0.07091043, -0.17744088, -0.020835008, 0.1162016, -0.14103788, -0.0009735377, -0.043983806, 0.10380233, 0.16855823, -0.16262151, -0.07934338, 0.298367, 0.14025475, 0.16485396, 0.15045321, -0.03953187, -0.08039881, -0.11547397, 0.05509445, -0.051019162, 0.05093653, -0.07689278, -0.06806255, 0.04438064, 0.05736076, 0.067302965, 0.14227118, -0.04052321, -0.07851034, -0.16105783, 0.15241882, -0.10041441, -0.047347113, 0.021264445, -0.16954516, -0.16766663, 0.12763461, 0.0539188, 0.06382462, -0.17917518, -0.02470103, -0.051567286, -0.06436824, 0.23321055, -0.003469766, -0.028466336, 0.0019206109, 0.052239366, 0.05079727, -0.07470537, 0.061213475, -0.124004215, -0.030626154, 0.07361077, 0.15023668, 0.088002734, 0.05736599, -0.032360457, -0.059615057, -0.21325755, -0.017128414, -0.022795068, 0.0717115, 0.012145143, 0.0008604997, -0.17623344, 0.06895715, 0.023407852, 0.1214871, -0.15396215, 0.15462372, -0.032194823, -0.099746495, 0.061326757, 0.10575366, 0.16077338, 0.05730638, -0.024845988, 0.073641255, -0.1415439, -0.0009814323, -0.095656596, -0.08033176, 0.11409159, -0.008669825, -0.13604066, -0.0826207, 0.07037244, 0.06797269, -0.054909926, 0.15128314, 0.09436188, -0.11712075, -0.030267388, 0.0703164, 0.14826386, 0.09853771, -0.09202546, 0.14721197, 0.030001046, -0.023028124, -0.14436202, -0.106136, 0.050866246, -0.015969457, -0.21346512, 0.0025766909, -0.08217595, 0.05503058, -0.039679497, -0.12774445, -0.006591128, -0.08534712, 0.12017642, 0.11934467, 0.067869276, -0.10150807, 0.14828575, 0.03831364, 0.10376433, -0.004674694, -0.16890912, 0.02959055, -0.034150552, -0.08609106, -0.047189537, 0.008383956, -0.072363466, 0.066954024, -0.019244911, -0.12973233, -0.027564533, -0.034574177, 0.15791108, 0.018598503, -0.055707693, -0.21381634, 0.054132834, -0.18237607, -0.10425131, 0.12488095, 0.0073083686, -0.07379981, -0.2558543, 0.1972041, -0.057583295, -0.008437515, -0.04042836, -0.030867418, -0.15554133, -0.026002936, -0.19038112, -0.11815562, -0.014247382, -0.10442576, -0.011841948, 0.086273596, 0.017740212, 0.19100712, -0.06660043, -0.054244332, 0.10274875, 0.028587466, -0.06651623, 0.1176279, -0.14233871, -0.060720883, -0.08750194, -0.11429969, 0.12538898, 0.14549223, -0.048920218, 0.1282853, -0.15811738, -0.06414675, 0.19923425, 0.052522242, -0.16791311, 0.17483075, 0.10867837, -0.08744618, -0.07157541, 0.046069145, 0.04449514, 0.0065956255, -0.021671621, 0.055326916, -0.1245988, 0.11921144, -0.09945656, -0.08582818, -0.1144765, -0.03997289, 0.21429633, 0.029614482, 0.02545472, 0.022171073, 0.017571226, -0.07002481, 0.07873658, 0.032894738, 0.0469, -0.09840814, 0.07269974, -0.016432585, -0.10492824, -0.10282457, 0.175484, 0.07224978, -0.020530041, 0.12055645, -0.050171845, -0.22416659, -0.00497689, 0.16200393, 0.13555919, -0.1547615, 0.11088423, -0.019279348, -0.03200198, 0.096175626, -0.052015446, 0.11014858, 0.05543499, 0.032548588, -0.019626819, -0.08292849, 0.078713596, -0.0037383237, -0.11084524, 0.016748464, -0.11248108, 0.047330484, 0.07461402, 0.039431382, -0.022964602, 0.07225688, 0.12914956, -0.053907257, 0.163691, 0.08379203, 0.030136941, -0.061416145, -0.022465928, 0.028021092, -0.19884428, 0.07394285, 0.10029319, -0.17813064, -0.06553283, -0.15292983, -0.060936894, 0.084049106, 0.07119064, -0.16307932, 0.020361442, 0.19587927, -0.09982721, -0.057539508, -0.17920557, 0.062204927, -0.19444634, -0.015956124, 0.059075527, -0.042088807, -0.08650498, -0.07897392, 0.024607498, 0.039487716, -0.017274665, -0.023418562, 0.0004274954, -0.11716473, 0.032908175, 0.08011858, -0.0008076151, -0.2497985, 0.05471437, -0.19554059, -0.09389686, 0.050331466, 0.13000181, 0.15918145, -0.098837145, 0.034102462, 2.5570043e-06, 0.09928914, -0.024076864, -0.04644492, 0.074130446, 0.017948857, -0.021287033, -0.0131705105, -0.020946618, -0.08029512, -0.039866585, -0.029455245, 0.088099375, -0.3285562, 0.18692628, -0.03598078, -0.09044255, -0.03616344, 0.047023125, -0.024107125, -0.014282333, -0.04170735, -0.055537477, -0.05150078, -0.0525466, 0.15072654, 0.09825887, 0.11008561, -0.04446448, 0.119869746, -0.16844125, -0.03794694, 0.06338797, 0.0058971564, 0.022730982, -0.1099281, -0.08914566, 0.038705975, -0.03072975, 0.07716704, -0.07101127, 0.05583016, -0.2624729, 0.06826776, 0.1454275, -0.16759904, 0.01633182, 0.013391239, -0.019027675, 0.21621646, -0.16968074, -0.039319187, -0.08361954, 0.113612436, 0.0046612755, -0.079834506, 0.019723972, 0.25928694, -0.044782244, -0.15827034, -0.08482506, 0.039170444, 0.05523239, -0.12412537, -0.04374213, -0.1662242, -0.08849087, -0.01706947, 0.041190356, 0.07889629, 0.15892108, 0.047940645, 0.0069445614, -0.04259293, -0.026788032, 0.029198876, 0.05241342, -0.11554436, 0.08069485, -0.12303916, 0.09015789, 0.038979433, 0.09979452, 0.16249155, 0.056909773, 0.043478932, -0.034520283, -0.113622054, -0.06031821, -0.17407587, -0.15218292, 0.009714923, -0.0073865326, -0.23358235, 0.052231554, -0.08744854, -0.026917173, 0.09752127, 0.25539812, -0.06427043, -0.018409953, -0.10316934, 0.07603139, -0.028902952, -0.22209941, 0.11710575, -0.0716711, 0.0053937924, 0.1817033, -0.23337063, 0.046859205, 0.074341916, -0.0019425215, 0.05850407, -0.05397578, -0.044141494, 0.0183133, 0.14054902, 0.016681869, -0.018245593, 0.15456332, -0.17482181, 0.12316089, 0.008592282, 0.091671415, 0.13396358, -0.151693, -0.032816354, -0.14190142, -0.042349596, 0.107074566, -0.15708907, -0.18410355, -0.048924964, 0.025381882, -0.14341474, 0.0495718, 0.15801108, 0.018854076, 0.1718099, -0.068752445, -0.25787613, -0.21134397, -0.022481855, -0.04722851, -0.008571431, 0.0051828944, -0.07887563, -0.061433114, 0.07393244, -0.07798608, 0.045921, 0.17509381, -0.016346784, -0.009969764, -0.055050537, -0.039065987, -0.06802081, 0.089830585, 0.071402386, -0.03987486, 0.04406399, 0.01922473, 0.030833988, 0.039049115, -0.06634834, -0.0097548, -0.05640663, 0.09717087, 0.037782058, 0.18456864, 0.06267861, -0.063043736, 0.14475712, 0.044978034, -0.027382053, -0.19883421, -0.18905705, -0.081233926, 0.06416883, 0.02960604, -0.048818823, 0.15109348, 0.0264356, -0.014508343, -0.15565155, -0.064577915, 0.09854907, -0.10113101, 0.08981136, -0.063150056, -0.08862418, -0.029626526, -0.041443862, -0.004533393, 0.059874248, 0.032424342, 0.04758131, -0.06846142, -0.02916731, 0.037822567, -0.0908055, -0.14435187, -0.055793878, -0.041966192, -0.17442168, 0.14283015, -0.10061053, -0.102746144, 0.19664483, 0.08275142, -0.06936802, -0.09107945, 0.06787353, -0.1523899, 0.033334207, 0.08053904, 0.018408183, -0.11607046, 0.17894773, 0.012602684, 0.15348999, -0.085289076, 0.011251221, -0.17290953, -0.13757701, 0.11920457, -0.034258068, 0.1176715, 0.066240214, -0.025701351, -0.0053331433, -0.07204795, -0.03230053, 0.09033765, 0.111500025, -0.06228028, 0.09078686, 0.06138186, 0.22021502, 0.06694648, -0.0050687585, -0.050390247, 0.046862755, -0.06147624, 0.10517479, -0.023824086, -0.021668475, -0.0100142835, 0.21844226, 0.054534916, -0.07452673, -0.11229498, -0.11999121, -0.012315424, -0.002420877, -0.0049284333, -0.14725146, -0.23958153, -0.07225921, -0.04682704, -0.0059103817, -0.1285987, -0.23485877, 0.13249339, 0.0927336, -0.10193732, 0.07704176, -0.16070674, 0.14275676, 0.05429605, 0.05323613, -0.021849433, -0.090491295, 0.06548878, 0.101198845, 0.03434345, 0.027156495, 0.07020223, -0.08979022, 0.052520934, -0.030756038, -0.006672366, 0.13874598, -0.14607076, -0.039927717, -0.06805078, 0.009535145, -0.13537177, 0.15382868, -0.033845194, -0.04947617, -0.061578177, -0.076994196, 0.04553319, -0.21413654, 0.019001437, 0.1269685, 0.1502155, -0.062295448, -0.0952278, 0.17772073, -0.07907153, 0.10639708, -0.05899511, -0.07066327, 0.018730167, 0.103655346, 0.10835987, -0.035080418, -0.038084853, 0.08129743, -0.055451617, -0.14035428, 0.06932564, 0.028524991, -0.06804291, -0.081044376, -0.06531119, 0.13991359, -0.030103937, 0.17436306, 0.04303723, 0.059293516, -0.11215872, 0.014497718, -0.17795894, -0.17109564, 0.0054293536, -0.009354504, 0.019907763, -0.11027886, 0.018029599, -0.05985403, -0.25337148, 0.015445332, -0.012906581, -0.12795402, -0.23423697, -0.0702167, -0.09418157, -0.035109233, 0.06927718, 0.0791573, 0.08689635, 0.17562163, -0.05614816, 0.024999242, -0.011236712, 0.1600496, 0.09433403, 0.12215446, 0.055908483, -0.06596976, -0.12038238, 0.104575835, 0.015042702, 0.01897083, -0.03719298, 0.005732415, -0.08405605, -0.17569357, 0.2139084, -0.10607015, -0.07347419, 0.10801559, 0.051663827, 0.018140081, -0.25417817, 0.13648087, -0.032930423, 0.00995928, -0.12960638, 0.07100205, 0.010936619, -0.008798297, -0.25663954, 0.045235246, 0.17144635, -0.013102675, 0.0003618939, 0.022159506, 0.09199387, -0.07980769, 0.09316221, -0.24406773, 0.043103512, 0.020253642, -0.0053453785, 0.039272387, -0.028001783, 0.015121067, 0.10960508, -0.13701911, 0.018991243, 0.10364326, 0.03966885, 0.0072376844, 0.121423155, -0.012464635, -0.09885161, -0.07861294, 0.07373564, -0.057183437, 0.034430854, 0.08248748, 0.094426244, -0.03230266, 0.038057145, 0.026824942, 0.27261186, -0.0023102302, 0.027911393, -0.117650986, -0.07365655, 0.06488733, 0.029890047, 0.02129975, 0.142613, -0.059483774, 0.029646937, -0.16960897, -0.03234766, -0.04379644, -0.10156074, -0.07975182, -0.11540953, -0.086640686, -0.021512186, 0.050478894, 0.090938516, -0.012171888, 0.1430585, 0.048797056, 0.15240018, 0.14905219, 7.955218e-05, 0.10162391, -0.13150428, -0.097797945, -0.13000675, 0.055222936, -0.122126915, 0.03279957, 0.04658457, -0.16625391, 0.08946501, 0.14100872, -0.13611259, -0.15657727, -0.018272372, -0.123068586, 0.081359416, -0.08689267, 0.017730884, -0.021956371, 0.12773259, 0.077623144, 0.091516815, 0.02465238, 0.018029451, 0.09508498, -0.06553418, 0.019144945, 0.024588471, -0.18503015, -0.1230452, 0.027555587, 0.018548438, -0.041951273, -0.09163379, 0.037035804, -0.17362967, -0.027723888, 0.032265175, 0.02425631, -0.015000543, -0.05662228, -0.02694239, -0.08606126, 0.15697317, 0.1521423, -0.07500076, -0.026961213, -0.18533282, -0.21287858, 0.15989035, -0.043142438, 0.0674273, -0.001236938, 0.017441481, -0.013134807, 0.029771734, -0.12938976, -0.14125825, -0.038102657, -0.0991327, 0.0553479, 0.010996729, -0.1834836, 0.16168892, -0.037810247, -0.0013304054, -0.13628662, 0.15899888, -0.04814074, -0.10376236, 0.09497998, 0.07267509, -0.060096655, -0.14093131, -0.20809327, -0.073720686, 0.08131515, 0.008691003, -0.037131704, -0.035654284, 0.081607446, 0.14267851, 0.09140066, -0.07004465, 0.07877671, 0.08210282, -0.0748366, 0.13385186, -0.07675832, 0.06301378, -0.012455498, 0.05199846, 0.17992939, -0.03481185, -0.047007967, 0.05773406, -0.02822259, -0.09542839, -0.0012491379, -0.12221601, 0.0070752623, -0.105876744, -0.09134483, 0.013520258, 0.09926279, 0.14998394, 0.06868206, 0.21315804, 0.0057382607, -0.009503282, 0.12702183, -0.09120811, -0.02159581, 0.006745672, 0.1813067, -0.04628504, 0.1123676, -0.08059701, 0.1253918, -0.0054630307, -0.078509845, -0.15706645, 0.2145296, -0.0769611, -0.024315337, 0.05699019, -0.010794111, 0.08217245, -0.019148469, -0.058896, -0.06800794, -0.12676966, 0.00232453, -0.017073264, 0.108543746, 0.07097647, -0.13214804, 0.13136663, 0.18489802, -0.014328689, 0.07543033, 0.1393243, 0.07393505, -0.005183037, 0.14961883, -0.15015234, 0.021566708, 0.00511024, 0.051033895, 0.04160494, -0.32719776, 0.090203755, 0.005621293, -0.24811658, -0.010477464, 0.0030417982, 0.061211545, -0.20480257, 0.05412763, -0.0033518896, -0.20741822, 0.029853916, 0.094928436, -0.050787326, 0.032601234, -0.039968535, -0.06442272, -0.0756009, 0.20960559, -0.014625034, 0.10692832, 0.03519463, -0.21998967, -1.9408966e-05, 0.09453901, -0.0089346925, -0.017496398, -0.16895704, -0.07205802, 0.00838671, -0.018856585, 0.0678608, -0.08063278, -0.003872967, 0.2624792, -0.19725369, 0.017420016, -0.00837013, -0.020199986, -0.31583762, -0.010884865, -0.07566495, 0.2048215, 0.031348962, 0.18095726, -0.21724604, 0.120493025, 0.30431128, -0.087494716, -0.01673943, -0.03570285, 0.008219022, 0.13858014, 0.027619828, -0.3263252, -0.05885005, -0.079610735, -0.019086415, -0.036045432, -0.038585022, 0.035917837, 0.021638215, -0.011985201, -0.09470173, 0.111819714, 0.103739366, -0.20986691, -0.005775038, -0.12835102, 0.10330129, -0.10477666, 0.061716054, -0.05054008, -0.16736421, 0.018041266, -0.055178236, -0.100743905, 0.16996732, -0.17634606, 0.32105085, 0.07479317, 0.018063415, -0.076844364, -0.12986325, 0.12723213, -0.08551772, -0.10044596, 0.09268621, 0.012023363, 0.10709078, 0.009811241, 0.19630682, 0.04308684, -0.003348383, -0.03411216, -0.14653257, -0.08541007, -0.078222565, 0.04885418, 0.17804065, 0.06503442, 0.035955947, -0.21206728, 0.13253155, 0.19603357, 0.07150283, 0.006313841, -0.11615824, 0.049749125, -0.19341007, -0.049432144, -0.2748647, -0.064421296, 0.0032493582, 0.045775063, 0.021547256, 0.12961286, 0.12609234, -0.25669444, -0.011136016, 0.045049384, 0.10448098, -0.0029184213, -0.015068373, -0.020315677, 0.096962124, -0.0889119, -0.27236593, 0.12075778, 0.1624103, -0.070186794, 0.08059926, 0.008539431, 0.018186022, 0.053737648, 0.1925472, 0.030000614, 0.011359103, -0.15726896, -0.2060399, -0.003935512, -0.20437574, 0.022037504, -0.09556704, 0.04979696, -0.04735697, -0.05558058, 0.10882857, 0.0659781, -0.027836578, -0.09048254, -0.13887064, 0.04316902, 0.05455464, -0.27922016, 0.19332986, -0.14462398, 0.09402472, -0.092929475, -0.005212524, 0.05871161, -0.18112089, 0.025208294, -0.045742407, 0.025594922, -0.2335216, 0.10624725, 0.07077492, -0.1711049, -0.11669712, -0.098504916, 0.07937861, -0.052460946, -0.16440526, -0.10230909, 0.110651605, 0.12033004, -0.13156585, -0.12970217, -0.18341018, -0.09869855, 0.17688638, -0.000334094, 0.06825671, -0.20612057, -0.047497127, 0.0680137, -0.056561336, 0.029234087, -0.035123207, -0.05698264, 0.054415014, -0.010052816, 0.18284106, 0.004601881, 0.046242148, 0.13672431, 0.13567838, -0.0060976255, -0.14381187, 0.045855198, -0.04979941, 0.16348451, -0.11772854, -0.0068106405, 0.014320538, 0.016647117, -0.08720705, 0.19804132, -0.07052956, 0.054944187, 0.006839515, -0.18031171, 0.2107405, 0.09185603, 0.112944186, 0.020052698, -0.124994986, 0.006882574, -0.043306213, 0.038216177, -0.037780304, -0.06625999, -0.054863412, 0.08003472, 0.099212244, -0.15484361, -0.048487842, 0.018262593, 0.07867553, 0.18902251, 0.11284335, 0.123146385, -0.16926783, 0.04602935, -0.016993878, -0.010395864, -0.01108153, 0.20477146, 0.0051853955, -0.15548475, 0.041714124, 0.03083099, 0.15669328, 0.029626317, -0.119692884, -0.113062754, -0.007281762, -0.0031828815, -0.026183143, 0.06404692, 0.056955263, -0.0024147895, 0.015303265, 0.045400154, -0.031714357, -0.029399086, -0.1060044, -0.089662455, 0.07878981, 0.05352202, -0.09330165, -0.019819254, -0.034407627, 0.109781414, 0.05306038, 0.07701853, 0.00054169266, -0.1398229, 0.038185768, -0.068086945, -0.03512317, 0.062132828, -0.12825371, -0.0016770456, 0.09236753, -0.10208974, -0.029108157, 0.1123782, 0.23520903, -0.047625937, 0.105047256, -0.09412038, -0.027457846, -0.03224082, -0.20277315, 0.17878163, -0.08905477, 0.031467754, 0.14041834, -0.23891191, -0.17410935, 0.123207755, -0.06264371, -0.06576393, -0.18689582, -0.02645983, 0.1746808, 0.11596019, 0.13034208, 0.00085559447, 0.09675174, -0.11562417, -0.09368762, -0.10394766, 0.017800087, 0.042831235, -0.22678217, -0.017159041, -0.07095961, 0.05289691, 0.055929653, -0.11379321, 0.020790074, -0.07441139, 0.00755907, -0.1445041, 0.03945824, -0.0023696627, 0.059500486, -0.018750148, 0.07147457, -0.13030528, -0.11806509, -0.10124434, -0.090389825, -0.13331054, 0.077126935, 0.012739222, -0.10596311, 0.14885022, -0.13990316, -0.22702654, 0.084241696, -0.0019583523, 0.097186886, 0.07235561, 0.008130401, -0.08110438, 0.034248576, -0.034321986, -0.11540869, 0.00842716, -0.061305404, 0.100715004, 0.19490114, -0.1610207, -0.0134749655, -0.031166345, 0.08755424, 0.00587488, 0.20356056, 0.003843636, 0.0536105, 0.08124927, 0.18090284, -0.11859443, -0.23480214, -0.27155146, 0.1596008, 0.0020400947, -0.040643673, -0.0074366434, -0.096356064, -0.05250808, 0.11260955, -0.10395601, -0.07371463, 0.017794805, -0.05670576, 0.0711938, -0.14703013, 0.06545052, 0.06066666, -0.117207095, 0.09589949, -0.031349044, -0.030482713, -0.03719708, -0.06698432, 0.09439046, -0.054215033, -0.021258086, -0.26596695, -0.084761985, 0.064247586, 0.008963444, 0.07914805, -0.1127541, -0.020904157, 0.12457394, 0.09478506, -0.08233283, -0.001788422, 0.08521077, -0.11750804, 0.110305585, -0.039140414, -0.0018305643, -0.14650449, 0.008576612, 0.010438323, -0.047930714, -0.17895019, -0.0787245, -0.23789749, -0.16777594, 0.039560664, -0.0026630051, 0.19281594, -0.05668252, 0.083537586, 0.046466026, -0.0048188884, 0.016117228, 0.15746824, 0.11837417, -0.14584988, 0.15062818, -0.05529497, 0.1707212, 0.09563784, -0.017061507, -0.0366199, 0.0454461, -0.035452344, 0.042841826, 0.035253868, -0.26449215, 0.027904382, 0.13120951, 0.021961326, -0.069072485, -0.16134302, -0.10566489, -0.018784007, 0.056286175, 0.13839163, -0.17180172, -0.12373631, -0.17854139, -0.02934424, 0.06309388, -0.18488318, -0.10242543, 0.0217964, 0.044852816, -0.11417391, 0.123863205, -0.026858807, -0.1910489, 0.17045406, -0.01810185, -0.027484467, -0.069679916, 0.077753365, 0.088971235, 0.046411343, -0.039879035, 0.028563896, -0.055949923, 0.18445542, -0.0017209802, 0.044480518, 0.15449996, -0.17109574, 0.25829297, -0.21071431, 0.044648636, -0.11237479, 0.11531694, -0.13535026, -0.008385203, -0.21955474, -0.12251491, -0.19522122, -0.20044705, 0.0778877, 0.12282982, 0.0958513, -0.020926893, 0.008685121, 0.014348175, -0.01206883, -0.21955419, 0.06364074, -0.09710154, 0.10283917, 0.034861807, -0.06979597, -0.078184664, 0.050801963, 0.100379996, 0.13387254, 0.03187069, 0.08863696, -0.1401913, 0.10328686, 0.049145788, -0.11965684, -0.1426205, 0.025674248, -0.010575336, -0.104099005, 0.046828054, 0.09492039, -0.11163911, 0.047489658, 0.002299212, 0.004150648, 0.030001039, -0.12200538, 0.30599406, -0.13724652, 0.05648584, 0.1731642, 0.102162324, 0.063126884, -0.05872317, 0.12409975, -0.03628515, -0.010009686, 0.072150186, -0.09369516, -0.0020330227, 0.05828626, -0.026602818, 0.02469287, 0.031247918, -0.020940112, -0.04871991, -0.03443364, -0.08330968, 0.007806613, 0.11146304, -0.09475627, -0.16028179, 0.032152366, 0.049785104, 0.122205555, 0.041940298, 0.053290665, -0.065687574, -0.043713402, 0.054280553, 0.04775545, -0.09421082, -0.055553574, 0.056153424, 0.052182734, -0.18338726, 0.22171816, -0.010463477, 0.081982575, -0.15509573, -0.08454, -0.08341225, 0.12702611, -0.053890195, -0.25599986, 0.021426434, -0.0076302798, -0.015397219, 0.0040195636, -0.013919283, 0.04589312, 0.299097, 0.02577639, 0.0636521, 0.0013496149, -0.033947602, -0.04341076, 0.028805993, -0.11660709, 0.050981093, 0.032369263, -0.15171258, -0.15261659, 0.22192998, 0.03173688, 0.06012724, -0.043604374, 0.09357608, -0.06512135, 0.019480983, 0.052169275, -0.016430207, -0.03606756, 0.071227945, -0.14483693, 0.16244671, -0.15224841, 0.005359851, 0.05234285, 0.0020172144, 0.036023002, -0.09851198, 0.031394012, 0.01862857, 0.04391507, -0.07756705, 0.061734714, 0.031979155, -0.11682173, 0.003147634, -0.0030248424, -0.018781163, -0.012392333, 0.16707762, 0.06995474, -0.018291144, -0.22978565, 0.013969119, -0.067205586, 0.11295019, -0.14686194, -0.31841347, -0.031886138, 0.011226746, 0.10547915, 0.13238755, 0.040912524, -0.014912644, 0.21627186, -0.00939098, 0.056337774, 0.025897983, 0.006638858, -0.19216402, -0.0019691729, 0.29444814, 0.109435044, -0.08386005, -0.17164613, 0.028163034, 0.13536358, 0.07786229, -0.08915136, 0.02714713, 0.1746639, -0.04535334, -0.09975964, 0.009614383, -0.03395227, 0.09073267, 0.029676903, -0.07514672, -0.17140113, -0.040163044, -0.005584099, 0.17140993, 0.1558183, 0.0069245496, 0.20240968, 0.01958624, 0.00071677077, -0.051121604, 0.031184362, 0.00084111997, 0.0018893136, 0.031142468, 0.073849216, 0.023753189, -0.015037022, 0.09226995, -0.03965046, 0.08825736, -0.06455414, 0.09102903, 0.06332573, 0.16494583, 0.012752618, -0.0049525774, 0.18497027, -0.042557705, 0.0628454, -0.024757348, 0.099462055, -0.057013106, 0.1055472, 0.18175857, 0.10402867, 0.015033297, 0.0023859297, 0.06994467, 0.11269412, 0.17107692, -0.026670491, -0.082866795, -0.0043687015, 0.08999566, 0.12683317, 0.18373369, -0.09819472, 0.021765552, 0.06504039, 0.20083252, 0.04999001, -0.08801061, -0.03779473, 0.05970018, -0.035595126, -0.038269438, 0.03277568, -0.048598573, -0.17690036, -0.0035338257, -0.012376143, 0.06612095, -0.06279187, 0.02421161, 0.10036037, -0.03129218, -0.040748026, -0.15963644, 0.109378755, 0.0026118807, -0.094712704, -0.0075683165, 0.1738972, -0.2933842, 0.10703419, -0.13031504, -0.013753077, 0.072894804, -0.09788214, -0.07037799, -0.18440092, -0.0815804, 0.06754801, 0.1121996, 0.043149337, 0.07505733, -0.044359744, -0.12964, 0.017816635, -0.034720786, 0.021646021, -0.03173346, 0.055603642, -0.09495334, 0.11587595, 0.16453962, -0.080859505, -0.048279572, -0.08635823, 0.09738521, -0.094568804, -0.13519105, 0.16680677, 0.046610117, -0.08610786, -0.06043892, -0.10616432, -0.010695758, 0.059126344, -0.0399975, 0.09676161, -0.00937124, -0.17712896, -0.059059985, 0.07439651, -0.14125872, 0.031266257, -0.07733587, 0.12290615, 0.14978072, -0.12624972, 0.06164392, 0.14667733, -0.099584304, 0.017121926, -0.16387317, 0.05368704, -0.010447606, 0.0913698, -0.018732091, 0.07074132, -0.0239354, 0.010699068, -0.03277451, -0.098547824, -0.06665615, -0.14767177, 0.13236335, 0.0007584671, -0.12385793, 0.13508609, -0.0012407126, 0.055652637, 0.21302894, 0.08949728, -0.13397571, 0.045591075, 0.04491613, 0.14511563, -0.1046517, -0.2199559, -0.12279907, 0.09314236, 0.08548934, -0.011416336, -0.07227498, 0.13456598, 0.09117488, -0.03326772, 0.07102628, 0.047751814, -0.09229262, 0.048878845, -0.015775418, 0.04886591, 0.00055010495, 0.10889274, -0.20692454, 0.13519132, 0.08849625, -0.04310431, 0.14543605, 0.048868883, -0.16604201, -0.05714585, -0.075141765, 0.22166944, -0.06762111, -0.18448068, 0.09661326, 0.009113606, -0.18897581, 0.14358594, 0.12845871, 0.08498221, 0.14393824, -0.13042572, -0.16024019, -0.17682259, -0.039083607, -0.2047935, -0.15844622, -0.104780644, -0.037551023, 0.12518659, 0.08471082, -0.07493898, 0.108419135, -0.021536758, -0.076232426, 0.0022709304, 0.07682372, 0.108508915, -0.19035245, 0.08547781, -0.051306654, 0.060369305, 0.046504863, 0.06080022, 0.08620046, 0.02509562, 0.13605234, -0.09997501, -0.101469114, -0.010470938, 0.07871229, -0.027309282, -0.0026184176, -0.12791269, 0.14704752, -0.09350468, -0.07730266, -0.08946978, -0.033588484, -0.0067723244, 0.16976449, -0.15019192, -0.11228799, 0.16024658, 0.11152849, 0.10459989, -0.080971055, -0.040416624, 0.20502776, -0.16350761, 0.060566843, 0.04936417, -0.17692551, -0.082249515, 0.08740386, 0.0067784796, -0.07610582, -0.08032913, -0.04305177, -0.122125484, 0.010931677, 0.10456381, 0.06941595, 0.15218596, -0.15527928, -0.077354126, -0.03569567, 0.019085618, -0.033767264, -0.045402665, -0.034760267, -0.076664954, -0.0804928, -0.21946071, 0.02872794, 0.039226953, 0.113360785, 0.23021454, -0.12641151, -0.1283092, 0.18589878, 0.031323306, 0.20509237, -0.1235726, -0.15398923, -0.055918094, 0.0054265237, 0.08312994, -0.12736113, 0.033583965, 0.13052262, 0.0012075326, 0.012069358, -0.036729276, 0.13383588, -0.039487578, 0.15430643, 0.035974517, -0.020316536, 0.028823055, 0.16164412, 0.24137744, -0.113099344, -0.14345825, 0.13677442, -0.054549955, 0.081803225, -0.049340967, 0.040039785, 0.024764739, 0.2176149, -0.08695451, -0.022899631, -0.0814192, -0.12346783, 0.07931395, -0.07943114, -0.08891918, -0.028076483, -0.16152614, 0.035290673, -0.052828006, -0.04039093, 0.045774546, -0.03641491, 0.041966625, 0.10799188, -0.15332337, 0.07196478, -0.27329934, 0.103252895, -0.0597384, -0.029790899, -0.078618966, -0.048566774, 0.14749025, 0.03428468, 0.067329966, 0.041486442, 0.12324732, -0.030088622, -0.0027746882, 0.009398304, -0.12954696, -0.098661795, -0.08036884, -0.22043231, 0.07266033, 0.05527861, -0.09311383, 0.0753571, -0.07119917, 0.018604387, -0.07015339, -0.0038075561, 0.016850088, -0.030065518, 0.057847224, 0.16241862, 0.1664986, -0.11674545, -0.12763463, 0.01319353, 0.038590595, -0.02225707, -0.10729804, -0.0972073, 0.05552581, 0.107799605, -0.03995022, -0.09587442, 0.042131823, 0.0053643426, -0.08826482, 0.021339627, 0.09429964, -0.085112266, 0.0749134, 0.19166474, -0.102188446, 0.051179077, -0.016333153, 0.04432246, 0.13267235, 0.174532, -0.013250877, 0.17706633, -0.032006636, -0.103448674, -0.10412924, 0.051062673, -0.036323197, -0.16460991, -0.04537872, 0.103504844, -0.15122999, 0.13577364, 0.085166894, -0.05651492, -0.19909097, 0.054779217, 0.0064530903, -0.1023452, -0.058594152, 0.049085982, 0.12826292, -0.04219244, 0.1163425, 0.001030384, -0.1141298, 0.13617162, -0.044036742, -0.04785957, 0.019929592, -0.21543097, 0.11886965, -0.027076121, -0.021087648, -0.15725146, -0.14803773, -0.046717577, 0.043283682, 0.16042936, 0.05239253, 0.023086136, 0.13082516, 0.051693846, -0.25437772, 0.025432825, 0.027467871, -0.16878603, -0.28304747, 0.016569644, -0.040918183, 0.034388673, 0.015923884, 0.07267271, -0.15682065, 0.09104149, 0.010523898, 0.00029191186, 0.06707296, -0.025376713, -0.15060185, 0.07773574, -0.08820092, 0.0909859, -0.0026898286, 0.004857354, 0.14338687, -0.08078837, 0.05663656, 0.018671617, -0.036407694, -0.003595752, -0.101709835, 0.03422512, -0.03743759, 0.10109204, -0.032873172, -0.06171702, 0.014266041, -0.18821819, 0.13521671, -0.006984454, -0.074659795, 0.03294244, -0.16357641, -0.22365676, 0.15630114, 0.12154574, 0.30738586, 0.13351272, 0.0003976547, -0.14265518, -0.018806634, 0.0556047, -0.054180503, -0.06171639, 0.015016455, -0.1604165, 0.122304186, -0.2288953, 0.04642723, 0.1531196, 0.012854399, -0.064644255, 0.015426523, -0.033804815, -0.02988607, -0.0817591, 0.091171116, 0.08866728, -0.038611297, -0.14432451, 0.05671492, 0.015762106, 0.15161236, 0.051699188, -0.27444133, -0.07182243, -0.11793768, 0.045582928, -0.08039285, -0.13403621, 0.039748967, 0.026823865, -0.009065249, 0.26716697, 0.072537825, -0.06293863, 0.04061024, -0.033682793, -0.07517207, 0.12744863, -0.03488201, -0.004089022, -0.011442768, 0.037224703, -0.20772798, 0.08024447, 0.10731475, 0.08651377, -0.075205, -0.009571495, 0.07697746, 0.03276634, 0.15239589, 0.104890965, 0.14938451, 0.08295359, -0.20202088, -0.07476558, -0.07597806, 0.106750935, -0.01702882, -0.2520749, -0.029949833, -0.110550016, 0.13379708, 0.07844622, 0.013764982, -0.009226806, -0.101039685, 0.032357857, 0.100776985, -0.28828093, -0.0014017448, -0.03028551, 0.04280879, -0.027049502, -0.0036990412, -0.061251808, 0.082898065, 0.07692151, -0.1439255, 0.0755435, -0.17644824, 4.251121e-05, 0.05136778, -0.048987977, 0.08285135, 0.024749901, 0.1944915, -0.2547595, 0.06584454, 0.07776921, 0.13415217, 0.03837325, -0.09783423, -0.025457876, -0.08870255, 0.11144826, 0.017576722, -0.06060595, 0.10230032, -0.054457854, 0.03720691, -0.111578725, -0.04438865, -0.11834284, -0.061356507, -0.08161358, 0.097278506, 0.030254662, -0.0044454187, -0.21264392, 0.16925046, 0.11405815, 0.076193504, 0.098764256, -0.15480891, -0.06815784, 0.016017929, -0.0657551, 0.008399241, -0.11740344, -0.03489687, 0.03895928, 0.10096291, 0.09638429, -0.06743293, 0.23636924, -0.056047224, -0.11286641, 0.09521937, -0.01588515, 0.032710444, 0.005477801, 0.049207963, 0.051535454, -0.1491657, 0.071984656, -0.074650206, -0.13483366, -0.056492977, 0.043907452, 0.09376848, -0.015749129, 0.031020582, -0.0058510946, -0.020874636, -0.0649853, -0.04877064, -0.010065262, 0.120313786, 0.008519186, 0.031680614, 0.11342174, -0.09479895, 0.059527345, 0.045921564, -0.07087994, -0.039605796, 0.030452522, -0.03216124, -0.06390401, -0.0054987213, -0.1174194, -0.018200427, 0.027519245, -0.07877219, 0.027226968, 0.043945193, 0.1138366, -0.03884426, -0.20405054, 0.06570518, 0.12693419, -0.045388613, 0.061992858, 0.107998595, 0.05075125, 0.07844383, 0.03157259, 0.2012091, 0.06557461, -0.017860496, 0.07994889, 0.011688598, 0.05219167, -0.05928757, 0.027324652, 0.030737141, -0.092062235, 0.20753838, 0.041966412, -0.080076255, -0.020267442, -0.06669277, -0.040109493, -0.061012484, -0.040820338, -0.03246664, 0.065160654, -0.05318067, 0.096914835, 0.12931027, 0.071800604, -0.03365451, 0.10241861, -0.031579744, -0.0027370204, -0.012701859, -0.09799313, 0.02495565, -0.052044693, 0.21906555, -0.12937348, 0.09306191, -0.114895925, -0.059574123, 0.032188114, -0.019361787, 0.14664245, -0.1886257, 0.05285076, 0.060371205, -0.0966929, -0.05805423, 0.10416672, 0.117047586, -0.01244434, -0.16893142, 0.009503114, 0.101124965, -0.10783757, 0.03176856, 0.13492423, -0.07099686, -0.08675712, 0.089557864, -0.054458052, 0.14727958, 0.060401782, 0.07699637, 0.004476721, 0.1409794, 0.26399764, 0.003484127, -0.004052683, -0.009921889, -0.15462011, 0.019626245, 0.1355395, 0.023261284, -0.03924794, -0.23144718, -0.19889714, -0.13457318, 0.19743417, 0.024059352, 0.028121935, 0.012597075, 0.09281439, -0.13040496, 0.0141237825, -0.05502384, -0.077033274, 0.03429827, 0.06075617, -0.010867087, -0.045664784, -0.06282043, 0.07475341, 0.061863232, -0.07170154, -0.06645219, -0.013493393, 0.05245259, 0.17714246, -0.19847105, -0.11545907, 0.038515724, 0.008396189, -0.08566137, -0.012036257, 0.08304171, 0.065399826, -0.020306887, 0.020503508, 0.09767082, 0.00015866332, -0.10372821, -0.041656125, 0.13504978, 0.09206534, -0.007004648, 0.119988665, 0.065543994, -0.031187339, 0.13744046, -0.11698875, -0.066456825, -0.025990332, 0.080366634, 0.008079138, -0.043296274, -0.08084048, -0.0028688759, -0.03044663, -0.11316819, 0.16210154, -0.10334669, 0.02909163, 0.1605776, 0.02987583, 0.12866674, -0.12118618, 0.03747138, 0.062320303, 0.10005922, -0.08324339, -0.0661378, -0.09357355, 0.037465867, 0.08355971, 0.08012541, -0.084512375, -0.018354693, 0.041348882, 0.107470095, 0.092529744, -0.01863261, -0.07223157, 0.06088158, -0.08250052, -0.062464945, -0.12870054, -0.06874684, -0.055331983, 0.13846914, -0.11508517, -0.1628382, 0.048267744, 0.09067298, -0.06542716, -0.08507205, -0.023856651, -0.018313468, 0.069235675, -0.10025975, -0.054434866, 0.06553167, 0.050051562, -0.008209031, 0.07516926, 0.064786494, 0.044941716, 0.10470814, -0.0516094, 0.20180307, 0.0753846, 0.06427929, -0.029512731, -0.03255833, -0.07665307, 0.010801707, 0.01066758, 0.08450022, 0.009279727, 0.06736712, 0.11866903, -0.16504736, 0.011898455, 0.053926513, -0.08082171, 0.037097074, -0.03260371, -0.09491097, -2.7521113e-05, -0.09767935, 0.012465484, 0.13193116, -0.06214067, 0.14046496, 0.013957381, 0.07832519, 0.025920324, 0.0054679154, -0.0177033, -0.08306169, 0.0070075523, -0.05295111, -0.07414312, 0.12810959, 0.041701715, 0.028600972, -0.037463304, 0.014603138, -0.15672098, -0.07425573, -0.012914751, 0.0026420355, 0.017092165, -0.011411938, -0.19014329, -0.01442118, 0.044719025, -0.04883282, -0.0451165, 0.043703686, 0.015393689, 0.030073408, -0.075268865, 0.027060272, 0.012509139, 0.06121566, 0.04490927, 0.16663373, 0.015759382, 0.0070438813, -0.027189381, -0.1216577, 0.08578198, -0.031421535, 0.043769117, 0.14138275, -0.021324659, 0.014919882, 0.021882292, -0.008723848, 0.039643493, -0.04315385, 0.13213979, 0.04124908, 0.019285377, 0.12319707, 0.012081199, 0.07724399, -0.012085043, 0.061079424, -0.10880647, 0.051829077, -0.09766348, 0.030162819, 0.0057097157, -0.08568307, -0.09858549, 0.05726077, 0.029197685, -0.12434942, -0.09734022, -0.012280704, -0.044700515, -0.06945334, 0.07055163, -0.067773074, -0.0063256556, -0.13781226, 0.023040935, 0.06935648, -0.15862216, 0.061476033, -0.14350352, -0.060122933, -0.11533835, -0.017812062, -0.019328643, 0.0020300306, 0.10812738, 0.0486932, -0.1300712, 0.010843699, -0.053666845, -0.01727247, -0.10151381, -0.1296758, 0.042842537, 0.1119689, -0.025785163, -0.066479705, 0.08229558, -0.046935353, -0.018960783, 0.018585304, 0.0523336, -0.04524003, 0.16358973, 0.030099854, 0.015347937, 0.11685014, -0.0114863645, -0.05487258, 0.056774434, -0.115156405, 0.064037316, -0.03363197, -0.021504134, -0.088457085, 0.038769517, -0.11236232, 0.0178335, 0.018737413, -0.012378573, -0.090058185, -0.0150153, 0.029272553, 0.066401154, -0.16512589, 0.007714266, 0.023382958, -0.123027235, 0.0659127, 0.06741924, 0.14285336, -0.10574518, -0.030032922, -0.05633451, -0.009346208, -0.08174136, -0.022256138, -0.03677286, 0.146868, 0.17761718, 0.09818074, 0.08299549, -0.063625075, 0.021212906, -0.012802787, 0.19944651, 0.056596458, -0.0605682, -0.14126699, 0.09426416, -0.033294447, 0.06405671, -0.019783366, -0.12487745, 0.018398266, -0.11220698, 0.17194945, 0.14769654, -0.054285474, 0.039840985, 0.15529087, -0.07154307, 0.050039224, 0.0993905, -0.00838527, -0.06912027, 0.13721101, 0.24111195, -0.059251927, 0.062020317, -0.10513097, 0.13695057, 0.040409308, 0.012841373, 0.036351524, -0.13350841, 0.17518498, 0.04729983, 0.023014562, -0.029103516, 0.039155774, 0.14526916, 0.12857705, -0.08140983, 0.038852174, 0.06455295, -0.15217413, 0.08683175, 0.087474726, -0.02285427, 0.09165405, 0.1038454, -0.020770451, -0.009969475, -0.06228092, 0.07873816, 0.03910623, 0.022862775, 0.04733091, -0.0145464325, 0.020956354, 0.13388039, 0.0167197, -0.010324437, -0.07545497, -0.06299882, 0.010362196, -0.011717393, -0.012737527, 0.12876156, 0.06926814, 0.074999966, 0.12081325, -0.019788023, 0.08997538, 0.042331804, 0.044535708, 0.09431196, -0.015670383, 0.019707022, 0.15471949, 0.10177644, -0.11552508, 0.030891178, 0.13706176, 0.10877155, 0.05564565, 0.04852028, 0.031286497, 0.019375544, 0.10866055, 0.02160007, 0.068253666, 0.12566136, 0.0016106368, -0.046306543, -0.047875416, 0.13914412, -0.11330998, -0.12968922, -0.091904104, 0.053298462, -0.12336346, -0.07735238, 0.023211686, 0.032728713, -0.027669856, -0.12645572, 0.10411831, -0.04889329, 0.05562275, 0.12968889, 0.06908723, 0.038229536, -0.05269045, 0.068478845, 0.1632996, -0.19334763, 0.08081558, -0.23815632, 0.06927727, -0.00087259396, -0.13051602, -0.08377225, 0.050248735, -0.14702412, -0.0067883297, 0.10125235, -0.0044256053, 0.056043334, -0.07039077, -0.060625736, 0.059528075, 0.06081514, 0.036342014, 0.15411016, 0.12800193, -0.13788308, 0.053566758, 0.063841395, -0.08789019, 0.05324063, 0.047415797, -0.073252335, -0.009773692, 0.032302126, 0.037082393, -0.018641563, 0.0065217484, -0.13901421, -0.078804746, 0.07124585, -0.080777206, 0.061920617, 0.025362862, 0.10083813, -0.25013894, 0.0079448605, 0.026362028, -0.24028152, 0.018500293, -0.12185405, -0.03093007, 0.16729502, -0.014521604, 0.047533643, -0.04730004, 0.058870085, 0.004071388, -0.21325475, -0.02962431, -0.16637996, 0.08945148, -0.07814112, 0.00016116383, 0.09659324, 0.13448666, 0.06946543, -0.20868523, 0.059073746, -0.06443585, 0.26464123, 0.17036565, -0.06534429, -0.03648972, -0.12955001, 0.013390925, 0.05428502, -0.14281252, -0.1463007, 0.061955545, -0.00057518523, 0.13306284, -0.18526188, -0.17809133, -0.22513391, 0.27671045, 0.026132377, -0.045925826, 0.0073846197, 0.23553362, 0.08326555, -0.059108417, -0.11071508, 0.25416315, -0.032280035, 0.024046456, -0.2225321, -0.050235566, -0.087390274, -0.008529421, -0.046224765, 0.07368554, -0.008387644, 0.009853318, 0.054490115, 0.18460514, -0.12111521, 0.07090173, -0.06115318, 0.07781931, -0.030347183, -0.12874599, 0.016712576, -0.22341667, 0.053013746, -0.006762866, 0.07834883, 0.11836941, 0.072956264, -0.31701013, 0.06621563, 0.031024683, 0.0040626084, -0.32175836, 0.05104865, -0.18883207, -0.053836543, 0.0525572, 0.15884517, 0.104198046, 0.11497732, 0.010242898, 0.029808452, -0.015936567, -0.17275302, 0.09610302, -0.043442305, -0.12258465, 0.045112718, 0.09172381, -0.06247942, 0.025468767, -0.018412385, -0.008034331, -0.008045506, -0.13766657, -0.13108173, -0.061818585, 0.07058276, -0.033195615, 0.010350442, 0.07622257, 0.023615446, -0.021179885, 0.046716467, -0.017974244, 0.19190873, -0.107583, 0.034490943, -0.07925, -0.10480525, 0.061514314, 0.11901806, 0.00980272, 0.004071728, -0.024931725, 0.12646897, -0.10921778, -0.11999734, -0.059821915, -0.101982504, -0.051400654, 0.16907005, -0.061265692, -0.11242981, 0.06734947, -0.022309145, 0.07961901, -0.081209615, 0.0317305, 0.050801925, 0.29919037, 0.040013123, -0.058169175, -0.11957754, -0.021763174, 0.026111357, -0.21428084, -0.17295228, -0.37230906, -0.113646366, -0.15083992, 0.15100819, 0.04488714, -0.0046448633, 0.16126534, -0.06982793, 0.022628767, 0.0943376, -0.13361739, 0.14111733, -0.12831904, -0.06874726, 0.0020773737, 0.10096956, 0.13550138, -0.045439757, -0.10941278, 0.20916621, -0.10718697, 0.057753086, -0.06605185, 0.024161553, -0.09613215, 0.009237348, 0.046132766, -0.084315814, -0.12994216, 0.004787509, 0.07463711, -0.042493105, -0.015762167, 0.054835755, 0.22443081, 0.10870337, -0.058895025, 0.005106871, 0.077996306, 0.1569951, -0.09689383, 0.08715568, 0.100592785, -0.16247112, 0.031010732, -0.19945244, -0.10974566, -0.0588819, -0.061311703, 0.20425726, 0.0629609, -0.027969094, 0.20177442, 0.048528075, -0.037279107, 0.02164503, -0.03026545, -0.09404001, -0.09627545, 0.06588125, -0.14211258, -0.15391369, -0.007613924, -0.012809541, 0.28249842, -0.11726116, 0.208822, 0.026200047, 0.1428515, -0.13559064, -0.13072895, -0.0067667034, -0.12981836, -0.26273093, 0.07062934, -0.15757602, 0.1360208, 0.066502355, -0.028514212, 0.111992784, 0.052226268, -0.03809837, -0.07298379, 0.111832954, 0.050483935, 0.07243083, 0.07646293, 0.02696135, 0.16435106, 0.10817612, -0.013663753, -0.12754504, 0.07237525, -0.08852649, 0.15278679, 0.1370041, 0.023856075, -0.0643215, -0.1193083, 0.07678257, -0.0041057603, -0.06041918, 0.07693424, 0.17137527, -0.123938166, -0.12714279, -0.051810864, -0.022668952, 0.09977753, -0.09854773, -0.00093846174, -0.114582896, -0.1326291, -0.09950255, -0.089084715, -0.07519401, 0.13492902, 0.009448168, 0.012019099, 0.01949681, -0.06481208, 0.23859137, -0.0017484317, -0.010340114, 0.25433695, 0.018958127, -0.05121654, 0.09978739, 0.1530229, -0.0055455663, 0.024019882, 0.04639178, -0.065384455, -0.062263336, 0.020325564, -0.071195215, -0.08362851, 0.015347961, 0.03393294, -0.17248227, 0.0026200395, -0.033468377, -0.00084643625, 0.26711553, -0.03397655, -0.09347965, 0.06558036, 0.056371477, 0.11715061, 0.024057502, -0.08316475, 0.02023288, -0.12070263, 0.034380034, -0.0050920136, -0.28370696, 0.12885772, 0.026066393, 0.005525202, 0.084072106, 0.28306547, -0.041954394, 0.17535935, -0.030677864, 0.04646922, -0.13244736, 0.24758276, -0.10943821, -0.1618969, -0.029677667, -0.059595253, 0.053990744, -0.08786884, -0.07768637, -0.0054086167, 0.123734556, 0.07396858, -0.063184634, -0.09284173, 0.011293608, 0.075491175, -0.12457684, 0.017284779, 0.022985708, 0.1301872, -0.04252876, 0.05398535, -0.019557443, -0.07043514, 0.08343405, -0.10935685, 0.11943549, -0.10484992, 0.105413236, 0.108477935, -0.05056561, 0.023657335, 0.111984305, -0.14571138, 0.06755523, -0.33969453, 0.02489518, -0.02025482, 0.10681637, 0.085684285, -0.13012707, 0.06274644, 0.085886106, -0.11799246, 0.118446216, -0.11345714, -0.027476368, -0.12041697, -0.13830131, 0.09649646, 0.0016731484, 0.11825021, 0.07583459, 0.026442744, 0.029683493, -0.015998332, -0.07726268, -0.102363445, -0.022924507, -0.05337416, -0.14407252, -0.090221986, -0.06193236, 0.13355963, 0.06874108, 0.17711604, -0.02264289, 0.1857448, 0.16806334, -0.093853384, 0.08794298, -0.1333745, -0.2058614, -0.10340363, 0.12681171, 0.11513782, -0.022306178, -0.06489996, -0.16364779, 0.016838195, 0.008475528, -0.0076241703, 0.077993624, 0.107729025, -0.10682895, -0.10927087, 0.030132964, 0.0308866, -0.1010424, -0.05404174, 0.025744744, -0.04057629, -0.033419587, 0.013544314, -0.046688534, 0.15747246, 0.06247168, 0.16487041, -0.050511606, 0.036816183, 0.15406421, 0.059479225, 0.14717227, -0.10654179, -0.017862571, -0.15276435, -0.13927235, 0.119690195, -0.02073788, 0.0043760906, 0.28362033, -0.029137585, 0.07824089, -0.050803345, 0.14188868, 0.13042131, 0.08205004, -0.043287586, -0.059005875, 0.13176697, 0.001636333, 0.13262606, -0.03146302, -0.051839687, 0.06965059, -0.06846461, 0.09266017, -0.10214562, 0.03942701, 0.023393532, 0.085577786, -0.13601112, -0.14454865, -0.016431391, 0.058522232, 0.090061024, -0.006038349, -0.017082127, -0.013311191, -0.15348406, 0.03277573, -0.0827157, 0.08924328, -0.038465153, -0.09261014, 0.06382755, 0.025482612, -0.08187898, 0.0012935052, -0.09105418, -0.0011031377, -0.08583823, -0.10411925, -0.026432749, 0.0012659655, 0.1752465, 0.01756693, -0.00734958, -0.03131854, 0.1441567, 0.025402583, 0.06855236, -0.027276894, 0.045286033, -0.04494839, -0.0048332606, -0.10401054, -0.10820867, 0.098987944, -0.21036516, 0.0010256136, -0.13254704, -0.028454963, -0.08609011, -0.0035626597, 0.0877079, -0.106032975, 0.03743469, 0.06902066, 0.05378601, -0.11247238, -0.111685514, -0.052903708, -0.091076836, 0.054796107, -0.018005464, -0.020901788, 0.12610771, 0.094720945, 0.073227115, -0.029504113, 0.086904645, 0.01887979, -0.069554865, 0.08383882, 0.0990789, -0.04815152, 0.10912172, 0.060709864, -0.02910506, -0.0034305695, -0.13513625, -0.045922805, 0.011186947, 0.08516043, -0.138062, 0.18283825, 0.04346165, 0.101178676, -0.068927675, -0.12171345, -0.029638896, 0.04758876, -0.04820907, 0.018600624, 0.053269766, 0.043928538, 0.047724683, 0.095633864, 0.14320982, -0.022116669, 0.08136167, -0.06355453, -0.06945208, 0.002620341, -0.10346869, -0.122695714, 0.06196912, -0.16622175, 0.08538619, 0.05167238, -0.08046431, -0.02720473, -0.18821843, -0.1363359, 0.015498552, -0.025618007, -0.08394149, -0.008973752, -0.12298643, 0.03492785, 0.15967356, 0.08806936, -0.18495297, 0.01963031, -0.06227229, 0.020155312, -0.28826094, 0.033998877, 0.0495511, -0.093856804, -0.06524947, -0.04803119, 0.0701217, -0.044116743, -0.045400098, 0.10853855, -0.005609354, 0.16030413, -0.08346364, 0.09752019, 0.102920026, -0.18119606, -0.087698534, 0.14411902, 0.118156426, -0.016144764, -0.15655278, -0.028347638, 0.22046022, -0.16612506, 0.053802654, 0.06417481, -0.021878202, -0.078022845, 0.010159482, 0.04896989, 0.25662756, -0.078046, 0.10314411, 0.00228212, 0.33928972, 0.038085014, 0.076033965, 0.053457525, -0.1770234, -0.04858064, -0.0457158, 0.024723914, 0.11078663, 0.0039821803, -0.09036535, -0.03765309, -0.06770892, 0.027075337, -0.038190775, 0.03531525, -0.08480994, -0.06589151, -0.102135435, 0.029123332, 0.07295677, -0.012778959, 0.22773871, 0.13950692, -0.060350355, 0.021759639, -0.023880715, 0.18271793, 0.121532656, -0.15096194, 0.047505755, -0.002523635, -0.010000228, 0.0065380484, -0.07200967, -0.13687193, 0.095390335, -0.060136095, -0.14135477, 0.07408937, 0.02742288, 0.016112292, -0.02737065, -0.18541133, 0.031397827, 0.118389435, -0.19498731, -0.02711619, 0.15922715, -0.08239935, -0.06065684, 0.10571733, 0.1080236, 0.062255252, 0.118628, -0.013567622, -0.087033294, -0.1002879, -0.16175286, 0.056483984, 0.097312234, -0.0026055204, 0.0963645, 0.05314079, 0.022121716, 0.15796618, 0.094029725, 0.10411967, 0.07415125, 0.06452026, 0.03441099, -0.03488359, -0.068532355, 0.13520545, 0.032594386, 0.047487684, 0.033916518, -0.16639832, 0.07250556, 0.05610199, -0.031953104, -0.09897055, -0.07140779, 0.13142791, 0.13061969, -0.07768795, 0.12114971, -0.21666881, 0.08948204, -0.18232106, 0.058306605, 0.008603041, -0.075305164, 0.13161615, 0.11982166, -0.06645655, -0.1950915, 0.17055883, 0.10097589, -0.10732162, -0.2286853, -0.023603028, 0.01618959, -0.016098954, -0.22240925, -0.04418577, 0.06673249, 0.095033444, -0.12967701, 0.15427868, 0.055391323, 0.04380394, 0.22524521, -0.007327688, 0.1803135, -0.029117733, -0.04384368, -0.06236562, -0.15248443, 0.0024613435, -0.118956365, -0.05937558, -0.017178603, 0.116119765, 0.05690897, 0.037852194, 0.01041257, 0.10236992, 0.0017609772, -0.1684013, -0.12698863, 0.008052221, -0.1982956, 0.116974555, -0.14883131, 0.01069154, 0.2627545, 9.563641e-05, 0.21090284, 0.08422716, -0.079885356, 0.09454855, -0.0824404, -0.17829052, -0.1179411, 0.04144924, 0.01731516, -0.08802103, -0.01924928, 0.021704916, -0.15059856, -0.064015746, -0.040400036, -0.16420004, -0.11783367, -0.026508935, 0.07150552, 0.10932287, 0.015294297, -0.11000864, 0.011400409, 0.06949202, 0.0013786216, -0.025354508, 0.04844535, -0.051323194, -0.07322624, -0.01816241, 0.019625638, -0.00043469513, -0.07270126, 0.034143355, 0.0680615, -0.04890314, -0.047440115, 0.15138273, -0.018491643, 0.12368033, -0.17817277, 0.060448796, 0.0850208, -0.18411869, 0.06221633, -0.06720121, -0.0127712265, 0.021008471, -0.043653004, 0.011234939, 0.14499137, -0.06544283, -0.052199654, -0.13242602, 0.067590974, -0.0120054595, 0.07017549, -0.19099078, 0.12631032, -0.09944628, 0.13195859, 0.20970951, -0.043084327, -0.033505697, -0.15690957, 0.025219012, 0.0030689414, 0.005668704, -0.032298796, -0.008940749, 0.07263753, -0.014415333, -0.03229558, -0.036535416, 0.0062278244, 0.10539496, 0.05435584, -0.066520624, -0.11644485, -0.2533295, 0.2398511, -0.016104346, -0.20193098, 0.20068045, 0.051698763, 0.10846317, -0.13714309, 0.10602867, 0.1335676, -0.15862624, -0.0667411, 0.10733319, -0.034723286, 0.17177573, -0.010754508, -0.01365787, 0.20224765, 0.2318328, 0.0005164724, -0.071638696, 0.22469033, 0.015281909, 0.06075376, -0.3557364, 0.04757229, -0.007916474, -0.13000876, -0.068168394, 0.009572506, 0.058823545, 0.008480296, 0.11000676, -0.058441617, 0.3024884, -0.067713045, -0.21900234, -0.08677407, 0.03842269, 0.038293198, -0.037467264, -0.16032816, -0.13198635, 0.020468256, 0.0860207, -0.04877591, 0.29134676, 0.11952853, -0.002871834, 0.16873436, -0.09926387, -0.037014958, -0.12628862, -0.0012192228, 0.0449828, -0.024219388, -0.07367057, 0.13287576, -0.0104931025, -0.06983868, 0.1295521, 0.117838174, -0.04364646, -0.056588255, 0.12796186, -0.1595422, 0.054877196, 0.05931196, 0.05831436, -0.02659309, 0.12474159, 0.13995223, 0.15582775, -0.054372575, 0.1840618, 0.13333973, -0.06310824, 0.18899426, 0.051351693, -0.1046747, -0.01568564, -0.12294047, 0.07083587, 0.041687697, 0.11066225, 0.07010932, -0.102374546, -0.032212064, 0.017322006, -0.03350377, -0.03501674, 0.12876691, 0.016330218, 0.030721432, -0.0375662, 0.095807984, -0.031855233, 0.16674241, -0.021736873, 0.00072104414, -0.085735604, 0.105547, 0.09514928, 0.0331976, 0.023751594, -0.17753549, -0.032451823, -0.17462878, -0.03552093, -0.09202301, 0.0140161645, 0.113000534, 0.029904654, -0.040606193, 0.18241498, 0.12962711, 0.1221051, 0.001181651, -0.052675605, 0.07011662, 0.09580267, 0.032321375, 0.010752164, -0.117485076, 0.013790332, 0.09752137, -0.239598, -0.036942225, -0.07062922, -0.16348946, 0.14145553, -0.018410515, -0.036171492, 6.0429447e-05, -0.032139603, 0.106585875, 0.18243483, 0.03758345, -0.0014524062, -0.07592928, -0.0524277, 0.030542357, 0.19518179, -0.10019216, 0.07766377, 0.06551124, 0.09867735, 0.11682476, -0.033013828, 0.0007268925, -0.24715772, 0.0195139, 0.109245464, -0.019078847, 0.16565493, 0.027633082, -0.12203603, 0.06991878, 0.19434175, -0.06035634, 0.06855668, -0.05980166, 0.04946324, -0.046705723, 0.28084916, -0.08312076, 0.13678558, 0.014499951, -0.012625217, -0.016037552, -0.039587412, 0.033390146, 0.19050805, -0.10865846, -0.080124654, -0.0026853664, 0.037398186, -0.07580479, -0.12468711, -0.0879591, -0.29712507, 0.12997916, -0.07071378, -0.054116495, 0.1547445, 0.19190513, -0.052944362, -0.088132456, 0.20151187, -0.03328202, 0.18447624, -0.00027737406, 0.05311477, 0.1713163, 0.10477081, -0.04150936, -0.006055354, 0.04627806, 0.10019568, -0.13709706, -0.067349985, -0.0804041, -0.0683443, 0.05227789, -0.0138171585, -0.009452481, 0.15825742, -0.10836341, 0.038656753, 0.012394775, -0.06492167, 0.022724157, -0.03993111, -0.15842378, 0.021701721, 0.009089322, -0.12776905, 0.042076852, 0.027373755, -0.031196736, 0.112600885, 0.031644687, 0.023091678, -0.056770477, -0.0028149642, 0.19019073, -0.21285811, -0.020161962, 0.09176957, -0.11159852, -0.063435845, 0.069965094, -0.033818252, -0.046584174, 0.16963482, -0.023005161, 0.04212048, -0.06397844, 0.105885886, -0.24634425, -0.025211265, 0.07972211, 0.029527498, 0.27899444, 0.0969409, -0.03101326, -0.09780804, -0.023587363, -0.12984218, -0.056360852, -0.0013006898, -0.09738675, -0.07227802, -0.05546583, 0.0088682985, 0.041789606, 0.22141787, 