#ifndef FC4_H
#define FC4_H
// Header file of the 11-th layer of the model - The type of the layer is fc


float fc4_w[10][64] = {
	-0.10931406, 0.15862107, -0.09177051, -0.20244001, -0.10506489, -0.11259919, 0.03851497, -0.07184901, -0.18522146, 0.14966528, 0.1707809, -0.19235829, -0.17361662, -0.116202265, 0.028590703, -0.21559688, -0.14171124, -0.09156318, -0.05858359, -0.085084535, 0.029768744, 0.1910789, -0.035968598, -0.046063043, 0.04029101, -0.04438409, -0.06857297, 0.04569148, -0.0016847241, -0.16759811, -0.015946394, 0.12801448, -0.12791266, 0.120820515, 0.12276024, -0.102901965, -0.13113336, -0.03322737, -0.045801453, -0.19765495, -0.09399059, 0.08936031, 0.23204371, -0.023244085, 0.10735195, 0.004054369, -0.20508511, 0.04588996, -0.034421995, -0.2009124, -0.10927382, 0.07264118, 0.0062635387, 0.27171057, 0.14596537, 0.019049566, -0.05069883, -0.039803725, -0.066416144, 0.07879311, 0.141188, 0.1654875, 0.10551908, -0.13879655, -0.110327505, 0.059927214, -0.21978204, -0.016653411, -0.0058344146, -0.08690663, -0.13335703, 0.13827361, 0.043695513, 0.16887432, 0.013667704, 0.22735943, 0.124573074, -0.08109428, 0.12401681, 0.21828356, 0.064211845, 0.20464917, -0.20182715, -0.15438694, 0.20761752, 0.04664876, 0.08674301, -0.12441475, -0.11530096, -0.038984958, -0.18582506, 0.15293658, -0.085954614, -0.21907793, -0.23870675, 0.039072152, 0.06141336, -0.1336264, 0.1887468, 0.16081853, 0.20403008, -0.21907066, -0.15724976, 0.07919423, -0.057714928, 0.17768738, -0.042776182, 0.12492442, 0.18776302, -0.043375805, 0.021990323, -0.0334132, 0.17297556, -0.16232271, 0.026490115, -0.068288594, -0.1343167, -0.03355833, 0.18038987, -0.12756631, -0.30780432, -0.11235492, 0.15516363, 0.033612564, 0.12800919, 0.09045695, -0.14951569, 0.09350497, 0.030433808, -0.053512532, -0.063466504, -0.09006384, -0.10903641, -0.078860804, 0.17969748, 0.009593784, 0.04104342, 0.16802223, 0.10408694, -0.078469954, 0.042693388, -0.11637256, 0.09986654, 0.06284805, -0.060185894, -0.028254334, 0.014157481, 0.15936355, -0.14566739, -0.23528169, -0.13222888, -0.119321935, 0.13828872, -0.059850805, -0.17446643, -0.07101043, 0.09304284, 0.10584297, 0.0853084, 0.082091264, 0.1596441, 0.14143321, -0.17233393, -0.113885224, -0.04104113, -0.051494546, 0.029243747, 0.02208505, -0.19058694, -0.1161573, 0.19377019, -0.056311082, 0.0022531962, -0.06189533, 0.1511296, 0.14562652, -0.023763414, 0.18685123, -0.08255494, 0.0750868, 0.0048739626, 0.032315932, 0.19112383, 0.13172434, 0.08271215, -0.10531754, 0.04313915, -0.19000718, -0.186555, -0.027116543, 0.18433486, -0.2096035, 0.15618703, -0.08857199, 0.15540352, 0.09963499, 0.13276213, 0.043823857, 0.13448521, 0.13435696, 0.0880446, -0.12599161, -0.15027867, -0.08065514, -0.021304816, -0.058816522, -0.15712939, -0.05134799, 0.09464245, -0.12648553, -0.0779918, 0.10244336, -0.107907146, 0.045264628, -0.18587376, 0.19440956, -0.019525629, 0.14816287, -0.18851553, -0.18941079, 0.022391902, -0.11821788, 0.09861423, -0.07213557, -0.058258567, -0.00053948775, -0.11823043, 0.032702353, -0.03324922, 0.0813829, 0.017403174, 0.1977812, -0.024341203, 0.067241356, 0.10441621, 0.19127302, 0.037219115, 0.1568817, -0.043806974, -0.057524778, -0.1382236, -0.09470016, 0.12079303, -0.124845825, -0.11785088, -0.1440232, -0.0748037, 0.12084529, 0.19148275, -0.041047234, 0.10259791, 0.11973579, 0.08862105, -0.15291595, 0.040916756, 0.041179713, -0.03661276, 0.0016312773, -0.064024806, 0.09007599, -0.08827958, 0.18163759, -0.094939604, -0.15396741, 0.09453235, -0.078689076, 0.2549363, -0.014749347, 0.057535566, 0.10916871, -0.066599466, -0.09773201, 0.039799046, -0.015619445, -0.08430542, -0.26057205, -0.11800858, 0.2666478, -0.109769516, -0.037598543, 0.17281944, -0.021336466, 0.14715743, 0.014697512, -0.016732093, -0.073001325, 0.096627116, 0.026370391, 0.14640969, 0.1720376, -0.14736839, -0.21884438, -0.1677002, 0.09850542, 0.19048962, -0.076629326, 0.011504942, -0.07661965, -0.1063317, -0.054747753, -0.19572383, 0.16781901, 0.040047813, 0.11844235, -0.17865343, 0.16535924, 0.08288923, -0.084933504, -0.26305178, -0.04584572, -0.15599895, -0.068944395, -0.18929501, -0.099237084, -0.21663015, -0.10101099, -0.061738193, 0.06013853, 0.068016775, 0.051362462, -0.029139925, -0.18366101, 0.06788179, 0.007479568, 0.18462768, 0.05748381, 0.011402473, 0.012843708, 0.07767347, 0.07514784, -0.26084283, -0.019726828, 0.017184503, 0.21614648, -0.15144087, 0.092471294, 0.17081295, -0.09894699, 0.20452268, 0.22644275, 0.06834581, -0.20132492, -0.20937581, 0.21353759, -0.038917862, -0.07108845, -0.17620109, -0.18691769, 0.075128205, -0.031145735, -0.03889442, -0.19865692, -0.072955266, -0.057948317, -0.052225478, 0.012692903, -0.16908029, 0.16872957, 0.04538167, 0.06687282, -0.09634158, 0.16428632, -0.25484034, -0.027057542, -0.060113076, -0.035174545, -0.0453416, 0.13630335, -0.080354385, 0.08214025, 0.030932385, 0.16539192, -0.029640943, 0.12732223, 0.03355902, -0.021542933, 0.04419328, -0.005318106, -0.024515303, 0.088716574, -0.060823023, -0.009039725, -0.014802805, -0.16400567, -0.23243076, 0.16201663, -0.012975437, -0.10260735, 0.01565502, 0.20958851, -0.101166934, 0.23964174, 0.09957054, -0.18567857, 0.1939501, 0.124305636, 0.12299035, -0.17466831, -0.16115877, -0.037468348, -0.025780117, 0.31079826, -0.2638183, 0.108010694, 0.21368273, -0.10362928, -0.0114942705, 0.07110199, 0.067791745, 0.0788203, -0.041970138, -0.02368034, 0.16761039, 0.0197508, 0.13970086, -0.09854345, -0.03021193, -0.27777714, -0.17203797, -0.010613144, 0.11594885, 0.055242743, 0.12897521, 0.13064097, 0.13212804, -0.24807212, 0.20160502, -0.2274974, -0.008082649, 0.08924685, 0.13878572, 0.15744168, -0.09865807, 0.14100084, 0.1624592, -0.21312603, 0.117081076, 0.13944963, -0.115703516, -0.043072022, 0.16608201, 0.08785596, -0.19793056, -0.19500776, -0.042207688, -0.15839207, -0.06436916, -0.12344848, 0.08939687, -0.21254604, 0.14385505, -0.19879423, 0.13764188, 0.009034257, -0.21217771, 0.09714955, 0.12020057, -0.016490422, -0.19414528, -0.13565256, 0.022270292, 0.06884322, 0.048071984, 0.06492406, 0.04317357, -0.07301306, 0.029907517, -0.07743538, -0.09503836, 0.14896195, 0.100694984, -0.15834658, -0.08520754, 0.19179899, 0.33154312, -0.0051650675, -0.090983, 0.1754422, -0.17932837, -0.02433798, 0.10140323, 0.15514621, -0.019491745, 0.05484239, -0.15102787, 0.185702, 0.033019613, -0.07025491, -0.026012423, 0.05823345, -0.22657323, -0.21429044, -0.23877604, -0.056017708, 0.18987209, 0.14199325, -0.18291405, -0.061261263, 0.031771053, 0.1517151, -0.10589143, 0.0017371646, 0.014074234, 0.18029706, -0.15422373, -0.047854338, -0.027407592, -0.21336874, 0.016560782, 0.004593419, 0.17822805, -0.0846182, -0.12743331, 0.099144205, -0.12480495, -0.1432286, -0.1408824, -0.076393865, 0.028521802, -0.12534878, 0.02568835, 0.04728444, -0.08273574, -0.10965364, -0.15359214, -0.15621361, -0.028425884, -0.1870755, 0.0051164506, 0.08009897, 0.0744331, 0.03875837, 0.10429705, -0.24870875, 0.04109628, -0.050016396, -0.1021869, -0.19204871, 0.09149895, 0.0028473851, -0.18116565, -0.19439006, 0.121370606, 0.14221896, -0.20005283, 0.025346331, -0.0065087783, -0.093162924, -0.11766633, -0.17419708, -0.18272576, 0.0109949615, 0.2950612, 0.004018628, 0.0010657322, 0.07797209, -0.16707337, -0.08311592, -0.19070798, -0.11436026, 0.06497294, 0.16177657, -0.14348139, -0.064549774, 0.1843939, -0.37872812, 0.10815504, -0.31079975, 0.025154445, 0.40589815, 0.08002611, -0.1511699, 0.17429629, 0.0541592, -0.18968002, 0.09841185, -0.041021414, -0.0901153, 0.0075251195, -0.011575904, -0.03295429, -0.14547913, -0.21431296, 0.11766404, -0.11351719, 0.025206394, -0.16620852, 0.14477605, -0.13924718, -0.11996932, 0.05681813, 0.04960598, -0.20558031, 0.22351961, 0.010434066, -0.02448533, 0.025028342, -0.027548725, 0.20795855, -0.060316958, -0.16786665, -0.06015438, 0.09391078, 0.0068761064, -0.19635417, 0.17459318, -0.12485953, -0.13486487, 0.10751634, -0.15043417, 0.0278847, 0.22110026, 0.2194842, -0.14928955, 0.03211845, 0.0027714488, 0.11109566, 0.00058866275, 0.07820999, 0.07206486, 0.113079876, -0.19351827, -0.04646614, -0.16665366, 0.08016354, -0.096278645, 0.013214828, 0.03648394, 0.13608715, 0.16424438, -0.13904512, 0.1337597, 0.22402294, -0.08939487, 0.017901672, 0.17113292, 0.1634651, 0.12207339, -0.077643335, 0.27079868

};

float fc4_b[10] = {
	-0.08865022, 0.04073321, -0.036159273, 0.112923786, 0.1783983, -0.10105124, -0.14575797, -0.0907506, 0.05819251, -0.027806599

};


#endif
