#ifndef FC1_H
#define FC1_H
// Header file of the 8-th layer of the model - The type of the layer is fc


float fc1_w[25][256] = {
	0.07131563, -0.06455319, -0.027266799, 0.12677626, -0.082133986, -0.05152467, -0.09839037, 0.09128466, -0.11552188, -0.025615297, -0.118571945, -0.019991523, -0.020235734, 0.07254406, -0.060982253, -0.037950166, 0.3303561, -0.095660985, 0.05231261, 0.16515732, -0.050918892, -0.0002996191, 0.110482514, 0.035979547, 0.024528898, -0.080095634, -0.049451254, -0.013710629, 0.039522998, 0.023983942, 0.087413535, 0.0578635, -0.009598789, -0.119018644, -0.026813287, 0.059023965, -0.045384157, -0.17617902, 0.04125921, 0.16383064, -0.07242019, 0.10362825, 0.00062177685, -0.079538636, 0.050609455, -0.10556219, 0.12358175, -0.061322212, -0.35879058, -0.07134366, 0.06784291, 0.0439909, -0.11880738, 0.12494345, 0.09944322, 0.1195283, -0.06412528, 0.08429619, -0.005899278, 0.11179711, 0.034312837, -0.043425824, 0.024610184, 0.132796, 0.0690711, -0.06186353, 0.06371836, -0.016644381, 0.0023115333, -0.06247851, 0.084145606, -0.014165083, -0.022066252, 0.009048746, -0.015759664, 0.03136017, -0.09677956, -0.05755671, -0.10030568, 0.08570257, 0.0717666, 0.007027383, 0.05371909, -0.09706993, -0.05923851, 0.08637855, -0.029032486, -0.13495786, 0.08459522, -0.09490192, 0.0037309753, 0.025977258, 0.044758722, -0.0693579, 0.029425275, 0.18911283, 0.01469643, -0.109852105, 0.18408494, 0.13807169, -0.090622514, 0.030903885, 0.041876886, 0.09372231, -0.015253231, -0.075755976, -0.10837757, 0.05745625, 0.10173929, -0.023622546, 0.020429285, 0.044481173, -0.108809, -0.17111854, -0.016340941, -0.07607474, -0.019713005, -0.20845501, 0.02018246, 0.11684776, -0.10066293, -0.073031634, -0.07172825, -0.17062873, -0.070806384, 0.009655477, -0.08268915, -0.018269287, 0.08256498, 0.029081993, 0.11829916, 0.013249953, 0.08967827, 0.0033188418, -0.032755706, -0.04242491, 0.10946848, -0.11962825, -0.064429566, 0.07127177, -0.05895724, -0.016487116, -0.027041042, -0.03506003, -0.06622625, 0.007685442, 0.015649633, -0.046662625, -0.0645462, -0.048262816, -0.2574414, -0.0068269162, 0.004332516, -0.17557538, 0.10296758, -0.22333866, 0.06806633, -0.03453368, 0.056070536, 0.039044656, -0.001503238, -0.04169975, 0.028594546, 0.05509092, 0.045990206, 0.12658405, -0.039882004, 0.017670475, 0.033951327, 0.009815184, -0.0005020286, -0.042099155, -0.08331455, 0.08944547, -0.03529677, -0.033597577, -0.027613776, 0.014555127, -0.011711686, 0.11158056, -0.15299504, 0.019075293, -0.005323449, 0.00723501, 0.047500942, 0.09295145, 0.10298368, -0.24628739, -0.07063386, -0.17601614, 0.19939646, 0.16334538, -0.15002482, 0.051537275, -0.17420062, -0.038999796, -0.006392464, 0.04870112, 0.0062046265, -0.016254652, 0.012321847, 0.048853192, -0.029361488, -0.05288475, -0.038337708, 0.031540897, 0.10089063, 0.18574685, -0.058884334, -0.031198494, 0.05414235, 0.004047676, 0.1862758, -0.149, 0.089410216, -0.21922319, 0.027099613, -0.12227312, -0.021161065, 0.0070098997, -0.035359923, 0.1057825, 0.021261325, -0.0580043, -0.029056346, -0.097921886, -0.03263148, -0.13839892, 0.07042255, -0.08682042, -0.010521875, -0.01853842, 0.11620191, 0.017311463, -0.08771675, -0.04902839, -0.14488743, -0.006881288, -0.013167126, -0.021254718, -0.009567545, -0.090856984, 0.011286411, 0.0073622786, -0.043477, 0.08499943, -0.1142538, 0.029687895, -0.03937747, -0.028358623, -0.0027513835, 0.08465872, -0.033240262, 0.026954362, 0.001021739, -0.082969345, -0.043830816, 0.13413803, -0.030528953, 0.07887861, 0.0072332183, 0.05372684, -0.073895276, -0.030374307, 0.00971389, -0.077825405, -0.09616038, -0.023598382, 8.9096524e-05, -0.007098985, 0.007719636, -0.014010078, 0.24145618, 0.12515666, -0.2573304, -0.1433608, -0.0068173967, 0.10928461, -0.017870374, -0.06810126, 0.003946776, -0.027261004, 0.017610168, -0.11408411, -0.0977681, -0.22276002, -0.10453796, -0.16048291, 0.08046999, -0.04603779, 0.04914506, -0.07554263, -0.17840567, -0.23748429, -0.27447906, -0.23706639, 0.022528093, -0.07912457, -0.02188942, 0.018533586, -0.050763786, -0.07614019, 0.10596322, -0.046259, -0.017470077, 0.05916058, 0.1443883, -0.08715812, -0.05059078, -0.0041306536, -0.088907465, 0.07651039, 0.104270115, -0.07023318, 0.017825708, 0.1807136, -0.07284898, 0.038600195, -0.15912567, -0.036803328, -0.010841134, -0.08387256, 0.02510671, -0.06564909, -0.037103552, -0.0036621103, 0.00014876864, -0.0752863, -0.047579043, 0.04012035, -0.06157548, 0.07549923, -0.028799513, 0.06813199, -0.12136952, 0.06595357, -0.030187005, -0.10991117, 0.017900271, 0.023714103, 0.13358903, 0.11349434, -0.012557744, 0.2620333, -0.08482899, 0.014873575, 0.029230336, -0.16622865, -0.16510549, -0.08196282, -0.15653865, 0.123662904, -0.1308242, -0.14577022, 0.14105098, 0.14275703, 0.043894835, 0.05866896, -0.010063001, -0.08256035, -0.17011173, 0.22718859, -0.02088722, -0.049698915, 0.0531829, -0.011175117, -0.10861391, 0.16630714, -0.019699939, -0.29552245, -0.17525981, -0.12447351, -0.10446255, -0.040038932, -0.0934163, 0.009165345, 0.05905922, 0.11701889, -0.03913641, -0.0063293553, -0.017890548, -0.056089643, -0.028826835, 0.057183143, -0.13348846, 0.036667027, -0.034553364, 0.0789555, 0.14996669, 0.021234337, 0.095752165, 0.042742725, 0.08203324, -0.012062956, -0.044035733, -0.13038084, -0.031587716, -0.1123577, -0.069201864, 0.025585553, -0.08516693, -0.21351054, 0.10931169, -0.14251392, -0.31152594, -0.15029317, -0.034522988, 0.053606708, 0.0054530078, 0.0744928, -0.038201425, 0.008729632, -0.009568172, 0.020627098, 0.04050829, 0.026897563, -0.087543234, -0.007005144, 0.028279537, 0.093212426, -0.2073507, -0.15500195, -0.0629866, -0.044752505, 0.023298979, -0.024005985, 0.016048182, 0.0032152322, -0.08215547, 0.1571348, -0.022000996, -0.0996032, -0.017460117, -0.010188096, 0.031728283, 0.081116326, -0.018649025, -0.011641265, 0.03998718, 0.19035034, -0.010288372, -0.013311628, 0.08108326, -0.008542384, 0.07812684, 0.08077592, 0.0485897, 0.06711398, -0.06418292, -0.14139298, -0.01100443, 0.0054946076, -0.027676435, 0.049791254, -0.009645702, -0.12005182, -0.10864182, -0.084159724, 0.027947297, 0.07122339, 0.12948367, -0.062453505, 0.064302884, -0.05766144, 0.03747204, -0.0100304885, -0.029528113, -0.054513775, 0.018226644, -0.1286409, -0.03606837, -0.187925, -0.010340565, 0.03110888, -0.07660563, -0.07063395, 0.02920649, -0.062368203, -0.0743841, 0.05537773, -0.18806508, -0.17220953, -0.043628704, 0.046900824, 0.026023332, 0.14997025, -0.039954375, 0.04642406, 0.09309234, 0.16540223, 0.035545375, -0.15044944, 0.049242176, 0.08999138, -0.030100904, -0.027007565, -0.044780746, 0.028627947, 0.06193081, 0.06542964, -0.031822685, -0.15244973, 0.029404292, 0.09204071, -0.05901602, 0.009838115, -0.009661182, 0.016574053, 0.109276354, -0.13526149, 0.040871717, 0.091488644, 0.01896623, -0.009295359, -0.007912768, -0.10254755, 0.023109224, 0.11122868, -0.09587428, 0.12919652, 0.08547906, -0.03928295, 0.037718616, 0.05932117, -0.010402428, -0.057916146, -0.18966267, 0.06654248, 0.018568134, 0.1746686, -0.007416554, 0.10563442, -0.06844921, 0.038439848, 0.10699834, 0.04725363, -0.06672417, 0.028416324, 0.008866631, -0.047963146, 0.21807241, 0.055488504, -0.01837215, 0.019574126, -0.013665125, -0.0368299, -0.01674386, 0.04819391, 0.0763881, -0.069791295, 0.18104969, 0.08259357, 0.02831891, -0.06612822, 0.120463066, -0.033767965, 0.062710084, 0.03542191, 0.025209205, 0.020662552, -0.027869366, -0.012493242, -0.04373833, -0.005762695, 0.19901955, -0.10214699, -0.12647441, -0.011512772, 0.03423764, -0.095103346, -0.09073949, 0.17199574, -0.06728269, -0.048816208, 0.059114788, -0.023093233, -0.071876466, -0.15726699, -0.11903229, -0.0321775, 0.019169698, -0.035765626, 0.035934694, -0.070327744, -0.024949972, 0.07055125, -0.0036085465, -0.09857963, -0.023416054, 0.025216283, 0.06746532, -0.06923464, -0.021164218, 0.031823482, 0.012016491, -0.05278887, -0.084025614, -0.1773562, 0.110228054, -0.17801611, -0.028135657, -0.03333087, -0.11758175, -0.0042298897, -0.03915695, 0.07465111, -0.07324277, -0.0057006716, -0.105258495, -0.07872172, 0.028201941, 0.06286767, -0.013364749, -0.017042952, -0.089386106, -0.09741063, -0.10610558, -0.069515124, -0.047365867, 0.0143933045, -0.08025278, 0.03858404, 0.03701485, -0.063355446, -0.0420942, -0.051596176, 0.16712672, 0.09393049, 0.09748894, -0.031354282, -0.07446712, -0.12794317, 0.066757634, -0.066043615, 0.15195331, 0.10064969, 0.082233556, 0.026628759, 0.15674531, 0.11453675, -0.040677827, 0.046559192, 0.027271958, -0.015187708, -0.015551867, -0.08924559, -0.09786753, 0.13120069, -0.049822625, -0.0046548042, -0.026149461, 0.109611854, -0.059925273, 0.08444043, -0.07250712, -0.015565589, -0.014804214, -0.105588995, -0.096145645, -0.079862855, 0.20803069, -0.026288563, -0.054663565, 0.13940005, -0.08275754, -0.12239876, -0.022728257, 0.07102688, 0.10872225, 0.043302763, -0.0034107293, 0.010765646, -0.022054441, -0.13491534, 0.10666326, 0.097624995, 0.047963783, -0.011146131, 0.26691782, 0.13897073, 0.067404725, -0.031837244, -0.118104056, -0.020996517, -0.0031961044, -0.057230007, 0.10119921, 0.06763002, -0.00896433, -0.07244551, 0.08730678, 0.08458902, -0.21384169, 0.019328633, 0.15159725, 0.21807128, 0.010139707, 0.1714384, 0.035262655, 0.009366089, -0.040918868, -0.14374088, -0.05619772, -0.024266537, -0.0046006143, 0.103373714, -0.07962232, -0.11241017, 0.07092252, -0.1274102, 0.053314246, 0.0045250384, 0.10780818, -0.12779602, -0.054630283, -0.08712168, 0.3439033, 0.084588125, -0.0037644387, 0.05326379, 0.09029724, -0.046010748, -0.01378949, 0.09177728, -0.17558442, -0.009422339, 0.17697811, -0.049223304, 0.0130769815, 0.03140808, -0.06079256, 0.07011817, -0.037858367, -0.17108126, 0.08073964, 0.062142078, 0.07937178, 0.13913892, 0.18153784, 0.08474833, -0.023776384, 0.028191173, 0.035518613, 0.05767942, 0.04126007, 0.043945733, 0.002667838, 0.18704863, -0.01836338, -0.030852607, -0.011377676, 0.028842675, -0.03774285, -0.12772097, 0.07563531, -0.12504373, -0.055158377, -0.056341853, 0.009902098, 0.04788314, -0.09113532, -0.022602957, 0.10385764, 0.0048553324, 0.28229848, 0.11025356, 0.15643962, -0.05935139, -0.12428524, -0.07154665, -0.12618275, -0.018306777, -0.04737203, -0.083459444, 0.05220458, -0.07700586, -0.00085630233, -0.10237448, -0.12249815, 0.10454592, -0.12295217, -0.038981717, 0.0769927, 0.10337801, 0.081448846, -0.017670577, -0.032218225, -0.016705988, -0.0076052425, 0.020505553, -0.11650521, -0.08586494, 0.05627902, -0.043868646, 0.04358913, 0.017020863, -0.12018064, -0.13752605, -0.074536435, -0.16925626, 0.016735895, 0.104510486, -0.16062178, 0.005668719, -0.020373913, -0.19121589, 0.104587, -0.089015625, 0.037617337, 0.009749317, -0.0045542214, -0.012700977, 0.030374441, -0.021702629, -0.074106656, -0.07264625, -0.15137975, -0.068184964, 0.017981108, -0.012155405, -0.037812166, 0.0910305, -0.14889745, 0.05200386, 0.022246948, -0.009591339, -0.08595315, 0.17339243, 0.100983754, -0.15015598, 0.055020455, -0.013767637, -0.08568758, 0.052044213, 0.0362213, 0.0056191334, 0.13220769, 0.0042765182, -0.0124822995, -0.09636407, -0.026180828, 0.0022661653, -0.0052420218, 0.029770454, -0.108506314, -0.11660941, 0.083532855, -0.022377476, -0.016313985, -0.022758078, -0.03661847, 0.036767807, 0.054833665, -0.03058423, 0.13418818, 0.25930682, -0.015571957, 0.09710865, 0.004391059, -0.0042034495, 0.017211573, -0.08445373, -0.0626525, 0.0446084, -0.022246044, -0.062156007, -0.075508036, 0.032664143, 0.07361009, 0.041921195, -0.078768104, -0.03177894, 0.14167024, 0.115430504, 0.055777, 0.009723207, 0.07116027, -0.08389637, 0.038087375, -0.13214302, 0.032325253, 0.0065142573, 0.13169898, 0.15230888, -0.04958725, 0.1612275, 0.086529784, 0.14151525, -0.068527356, 0.053976294, 0.019357713, -0.081395395, 0.09011075, -0.1071955, 0.058473468, 0.08648947, 0.06371403, 0.025470452, -0.038026482, -0.020230602, -0.035754025, -0.13753395, -0.0044765943, 0.05831974, -0.06015933, -0.028142164, 0.04352527, 0.23190129, 0.020119207, -0.0960865, 0.05492044, 0.011645542, -0.08203214, 0.1228084, 0.20484963, -0.00696733, 0.11848204, 0.11925452, 0.1889192, 0.28526446, 0.036729626, -0.03661533, 0.002438851, -0.08766845, -0.033112537, -0.13530064, 0.013244473, 0.017462062, 0.1273502, 0.06750698, -0.032661512, -0.09015487, -0.086811915, -0.1455223, -0.052522365, -0.0074844514, -0.018796368, -0.097221605, 0.0036585336, 0.118694685, -0.22713971, 0.13695042, -0.23148045, -0.2879193, -0.043279205, 0.11445646, -0.08311805, -0.029401014, -0.12927295, 0.19452894, -0.18457793, -0.023799933, 0.07562815, 0.07120457, 0.10412211, 0.15786953, 0.070150234, 0.040466785, -0.0045952396, -0.08108415, -0.05850924, 0.04167337, 0.019903537, 0.12949148, 0.04906221, -0.02880195, -0.025604494, -0.094613105, -0.009962954, -0.027213866, 0.026310211, 0.065126225, 0.01322523, -0.20370333, -0.042298425, -0.14652249, 0.03900456, 0.15619995, -0.071917444, -0.00440512, 0.183903, -0.0135499975, -0.008627347, 0.07135308, -0.025568223, -0.055566393, -0.072930045, -0.046729434, 0.075497344, 0.0566195, -0.017075166, -0.08284655, 0.109487176, 0.12091498, -0.101462424, 0.017019989, 0.016529204, -0.009390573, 0.009664938, 0.042999815, 0.09368762, 0.0005646896, -0.13078094, 0.048716705, -0.010667404, -0.08041029, -0.02886, 0.007992336, 0.01001545, -0.08048786, -0.040257797, -0.16674696, 0.012133043, 0.047539264, -0.089223996, 0.054927137, -0.10742397, -0.0743199, 0.101682715, 0.051849462, 0.115799166, 0.0108837355, 0.12523456, 0.01320424, 0.056430914, -0.06453946, -0.061146256, 0.020733984, 0.0049413336, -0.109731905, 0.14237954, 0.10681452, -0.015509815, 0.04979885, -0.021926094, 0.011532568, 0.11026975, -0.023679199, -0.08370369, -0.026596105, 0.07706642, 0.056073643, -0.29039627, 0.06683284, 0.05544793, -0.03355664, 0.09463512, 0.01391905, 0.2025842, -0.038714312, -0.009836303, 0.0049335686, -0.10722514, -0.102963425, 0.03536571, 0.11909524, 0.016754102, -0.08466432, -0.0448191, -0.040115993, -0.07993496, -0.064064994, -0.18267812, -0.12862615, 0.049800932, -0.005878771, -0.013267552, -0.014882161, -0.025858643, 0.09542787, -0.023368454, -0.027717238, -0.014673959, -0.046527896, 0.04582677, -0.021295356, -0.16798645, -0.1297064, -0.05472768, 0.08205495, 0.08683035, 0.10757063, 0.14792854, 0.1711008, -0.11456043, 0.0004165546, 0.11664445, 0.016090158, 0.016256122, 0.071335845, -0.06784752, -0.01937817, -0.101263836, 0.03576054, -0.0019989037, -0.037700783, -0.062037937, -0.027315756, -0.0018138969, -0.0899837, 0.12825285, 0.04906203, -0.03888188, -0.059062373, -0.033843227, -0.17033587, 0.010835043, -0.070343524, 0.033763096, 0.06483635, -0.19170758, -0.17493755, 0.113500394, 0.060958594, 0.014350415, 0.0050029885, 0.021926172, -0.1544855, 0.11880252, 0.18011712, 0.074607424, -0.07045539, -0.008022531, -0.0041145734, 0.0058341343, -0.058754593, -0.15149194, -0.1195476, -0.091440454, -0.060860097, 0.017625429, 0.011792196, 0.0048157237, 0.03876736, -0.04461139, 0.09602274, -0.0155574605, -0.072248235, -0.117490165, -0.083372176, -0.06312089, -0.010990405, 0.035581477, 0.10280943, 0.014307825, -0.04224113, 0.053329356, 0.014844812, 0.018362824, 0.060264673, 0.094068974, -0.012245429, -0.07567462, -0.07119421, 0.07300374, -0.0791487, -0.07250985, 0.12500454, -0.025365608, 0.045819115, 0.041037608, -0.077025406, 0.022553014, 0.0046664737, -0.06078821, 0.041570425, 0.06718366, 0.050036654, -0.21515256, 0.08101686, 0.18919264, -0.026634198, -0.03276302, -0.04048995, 0.066628344, -0.030525377, 0.077976756, -0.06964546, -0.052843433, -0.08574697, -0.023599317, -0.04077282, 0.034474645, 0.018133437, 0.17326847, -0.048610583, -0.057269257, -0.08209319, 0.13478781, 0.15994684, -0.055107065, 0.043542773, 0.03321745, -0.025411034, 0.08714635, 0.1330648, 0.07506776, 0.13375965, -0.054925002, 0.20622565, 0.12298633, -0.09972017, -0.15189879, -0.038579643, -0.025185248, 0.017390851, 0.014919672, -0.09135194, 0.022436779, -0.056067195, 0.10663003, 0.10579236, 0.11183992, 0.0543643, 0.13887487, 0.14302005, 0.04977718, -0.06312909, -0.037176043, -0.013168419, -0.013219264, 0.051860213, -0.0048786905, -0.09179988, -0.06746788, 0.10473521, -0.045738526, 0.050746888, -0.095549524, -0.0947143, -0.10129677, -0.12555796, 0.10611752, 0.065023795, -0.11427496, -0.016235642, 0.027612723, -0.009333428, -0.2940996, -0.120324396, 0.094081655, 0.056207318, 0.00214228, 0.036112692, 0.12240918, -0.10470589, -0.16753337, 0.018113181, 0.25266787, 0.1498987, 0.11930724, 0.053495824, 0.09523487, -0.01579921, 0.044120472, 0.052415445, -0.10729878, -0.007840942, -0.0010592702, 0.0032801337, 0.01642342, 0.1124118, 0.00014031728, -0.047735564, -0.11285429, 0.057783093, 0.08520116, 0.09173322, -0.1889033, -0.06269355, -0.16804463, -0.016503358, 0.0003958809, 0.08724278, 0.09267801, 0.07308302, -0.0912277, 0.023493126, -0.13985771, 0.04542963, -0.0022126015, -0.12506394, -0.08797073, 0.03620132, -0.1256989, -0.0052585113, -0.01687541, 0.120510414, -0.013754365, 0.0854019, -0.049696255, -0.17934886, -0.108825065, -0.091149, 0.017785601, 0.116923586, 0.1413622, 0.07460357, -0.074584246, 0.036900904, -0.14782403, -0.044853512, 0.03745513, 0.095949285, 0.008134107, -0.07392531, -0.00959934, -0.035508715, -0.058720198, -0.16542485, 0.13294424, -0.07425541, -0.02875077, 0.060696322, -0.0003597937, 0.0017358585, 0.055980995, 0.19007002, 0.08368466, 0.1376936, 0.029725458, -0.037466533, -0.039687917, -0.021260705, 0.08042386, 0.010102209, -0.00030418852, 0.1586746, 0.033870395, 0.25336668, -0.045335297, -0.00976891, -0.08104923, -0.23685768, 0.14365792, 0.0053268764, -0.115959994, -0.07420022, 0.044734627, 0.10506093, 0.05777643, -0.020282695, 0.025995925, -0.009665098, 0.014660163, 0.09596381, -0.042903792, 0.011830517, 0.11920603, 0.032020316, 0.0034163545, -0.0036360775, -0.00202667, -0.071477085, 0.059091356, 0.050630983, 0.0069968593, -0.011864053, 0.13194819, 0.10656993, -0.08994395, 0.114035815, 0.037353437, -0.03781908, -0.123187326, -0.056317903, -0.06732186, -0.005229566, -0.0569819, 0.09890281, -0.03445351, -0.15510893, 0.10054507, 0.19035222, -0.039625585, 0.021412253, -0.08482618, -0.01731535, -0.18494472, -0.044364534, -0.04190273, -0.10901391, 0.052222162, 0.009212292, -0.102869675, -0.054446906, -0.0707777, 0.06416472, -0.021321435, -0.017295271, -0.07571014, 0.06344501, -0.18677709, -0.14020398, -0.08382549, -0.055666283, 0.08652213, -0.07840614, 0.0038627754, 0.004870769, -0.05213574, 0.15029486, 0.056804117, 0.06850825, 0.027168648, 0.00080358866, -0.031126963, 0.116631776, -0.077153295, 0.026719654, -0.011477583, 0.093777776, -0.022728622, 0.010411864, -0.1100454, -0.07940108, 0.02133709, 0.090271145, 0.11877487, 0.09707125, 0.04164554, 0.07325963, 0.019923864, 0.117322065, 0.07799218, -0.16184007, 0.14938495, -0.106424496, 0.12983455, -0.15200649, 0.010462774, -0.011369633, 0.053226326, -0.040096957, 0.044745013, -0.018339261, -0.008379108, 0.03489975, 0.04464373, -0.015762176, 0.053678174, 0.04296424, -0.0049871225, 0.011316176, 0.075197615, -0.07242097, 0.15512083, 0.09173017, -0.017326077, -0.053121757, -0.15734765, -0.082047336, -0.048122067, 0.10808433, 0.13752301, 0.099126086, 0.026734905, -0.055716746, 0.010728327, -0.015611046, -0.04607063, 0.042661745, 0.14534567, 0.22088562, 0.06155855, -0.0902311, -0.09810414, 0.0021196888, 0.09156847, 0.038779903, 0.07771005, 0.037298482, -0.0586415, 0.04198353, 0.049669527, -0.006901538, 0.041415617, -0.08066981, -0.13521159, -0.06499739, -0.124393456, -0.056512713, 0.08286227, -0.020934658, 0.10875708, -0.11928335, 0.126761, 0.0887409, -0.0074611055, -0.07115477, 0.04910233, -0.10353169, -0.23202424, -0.095156096, -0.13593392, 0.10051166, 0.043594766, 0.09530535, -0.05053087, 0.0025375688, 0.0043195267, -0.036005355, -0.05975375, 0.013791398, 0.19054516, 0.10541303, 0.15281014, 0.06900965, -0.055891287, 0.013724351, -0.054470196, -0.054677706, -0.05594276, -0.0033590635, -0.045655817, -0.023445273, -0.013982955, -0.047820367, 0.12225592, -0.046902113, 0.08410213, -0.012963416, -0.07435975, -0.09377954, 0.07475636, -0.0132246865, 0.0072940104, -0.044474155, -0.07785965, 0.09681288, 0.011739064, 0.030703548, 0.08388108, 0.09141747, -0.16334476, -0.06345147, -0.011579224, -0.0829589, -0.02468432, -0.028876245, 0.024542388, 0.18324752, -0.18407382, -0.10477779, -0.01825116, 0.010900368, -0.0018504476, -0.101570025, -0.094555356, 0.03616048, -0.0031369464, -0.10006523, -0.16741337, -0.27106547, 0.19040962, -0.044806264, 0.012072983, -0.08437323, -0.016024038, 0.0057527106, -0.047460645, 0.018387066, -0.035813898, 0.029902259, 0.13942386, 0.1801117, -0.0027395748, -0.029225396, 0.06294206, 0.029426279, 0.08471757, -0.0411334, -0.036245015, 0.14515328, -0.01060905, 0.03386464, 0.053553186, 0.12614657, 0.05727051, 0.15149975, 0.003923, -0.1264535, 0.020589713, -0.049727816, 0.04079951, 0.030596629, -0.1603407, -0.018843606, 0.09532345, -0.10276487, 0.0914357, -0.034002595, 0.07369405, -0.0750596, -0.2823045, -0.13451745, -0.011175678, -0.005916954, -0.06751241, 0.023117479, -0.106895335, 0.030850222, -0.026182698, -0.057093445, 0.021598022, 0.016916655, -0.0075062783, -0.05962723, -0.00020773681, 0.06514054, 0.026342632, -0.07005351, -0.017886095, -0.06675211, 0.047943875, -0.052128963, -0.029232847, 0.048237503, -0.16636193, 0.005492928, -0.051288534, 0.11966042, 0.2622908, 0.06149307, 0.054287728, -0.02919343, -0.057302404, 0.0206296, 0.06252221, 0.07789679, -0.254994, -0.14424239, 0.08298463, -0.04277492, 0.05318141, 0.07847271, 0.05238952, 0.060978405, -0.09463143, 0.11353354, 0.062661394, 0.052060027, 0.09295835, -0.03298695, 0.075220205, 0.0012041135, -0.003233846, -0.036022954, 0.06252344, 0.026103871, 0.10634308, 0.19205388, 0.014266093, 0.07363752, -0.017144224, 0.00808102, -0.11828198, -0.07052624, -0.060106207, 0.003462706, 0.09471945, -0.015087127, -0.02830558, -0.055942636, -0.066675775, -0.08789135, 0.050582495, -0.05115437, -0.035737086, -0.06987472, -0.0640691, -0.02385526, 0.020404737, 0.16594732, -0.11492629, 0.047058742, 0.022232499, 0.030539222, -0.12818521, 0.1017136, 0.22501443, 0.030946508, -0.16646431, 0.08007771, 0.012269963, 0.0916183, -0.07217994, 0.054643273, 0.032805715, 0.081831865, 0.046832144, 0.024421623, 0.014994582, 0.01879548, -0.06877232, -0.0400687, -0.093843244, -0.08341583, -0.0026673134, -0.037180007, -0.18429513, -0.22511847, -0.0232375, -0.04185688, 0.04869084, 0.029643737, -0.0669523, 0.10414943, 0.027096873, -0.23748451, 0.048591074, -0.12809913, 0.044816636, -0.07458091, -0.0012052448, -0.07119066, 0.114874415, -0.064114965, -0.3006448, -0.18931165, 0.07908461, 0.13321124, -0.29978177, 0.045038745, -0.05294013, 0.057609733, -0.009992466, -0.12941606, 0.032658216, -0.0688147, -0.08708694, -0.19529954, -0.15990584, 0.036747187, -0.027885765, 0.024890777, -0.050966274, 0.16281098, 0.07935394, -0.059847556, 0.0064048767, 0.20119385, 0.009334607, 0.044239033, -0.098986305, 0.12541953, 0.011003405, 0.019568618, -0.010834003, -0.06967948, 0.19207248, 0.0011449575, -0.025831912, 0.0500834, 0.020959785, -0.026283769, 0.079202645, -0.07295312, 0.02316325, -0.1049524, -0.28772876, -0.114712596, 0.0016244466, -0.05462796, 0.060247622, -0.08673685, 0.006685311, -0.017627621, 0.07399899, 0.030954843, -0.074741974, 0.031544797, -0.023422513, 0.09257964, -0.0026287646, -0.12882316, 0.089604996, 0.03262486, -0.033931427, -0.14552198, 0.07189926, 0.008364893, 0.068079375, -0.08952242, -0.081173025, 0.0558541, 0.09802753, 0.0069320905, 0.047332074, 0.053053223, 0.029600093, -0.1926979, 0.1230982, -0.00018581645, -0.12377441, 0.04667311, 0.18484493, 0.001220774, 0.018316293, -0.13546938, -0.033808257, -0.028276257, 0.14675203, -0.114656925, -0.02944698, 0.022648128, 0.045551892, -0.034643006, -0.11585645, -0.011364814, -0.27515188, -0.14067125, -0.15074196, 0.04899498, 0.020116847, -0.07374368, 0.047629464, 0.08494227, 0.0050921305, 0.045004323, 0.04864168, -0.057454497, -0.0593428, -0.1294609, -0.032208033, -0.0945569, -0.050429724, 0.07926532, 0.025255311, 0.05301561, -0.018017607, -0.010312139, -0.009123253, -0.0037276188, 0.04392723, -0.07703391, 0.02864222, 0.018671295, 0.09456206, 0.09457912, -0.20451486, 0.10033253, -0.052705858, -0.045700785, 0.20451958, 0.22588839, 0.011057934, -0.07697477, 0.056596126, -0.23874004, -0.03830658, -0.17330182, 0.086363584, -0.038621265, -0.083133176, 0.022150058, -0.020270579, 0.12885371, 0.068862244, -0.1136493, 0.09715965, 0.043528184, 0.07326184, -0.009246467, 0.11913943, 0.055099357, -0.010372973, -0.03078589, 0.023721611, -0.17112426, -0.07678664, -0.06817747, -0.029191243, 0.023202902, -0.085578784, -0.038514726, 0.102131814, -0.0103670545, 0.13048218, 0.016331814, -0.06312847, -0.021864535, 0.07721697, -0.023208704, 0.014263271, 0.0011166772, 0.06504809, 0.094118856, 0.06274553, -0.024488308, -0.010120917, -0.08361905, -0.03894884, 0.033205736, 0.029403443, -0.0002846607, -0.00824187, 0.00042389214, 0.12356365, 0.036825188, -0.0028055387, 0.06576792, 0.12799786, 0.025027892, -0.085062094, 0.010841947, 0.03524111, 0.038165156, 0.08864598, 0.023222256, 0.00044559425, 0.002907418, 0.0044584023, -0.035734944, -0.015728708, -0.05278292, -0.051345468, 0.069584146, 0.034107294, 0.08515906, -0.0034874098, 0.19265604, 0.07684149, -0.060572974, -0.04620603, 0.044258833, 0.07852791, -0.010580951, 0.06090059, -0.071163595, -0.039452836, 0.0056850724, 0.06670476, -0.0073566055, 0.028245447, 0.064013995, 0.103787154, -0.020989897, 0.013191399, 0.113828994, 0.17706789, 0.07333478, 0.03915718, 0.156805, -0.07837262, 0.0069462387, 0.1625526, 0.07562766, 0.01887334, 0.083262786, -0.0860712, 0.03433558, 0.07174939, -0.005190796, 0.05500617, -0.12987292, -0.061146397, -0.13539432, 0.027401863, -0.1519098, 0.0150046, -0.09001461, -0.057688575, 0.026174447, -0.15823425, 0.125539, -0.042920448, -0.121060856, 0.0040732445, 0.0099736005, -0.1982904, -0.024019849, -0.06547175, -0.083809614, -0.24478702, -0.11955992, 0.14366299, 0.20400937, -0.05023356, -0.045448676, 0.20856677, 0.18907383, -0.13467376, -0.3395474, 0.123092525, 0.012050317, 0.06641673, 0.0035049724, 0.0025092964, 0.036566917, 0.06784731, -0.0868641, -0.019792415, -0.07458382, -0.028446, 0.017026968, -0.123077884, -0.08875328, -0.27207267, -0.09286618, -0.022195691, 0.008142709, -0.043576084, 0.033203274, -0.004684554, -0.008777128, -0.11167341, -0.01675913, 0.14210178, -0.07297106, -0.006778024, -0.103632204, 0.070086166, -0.059755083, 0.028656079, 0.042884912, 0.16346435, 0.05750314, 0.041996207, 0.066405125, -0.070824035, 0.08229274, 0.08867058, -0.07622885, 0.004350943, 0.0241387, 0.008450636, 0.039053917, 0.03310418, 0.082157806, -0.0010663896, 0.017095378, 0.059399717, -0.02792853, 0.04066514, 0.014529943, -0.06879726, -0.054426935, 0.051043563, 0.06389553, 0.09421626, -0.054688133, 0.0077386843, 0.03932805, 0.23568065, -0.029386476, 0.05867867, 0.12845601, 0.07184493, 0.012878759, 0.12037541, 0.09061316, -0.016093511, 0.20529254, 0.053089954, 0.022472434, 0.06839896, -0.019795192, -0.05670704, -0.022346793, -0.0024951356, 0.063189715, -0.008345813, -0.09947298, -0.04264962, 0.047241557, 0.12618223, 0.01746053, -0.02141981, 0.011675281, -0.051892675, -0.027537318, -0.023060996, -0.053412713, 0.03025891, -0.12518685, 0.18282333, 0.11661934, 0.054110784, 0.12634717, 0.020201264, -0.025988745, 0.08148082, -0.09441281, -0.13416633, -0.03279987, -0.09195754, -0.067537926, -0.12896103, 0.055607226, -0.05396657, -0.05913651, 0.08052531, 0.026638946, -0.0074123386, 0.02409572, 0.25030312, -0.11238693, -0.1449175, 0.026506986, -0.14109169, -0.030632664, 0.049660977, 0.019731442, 0.08589714, 0.009924392, -0.12432532, 0.041701324, 0.013233789, 0.010431168, 0.031497415, 0.05279012, 0.07925626, -0.092116356, -0.11837688, -0.0019987116, -0.035627607, 0.14573883, 0.04304864, 0.010076616, -0.022461211, -0.0108137755, -0.028679887, 0.11419611, 0.046075538, -0.13185193, -0.021248277, 0.071178004, 0.045004997, 0.06510475, 0.034278672, -0.0138941305, -0.029900597, 0.01906742, -0.10480839, -0.10561583, -0.060247578, 0.030866794, -0.024053197, -0.06371583, -0.049278412, -0.05612974, -0.11581971, -0.19159888, -0.21452339, 0.094537325, 0.076542184, -0.004338338, -0.0013853711, 0.022824252, -0.027267441, 0.09790874, -0.06131971, 0.043253925, -0.19588661, -0.06752449, -0.06004272, 0.11381229, -0.028322637, 0.055216245, 0.10263662, 0.13909976, 0.032663323, 0.1293438, -0.041995674, 0.037949346, 0.051279783, -0.043696918, -0.01046504, 0.007455738, 0.12253936, -0.044722058, 0.059408404, 0.058122233, 0.15998706, -0.042143255, -0.024572833, 0.034129195, 0.0958971, 0.037011348, -0.04634326, 0.07476035, 0.042255823, -0.06834381, 0.05053611, 0.05959928, 0.00541889, -0.048679568, -0.014129097, -0.0800629, 0.017422538, -0.08597734, 0.12559226, -0.08919735, -0.1247615, -0.06978311, -0.02736971, -0.17520335, -0.19372001, -0.09698383, -0.0027003766, 0.009138443, 0.052823827, -0.0015291276, -0.060840745, -0.12345691, -0.1407064, 0.0277937, -0.029790986, 0.09684124, -0.05958981, -0.0012667926, -0.07567782, 0.052779052, 0.11211385, 0.17788239, 0.00979993, -0.1211566, 0.049256068, -0.088565394, 0.1337603, 0.08883126, 0.029482828, -0.10115553, -0.04149798, -0.08943927, 0.16656485, -0.040499877, 0.067633644, 0.07481216, 0.19929087, 0.07025676, 0.05048215, 0.026474277, 0.052365087, -0.11536287, 0.03240561, -0.08737377, -0.08187599, -0.12334742, -0.06743734, -0.09788842, 0.05840526, -0.024174761, -0.041197076, -0.1133321, -3.4040753e-05, -0.0056743333, -0.038123634, 0.081012234, 0.001666277, -0.08006807, 0.2780374, 0.14254536, 0.091804005, 0.24375853, 0.069116585, 0.01717866, -0.1442908, 0.14494853, -0.16098185, 0.10922096, 0.07545859, 0.008781161, -0.03724846, -0.12644759, -0.016741121, 0.03275538, 0.11197055, -0.010649305, 0.031900425, -0.10951753, -0.087002315, -0.0051335236, 0.08599559, -0.089196935, -0.076982886, -0.09021101, -0.0009431362, -0.058864444, 0.018052792, 0.021626147, -0.046227813, -0.024452364, -0.04697541, 0.036594678, -0.015111997, -0.027299594, -0.055192664, -0.035635374, 0.118365504, -0.17906903, -0.05601264, -0.032944486, -0.0099355215, -0.04320439, -0.094442256, -0.008921005, 0.04797731, 0.025667828, -0.084866256, 0.12676573, 0.17549795, -0.07042645, -0.046406757, 0.0818613, -0.032764234, 0.10097121, 0.070370324, -0.18176089, 0.0031379634, -0.15343773, -0.06853808, -0.042381875, 0.026729265, 0.1293617, -0.06972841, 0.038143896, -0.09178697, 0.059088517, 0.05153938, -0.020747773, 0.1273859, -0.046967424, 0.027401183, 0.0028938542, 0.03653906, 0.030876886, -0.006216257, -0.008389086, -0.064849146, -0.012893635, 0.0074553164, -0.0072114835, -0.12872998, -0.13219006, -0.082498, -0.08729399, -0.045562517, 0.038467508, 0.12418979, 0.047974132, 0.10224699, 0.10656113, 0.07351743, 0.083617814, 0.0240407, -0.09246989, 0.0039199023, 0.0037667665, -0.0050301836, -0.0295356, 0.06993426, 0.060797583, 0.04665265, 0.054794475, -0.009992012, -0.23199919, -0.0056618424, 0.0066679753, 0.085694715, 0.014013065, 0.04198667, -0.06560423, 0.0839113, -0.0053045414, 0.083537385, -0.03424175, 0.0052600964, -0.0062702363, 0.075305246, 0.028985288, 0.048582803, 0.046415906, 0.03419823, -0.032317135, -0.003578022, -0.09147863, -0.05645912, 0.08960794, 0.0059696734, 0.033117916, 0.04706912, -0.03336933, -0.06272415, 0.024320858, 0.027360044, -0.049697436, 0.10475435, 0.080192015, 0.13973604, 0.16318123, 0.016548011, 0.051845305, 0.0116297025, -0.042621717, -0.017765826, 0.06869003, -0.07743141, -0.13998134, 0.16424234, -0.11038493, -0.26535502, -0.04489491, 0.03618652, -0.04084519, 0.089530535, -0.020024585, 0.10905269, 0.06699915, 0.0058441553, 0.06658743, -0.11070508, 0.056761377, -0.05199719, 0.089108855, 0.11550612, 0.04895948, 0.010518194, -0.07407535, -0.10635218, 0.021089906, 0.059328314, 0.042732287, -0.040442567, -0.033512417, -0.0103905285, 0.031522498, -0.040081397, 0.009841885, -0.035525676, -0.11063021, -0.016471663, -0.010307708, -0.07667916, -0.048156504, 0.01775096, -0.098616056, 0.034830034, -0.006380202, -0.08796566, 0.018333426, -0.14347965, 0.048439167, -0.09061357, 0.0667209, 0.0015039132, 0.10709916, 0.0053007216, -0.024637084, 0.114032365, -0.015041764, 0.041227974, 0.123178795, 0.20243321, 0.09067928, -0.1607707, -0.036448415, 0.09859471, 0.018609341, -0.09533198, -0.11811173, -0.054543443, -0.11820787, -0.032822467, 0.09448056, -0.08825998, 0.017564803, -0.0119427135, -0.06284648, 0.1524309, -0.0058127563, 0.109512836, 0.0028518478, 0.10695832, 0.07207668, -0.11739589, -0.026142513, -0.19570474, -0.081393264, -0.05875825, -0.052332792, 0.046465836, -0.025574729, 0.06268317, -0.020710303, -0.015239016, 0.20975277, -0.023430176, -0.020298867, -0.11171811, 0.22143672, 0.08024689, 0.04334393, -0.086083494, -0.21555558, -0.03399326, 0.0108086085, -0.10103154, -0.102343425, -0.052622747, -0.1899489, -0.017449088, -0.043916415, 0.03218674, 0.0047412366, 0.021272104, -0.044956278, -0.019841028, -0.08510503, -0.03729675, -0.07597671, -0.026474975, -0.14458163, -0.16998091, -0.04013773, 0.063339256, 0.17141995, 0.04273469, 0.09596885, 0.07280429, -0.0060161264, 0.09134273, 0.0149999885, -0.08034808, -0.09705131, 0.0703859, 0.06680829, 0.08279651, 0.16175514, 0.1643411, 0.11261004, -0.08342242, 0.02490921, -0.066701084, -0.023808869, -0.01635858, 0.06264135, -0.07383528, -0.06549794, -0.097900085, 0.08762662, 0.081047036, -0.0062538134, 0.1204077, 0.00941617, -0.15792777, -0.1783196, -0.123613864, 0.035917558, -0.023970515, -0.05054267, 0.015794868, 0.027797466, 0.11480901, -0.15660252, 0.24630268, 0.028538592, 0.043814138, 0.06763395, 0.025786167, 0.06619557, 0.04330926, -0.043238275, -0.023210162, -0.13524322, 0.12604758, 0.00021405183, 0.03292328, 0.06670568, 0.06086288, 0.059427626, -0.032151412, 0.10892693, -0.011690147, 0.12504232, -0.060295563, 0.19257443, 0.03221142, 0.10852231, 0.060761593, 0.0375479, -0.021629607, -0.023267547, -0.07639279, 0.08073088, -0.03919396, 0.03816885, -0.03146484, -0.10163352, 0.057878524, -0.046882924, 0.06180984, -0.09753353, -0.08238846, 0.061131395, -0.08104506, -0.043348406, -0.0810367, 0.098639295, 0.0068020206, 0.02912735, 0.08037706, -0.13648348, -0.0149208, 0.01310999, 0.1432236, 0.055233505, 0.16746165, 0.07501083, 0.12476466, -0.020327695, -0.04387378, -0.10479324, -0.04626359, -0.10563256, -0.04677462, 0.25511208, 0.08850394, 0.13030928, 0.03489254, -0.088810824, -0.029740253, -0.037546415, 0.045151927, -0.031777225, 0.010899867, 0.15001015, 0.058098737, 0.015602943, -0.059964903, 0.037230723, -0.06277452, -0.0044882647, 0.14569545, 0.06155981, 0.04454155, -0.052879773, -0.021314844, 0.13762678, 0.07947982, -0.07584412, 0.04997418, 0.0030777892, -0.014871651, -0.16492371, 0.13367084, 0.031033881, -0.026362184, -0.015457449, 0.011217652, -0.0001935659, -0.03182148, -0.09661256, 0.070614815, 0.0748315, 0.011794573, -0.041915055, -0.19901028, -0.115225166, -0.03450032, -0.03534807, 0.007974577, 0.044725258, -0.020250048, -0.02713744, 0.14317836, 0.10758741, 0.022311542, -0.0009084192, -0.1006594, -0.12459867, 0.104424156, 0.050761033, 0.05553495, 0.19187531, -0.037506558, 0.09404073, 0.010765054, 0.012532587, 0.04207984, 0.04232261, -0.03280833, 0.05948183, -0.044920452, 0.058543913, 0.028129896, -0.018058546, 0.008896943, 0.022526285, 0.041213445, 0.045119785, 0.118005894, 0.09575316, 0.0515781, -0.036347695, 0.1096966, -0.011990621, 0.07819651, 0.071194775, 0.035934098, 0.018268324, 0.0578672, 0.016000105, -0.08108643, 0.01754445, 0.11190171, 0.030415023, 0.16515654, 0.025304694, 0.19719477, -0.034457907, 0.015197386, 0.034230668, -0.029334757, 0.04952103, -0.037570465, 0.021355014, 0.010321592, 0.10670335, 0.0064826673, -0.053466275, -0.00015701346, -0.02536416, 0.034424968, -0.14396587, -0.058060076, -0.059228, -0.07177149, -0.116524324, -0.060665127, -0.031001654, -0.056057688, 0.06360045, -0.07578154, 0.086736836, -0.026037993, -0.0507511, 0.07985617, 0.06793797, -0.07459438, -0.086128436, 0.12910186, 0.14553517, -0.11869907, 0.057019453, 0.03945351, 0.33203807, -0.026726162, 0.06332675, -0.0076557156, -0.08808594, 0.05715258, 0.054503758, 0.03031324, -0.096717745, 0.052603517, -0.04656524, 0.011972669, -0.19569206, -0.06351913, 0.043088958, 0.053053264, 0.03997596, -0.07681777, -0.22607248, -0.041865844, -0.019494165, -0.003838552, 0.022232935, 0.027108943, -0.050282825, -0.07192639, 0.038194347, -0.1825967, -0.0128567815, 0.01541144, -0.059078712, 0.09210986, -0.07551676, -0.07669103, -0.004358584, -0.030527588, -0.039454605, 0.13982746, 0.2901499, 0.17467098, 0.19791314, -0.019651646, -0.04510199, 0.054684624, 0.111344256, 0.079367325, -0.104773216, -0.003929985, -0.023395497, -0.021058839, 0.1954577, -0.047134165, -0.039558496, -0.012074623, 0.11756987, -0.033056498, -0.0016361808, -0.0015289361, -0.10205993, 0.028129142, -0.101398416, 0.04236628, -0.025168926, 0.045526963, -0.03573266, 0.11410106, -0.026640542, 0.12917475, 0.076339655, -0.071622886, -0.005055324, 0.046225075, -0.0708228, 0.04906608, -0.056254555, 0.11516095, 0.04397447, 0.042381804, 0.07466613, -0.024325177, 0.04490108, -0.015851058, 0.033455137, 0.059607305, -0.007834426, -0.10780164, 0.08387807, -0.19934095, -0.31612906, 0.08688385, -0.06683289, 0.062443223, 0.0815207, -0.062901996, 0.02031229, 0.13136561, -0.027880723, 0.090855844, 0.0465984, -0.14671247, 0.1611891, -0.08760259, -0.009381654, -0.10412414, -0.012343453, -0.08417506, 0.02143487, -0.2584754, -0.2030873, -0.082995936, -0.041170757, 0.057139296, -0.01770146, -0.07315559, -0.081244685, 0.08535847, -0.1479897, -0.025732674, -0.04721671, 0.15709133, -0.07280787, 0.12046861, 0.04755772, -0.1392665, 0.032148667, -0.0025354596, -0.10584641, 0.107334696, 0.18824817, 0.0667317, -0.105005294, 0.06605468, 0.017503124, 0.082082205, -0.0012696834, 0.0024018413, -0.031102784, -0.0135336965, 0.024067368, 0.11170416, -0.09370055, -0.07295076, 0.022228306, -0.03847451, -0.0768198, 0.043602336, -0.082796544, 0.0015659537, 0.05840173, -0.005546673, 0.027731016, -0.025844248, -0.0052353134, 0.14195283, -0.059887484, 0.0391114, 0.08912254, -0.0849606, 0.06807196, -0.12999102, -0.0221837, -0.027537853, -0.10764185, 0.006179421, 0.0033876356, 0.03324145, 0.09005842, -0.07360843, -0.11044132, -0.013369467, -0.021765815, 0.039336246, -0.061924495, -0.16316094, -0.05267988, 0.12570435, -0.073902905, -0.03864436, 0.018824985, 0.08466633, 0.09877718, 0.09798411, -0.03972084, 0.07882538, 0.16919197, 0.07369069, 0.006806631, 0.021445073, 0.085668735, -0.048789635, -0.0070728734, 0.00979394, 0.08686925, -0.0073816376, 0.025398776, -0.04015573, -0.07937762, 0.074079596, -0.066864684, -0.015227748, -0.018478913, 8.304293e-05, 0.049535863, 0.03149459, 0.014127362, 0.118473, 0.08011262, -0.053695112, -0.08042411, -0.08179649, 0.03241087, 0.070155874, 0.009922258, 0.1114933, -0.0385415, 0.07675998, -0.07537357, -0.009739828, -0.109723985, -0.05418347, -0.04285124, -0.063493975, 0.082941964, -0.056719597, -0.00091795466, 0.112401105, 0.0162577, -0.008661589, -0.037721664, -0.0008907875, 0.0851094, 0.0227617, 0.035172366, -0.13149996, -0.2520324, -0.2458796, 0.019915743, 0.06650378, 0.061325155, -0.022276586, -0.028885426, 0.0111176735, 0.13934666, -0.08496335, -0.020518405, 0.15429504, 0.09738247, -0.03723329, 0.06298884, -0.06171752, -0.13122904, 0.11388953, -0.12992954, -0.103855364, -0.15089658, -0.0038675456, 0.02952417, 0.036550447, 0.06998776, -0.28586143, -0.113992, -0.026241614, -0.054546896, 0.05538047, 0.03511948, 0.04784262, 0.014768981, -0.1054623, -0.015975287, -0.0110533945, 0.035289034, 0.06131856, 0.0507934, -0.0846961, -0.19149241, -0.11507124, -0.15828812, -0.047604885, 0.04051024, 0.07569205, 0.040484738, -0.0714887, 0.17770888, -0.2365304, -0.1644058, -0.08288992, -0.10953047, 0.023943916, 0.09487792, -0.060324676, -0.08890145, 0.015836796, -0.10842758, -0.069632895, -0.08551572, 0.050099142, -0.10322185, -0.12131274, -0.07078875, -0.05635779, 0.062079865, -0.10132664, -0.06772941, -0.020381114, -0.07153525, 0.029528696, 0.050338853, 0.032275125, 0.042591598, -0.09483215, -0.11521572, 0.106777735, 0.30045527, -0.09109004, -0.0735518, 0.050122958, 0.08500718, -0.0023575898, -0.19160776, -0.052432094, 0.069927365, 0.114291444, -0.12582685, 0.07809064, 0.115345135, 0.011474972, -0.04781134, -0.16985738, -0.017831637, 0.059183348, -0.05111091, 0.09129689, -0.018130105, -0.0510399, -0.03984712, 0.057196777, -0.066598415, -0.08310227, 0.016447982, 0.054343402, -0.049773846, -0.0028101872, 0.038976815, 0.14423566, -0.055813424, 0.08163236, 0.026528258, -0.038708266, 0.0594367, 0.00017046678, 0.012264342, -0.011640452, 0.034573525, 0.09038764, 0.012599758, 0.13477167, 0.11106285, -0.004121025, 0.07149468, -0.016758444, -0.027485538, -0.047889967, -0.13678892, -0.06354207, 0.11571497, 0.028250255, -0.04000006, -0.022951012, 0.00024663992, 0.13524073, 0.06695427, -0.111250944, -0.046761613, -0.14524215, -0.1124692, 0.12227141, -0.20910802, 0.051742855, -0.15757626, 0.20059767, 0.0056904005, -0.06139458, -0.04674907, -0.043136843, 0.00025796142, -0.06595779, 0.014682952, -0.014602791, 0.01557226, -0.08401846, 0.096639305, 0.08315325, 0.061215624, -0.021992842, 0.16888303, -0.12378488, -0.02255328, 0.049146213, -0.048678286, -0.076447256, 0.049482424, 0.006590451, 0.019676367, -0.075168505, -0.017117761, -0.06326901, -0.008209993, -0.017684639, 0.11173712, 0.063701056, 0.07518017, 0.017196868, 0.038863912, 0.03873065, -0.034223028, -0.023673201, -0.01984642, -0.07832775, -0.08679388, -0.060955923, -0.03844967, 0.019377124, -0.083952874, 0.030315235, -0.043215755, 0.0046984423, 0.049535222, 0.0039567156, 0.043529138, 0.14918426, 0.053342506, -0.010023088, -0.16825175, 0.04871776, 0.07249575, -0.010297419, 0.12671746, 0.1820496, 0.13470231, 0.18884397, 0.27159044, 0.037249994, -0.02298742, -0.007230539, -0.045643073, -0.007688847, 0.042723924, -0.016859753, 0.0049746144, 0.04031633, 0.04952769, -0.03713583, 0.03875015, -0.031946328, -0.1046129, 0.11717895, 0.05265613, 0.07735352, -0.023738166, -0.13628191, 0.031417333, 0.216582, 0.020261923, -0.021391438, -0.11672202, -0.080437854, 0.045337003, 0.1338293, 0.03007169, -0.028537111, 0.03262754, 0.018334145, 0.06724755, -0.051715005, 0.22878215, 0.0865906, -0.012049634, 0.014930358, 0.043984324, 0.05223214, -0.014910103, -0.053814027, -0.072213836, -0.04814208, 0.056629006, 0.05201006, -0.004749193, -0.0046406016, 0.114928834, 0.032050807, -0.121031985, -0.18215603, 0.06579318, -0.078000516, 0.032830924, -0.04499025, 0.01870004, -0.0848364, -0.12932242, -0.01352541, -0.04215068, -0.060565397, 0.0041174185, -0.06964513, 0.0056020576, 0.04547748, -0.081757165, 0.036652476, -0.20461804, -0.1433118, -0.15407032, 0.037228774, 0.108991735, -0.13354816, -0.0054778866, -0.06398116, -0.08713586, 0.0058920216, -0.028034275, 0.09771971, 0.054939214, 0.06275428, 0.009198272, 0.014002188, 0.01279356, 0.08308365, -0.017885534, -0.056948025, -0.13790578, -0.030490758, -0.052767392, 0.15685487, 0.018971145, -0.020699004, 0.03895305, -0.17603289, 0.18590204, -0.07732661, 0.20108064, 0.05862513, 0.18322837, 0.007896099, -0.06742451, -0.03453496, -0.08336006, 0.021769445, 0.051110577, 0.011224635, 0.027244028, -0.26536214, -0.11793109, -0.21095748, -0.032857925, -0.010970494, -0.0023969407, 0.044149965, 0.10019669, 0.060790394, -0.036236737, 0.05002137, 0.012467695, -0.020738373, -0.084346205, -0.004964034, 0.008792642, -0.17309286, -0.16186568, -0.058276486, 0.03556542, -0.06530752, 0.051746238, -0.010487505, 0.054408163, -0.046210777, -0.02968328, -0.018304884, 0.06616633, -0.12845969, -0.020913452, 0.050950393, 0.107002065, -0.038672455, -0.09054848, -0.12150359, -0.051629536, -0.023845505, 0.14253816, -0.03280899, 0.076198846, -0.04906111, 0.08352131, -0.004814488, -0.046360582, 0.038691103, -0.017015085, 0.024021996, 0.07060003, -0.21434668, -0.05869088, -0.10586924, -0.0019668299, -0.044043064, -0.0038650676, -0.13053884, -0.014950851, -0.049241647, 0.17735183, -0.016908668, 0.003641061, 0.14314298, 0.07906129, 0.14313567, 0.09104173, 0.10307941, -0.038753595, 0.049927007, 0.02444852, 0.05245171, 0.013839087, -0.06564603, 0.037695482, -0.11115703, 0.06322935, -0.018975534, -0.07590063, -0.0014482709, 0.0016258156, 0.06545318, -0.03486411, 0.17621845, -0.020826606, -0.023982504, -0.06311432, 0.10034187, 0.07572246, -0.1833112, -0.018026184, -0.07639123, 0.0087614255, 0.08068821, 0.032150958, -0.13844435, 0.06760705, 0.030495478, 0.018432839, -0.1350078, -0.04413037, -0.008286411, -0.007295674, 0.06932048, 0.06283022, -0.15320885, -0.06076916, -0.1156242, 0.052166943, 0.069481134, 0.07799479, -0.016343545, -0.047437064, -0.08562199, -0.013729803, 0.04037315, 0.07308831, -0.09793854, 0.0342099, 0.031515505, -0.0035993657, -0.08651376, -0.23191683, -0.005947004, 0.03096472, -0.018703556, -0.110466905, -0.012787172, -0.0017730836, 0.0937236, 0.11391864, -0.0030566205, -0.0077349464, 0.10146684, -0.017206801, 0.07671247, 0.016505418, -0.016617062, 0.038315028, -0.0017034427, -0.06990961, 0.033878606, 0.093843475, -0.02389925, -0.19957574, 0.12114494, 0.0016457613, 0.04777521, 0.017341211, -0.08506472, -0.09497197, 0.009504361, -0.17008659, 0.112966284, 0.0025454513, 0.0027951922, 0.03419903, 0.0022842255, 0.08479502, 0.084666595, -0.034089487, 0.0010497133, -0.045705575, -0.024894156, -0.021591052, -0.027105393, -0.021007406, -0.035074998, -0.024923628, 0.01835144, 0.067538135, -0.052780285, -0.07266336, 0.030689277, 0.0145224985, -0.010200985, 0.06283867, -0.04123034, 0.047573134, -0.106387675, 0.11334272, -0.11630703, -0.03252682, -0.093048684, -0.034787666, -0.17916763, -0.20823061, 0.08966124, -0.017882798, 0.070480675, 0.084667176, -0.038092315, -0.11031142, 0.014706703, -0.041961968, 0.035846334, 0.030950224, -0.03603439, 0.020476917, 0.061771557, 0.15603025, 0.009864882, 0.03509238, -0.07635942, -0.05283935, -0.0033815445, 0.07680585, 0.08559254, -0.051299334, 0.05209389, 0.23383762, -0.0119600175, -0.115298904, -0.0046667494, -0.0122022545, -0.13705368, -0.11305509, 0.1212893, 0.112558626, 0.10273088, 0.082721055, 0.17261766, -0.1594562, -0.14033486, 0.004883271, -0.0019469331, 0.22118786, 0.008919372, 0.1420289, -0.04620861, 0.06655781, 0.00015738736, -0.10898707, 0.052335232, 0.040717427, 0.0535141, 0.097772665, 0.045081437, 0.10391571, -0.054670233, 0.04229635, -0.07456044, -0.02674869, -0.11460147, 0.031642634, 0.010835782, 0.01685303, 0.08857298, 0.061714616, -0.07861834, -0.12078162, -0.06430983, -0.059105154, 0.045268435, 0.009595446, -0.011056294, -0.0045214472, 0.015243231, -0.0667155, 0.15935503, 0.08053918, 0.018194193, -0.13346303, -0.008573411, 0.080488496, -0.02811067, 0.07441754, -0.083798096, 0.010501589, -0.07814194, 0.05516904, -0.05368972, 0.10805162, 0.0951511, 0.07154455, 0.049815495, 0.11444168, 0.041340277, -0.04967382, -0.048012957, -0.03049402, -0.010453659, 0.08611822, 0.08418951, -0.06597338, -0.12773213, -0.04769874, 0.09722635, -0.027785605, 0.0024882166, 0.0034104658, 0.062048458, 0.036416512, 0.052665036, 0.03219586, 0.073206656, 0.01669401, 0.14519337, 0.08012162, -0.12602022, -0.1213708, -0.05465792, -0.11706883, 0.041565523, -0.032705538, -0.014567489, -0.020731293, -0.2806457, 0.14874369, -0.017085852, -0.11335404, 0.04949757, 0.019650334, -0.014501158, 0.07252174, 0.010618196, 0.004567853, -0.06104886, 0.0880491, 0.07715513, 0.14627999, -0.07279938, 0.027673958, -0.052876938, -0.07431627, 0.016862866, 0.10530339, -0.060305137, 0.110343225, -0.17285277, -0.02048566, 0.0030421433, 0.0025151258, -0.043831553, -0.035997815, 0.017494628, -0.011729082, -0.08874907, -0.07172708, 0.08959067, 0.034198537, 0.15564106, 0.016575936, 0.08119972, -0.02812695, 0.021295384, 0.044159677, -0.09454868, -0.09689386, 0.08905493, 0.0107849315, 0.09456161, 0.019567734, -0.021949548, -0.017962223, -0.00060964556, 0.120629445, -0.022386128, 0.06408866, -0.020378722, 0.093744434, -0.01336838, -0.019122493, 0.0670357, 0.024016704, 0.0707386, 0.1005068, -0.04276818, 0.060079094, 0.031593885, -0.1542397, -0.039729044, -0.028662842, -0.007207515, 0.0376044, 0.061598703, -0.2695824, 0.055683196, -0.19790259, -0.04368358, 0.007723069, -0.006759974, -0.0010955853, -0.09388829, -0.096577235, -0.04775026, -0.07558853, 0.10427663, 0.12404253, -0.16657965, 0.015465021, -0.030015046, 0.03238174, 0.05156844, -0.006263618, 0.04070076, -0.04277482, 0.11233236, 0.019985138, 0.10477364, 0.09333677, -0.027130766, -0.032629825, 0.015920194, 0.042134892, 0.09943756, 0.07262865, 0.032486655, -0.007228859, 0.021598395, 0.016468253, 0.0607882, 0.07718646, 0.13769981, -0.012330967, -0.024289563, 0.04191618, -0.0027801609, 0.017765896, -0.016207986, -0.06349531, -0.10188325, 0.013163865, 0.04089592, -0.07863167, 0.11361769, -0.08007148, 0.0786036, -0.0014585264, -0.14622743, -0.052017197, -0.03190825, 0.011268768, -0.03135033, -0.0010704381, 0.015219562, -0.1274869, -0.033553198, -0.11134726, 0.046795573, -0.13883772, 0.011285362, -0.11538376, 0.116396524, -0.13196643, -0.031177344, 0.02101919, -0.008772727, -0.10956881, -0.037902642, -0.04564419, -0.07181432, -0.04811803, -0.06089764, -0.088836335, -0.083540544, -0.082202025, 0.082053624, 0.03715235, 0.001663315, -0.029332165, 0.011642447, -0.023239836, 0.085110694, 0.14704977, 0.08365661, 0.05877852, 0.09542167, -0.08627017, -0.0033250647, -0.04422686, -0.13079529, -0.12985922, 0.17867753, -0.044278074, -0.10464572, -0.18659037, 0.044764034, 0.1742251, -0.028093297, 0.08514711, -0.08781705, -0.11120719, 0.04285456, -0.0040658717, 0.008598902, 0.079725824, 0.015974317, -0.061723538, 0.03729293, 0.0016065252, 0.061867826, 0.062494572, 0.084064655, 0.093228444, 0.026987568, -0.09795404, -0.24088278, -0.13871674, 0.007234271, -0.03772828, -0.03275976, 0.082761385, -0.086609066, 0.099598765, 0.05021769, 0.04107924, -0.12284581, 0.057355475, -0.04449033, 0.117400825, 0.037644114, -0.020862784, 0.017017433, -0.040839862, -0.0470143, 0.010531134, 0.20307657, 0.02049445, 0.021151384, 0.09969662, -0.031680785, 0.02258927, -0.07448423, -0.0023469264, -0.06776032, -0.10438925, -0.02659643, 0.1418303, 0.044875644, 0.035106387, -0.14863965, 0.07109293, 0.04924974, 0.23961267, 0.03209914, -0.016711699, 0.05194551, -0.07582377, 0.015312187, 0.0626916, -0.025645033, 0.0683377, -0.0964918, -0.010423337, 0.17911893, 0.16477758, 0.001790153, -0.031088043, -0.051544502, -0.0007899833, 0.15405452, 0.15083638, -0.21080236, -0.017534364, 0.08142319, -0.025439018, -0.0081866, 0.0034688162, 0.09280647, -0.06399926, -0.030703282, 0.0070929057, -0.09793315, 0.09009269, 0.03578577, -0.06402191, 0.06685569, 0.012429798, 0.14376326, -0.016057407, 0.07830843, -0.010645225, 0.036701802, -0.14766432, 0.063573174, -0.011758757, 0.26739538, -0.032542944, -0.07151397, 0.011304276, 0.02105846, -0.106751055, 0.09192594, 0.1422074, 0.121922806, -0.01775777, -0.03962731, 0.10284435, -0.032266647, -0.06463795, -0.015929557, -0.04129715, 0.098548986, 0.034687247, -0.17573476, 0.14933342, -0.11813622, 0.098106585, 0.04558211, -0.08250422, -0.0979858, -0.18975343, -0.03352989, 0.056810915, -0.1843864, -0.14390543, 0.102294676, -0.050790556, 0.0128309885, -0.037044387, 0.010960494, -0.012057842, 0.017912189, -0.05867833, 0.051353656, -0.0054016616, -0.11222705, -0.13024746, -0.038213212, 0.12897393, -0.027058085, 0.008741679, 0.08735177, -0.0130774, 0.04004695, -0.052281756, -0.04946163, -0.000635907, -0.01958954, -0.010502016, -0.0423229, -0.20398508, -0.11788503, -0.051746055, -0.0079953745, 0.017502066, -0.017779214, 0.10718679, -0.04042013, 0.00060480286, 0.063842125, 0.025459845, -0.021311505, 0.015067422, 0.026386881, 0.15385082, -0.03704331, -0.01941663, 0.002524955, 0.0026251485, 0.057460524, 0.014667601, 0.015180978, -0.040428888, -0.062551506, 0.06427156, 0.031042038, -0.06801937, 0.0032092254, 0.06949468, 0.020620242, 0.083626375, -0.049598813, -0.032174602, -0.03894171, 0.000287485, -0.1804232, -0.03637572, -0.15482701, 0.00078401755, 0.006613442, 0.017723648, -0.068056226, -0.08408309, -0.13798654, -0.0063422057, 0.089564584, 0.033916917, 0.055470612, -0.027864585, 0.12766226, 0.061737545, 0.010802425, -0.14649236, -0.020966914, -0.1275738, 0.089571275, 0.068108246, 0.058363296, 0.050682116, 0.073244065, 0.2760774, -0.15304765, -0.040304676, 0.21214287, 0.14571266, 0.10855952, 0.011954707, 0.052042134, -0.020912478, -0.01908785, 0.0092448145, 0.09349643, 0.11495578, 0.025648236, -0.005153194, 0.18645993, 0.01333799, -0.044011828, 0.0067317993, 0.15953194, 0.19530505, 0.12995605, 0.1035408, -0.13096434, -0.03022903, 0.0619432, 0.12779033, -0.0084276395, 0.02865033, -0.0053045144, 0.07385275, 0.06553715, -0.02944305, 0.062706105, 0.06360817, -0.08346627, -0.036464207, -0.18016925, -0.08259404, 0.06785676, 0.18094423, 0.059679534, 0.053986315, 0.12140128, 0.052625112, 0.110926434, -0.030786814, -0.009301674, 0.027383473, -0.06486044, 0.15857176, 0.07829821, -0.010106983, 0.103011094, 0.055958234, 0.095259555, 0.00952693, -0.02298833, -0.038673036, -0.028188042, -0.14506198, -0.16310239, -0.116153, -0.050102048, 0.050273295, 0.041035485, 0.06789907, -0.06878085, 0.12888338, 0.011813044, 0.08650277, -0.012854083, 0.06829919, -0.016925696, 0.055054475, 0.0603145, -0.048786473, 0.05138931, 0.020172944, 0.26131332, 0.188235, 0.1963627, 0.05637863, 0.038652465, 0.0042254734, 0.065854006, -0.13841039, 0.11355516, 0.030140502, -0.018113982, -0.10637596, 0.004286083, 0.046137474, 0.04832185, 0.11306699, 0.083824776, -0.13409598, -0.0410256, -0.15867107, -0.015399079, -0.11227168, 0.018821862, -0.11743924, -0.073969975, 0.038386725, 0.07569359, -0.026020616, -0.04670105, 0.11263223, 0.20082009, 0.056360442, -0.042116504, -0.081988394, 0.029939024, 0.13714762, -0.062775366, -0.11474661, 0.21626565, 0.04879895, 0.009940988, 0.09413452, 0.07307455, -0.074242614, 0.06513065, -0.020287115, -0.013735921, 0.0039409287, -0.05483426, -0.07826663, 0.15608, 0.1589574, 0.020777836, -0.007567958, 0.020466521, -0.038019296, -0.083163746, -0.0043193814, 0.075533696, -0.056717154, -0.16789916, 0.07298003, 0.036101315, 0.09823992, -0.018652914, -0.004169771, -0.041797657, 0.01718459, 0.04072256, 0.018864563, 0.20172042, 0.048704404, -0.001769653, -0.04158593, 0.008519539, -0.06659735, 0.08501158, -0.039910927, 0.00869285, -0.016907353, 0.07903962, -0.06562822, 0.027863272, -0.07975237, 0.15453292, 0.040994544, 0.0046946867, -0.09090727, -0.16309124, 0.008267702, 0.23345727, 0.022890229, -0.0044858432, 0.023784064, 0.0036519342, -0.09774279, -0.0001683525, -0.16136645, 0.003958552, -0.009552204, -0.016586034, 0.034676615, 0.016995953, 0.055501923, 0.044759538, 0.062190767, 0.045284785, 0.040169567, 0.034650587, -0.014914267, -0.026081437, 0.041417237, 0.0035238673, 0.0017569364, -0.01227468, 0.049044747, -0.027304739, 0.05162669, 0.01472079, 0.067639545, 0.08607094, 0.026312394, 0.023029564, 0.03467406, 0.094225615, 0.087261766, -0.103131555, -0.03765402, 0.140341, -0.000101756625, -0.17522152, -0.1746786, 0.004552453, -0.01566152, 0.00025307975, -0.1145142, 0.009567361, -0.08302497, -0.035388123, 0.065361366, -0.018372282, -0.028357498, -0.016587596, -0.010186803, 0.12705788, 0.18973516, 0.06280788, 0.25616118, -0.075453304, 0.025199676, -0.06021385, -0.013989632, -0.024790604, 0.023319142, 0.058175407, -0.018161546, 0.027865306, -0.06880262, 0.027974136, -0.041968327, -0.05037468, 0.03306947, 0.03029232, 0.09481711, -0.0013460957, -0.044595003, -0.024427144, -0.048405718, -0.057228755, 0.032107104, 0.04240872, 0.09598802, 0.10949174, 0.001140672, -0.05843669, -0.008870313, -0.05750914, -0.045067143, -0.0601234, 0.07911632, 0.005171461, -0.05792563, 0.051407006, 0.035632033, 0.061716888, -0.0048491564, 0.10575024, -0.026054017, -0.0050435993, -0.049231246, 0.058608837, -0.047276683, 0.007798871, -0.037839185, 0.017563954, 0.061351355, 0.05261238, -0.121650636, -0.024345824, -0.09363805, 0.013283433, 0.083598405, 0.046176843, -0.083132096, 0.023766736, -0.11393971, 0.025018035, 0.069147915, 0.096285224, -0.11800752, 0.030105019, 0.041386012, -0.15816645, -0.070656955, 0.12411173, 0.15685835, 0.06191236, -0.071793236, 0.11195254, 0.23990798, -0.20879716, -0.055199973, -0.13464215, -0.03282467, 0.038991656, 0.044395845, -0.03939465, 0.06427816, -0.07938818, 0.1476139, -0.11237123, -0.045843802, 0.071361, 0.034285106, -0.005274526, -0.11503653, -0.16896239, 0.021992432, -0.057805564, 0.019652406, 0.008777021, 0.09388606, -0.1780372, -0.16570872, -0.038114093, 0.06783492, 0.024081586, 0.05004526, 0.012191136, -0.028135397, -0.12240395, -0.03984639, 0.06343651, -0.099353544, -0.03937319, 0.023796704, -0.14295542, -0.06344231, -0.11845938, -0.16556333, -0.025558002, -0.028191898, 0.005368476, 0.009206061, -0.055340968, 0.10958293, -0.0029886889, -0.017003136, -0.03062634, 0.032994367, 0.033526435, -0.055113092, -0.123975106, -0.0661683, 0.011896384, 0.138115, 0.050131157, -0.035756614, 0.018021924, 0.07926049, 0.08089785, -0.016507883, -0.08098853, 0.104986645, 0.0062359525, 0.07114799, -0.14750375, 0.16239156, 0.021599669, -0.014378809, 0.035286874, 0.030502908, 0.0054091425, -0.03778211, -0.08694924, -0.2821915, -0.03419181, 0.028177327, -0.035363134, 0.07925723, -0.024717497, 0.004208231, -0.105824836, 0.017424852, 0.17459455, 0.046114035, 0.05126501, -0.027817879, -0.15553363, 6.511851e-05, -0.06633716, 0.07747356, -0.0062081013, 0.022613497, -0.071025826, 0.0133441845, 0.026452921, -0.096594244, -0.090413146, 0.053995207, 0.0024151194, -0.040803816, 0.057914004, 0.025405053, -0.23196982, -0.10423388, -0.15881033, -0.037892178, 0.036399264, -0.035720803, 0.034095526, -0.027305422, 0.047439616, -0.0116936825, -0.057350945, 0.04883862, 0.29761654, -0.13377902, 0.07366488, 0.026885424, -0.00088395504, 0.008138462, -0.14631361, 0.0007437783, 0.090114474, 0.21802616, 0.28673872, 0.07226744, -0.09104176, -0.039856207, -0.010567285, -0.055769693, -0.09138067, 0.050802734, -0.043516226, 0.005050084, -0.04224197, 0.1094332, 0.04791968, -0.022228813, 0.064539835, 0.001353077, 0.027503563, 0.010044625, 0.00028010085, -0.06371306, -0.0078115338, 0.016212072, 0.11366479, -0.025961053, -0.02820782, 0.07660136, 0.074199304, 0.21872942, 0.037448525, 0.28835508, -0.054236803, 0.116862856, -0.027235484, 0.02869549, 0.024227895, -0.20464878, -0.016205128, -0.016303545, -0.09153094, -0.028605359, 0.05169208, 0.07578939, 0.038254578, 0.15789115, -0.067721315, -0.0005072047, 0.16148777, 0.37065312, -0.02097785, -0.024759883, 0.018110197, -0.057989035, 0.009432464, -0.0010821233, 0.026515951, -0.046554107, -0.2680027, -0.0642667, -0.10741457, -0.11400018, 0.006071611, 0.028135978, 0.058271132, -0.07760144, 0.03843034, 0.016946517, -0.06132932, 0.08175808, -0.059943892, 0.046962515, -0.11558532, -0.0029104273, -0.002628146, 0.09938889, -0.021459324, 0.07845405, -0.04599381, 0.031507198, -0.021400081, -0.13307942, -0.08922297, 0.08184563, -0.028969942, 0.12026642, 0.093816824, 0.0051449263, -0.04998633, 0.09917956, -0.00025213143, -0.13743392, 0.035964064, -0.030739553, 0.05736936, 0.11651965, 0.031157063, 0.14278133, -0.06190136, 0.04452772, 0.07422798, -0.08719425, 0.10614872, 0.11221706, 0.00044540255, -0.05431683, 0.062098373, 0.06377539, -0.038563065, 0.022925524, -0.011632273, 0.0468928, -0.029915316, 0.08419834, -0.04065601, -0.025665464, -0.15508553, 0.18668406, -0.3180241, -0.09048125, 0.091431014, 0.15137051, 0.0059499633, -0.010240359, 0.13367963, 0.0091494275, 0.0056264238, 0.11696165, -0.13373844, 0.02758879, 0.065118924, -0.00043971004, 0.06265332, 0.06874415, 0.02803733, 0.054200694, -0.009807353, 0.07930712, -0.0059010936, 0.042596813, -0.0742302, 0.02283543, -0.0031304639, 0.0477969, 0.0039324393, -0.03856799, 0.039667286, -0.0064720535, -0.009953726, -0.069709115, -0.17350616, -0.13903014, -0.012647622, 0.018046184, 0.053985856, -0.10354013, 0.23298617, 0.0083526615, -0.21722668, -0.20944774, 0.0229895, 0.097300954, -0.070662215, -0.019920956, 0.009585324, 0.021937726, -0.02239406, -0.0398724, 0.029014947, 0.20813453, 0.18495853, 0.24417251, -0.15237804, -0.0045155566, -0.031807214, -0.04394972, -0.015807599, -0.0033727903, -0.06757647, -0.02901883, -0.0901949, -0.05262755, -0.029120566, 0.06444494, -0.015043527, 0.20374127, -0.08487254, 0.05983185, -0.058228623, 0.079179056, -0.098365024, -0.06530486, -0.05878136, 0.05746436, 0.06466326, -0.025507264, -0.033045877, 0.028249873, 0.09339326, 0.052654564, -0.019969342, -0.031319257, 0.09900874, -0.012701116, 0.10905858, 0.12601154, -0.24860594, -0.012845307, 0.04675951, 0.039934386, -0.0031875148, 0.017772026, 0.0049519744, -0.07734351, 0.0068020625, 0.04740449, -0.13801935, -0.09932984, 0.116228215, 0.062554866, -0.041047763, 0.034476694, -0.042057324, 0.046361256, 0.021662157, -0.010131064, -0.18586582, 0.10478516, 0.22658516, 0.17888786, 0.006709676, 0.02492631, -0.0540634, 0.08340544, -0.11439291, 0.01989182, 0.016745836, 0.052557148, -0.1479736, -0.087550566, -0.0409585, -0.061485335, -0.18561251, -0.07613696, -0.07105135, -0.050678615, -0.046839785, 0.0074942484, 0.050120827, -0.010386406, -0.06999946, 0.03141428, -0.06664944, -0.082778074, 0.005429049, -0.04110417, 0.13365184, 0.08463681, -0.15257469, -0.08507995, -0.070701055, -0.0012018249, 0.035800975, -0.029774548, 0.045438014, -0.07110421, 0.08626594, -0.045754734, -0.052012116, 0.034595117, -0.026696596, -0.045753546, -0.053594176, -0.05397025, 0.056164503, -0.0059991786, 0.13274997, 0.071044, -0.08805014, 0.048536774, 0.034990985, -0.036181673, 0.03389164, -0.02489714, -0.2038493, -0.056505617, -0.15804979, -0.15347221, -0.057905182, -0.10591689, 0.039450344, 0.024128282, -0.034873907, -0.22394606, -0.11344577, 0.03581184, -0.0010313448, 0.09596481, 0.19434665, 0.09212526, 0.02589909, -0.0033825166, -0.020213904, 0.01278858, 0.10700283, 0.056633126, -0.113331765, -0.026226627, 0.021938398, -0.019809777, -0.022759696, 0.025743965, 0.19450489, 0.06474019, 0.05952782, 0.043133117, -0.017787635, -0.082226805, 0.0062414925, 0.00848083, -0.09607567, 0.041756622, 0.07648969, -0.0987843, 0.045126073, 0.0121078985, 0.029186975, 0.033973187, 0.024812106, -0.019573273, -0.033120252, -0.071916856, 0.08647714, -0.04666727, -0.054646637, 0.033364214, 0.02294332, 0.073251314, -0.12336133, -0.15269673, 0.11117916, 0.076730974, 0.03516329, -0.011654581, 0.13794936, 0.16372548, -0.086517364, -0.13531537, 0.027276369, 0.12606724, 0.04509229, 0.022101523, 0.088527836, -0.020016016, 0.017256383, 0.01170862, 0.065143704, 0.029200485, 0.006525039, 0.06393523, 0.07010489, -0.05426652, 0.039679244, -0.016759686, -0.02179484, 0.06147942, 0.123411365, -0.06173628, 0.04700653, 0.016589884, 0.085961305, 0.017370693, 0.1575259, 0.014188067, 0.08560102, -0.057127967, -0.038697522, 0.0007204008, -0.06546154, 0.043213554, 0.13227011, -0.05978314, -0.0018447028, -0.11056011, 0.00780354, -0.06492118, -0.07011388, -0.012071057, 0.12146546, 0.018312061, 0.06875968, 0.11700616, -0.014014121, 0.032388568, -0.011375779, -0.0012405704, -0.036754347, 0.037998978, 0.0059902123, -0.026422229, -0.063464396, -0.026224146, -0.012934014, 0.0030027544, 0.007519888, 0.028043645, -0.11889643, 0.046476014, 0.07517761, -0.07676973, 0.04571424, -0.031223582, 0.16992758, 0.17967498, -0.10623747, -0.06272204, 0.07318355, -0.056607574, 0.020378502, -0.0052846363, 0.013557766, -0.009094913, 0.122422725, 0.036149386, -0.06534406, -0.032425664, 0.028696537, 0.013926487, -0.11024684, 0.014553801, 0.11696504, 0.0051635792, -0.0178019, 0.031182881, 0.042390466, 0.0010370744, 0.00856046, -0.08505951, 0.18413389, 0.079562865, -0.055879742, -0.065302595, 0.07242922, -0.12810203, 0.02454291, -0.138811, -0.0022801834, -0.018822176, -0.070868686, 0.06352714, -0.06292795, 0.02894218, -0.18604279, 0.030405113, 0.14888191, 0.058052335, -0.0941009, 0.13317959, 0.068976365, -0.04259602, 0.10721115, 0.09875049, -0.13248147, -0.064724885, -0.1608908, -0.016378004, -0.003587715, 0.11843799, 0.08507451, -0.019773098, 0.036193494, 0.03407007, -0.23901373, -0.03821002, 0.06131183, -0.09953625, -0.04373373, 0.008739587, -0.01689461, -0.03513211, 0.04483035, 0.029125214, -0.035098378, 0.008346099, 0.17435026, -0.07256735, 0.14866963, 0.001422895, 0.047977094, 0.09051399, 0.0457503, -0.005137044, 0.03370818, -0.1021107, -0.03695157, 0.048654355, 0.033155236, -0.038512077, 0.07528023, -0.07246199, 0.046426084, -0.033367444, 0.06355773, 0.058346655, 0.13378428, 0.021267483, -0.0037587045, -0.15231729, 0.10737207, 0.02818762, -0.14685316, -0.042439543, -0.062020864, 0.10639347, 0.054057933, 0.17517692, -0.06385387, -0.06047529, 0.03925949, -0.009515637, -0.09169773, -0.0016055017, 0.039335765, 0.011645455, 0.031537656, -0.021010509, 0.053655095, 0.030858887, -0.026455164, 0.040160947, -0.024641128, -0.08067155, 0.061192326, 0.013273279, 0.003214252, 0.04149374, -0.115353554, -0.019824235, -0.012194447, 0.05115448, 0.035257768, 0.029445564, -0.1615713, -0.19133943, -0.09514725, 0.07957289, -0.008979977, 0.036904283, 0.040524404, -0.12888831, 0.1670547, 0.08623048, -0.025820589, -0.011653412, 0.0848453, 0.05070404, 0.040954527, -0.07792547, -0.016956847, 0.05822653, 0.09591361, 0.049443997, 0.035365, 0.09215781, -0.00922175, 0.06752694, -0.05781682, -0.084219255, 0.08868505, 0.008011204, -0.05702682, 0.06634452, -0.042476516, 0.06528912, -0.07931523, 0.15937887, -0.033111453, 0.049222898, 0.08002458, -0.0372668, 0.019796846, -0.017312426, -0.0046202983, 0.01965285, -0.026211932, 0.08572214, -0.021747697, 0.032283053, 0.0066986633, 0.059907988, 0.015999986, 0.05314796, -0.052475616, -0.029163076, 0.0945492, -0.036625735, -0.04635591, -0.0006450486, -0.051142655, -0.050088707, 0.022428187, 0.09896308, -0.16061564, -0.28720704, 0.145611, 0.1763969, -0.051087078, -0.037745144, 0.05798514, -0.061231542, 0.11511992, -0.03950173, 0.012648243, 0.01089498, 0.03225702, -0.013298254, -0.14099358, 0.06625271, 0.06616103, -0.11775161, 0.23467728, 0.12363191, 0.13959354, 0.022348385, 0.059581794, -0.033509336, -0.019503681, 0.09939003, -0.0020406079, 0.02812996, -0.21881326, 0.12955432, 0.12826855, -0.023244409, -0.008667712, 0.047758136, -0.1781208, 0.02985793, 0.20794632, 0.12880756, 0.11670766, 0.16124631, 0.17326887, 0.036927342, 0.032364566, -0.20515029, -0.06360231, 0.062306784, 0.05920157, 0.039852742, 0.08879314, 0.032023307, -0.05713553, 0.07980601, -0.031629313, -0.014319997, 0.057991363, 0.042550232, -0.015562726, -0.071707465, 0.047614813, 0.056125574, -0.14723143, -0.08942601, 0.025826832, -0.05009672, -0.086263716, -0.033428326, -0.10225725, 0.10552492, -0.09863129, -0.13094704, -0.020492084, -0.06797936, 0.05942002, 0.05858922, 0.009054817, -0.027819218, 0.04062688, -0.07196528, 0.20076703, 0.22576314, 0.17047736, 0.09900877, -0.009926784, 0.08362465, 0.071936026, -0.013562048, 0.092388354, -0.026591867, 0.023059025, 0.036335126, -0.017842425, 0.015816843, 0.058234207, -0.045997825, 0.03191293, 0.009593487, -0.006204967, 0.118332334, 0.06844087, 0.057459112, -0.014508632, 0.025340522, -0.029474081, -0.03392075, 0.1578292, -0.025578866, 0.11799417, 0.12593149, 0.16482034, -0.12638582, 0.06647005, 0.009463775, -0.06502466, 0.03223252, -0.043843586, -0.036391873, 0.05345711, 0.08098202, -0.0062004025, -0.08162627, 0.013352744, -0.020899024, 0.092003115, 0.00877868, 0.0046247374, -0.06118037, 0.061417148, 0.024724621, 0.2918296, 0.14457461, -0.07979868, -0.011399481, 0.0041393647, 0.09442863, -0.026383737, -0.018306658, 0.02404926, -0.05025668, 0.058471374, 0.05083644, -0.041694988, -0.04251883, 0.018661523, -0.05174968, 0.055586025, -0.08881371, 0.1294071, -0.004757783, 0.24015526, 0.22275586, 0.1581747, 0.035517924, -0.08622702, -0.0031076605, -0.03371575, -0.08133592, -0.053858478, -0.02471576, 0.05124865, 0.1398936, -0.037990984, 0.05517606, -0.1406728, -0.22039546, 0.07085275, -0.11724333, -0.056331817, -0.012551274, -0.24626982, -0.059237923, -0.025789361, 0.07999811, -0.012989002, 0.0473624, 0.04233641, -0.02992793, -0.07932576, -0.10616494, 0.08690167, 0.037875943, 0.092637815, 0.09739699, -0.028294405, -0.050622128, -0.086601004, 0.030166846, 0.012436112, -0.015082434, -0.07822555, -0.019668989, 0.03866229, -0.047045697, -0.026943197, -0.17753036, -0.12932913, -0.09219872, -0.038818937, 0.007957013, 0.06276869, -0.01136634, -0.0067582037, 0.015932806, 0.2307817, 0.21128404, -0.15524773, -0.090972155, 0.037396416, 0.097032525, -0.020168977, 0.043194234, 0.027808733, 0.0074325847, 0.022108788, 0.061551165, 0.031765535, -0.06583293, 0.006417009, 0.064753406, 0.076242365, 0.0077629774, -0.0051182136, -0.07948932, -0.022139713, 0.05305064, 0.08652863, 0.058984905, -0.08449323, -0.025637543, 0.01414115, 0.050271083, -0.016337097, 0.03427077, -0.12007519, 0.10121649, 0.034411885, -0.076433055, -0.046711925, -0.06322258, 0.00036868895, -0.06710482, 0.023197824, 0.030605044, 0.025391165, 0.062352944, 0.027000125, 0.015712451, -0.068736136, -0.0077491943, -0.012773937, 0.039068896, 0.11107563, -0.08309208, 0.09113438, 0.03276134, -0.03459109, -0.0812838, -0.16760686, 0.07632688, 0.26900107, 0.14401028, 0.22802219, -0.008517003, 0.038548123, -0.01966706, -0.0804522, 0.036911123, -0.08931173, 0.042339925, 0.009089597, 0.047808204, 0.008323343, -0.063636035, -0.083352886, 0.09690161, 0.08836625, 0.021415992, 0.1821903, -0.0060737766, 0.09674591, 0.0085486965, -0.048411515, 0.010656151, -0.04456219, 0.0013927991, 0.14441295, 0.024841584, -0.04297576, -0.007509691, -0.05249313, -0.055345707, 0.057318836, 0.044227194, -0.2023029, -0.04421944, -0.084867515, -0.07180591, -0.1215777, 0.11139279, 0.0022333777, -0.15636268, -0.01639603, -0.2169171, 0.0017958013, 0.10235636, -0.010982154, 0.032676674, 0.09758863, 0.01624089, -0.02497788, -0.06679545, 0.019206394, -0.01398163, 0.08165193, 0.014844889, 0.09587311, 0.106992, -0.009200043, 0.084205076, -0.040237583, -0.023673749, -0.027658757, 0.06212616, -0.10905199, -0.012737395, 0.044799834, 0.3477689, -0.07925964, -0.0063879103, 0.16485535, 0.007550129, 0.01714698, -0.023183474, -0.03190689, -0.018791474, 0.073906966, 0.08357207, -0.098308936, -0.03287724, -0.022437127, 0.14277516, -0.023375385, -0.002663516, -0.016972205, -0.057317235, 0.057838336, 0.08814195, 0.09810705, -0.02814501, -0.044592034, 0.0098712435, 0.0046199686, 0.04379221, -0.108020835, -0.27149865, 0.011143275, 0.0021602907, 0.007941462, 0.0142834755, -0.006848326, -0.03647605, -0.039654225, -0.03170327, 0.07043359, 0.18511379, -0.06516574, -0.053892612, -0.034216866, 0.0011776325, -0.024444003, 0.063737124, -0.077998206, -0.1113107, 0.019008392, -0.08326258, 0.036207296, -0.028573502, -0.064692214, -0.10465037, 0.083415836, 0.063151285, -0.10029398, 0.043436028, -0.28963768, -0.23207991, 0.04274758, -0.033794925, -0.0022260833, -0.07176926, 0.012406283, -0.04114406, 0.031073635, -0.03761005, 0.05418379, 0.009356207, -0.17111222, -0.0063503324, -0.056785215, -0.08726692, -0.0112925945, 0.00044708993, -0.062375452, -0.07031137, 0.11087861, 0.14317921, -0.041770298, 0.059757445, -0.021301702, -0.050791584, -0.012850575, 0.010886179, 0.10790358, -0.04990499, -0.030615497, -0.010988303, 0.29615137, 0.14050367, -0.09917691, -0.016746152, 0.20308419, 0.13573527, -0.112984955, -0.06861589, 0.037313428, -0.1171541, 0.17318729, -0.044236094, -0.015964245, 0.08489868, -0.023920331, 0.11358323, -0.043275345, -0.03240696, -0.052663814, -0.107798904, 0.04282394, 0.03718579, -0.015096465, 0.013714993, 0.040079974, -0.093152255, -0.0078129005, -0.18207031, -0.044449203, 0.052866336, -0.06700504, -0.004800273, 0.03665529, -0.043836385, 0.09624008, -0.07521319, 0.016486099, 0.043393143, 0.25234938, 0.033551667, -0.0081577655, 0.0028624348, 0.031816527, -0.02193974, 0.10662006, 0.045784384, 0.07840621, 0.2218031, 0.039048944, 0.013144979, -0.07298162, -0.17483151, -0.1307365, 0.04393357, 0.06560124, -0.03667097, 0.08456359, -0.10075479, 0.08570401, 0.0705376, -0.027512714, -0.03850304, 0.06474151, -0.025454096, -0.10793507, -0.15510073, -0.06713047, -0.16045816, -0.082163446, 0.04007077, -0.0058582933, 0.01711716, -0.027246658, 0.057976186, 0.03721593, 0.039477695, 0.056848813, 0.00982507, 0.0003346528, 0.013865141, 0.013591833, -0.054566897, 0.05957314, 0.080012605, 0.030717282, 0.024805592, 0.06373051, 0.056048017, 0.08943929, 0.117375225, -0.09920069, 0.052573185, -0.012368843, -0.012542775, -0.046573337, -0.07865342, 0.013221227, -0.002970346, -0.054184712, 0.079739496, -0.08030673, -0.09230124, -0.050832238, -0.17178008, -0.06878484, 0.029323632, 0.0085767135, 0.016957125, -0.0497624, 0.019142112, -0.051586505, 0.06279548, 0.07366961, -0.023076452, -0.09869805, -0.027210774, -0.14746451, -0.13679075, -0.022955792, -0.17142121, 0.043269336, -0.009295702, 0.021460976, -0.068209715, 0.09985351, -0.06938718, 0.13968231, 0.016744612, -0.020550465, 0.12102416, -0.0069610327, -0.0754772, 0.048083913, -0.12462543, 0.06797481, -0.0543636, 0.002527822, 0.05674918, -0.07989702, 0.020769732, 0.02560567, 0.17042264, -0.008859426, 0.015745714, -0.012238367, -0.0007511794, 0.070796765, 0.07881147, 0.020438436, 0.07278524, -0.06555165, 0.0291997, -0.07824376, -0.09978361, -0.041483194, 0.006151583, -0.035007257, 0.117389366, -0.0925236, -0.1235118, -0.060393542, -0.02989291, -0.059030812, -0.006738497, -0.035145286, 0.123401865, 0.111775964, -0.042225704, -0.09050831, 0.06604882, -0.032872576, -0.037345536, -0.07341638, -0.13500601, -0.017244166, -0.12403978, 0.013687404, -0.08310329, -0.0040906547, 0.070227474, 0.04392891, -0.0411333, -0.06508334, -0.06804597, -0.0133849485, 0.037502196, -0.043345224, 0.043703612, -0.01504203, 0.031717695, -0.0073171933, 0.06460932, 0.18745258, 0.14449552, -0.148638, 0.13433065, 0.005831097, 0.078489855, -0.032526717, -0.10111909, -0.053322498, -0.010330926, 0.06432065, -0.019266801, 0.12696303, -0.1520663, -0.056592915, 0.017737657, -0.010685835, -0.046122584, 0.028481275, -0.016374925, -0.015293278, 0.045402817, 0.018586585, -0.010243655, -0.068572596, 0.07111933, -0.014699197, 0.15178554, -0.11747513, -0.16366035, 0.051047377, -0.09275615, 0.1745181, -0.018717188, -0.04033701, -0.034269143, -0.00806731, 0.04097156, 0.10811702, 0.023553934, 0.019174347, -0.015070397, 0.08823913, -0.09051785, -0.09345991, -0.08782008, -0.17055291, 0.04157073, 0.006940396, -0.024973933, -0.08255414, 0.016557332, -0.048891447, 0.0041142073, -0.18137813, 0.09518613, 0.083623774, 0.014511309, -0.0660268, -0.07534561, 0.034281686, -0.07015299, -0.059850417, 0.02733876, 0.18367735, 0.106707, 0.16537334, -0.079273105, -0.13929535, -0.11614281, -0.052151367, 0.06253678, 0.062446237, -0.017175283, 0.11134849, 0.1087936, 0.029893141, 0.05337978, 0.03805028, -0.05002451, 0.012785442, -0.030289968, -0.008559178, 0.071079396, -0.0062214397, 0.02489285, -0.02495474, -0.03515773, -0.11252049, -0.010368267, 0.04087201, 0.05354709, -0.0102829775, -0.047129855, -0.021784447, 0.048073493, 0.049030814, 0.042215034, -0.04099635, 0.09179214, -0.056717712, -0.008350087, 0.0108868405, 0.1535449, -0.10981884, -0.08512372, 0.09067307, -0.0086994, -0.19494593, -0.043739434, -0.0098063275, -0.025151718, -0.07084038, -0.15987492, 0.02175092, 0.043130092, -0.027502874, 0.057817996, 0.02959323, 0.07525504, -0.061860498, -0.019481523, -0.13045013, -0.10564363, -0.07594027, 0.039082587, 0.038354184, -0.0028160736, -0.05919866, -0.08830673, -0.11914824, 0.019016318, -0.020779395, -0.0098737925, 0.10163223, 0.021732284, -0.0853267, -0.066989966, 0.014349855, 0.0045991405, 0.0036722259, -0.049442895, 0.04616598, -0.045954637, -0.021767078, 0.11400551, -0.08133203, 0.0031523975, -0.07572483, 0.060010478, 0.038748402, 0.10650452, -0.10440401, -0.04308828, -0.20775865, -0.048692863, -0.0009070431, -0.042947304, -0.025822768, -0.03276385, -0.050414473, -0.11175351, 0.0059933453, -0.16757247, -0.017112551, -0.10360798, -0.038081396, -0.15730543, 0.027363464, -0.04146331, 0.020087345, -0.1465152, 0.018956264, 0.0931853, -0.0055672126, 0.035266377, -0.00020428607, -0.03881823, 0.09433833, 0.06698934, -0.060514603, 0.05237163, 0.0982502, -0.035747655, -0.014678549, -0.02886763, -0.029559314, -0.05101528, 0.014097132, 0.15231813, -0.13273302, -0.016897392, -0.04080604, 0.07143189, 0.00824026, -0.08653686, 0.21030357, 0.065327555, 0.15241162, 0.16457716, 0.0017341173, -0.12522376, -0.023082074, 0.0023195068, 0.16696993, -0.010797645, 0.2055307, 0.07197774, 0.021950373, -0.07197666, 0.048619885, 0.053735975, 0.02781613, 0.05307622, -0.06570747, 0.054683466, 0.06263957, 0.031787828, 0.06103522, 0.09350102, 0.122588664, 0.050694644, 0.11442483, 0.045872398, -0.08750996, -0.013978576, -0.04606658, -0.003019777, 0.018659564, -0.122361176, -0.10755147, -8.074367e-05, -0.018687619, 0.0029506872, -0.031750478, 0.09456702, -0.030807868, -0.021828607, 0.03058996, 0.04009353, -0.032192826, 0.08060529, -0.015999958, 0.11810091, 0.08999438, 0.04716593, -0.0006744338, -0.010710836, 0.06206376, -0.05789774, -0.00093744695, 0.08152234, 0.14597376, 0.04555523, -0.07930902, -0.03816641, 0.021893846, 0.12367744, 0.03458467, -0.04648647, -0.034154452, -0.025417667, -0.0118877925, -0.076521255, 0.03484135, 0.10441051, -0.021200426, 0.030763948, 0.019189613, -0.049602173, -0.04290529, -0.010281628, -0.043635376, 0.12461498, -0.037249703, 0.12352304, 0.1347776, 0.23987691, 0.0101215225, -0.24634054, -0.035210013, 0.06391491, -0.00994389, -0.040057026, -0.047964245, -0.0637812, -0.114818186, 0.013786707, -0.2628731, -0.117983766, 0.012285138, -0.15349007, -0.02777748, 0.07019877, 0.02938364, -0.08968587, -0.049583185, 0.025320875, -0.06987083, 0.07540502, 0.09303755, 0.051201496, 0.037295196, 0.005155023, 0.002376882, 0.00028046936, 0.00038861873, -0.15518388, 0.1882948, 0.2257727, -0.064578824, -0.17682798, -0.02999735, 0.054291353, 0.083341114, 0.031973466, -0.050439525, 0.07621496, 0.09020886, -0.019491607, 0.24897759, 0.10419622, -0.19656368, -0.014415114, 0.10984275, -0.02162565, -0.14700527, 0.06802906, 0.027844109, 0.043199915, -0.07701122, 0.20626281, -0.08878226, -0.097970694, -0.04430914, -0.02864956, -0.07601198, 0.03788118, 0.05961221, -0.007668103, 0.08003269, -0.050444882, 0.11022384, 0.13472804, -0.01554361, 0.00858, 0.0061365035, 0.07313844, 0.09076833, 0.05258336, 0.021550387, -0.07981413, 0.050410904, -0.045060184, -0.10772446, -0.01673834, 0.02951453, -0.08765884, 0.086206734, -0.11279868, 0.010846537, -0.09577037, -0.01008467, 0.051002316, -0.08412546, -0.14220476, -0.09278832, -0.1609812, -0.024531085, 0.01081511, 0.08515586, -0.07211386, 0.04342266, -0.032466315, 0.019759344, 0.05241191, 0.10946638, 0.17148434, 0.14977138, -0.050030246, -0.018356612, -0.013057851, -0.017609905, 0.01818083, 0.022923285, -0.06666993, 0.04391646, 0.012503802, -0.041777514, -0.03314772, -0.0679776, -0.032463755, -0.058818106, -0.120258205, 0.0032166298, -0.024816323, 0.005202523, 0.1117083, -0.009392258, 0.013083154, -0.008288939, 0.05907646, 0.04614696, 0.024769153, -0.028251946, 0.08557551, -0.0035185989, -0.046725906, -0.08728986, 0.053139262, -0.0013348265, -0.012212429, 0.0063798814, 0.022510843, 0.060893565, -0.016329026, 0.21339026, 0.11787329, -0.22592647, -0.08757366, 0.31717435, -0.06466971, -0.1761641, -0.15473956, 0.010374404, -0.012557575, 0.13259128, 0.004633174, 0.021508044, 0.08554037, -0.039519507, 0.0078478865, -0.019737588, 0.050864514, -0.022891006, -0.012379201, -0.06749994, 0.049212623, 0.098553635, 0.10082766, -0.04837052, 0.01821247, 0.04452097, 0.009590622, 0.049446877, 0.06095056, -0.039793417, -0.08031043, -0.042499878, 0.023817224, -0.0002736935, 0.07787352, -0.104498245, -0.18337186, 0.08250765, 0.14463964, -0.027319646, 0.045072716, -0.051887214, -0.03205223, 0.028701378, 0.0071914876, 0.06973862, 0.028980551, 0.110922925, 0.021807907, 0.05813138, 0.0109223975, 0.0725861, 0.017978365, -0.0023248338, -0.039299283, 0.07010734, 0.030093616, -0.035415955, 0.042826813, 0.19042817, 0.032125127, -0.15731038, -0.1408141, 0.04219412, -0.10467857, 0.016380591, 0.057506666, 0.1453977, 0.20745005, 0.011811774, -0.03484126, -0.080555506, -0.022658668, -0.02361728, -0.059775386, -0.051398054, -0.050382998, 0.0055433935, 0.0034076031, 0.2520264, 0.24187309, 0.41582897, 0.16766234, 0.06678535, 0.022387195, -0.040970847, 0.026738692, -0.092157155, -0.061710842, 0.052249894, 0.016701087, 0.01366068, 0.030861568, 0.014143429, 0.054902993, -0.015608248, 0.005761347, -0.0027571232, 0.019531978, -0.07853578, 0.0017943458, 0.07206518, -0.07526538, -0.099604785, 0.046818126, 0.036214426, 0.05192504, 0.19546829, -0.07571436, 0.19601473, 0.025144007, -0.0098037375, 0.016676972, -0.036526635, -0.054370247, 0.095090136, -0.051507626, 0.013851461, -0.036093995, -0.0035675038, 0.0019350315, 0.108954385, 0.01853882, 0.018350378, -0.102176175, 0.052503753, 0.03831742, 0.033814162, -0.024648758, 0.02716932, 0.068864115, -0.05261008, -0.036470454, -0.05094641, 0.03240698, 0.07150181, 0.012471564, 0.08672297, -0.14190854, 0.10651363, 0.04782173, -0.110208675, 0.10270007, 0.04423069, -0.012610293, 0.07945372, -0.02004311, -0.23969702, -0.2876502, -0.033721175, -0.02951314, -0.055190727, -0.092768766, 0.093976796, -0.012575435, -0.030943625, 0.008650594, 0.031302128, 0.004037578, -0.26145107, -0.09262755, 0.06950994, -0.13778895, 0.0520112, 0.16026618, 0.049382508, 0.11004182, -0.09667765, 0.012912976, -0.010141179, 0.021247279, -0.019858878, -0.03230137, 0.02807022, 0.06326265, 0.015438845, -0.04747359, 0.05336143, 0.02332329, -0.00869466, -0.03854335, -0.03905009, 0.0070834504, 0.040875252, -0.076378316, -0.08103899, 0.02995357, -0.019623617, 0.007541022, 0.11035954, 0.015206328, 0.031310122, 0.13076895, -0.06333108, -0.0405421, 0.120428465, 0.060249638, 0.01868099, -0.04869446, -0.017818755, 0.06877252, -0.11554357, 0.03472336, 0.100052625, -0.10692511, 0.04084506, 0.08905154, 0.00900141, -0.062598914, 0.1256193, -0.0017199095, 0.065403394, -0.002648025, -0.06518258, 0.044762857, -0.008369966, 0.014211156, 0.013864573, 0.015039957, -0.08222053, -0.012962908, -0.050871123, -0.080737896, 0.097970024, 0.14272721, 0.123131506, 0.12328916, -0.098501414, 0.066854365, -0.119228534, -0.005846176, 0.008778418, 0.008932883, -0.049561217, -0.012477825, 0.06338003, 0.046460476, 0.078089915, -0.039129745, -0.0076851547, 0.08460225, -0.0010982897, 0.11584312, -0.0053304858, 0.018253122, -0.04461247, -0.041251913, 0.11779414, -0.03209557, 0.06243289, 0.018829124, -0.07182843, -0.07097017, 0.08517135, -0.018630804, -0.13604705, 0.23232813, 0.069053404, 0.026532462, -0.14715344, 0.039673116, -0.11453038, 0.0533306, 0.08349512, 0.06900219, -0.06724582, -0.08298853, 0.013117247, -0.020706221, -0.01926549, -0.08855792, 0.056312233, -0.028483653, 0.025004294, 0.08167025, -0.12073337, -0.0024844762, -0.1274914, -0.040767286, 0.030766536, -0.014589498, 0.041617576, 0.04156039, -0.2244595, -0.1079172, -0.29046205, -0.09552832, -0.014015209, -0.033881158, 2.6928474e-05, -0.07897822, -0.106729954, -0.08145909, -0.020123046, -0.2249716, 0.033291657, 0.06980862, 0.17752194, -0.008056246, -0.0028776587, -0.035177454, -0.03160679, 0.13910815, 0.09159663, -0.05396017, 0.027941087, -0.0041960934, -0.011265744, -0.038918845, -0.1230032, -0.0014889445, 0.11023248, -0.17109516, 0.07274489, 0.04922729, -0.26942843, -0.16874896, -0.049279884, 0.026412684, 0.049306914, 0.01738218, -0.02298585, -0.05004306, 0.17928709, 0.11892314, -0.08233571, -0.09797455, 0.05191141, -0.008292372, -0.06167157, -0.009597462, -0.042882834, 0.041070838, -0.056082256, 0.06322948, -0.086121775, -0.16993186, -0.05001533, -0.1717406, 0.07519463, 0.049542192, -0.007541195, 0.07418849, 0.008487307, 0.0015903879, 0.052105878, 0.014924203, -0.051695727, 0.009455995, 0.09772038, 0.04130713, -0.17181744, -0.039703377, 0.035205457, 0.024941761, 0.0023764565, -0.059560407, 0.13549098, -0.11843558, -0.039175145, 0.024254126, 0.03236115, 0.010337107, -0.118263625, -0.12306302, 0.0034806286, -0.042830996

};


#endif
