#ifndef FC2_H
#define FC2_H
// Header file of the 9-th layer of the model - The type of the layer is fc


float fc2_w[256][25] = {
	-0.19243926, 0.12470582, -0.103057034, 0.03578032, 0.019792143, 0.02186113, -0.19996832, 0.029162705, -0.22191206, 0.18957007, 0.18626283, 0.102550715, -0.10010751, 0.09705872, -0.037937485, -0.1316878, 0.11291249, 0.28952464, -0.19554748, -0.0785482, -0.20878547, 0.21155, 0.11533682, -0.019445384, -0.029900847, -0.034783553, -0.11025263, 0.042926867, 0.021429656, -0.15091729, 0.10029277, 0.24941349, -0.00041903462, 0.11790722, 0.11117271, -0.0778127, -0.18796346, -0.05323056, -0.086491406, 0.08658582, 0.1827162, -0.21328102, -0.2563412, 0.16028674, -0.013807947, 0.3064045, -0.10090459, -0.09683493, 0.0968463, -0.17914249, -0.043654703, -0.1200048, -0.00046485843, -0.19496037, 0.1259089, 0.11928845, -0.27188587, 0.013538703, -0.051919084, -0.031359535, 0.016547952, 0.15205047, 0.094683625, 0.027208937, 0.16888161, 0.063187815, 0.13037966, -0.37882423, -0.08021816, -0.0056459005, -0.018554091, 0.0118733235, -0.06333082, -0.13032375, 0.03504485, -0.16193359, 0.04683073, -0.106197655, 0.18356167, -0.0015459607, 0.20625065, 0.05880048, 0.10417239, -0.029144682, 0.25441113, 0.18394883, -0.04541444, -0.10665186, -0.21214405, 0.055318326, 0.16309114, -0.15448348, 0.16566236, 0.07616457, 0.03799601, 0.18718642, -0.034168474, 0.14460523, -0.06491863, -0.17031163, -0.30002177, -0.0056346315, 0.09143431, -0.036807366, -0.15180324, 0.18162633, 0.29353002, 0.4487205, -0.18105966, 0.20688172, -0.16949251, -0.0035349599, -0.23911275, -0.10610903, -0.12499418, 0.039209995, -0.069871426, -0.12417743, -0.10216218, -0.09709761, 0.08477188, 0.15172866, -0.07436996, 0.28546342, -0.16363698, -0.14395474, -0.051216524, -0.021466551, 0.1629643, -0.060381494, 0.03870521, 0.055650223, -0.044968255, -0.009458901, 0.21195944, 0.16140586, -0.03853415, 0.2567746, -0.19947724, -0.017964955, 0.052094474, 0.20610099, -0.14415422, -0.11374112, -0.07975212, 0.26835385, -0.17411411, -0.14710338, -0.20705856, -0.017442718, -0.27063903, -0.04828469, -0.03425685, -0.07254824, -0.06875249, 0.08833101, 0.28198823, 0.0177103, 0.09533475, 0.15491675, -0.038563844, 0.017730918, 0.06616373, 0.0036212567, -0.015468151, 0.066083185, -0.10321195, -0.048573982, 0.20244385, -0.06730876, 0.3565262, -0.014699969, 0.089614324, 0.19368665, -0.2751278, 0.011328019, -0.123667516, -0.11132025, 0.029111834, -0.109038055, -0.06504841, 0.22929415, 0.04383242, 0.0098936455, -0.1404594, -0.25220788, -0.0865431, 0.2226788, -0.05977872, -0.113007106, 0.014459616, -0.0044535566, -0.26718128, 0.0419211, -0.036759555, 0.26778957, -0.02053814, -0.17901868, -0.020722447, -0.048986215, -0.05173588, -0.04992598, -0.17902824, -0.040249847, -0.08294413, 0.1250321, 0.19698697, -0.060069762, 0.024610527, 0.029064633, -0.05307972, -0.1283187, 0.008760523, 0.0029890584, -0.055056494, -0.010849823, 0.306677, -0.09012502, -0.07219225, -0.0345431, 0.48288062, 0.017808778, -0.004153145, -0.24004577, -0.18868178, -0.04594301, -0.10440166, -0.071029305, 0.19607887, -0.07634659, -0.21730201, 0.2940123, -0.05558214, -0.023391277, 0.15806875, 0.061876815, -0.18083069, -0.028369546, -0.008178284, -0.2676728, 0.084174946, -0.0013072051, 0.13317564, 0.08262012, -0.038213838, 0.10733913, 0.040404703, -0.1214872, -0.017435458, 0.20430687, -0.034853153, 0.086096786, 0.009608294, 0.27456534, 0.16364866, 0.12822618, -0.1564949, 0.11094379, -0.025655136, 0.010007816, 0.10220973, -0.15507638, -0.0747154, -0.118951395, -0.054199953, 0.1362598, -0.2590298, 0.08104128, 0.1668957, 0.23030692, 0.09271345, -0.12104108, 0.15411298, 0.16894586, -0.07394221, 0.12849602, -0.2592194, -0.13624346, -0.22769082, 0.10834897, -0.07090871, 0.19421984, -0.12670705, 0.005458811, -0.1398565, -0.31029198, -0.06523275, 0.0034246666, 0.09821795, -0.024345817, 0.0911148, 0.080409445, -0.13364287, 0.24358743, -0.10649276, 0.22261958, 0.20241298, -0.1539717, 0.0081271855, -0.109719224, 0.11702177, -0.2506757, -0.17358403, -0.22435862, 0.1306455, -0.008847035, -0.28066513, -0.06897404, -0.1766885, -0.21549006, -0.015487727, -0.0663471, -0.009861095, 0.11122516, 0.19260643, 0.0126065295, 0.058935, -0.30856597, -0.05431949, -0.0361825, -0.02033168, -0.008882044, 0.046318315, -0.16391172, -0.13697931, -0.1850041, 0.026753789, 0.15202874, 0.09843547, -0.024616383, 0.17106718, -0.051990543, -0.13267556, 0.20225748, 0.3167902, 0.21934591, 0.03367531, -0.114485845, -0.067382485, 0.1097473, 0.06738001, 0.2827275, 0.11506935, -0.18440636, 0.01673621, 0.17330936, -0.0052405405, 0.17051645, -0.015274518, -0.02386423, -0.19872312, -0.0001841165, -0.0074751857, 0.047201354, -0.06211858, -0.12143172, 0.043266993, 0.09952067, 0.087482594, 0.142685, 0.094156966, 0.017104622, 0.07345247, 0.1758979, 0.16564125, 0.11242485, -0.20854124, 0.41617876, 0.033218883, 0.30264142, -0.13019204, 0.008877495, -0.09942772, 0.48932007, 0.045045156, 0.2032273, 0.18041402, -0.08142887, 0.08159299, 0.2378421, -0.23686561, -0.0013296523, 0.0016722976, 0.016615205, -0.13864572, -0.17562497, -0.07778278, 0.11582485, -0.11249826, -0.22468345, 0.040564522, -0.26843938, 0.14497073, 0.054088525, -0.109649226, -0.12857506, -0.12710632, -0.045806304, -0.105250515, 0.21213251, 0.009152981, -0.107129976, 0.15445276, -0.101627216, -0.07066503, 0.073203176, 0.15561242, 0.00780414, 0.11092992, -0.18099296, -0.074670985, -0.050375547, 0.17153105, -0.05025566, 0.117296524, 0.20713805, 0.22195356, -0.3600478, 0.12377587, 0.036023065, 0.19786356, -0.15148282, -0.15749715, 0.0045174514, 0.123887666, -0.27033067, -0.12823556, -0.13140713, 0.0022852947, 0.17007984, -0.056511965, 0.046816554, -0.012019232, 0.06762404, 0.07200433, 0.05627513, -0.02466375, 0.20904799, 0.025409434, 0.25115055, 0.37094206, -0.12532955, 0.060532123, 0.40111616, 0.115298524, 0.26415688, -0.18527253, -0.008331603, 0.09352144, 0.07852041, 0.09101387, -0.13559452, 0.046200234, 0.28559086, 0.19379988, 0.14007896, -0.29727516, -0.14542536, -0.12220215, 0.18499455, 0.3091736, -0.03466544, 0.11776548, 0.027780864, -0.17761175, 0.040956087, 0.20157225, 0.22052228, -0.044253405, 0.0077244844, 0.067266725, -0.14885537, -0.054975983, -0.23501545, 0.15839411, -0.09555222, 0.13398013, 0.026878418, -0.14546412, 0.25232017, -0.06941911, -0.29710147, -0.015575904, -0.03733802, -0.113853514, 0.0230928, 0.29664043, -0.022610055, 0.11239416, 0.24296878, -0.097191095, 0.057762597, 0.20793183, 0.073855676, -0.041693367, -0.3010439, 0.14151612, 0.021733755, 0.18358454, 0.068498954, -0.116746366, -0.017319543, 0.21755683, -0.09464923, -0.101189874, 0.12392372, 0.26086196, 0.04141571, 0.2920427, -0.014652139, -0.06423919, 0.15155964, -0.016035639, -0.115569234, 0.17578766, 0.11437615, -0.2355473, -0.0007455903, 0.15804632, 0.0065777875, 0.21335393, -0.05555843, 0.069707334, 0.23726973, -0.2043637, 0.00825335, -0.16431323, 0.114235, -0.18539585, -0.057084586, 0.21566932, -0.15759254, 0.2586811, -0.18401058, -0.05425503, 0.15419377, 0.0034613407, -0.26189905, 0.2069364, 0.021288518, 0.006681038, 0.19316919, -0.10008105, -0.2344976, 0.08585666, -0.10575013, 0.102423206, -0.17699341, 0.10308098, -0.15595233, 0.2023213, 0.07440004, 0.07267639, 0.14985378, -0.14049707, -0.19310941, 0.07353667, -0.35526258, 0.37061065, -0.046189904, 0.009950434, 0.12902138, 0.1863014, 0.014211589, -0.19064718, 0.07748216, 0.029977368, 0.17270842, 0.032246012, 0.10508061, 0.024804799, -0.45206073, 0.07678827, -0.116995454, 0.26755014, 0.16614293, 0.06628716, -0.011483, 0.24167968, 0.013406197, -0.13900319, -0.084950134, -0.059546545, 0.034303356, 0.111134924, 0.177174, 0.17063023, 0.19541605, -0.05425504, -0.008804694, 0.073689245, 0.26449588, 0.13451791, -0.0016063296, -0.041478746, 0.14294052, -0.12895754, 0.019583298, -0.0701439, 0.18238772, -0.04874942, -0.20182659, -0.122164324, 0.1563838, -0.027615137, -0.15702555, 0.36357835, 0.019622188, -0.14141907, 0.07069727, -0.09946384, -0.06159095, 0.08113357, -0.17534253, -0.059774287, 0.12048756, -0.045510113, -0.14217807, 0.12741756, -0.1837396, 0.27620137, -0.12367267, -0.07083962, -0.12836388, -0.014746416, 0.244924, 0.24268574, -0.046030853, -0.20549783, 0.021759083, -0.043715067, 0.024251167, 0.07192834, -0.078696236, -0.16596152, -0.1817491, -0.015551025, -0.1963632, 0.011899146, -0.05218915, -0.16321456, -0.121095, 0.16475965, -0.08419487, 0.0443281, -0.38450626, 0.10566358, 0.1094682, -0.0026636398, 0.07515865, 0.20248258, -0.09526695, -0.1774676, 0.009760075, 0.2858564, 0.024281852, -0.2331412, -0.12608662, -0.18580922, -0.023976726, -0.12080375, -0.22743529, 0.02527705, 0.12522791, -0.21658494, 0.0740458, -0.030463478, 0.17197742, 0.15413532, 0.13350226, 0.0188703, 0.091843836, 0.06703934, -0.028176425, -0.03582615, -0.1549875, 0.05091549, -0.16324247, 0.16515218, 0.100181215, 0.18312904, 0.025325319, 0.24045435, -0.30006137, 0.1908952, 0.11654381, 0.004881378, -0.10805681, -0.03231219, -0.015099678, -0.0013588539, -0.12634967, 0.10372829, -0.19775115, -0.13769348, -0.022986505, -0.0064499117, 0.07407784, -0.22035655, -0.105084814, -0.03287759, -0.0027179297, 0.26417655, -0.093724914, -0.16165948, -0.07628156, 0.09773661, 0.17170621, 0.122587904, -0.02233664, 0.078874156, -0.06891687, -0.060637012, 0.032267384, -0.037958942, 0.17761691, -0.011189061, -0.09126538, 0.052183095, 0.28563637, -0.09342873, -0.112102695, 0.056549393, 0.22183451, -0.028269133, -0.0055108643, -0.007705043, 0.06905056, -0.17289318, -0.031444132, -0.23343422, 0.07775521, -0.19376647, 0.32685626, 0.00038982602, -0.10221423, 0.05704277, 0.26758182, 0.08810596, 0.259723, 0.0029429388, -0.0737261, -0.0383002, 0.306218, 0.11660972, 0.00056463806, -0.23909047, 0.019153535, 0.13700248, 0.012359226, 0.14836779, -0.07678832, 0.17941491, 0.0860302, 0.07372633, 0.14626865, -0.089393504, 0.24599205, -0.014389082, -0.054657687, -0.14135264, -0.07689416, -0.21901616, 0.084815115, -0.03884062, 0.17047311, -0.06430278, -0.02468996, 0.16138253, 0.1797584, -0.10086002, -0.059666526, -0.04685727, 0.14189924, -0.032065324, -0.06997772, 0.0299877, 0.13536704, 0.1965598, 8.068443e-05, 0.1930021, -0.20130189, 0.30314216, -0.007074654, 0.1408047, 0.1404549, 0.17990252, 0.002411019, 0.043926243, 0.041956205, -0.11396515, 0.035998728, 0.010911705, -0.107878596, -0.0038507932, -0.10224093, -0.09516317, 0.14410396, -0.0740843, 0.15140338, 0.025904084, 0.0360541, -0.16183004, -0.09638648, 0.0005248727, -0.13723312, 0.08689782, 0.23359242, -0.21917386, -0.21172775, -0.103969626, 0.11740902, -0.12801914, -0.06383462, -0.07764172, -0.022916356, 0.018495789, -0.06326464, -0.086000465, -0.053647302, -0.16152266, 0.25029165, -0.07615705, 0.03537268, 0.029637402, -0.060693875, 0.13602321, -0.049904518, -0.012244626, -0.17774555, -0.06415783, 0.3266654, 0.2260971, 0.026360333, -0.010667021, -0.18928057, 0.018725732, 0.042515412, -0.122561865, -0.11633158, -0.14472471, 0.033758633, -0.12559405, -0.112481244, -0.22468273, -0.08304228, 0.13316287, 0.058962584, -0.020723095, -0.05964064, 0.27684137, 0.15066645, 0.15341601, 0.13114777, -0.004830775, -0.086139075, -0.2361519, -0.04410329, 0.13857715, 0.052983653, -0.085641444, -0.10086198, -0.028936137, -0.0012331735, -0.28924778, 0.107392095, -0.21993956, 0.37079817, 0.08174393, 0.037973847, -0.17288972, -0.1339204, 0.123123094, 0.051448125, 0.07425306, -0.01434361, -0.08039445, 0.071572244, -0.011584242, -0.11263439, 0.24852073, -0.0044457647, -0.055713125, -0.07709022, 0.18581435, 0.10707439, -0.10428231, 0.024736408, -0.10587557, -0.14181054, 0.07857743, -0.061375838, -0.37568894, -0.00054888416, -0.20776461, 0.51933753, -0.11452923, -0.009370549, -0.27431417, -0.19811316, 0.26581517, -0.18147834, -0.04715451, -0.1696948, 0.02322498, -0.18173796, -0.057290554, -0.032549605, 0.04523071, -0.24288303, -0.079942435, -0.028921282, 0.023442335, 0.16672078, -0.13034946, 0.18902029, 0.044774838, -0.20460339, 0.058705658, 0.03302169, 0.04851416, -0.14433882, -0.032295477, 0.0023041226, 0.04780482, -0.05190856, -0.022507774, -0.085856564, -0.09242461, 0.19258094, 0.064277, -0.19330451, -0.16405849, -0.16767688, -0.05664904, -0.038949274, 0.017551817, -0.07224308, 0.041122485, 0.0089672785, -0.07198974, 0.27683628, -0.36740205, -0.14568485, -0.024693612, 0.08461386, 0.08852461, -0.07695556, -0.29139972, -0.0003031997, 0.40555263, 0.09991012, -0.04692591, 0.1245782, 0.005058786, 0.04820301, -0.09818572, -0.22489674, 0.14475591, 0.06779936, 0.11569557, -0.14075668, -0.010506271, 0.04923658, -0.32005242, -0.07019338, -0.1793236, 0.39803472, -0.06146869, 0.039044578, -0.0029750976, -0.15724051, 0.115629666, -0.12312659, 0.07214173, 0.13852046, 0.12685032, 0.04495889, 0.29350603, 0.15921387, -0.09289571, -0.06671516, 0.18930554, -0.21146041, -0.008261561, 0.1147433, 0.036803663, 0.011290881, -0.14137371, -0.108161144, 0.2682667, -0.11438545, 0.032989774, -0.17556003, -0.045940492, 0.0066326307, -0.11467898, -0.0062129376, -0.26895466, 0.20422679, -0.079974756, -0.09839713, 0.08549498, -0.065914094, 0.15765093, -0.09324334, -0.07808492, 0.12950549, 0.055702142, -0.2621799, 0.01248738, 0.2576091, 0.12559237, -0.0015067434, 0.3298068, 0.22681251, -0.06350478, -0.38858953, 0.039437305, 0.077330254, -0.13212186, -0.3828148, -0.18695731, 0.08690678, 0.054557618, 0.06752923, 0.12029635, 0.004823972, 0.08357348, -0.014535191, -0.28438976, 0.024162518, 0.3355483, 0.04704795, -0.11709688, -0.008005144, 0.18948305, -0.13305871, 0.09177185, 0.101218134, 0.058720246, -0.24702862, 0.18203472, 0.028592162, 0.17981204, -0.5574699, 0.0759328, -0.0045797885, 0.3380724, 0.09289106, 0.15954444, 0.24154326, -0.046773247, 0.18923007, 0.051163778, 0.063161656, -0.09037204, -0.14295325, 0.06498082, 0.08163136, 0.09407424, -0.03604526, -0.004908688, -0.049654413, -0.21985196, -0.05584341, -0.071732126, 0.11919521, -0.08776831, -0.13120073, -0.18325861, 0.05796992, 0.095592946, -0.17101046, 0.11638378, -0.19295633, -0.034406357, -0.10339121, -0.017594488, -0.11382011, -0.06293847, 0.29156792, 0.03975715, -0.14189962, 0.32016563, 0.11723269, 0.09739775, 0.050037045, 0.009387172, 0.1468437, 0.16690221, 0.02688365, 0.17069674, 0.002092321, -0.08578565, -0.058556993, 0.1918818, -0.035681847, 0.22096059, -0.07044572, 0.13969474, -0.10180792, 0.07487094, -0.031001953, 0.24659424, -0.14912924, -0.19045103, -0.047809396, 0.10379483, -0.08627977, -0.07013497, 0.11112029, 0.13903755, 0.0519614, 0.15879998, 0.13472228, 0.007839145, -0.06052047, 0.20086873, 0.11035912, -0.19150798, -0.18918, 0.0117298225, 0.13149351, 0.057353724, 0.14137684, -0.0289256, 0.10934602, -0.006372448, 0.071950756, 0.0691317, -0.10084234, -0.25932539, 0.24844655, -0.1797931, -0.04542999, -0.09711147, 0.11348172, 0.18593729, 0.038430642, -0.08336797, -0.07315807, 0.08895212, 0.16194034, 0.21200337, 0.008868828, -0.21738887, 0.12420185, 0.07273046, 0.042208426, 0.07917709, -0.040652417, 0.20572028, 0.1592524, 0.016334811, 0.17261906, -0.26692182, 0.15389265, -0.20212376, -0.14172433, 0.043956663, 0.15133265, -0.14294177, -0.09314305, 0.09915781, -0.036532026, 0.12559871, -0.3228036, -0.217936, -0.020950573, 0.04038415, -0.045111746, -0.126474, -0.2054035, 0.10840768, 0.014667039, -0.016266571, -0.12867722, -0.08096737, 0.08972059, -0.2192282, 0.21202809, 0.10212157, -0.1522082, -0.19925036, -0.29114598, 0.06239253, -0.064344525, -0.02903421, -0.016086796, 0.07395008, -0.24684328, -0.15668604, 0.15806626, -0.04739959, -0.1956826, 0.09160379, -0.117576845, 0.20897512, 0.031566568, 0.040706918, 0.04973693, -0.08297084, 0.1761507, 0.10706886, 0.17964706, -0.03728465, 0.10933722, -0.38956326, 0.15789625, -0.07022568, -0.26924413, -0.33353272, -0.011657267, -0.40106043, 0.16978234, -0.24582411, 0.46836182, -0.07630514, 0.03554743, -0.028107269, 0.31017837, 0.03296026, -0.028051801, -0.13268521, -0.14516088, -0.040787082, -0.2903628, 0.034874424, 0.3237339, -0.09552213, -0.27861542, -0.004571822, -0.25658068, 0.15728995, 0.12622622, -0.009313512, 0.038321465, -0.09232077, 0.14048779, 0.27986655, -0.28455347, 0.16060886, 0.374595, -0.0756526, 0.06654788, -0.27445576, 0.13084827, 0.039819412, 0.084785074, -0.072987236, -0.1594521, 0.362415, -0.02294922, -0.38729835, -0.16373801, 0.2080435, 0.036147308, 0.25620064, -0.10860866, -0.107872136, 0.086033225, 0.10401616, 0.0026143626, 0.27305353, -0.039527934, 0.09150866, -0.18467402, 0.020325057, 0.14867318, 0.025816856, -0.09321397, -0.039672654, 0.24205442, -0.054851245, 0.023145195, -0.0020343233, 0.13408642, -0.055505585, -0.19816639, 0.016598966, 0.010773695, -0.30661872, 0.35620138, -0.0874683, -0.070789285, 0.24636903, 0.20132396, -0.13779953, 0.063397616, -0.24901791, 0.21682891, -0.4117567, -0.1828395, -0.23703197, -0.018886887, -0.2734105, -0.0042581786, -0.30710003, -0.0076926933, 0.20160587, 0.21756811, -0.016158571, -0.15197732, -0.040304787, 0.13671994, -0.2624816, -0.28226683, 0.20946668, 0.015529658, -0.039795544, 0.031134574, -0.1341905, -0.10580119, -0.1895743, -0.19557123, 0.054077294, 0.2851538, -0.17940734, 0.01446973, -0.24185815, -0.12736084, 0.20673399, 0.068443656, -0.09547632, 0.2738417, -0.05131255, 0.16526881, -0.10725134, -0.083605625, 0.2090789, -0.01566945, 0.021625664, -0.012728413, -0.27463728, -0.24656253, -0.09681918, -0.12575078, -0.0108259255, -0.04836447, 0.1515947, 0.021603588, -0.4383548, -0.10743963, -0.045098994, 0.23266391, -0.01635858, -0.14974785, -0.23239581, -0.12602812, 0.10370222, -0.1017807, -0.06292123, 0.14733359, 0.051669236, -0.13240558, 0.2528044, 0.17413054, -0.29423875, 0.00508817, -0.10302371, -0.20887277, -0.12184346, -0.010968385, -0.3465286, 0.16427886, -0.266168, 0.033469122, 0.18810318, -0.17896855, 0.2511173, -0.067428, -0.034588065, -0.06533705, 0.0554986, -0.16614768, 0.047353715, 0.051020194, 0.14484699, -0.15715544, -0.055833418, 0.324385, 0.2828641, 0.1553913, -0.021402624, -0.20382307, 0.11814779, 0.042426683, -0.058309134, -0.03674832, 0.05843177, -0.32302547, 0.09671152, 0.13627458, 0.06328031, -0.027768116, -0.100788996, 0.050709285, 0.19387677, 0.076194674, 0.17996895, -0.042050604, -0.03296147, -0.19225152, -0.06565683, -0.09061518, 0.109808974, 0.10015843, 0.034654766, -0.25393644, -0.21493496, -0.014131888, -0.2373972, 0.29898092, 0.04665421, -0.048050284, 0.20389348, -0.31169397, -0.16013701, -0.09555244, -0.16330208, 0.23540372, -0.23573653, 0.06802853, 0.0042882427, -0.18617417, -0.043586604, 0.19821179, 0.041088264, 0.022293791, 0.03713802, 0.07495436, -0.06703015, 0.06745899, 0.22666769, 0.27006966, 0.268826, 0.18210858, -0.20291877, 0.09183118, -0.07474108, 0.12450994, -0.09584675, -0.04483183, 0.009650051, 0.0528819, -0.123545706, -0.030956239, 0.036536206, 0.1470762, 0.10811422, -0.10435475, -0.14271627, -0.10095492, 0.27086067, 0.15515302, -0.43371272, -0.067661405, -0.30160728, 0.03747269, 0.06609415, -0.105692394, -0.0027825667, 0.03343711, 0.047174472, 0.024399022, 0.057703625, 0.15909913, -0.09040078, -0.022211066, 0.08052002, 0.024489189, -0.024966469, -0.16399442, -0.01601943, 0.14482506, 0.0225017, 0.21863244, 0.08099218, -0.30384746, 0.09838683, 0.29730055, -0.067189, 0.21237673, 0.084009506, 0.045974784, -0.19506778, -0.08458159, 0.13348982, -0.16461246, -0.006850901, -0.08240824, 0.014389872, -0.057247333, 0.1146475, 0.15718244, -0.02970386, 0.1089717, 0.04710132, -0.07859691, -0.0076400847, -0.069797836, 0.21614458, 0.04945815, -0.26764968, -0.16076778, 0.3434822, 0.05477227, 0.110917225, 0.02385468, -0.027688801, 0.018305944, 0.09660716, -0.05769818, 0.09834432, 0.042451344, 0.22157644, -0.085243724, -0.006097311, 0.009339618, 0.16150744, 0.018562714, -0.058728892, 0.015072111, -0.08212912, 0.21957394, 0.124418594, -0.008758977, 0.109516434, -0.09070605, -0.12676196, 0.02487684, 0.023649255, 0.030549478, -0.08363779, -0.1381619, 0.054503873, 0.015415098, 0.00690102, -0.19944805, -0.29094175, 0.12105095, 0.13084273, -0.23794201, 0.02222164, -0.27660668, 0.04228835, -0.035046704, -0.07988632, 0.1278178, -0.01347061, -0.25650883, 0.12548053, 0.2970669, -0.044556636, -0.043340445, 0.02410845, -0.15656053, 0.03338254, 0.313849, 0.18813767, -0.35845003, 0.12481574, 0.07754825, -0.2548381, 0.12873293, 0.20313177, 0.20033634, 0.029596295, 0.23730156, 0.2813902, -0.121385895, -0.17209701, -0.04907149, 0.09990876, 0.068638, 0.020133672, 0.035590556, -0.12832913, -0.076953396, 0.013543683, 0.17203055, 0.29236335, -0.13525105, -0.18018353, -0.29189637, -0.09360042, -0.18196382, -0.09479754, 0.058553673, 0.17388102, -0.3264517, -0.40409985, 0.110342994, -0.22908765, 0.2708872, 0.053701293, -0.038937926, -0.09672796, -0.1678265, 0.023497364, -0.02065848, -0.024389733, 0.09105624, 0.20188203, -0.11502269, -0.20782846, 0.13879758, -0.15310885, 0.13077009, 0.31054112, -0.057322703, -0.11942836, 0.05015044, 0.07753235, 0.08847886, -0.033783585, 0.30455172, -0.024388185, 0.22254016, -0.32545346, 0.0504992, 0.005370542, 0.16203798, 0.13129577, 0.04891736, -0.0851115, 0.2789847, -0.2343517, -0.09199884, 0.019730229, 0.23053442, 0.08326671, 0.18232843, -0.18347655, -0.2022325, -0.1066023, -0.17382663, 0.15549614, 0.083167575, 0.011483835, -0.11339458, -0.2514359, 0.09828422, 0.09663906, 0.05452524, 0.0125597175, -0.12698632, 0.19922647, -0.14672717, 0.1437497, 0.06092868, 0.21002051, 0.13753948, -0.21689677, -0.065303214, 0.09364272, 0.24748807, -0.14246917, -0.09520697, -0.0055093286, 0.058312256, 0.08351484, -0.013873204, 0.06154218, -0.09336207, 0.14832735, -0.08519348, -0.13686857, -0.123540655, -0.06725752, -0.0011985296, -0.08935093, -0.020967938, 0.11589168, -0.08628676, -0.061537992, 0.01035491, -0.16417582, 0.006412662, -0.2454458, 0.11304066, 0.094791375, 0.26050788, -0.29871207, -0.12254426, 0.16335605, 0.14888597, 0.0035781148, 0.30078328, 0.13340166, -0.077815756, -0.1498129, 0.22122581, 0.019601243, -0.18909214, -0.06880852, -0.01332603, 0.19221489, 0.05591703, 0.1591611, 0.20886518, 0.20873134, -0.15767111, -0.09452595, 0.01064292, -0.044032354, -0.15329617, 0.24335222, -0.0870437, -0.23189448, -0.068266414, -0.11004327, -0.027618065, -0.025206229, -0.032564063, -0.24599159, -0.201288, 0.016928175, 0.028878605, 0.08813448, -0.07211524, 0.10081471, 0.10610833, -0.13850228, -0.028283864, 0.18623002, 0.37450173, -0.022663364, -0.1109459, 0.38346702, -0.09144972, -0.07987895, 0.3277588, -0.04032403, 0.013954562, -0.014427112, 0.035592455, 0.034226827, 0.14025092, 0.07066138, -0.064668685, -0.24608919, -0.031395793, -0.013568736, 0.09827236, -0.17657453, 0.23147376, 0.124386296, -0.22570775, -0.03910057, -0.061234426, -0.092105605, -0.056345347, -0.16589074, -0.22641747, 0.31919253, -0.0040851412, -0.12772481, -0.03733723, -0.1029225, -0.13305855, -0.13715608, 0.07882882, -0.14797907, -0.05675953, -0.048596516, 0.20083359, 0.03956925, -0.01863515, 0.00077903667, 0.34185654, -0.003869015, 0.20821631, 0.0074210833, -0.26951456, -0.15509471, 0.07123366, 0.21520093, 0.026461914, 0.04449089, -0.14195944, 0.11459028, -0.18256727, 0.3113898, 0.30028737, 0.00045904744, -0.013841932, 0.13657081, 0.06475934, 0.004657325, 0.078893244, 0.21955867, -0.17563285, 0.062874876, 0.239094, -0.007301649, -0.17186065, 0.0060539525, -0.10267301, 0.008416882, 0.30529618, 0.12737665, 0.024104543, -0.1547291, 0.08326931, 0.1548009, -0.040533576, 0.19705854, -0.07772373, -0.03213248, 0.05423792, -0.04923975, -0.056207843, -0.14660147, -0.22976339, -0.08494929, 0.15147172, -0.04597685, -0.027569547, -0.36737847, 0.0063948277, 0.21806112, 0.013564779, -0.120512016, 0.16203558, 0.085423335, 0.093480185, 0.18086419, 0.1377664, -0.025529535, -0.31969148, 0.03159566, -0.1743056, -0.0046474324, 0.1388581, 0.051270917, -0.111541525, -0.01770465, 0.05275383, -0.008918147, 0.13463418, -0.1542068, -0.08078459, 0.04481724, -0.17869662, -0.0122132655, -0.06453859, -0.16206364, 0.29098165, 0.14170463, -0.23136595, 0.1908847, 0.038814154, 0.17914525, -0.05775108, -0.031234764, -0.03309255, 0.1086666, -0.16599478, -0.07594106, -0.018524243, 0.226344, 0.11340978, 0.07571366, 0.11055576, 0.11203045, -0.43244573, 0.07791804, 0.1668586, 0.12588596, -0.25063154, -0.3768891, -0.047045745, 0.07590725, -0.13822465, 0.13206032, -0.07916437, -0.083729774, 0.038052827, 0.093193114, -0.2691434, -0.04158331, -0.03518995, -0.12964575, 0.00054253114, 0.19309066, -0.14963901, -0.019121988, 0.19148801, -0.11205917, 0.08951956, 0.03467814, -0.16178349, -0.22238533, -0.09971231, 0.09294573, 0.13142745, -0.14496998, -0.09168606, -0.20167655, 0.03743105, 0.1287928, 0.27445352, -0.092000365, -0.08504775, -0.02714536, 0.10972904, -0.023065167, 0.16616179, 0.14730257, 0.14144005, 0.028815238, -0.009588751, 0.20507663, 0.04802098, 0.17731549, 0.03685944, -0.13883157, 0.049282845, -0.13855578, -0.037352793, -0.03933509, 0.07664269, -0.0034396905, 0.2084808, 0.23862657, 0.18643649, -0.011758864, -0.1029611, 0.07567083, 0.01227486, 0.036223017, 0.15756273, -0.14451465, -0.12789753, -0.011674964, -0.1449359, 0.21889243, -0.0077600856, -0.09389083, -0.10446772, 0.18744013, -0.11675045, 0.03369456, -0.3093003, 0.121423915, 0.07923572, 0.18266028, -0.19003178, 0.104538105, -0.12091409, -0.09922028, -0.15526424, 0.06688347, 0.18609078, -0.2554271, -0.39371827, -0.03298248, 0.04122041, 0.06571622, -0.0639098, 0.078177415, 0.029150452, 0.035184283, -0.15932839, 0.1551753, 0.019779585, -0.06707025, -0.062148746, 0.07679342, -0.00027263936, 0.1753154, -0.26855624, -0.061614256, 0.054134447, 0.14369534, -0.20682709, -0.002926595, 0.029241526, -0.30648878, 0.13419406, -0.060843967, 0.09891291, -0.04739529, -0.084109016, 0.11896932, 0.07447793, 0.03966836, -0.0338336, -0.053251423, -0.09599371, 0.45627472, -0.06281345, -0.029179506, -0.35834855, 0.12737016, 0.12647913, 0.08860166, 0.028505463, -0.003547826, -0.045074653, 0.14514303, -0.15772055, -0.17216939, -0.08711115, 0.0832377, -0.12911971, 0.04129549, 0.03370655, 0.00070772565, 0.0872705, 0.10864819, 0.07146837, -0.0031476007, -0.19743215, 0.29325467, -0.04875824, -0.23592307, 0.067330286, -0.14928593, 0.2317475, 0.100173466, 0.012759687, 0.14542344, 0.12731852, 0.108537525, 0.19435632, 0.22334713, -0.11184338, 0.021796087, 0.047841977, 0.17973521, -0.04868177, -0.11633203, -0.07786387, 0.069900066, 0.03526428, -0.025267445, -0.12868181, -0.00060748286, 0.10058324, -0.36912248, -0.26334694, -0.10815411, -0.027615549, -0.027905503, -0.17346464, -0.13256596, 0.12403689, -0.10197475, 0.022044258, -0.12192567, -0.11822629, 0.07972022, 0.098770134, 0.08356247, 0.25940278, -0.48725805, 0.024192752, -0.19283251, -0.13965803, -0.35602486, 0.06083928, -0.027788881, 0.08647991, -0.25184426, 0.12838387, 0.0044341567, 0.024196438, -0.09686968, 0.30712724, -0.14237197, 0.26050714, -0.21094859, 0.1488252, 0.16115254, -0.1845641, -0.069675215, 0.09054307, 0.2815328, -0.21054277, -0.20497863, -0.09244387, -0.008351277, -0.110055454, -0.1432391, 0.011930852, -0.025581822, -0.13841297, 0.06168652, -0.26987663, 0.13386953, 0.12992351, 0.040657062, 0.00042152984, -0.13510863, 0.22310656, -0.13325498, -0.06298741, 0.1930842, 0.038117204, 0.033329856, -0.11306714, 0.09805691, -0.059862264, -0.45555434, -0.40190557, 0.15435882, -0.054733142, 0.061368197, 0.0045001083, -0.011047667, 0.26587293, 0.0037297222, 0.07831059, 0.14793816, -0.013457105, 0.09709137, 0.14472584, -0.1352226, -0.13368161, 0.04930621, 0.05159398, 0.11810098, 0.06733646, 0.12091782, 0.08442499, 0.31092003, 0.005631729, 0.18102966, -0.14165257, 0.11240076, -0.26588094, -0.0028734896, 0.18914855, -0.09640073, -0.03621216, -0.16272263, -0.18797825, -0.03764981, 0.10666103, 0.026087265, -0.25339112, -0.031121407, 0.027839243, -0.011319589, -0.013699701, -0.19100851, 0.13181683, -0.07467068, 0.07718208, 0.09328935, 0.018991062, -0.07481286, 0.13989711, 0.27584618, 0.056276802, 0.10252808, -0.009193253, -0.17911689, 0.11626178, 0.06413345, -0.19317134, 0.05026094, -0.05260969, 0.03720268, -0.29828587, -0.058009416, -0.32008296, 0.19192347, 0.0049776556, -0.14205635, -0.12312245, 0.0051937397, -0.23149134, 0.044353083, -0.025553202, 0.016122423, -0.12472512, 0.008227083, 0.095994316, 0.49763831, -0.124716006, -0.029082395, -0.02298146, 0.1409618, -0.027506892, -0.030919446, 0.089791454, -0.031585388, 0.010508515, -0.3368789, -0.13097692, -0.011998855, 0.021518353, 0.14444754, -0.17203061, 0.027527563, -0.06132965, -0.1280981, -0.2089209, 0.11583475, -0.06317783, -0.07577907, 0.08769207, -0.17541836, 0.13434567, -0.11012427, 0.13453516, 0.08746156, 0.043075036, -0.215121, 0.048358724, 0.09255704, 0.15445967, 0.11118995, 0.078183606, -0.14001828, 0.27659464, -0.15832832, 0.21949212, -0.10957953, 0.26232243, -0.00056175666, -0.22561593, -0.27201423, -0.13065708, -0.072296046, 0.13729002, 0.021388467, -0.046927556, -0.3053859, -0.019544993, 0.14714485, 0.30746955, 0.035024583, -0.037566483, -0.03283307, 0.17914632, -0.08164772, 0.08652344, 0.18635224, 0.20167498, 0.060528584, 0.27490175, -0.03356863, 0.0063900487, 0.035559423, -0.089855045, 0.021045933, -0.17213231, 0.017966857, -0.06942325, -0.058739867, -0.21659873, -0.023397643, 0.00070799695, -0.12841322, -0.044880938, 0.09525258, 0.10262521, 0.036706075, 0.06555919, 0.022529118, 0.037400234, 0.2612044, 0.011200933, -0.03398032, 0.06277021, 0.022514865, 0.0065253964, -0.2703188, -0.020789364, 0.10772871, 0.12983939, 0.10366604, 0.122133784, -0.09051015, -0.11680328, -0.13658005, 0.2091285, 0.04756414, 0.16947334, -0.23139873, -0.28805596, -0.01025346, -0.13568322, 0.005156809, -0.13652633, -0.09109618, -0.17423151, -0.038643017, 0.15283063, 0.110995725, -0.10349746, 0.04176177, 0.057075113, 0.044388127, 0.015321647, 0.027085276, 0.07200328, 0.17604198, 0.12975793, -0.104411855, -0.16924804, -0.13288109, 0.07120075, -0.09694247, -0.032237537, 0.09979422, 0.21282874, 0.13758627, 0.1054823, 0.022091862, 0.023939991, 0.16583173, 0.022232799, -0.14687958, 0.17514968, -0.2918701, -0.0052160886, -0.15781604, -0.008809849, 0.20125985, -0.20639981, -0.05171683, 0.04078086, -0.31495622, -0.1884013, 0.045129303, 0.38671717, -0.22299704, 0.26210812, -0.14267246, -0.26901048, 0.007829102, -0.043611053, 0.10068647, 0.05426405, -0.08474906, -0.053168103, 0.09869926, 0.05428029, -0.11298453, -3.985985e-05, 0.25282767, 0.119800486, -0.03753186, -0.12912431, 0.14399295, -0.17591073, 0.27239108, -0.08342911, -0.1745469, 0.035179764, 0.04971908, -0.21519011, 0.19921255, -0.08470778, 0.05519568, -0.15545493, -0.001713547, 0.16150935, -0.016021656, -0.0027274848, 0.2590028, -0.11686458, -0.098389, 0.24247769, -0.02312718, 0.06110571, -0.15522447, 0.067368, 0.039341807, 0.19127867, -0.2068694, 0.14165406, -0.07494662, 0.092119195, 0.07228354, -0.26630738, -0.035054028, 0.0054146205, -0.06381154, 0.08334249, 0.023398804, -0.17107916, 0.24804924, 0.020650089, -0.045492973, 0.17970678, 0.10228464, -0.022300018, 0.13390046, -0.025682462, -0.011485108, -0.085652374, 0.010035158, 0.09770567, -0.0075241392, 0.012668233, -0.17561534, 0.08467523, 0.40824947, 0.003369752, -0.26096845, -0.07646495, -0.16243312, 0.18072431, 0.20311269, -0.098362096, 0.022649804, -0.032107577, 0.065875016, 0.18371445, -0.047303602, 0.17565188, 0.23821782, 0.07306778, 0.1106342, -0.14030613, -0.082918495, -0.14221336, -0.0015085547, -0.36090043, 0.026449528, -0.067265056, 0.017955035, -0.077581294, 0.21796302, 0.060389064, -0.14914945, 0.08936045, 0.20263503, 0.19517092, -0.10386418, 0.0047642365, 0.0033465875, -0.02480874, 0.014825695, -0.023129128, 0.17789689, 0.032717947, -0.1578824, 0.35034925, 0.13387531, 0.18433823, 0.04653144, -0.25893608, -0.18138026, -0.17995682, -0.06248468, 0.20535383, -0.018885456, 0.01494333, 0.13214709, 0.29576162, -0.34287477, 0.22940782, 0.17845452, -0.15145414, 0.0041162223, 0.00022517546, 0.0139968265, 0.12593488, 0.093325466, 0.092526026, -0.054891966, -0.13684729, 0.07472737, 0.12654695, -0.059305053, 0.19993515, -0.025666257, -0.024868686, -0.24536893, -0.11610006, -0.15980744, 0.22469285, -0.04641911, -0.29619738, -0.15612908, -0.07333599, -0.15384358, 0.061197978, 0.10485247, 0.00992274, 0.15927346, 0.26364386, -0.105956495, 0.21521875, -0.18873286, 0.15381172, -0.117543764, 0.020186547, 0.08959335, -0.06180626, -0.09136769, -0.050087094, 0.091985896, 0.042006988, 0.15682153, -0.076042674, 0.07978458, 0.040162228, -0.23111443, -0.031698737, 0.1267748, -0.10805815, 0.12427739, 0.045320194, -0.04775568, 0.06426368, 0.13315053, 0.034125403, 0.12262709, -0.24093615, -0.13675934, 0.1612381, -0.22037542, -0.08839109, -0.04310398, -0.06823654, -0.008076358, 0.18697372, -0.13790031, 0.17142782, 0.38630682, -0.15856673, -0.08803444, 0.058052935, 0.07870002, 0.18009713, 0.12299609, -0.01528925, -0.16145149, 0.07382369, 0.0015753751, -0.22903432, 0.14903423, -0.11521051, 0.03807867, 0.049010634, 0.15966654, 0.28641078, -0.4398205, -0.03142737, 0.007630925, 0.11287734, 0.11742801, -0.043656774, 0.13496208, 0.07584925, -0.048329312, 0.11902651, -0.17194733, 0.22206454, -0.13501516, 0.007355972, 0.11220563, -0.13431472, 0.068245225, -0.0475701, -0.176582, 0.011517675, 0.10316144, -0.42592907, -0.19975309, 0.022289623, 0.29028362, -0.063227646, -0.13832587, -0.3156197, 0.009126786, 0.006829809, -0.06503196, -0.041442342, -0.15841927, 0.029037181, 0.0531552, 0.3252283, 0.018829847, -0.1206394, -0.17896117, -0.17932141, -0.1306795, -0.14828698, -0.05393467, -0.22055714, 0.025277235, -0.16364074, -0.20696996, 0.062984854, -0.038022544, 0.11298166, 0.0014649201, -0.14703874, 0.032927807, -0.099908374, -0.09488925, -0.041971903, 0.16393574, 0.13820705, 0.077925146, 0.04010165, -0.21604337, 0.24508524, -0.23958036, 0.09853101, 0.22174412, 0.028801246, -0.27455264, 0.113004886, -0.1140378, 0.12600444, -0.08055423, 0.16054307, -0.17179501, 0.31483486, 0.015609516, 0.16130792, -0.11161532, 0.15901355, -0.055922743, -0.1899563, -0.01640348, 0.023235949, -0.2099722, 0.10694219, -0.0687723, -0.27600473, -0.29039654, 0.11257473, 0.12960841, 0.13865583, 0.085605904, 0.07099779, 0.026301725, 0.2128137, -0.053086508, 0.14841494, 0.15732276, -0.0586641, -0.014664228, -0.10967316, 0.10086219, 0.14906165, -0.071693726, -0.19820347, -0.09357239, 0.067427106, 0.07692369, 0.35815933, 0.11522889, 0.0009694419, -0.23421994, 0.2154965, -0.0748945, 0.19096619, 0.20021921, 0.07315066, -0.15328135, -0.124560446, -0.16538319, 0.11596671, 0.004439756, 0.38799128, -0.1772523, 0.1443262, -0.18436192, 0.020961521, 0.12168096, -0.005011766, 0.15997007, -0.03218708, -0.21908835, 0.122919336, 0.06928403, -0.015701415, 0.0293374, -0.057171725, -0.00160201, -0.13404784, -0.079473786, 0.28340375, -0.04081824, -0.068078704, 0.21670417, 0.059962217, -0.021634564, 0.23334336, 0.021850493, -0.13132738, 0.19247282, -0.16246718, 0.06301438, -0.047413256, 0.10186162, 0.08091328, -0.26624644, -0.15152468, 0.12775493, -0.018345425, -0.19047531, 0.0034281046, 0.4526581, 0.008224642, 0.042430032, 0.24499916, -0.020209497, -0.007170085, -0.017760668, -0.12375786, 0.1099106, 0.013956591, 0.029234909, 0.036143336, -0.011958611, 0.022348687, 0.26314837, 0.04413641, 0.01830205, 0.1325705, -0.10320848, 0.1107232, -0.0401163, -0.025850805, 0.17329043, -0.021740103, -0.140078, -0.041773014, 0.22830494, -0.09639591, -0.02218747, 0.11894817, 0.17931461, 0.04327304, -0.031169461, 0.025565099, 0.03139519, -0.019898843, 0.19735257, -0.061263006, 0.15231372, -0.35696068, 0.15590991, -0.102079265, -0.020215899, 0.17648505, 0.2562831, 0.23955852, 0.070337914, 0.044332683, -0.044734307, 0.017359274, 0.061190996, 0.109094985, -0.13394156, 0.04191213, -0.057187058, 0.0014986063, -0.3509358, 0.10593888, -0.20426178, -0.023155082, 0.11016452, 0.07744808, -0.35245577, 0.085604005, -0.19879988, 0.38200456, 0.012705192, 0.06138957, -0.06589964, -0.028635362, -0.11454262, 0.09687265, 0.06791396, 0.14796151, -0.19261919, -0.00015242213, -0.24425085, -0.008850823, 0.04457496, 0.03895017, -0.19275463, 0.06522282, 0.272159, -0.06453141, 0.030168317, -0.019267287, 0.2567616, 0.015339539, 0.18260644, 0.031320844, 0.120948344, 0.057359677, 0.20093787, 0.15081279, -0.017661247, 0.07650182, -0.07310076, -0.0060498826, 0.25501624, 0.16012177, -0.30061713, 0.04323303, -0.18876877, -0.025070012, 0.17384191, -0.038874883, -0.049455717, -0.025254602, 0.05368975, 0.01125988, 0.166458, -0.04151787, -0.20894031, -0.06874586, -0.04632004, 0.100568175, 0.038464632, -0.14570786, -0.16947854, 0.21729453, 0.24600278, 0.15358065, 0.112279885, 0.03509837, -0.031403944, -0.09646111, 0.10222033, 0.124025896, -0.0874904, -0.081217565, 0.04412451, -0.22187892, -0.013357732, -0.047254726, 0.044509485, -0.32087636, -0.013413776, 0.1083305, 0.13882914, -0.17938411, -0.15043691, 0.17312367, 0.006685951, 0.02924807, -0.13624953, 0.20641083, -0.2172957, 0.009745041, -0.073348895, 0.08639285, 0.053740624, 0.11814286, -0.06763812, 0.119610354, -0.078455195, 0.1398146, -0.14585191, -0.044931434, 0.038115785, -0.19477235, -0.17434496, 0.2883135, -0.08611302, -0.048171204, -0.31079563, 0.25970796, 0.16765405, 0.02340038, -0.13919926, -0.24232033, -0.098996006, 0.03899298, -0.12195135, -0.2525747, -0.15263493, 0.327483, 0.12805328, 0.12937798, 0.17404592, -0.10010679, -0.12503456, -0.047117654, 0.09683297, 0.2148902, 0.021816857, 0.060956925, -0.036616035, -0.06816015, 0.04750862, 0.2496352, 0.14442307, -0.06455739, 0.24528511, -0.14673206, -0.24216741, 0.18660676, -0.07024405, -0.121562056, -0.108087346, 0.12563045, -0.006926197, -0.3296118, 0.20787032, 0.15145887, -0.05250142, 0.13849886, 0.030597609, -0.17697953, 0.0475184, -0.199479, -0.103413954, -0.0036941373, -0.13675617, -0.28434947, 0.06583647, 0.039432734, 0.17375478, -0.11990737, -0.22938442, -0.13691255, -0.05797963, 0.28924868, 0.030213458, -0.22117193, 0.14556076, 0.12428488, -0.0041188095, 0.15645956, 0.21901956, -0.024376454, -0.13535956, -0.031697594, -0.06287369, -0.018979091, 0.10860988, 0.12959662, -0.060460683, -0.05494607, 0.12633424, 0.22984737, 0.0031420046, 0.11835321, 0.32971403, -0.13912909, -0.23235805, -0.017515406, -0.12169197, 0.012639492, 0.20259815, 0.010779687, -0.26311105, 0.005742461, -0.24021006, 0.28523794, 0.2757863, 0.14867482, 0.054964095, -0.049863998, 0.2141426, -0.06633664, 0.061043274, 0.11684453, -0.10274763, -0.07597014, 0.10766474, -0.03871068, 0.111839525, 0.036262535, -0.020962566, -0.2468043, -0.11628468, -0.12988465, -0.15165411, 0.11583991, 0.07163055, -0.03866784, -0.30603367, 0.23119044, 0.15239741, 0.070037305, 0.19039164, -0.018456124, 0.06371551, 0.33716065, -0.14713371, 0.111249544, 0.31351164, 0.031361654, 0.08695911, -0.2016407, 0.18362944, 0.16297266, 0.22890182, -0.07925394, 0.008638192, 0.20901671, -0.06436841, 0.08964602, 0.0667025, 0.09084326, -0.12505454, 0.22850174, -0.26588234, 0.11220198, -0.0048517976, 0.061768614, -0.14197722, -0.064547926, -0.07768898, 0.059672736, -0.31430262, 0.2379658, -0.19007091, -0.009320162, -0.23732582, 0.16142167, 0.1869295, 0.13332324, -0.11620556, 0.23950955, -0.041209627, 0.17527732, 0.054376792, 0.054750524, 0.27910745, -0.011457084, 0.09961141, -0.08420674, 0.11929829, 0.069741435, -0.2121428, 0.012056569, 0.011532919, -0.11050261, 0.22677389, -0.12507412, -0.2951835, -0.12743466, 0.16251694, 0.29324657, -0.12583931, 0.046452824, -0.111096255, 0.040480208, 0.027739136, 0.19963618, 0.12619114, 0.034478515, 0.18728404, 0.09342041, -0.34491566, 0.0069247396, -0.12257524, -0.09929994, 0.14123143, 0.09472837, -0.30878624, 0.17710605, 0.078292415, 0.04330665, -0.13316448, 0.13335711, 0.00083666603, 0.17661656, -0.24315712, -0.05934232, 0.05093021, 0.13372283, -0.028763337, -0.16942193, -0.002561496, -0.12564431, 0.03012885, -0.19472378, -0.16180213, 0.13787569, -0.11111269, -0.06790697, 0.17043632, 0.17081223, -0.33332416, 0.06544578, 0.07989056, -0.20378953, -0.08063805, 0.026497485, 0.691971, 0.092506066, 0.11181253, 0.11208537, 0.22565286, 0.06162696, 0.17702009, -0.08229913, 0.2316499, -0.013570099, -0.029912323, -0.04092938, 0.31505913, 0.0061033107, -0.42499492, -0.08998529, -0.13889459, -0.105841674, 0.18941382, 0.027754601, -0.0049027363, 0.13444936, -0.028666105, 0.031601977, 0.0069762515, 0.09655099, -0.029963829, 0.19837065, -0.13662538, -0.08545208, -0.04590745, -0.023502233, 0.086555034, 0.058217447, 0.16756049, -0.06504367, 0.19789873, 0.20359741, -0.07800463, -0.07742893, 0.13307813, -0.14546117, 0.15374236, -0.00048608126, -0.29100308, 0.005191481, -0.18987204, -0.22533002, 0.15043448, -0.4034739, 0.3755164, 0.124941215, -0.032866713, 0.094929054, -0.1993807, 0.09760529, -0.2036128, -0.045681186, 0.09075862, 0.045856945, -0.0072476678, 0.09624435, 0.033856634, -0.38778034, 0.20076014, 0.29406586, -0.04966581, -0.27214134, -0.090323195, 0.11657387, 0.10503023, 0.08537159, 0.09360027, 0.11776637, -0.07926245, 0.13959505, 0.21902324, 0.05236484, -0.22133203, -0.0006347426, -0.18807435, 0.16273786, 0.21673396, -0.1856955, 0.05527374, -0.23999341, 0.1778017, 0.2388243, 0.041208554, -0.19685064, 0.013433157, -0.30947, 0.33112636, 0.35949296, -0.1453787, -0.07643777, 0.048458975, -0.068880714, 0.04598018, 0.10627628, 0.35748458, -0.114723586, -0.02847071, 0.04383349, 0.15528382, 0.09056787, 0.05918353, -0.16007297, -0.17721881, 0.12086586, 0.11264354, -0.1064945, -0.17429015, -0.14298804, 0.33109534, 0.2835749, -0.0039791265, 0.1883506, -0.14619185, 0.06634068, -0.07857913, 0.045176078, 0.062242456, -0.07503689, 0.0014868975, 0.09223078, -0.15404828, -0.05190211, -0.1428281, 0.07482053, -0.17467552, 0.09580043, -0.122177124, -0.09500765, -0.06824577, 0.08492795, 0.08601672, -0.08390936, 0.113080524, 0.21697621, 0.09569781, -0.16047405, 0.35675615, 0.103154674, -0.09390147, -0.055670373, -0.0034425764, -0.040604513, -0.07995725, 0.033988368, 0.039589383, -0.26671258, -0.06416156, 0.29543018, 0.12379127, 0.055485427, -0.082793705, -0.043195806, -0.19128758, -0.11098871, 0.044201948, 0.16139716, 0.00050866, 0.030732188, 0.026966643, -0.21563901, -0.049697842, 0.34251836, 0.3057462, 0.05934626, 0.16657479, 0.012469217, 0.12896839, -0.17071202, 0.33525693, 0.4277927, -0.046137623, 0.03349625, 0.025233736, 0.06856511, 0.024894305, 0.14262578, -0.06986893, -0.011633075, -0.069606215, -0.104897946, 0.0893459, 0.09133745, -0.047093634, -0.05613984, 0.055744935, -0.17750669, 0.20152704, 0.22028302, -0.15827766, 0.11826789, 0.1106968, -0.10990895, 0.19965345, -0.0051831477, 0.45003474, 0.11115908, 0.25130206, -0.058257755, 0.09563065, -0.134814, 0.021203425, 0.12625839, 0.17486835, -0.13273814, 0.005797928, -0.1454493, -0.07553267, -0.2264527, 0.18383203, -0.03732525, 0.2702522, -0.27390334, -0.2939353, 0.055703264, 0.11500555, 0.19997159, -0.071826845, 0.018167615, 0.13229023, -0.08763664, -0.019533921, 0.0063224523, -0.16704814, 0.058155563, -0.036837615, 0.04897776, 0.092167266, 0.11786517, -0.021888698, 0.18177108, -0.06860186, 0.046566013, 0.10192339, -0.039838314, 0.09916314, 0.06495026, -0.12052974, -0.19325344, -0.16906968, -0.09000115, 0.14454387, -0.06918655, 0.11694026, -0.14294453, -0.19685438, 0.036931805, 0.024186784, -0.0057809725, -0.11277324, 0.034728587, -0.014788822, -0.07624325, -0.29117668, -0.006127099, -0.06411581, -0.21593086, 0.21585216, 0.12125841, -0.33362982, -0.100223266, -0.17764013, 0.026899755, 0.19830489, 0.027090952, -0.15880482, 0.048597023, 0.19155893, 0.050948936, 0.05101822, 0.11322759, 0.08457987, 0.02992421, 0.018062368, 0.11020273, 0.16248149, -0.04112412, -0.182237, 0.15894556, 0.013787917, 0.15713164, -0.10615316, 0.036766328, 0.020788511, -0.029669145, 0.04917169, 0.05096313, -0.08449426, -0.13294314, -0.20830014, -0.13143282, 0.23435596, -0.115952596, 0.08869422, 0.015807053, -0.14116162, 0.06630164, 0.14804858, -0.10951074, 0.1020759, -0.0702911, -0.016857827, -0.006195859, -0.042991847, -0.037118487, -0.06549873, 0.05033657, 0.13840112, 0.1988194, -0.21556823, 0.2317811, -0.22485329, -0.03688487, 0.2661611, 0.1783345, -0.1141051, -0.10992604, 0.05402638, 0.052892737, 0.00429712, -0.38004968, -0.18750925, -0.05699677, -0.008209229, 0.12252959, -0.19755846, -0.1288955, -0.017999394, 0.18821016, 0.16575044, 0.10274769, 0.038235907, -0.10484541, -0.15131435, 0.21573345, 0.33243686, -0.043530587, -0.19277671, -0.17222877, 0.07723856, -0.23016384, -0.0030242065, -0.0064440705, 0.15610158, -0.21478797, -0.124103166, -0.06949281, 0.035271022, -0.12399814, 0.024330173, -0.09992556, 0.26742178, -0.10899229, -0.16988346, -0.08746446, 0.18846883, 0.010204954, -0.17439063, 0.08720822, 0.08339337, -0.14295776, 0.24080735, 0.07582822, 0.087231375, 0.30291507, 0.27425265, -0.07027058, 0.33915418, -0.10145084, 0.025749732, -0.17252466, -0.0023735838, 0.03848913, -0.14841303, 0.009348505, 0.005002113, 0.050092347, 0.017167931, -0.09422364, 0.08390372, -0.17232175, -0.098549224, -0.07260913, -0.16045156, 0.21534213, 0.12500486, -0.05191992, 0.034568775, -0.040893, 0.141486, 0.10881756, -0.08455169, 0.163037, -0.2304784, 0.067252554, -0.06850247, 0.056636482, -0.17136882, -0.032557894, 0.18018608, -0.13460718, -0.06315024, -0.028740874, 0.10982263, 0.123400055, 0.07641509, -0.06730324, 0.15232067, 0.18221797, -0.19704808, -0.06750928, -0.104695365, -0.18384668, -0.068508334, 0.053950436, -0.16808689, -0.080228254, -0.039164044, -0.048999973, -0.085889414, -0.08675354, -0.1266471, -0.00892076, -0.064872846, 0.12614174, 0.120345555, -0.11355119, -0.14534165, 0.040778093, -0.10811251, 0.13785382, -0.04210945, 0.02109614, -0.06420734, -0.06316627, -0.022829866, 0.07801912, -0.047228094, 0.006320399, -0.048049457, -0.17351085, 0.27585137, 0.043856494, -0.036627926, 0.11507796, 0.009211631, -0.12506463, 0.41108733, -0.26015306, 0.06078014, -0.01563446, 0.3361901, -0.09948387, -0.08714517, 0.09333072, -0.18962577, -0.0045423005, 0.25191295, 0.03901289, -0.11768864, 0.14153522, -0.2545279, 0.10877139, 0.008805794, 0.06483747, 0.15300095, -0.11119606, 0.0043808483, -0.023451045, -0.016942283, 0.22934493, 0.08932942, -0.058240943, 0.06513457, -0.03761639, 0.10695778, -0.21213987, 0.11961266, -0.07211555, 0.020203857, -0.04067057, -0.10044466, 0.17220794, 0.1165194, -0.36865762, -0.1220957, 0.031708907, -0.058096293, 0.10287476, 0.21605305, -0.013260674, 0.047411125, 0.23409462, -0.029791977, -0.038961858, 0.030101163, 0.06061842, 0.050152913, 0.012154419, -0.1260048, 0.03422318, 0.00093042717, -0.043258082, -0.18930392, -0.027468216, 0.010365552, -0.24078387, 0.019543435, 0.12044376, 0.065751925, -0.08600348, 0.04322809, -0.12321598, 0.02177051, 0.17940184, 0.068839654, -0.010528138, 0.271175, -0.26883543, 0.25401106, -0.20930038, -0.079022326, -0.13360399, -0.17534117, 0.24880736, -0.03501573, -0.043214593, -0.1724324, 0.025410546, 0.15132117, -0.16204225, 0.1333055, 0.12792344, -0.03722819, -0.2138718, -0.26643512, -0.13915516, 0.18023302, 0.14926928, -0.023852132, 0.04906512, -0.1302288, -0.055076133, -0.15555063, 0.19335847, 0.45066023, -0.17885506, -0.029948018, -0.040335264, -0.06421627, 0.11423892, -0.18439505, 0.027848048, 0.027898304, 0.06619197, -0.16989139, 0.16215639, 0.035836983, -0.21199456, 0.16779982, -0.03570556, 0.0763462, 0.12646046, 0.049821045, 0.07455601, 0.1967708, -0.24510741, -0.18112302, -0.010199425, -0.021620529, 0.2788263, 0.09824369, -0.056136683, 0.08111104, -0.1329418, -0.03760466, -0.07413686, 0.20783229, 0.2999017, 0.104681045, -0.107514024, -0.062063448, 0.19774453, 0.07168137, -0.2616439, -0.13020895, 0.026824668, -0.15991329, -0.11115221, -0.17062925, -0.05023428, 0.079603985, -0.20187189, -0.1654938, -0.23395473, 0.13878863, 0.033531748, -0.17849834, -0.16268437, -0.041697435, 0.17016278, -0.13582805, 0.024824288, 0.012392101, -0.09928778, -0.4067069, -0.13386142, -0.087382816, -0.081976674, 0.3128706, 0.05536347, -0.28904873, 0.08911203, -0.21434788, -0.15020253, -0.25129023, -0.00644708, -0.31100392, -0.110725485, 0.040131845, 0.268489, -0.069003105, -0.12364738, 0.09558552, 0.47357142, 0.0044462164, -0.13285236, -0.18565026, 0.3362574, 0.10721131, 0.20269878, -0.076770075, 0.047299277, 0.20704922, -0.37020382, -0.15016837, 0.11327744, -0.21368127, -0.0955217, -0.017385896, -0.10751666, 0.10952961, 0.05465376, 0.051364195, -0.04269528, -0.040017404, -0.03453271, 0.09785281, -0.24821265, -0.16350998, 0.057882596, -0.016120583, 0.05050708, -0.20959075, -0.13652964, 0.20659627, -0.017196432, -0.10381155, 0.14359115, -0.09543158, 0.0373636, 0.09252774, 0.081251234, 0.13626799, 0.03290343, -0.0740698, 0.10548849, 0.086541235, -0.06547065, 0.2973777, -0.2717198, -0.15079623, 0.09097638, 0.03654548, 0.13416852, 0.023276513, 0.07405064, -0.09265422, 0.0049545607, 0.054939304, 0.015062863, 0.05536858, -0.097527556, -0.03885353, 0.2747811, 0.08338185, -0.037216004, 0.05287233, -0.025110094, 0.027528482, 0.045519277, -0.12925537, -0.2045166, -0.11021801, -0.09742526, -0.10575384, -0.054316588, -0.19409607, 0.23004541, 0.028513812, -0.011439771, -0.31169003, -0.11828162, 0.11335976, -0.10012986, -0.13112621, 0.10948846, 0.18378605, 0.1296066, -0.17452908, -0.15636037, -0.12687251, -0.14745966, -0.016355572, -0.19742632, 0.036877707, 0.005846234, -0.21981372, 0.09385406, -0.16076767, -0.12483956, 0.14907429, -0.046070185, 0.2293585, -0.107937805, -0.07710773, -0.34705597, -0.026893118, -0.24883777, 0.047722954, -0.057992216, -0.25519055, 0.099590644, 0.0019641998, -0.18089175, 0.016157752, -0.2204847, -0.020399833, 0.018283356, 0.1532812, -0.23303775, 0.062171932, 0.06893182, -0.14016622, -0.007593699, 0.028435614, -0.17422909, 0.076968044, -0.3042268, 0.29719666, 0.19566761, 0.13289998, -0.0902712, -0.20313725, -0.06587488, -0.15401307, 0.0507472, 0.37488985, -0.13054295, -0.32742044, -0.15542953, -0.13001332, -0.043880057, 0.21282731, 0.21603228, 0.18398504, 0.033413127, 0.21665828, 0.2590562, -0.16596203, 0.03276129, 0.32732293, -0.05337673, 0.017885685, -0.39477164, 0.00986018, -0.088378854, 0.09806259, 0.45346624, 0.041185196, -0.019080754, 0.017480828, 0.18012409, -0.19411366, -0.2014767, -0.080385104, 0.020868268, -0.22809902, -0.22295964, -0.0627579, 0.0011734735, 0.13197017, -0.19881225, -0.06406356, 0.03663512, -0.008261334, -0.08168119, 0.060399253, -0.24540943, -0.0350061, 0.002196461, -0.2021343, 0.3550323, 0.11732549, -0.19583526, -0.08182996, -0.08054432, 0.042654213, 0.21238506, -0.08431295, -0.26120964, -0.064828135, -0.032367222, -0.049376566, -0.17809382, 0.116771996, -0.12118601, -0.10008799, 0.070046335, 0.13111058, -0.3435595, -0.050016947, -0.16908121, 0.48257563, -0.087746374, 0.10348516, -0.24769527, -0.01269246, 0.048036322, 0.014189295, -0.06441886, 0.056641944, -0.24902882, -0.3123622, 0.34196112, -0.068589896, 0.03505206, -0.1026646, -0.17520338, -0.012502719, 0.15032052, 0.04982257, -0.11634596, -0.13061428, -0.044642348, 0.22127937, 0.002166417, 0.006354504, -0.044231724, -0.043195218, -0.025597971, 0.0136580365, 0.2504962, 0.3092055, 0.20490617, -0.061601374, 0.110358745, -0.014699857, -0.14651854, 0.1960245, -0.06039321, 0.017307114, -0.12687631, -0.33240157, -0.013178015, 0.098095804, -0.11593288, -0.26168, -0.04500154, -0.12520987, -0.11357212, 0.06560961, -0.064398006, 0.0038236836, -0.0913578, 0.09980979, -0.1945254, -0.0020224887, 0.29696372, -0.03655237, -0.09868512, -0.2098142, 0.044768274, 0.08731717, -0.35417053, -0.32343853, -0.029538209, -0.26109198, -0.0062320973, -0.05329202, 0.07639231, 0.06827403, -0.08773146, -0.071709804, 0.13084185, -0.37038124, -0.12203351, 0.026318574, 0.043481883, -0.07066513, -0.03914238, -0.27242455, 0.20613082, -0.10896144, -0.08100122, 0.05483965, 0.17591655, 0.06544, -0.13844897, 0.16131407, 0.40304804, -0.09072401, 0.0054588174, 0.10304027, -0.0875722, 0.049222853, 0.01751514, 0.043916203, 0.30370817, -0.10732406, -0.053968083, 0.061251547, 0.21947171, 0.15806694, -0.070094444, -0.093773834, -0.0015200786, 0.08656033, 0.18938713, -0.0021234169, -0.08307319, 0.12501453, 0.038549423, -0.24154544, 0.07754514, 0.02781964, 0.027542807, -0.20716666, -0.37114945, 0.113270186, 0.12368928, 0.111355215, -0.063755065, 0.09367355, -0.12377947, 0.006538164, 0.21508148, -0.14801782, -0.15617955, -0.21162264, -0.106489286, -0.04243478, 0.28782743, -0.08289949, 0.15420735, -0.09727576, 0.051253803, 0.13976768, -0.12869437, 0.032288026, -0.005479784, -0.05924445, -0.028230088, -0.007818926, 0.31579772, 0.2876105, -0.009265787, 0.043571882, -0.0464547, 0.004280742, -0.10856614, -0.022621885, -0.15602842, -0.20434266, -0.11172547, 0.010770318, 0.016372725, 0.11312186, -0.2445568, -0.08367749, 0.09241405, -0.11081882, -0.04237713, 0.21661533, 0.031057434, 0.09039204, 0.0023101806, 0.277035, 0.19077408, 0.10770488, -0.038393166, -0.03974582, 0.22777268, 0.081849895, 0.12468607, -0.1296635, -0.024120845, 0.043156873, 0.13653772, -0.05420233, 0.011435016, 0.102791615, -0.3079245, 0.33976772, -0.04859525, 0.017573131, -0.044685025, 0.1674067, 0.0038870934, -0.053350803, -0.017713644, -0.11844373, -0.058707375, -0.22552961, -0.21155256, 0.023811707, 0.0037087554, -0.3640704, 0.11941252, -0.033773303, -0.17976491, 0.058073647, -0.07228698, 0.11876625, 0.01195911, -0.06770061, -0.3076184, 0.14034918, -0.08336963, -0.08480158, 0.030978926, -0.20637709, 0.014170555, 0.119116746, 0.016112283, -0.04876065, -0.07501977, 0.12234023, -0.007439791, 0.012887193, 0.0778808, 0.07309609, 0.10790554, -0.09227947, 0.3620695, -0.4649834, -0.18362364, -0.1225595, 0.20914418, 0.045124788, -0.12862371, -0.27579772, -0.0016780549, 0.05541561, -0.018599294, -0.026742212, -0.039639294, -0.14212017, 0.04973763, 0.13737993, 0.07756148, -0.00017044533, 0.050865054, -0.21161728, -0.21089369, 0.024175506, -0.047961246, -0.09822589, 0.02996089, -0.24966373, -0.09134428, 0.09148366, -1.3194236e-05, 0.29881358, 0.05229406, -0.08750202, 0.061658427, -0.13239698, -0.103007704, 0.14120635, 0.09073829, 0.048128776, -0.29712737, 0.09694619, 0.15134451, 0.013867641, 0.091246985, 0.32728055, 0.028571496, -0.19612604, 0.021996468, -0.110960305, -0.27032632, 0.0011492842, 0.016811186, 0.33877218, -0.07337236, -0.012323356, 0.14952877, 0.047023874, 0.1732933, 0.03937379, -0.22222349, 0.3895214, 0.105027966, -0.048793606, 0.10296819, 0.16024256, -0.17008184, -0.15822119, 0.06860797, -0.1925057, -0.24695463, -0.034327928, 0.076602675, 0.103409044, -0.012274734, -0.22628872, 0.0056908503, -0.16297798, 0.061418522, 0.12785673, 0.15091407, -0.32019207, -0.3042675, 0.009466323, -0.040682353, 0.26501274, -0.15636715, 0.08178457, -0.02202834, -0.051712696, 0.07746864, 0.12667467, -0.019095704, -0.06888716, 0.13993423, 0.13402222, 0.1719336, 0.16377547, 0.047431126, -0.06119101, 0.24157724, -0.19507828, 0.15906289, -0.023557521, -0.20269236, -0.04453922, -0.018499365, -0.17543633, 0.020333273, -0.024434743, 0.060429305, -0.30686215, 0.118012235, -0.0031248394, -0.10826984, 0.059049603, 0.12418729, 0.0021316472, -0.09741612, 0.1923838, 0.126923, 0.21889542, 0.089585215, 0.05699794, -0.22878127, 0.2261194, -0.19763121, 0.0077150483, 0.18250932, -0.06740052, -0.17849658, 0.040319398, -0.08567316, 0.20203753, 0.08684395, -0.05349399, 0.16404264, 0.029875048, 0.0059490055, 0.025729813, 0.119551554, -0.008473287, -0.19898519, 0.18159965, -0.0069363867, -0.13064714, -0.038443957, -0.09554498, -0.046513945, 0.067308605, -0.22368611, 0.11506392, -0.11629899, -0.050465822, 0.054846022, 0.05955063, -0.07365143, -0.13161452, -0.04878321, 0.1156548, -0.042759575, -0.092708334, -0.085598096, -0.06739283, -0.21384995, -0.29622817, -0.07149143, 0.3988636, -0.14058085, 0.016759822, 0.035897326, -0.110839814, -0.09954189, 0.042853583, -0.11197092, -0.057845175, -0.13998346, 0.109656885, -0.24525568, -0.09314225, -0.13724938, 0.26145995, 0.32215282, 0.026457524, 0.0038040215, -0.18997872, 0.124793455, -0.1159584, -0.056246955, -0.33100215, 0.16202475, 0.030556057, -0.13099292, -0.12618078, 0.13962318, -0.21906845, -0.10583231, -0.0073850686, -0.13594739, 0.20952041, -0.05925557, -0.015938483, -0.033816755, -0.24775772, -0.068196096, 0.045955148, 0.007846928, -0.012821484, -0.09740439, -0.04168909, -0.07222547, -0.09386991, 0.21024689, -0.05457055, 0.10700959, 0.092055656, 0.03189936, -0.0026864826, -0.028641207, 0.06499974, -0.061590392, -0.011893625, -0.1908286, -0.08485742, -0.15950514, -0.1760612, 0.053126264, -0.26106447, 0.047429323, 0.112129696, -0.15753797, 0.17507605, -0.089886695, 0.20445696, -0.07228768, -0.13449396, -0.38484588, 0.029648291, 0.07374384, 0.091724865, 0.030050369, 0.25933695, -0.13705008, 0.21387808, 0.0058370335, 0.2750557, 0.20196053, 0.004894308, -0.043246288, -0.1966308, 0.096588224, 0.05771304, 0.020578878, -0.22053257, -0.08394231, -0.08157987, 0.32516783, -0.022304311, 0.08044154, -0.0076319594, -0.10783541, -0.087216645, -0.2614302, 0.17063318, -0.12084522, 0.009019775, -0.037345123, 0.0760098, -0.035507895, 0.05109775, -0.032798056, -0.029458258, -0.045003682, 0.038954552, 0.094485976, 0.031890642, 0.16043702, 0.074973755, -0.19709994, 0.052665167, 0.13856639, 0.24612391, 0.028603798, -0.1755159, 0.17617516, -0.028408393, 0.09422124, 0.08139855, -0.18553507, -0.14215237, 0.05238018, -0.010469256, 0.12560017, -0.23052618, 0.081029795, -0.15547988, -0.21369727, -0.15766247, -0.005507486, -0.017836431, -0.072808795, 0.07883664, -0.22624315, -0.070491135, 0.13814682, -0.098998554, 0.08758826, -0.06455416, 0.007536058, -0.03803868, 0.06202519, 0.11570687, 0.032354955, 0.0980017, -0.21728125, -0.2240648, 0.009333244, 0.0046747783, -0.17122096, 0.18241884, -0.09769211, -0.045611653, -0.104121126, -0.15546475, 0.18520828, -0.11486276, -0.03877946, -0.16536741, 0.024938129, 0.07843953, -0.03607802, -0.12646696, -0.0062916325, 0.0825734, 0.058103874, -0.14745529, 0.1275885, 0.047496002, -0.19440353, 0.14342567, 0.09065991, -0.27716938, 0.13260445, 0.093621865, -0.19513838, 0.08391686, -0.17368543, 0.038698424, -0.020369714, 0.008356823, -0.12294966, 0.08892542, -0.120129116, 0.29579479, 0.24776517, -0.01624804, -0.22293577, 0.10219832, 0.07456924, 0.17013825, 0.09047489, 0.30588618, -0.19965886, 0.04832563, -0.045334283, -0.08881884, -0.22407843, 0.14819276, 0.054761436, -0.116491444, -0.16922967, -0.21263826, -0.12470314, 0.038410448, 0.097258925, -0.22230476, 0.094733074, 0.060386814, 0.0473725, 0.077393666, -0.040662277, -0.07423191, -0.028135426, -0.28337172, -0.07738626, 0.28118792, 0.069073714, -0.11639933, -0.10224788, -0.15415332, -0.15010886, 0.062469296, -0.13673586, 0.063784614, -0.072770394, -0.021021394, 0.08119911, 0.06820237, -0.13291249, 0.023903735, -0.02678235, -0.08917037, 0.20924173, -0.005706217, -0.20289822, -0.043197937, -0.22259808, 0.24942718, 0.07397001, -0.008526132, 0.077644534, -0.13600872, -0.012697715, 0.24742393, -0.033651322, -0.093338475, 0.08928714, -0.043503866, 0.04375363, 0.19087973, 0.08517251, 0.08050828, 0.14834477, -0.077975005, 0.17318267, 0.21384858, 0.22788887, -0.13078533, -0.1535282, 0.20268501, 0.291926, -0.04747502, -0.22597802, 0.076588966, 0.38070595, -0.046901193, -0.1290749, -0.037229013, -0.032584596, -0.029497487, -0.08747642, 0.08319013, 0.13847345, 0.1484956, -0.17789419, 0.046825726, -0.041558642, -0.0047253394, -0.11815292, -0.0465481, -0.020267494, 0.14650618, -0.18240222, 0.15391278, 0.10823701, 0.054917186, -0.012835022, 0.0038643961, -0.0029523515, 0.23523809, -0.08405333, 0.034512516, -0.11561986, 0.0222258, 0.16981572, -0.20941535, -0.055715233, 0.22697738, 0.20361058, 0.077423505, 0.17675906, 0.022463089, -0.14138234, -0.0028687108, -0.022441516, -0.31312248, -0.037062354, 0.06427486, 0.09560338, -0.28579047, 0.03737462, 0.23562379, 0.2201768, -0.04749368, -0.06504541, 0.14649493, 0.25482982, 0.11219351, 0.0205944, 0.028013188, 0.111796714, -0.063284755, -0.22599605, -0.062238347, 0.08640736, -0.07566744, -0.033319417, 0.028968716, 0.014742752, 0.13100503, -0.095605105, -0.023806278, -0.08939744, 0.25481442, -0.011516686, 0.07044515, -0.38493225, -0.11254778, -0.08232728, 0.100462504, 0.2195376, 0.05561739, 0.11207335, -0.099868454, -0.13197505, 0.08134455, 0.16013592, -0.22101022, -0.16867088, -0.036470797, -0.06836841, -0.093644135, -0.102097005, -0.13165982, 0.10683524, -0.07255629, 0.0377232, -0.22950666, -0.027737044, -0.16277508, 0.00137166, -0.09363381, 0.18715043, 0.030963214, -0.015638942, -0.07235636, -0.07449356, 0.14381999, -0.2307273, 0.025527488, 0.03059283, -0.33627075, 0.19210446, -2.6872032e-05, 0.11548302, -0.025117125, -0.02228138, 0.07337823, 0.19499914, -0.021268595, 0.09951901, -0.0728397, -0.06403207, 0.40807104, 0.093697734, -0.14127074, -0.18859774, -0.07202351, 0.14093369, 0.061447386, 0.19956233, -0.15864028, 0.06747586, 0.21146686, 0.23617473, -0.19427742, 0.09383649, 0.09792625, 0.24278426, 0.06053301, 0.12225317, 0.062015362, 0.12836902, 0.03477642, -0.1639136, 0.15929991, -0.012952766, 0.01350973, 0.04730621, -0.014554727, 0.1522806, 0.049648304, -0.06694294, -0.028855398, 0.1878089, -0.011206519, -0.08979885, 0.021548301, -0.10314223, 0.32201812, 0.1943477, -0.11270737, -0.108597696, 0.27991995, -0.20351507, 0.18374047, 0.25545081, -0.0010011736, -0.0020330108, 0.0017842423, -0.06769342, 0.0729793, -0.042683084, 0.34343207, 0.03560938, 0.12589167, -0.23095445, -0.06846701, -0.12250481, 0.2290373, 0.19716236, -0.07248363, -0.07655997, -0.0821415, 0.23783903, -0.05665614, -0.18557674, 0.10307556, 0.09678973, 0.074783094, 0.066522375, 0.17743185, 0.11787576, 0.15452193, -0.046770275, 0.18495901, -0.043122694, 0.12634881, -0.014814009, -0.14882508, 0.02183753, -0.030875843, -0.040945657, -0.11099911, -0.042499486, 0.20781434, 0.10471747, 0.14825381, 0.12676272, -0.0042654383, 0.07093452, 0.07940632, -0.05933012, 0.09074129, 0.061512828, -0.17284027, -0.10108789, -0.11099771, -0.10557614, -0.003671348, -0.17457601, 0.086944915, -0.3093476, 0.028759917, 0.0977381, 0.014964636, 0.10114624, -0.17527525, 0.13608032, -0.07919016, 0.05202208, 0.23561975, -0.03770138, 0.059564516, -0.08083091, 0.14804086, 0.017909402, -0.110959224, -0.21035556, 0.10868085, -0.07444783, -0.052581135, -0.08856786, -0.13772729, 0.03462786, -0.10146516, -0.0118639935, -0.23323306, -0.007862528, -0.06664673, -0.0040086256, -0.026605444, 0.015102371, 0.12747556, -0.032649588, -0.0879192, -0.239274, 0.027117083, 0.044072248, -0.03017979, -0.22580834, -0.14267598, 0.29210114, 0.07654081, 0.04205194, 0.14989604, 0.048482437, 0.09757649, 0.01758494, -0.049626943, 0.13079092, -0.0643401, 0.13372812, 0.18356082, -0.00057281856, -0.04439395, -0.18285564, 0.13337827, -0.1283449, 0.14853223, 0.15364479, -0.14768493, 0.13561532, 0.07011515, -0.15582195, -0.042504985, -0.045220204, -0.1534888, -0.1413644, 0.23381336, 0.056652345, 0.19809033, 0.20720538, 0.110516414, -0.08306917, 0.27443212, -0.08614787, -0.03837742, 0.1247635, 0.11740728, 0.059565984, -0.26940373, -0.16349399, 0.20011464, 0.09104452, 0.0031083175, 0.23557009, 0.0014411791, 0.01636171, -0.06048655, -0.15422945, 0.08860406, 0.2324926, -0.13282956, -0.070981234, -0.06820752, -0.28448856, -0.17488535, -0.03327409, -0.06744452, -0.26398212, 0.12326935, -0.14186546, -0.17567539, -0.07511507, 0.006075968, 0.2115325, -0.03980316, 0.09697097, -0.17363964, -0.17619339, 0.15893972, -0.1422281, 0.051968962, -0.11418354, 0.101831034, 0.107299104, -0.059786286, 0.059117295, -0.107231304, -0.19898228, -0.13064581, -0.10843929, -0.042943858, 0.08712362, -0.1601843, 0.08962116, 0.051835064, -0.17873284, -0.12315716, 0.08871567, 0.005670658, -0.030779228, 0.017084066, -0.060833696, 0.008473589, -0.17277025, 0.13060263, -0.19510162, 0.18405864, 0.24496582, -0.056460474, -0.15762518, 0.021423807, -0.16041194, 0.08553848, 0.17582561, 0.16716519, 0.04962105, -0.06862502, 0.15856446, -0.0044992804, 0.15040971, 0.32223144, -0.049684804, -0.026244167, -0.19927846, -0.1127703, -0.010685476, 0.03073998, 0.020765536, 0.26123583, -0.06527403, -0.033692896, 0.1402738, -0.102373414, -0.0023630767, 0.25625986, -0.0261388, -0.0145061985, 0.054572187, -0.22366673, -0.2299834, 0.060620833, -0.0773702, -0.28017873, 0.117628545, -0.11078434, 0.013066138, 0.18155321, 0.038632076, 0.29476768, -0.12216122, 0.14718467, -0.13693291, 0.03225824, -0.290949, 0.060991608, 0.024021853, -0.043281242, -0.122440115, 0.24397676, 0.11613591, -0.13397986, 0.25271422, 0.121407814, 0.27794942, 0.036455233, 0.21476711, -0.08778057, 0.13905318, 0.033882473, -0.021114528, -0.034506556, 0.10235493, -0.06575475, 0.42459404, -0.11609159, 0.15990792, -0.1341114, -0.17575097, 0.064251974, -0.190892, 0.30500504, -0.18584695, -0.12553757, 0.063243285, 0.024635268, -0.056098215, 0.09532046, -0.0903977, 0.07506598, -0.08517498, -0.022251965, 0.17272058, -0.0387433, 0.20928164, 0.16273966, -0.003674275, -0.051532637, 0.21530432, 0.014805972, -0.01562335, -0.23514767, 0.11952592, 0.05535861, 0.077181034, -0.22173683, -0.086340025, -0.067148656, -0.10372043, -0.2640377, 0.26099852, -0.07292029, 0.051136162, -0.18016583, -0.08661581, 0.050660044, 0.052453663, 0.1430841, 0.17024742, 0.07373875, 0.24525006, -0.12113408, 0.24526493, 0.17809165, -0.06325227, 0.04592057, -0.27907777, 0.06202336, 0.10772674, -0.22443488, -0.2541571, 0.041392643, -0.1613791, -0.15740387, -0.106630586, 0.3747847, 0.15640979, 0.1074327, -0.048644222, -0.044440944, -9.271531e-05, 0.012083842, -0.00031712456, 0.1962013, 0.0862087, 0.11040155, -0.14540575, 0.13899319, -0.117673516, 0.20140013, 0.019077767, -0.18267038, 0.13899782, 0.028995072, -0.038745414, -0.02719072, 0.16137199, -0.013369507, -0.13791318, 0.018449232, 0.009656796, -0.115655825, -0.05897277, 0.014241153, 0.07112055, -0.1355143, -0.10650701, 0.14050564, -0.058545943, 0.011108685, 0.15918271, 0.20352367, -0.08334181, 0.20745562, -0.020235028, 0.079434246, -0.025077268, 0.19234231, -0.17590143, 0.009904667, 0.04033554, -0.016454503, 0.12187965, -0.028635105, 0.20072275, 0.05708489, 0.24297331, -0.457761, 0.12378427, 0.09249619, 0.012937445, -0.14671874, 0.064322405, -0.27959862, -0.022389084, 0.076730505, 0.034126982, -0.07108263, -0.07229359, 0.06056209, 0.29656404, -0.058323395, -0.11450772, 0.011066327, -0.042002752, 0.076736726, -0.032024488, 0.015942032, 0.17884675, 0.25380754, -0.2735478, 0.2667352, -0.11584855, 0.11465979, 0.0789206, 0.045614816, -0.34846303, -0.037064016, 0.12831937, 0.09189944, -0.2617073, 0.006376545, 0.1507467, -0.008895787, 0.011664073, -0.074514195, 0.1256427, 0.06703896, -0.16073255, 0.2812426, 0.16358939, -0.20332797, -0.03242762, 0.06685938, -0.059057392, -0.1672076, 0.00018761135, 0.10686461, -0.2054056, -0.2929225, 0.1291068, 0.1721485, -0.10974211, -0.009120121, 0.06158424, -0.24845478, -0.12530835, 0.1231129, -0.13656202, -0.09389665, -0.17725298, -0.014946533, -0.19758998, 0.09297485, -0.065636024, 0.00096066983, -0.08505344, 0.17308752, -0.10353208, -0.03207402, 0.040323377, 0.14024444, -0.2227712, 0.1935522, 0.0750471, 0.020936415, 0.0026150274, -0.1742103, -0.011807585, -0.08157894, 0.012981891, -0.033904005, -0.17136009, -0.07967623, 0.07271502, -0.046589565, -0.07144775, -0.2373282, 0.17779276, 0.13209116, 0.013595503, 0.071217455, -0.07417582, -0.012145546, -0.21939905, 0.19380903, 0.07954986, 0.27045858, -0.19814669, -0.27161875, 0.053969316, -0.012916189, 0.042842295, -0.06872639, -0.015388217, -0.082610235, 0.034601152, 0.18596637, 0.007967925, -0.19472803, -0.03168807, -0.11800653, 0.18738866, -0.05607126, -0.025439315, 0.10236297, -0.10104785, -0.18551381, -0.07047449, 0.22409701, 0.021115895, -0.09245816, 0.061563257, 0.022622287, -0.20119351, 0.06351344, -0.045169678, -0.009571062, 0.02143801, -0.16431807, -0.040717795, -0.13125576, -0.100698024, -0.23692036, -0.031011347, 0.030294904, 0.23004049, -0.18622904, -0.09863372, -0.08936677, -0.17452303, -0.12335443, -0.0609005, 0.12213436, -0.04192857, -0.054369, -0.010989765, 0.08812287, 0.040189184, 0.0956459, -0.03627555, -0.13363151, 0.14800268, -0.035548814, -0.010170461, -0.09210205, 0.3177125, 0.21209823, 0.18937103, 0.12794092, 0.19097255, -0.017032547, 0.23088744, -0.006652217, 0.040874436, 0.0940842, -0.07772813, 0.16627453, 0.060923435, -0.11117126, 0.07405289, 0.24270934, -0.22867063, 0.03371809, -0.14795451, 0.07735134, -0.023171801, -0.06557814, -0.278265, 0.12311714, -0.16325146, 0.12922049, -0.047070753, -0.032590855, -0.08501624, 0.011852265, -0.102553025, -0.17455254, 0.11211103, 0.12079651, 0.055879433, 0.105785094, -0.1504356, 0.18113904, -0.062923625, -0.2859331, 0.025843114, -0.055746686, -0.22009279, -0.0740273, -0.0022577315, -0.11709259, 0.041677676, -0.015077088, 0.12500411, -0.28144163, 0.12005763, 0.14144072, 0.06713071, -0.26683453, 0.1422633, 0.072108954, 0.15894456, -0.14682157, 0.33685222, 0.07208957, 0.013769298, 0.0131038185, -0.18671831, -0.10378623, 0.44827983, 0.016144095, 0.038741358, -0.13609077, -0.24087912, -0.17947946, -0.03350847, 0.12528, -0.3063995, -0.03699533, 0.031644907, 0.00054643024, -0.1275643, -0.07532148, 0.0076831514, 0.115842536, -0.0050591556, -0.007241013, 0.09173236, -0.13682269, 0.009359847, -0.20484845, 0.008113995, 0.010751723, -0.040161584, -0.023539936, -0.089517154, -0.051381823, 0.013644626, 0.11216909, 0.14551584, 0.24554138, -0.092897765, 0.15472205, -0.1886991, 0.20272303, 0.048966926, -0.08804505, -0.14128616, 0.03746526, -0.057684347, -0.042262256, -0.05784592, 0.07019587, -0.35069272, -0.15884474, 0.0884355, -0.02329778, 0.03584839, -0.0048454697, -0.01216518, 0.075060174, -0.06338362, 0.15274248, 0.08899655, 0.07216042, -0.05443216, 0.041707102, 0.24835372, 0.10978256, -0.024215057, 0.3356012, 0.15244178, 0.14070165, 0.16852704, 0.036580645, 0.045753676, 0.29476193, -0.08688268, -0.21643877, 0.02162903, -0.010797123, 0.045680635, -0.020405931, -0.06344588, -0.07385623, 0.11748971, -0.25732103, 0.027326843, 0.1538909, 0.2650653, 0.026540171, 0.043312352, 0.18445285, 0.039768882, 0.0118161, 0.22410855, -0.020928647, -0.08566531, -0.14956063, 0.21280088, -0.049995672, 0.14600389, 0.064254664, 0.1766838, 0.0025545696, 0.04027961, 0.008773485, -0.19493982, -0.2401977, 0.29839095, 0.0007038419, -0.088158816, -0.095323175, -0.23766044, -0.13739464, 0.06825106, 0.05944443, -0.0889807, 0.024585024, -0.10307361, -0.062171556, 0.13505039, 0.07350503, -0.024332892, -0.028257515, -0.09058032, -0.04799143, 0.2023208, -0.03371564, 0.11001212, 0.008289704, 0.077921025, 0.064636946, 0.3025985, -0.29183695, 0.12612696, -0.038146302, -0.048581973, 0.08463372, 0.1083432, 0.0039642924, -0.17890327, 0.1058131, 0.09598643, -0.20763807, -0.17472026, -0.22816342, -0.15340301, -0.024439322, -0.061703295, 0.09393011, -0.12436164, -0.13840395, -0.28827643, 0.044162814, -0.04269753, 0.13351825, -0.007663189, -0.14114353, 0.09312812, 0.059225034, 0.11207799, 0.11502385, 0.087682255, -0.05962629, 0.04862459, -0.12817638, 0.24139231, 0.19536063, -0.0049864682, 0.4033322, 0.19410871, 0.045774873, 0.13194023, 0.029999513, 0.06746446, 0.39593008, -0.0028767057, 0.13383462, -0.03408718, 0.05611293, 0.040915243, -0.030949742, -0.008991637, 0.28574184, -0.18863545, 0.07168076, 0.098981835, -0.07441586, -0.23394473, 0.1625383, -0.15581375, -0.21958457, -0.06934906, -0.077031754, 0.09183895, 0.16017178, -0.06772884, 0.2499613, -0.244125, 0.0989738, -0.22335409, -0.09149296, 0.06438046, 0.18002972, -0.050282802, -0.0429408, -0.10778238, -0.1482546, 0.11567623, -0.037071187, 0.118294485, -0.028521312, 0.018289007, 0.24570854, 0.12560844, -0.03668469, 0.028383981, -0.038333144, 0.010726866, 0.32970107, -0.016866568, -0.014539502, -0.24179262, -0.047271244, 0.19553432, 0.12075807, 0.14232816, 0.01239371, 0.014673652, -0.110580385, -0.042802542, 0.15872316, -0.036720037, -0.16867663, -0.05427321, 0.0748013, -0.22604729, -0.011551567, 0.073588535, -0.045173503, 0.10818837, 0.06661515, 0.14727029, -0.08272664, 0.18900089, 0.0850484, 0.21172872, -0.26143274, 0.037939377, 0.03862268, 0.16938727, 0.06710056, 0.0009732507, 0.25469285, -0.20794347, 0.03808719, 0.16790502, -0.03628184, -0.05582366, -0.10112531, -0.044615842, -0.13847071, -0.057386052, 0.18678561, -0.1381446, 0.088055976, 0.07341414, -0.15882252, -0.057830866, 0.40825745, -0.038976736, -0.048543025, -0.4993313, 0.1316473, 0.18027113, 0.05083885, -0.07273296, -0.04752948, -0.036728755, 0.1823447, -0.11766232, -0.04586292, -0.02719969, 0.21414319, 0.0019781415, 0.21711394, 0.1483104, 0.14141637, -0.027852701, 0.049083944, -0.0895591, 0.19662766, 0.0883029, -0.06433288, 0.18555747, 0.21087249, 0.14252245, 0.20094925, -0.06180806, -0.033664145, 0.3760456, -0.06717703, 0.14268097, 0.19023973, -0.11288286, 0.08188668, 0.17225173, 0.036016125, -0.1924008, -0.23132178, 0.18487452, 0.010728211, -0.034434468, -0.07468983, 0.14856519, -0.067267865, -0.22682054, -0.11915413, -0.043354094, 0.26093864, 0.037812464, -0.043681648, -0.044081688, -0.24052568, 0.19347103, -0.15155172, 0.057071783, -0.049984396, 0.017479446, -0.033661034, 0.04380676, 0.013022787, -0.08830612, 0.072188005, -0.19775085, 0.15775643, 0.37138206, 0.14575258, -0.121738285, 0.08245143, -0.0018303413, -0.06040066, -0.13203633, -0.04224937, 0.44951022, 0.13505732, 0.13162966, 0.18390152, -0.058215186, 0.098915674, 0.20143451, -0.09576277, -0.20113423, -0.03203415, 0.14095713, 0.14792655, -0.12953207, 0.08395483, 0.27599743, 0.27858114, -0.10170296, 0.2130511, 0.17065449, 0.056563955, 0.088333316, -0.073443286, 0.110835634, 0.03786672, -0.039421696, -0.00755929, 0.033838343, 0.010340882, 0.14500394, 0.13693224, -0.009275581, 0.17213337, -0.24378295, 0.06600677, -0.01627833, -0.0737543, 0.14286695, -0.052550796, 0.025490288, -0.016626887, -0.1591613, -0.14705965, 0.05056406, -0.08111193, -0.010121498, 0.04098874, -0.0672319, -0.101596735, -0.070241176, 0.1675262, -0.14051287, -0.1528666, -0.13333222, 0.0012615455, 0.07030616, -0.018102735, -0.32908282, 0.00074373407, -0.18966362, -0.012634722, -0.067758135, 0.023358822, -0.057623025, -0.13495366, 0.17026873, 0.10646971, 0.016206883, 0.04441475, -0.08464074, 0.1694796, 0.22739506, -0.050624005, 0.2297599, -0.09522368, -0.036880452, 0.0047604544, 0.10250734, -0.0678637, -0.20617782, 0.1003857, -0.15802668, 0.025001204, 0.13152498, 0.14888282, -0.12900917, 0.16197212, 0.05867752, 0.064654045, -0.054228656, -0.45301288, -0.19984451, -0.0015413277, -0.09805348, 0.046131905, -0.057929724, -0.15706857, 0.12867665, -0.081484705, 0.08506353, 0.067678615, -0.029181236, -0.080960184, 0.224991, -0.07620852, 0.023849674, -0.027735038, 0.045109067, 0.015391406, -0.017485991, 0.16108835, 0.028471908, -0.03676223, -0.07099489, 0.045758013, 0.11516955, 0.15366822, 0.1858362, -0.2169063, 0.015817251, 0.158709, 0.122257575, -0.19914949, 0.046239372, -0.04826839, -0.005744077, -0.34293458, -0.05012762, -0.23351303, -0.09911403, -0.24651328, 0.031243414, -0.107033074, -0.0484265, 0.05217569, 0.10052803, 0.058564853, -0.1023702, -0.0670906, -0.09038718, 0.13233401, -0.15002136, 0.13348432, -0.21794, -0.1497711, -0.15432644, -0.08378255, 0.08015843, -0.0024106612, 0.10384672, -0.16755415, 0.08756024, 0.10993863, -0.0062047364, 0.0054285238, -0.048389196, 0.060273062, 0.25333747, 0.076000206, 0.2896935, 0.01891469, 0.0779878, 0.3483672, 0.0136320945, -0.26244044, -0.0007349442, 0.110151805, 0.14583568, 0.020464882, 0.16798496, -0.031396586, 0.08709883, -0.09453842, -0.19294947, -0.0497421, -0.1154536, 0.31042257, -0.022421975, 0.005087693, -0.18518208, -0.042524844, 0.0057923947, -0.0022975327, 0.36019653, 0.025958281, -0.047548383, -0.102076076, 0.046048783, 0.010385041, -0.120172836, -0.092798434, -0.11236384, 0.09502178, 0.06676311, 0.1500707, 0.09762183, 0.21830752, -0.15754965, 0.23238945, -0.21130624, 0.2854187, 0.088076286, 0.037838675, 0.0325963, -0.11805134, -0.042394884, -0.057323467, -0.1660356, 0.09051748, -0.025441447, 0.12408316, 0.08327632, 0.2002048, -0.047301125, 0.018796653, -0.090070345, 0.2601615, -0.13965802, 0.13707703, 0.12329712, 0.19082843, -0.07383856, -0.084318295, -0.053668804, -0.10062632, 0.21585204, -0.16259165, -0.14449911, -0.036147594, -0.023528947, -0.12844914, -0.10858452, -0.08031815, 0.09590419, -0.08189933, 0.102969944, -0.059172552, 0.044179894, -0.21334627, -0.019101303, 0.10866608, 0.201848, 0.0041495273, -0.020447118, 0.07182652, 0.13416688, -0.01259442, 0.015531261, 0.039697066, -0.09240782, 0.07454823, 0.08475142, -0.1043554, -0.09277834, -0.19053555, 0.1226663, 0.059138168, 0.12814523, -0.049166586, -0.04832662, 0.12395838, 0.028699512, 0.1252889, -0.03625261, 0.1829224, -0.13782145, 0.0005421173, 0.015099728, -0.015677571, -0.046081867, 0.25681084, -0.044958554, -0.12647964, 0.12242717, 0.066419594, 0.06589385, -0.2384616, -0.23851298, -0.03714779, -0.033627067, -0.1645798, 0.078307025, -0.23892014, -0.0035725168, 0.21171707, -0.012355129, -0.11138374, 0.04790427, 0.13848339, -0.23330083, -0.11718336, 0.047426943, -0.29653698, -0.10309757, -0.022708021, -0.111591704, -0.014688912, -0.0041886107, -0.18780638, -0.16358146, 0.08327127, 0.13541232, -0.077370025, 0.022032548, -0.15712756, 0.14870974, -0.031101508, -0.27235535, 0.18549575, 0.05764575, -0.11438555, 0.28948694, -0.1798968, -0.31269377, 0.057338573, 0.10122087, 0.023575362, 0.03651957, 0.13181178, -0.11443816, -0.1956903, -0.117200345, -0.026028205, -0.22340208, -0.013676565, 0.019323569, -0.035788476, -0.1685705, 0.091435105, 0.06945107, 0.17742983, 0.03944388, 0.18924038, -0.14599325, 0.24657264, 0.05847365, -0.029726496, -0.06526314, -0.035056103, 0.005930166, -0.21250942, -0.2574158, 0.07060484, -0.23829097, -0.20008719, -0.07844464, -0.056175336, 0.10583963, -0.23651399, -0.07070923, -0.06621563, 0.11740679, 0.04519529, -0.042976666, -0.035197467, 0.014557015, 0.16505586, -0.103439935, -0.09202659, 0.03971836, -0.1771682, 0.004681001, 0.10588925, -0.1637879, -0.07477762, 0.17384793, 0.08185396, -0.09226924, 0.059681714, 0.034863025, -0.16909248, 0.043109447, 0.009645052, -0.11613173, 0.21169, -0.016597247, 0.0025505028, 0.1301281, 0.25207388, 0.17576624, 0.012332044, -0.25530124, 0.23444664, 0.0070909597, -0.16650589, -0.1458714, -0.11177331, -0.22280988, 0.011608519, 0.03387061, 0.13699979, -0.08559528, -0.10638721, 0.22790046, 0.09623509, 0.09619174, 0.029641902, 0.087850936, -0.098368734, -0.070526466, 0.37630197, 0.06117304, -0.11112688, -0.05953233, 0.099760346, 0.38015953, -0.12336263, 0.070100404, -0.0494497, -0.047410585, 0.037938733, -0.16428243, 0.15769106, -0.10169174, 0.016446838, 0.012585305, 0.18980637, -0.13528608, 0.1113716, -0.027658321, 0.09060334, -0.06334068, -0.11543283, -0.09981476, -0.07011048, 0.108008765, -0.026288552, -0.07074742, -0.061869428, -0.025131227, 0.0841282, -0.09610507, -0.092038244, 0.13943297, 0.034383208, 0.096038625, 0.02190034, 0.034030594, 0.0045427736, 0.031622946, -0.31813225, -0.3743533, 0.20574634, -0.0769655, -0.034601104, -0.14398856, 0.015501864, 0.002690311, -0.031038158, -0.09149074, 0.07162626, 0.18677433, 0.018900558, 0.18505873, -0.10621498, -0.29188576, 0.033108395, -0.046605717, 0.08392105, 0.32961038, -0.124431044, 0.08475224, -0.028667556, 0.055742253, 0.09030012, -0.019439176, -0.19111599, 0.06583938, -0.22515702, -0.16191256, -0.20896955, 0.03384973, 0.12302533, -0.16375606, 0.0022767812, 0.025321607, -0.11136832, -0.121983394, 0.0042240378, 0.23220952, -0.07548462, 0.033641726, -0.1103297, 0.05445856, 0.05298162, 0.014763306, -0.028056605, 0.19196945, -0.21924075, 0.090904936, 0.43136358, 0.025545046, 0.06844104, 0.10425048, -0.00020298788, -0.15488064, 0.054274682, -0.111010075, -0.27507868, 0.12310499, -0.02363868, 0.09107483, 0.063788675, -0.12421136, 0.17804037, -0.007275514, 0.06434023, 0.112595476, -0.07638878, 0.06406734, -0.13195997, -0.0687802, 0.030363122, 0.14203356, -0.28098637, 0.131812, 0.108612, -0.0620134, -0.16925752, -0.10954405, 0.04344767, 0.07696755, 0.029535701, 0.09170927, 0.0797432, -0.11196379, -0.07482081, 0.17813265, 0.14508678, -0.008314172, -0.03575956, -0.18363656, 0.19331568, 0.25373963, 0.19155417, -0.050391268, 0.113729596, -0.21127608, 0.11525167, 0.18700896, -0.21605054, -0.20123467, 0.15040575, 0.011580781, 0.06560244, -0.07283082, -0.1339644, 0.04040791, 0.12973271, 0.03804782, 0.05325811, -0.31770813, -0.018144805, 0.025045767, 0.04683324, -0.10522161, -0.06406176, -0.09998698, -0.050275557, 0.15132116, -0.015547829, -0.1351693, 0.016445983, 0.06428182, -0.055156965, 0.10124253, -0.04395917, -0.12792197, -0.08298613, -0.19765785, -0.0476215, 0.11928511, -0.17613503, -0.27122462, -0.07647701, -0.14291742, -0.014779388, -0.05670788, -0.15042448, 0.18542184, -0.008534062, 0.027457453, -0.17548895, 0.15335737, 0.20835234, 0.1726466, 0.2552671, -0.0096156895, -0.108375594, 0.15046442, -0.083866335, -0.027449971, 0.07112805, 0.010158785, -0.13430452, -0.09737309, -0.079980664, -0.05540459, -0.27608877, -0.15646182, -0.12183122, -0.007649307, -0.2564149, -0.13183804, 0.008071909, -0.13895942, 0.20121226, -0.14100353, -0.1459674, 0.08083085, -0.0016264088, 0.012387324, -0.023754304, -0.06116249, -0.2239247, 0.30437878, -0.117766514, 0.13216487, -0.14740431, -0.10707297, -0.09127879, 0.148328, -0.15399213, -0.1824924, 0.09621511, -0.095062524, 0.21324362, 0.09884057, 0.0035816696, 0.0017417711, -0.18421812, -0.04589359, 0.091431305, 0.08641255, -0.03388309, -0.067125134, 0.043700855, -0.09557099, 0.19864623, -0.17354871, 0.106443994, 0.14296316, -0.09615218, -0.26656196, -0.066273786, 0.06043246, 0.010874059, 0.11259582, 0.17936037, 0.19176675, -0.14052457, -0.15393427, 0.21361747, 0.19269519, -0.14423916, 0.05845293, -0.26670262, 0.13430956, 0.12016298, 0.16851906, 0.108081385, -0.059806462, -0.0014391135, -0.1250282, -0.003965741, 0.19007139, -0.058915507, -0.013676008, -0.03156602, -0.029853333, -0.1704725, -0.04473584, 0.1686351, -0.15209247, -0.17476808, 0.041877486, 0.22505726, -0.2022739, -0.051127296, -0.15690619, 0.29384556, -0.00018664326, 0.01898668, 0.045697045, -0.12291068, 0.052213635, -0.27221072, -0.11944553, 0.17508596, -0.1539077, 0.013244449, -0.1874369, -0.10912274, -0.11200423, -0.052628398, 0.089582406, 0.20367295, 0.032127667, 0.030124398, -0.21615574, 0.093466915, 0.07355723, 0.032163598, -0.25403398, -0.08942386, 0.04427013, 0.04094938, -0.3097812, 0.15440708, 0.04764171, -0.24003226, -0.10726802, -0.004732592, 0.24803248, 0.048691567, -0.12500402, -0.14467877, -0.112486705, -0.09079885, -0.12701863, -0.2522733, 0.01945048, -0.0464497, -0.053756412, -0.0018884324, 0.06367648, -0.11144186, -0.12113863, -0.02807571, 0.28217795, 0.044448927, -0.1358589, -0.28748742, -0.09008072

};

float fc2_b[256] = {
	0.045453228, -0.018221062, 0.005938618, 0.041264795, 0.016155627, 0.05084855, -0.0024251994, -0.0377769, -0.00620603, -0.064765304, -0.0024421045, -0.08599796, -0.040194135, 0.04100963, -0.04566027, 0.0159033, -0.040159963, -0.068996534, -0.014960419, 0.02992265, 0.028849002, -0.032506417, 0.020474149, 0.029227866, -0.058204178, 0.022552397, -0.07012942, 0.04471697, -0.018248549, -0.017657991, -0.054993372, 0.06715759, 0.004073131, 0.05120147, -0.020166386, 0.026398381, -0.06653872, 0.012357359, 0.01836611, 0.026524862, -0.009541176, -0.0037576219, 0.05650381, -0.005796693, -0.038724698, -0.043246064, 0.047955316, -0.045064315, -0.047548916, -0.022480732, -0.009438836, 0.09177371, 0.08242719, -0.024045216, -0.06766711, 0.009679858, -0.049515128, 0.05078648, -0.03188446, -0.021575397, -0.016742015, 0.03396662, -0.08040969, -0.0020183532, -0.026613846, -0.05259173, 0.02669278, -0.036711328, 0.018579252, 0.08239554, -0.05822886, 0.0024358924, 0.084473655, 0.02287575, -0.069616005, 0.08291081, 0.019600587, 0.04348705, 0.029143095, 0.013259483, 0.00032092904, 0.041244347, -0.05186802, 0.020025762, -0.040704906, 0.04799055, 0.060386036, 0.039277833, -0.05493507, -0.025575006, -0.051227093, -0.013221847, 0.010114974, -0.025184596, -0.06480474, -0.043507293, -0.027043838, 0.030545816, -0.022474587, -0.039709136, 0.011037018, -0.05065994, -0.0037025162, -0.03143812, -0.036322307, 0.024132255, 0.032930244, -0.057612643, -0.020337278, -0.0065911068, 0.018344441, -0.08301809, 0.034682937, 0.049818747, 0.078441665, -0.05114973, 0.118549116, -0.009818061, 0.046788283, -0.001519658, 0.04948288, -0.016560275, 0.032330982, -0.058885474, -0.03407503, 0.0064982977, -0.054367915, 0.013262703, 0.017070994, 0.021409964, -0.0063346266, -0.088768356, -0.065559156, -0.03601904, -0.0029242204, -0.061094895, 0.057604842, -0.0040410818, 0.0450074, 0.051290758, 0.04607107, -0.07051844, 0.03749245, 0.040647402, 0.053703234, 0.05065397, 0.02217914, 0.0009906718, -0.05171199, 0.021938171, 0.0020742288, 0.05452998, -0.01753202, 0.017484898, 0.0030955013, -0.037319615, -0.006295635, -0.016628083, 0.028743053, -0.007978246, -0.068690486, -0.045697227, 0.063686736, 0.011725409, -0.033746842, 0.005912973, -0.0138775995, 0.033727948, -0.005934839, 0.06967061, 0.09255683, -0.028033243, -0.019896869, -0.041088663, 0.03320632, 0.083621874, -0.08361996, -0.038859, -0.039443545, -0.04533957, -0.10688143, -0.0014449381, -0.017666819, -0.027710075, -0.01725323, -0.015204139, -0.008997359, 0.013827276, 0.03880551, 0.0032459912, 0.029601239, 0.0073745577, -0.025658702, 0.0023849616, 0.06947238, -0.0026345775, -0.04066999, 0.046000704, -0.028837597, 0.06378024, -0.076693594, -0.110100925, -0.06631236, -0.04085389, 0.023522878, 0.02858831, 0.032113265, 0.053525973, -0.034193948, 0.07376959, -0.07231288, 0.018123815, -0.04416613, -0.035205454, 0.048268877, -0.03743081, 0.015605602, -0.056422416, 0.09439869, -0.024441857, -0.0077619916, 0.044502717, -0.04119631, 0.06703918, -0.008628935, 0.05731959, -0.013180951, 0.026912099, 0.026145404, 0.017683472, -0.061083578, 0.08202105, -0.038634814, -0.0058627506, 0.019508867, 0.070229106, 0.042665817, 0.09051037, -0.017510619, -0.025451388, -0.0017527738, -0.094839394, -0.025153065, 0.027869765, 0.010108748, -0.041062627, -0.0015587916, -0.089813694, -0.007896527, 0.01228319, 0.09117528, -0.026450757, -0.079960816, -0.009904091, 0.030223852, -0.05040832

};


#endif
