#ifndef FC3_H
#define FC3_H
// Header file of the 10-th layer of the model - The type of the layer is fc


float fc3_w[64][256] = {
	-0.017903825, -0.07555005, -0.10402215, -0.11241518, -0.12332432, -0.19945271, -0.17023845, -0.09853453, -0.14541207, 0.02560899, 0.068197094, -0.0074879215, -0.083640344, -0.082622446, 0.08272864, 0.086138934, -0.04720728, -0.0797367, -0.09260042, 0.05728529, -0.07774027, 0.014880726, 0.10807265, 0.048002042, -0.14730844, 0.23148814, 0.11596055, -0.18172473, 0.11438902, 0.056665845, 0.11649795, -0.055760857, -0.05359755, -0.034330174, 0.21979083, -0.2452078, 0.11408538, -0.08604432, 0.22991766, -0.021335958, 0.047739312, 0.38471693, 0.09605259, -0.1089675, 0.071605176, 0.08334897, -0.05765172, 0.007698289, -0.020067748, -0.10854407, 0.047750026, -0.02030223, 0.12357885, -0.019781822, -0.047284484, 0.059554815, 0.03960886, -0.12850355, -0.10362857, 0.12009439, 0.012663764, 0.07321494, 0.010036493, -0.1725375, 0.12320014, 0.0970436, 0.04842232, 0.12824364, 0.11722439, -0.0378974, 0.069043234, -0.09617769, 0.19538054, 0.0908584, 0.059267785, -0.103135005, -0.025730321, 0.16803722, -0.063362926, 0.14415284, 0.05349738, 0.014098691, -0.012309489, -0.004903163, 0.113705486, -0.010126082, -0.16895454, -0.14093998, 0.08815182, -0.13695106, 0.024548408, 0.2348839, 0.1363732, 0.0030795464, 0.19179812, 0.08918271, -0.06682523, -0.22158003, -0.14982153, -0.13021988, 0.047784943, 0.115277916, -0.04482762, 0.012674828, 0.11633768, -0.06947319, 0.12349253, 0.1251755, -0.13519076, 0.11017776, 0.15817116, 0.18754047, -0.14255609, 0.115553916, -0.005297055, -0.10912944, -0.18161997, -0.039173037, -0.24768542, -0.0508782, 0.0648545, -0.016646717, 0.12306267, 0.08273961, 0.14941563, 0.01746596, 0.21378693, -0.073559746, 0.004229725, -0.17962709, -0.15583889, 0.057141494, 0.19904144, 0.13485247, -0.063785225, 0.15482982, -0.10031613, 0.19207254, -0.10663465, -0.06399301, -0.031401634, 0.15101777, -0.12360136, -0.079439916, -0.15815842, -0.0531615, -0.010856778, 0.05345554, -0.022809353, 0.16153154, -0.032793134, -0.045609258, 0.0063855313, 0.0064862478, -0.06737011, 0.3159251, -0.22205313, 0.11106666, 0.10490715, 0.06934577, 0.064324036, 0.14731023, -0.0033364692, -0.20391853, 0.014157119, -0.15836576, 0.058051776, -0.056585968, 0.3374811, -0.098238155, -0.1699174, 0.0561431, -0.1391486, 0.061773386, -0.069355495, -0.19790848, 0.014359627, 0.011808484, 0.037817337, 0.101392046, 0.18780732, 0.02034783, 0.057752408, 0.025980094, 0.005484093, 0.3486362, 0.08241309, -0.027480496, 0.028777882, -0.00024427008, -0.01947126, 0.12825033, 0.048118487, -0.016052473, -0.0019761242, 0.09191258, 0.094179906, -0.06351357, 0.058909614, -0.16546454, 0.13979444, 0.16498691, -0.1949449, 0.09693478, -0.038602494, -0.062610865, 0.05724613, -0.120203175, 0.1271178, -0.16081679, 0.11316647, -0.0036648074, 0.12809317, 0.09743069, -0.16049176, -0.09839288, -0.12805268, 0.05960293, -0.15122756, -0.055174645, -0.043346696, 0.11673414, 0.09644136, 0.21215704, 0.065067455, 0.10257738, 0.031727716, -0.15862854, -0.11567954, -0.09202715, 0.14172924, -0.07888083, 0.07850318, 0.10330672, -0.086692564, -0.029766575, 0.04666049, -0.10875429, 0.0020209441, 0.10355576, 0.07802726, 0.08222102, -0.13292561, -0.103577524, 0.10133622, 0.04341075, -0.0027763324, 0.07864174, 0.024783855, -0.039764002, 0.07844492, 0.06363292, 0.110415645, 0.1269727, -0.058092147, -0.15263958, -0.12271936, 0.09354249, -0.10856272, 0.05458479, -0.09509288, 0.2138729, -0.057863057, 0.10559272, 0.03673109, 0.19451012, -0.013972332, -0.15379642, -0.27211663, 0.036527652, -0.005535221, 0.19269396, 0.12864743, 0.020239392, 0.22759342, -0.32190886, -0.059007473, -0.21713234, 0.24357885, 0.23370387, 0.12969403, -0.15015097, -0.10500572, -0.005635298, 0.07803044, 0.09353427, -0.010331481, 0.08327345, -0.090827286, 0.07408448, 0.07194824, 0.0719681, -0.0116389645, -0.055009425, 0.10094297, 0.16411304, 0.08058801, -0.008991898, 0.059685964, 0.0172169, -0.04470339, 0.011767469, 0.04771453, -0.020874558, -0.07504648, -0.052818615, 0.039311465, 0.07315634, -0.1626077, -0.009396816, 0.17402934, 0.20943257, -0.05110888, 0.072941564, -0.107786335, -0.012199673, 0.11632875, 0.019646881, 0.21894687, -0.008082556, -0.014888845, -0.063854314, 0.13328363, -0.016190387, -0.06402843, 0.009840347, -0.07255145, 0.076741315, -0.13166404, 0.1419104, 0.18991657, -0.2703994, 0.10677845, -0.09817794, -0.07860892, -0.056060985, -0.00686778, 0.18143994, -0.34170935, -0.06044096, -0.016284619, 0.22444691, 0.101451375, 0.067606054, -0.14492573, -0.10409826, 0.031071622, -0.012085543, 0.10634259, -0.26688674, 0.031850506, -0.09520921, 0.026250752, -0.15079466, -0.0011671172, -0.27907887, 0.00040166522, 0.49545446, 0.07488397, -0.10270308, -0.038714577, -0.2517055, 0.13836804, -0.038722098, 0.08659393, 0.14811538, -0.12168645, -0.059123892, -0.21194538, 0.04506588, -0.21622005, -0.060416672, -0.13446756, 0.0790677, -0.07038258, -0.2691819, -0.0976004, 0.14717697, -0.12903988, 0.011473439, -0.0018048208, 0.19786568, 0.13356593, -0.12082844, -0.048447747, 0.07117685, -0.027787613, 0.12204142, -0.02841701, -0.043040194, -0.28035277, -0.11492617, 0.011680459, 0.06593184, 0.008960558, 0.05935919, -0.11664192, -0.11508096, 0.041553047, -0.16480489, -0.16490482, -0.010327407, 0.18788774, -0.06936102, -0.11080034, -0.0356058, -0.08248139, 0.07901053, 0.059813086, -0.3466475, 0.008809548, 0.13255703, 0.08307126, 0.09634723, 0.1445413, -0.07443618, 0.18143384, 0.11212732, 0.053390246, -0.17137799, 0.047309417, -0.0040488634, 0.04846125, 0.043225273, 0.26041916, -0.0009589928, -0.17389841, 0.0072549023, 0.000819139, -0.19147125, -0.015057454, 0.049046375, -0.04835928, -0.049603507, -0.09471311, 0.059095684, 0.16920231, -0.077336945, -0.035883628, -0.027415931, 0.22812201, 0.075059175, -0.21274173, 0.069821574, 0.120399565, 0.1390163, 0.19399936, 0.04559785, -0.071927205, -0.018929364, -0.09510922, 0.030885434, -0.08055077, -0.018466976, 0.2261087, 0.018031739, 0.017676624, 0.104956575, 0.004041467, -0.08112295, 0.03470486, -0.13576749, 0.07943813, 0.13543548, -0.011791194, -0.22863206, -0.14851105, 0.15697283, -0.13011609, 0.022163427, 0.09712426, -0.10866415, -0.03330153, 0.11997703, -0.008632385, 0.053799048, 0.19121021, 0.0849324, -0.1368098, -0.33091143, 0.013013586, 0.034693636, -0.07669552, 0.065148786, 0.07609982, 0.07067123, -0.029465636, 0.06821005, -0.06046304, 0.2304458, 0.059547767, 0.1672337, 0.07413753, 0.12084536, 0.089407474, 0.034797676, -0.13243873, 0.1274443, -0.117543966, 0.0845561, -0.02609858, 0.026818216, 0.16482285, 0.0215366, -0.102159224, 0.1067023, -0.017795293, 0.11070624, 0.031034531, -0.0076304153, -0.08644828, -0.0645125, 0.031951196, -0.02182865, 0.0903558, 0.014259685, 0.13555914, -0.10626336, -0.001072407, -0.0012345272, -0.2595561, -0.097298846, 0.036522895, -0.19838369, -0.073278, -0.12207783, 0.15747698, 0.12062355, -0.022407405, 0.06476135, -0.21784051, 0.20617329, 0.13406493, -0.04597887, -0.012262729, -0.018784069, -0.0689939, 0.08373149, -0.110366546, 0.023925569, 0.07678986, 0.036654335, 0.06329392, 0.072755754, 0.11087114, 0.0017946542, 0.02399726, -0.18452246, -0.014165045, -0.025798853, -0.09599419, 0.16614425, 0.28775403, 0.50224376, -0.02343898, 0.040404458, 0.09872458, 0.013944136, 0.10744153, 0.20668377, -0.032340392, 0.16814029, 0.04044963, -0.041382812, -0.085780405, -0.071059056, -0.02278171, 0.2404452, -0.045887846, 0.0036853016, -0.070483215, -0.1603245, -0.1043711, -0.032931942, -0.19732602, 0.12502341, 0.099566, -0.014356782, -0.0026639334, 0.2708044, 0.056882903, -0.022044202, -0.14751746, -0.043095466, -0.008444652, 0.02232103, 0.03525573, 0.108341455, 0.055512093, 0.058229003, -0.14714138, 0.043630116, -0.020757366, 0.025623048, 0.09491231, -0.06350185, -0.07114814, -0.07198246, 0.019661207, 0.10335978, 0.10384384, -0.14837179, -0.044206757, 0.086426094, 0.035311624, -0.04396759, -0.17849289, -0.092073984, -0.010214329, -0.12445617, 0.011399826, -0.016035058, 0.028047198, -0.09464991, -0.1118649, -0.03508311, 0.053763665, -0.015407589, 0.05158752, -0.02604791, -0.09683897, 0.089805506, 0.013737793, -0.119598076, -0.020870041, 0.17862718, 0.089849494, -0.106220536, -0.040172387, -0.11643199, 0.07620573, -0.04462326, 0.25018322, -0.101867445, 0.16469157, -0.28940406, 0.011612062, 0.04289307, 0.19372179, -0.10427895, 0.109134324, -0.16429698, -0.110096924, -0.0963144, -0.11278082, -0.05076013, 0.06959629, -0.08481575, 0.14461486, 0.23780078, 0.07508531, 0.01933282, 0.0868254, 0.0030794174, 0.032680746, 0.13660432, 0.02410026, -0.1391195, 0.0037816935, -0.07318585, -0.20084433, -0.031428266, -0.0401273, -0.051115945, -0.046235047, 0.027484791, 0.1623629, -0.08374969, -0.2567128, -0.033730004, 0.0290586, -0.15450826, 0.13932388, 0.1386592, 0.2032702, 0.06212958, -0.13302052, -0.14386733, -0.063040376, -0.1996732, 0.22933896, 0.041565634, 0.033544544, 0.02084515, -0.19812392, 0.0015454092, -0.018389223, 0.032826897, -0.081150144, -0.050460044, -0.009918382, 0.058122993, -0.11991259, 0.008299497, 0.1694141, 0.08694718, -0.13624655, 0.03280705, -0.03286906, 0.12492446, 0.15446194, 0.14507551, 0.061675534, 0.027718829, -0.08412588, 0.028479319, 0.11259279, -0.12843859, -0.010688714, 0.16179533, -0.12286287, -0.10976582, -0.08901014, 0.013256568, 0.0072394973, -0.12689205, -0.029554486, 0.1363611, 0.09978935, 0.0456775, 0.08962692, -0.00037259908, -0.05934626, 0.058318857, 0.06732327, -0.17582555, 0.0049045933, 0.0841123, 0.122571245, -0.045962453, 0.17600212, 0.10304513, -0.23691039, 0.16296856, 0.10407052, 0.24164627, 0.004326917, -0.107845984, -0.15115356, 0.043754295, -0.06127167, 0.14387548, -0.017701937, 0.09994038, -0.02302712, 0.06536611, -0.09305269, 0.08130816, 0.10151069, 0.1726538, -0.101213105, -0.13276929, -0.03528104, -0.04488206, -0.19022903, 0.048219834, -0.062259607, -0.18765368, -0.10524932, 0.169418, -0.097880356, -0.07439207, -0.03611509, 0.034113005, 0.28324065, -0.131381, -0.008055575, -0.28392062, -0.015249157, -0.13184884, -0.03782125, -0.05641957, -0.109939255, -0.02146611, -0.05578653, -0.12906682, -0.19502026, -0.08766412, 0.07065707, -0.28083846, -0.14908722, 0.003470843, 0.036815844, 0.06753923, -0.10954919, -0.02073468, -0.035470832, 0.23159671, 0.016893748, -0.0979235, 0.030807927, 0.09124985, -0.061726537, 0.1280676, -0.0058219987, 0.03300325, 0.01867788, 0.017011438, 0.010910777, 0.16084921, -0.0016796278, 0.025651535, 0.12052161, -0.18427159, 0.005510358, -0.09695345, 0.048587617, 0.0533035, 0.2111213, 0.33238494, 0.06603547, -0.049599517, 0.14021833, 0.021327287, 0.03224165, 0.086569, -0.02049194, 0.02221622, 0.030165214, 0.08184766, 0.15304637, -0.11845096, -0.062780984, 0.1596244, 0.0004039171, 0.06659294, -0.06753441, -0.114155285, -0.068265595, 0.10579988, -0.16227937, 0.015493875, 0.093282446, -0.035152633, 0.03852979, 0.10199893, 0.010219239, 0.09272934, -0.16432606, -0.105524376, 0.22729197, 0.16906293, -0.13654813, 0.0945024, 0.053948462, 0.16291095, -0.120477945, 0.1596442, -0.077748105, 0.09986367, 0.0012643198, 0.09205284, 0.0010375319, 0.07203945, -0.03582759, 0.03979613, -0.0076528685, -0.16494988, -0.088102356, 0.016488377, 0.14033887, -0.13974419, -0.17322181, 0.0021532604, 0.0018178038, -0.123945355, -0.13770823, -0.0056882952, 0.07728798, -0.047843356, -0.09030257, -0.16312532, 0.016003394, -0.020356314, 0.1617437, -0.067451335, -0.21336432, 0.109389044, -0.021744607, -0.056322277, 0.046104264, 0.21766384, 0.09584264, -0.22924012, -0.027562961, -0.08050384, 0.008165478, -0.0014362999, 0.1830436, -0.043136936, 0.15894167, -0.19823977, 0.07594617, 0.09503957, 0.13905731, -0.019703962, -0.008709542, -0.1912552, -0.0686212, -0.10891284, 0.015506382, -0.0294117, -0.024578229, -0.05487316, 0.062182393, 0.14429103, 0.05837816, 0.034347713, 0.11847118, -0.014201055, 0.056859642, 0.103097916, 0.00093985174, 0.032778487, 0.031529795, 0.093589485, -0.18257155, 0.14962895, -0.08765643, -0.09414567, -0.13587055, 0.113698274, 0.14955655, 0.063429944, -0.28670806, 0.011373465, 0.008778518, 0.038725525, -0.05672652, 0.13199292, 0.08887117, -0.053166136, -0.037299488, -0.066974565, -0.10199787, -0.05994037, 0.2924227, 0.01479609, 0.07193681, 0.0023420402, -0.20245628, -0.04089346, 0.021947792, -0.0039730472, -0.14671594, -0.023312768, -0.04904444, 0.078337, -0.04460914, -0.08205787, 0.052272595, -0.081735015, -0.12687805, 0.16946554, -0.008323115, 0.084818654, 0.027131692, 0.119587064, -0.034778826, 0.1406826, 0.060453843, -0.01992491, 0.24908163, -0.14903148, -0.05412409, 0.077435695, -0.09783623, -0.019137524, -0.12897094, -0.16716231, -0.18141659, -0.09323959, -0.077076264, 0.095350616, 0.15551688, -0.023945175, 0.07449813, -0.008611622, -0.057545524, 0.103627525, 0.04807585, -0.08722243, -0.020337405, -0.019991042, 0.09020861, -0.032084342, 0.16382639, -0.039496046, -0.090226665, 0.1517903, 0.15053472, 0.2841154, -0.050408658, 0.11669493, -0.06587535, -0.074150845, -0.09343147, 0.019425485, 0.052171372, 0.15142335, 0.04546277, 0.050273858, 0.041277327, 0.115180455, 0.011045004, 0.11293668, 0.039337665, -0.09690248, 0.029679218, -0.14313115, -0.2326577, 0.023470195, 0.0061498154, -0.12706827, -0.13147475, 0.08297058, -0.066364884, 0.012207914, 0.079053424, -0.049404602, 0.09177475, -0.025404656, -0.0006341922, -0.24939908, -0.0025559578, 0.05836864, 0.03719532, 0.13168725, 0.053188786, 0.09705489, -0.025897138, 0.052673105, -0.001674214, 0.17845905, 0.15463918, -0.004276808, -0.014287942, 0.060958162, 0.08725952, -0.048097122, 0.05083108, 0.22099578, 0.24040279, -0.16859704, -0.042150795, 0.043351516, -0.09188455, 0.10611873, 0.108543865, -0.24832585, 0.069715686, 0.11563629, 0.01173801, -0.09274224, 0.12899959, 0.015783122, -0.08319385, -0.16550036, -0.05066398, 0.05118626, 0.034180358, 0.040911186, -0.03735593, 0.13995658, 0.09242779, -0.08776906, -0.056694064, 0.101026386, 0.06850392, -0.08028331, 0.09672241, -0.08165226, 0.10804009, 0.21780224, -0.0773899, -0.21943513, -0.23437782, 0.0126182875, 0.10260711, -0.049356032, -0.056484684, 0.09619417, 0.14486346, -0.06981196, -0.00800418, -0.08997229, 0.25342518, -0.0046478296, 0.14473145, -0.10636115, -0.04805188, -0.0929083, -0.18753806, -0.123904124, -0.05261254, 0.30587167, -0.30030465, 0.10167892, 0.15669292, -0.19880143, 0.066175334, -0.16204034, -0.08059175, -0.11300512, -0.106900476, 0.031492997, 0.02784259, -0.026705697, -0.013267862, 0.056440413, -0.14713454, -0.032367628, 0.12397287, 0.14185669, 0.13808838, -0.24095638, 0.03357831, -0.26068342, 0.0058354577, 0.08413502, 0.16870478, 0.05689221, 0.19285615, 0.046782263, 0.0061694197, 0.14745377, 0.123760715, -0.038477167, 0.17381045, 0.0011544316, 0.17132038, 0.15414873, 0.0554518, 0.0326034, -0.11146392, 0.07678268, 0.10794622, -0.1380687, -0.19366798, -0.020467099, -0.27368808, 0.05395225, 0.113272965, -0.11268953, -0.06008468, 0.16659887, -0.01620914, 0.101589605, 0.1272799, 0.0802142, 0.03645834, 0.26848224, -0.09405777, 0.08041409, 0.17883192, 0.3373037, -0.11500174, -0.073878355, 0.029947136, -0.028722672, 0.18466246, -0.049666565, -0.06206083, -0.08436185, -0.14866784, 0.040891323, 0.019508472, -0.016572475, -0.22036354, -0.011807301, 0.014700693, -0.15375385, -0.0148267485, -0.042945858, 0.06584176, -0.020422893, 0.13107933, -0.14240545, 0.2032453, -0.100705415, 0.050725613, -0.10130432, -0.14938158, -0.027825562, 0.28446501, -0.066540316, -0.033711713, 0.03467259, 0.0673953, -0.027593892, -0.043590624, -0.07095179, -0.009408254, -0.10027293, -0.093937784, 0.003166365, -0.13322033, -0.013946394, -0.0065624863, 0.09659101, 0.12902172, -0.08172531, -0.10581461, 0.05335074, 0.11264424, -0.03326898, 0.026070168, 0.047321003, 0.0654796, -0.10718368, -0.12295818, -0.1508419, 0.10142217, 0.2051199, 0.108652435, -0.0043930057, -0.11896965, 0.007954133, -0.11063431, -0.040825296, 0.08020053, 0.031644657, 0.06740429, 0.027573692, 0.03305028, 0.021230256, 0.08248005, 0.056754015, 0.11017553, 0.036188748, -0.15167116, 0.07330071, -0.1637891, -0.2446366, 0.11513684, 0.07378343, -0.037611593, -0.08043257, 0.047939558, 0.20837381, 0.039822392, -0.039190397, -0.016064977, 0.043658353, -0.021083873, -0.15140718, -0.03228236, -0.3624952, -0.020522637, -0.07354208, 0.09108544, 0.16171902, -0.01624033, -0.013947811, 0.07235312, -0.17889073, -0.08053264, 0.002001114, -0.0109524205, 0.0898988, -0.061735466, -0.10067543, 0.046312056, -0.07097497, -0.105007224, 0.23643382, 0.035158716, 0.04436961, -0.033903833, -0.06534137, 0.0251058, 0.10470145, -0.013251735, -0.049054425, -0.24253872, -0.016701251, 0.13402106, -0.096649826, -0.10710469, 0.1255293, -0.0021236236, -0.11586003, 0.15748046, -0.06548919, -0.07335227, 0.030401977, -0.15990436, 0.05290498, -0.05810791, -0.019858193, -0.033456802, -0.010389717, 0.0665442, 0.007901596, 0.00143506, -0.014637601, 0.12302136, 0.079837844, 0.116576694, 0.1100795, -0.14764307, 0.122124985, 0.03961652, 0.08523095, 0.05164202, -0.14626868, -0.09125281, -0.06222661, 0.039245468, 0.010039172, 0.0019171423, 0.1200095, 0.06682526, -0.041363176, -0.10617573, -0.054542426, 0.123622574, 0.051032078, -0.17880416, 0.10970864, 0.3397677, 0.107329905, -0.1409618, 0.0031814384, 0.12875305, -0.0012685686, 0.18405859, -0.008667962, -0.14487919, 0.10330225, 0.043904196, 0.06857221, -0.17328599, 0.0132654905, -0.11097876, -0.021521056, 0.04825423, 0.19354437, 0.027054904, -0.17703222, 0.043298643, 0.01152791, 0.03283716, -0.028093958, 0.11098888, -0.08767823, 0.15737106, 0.15169263, -0.11824952, -0.053646747, -0.14633945, 0.1384566, -0.22773407, 0.19392109, 0.3190219, -0.01909289, 0.15857337, -0.12414201, -0.028106678, -0.14703234, -0.009279021, 0.16551217, -0.17153963, -0.21486977, 0.051916547, 0.07868735, -0.023354229, 0.1731172, 0.05772822, -0.06893325, 0.17129862, -0.0659595, 0.20983434, -0.18957564, 0.03775099, 0.12816273, 0.033815183, -0.23344956, 0.11109075, 0.17182139, 0.101161346, 0.07168876, 0.16674924, -0.026525732, 0.06660503, -0.043345023, 0.11064271, 0.15947114, -0.16128229, 0.16736062, -0.057615273, -0.089435615, 0.04297341, 0.001282506, -0.2001367, -0.170728, -0.26021013, -0.15432736, 0.11361158, -0.1107396, -0.079147875, 0.07185766, 0.07960174, -0.29158717, 0.10687792, -0.17043342, 0.22719342, -0.06493396, 0.047627516, -0.056105155, -0.093534105, -0.01382321, -0.018757444, -0.058717977, -0.05498039, -0.025648482, 0.23055857, 0.031569462, 0.16888861, -0.020954061, -0.08516056, 0.03692522, 0.02658856, 0.02238766, -0.00911199, -0.047716614, 0.030964972, -0.14543383, -0.20144206, -0.007393976, 0.027949734, -0.048376244, 0.025978334, 0.028870031, 0.22243066, 0.09107109, -0.04991702, -0.07255044, -0.027732342, 0.121096075, 0.19503176, 0.11238058, 0.1279591, -0.052380864, 0.039126754, 0.026217746, -0.055965837, -0.339024, 0.2125688, 0.017317796, -0.16054323, 0.0033888, -0.16705252, 0.028076716, -0.23552565, 0.054195035, 0.051434126, -0.10826627, -0.12561095, -0.023811245, 0.1435057, 0.067327976, 0.0893692, -0.051464915, 0.018678235, -0.0017626333, -0.121324785, -0.04724741, 0.075773634, 0.13114661, 0.17756155, -0.077747695, -0.053981654, 0.012722869, 0.032924194, -0.2260723, -0.00032981057, 0.078911334, -0.15087049, -0.17030685, 0.05627713, 0.2010263, 0.09860204, -0.082478315, 0.0072113564, 0.031060478, 0.016595012, 0.060107753, -0.0047272015, -0.16749038, -0.011178832, 0.02378523, -0.08241602, -0.13990131, 0.043289825, -0.027397137, 0.12751304, 0.015520138, 0.049024574, -0.035595074, -0.22746257, -0.06355866, 0.017956197, -0.12874669, 0.004753383, -0.14690098, -0.18762685, -0.0009200615, -0.0056218305, 0.05793104, 0.087155834, 0.095526524, -0.15016973, 0.081725135, 0.1448867, 0.18884754, 0.046889633, 0.11502316, 0.026561098, -0.18115276, -0.20735788, 0.0192167, 0.035028875, 0.10372753, -0.11451522, 0.0040284465, -0.20222329, 0.17827949, 0.022958016, -0.043814767, -0.20069674, -0.10467157, 0.27111405, -0.16104093, 0.004962871, -0.007930723, -0.16559626, 0.16858403, -0.0049369116, 0.03598283, -0.15439866, 0.08339503, 0.06458607, 0.04637315, 0.07020505, -0.040607754, 0.09659391, -0.009941497, 0.044453938, 0.10593548, -0.028246196, -0.031710077, 0.13642925, 0.1321858, 0.2682802, -0.25986752, 0.0353812, 0.031110607, 0.12318445, 0.07519666, 0.012485243, -0.25514582, 0.11869213, -0.064507425, 0.023841023, 0.024145812, 0.059810117, -0.023090562, -0.23774518, -0.17189689, 0.0039415685, 0.24920568, 0.12578343, 0.07205767, 0.077661306, 0.00634156, 0.027380714, -0.41091853, 0.01586785, -0.062035725, 0.04702521, 0.09934133, 0.0019096683, -0.26963007, -0.04309523, 0.041000307, 0.077817395, 0.16426869, 0.047654327, 0.10491155, 0.005492993, -0.19312409, -0.16394897, 0.055280134, 0.080692396, 0.057339046, 0.027940456, -0.099221766, 0.3053259, -0.11614622, -0.07694453, -0.030514736, -0.06471842, -0.16526426, -0.0059814397, 0.1630098, -0.122915216, 0.13130221, -0.15171345, 0.028374476, 0.20169577, -0.16420043, -0.040896658, -0.11151774, 0.19088106, -0.18209319, -0.045051016, 0.022046275, -0.3385072, 0.12283035, 0.14200765, -0.008350378, -0.05414627, -0.2001987, -0.004662096, 0.0841622, 0.02604195, -0.051850993, -0.07335312, -0.101608835, 0.20288166, 0.11759359, 0.1725827, 0.13529395, -0.006754748, -0.021655401, 0.008117291, 0.23908424, 0.12791961, -0.07551517, 0.036900192, -0.008398351, -0.080246, 0.026187321, 0.060076494, -0.17343384, -0.14702173, 0.13273865, -0.0032271254, -0.005078983, -0.32590532, -0.012630624, 0.021540726, 0.114380226, 0.004905019, -0.014089841, -0.27620485, 0.19039807, -0.026841622, 0.09426071, 0.09698399, 0.0612086, -0.17907242, -0.035666913, -0.13477996, 0.0019477643, 0.056464426, 0.09166022, -0.048270896, 0.026607873, 0.04835989, 0.091544494, -0.036696684, -0.30034503, 0.022940345, -0.121711895, -0.00659625, 0.03309369, -0.057818327, 0.05358388, -0.13084032, 0.009874946, -0.05779316, -0.028452724, -0.1815189, 0.10130406, 0.11843388, -0.04379401, 0.18808748, -0.17025054, 0.11900628, -0.019921582, 0.31844676, -0.04983957, -0.028415537, 0.09932579, 0.01322942, -0.084335685, -0.16833451, 0.018047785, 0.16008495, 0.02575915, 0.03995344, 0.11963472, -0.061828334, -0.010492813, -0.018475706, -0.012243841, 0.03527507, 0.08852594, 0.048672993, 0.05880741, 0.1568864, 0.039988432, 0.017767517, -0.22640173, -0.013126925, -0.1020894, 0.10082077, -0.054784372, 0.029860038, -0.08617628, 0.05164173, -0.11346608, -0.07108864, -0.095253415, -0.0472541, 0.08359251, 0.06739569, -0.16100752, 0.03556765, 0.092089735, 0.11561818, -0.13908622, 0.16316465, 0.21382965, 0.21296185, -0.052940734, -0.067314215, 0.11766046, -0.097779095, -0.04952844, -0.11285213, -0.054873884, -0.15079299, -0.07548183, 0.027788958, -0.06313054, 0.0076435693, -0.031900793, -0.06872807, 0.047552474, -0.19973427, -0.017541965, -0.0014160122, -0.06293466, 0.14208376, -0.17821091, -0.0624943, -0.3244449, 0.0884617, 0.12384514, 0.089389704, -0.083699204, 0.009751486, -0.0861498, 0.13335754, -0.12775111, 0.022242144, -0.05471727, 0.0035813965, -0.0055205487, -0.11328146, 0.012733324, -0.029134782, 0.033548873, 0.01683249, 0.14012006, -0.091852814, -0.12443537, 0.16971973, 0.16615298, 0.034272373, -0.10619413, 0.12166279, -0.010240701, 0.114398845, -0.044855293, -0.14752159, -0.10369882, -0.1208899, 0.18455537, 0.044708926, 0.04312941, -0.03427971, -0.047961026, -0.07577309, -0.16715953, 0.0020695499, -0.1700302, -0.029074967, -0.10084564, 0.13568312, -0.044092674, 0.05195653, 0.12603936, 0.19272266, -0.13021758, -0.057489272, -0.030275768, 0.0657063, 0.009375925, 0.067189395, 0.2567014, 0.054994002, -0.16979082, -0.19511068, 0.08581856, 0.07914229, -0.2264666, 0.076687805, 0.09178795, 0.1806025, -0.047243603, -0.12143218, -0.09585651, 0.1573214, -0.119117126, 0.017703708, -0.0042708004, 0.1969526, -0.16583338, -0.14681771, 0.111460924, -0.05176525, -0.039133746, 0.057176262, 0.19708, -0.12446589, -0.05438255, 0.1827259, -0.100542866, 0.035512254, -0.16285567, 0.18047607, -0.014327689, -0.1421405, -0.059177026, 0.069924146, -0.09254433, 0.08495862, 0.18588515, -0.075097024, -0.08307019, 0.12238887, -0.16886044, 0.13818514, 0.18010655, -0.109335035, -0.04048281, 0.124356866, 0.16751377, 0.063766725, 0.024590723, 0.07405574, -0.0469435, 0.030890698, -0.05697948, -0.057628054, 0.1915356, 0.036870353, -0.09654771, 0.07624243, -0.14071871, 0.10425794, 0.070965864, 0.19836375, -0.06557474, -0.2528964, -0.14633378, 0.21726383, 0.09344313, 0.012090795, 0.025791042, -0.055832084, 0.07025136, 0.3154195, 0.17878859, -0.061177056, 0.0009522648, -0.012939198, -0.04492646, 0.10665742, 0.09860813, -0.093307234, -0.048221853, 0.12942336, 0.13834383, 0.017114295, 0.17755531, -0.053782243, -0.04552923, 0.0990221, 0.2596847, 0.07446279, 0.07055457, -0.12642364, 0.1070488, -0.1492931, 0.13839778, -0.12286859, 0.17469643, 0.0457923, 0.13824195, 0.13996322, 0.204032, 0.1736034, -0.10452131, -0.070846125, 0.06463354, -0.03808685, -0.035508957, 0.12317703, 0.034682523, 0.076808475, 0.15508138, 0.108073466, 0.17590253, -0.07469254, 0.04924105, -0.050181694, -0.207989, 0.08541435, 0.31089044, -0.21872303, 0.016475765, -0.015752608, -0.07590838, -0.19463882, 0.12039331, -0.06691726, 0.16369931, 0.15186055, -0.13815603, -0.08673756, 0.1083032, -0.12254874, -0.030884419, -0.09607905, -0.14403109, -0.13148403, -0.01877836, -0.081447616, -0.115343675, -0.21412331, 0.036761362, -0.0694884, -0.06275417, 0.022641314, 0.13576312, -0.037671555, -0.086721465, -0.13682403, 0.078846015, -0.060913946, 0.12828009, -0.0068001994, -0.020602545, 0.09126337, 0.01612561, 0.10217594, -0.034103207, -0.068897836, -0.04363638, 0.20599873, 0.023018481, 0.032848734, 0.17924328, 0.118790105, -0.13573323, -0.0011617786, -0.0061772373, -0.1665185, 0.092400365, 0.115252435, -0.034662575, 0.005883987, 0.082257, 0.14449114, -0.15417437, -0.08879938, -0.040211286, 0.22616917, 0.0029466732, -0.10248586, 0.267102, -0.04011129, 0.032568097, -0.14551198, -0.1572443, 0.06857912, -0.13025929, 0.1902543, -0.1338837, 0.11914563, 0.03337511, -0.1874752, 0.057823796, -0.06913947, -0.01666995, -0.0816862, 0.055156186, 0.0076568928, -0.10817443, 0.19904815, -0.025540626, 0.02642595, -0.018905519, 0.12283436, -0.09162605, -0.100217074, -0.17535354, 0.27817106, -0.1392564, 0.092869036, -0.036749583, -0.15565126, -0.10244097, -0.036424685, -0.16207713, -0.09455941, 0.17161225, 0.1828843, 0.08993354, 0.028695539, -0.1651822, 0.15838203, 0.14378129, -0.09326572, -0.10015956, 0.13686511, -0.16517843, 0.102218255, 0.03534413, 0.018916316, 0.041273948, -0.24848303, 0.0032339883, 0.13309711, -0.014471143, -0.0014901416, 0.011609834, -0.12532358, -0.04664472, 0.017734317, -0.072963275, 0.017221242, -0.020289108, 0.017565275, 0.06805184, 0.16786283, 0.0649702, 0.0036111437, -0.060107667, -0.092488624, 0.12467458, 0.2363497, 0.07042084, -0.05209526, 0.10091967, -0.037690576, 0.018293835, -0.06557293, -0.010063678, 0.26907668, 0.029656753, -0.05978738, -0.10791572, 0.015143726, -0.038647983, -0.04185248, -0.1987172, 0.044381686, 0.0071746437, 0.09232673, 0.09627709, 0.09506239, -0.032204542, -0.02025987, -0.23276787, -0.035320595, -0.040020216, -0.007109524, 0.07462241, -0.0070391786, -0.03494574, 0.24714653, 0.23810315, -0.1332421, -0.261771, 0.05599837, -0.020608954, 0.09490005, -0.2815225, -0.023249669, -0.1331776, 0.23149896, -0.05486176, -0.18801852, -0.13765728, 0.09709148, -0.11253317, 0.0813247, -0.065746106, -0.18370475, -0.22052652, -0.014471861, -0.04621143, -0.0051155263, 0.1600404, -0.24285021, 0.05468895, 0.0076828185, -0.0427912, -0.104715675, -0.029488211, 0.22567073, -0.12813014, -0.083116405, -0.19449478, 0.15214911, 0.14492834, 0.17638241, -0.037877917, -0.20133574, -0.14652054, 0.1763807, 0.15878777, 0.08133788, -0.15143152, -0.1219052, -0.13505314, 0.026804615, 0.1327468, 0.2614404, 0.075446144, -0.0052803922, 0.1586932, 0.065441705, -0.026131032, -0.01741171, -0.013085624, 0.16558056, 0.15810832, 0.028128948, 0.16716823, -0.13261418, -0.09094022, 0.017396165, 0.18756743, 0.12766792, -0.052806877, -0.10070557, -0.09895378, -0.15864278, 0.026880076, 0.19658639, 0.06707112, 0.0071202517, 0.031364877, 0.16215546, 0.11582105, 0.24704015, 0.093483575, -0.19773343, 0.31500697, -0.18756218, 0.068505816, 0.07456283, 0.1916552, -0.081852965, 0.07990115, 0.20800056, 0.054295637, 0.021666873, -0.15698616, -0.17640728, -0.0648294, 0.038535334, 0.08029343, 0.121371605, 0.11452652, -0.07381503, 0.14806248, -0.067877345, 0.07419877, 0.069421746, 0.08239472, 0.026509374, -0.19391738, 0.16619284, 0.08608243, 0.10362471, 0.06631254, 0.18728639, -0.13782959, -0.19368914, 0.16222513, 0.017141923, -0.15378696, -0.07568985, 0.029510912, 0.018660247, 0.04928966, -0.00068714237, 0.015240202, -0.01768005, -0.026444642, -0.016208733, 0.084237166, -0.020590642, 0.12524906, -0.019569276, 0.052109137, 0.03509624, 0.046471506, 0.056529485, -0.0559808, -0.04720427, 0.0794337, -0.011061588, -0.029858377, -0.085162066, -0.011389338, 0.0587948, -0.14664723, -0.1992698, 0.041878838, -0.13590623, 0.020862464, 0.12698966, -0.19098769, -0.047587, -0.012598166, 0.14761029, 0.03247546, -0.05145016, -0.009026877, 0.04529472, -0.067469925, -0.14803495, 0.046623845, 0.048173215, 0.15291524, -0.04836264, -0.059302807, -0.13703448, -0.050715014, 0.17121446, -0.02979244, 0.10383091, -0.17813426, -0.08825206, 0.094276704, -0.03668611, -0.14079463, -0.04884251, -0.04196219, -0.025836086, -0.16893783, 0.05125439, 0.042463176, 0.0034513606, 0.021949101, 0.051761307, -0.05132646, -0.07292926, -0.17737196, 0.17461357, -0.21371254, -0.03919038, -0.10094212, -0.068534955, -0.069018364, -0.18242212, -0.1186305, 0.025411818, 0.053472437, 0.10129982, 0.057805955, 0.08094436, -0.1145566, 0.07742383, 0.026432147, -0.15030724, -0.034267686, 0.10648641, -0.040546305, -0.035970908, -0.0658906, 0.029356604, -0.027019452, -0.014604013, 0.21971703, -0.031033836, -0.053577498, 0.09742093, -0.16318534, 0.019136181, -0.09132602, -0.0736413, 0.0092644645, -0.039295502, -0.10120935, -0.06750093, 0.16709046, 0.19870973, -0.07425671, -0.01769393, -0.072865754, 0.13393499, -0.064457335, -0.11294554, 0.11117252, -0.07183834, 0.15092297, -0.13828547, -0.16069445, -0.011414997, 0.029604223, 0.056972444, -0.18360506, -0.016943678, 0.033725675, 0.12275476, -0.036763854, 0.101765044, -0.10379999, -0.07040137, -0.04705093, 0.17870766, 0.17442, -0.026803445, -0.15915704, 0.1367816, -0.010579931, -0.18532214, -0.13547562, 0.06421973, 0.090831265, -0.007689354, 0.03384411, -0.05176253, -0.13061215, 0.0116211325, 0.022244737, -0.038613476, 0.19436222, -0.13787174, -0.16970453, 0.19840561, -0.09191009, 0.123375714, -0.036773387, -0.05248523, -0.072930224, -0.06962314, 0.07623341, 0.00084465113, 0.13014522, -0.10935875, 0.06378762, 0.014803593, -0.035934094, -0.011472721, -0.051422313, -0.11544842, 0.013787144, 0.16004875, 0.09358564, -0.11086506, 0.03272223, 0.032555383, -0.12028771, 0.0894406, -0.050280493, 0.13555835, 0.0016755403, 0.06440468, -0.07586888, -0.0585712, 0.0036760087, 0.07444877, 0.011774309, 0.09371117, 0.0288897, -0.042825572, 0.109316856, 0.16099991, 0.11687531, -0.072818555, -0.13706851, -0.06743665, 0.2291439, 0.121882364, -0.13931702, -0.01036898, 0.066321366, 0.07338714, -0.018651988, -0.21362627, 0.08605572, -0.11402198, -0.03894902, 0.08906499, 0.01081807, 0.023023056, -0.023794461, -0.11614396, 0.0383946, -0.14086038, 0.022463446, -0.09328765, 0.1146512, -0.118152015, -0.0027841204, 0.046864364, -0.10624893, 0.13998362, -0.16926716, -0.08353873, -0.080388844, -0.04518288, -0.100809194, -0.10906833, -0.0836091, 0.2153839, 0.12464986, 0.030873725, 0.15695208, 0.03446655, 0.053039536, -0.05686121, -0.05824215, 0.12297238, 0.18451795, -0.12348139, 0.008599763, 0.13459791, -0.1435516, -0.17219388, 0.03165672, 0.062018596, 0.078630075, 0.09381485, -0.05727111, 0.006993516, 0.13817565, -0.021517832, 0.09006917, 0.035642315, 0.00063067296, -0.087008476, 0.22535524, -0.041261103, 0.020890592, -0.13097753, 0.052431364, 0.0013563304, 0.12392023, 0.020430883, -0.14091896, -0.07649338, -0.077359855, -0.22833444, 0.04448515, 0.07563798, 0.18241985, -0.1528389, -0.08612031, 0.14060134, 0.07241521, 0.100320816, -0.11965995, 0.059999973, 0.08975032, 0.036825, 0.01111234, -0.06968013, -0.009911351, 0.10648707, -0.17102121, -0.1571778, -0.14094502, -0.055361666, -0.05200462, 0.10955151, -0.012578243, -0.004204484, 0.017776659, 0.16275313, -0.08737342, -0.122771285, -0.18365982, 0.13575459, 0.18526867, 0.07974107, 0.08613241, -0.033783358, -0.041171968, -0.03755219, -0.0385565, 0.11309761, -0.014568167, 0.020849204, -0.109312825, 0.030637786, 0.0059548826, -0.10879155, -0.014516863, -0.07828417, 0.034314074, -0.021436762, -0.18237558, -0.14421743, -0.0754395, 0.065469705, -0.06613777, -0.021909544, -0.15865706, -0.16035232, -0.07782964, -0.004649038, -0.102355905, 0.05736102, -0.05307437, 0.081953436, -0.09954877, -0.10273531, -0.07191213, -0.07004228, -0.08500731, 0.058689874, 0.08035066, 0.08339661, -0.073586725, 0.038156405, -0.018422302, -0.014330613, 0.06492578, -0.12586008, 0.009350339, 0.16495666, -0.08966293, -0.089527436, -0.016695337, 0.19892362, -0.022599889, 0.009824504, 0.0878687, -0.0345577, 0.0426302, 0.051858317, 0.010795723, 0.0028343718, -0.1519225, 0.2019776, -0.06173422, -0.020413809, -0.19138885, 0.083951324, 0.15586603, 0.14934763, 0.019045321, 0.05897075, -0.041929852, 0.008213486, 0.2268775, -0.17363241, 0.2262591, 0.19567287, -0.031700406, -0.07815479, -0.106098905, -0.040105734, -0.015164379, 0.06459509, -0.096181236, 0.07176174, 0.10396278, 0.1454451, -0.049817536, -0.13533412, -0.077895924, 0.023729023, -0.01573677, 0.07055838, -0.0047379704, -0.0137903495, -0.14289655, 0.12032464, -0.052245215, -0.07894806, -0.04335619, 0.15405805, 0.16455026, -0.09581729, 0.02762353, -0.058095418, 0.27966392, -0.019496249, -0.09462603, 0.06253694, 0.07165184, -0.083423436, -0.04013052, -0.10076832, -0.090732105, 0.11402187, -0.035490952, -0.13642295, -0.2654523, -0.08402006, 0.089160524, -0.022111611, 0.15285918, -0.19440186, 0.13927448, 0.15524285, 0.17094532, -0.16895466, -0.05544343, 0.008639016, -0.15874618, -0.02798147, 0.064834744, -0.072593145, 0.05350688, 0.054621074, -0.010192646, -0.08550862, -0.21980815, 0.20539457, 0.155908, 0.06584735, -0.27281052, -0.001497247, -0.09674953, 0.0071025835, 0.13784342, -0.09339241, 0.02767511, -0.14155242, 0.077952206, -0.02117754, 0.01797602, 0.099478245, 0.17584707, -0.07663108, 0.17742741, 0.061157282, -0.119900905, -0.1717713, 0.018156808, 0.06722799, 0.13927974, -0.17166243, -0.06660074, -0.08263183, -0.17773017, -0.19192046, -0.0074825226, 0.04853462, 0.11542654, -0.010921707, -0.01783155, 0.08781705, 0.03392093, 0.101637214, 0.20029946, 0.018103363, 0.030404171, 0.18118645, -0.07928826, 0.070526995, 0.0027496587, -0.029866684, -0.04904371, -0.14600518, -0.19318514, -0.13273907, -0.094849505, -0.019656299, 0.1494512, 0.2400364, -0.027317414, 0.03042514, -0.0010291801, -0.031446856, -0.024894357, 0.07818608, -0.017491184, -0.018603688, 0.20349179, 0.016207099, -0.07819274, -0.18004471, 0.071580514, -0.033165745, 0.12959704, -0.020789685, -0.114148505, 0.08095284, 0.1518029, 0.25690752, -0.12562658, -0.004413097, -0.17138593, -0.034970988, 0.015889246, -0.06801586, -0.00797258, -0.011404394, 0.14530066, -0.107064456, -0.13232207, 0.029201949, -0.112687476, -0.02267893, -0.016856663, 0.18091825, 0.049147256, -0.049184788, 0.08756532, 0.18322055, 0.059547216, 0.09092679, 0.048849154, 0.01986457, 0.018935286, -0.2168245, -0.0895513, 0.20769097, 0.12248198, -0.34571242, -0.06436031, 0.10189604, -0.014826537, -0.12729588, -0.0070174374, -0.1511398, 0.18364367, 0.07209024, -0.12783737, 0.12161151, 0.004777967, 0.013197775, -0.006984772, -0.061614245, 0.12519884, 0.03164359, -0.017123578, 0.02051876, 0.050889835, -0.20992148, 0.19723259, 0.016184691, -0.21981007, 0.01892532, 0.10301665, 0.059293672, -0.0978766, 0.23267679, -0.19138597, -0.05771948, 0.15110424, 0.016894637, -0.10278758, 0.06600133, 0.062620364, 0.011549694, -0.104135044, 0.08434426, 0.10898637, 0.11460974, 0.03689573, 0.045072347, -0.0582669, -0.11189206, -0.12281448, 0.0066063437, 0.036748283, 0.12485069, -0.2146692, -0.106474325, -0.14616048, -0.13568953, -0.01844823, -0.21934958, -0.058798466, 0.052247986, -0.13705556, -0.17058188, -0.14643419, 0.0698019, 0.011071828, -0.057974685, -0.084143005, 0.12154629, -0.1034777, -0.022091258, -0.010942518, 0.16917607, -0.100288704, -0.0568502, -0.027263487, 0.15058537, -0.07269414, 0.031413104, 0.05673745, -0.09916368, -0.16964589, -0.14066474, -0.20052178, -0.12928876, -0.016411873, 0.09863567, -0.17486581, 0.031667925, -0.016392343, 0.051077686, 0.0006215682, -0.097361244, 0.0510723, 0.16921265, 0.24969049, -0.026869772, 0.13143317, -0.014044601, 0.017511422, -0.23267666, 0.11084497, 0.1443612, -0.037588548, 0.085767135, -0.04637897, 0.18748313, 0.019920431, -0.06163786, -0.14238887, 0.11123914, -0.11824691, 0.056344066, 0.03734819, 0.04415618, 0.019012595, 0.019424772, 0.2322082, 0.0740434, -0.05264436, 0.08912153, 0.08826272, -0.006959376, -0.032683004, 0.19066328, 0.047993347, 0.005623826, -0.2252681, 0.13180889, 0.019308908, -0.12188151, -0.111709125, -0.017004507, -0.0025439516, 0.18530293, -0.026756749, -0.08806, -0.04407618, 0.027459739, -0.14483602, 0.21296814, 0.020148134, -0.057502568, -0.08542912, -0.05026467, -0.021118136, -0.05101526, 0.03508697, 0.03682701, 0.14536974, -0.007485416, -0.03279602, 0.06771498, 0.11488727, 0.023810737, 0.068107516, -0.022656403, -0.09906539, 0.15582812, 0.06222762, 0.12393439, 0.062079825, -0.12463467, -0.1135084, 0.2110956, 0.067782044, -0.024998521, -0.062199418, 0.059925977, -0.12117645, 0.08669544, 0.17178291, 0.10415759, -0.053863496, 0.02741717, 0.04777004, 0.1782366, 0.02956479, -0.002953298, -0.055331517, 0.18922105, 0.017691575, 0.16842611, 0.107107624, -0.17224202, 0.09647134, 0.12623797, 0.16080675, 0.079303384, 0.1523749, 0.059418596, -0.19289126, -0.1888849, -0.0077882665, 0.10592616, 0.09343885, 0.074893534, 0.09383826, 0.17414075, 0.043571856, 0.25224736, 0.076524936, 0.016319042, 0.1314271, -0.05904062, -0.09359704, 0.054785028, 0.22139715, -0.057899565, 0.07189855, 0.1758866, 0.088462524, 0.032709997, -0.0048908, -0.09677742, -0.1681824, 0.047668695, 0.124044016, -0.05368672, 0.15259793, -0.024737112, 0.101476654, -0.039220795, 0.05166357, -0.060249977, 0.19473743, 0.03669569, -0.19782399, -0.00515067, 0.08870469, 0.06043166, 0.09066679, -0.09447981, -0.09508663, -0.048975863, 0.0749922, -0.0009077671, -0.021770546, -0.1215842, 0.05475584, 0.008327356, -0.093600504, -0.07455928, -0.010314728, 0.16793105, -0.079983525, -0.10940027, 0.1037628, -0.115274645, 0.055481516, -0.020150075, -0.07333659, 0.05478676, -0.03167243, -0.026008097, 0.059352618, -0.10684729, 0.07722936, 0.16112942, -0.019930305, -0.12181074, 0.22309257, 0.05494351, -0.12688069, -0.07323523, 0.09435019, -0.0045418637, -0.002896066, 0.067592174, -0.032793567, 0.057626314, -0.15858316, 0.0174144, 0.1405036, -0.11217653, -0.083475426, 0.11413728, -0.06671541, -0.19933426, 0.074991345, -0.032459985, 0.12229125, -0.056287996, -0.058050636, -0.084141776, -0.07313676, 0.09760176, -0.0017365157, 0.11660601, -0.13990146, -0.096918024, 0.1186744, -0.004824996, -0.15091896, 0.019026428, 0.060283344, -0.22539511, 0.0355953, 0.16088021, 0.173237, 0.038554147, 0.066603586, -0.028888073, -0.13138337, -0.05374827, -0.13493289, 0.2338345, -0.13660726, 0.0051850365, -0.010032525, -0.08463652, 0.03358751, -0.09367357, -0.045260165, 0.019838, 0.008299662, -0.016860174, 0.024520539, -0.0649498, -0.0504107, 0.11047199, 0.0042908057, -0.10924579, 0.0065753656, 0.029132092, -0.08065896, -0.035034195, -0.091849856, 0.072044425, -0.00031534373, -0.061641753, 0.010617633, -0.011075871, -0.06057671, 0.0045976914, -0.09983801, 0.092895225, -0.0069435383, -0.032315012, 0.08532718, 0.036871307, 0.018597802, -0.097673625, 0.06353998, 0.073357135, -0.012725626, -0.17025332, 0.0100737, 0.12944594, -0.28739217, -0.09185534, -0.113092124, -0.0775143, 0.20147948, -0.12015981, -0.047842197, -0.02954161, 0.1005278, 0.028865151, 0.035992503, 0.049844306, -0.15116881, 0.045631938, 0.059177663, 0.1007233, 0.098024875, -0.057381354, 0.11394081, 0.09209379, 0.12136108, -0.025471354, -0.019092672, -0.011038438, -0.13376993, -0.0132310055, -0.0735873, -0.075429216, 0.00022430724, 0.19376676, 0.03475251, 0.016173145, -0.22854456, 0.03729709, 0.119208656, -0.04212177, 0.2593608, 0.045269355, -0.042920783, 0.23126072, -0.024655333, -0.013136367, 0.050243326, 0.045585964, 0.14066972, 0.031927347, 0.17819627, -0.11734121, 0.078577094, 0.02490379, -0.15812863, 0.055954266, -0.06613825, 0.049639784, -0.006848446, 0.016344728, 0.05238452, 0.06359904, -0.008973384, -0.08230201, 0.07121712, 0.004605397, -0.06933844, 0.054117873, 0.16254261, 0.05681666, 0.00795918, -0.07959711, 0.061409198, 0.106591314, 0.03935266, -0.0021452834, -0.14585184, 0.014158398, 0.017565662, -0.0074989456, 0.05037229, 0.12084276, 0.055035457, -0.17933877, -0.08370886, -0.04044626, -0.06149304, 0.07845667, 0.0028103464, 0.13792375, 0.13561592, 0.059507933, -0.074091785, -0.12409143, 0.024528882, -0.005529936, -0.028081248, 0.17692181, -0.052877404, 0.07178412, -0.07604322, -0.061931722, 0.01212468, -0.029130256, -0.010698367, -0.13438521, -0.116853215, -0.051102135, 0.04663646, -0.029527081, -0.052519787, -0.050025348, -0.11299253, -0.048981115, -0.18632741, -0.008910003, 0.086530924, -0.11471432, -0.18856701, 0.14257002, 0.07553808, -0.09919032, 0.14042814, 0.09005451, 0.09300626, -0.05433008, -0.022963934, 0.0029021762, -0.013040689, -0.10837722, -0.14285015, 0.036994312, -0.042503227, -0.13980801, 0.036746904, 0.100170776, -0.0029836688, 0.13265698, 0.032447435, -0.042057563, 0.025223166, -0.29089946, 0.14705089, 0.115558796, 0.015509755, 0.09009257, 0.071986355, -0.009489702, 0.031505406, -0.038439248, -0.105715655, 0.1754009, 0.13807856, 0.014836889, -0.058050472, -0.005960781, -0.07991274, -0.16869362, 0.030523881, 0.07079924, 0.112930745, -0.069733106, -0.07205539, 0.037299294, -0.06687417, 0.0064113205, -0.07337061, 0.16588168, 0.081479244, -0.08139641, -0.07022835, 0.07593254, -0.065100566, 0.049885318, -0.14241944, 0.014586678, -0.13137697, -0.024799904, -0.071478136, 0.008574294, -0.028310858, -0.24305908, 0.18953457, 0.17572087, -0.17811187, 0.022241836, -0.08953424, 0.055448845, 0.033718776, 0.043850582, -0.014352475, 0.16988859, -0.12010263, -0.047638014, 0.0142996535, 0.0031654518, 0.12507978, -0.058278505, 0.07704566, -0.04736856, 0.12216328, -0.038907602, -0.21123978, -0.024678055, 0.043445785, 0.04955579, -0.21440117, -0.0013089353, -0.06522964, -0.10890615, -0.18268657, -0.13400602, -0.023576196, -0.17333113, -0.035816338, 0.114236064, -0.051172126, 0.0027507923, 0.0034322194, -0.03250975, -0.034028027, -0.07585229, 0.09152132, 0.0007310662, 0.014090672, 0.067328006, 0.08014954, 0.006773974, 0.006391423, 0.07909879, 0.065707326, 0.016196318, 0.13427462, -0.011565594, -0.013958672, -0.029769009, 0.040738136, 0.13819867, -0.07051049, -0.0015538473, 0.045145985, -0.055543378, 0.1752668, 0.0069421954, 0.12125629, -0.1401438, 0.067361444, 0.11756846, 0.00026747494, 0.0022999013, -0.00736878, 0.07465375, 0.030922983, 0.21306948, 0.07382281, -0.04410737, -0.07934586, -0.050261952, 0.056977373, -0.09627388, 0.07159928, 0.15276203, -0.25330877, -0.09535751, -0.017269257, -0.100047015, -0.10718093, 0.07853751, 0.050273817, 0.25505334, 0.13338518, 0.07156635, -0.20310219, 0.13627242, -0.06656551, 0.00072271295, -0.07789042, 0.21382305, 0.120222725, 0.053785432, -0.010208738, 0.1942029, 0.06824291, -0.27406716, -0.1404138, 0.09435337, -0.054213226, -0.063822955, 0.03806643, -0.033113588, -0.064751565, 0.46747947, 0.17463441, -0.24023786, -0.4327795, 0.0010690994, 0.102393776, 0.34877256, -0.03542951, -0.096006885, -0.29047474, 0.16861935, 0.06560664, -0.14799789, -0.07688163, 0.13046043, 0.20426308, 0.025239658, -0.0072803223, -0.047467764, -0.36004812, -0.0114207305, 0.00020908736, 0.05750035, 0.025208978, -0.11253037, -0.0350631, -0.1398926, -0.087690935, -0.18250331, -0.01216435, -0.03009966, -0.019945282, -0.1856358, -0.04676654, 0.31603694, 0.15735207, 0.039959684, 0.16817378, -0.115981214, -0.060696077, -0.06307911, 0.013934619, -0.1609682, 0.029539961, -0.22603348, -0.009035747, -0.051386055, -0.021348942, 0.12332452, 0.14715746, 0.061358217, -0.10960949, -0.13831222, 0.1278608, 0.014466662, 0.118752815, 0.15791702, -0.13856812, 0.1563138, -0.028935408, -0.052041985, -0.047839127, 0.11852394, 0.08626497, 0.032826107, 0.13978958, 0.015490064, -0.11185677, -0.12321277, 0.10046306, -0.063721925, -0.23056157, 0.24506038, 0.2102972, 0.09882801, 0.23186988, 0.10872954, 0.40823355, -0.07980562, 0.30880278, -0.045150362, 0.1299455, -0.17630495, 0.30246016, -0.2018149, 0.13164723, -0.009816562, 0.10725137, -0.10954027, 0.032450303, -0.33053687, -0.1666834, 0.08706476, -0.03565005, 0.07932867, -0.071022145, -0.24152115, 0.12682864, -0.03019945, 0.10302301, 0.14601551, -0.03589291, -0.16144696, 0.025634207, 0.26265502, -0.0769782, 0.0031376374, 0.11606602, 0.13846658, -0.07125355, 0.060109332, -0.04119198, 0.114569925, 0.01397319, -0.12918776, -0.10161587, 0.15144442, -0.16443673, 0.1268668, 0.14768422, 0.06903278, -0.25805593, -0.16712031, 0.0956569, -0.09474557, -0.034796428, 0.27612656, 0.029990988, 0.03078453, 0.071807794, 0.07138738, 0.10546488, 0.108967476, -0.028820906, -0.0008122984, 0.05890543, 0.036823712, 0.023170013, 0.12913777, -0.1318362, -0.1534139, 0.096892595, -0.10850811, 0.24318418, 0.036387935, -0.16751437, -0.32352942, 0.22044346, 0.035795607, -0.046794586, 0.24177897, -0.07428483, -0.018672848, -0.24883223, -0.19961436, 0.050430056, 0.07839071, 0.19052772, 0.010256784, 0.012020407, -0.07117232, -0.095978424, 0.14712587, 0.060854666, 0.13554841, 0.099551894, -0.19966273, 0.047990184, -0.1101097, 0.088767335, 0.051125914, -0.0016051431, 0.14570127, -0.23202291, 0.030070143, -0.06417734, -0.042123824, 0.08769447, 0.049686067, -0.07395342, -0.0029505359, -0.17867191, 0.08069344, -0.13274042, 0.074658275, 0.07343408, -0.1252556, -0.061815638, -0.14688897, -0.1456547, 0.106268466, 0.0779675, 0.15862143, 0.1224002, -0.06813706, -0.07597699, -0.02044373, 0.16979067, 0.16313148, 0.00074271695, 0.011527602, 0.09916044, 0.15683284, 0.03094902, -0.08426083, -0.007677199, -0.08591172, 0.24359764, -0.05819861, 0.037948765, -0.11021179, 0.06305908, -0.108072676, -0.16237052, -0.074336566, -0.05111445, -0.054623425, 0.018529069, 0.19121416, 0.012383254, 0.04170994, -0.15727, -0.028725987, 0.23528847, -0.16170435, 0.062768616, 0.032589238, 0.088991135, 0.002581496, -0.16932319, -0.0010224842, -0.111324795, 0.02647795, 0.17967099, 0.22468202, 0.079832405, -0.031523053, -1.8290826e-05, 0.11566343, -0.13799278, -0.009051009, -0.017729254, 0.26556358, 0.049367957, 0.086242594, -0.09045665, 0.16788475, 0.13252865, -0.05067171, 0.10308269, 0.091438726, -0.09323831, 0.04455673, 0.0990915, -0.14442459, 0.10992272, 0.38406163, 0.27533072, -0.22604182, -0.23988315, 0.13682003, 0.098419204, 0.2750891, 0.09673455, -0.05471389, -0.20312996, 0.09232303, -0.05829879, -0.13906687, 0.024558557, -0.09594102, 0.17038675, 0.063978724, -0.032907944, -0.062385157, 0.018029485, 0.140585, -0.035589058, 0.032009255, -0.16741273, 0.033850465, -0.021969728, -0.054566473, 0.037919432, -0.24288008, 0.039578665, 0.02750314, 0.07207676, -0.1552074, -0.06099782, 0.24903211, 0.22564669, 0.05402951, 0.0135767, -0.11064982, -0.14719419, -0.14307426, -0.062243085, -0.1053327, 0.10340545, -0.11742033, -0.06260668, -0.15076141, 0.023163037, 0.14007589, -0.09543295, -0.055124477, -0.09197023, -0.06276517, 0.06003123, -0.1137325, 0.098983146, 0.009161195, -0.09457566, 0.08898916, -0.18624057, -0.24208666, -0.05700914, -0.012942077, 0.069682285, 0.06463144, 0.2122439, 0.07793148, -0.23130521, 0.0010325052, -0.13785195, -0.12335698, -0.07910565, 0.23857142, 0.02208883, 0.13771391, 0.053323593, 0.09757184, 0.30769697, 0.077467255, 0.08594307, -0.036636166, -0.15636307, -0.2589503, 0.05013903, -0.08158999, 0.08665529, 0.07347973, 0.14690751, -0.064806595, 0.16418572, -0.22256209, -0.028251735, 0.063652664, 0.009508068, 0.091684714, 0.0068331882, -0.24194734, 0.066200204, -0.027252233, 0.25625896, 0.071974896, 0.14516245, -0.21672791, -0.06507092, 0.19626416, -0.010435368, 0.16646409, 0.14496465, -0.021380035, -0.011525513, 0.20807071, -0.029601999, 0.008090472, 0.17740986, -0.02331267, -0.21359858, 0.21477905, -0.10196163, 0.05125687, 0.026192822, 0.33559448, -0.26056463, -0.1718956, 0.12651348, -0.046207607, 0.0082036825, 0.22377169, -0.06413671, -0.09070973, 0.20042203, 0.10276286, 0.13957171, 0.08004895, -0.12035609, 0.012232805, 0.07955291, -0.08499741, 0.108375154, 0.16577831, 0.06875884, -0.07876268, 0.024102552, -0.1962989, 0.21140158, 0.13351727, -0.14420885, -0.01770067, 0.14652993, 0.09331869, -0.01626139, 0.14515626, -0.13365588, -0.08110552, -0.17765589, -0.20266308, -0.027049676, 0.016510861, 0.14104846, 0.16854917, -0.03565488, 0.05663456, 0.06147807, 0.04480437, 0.07290227, 0.20535843, 0.08680239, -0.19109046, -0.018120995, -0.1191976, 0.07915619, 0.06566828, -0.026307542, 0.03125606, 0.023321383, 0.08639765, 0.214046, -0.03607471, 0.17474926, 0.0004843892, -0.21894903, -0.022398585, -0.04800512, 0.063561775, 0.0026944315, 0.07960484, 0.04721259, -0.19215421, -0.14468347, -0.077970415, -0.061058976, 0.06877424, -0.026087282, 0.13017309, 0.02045455, -0.24329644, -0.06874249, 0.028034968, 0.036435895, -0.0059458334, 0.0014435385, -0.004438761, 0.14252174, 0.12673292, 0.022168405, 0.14718288, -0.030275665, -0.006837104, 0.06522112, 0.24755946, -0.19174376, 0.059276547, 0.027196446, -0.046676382, 0.055897597, -0.11448456, -0.13161251, 0.008902537, -0.032165848, -0.0013955128, -0.20346583, 0.018073069, 0.179639, -0.14673533, -0.07760707, -0.22189462, -0.2812933, 0.11646443, 0.028775243, -0.10953333, -0.0041866386, -0.058388125, -0.0019425937, -0.07522833, 0.13740934, -0.019266674, 0.1540225, -0.09096998, -0.19728112, -0.069323465, 0.095390655, -0.059945233, 0.049845867, 0.056464437, 0.012556303, -0.1407641, 0.1420501, 0.11987374, 0.019343257, -0.18232536, -0.18897817, 0.18177819, -0.039365385, -0.09304992, -0.006839672, 0.03468164, -0.21655715, 0.10378864, -0.052314818, -0.14031862, 0.1463307, 0.2625383, 0.013648971, -0.22062188, -0.18620685, -0.05738126, 0.011216702, 0.1421782, 0.008178309, -0.07773745, 0.056479067, -0.096727885, -0.1713088, 0.032617617, -0.19712463, -0.0318489, -0.24036254, 0.039677504, 0.06712267, -0.06505059, -0.0020206226, 0.22371982, 0.08883742, -0.21132465, 0.26414323, 0.042584065, 0.07977064, 0.18462665, -0.03212655, 0.10039347, -0.0305712, -0.10050318, 0.12416322, -0.04442469, 0.18212998, 0.010872398, -0.044713095, -0.03519838, -0.06793574, -0.1247945, -0.07435612, 0.022632357, -0.052245602, -0.059228014, 0.03325557, -0.012036568, 0.104435734, -0.08448837, -0.032916863, 0.03129869, -0.22157452, 0.036748026, -0.085734926, 0.025039425, 0.16740231, 0.06789643, 0.023967527, -0.14312588, -0.017054413, 0.16850355, -0.041288223, 0.14654015, -0.045976803, 0.23770857, -0.17306633, 0.23780079, -0.08639778, 0.21019576, 0.10945013, 0.17661078, -0.00092673616, 0.023682926, 0.016741727, 0.012972559, 0.030347183, -0.27611962, 0.22414283, -0.042841397, 0.108405225, 0.06096093, -0.032828175, -0.18740459, -0.014044422, 0.051517695, -0.10617231, 0.08257353, -0.14571296, -0.01316777, 0.060534053, 0.14160094, -0.058720622, 0.100399695, 0.06628729, 0.11236085, 0.32402897, 0.015680734, 0.09935491, 0.06537864, 0.030774409, 0.029669106, 0.069602795, -0.03480012, 0.15967722, -0.09451959, 0.0496318, 0.052282095, -0.08798946, 0.05009638, 0.06292086, -0.29006204, -0.22721232, -0.009110556, 0.020380177, -0.04562527, 0.04452819, -0.0673426, 0.07644275, -0.09161929, 0.15495652, 0.24109799, -0.047828592, -0.061527953, -0.03837116, 0.047001664, 0.13282067, -0.22913577, -0.0676522, 0.018398564, -0.09294536, -0.2267931, 0.124010935, -0.13126329, -0.039334472, -0.0136313, 0.038937386, 0.06250758, -0.026192294, -0.066899054, -0.08954189, -0.005011024, 0.04255138, 0.056493357, 0.0010629495, 0.0821305, -0.0065318695, -0.009668924, 0.047576413, -0.11488112, 0.06720039, -0.14930467, -0.26488617, -0.28766403, -0.035562105, 0.058756426, 0.0339513, 0.0060230982, 0.09158541, -0.18741523, 0.21299215, -0.06272723, -0.01983002, 0.024464509, -0.06795732, 0.08045794, -0.07668733, 0.051298782, -0.171919, 0.19235124, -0.14396563, -0.007543539, -0.017356923, -0.0009501483, 0.26644474, -0.04054841, 0.1079622, 0.07215851, -0.09378965, 0.08566494, -0.09141246, 0.03097431, 0.04705943, -0.073647335, -0.06243307, 0.08321983, 0.08010689, 0.074680895, 0.19015405, 0.056210104, -0.014391347, 0.11247121, -0.23469359, 0.08518804, 0.04669293, 0.05203943, -0.062623315, -0.04841899, -0.22193293, -0.01136701, 0.037923478, 0.14534147, -0.1302836, -0.33772025, 0.014101825, 0.027328543, 0.040185265, 0.11541065, 0.010689433, -0.056129355, 0.057349224, 0.17003249, 0.08974297, -0.025948318, 0.0110597145, 0.11796471, 0.059409436, -0.054363124, -0.0902184, -0.08678962, -0.015859267, -0.10530489, 0.10243642, -0.098637216, -0.29973885, 0.10699605, -0.2675067, -0.06701686, -0.025702838, -0.0048327562, 0.05371583, 0.109331295, 0.037039753, -0.046763744, 0.17534393, -0.060364082, -0.30890515, 0.01055427, 0.06279952, 0.027372928, 0.1232299, 0.09111376, 0.056584712, -0.033305224, -0.04756526, 0.13663279, 0.16020659, -0.2194956, -0.10668133, 0.18851465, -0.06776723, -0.23903614, -0.046722855, 0.03564009, -0.039900728, 0.27796927, -0.23997499, -0.07410964, -0.054501567, 0.095766366, 0.10427447, 0.21206409, 0.0060433447, -0.037683517, -0.07900255, -0.067968674, 0.15291664, -0.010741055, 0.18432441, 0.12441366, 0.13458167, -0.04726502, -0.083429, 0.12841699, -0.30995154, -0.0072199283, -0.057506513, 0.07077318, 0.036033433, 0.13692214, 0.012277733, -0.20386265, 0.001687991, 0.017125165, -0.0070795515, 0.0046946895, -0.03147796, 0.104593754, 0.14497326, 0.15759689, 0.0009743721, -0.17237687, 0.25829777, 0.12685785, 0.007240469, -0.029120784, -0.15845278, -0.10690066, -0.00041119196, 0.0001291491, -0.054897238, -0.07565573, -0.10110859, -0.10792112, 0.02821118, 0.09647223, -0.26705372, -0.11080427, 0.1644037, 0.21074934, 0.0026191277, 0.027624032, -0.09607551, 0.17165522, -0.064948894, -0.0044123787, -0.0010207561, 0.24294339, -0.12275113, 0.009885949, 0.045373347, 0.13791901, -0.005122737, -0.013853006, 0.06484545, -0.094640665, -0.2009512, 0.1062586, 0.06417742, -0.040219557, 0.08992737, -0.079219796, 0.1858906, -0.15322186, 0.11313938, 0.07546404, 0.2096869, 0.013022982, -0.023712466, -0.108756036, -0.054284625, -0.08307499, -0.0019143571, 0.06623651, 0.08145245, -0.1729213, 0.0496503, 0.038367443, -0.022408025, -0.0075857453, -0.18005763, -0.051680114, 0.09020725, 0.07234861, 0.087124415, 0.17721939, -0.023759816, -0.025202828, 0.1554037, 0.061345123, -0.0052321027, -0.30754894, 0.032416318, 0.048474018, 0.040089846, 0.0893349, -0.0129336305, 0.05127295, -0.015190669, -0.049293038, -0.09440466, 0.16681089, -0.013221802, 0.038141605, 0.24193008, 0.001027667, 0.00032449196, -0.13752209, -0.042704877, 0.030974405, -0.03584287, 0.0836947, 0.05949882, -0.12890862, -0.065358795, -0.048909295, -0.02229142, 0.06361494, 0.088790014, -0.18756789, -0.044726312, 0.2298592, -0.017441705, 0.0266468, -0.079101175, 0.042457893, 0.081496105, -0.0392179, 0.059207775, -0.009283684, -0.009307709, -0.29147455, 0.13781625, -0.013715456, -0.08300598, 0.08434882, -0.13190609, -0.085906245, -0.1521668, -0.10172935, -0.032649647, 0.18527927, -0.001580103, -0.030476468, 0.09182937, -0.049133837, 0.04592084, -0.13532333, 0.08801554, -0.12189734, 0.15162517, 0.01041404, -0.18516898, -0.086221606, 0.052538052, 0.06758108, -0.120342664, 0.061029967, -0.018140743, -0.15303148, -0.057899356, -0.069395065, 0.035441283, -0.06210023, 0.07301221, 0.113732725, -0.057032842, -0.06987277, -0.030729473, -0.05070216, 0.13084443, -0.08561544, 0.12487999, 0.05197817, 0.01752266, 0.15487038, 0.081433736, 0.0028674898, 0.05692218, 0.058700796, 0.06476921, -0.05817249, 0.028399188, 0.16234708, -0.11034845, -0.08257581, 0.16578326, 0.20202152, 0.012634478, -0.26499486, 0.1336497, -0.0663181, 0.0823141, -0.08689188, 0.13813034, -0.1384214, 0.16417629, 0.22202814, 0.010004596, 0.05306626, -0.016379967, -0.035968423, -0.0056674685, 0.24196182, -0.17559063, -0.04362631, 0.033489253, 0.025753327, -0.012385631, -0.041877545, -0.012733823, -0.035135247, -0.24679548, 0.08841691, 0.0141488435, -0.06222334, -0.0042144414, -0.0013298288, 0.012296959, 0.10305452, 0.102068484, 0.09108228, -0.1462604, 0.20860115, 0.045929473, 0.0013886306, 0.017016344, 0.17484322, 0.1725805, 0.028288618, -0.027339317, 0.14201674, 0.14596687, -0.07139801, 0.045650285, 0.09909028, -0.05908656, -0.08604847, -0.0042368057, 0.06681997, -0.045730397, 0.3349421, 0.0633888, -0.0455002, -0.27806032, 0.06973105, 0.12241983, 0.18096557, 0.068701535, -0.12238735, -0.106846035, 0.07541334, 0.12940119, -0.053771514, -0.11709965, 0.08756585, 0.1814875, 0.047431782, 0.047584955, -0.006998357, -0.1746245, 0.13585098, 0.1732293, 0.013018787, 0.020379841, 0.09905849, -0.0015762919, -0.1010541, -0.07402099, -0.040599175, 0.115140155, -0.100099415, -0.17575867, -0.12764743, 0.0021272218, 0.24636486, 0.12379779, -0.07190564, 0.18437923, -0.040037192, -0.0024006972, -0.0222544, -0.15887901, -0.1589667, 0.024873039, -0.06858822, -0.035891715, 0.032288007, -0.048328456, 0.002056007, 0.03280256, 0.03625682, -0.20194305, 0.04552578, 0.15238686, 0.12781154, 0.10073584, 0.123335816, -0.15258648, 0.17671657, -0.058803983, -0.04259518, -0.08275517, 0.20530643, -0.02759109, 0.04883498, 0.19665709, 0.05968637, -0.07298306, -0.02183962, 0.16796587, -0.0797576, -0.21015432, 0.19721162, 0.29933438, 0.03974103, 0.0011866774, -0.06902063, 0.31975073, -0.08843099, 0.04747115, -0.028365385, 0.046255495, -0.19506116, -0.021281702, -0.20096712, 0.13867138, -0.007923668, 0.0881851, 0.0444281, 0.15397254, -0.23118372, -0.14949495, 0.048119515, 0.0037397658, -0.07303312, -0.013780973, -0.24745639, -0.033712093, -0.0075632147, 0.047858052, -0.060864944, 0.06802182, -0.04593527, 0.009911077, 0.06819362, -0.060534503, -0.14384791, -0.08534976, -0.017427314, -0.08531714, 0.100493565, -0.030391464, 0.107456885, -0.07089502, -0.20522869, 0.024522997, 0.10821834, -0.15125114, 0.12953147, 0.17482503, 0.04508909, -0.19713607, -0.17060855, 0.13084167, -0.120236725, 0.030154893, 0.14267065, 0.15227279, -0.070495345, 0.053929657, 0.05565121, 0.024055544, -0.049823504, -0.01974045, 0.037722368, 0.11432157, 0.09405305, -0.02279842, 0.042980928, -0.17368217, 0.063364014, 0.05981665, -0.085189044, 0.1834428, 0.10474807, -0.15369996, -0.11984375, 0.15811479, 0.049145695, -0.09811129, 0.19082814, 0.046588216, 0.023241488, -0.26394638, -0.12609738, -0.017507775, 0.045750633, 0.21371332, 0.026738916, -0.0037361223, 0.01571215, 0.043064855, -0.026205568, 0.12557538, 0.07034989, 0.05788826, -0.18737595, 0.011437592, -0.094275996, -0.023590116, 0.14173727, 0.05263753, 0.09105235, -0.16323273, 0.01528012, -0.09855707, -0.010934, 0.06141367, -0.004514174, 0.11758546, -0.030771997, -0.16992177, -0.008611248, 0.028359365, 0.06631384, 0.038251802, -0.18768317, 0.006130996, -0.05246498, 0.1119772, 0.01955717, 0.09573067, 0.018457599, 0.0740013, -0.14571361, 0.05508103, -0.020078674, 0.014393761, 0.1725097, -0.15328996, 0.031017339, -0.011757813, 0.28762338, 0.027288534, -0.12906268, -0.030522795, -0.23267227, -0.0073830676, 0.076852694, -0.050088547, 0.08387446, 0.07355766, -0.064656034, 0.06804394, -0.15709645, -0.06589832, 0.012965047, 0.023367926, -0.028684705, -0.25240102, -0.1542465, 0.025183216, -0.063399926, 0.008423416, -0.06627448, -0.0034713638, 0.1606898, 0.05233587, -0.04721117, -0.11232958, 0.0973819, 0.09832719, -0.0255532, -0.021695929, -0.15339814, 0.19125928, 0.012266085, -0.092659384, -0.01894267, 0.0931101, 0.0601708, -0.002339048, -0.09357804, -0.06604569, -0.0652669, 0.01816538, -0.042130366, 0.22920932, 0.10863938, 0.07537545, 0.1278181, 0.034958024, -0.057422295, -0.052479886, 0.12639149, -0.028737264, -0.09423714, 0.037827007, -0.0102538, 0.04135734, -0.034513764, -0.056308094, -0.032984894, -0.010685608, -0.1261755, 0.2419803, -0.05043015, -0.078317575, 0.027872114, 0.020961301, 0.004083795, -0.0979477, -0.0067146122, -0.20007299, 0.16394122, -0.11362694, -0.17464417, -0.0032106983, -0.14390309, 0.1571366, -0.09064933, 0.13135216, -0.06248893, 0.029607676, 0.15826127, -0.079081744, -0.116468884, -0.04586472, 0.011138895, 0.11754652, -0.18275216, -0.017923146, -0.10429797, 0.21541876, 0.06319757, 0.09971203, -0.0639936, -0.0043495414, 0.10385011, -0.14213735, 0.21575508, -0.24541906, -0.1248402, -0.026030121, 0.08148785, -0.05958775, 0.024295248, -0.10292188, 0.028648874, 0.121587165, 0.11807856, -0.080311015, 0.017649716, -0.022486053, 0.14555468, 0.013586613, 0.0046510603, 0.17557262, -0.060657926, -0.08737269, 0.07604586, 0.02562761, 0.030436132, -0.13386256, -0.049077682, -0.10909223, 0.18272206, -0.111167386, -0.021966679, -0.048358478, 0.000718176, -0.10922991, 0.002298057, 0.10592217, 0.12317897, 0.053145923, 0.09862213, 0.09509947, 0.08869914, 0.09882053, -0.1755999, -0.10494127, -0.111281715, -0.114124805, 0.12732396, 0.026323687, 0.033043582, 0.011159803, -0.07457569, -0.13213725, 0.15614861, 0.045963384, -0.044209737, 0.092756934, 0.10709163, -0.061386675, -0.069893, -0.09127175, -0.025202217, 0.018605536, -0.048663896, -0.084769055, 0.07758032, 0.024123937, -0.13916409, 0.07757905, 0.007590785, -0.059920236, 0.042159196, 0.005075671, 0.1316013, 0.0013682425, -0.0618283, 0.035463862, -0.09868321, 0.009368674, 0.16671422, 0.1247565, 0.09109376, -0.026116382, -0.104714, -0.16250981, -0.07755116, 0.1590703, -0.09389594, -0.043720003, -0.15940458, 0.05261404, 0.009964508, 0.043522432, -0.032022275, -0.023625081, 0.070714235, -0.015741179, -0.105797485, 0.09313693, 0.075478785, 0.08996634, 0.16360576, -0.052664783, -0.094203316, 0.047642324, 0.06537947, -0.09335385, -0.03403314, 0.20905903, -0.09895922, 0.015454239, -0.07216081, -0.07453902, -0.06518038, -0.08032036, 0.14143685, -0.01670066, -0.0054065865, 0.11013152, -0.13431749, -0.09119509, -0.1633025, 0.08885809, -0.04345699, -0.06710683, 0.17201307, -0.02327034, 0.18481743, -0.07586903, 0.14032905, 0.038918264, -0.04240123, 0.07909066, -0.06984216, -0.022227155, -0.0911206, 0.00060472236, -0.07466165, 0.053938095, 0.11574082, 0.1309987, -0.10507197, 0.15959956, -0.12954883, 0.20233727, 0.14261556, 0.13798784, 0.07315173, 0.11430507, 0.084671035, -0.073153205, -0.18816645, -0.064151585, -0.019161906, 0.15289168, -0.027757667, -0.13619198, 0.005839779, 0.042541157, -0.08794717, 0.016847963, -0.009077831, 0.023427667, -0.017178757, -0.06865243, 0.07905931, -0.09088547, -0.11966228, -0.10337922, -0.093297, -0.18266639, -0.2674086, -0.063248694, -0.05881354, 0.05762374, 0.007871302, 0.011738419, -0.10051658, 0.2766041, 0.033681687, -0.18114261, -0.12121882, 0.15197155, -0.07268952, 0.019260122, -0.03746918, 0.03228836, -0.12577468, -0.17234585, 0.13611397, 0.029744366, 0.04569664, 0.14679492, 0.1680528, -0.12495771, -0.033664644, 0.06614123, -0.07907701, -0.16941768, 0.0084450655, 0.030844182, 0.13348706, -0.11145595, 0.13231412, 0.04100427, 0.15867124, -0.019302895, -0.097937256, -0.108908616, 0.04335281, -0.1328627, 0.091871455, 0.17176184, -0.20854937, 0.1267529, -0.016088152, 0.02044083, -0.060910452, 0.11298628, 0.1184176, 0.042358592, 0.10610946, -0.11995026, 0.007827807, -0.11154988, -0.012114588, -0.03841206, -0.09889771, 0.07454815, -0.06838128, -0.109054975, -0.083707556, -0.014696607, -0.06627812, 0.033052642, 0.07122642, -0.09031821, 0.16447829, -0.24217057, 0.1091666, -0.09821291, 0.044078182, -0.020474516, -0.17859292, -0.013587425, 0.16065322, 0.16711782, 0.015746646, -0.084633596, -0.13231741, 0.110353015, 0.14181378, -0.16931865, -0.06606593, -0.25019416, -0.20777863, -0.026288895, -0.07305423, 0.18737976, -0.12213483, 0.15059094, 0.021744443, 0.0018023199, 0.0474421, -0.030377932, -0.16556013, 0.055324562, -0.035042338, -0.05636877, -0.038235504, 0.018910388, -0.2759161, 0.04503472, -0.23013398, -0.0743112, -0.16446961, -0.12185165, -0.048929412, 0.1524419, -0.06474949, -0.028285826, -0.05712601, -0.11132972, 0.053102117, -0.17965175, -0.12399288, 0.03963514, -0.12759924, -0.1298145, -0.06861971, 0.1492634, 0.059436694, 0.07600571, 0.07147034, -0.13208073, -0.11974225, -0.18778083, -0.038956016, -0.0009376637, 0.17838094, 0.052256785, -0.082517385, 0.037537806, -0.291821, -0.07539221, -0.025445279, 0.024996057, -0.046693496, -0.03920583, -0.019563558, 0.046815727, -0.025952809, 0.08105643, 0.11276699, 0.25755084, 0.12322876, 0.029237352, -0.221499, 0.009174311, 0.098733604, -0.00031135618, 0.029771548, 0.35461622, 0.042386077, 0.1663125, 0.20799842, 0.15947466, -0.2244798, 0.23121008, -0.0070588915, -0.25745746, 0.16352965, -0.041958973, 0.008205102, -0.08280362, 0.14806268, -0.14463867, -0.1257966, 0.022726916, 0.029388338, 0.12982456, 0.09085924, -0.3227306, -0.083453186, 0.24271311, 0.11153502, 0.09424882, 0.2175481, -0.045801807, -0.08116036, -0.12553458, -0.04026431, 0.12889926, 0.051340025, 0.19100259, -0.2028145, -0.05900558, -0.11407768, 0.11292574, 0.06795857, -0.0019794651, 2.40121e-05, 0.06572561, 0.023994777, -0.06700663, 0.09191374, -0.16277613, -0.07607104, 0.16601005, -0.077349804, 0.014422563, -0.117171936, -0.18923642, 0.089347735, -0.09898236, 0.14936236, 0.14071356, 0.029920962, 0.04057706, 0.09312135, 0.08817783, 0.02465528, -0.11882548, -0.15980034, 0.17217034, -0.22460926, -0.05294048, 0.25771773, 0.12797806, 0.09812876, 0.16624929, -0.08796223, 0.21238884, 0.07347026, -0.25491187, 0.08092924, 0.0058798324, 0.057872884, -0.07157297, 0.13088575, -0.0008745681, 0.00023657035, -0.18759024, -0.039986007, -0.20564803, 0.087311424, -0.10811074, 0.2671736, -0.12583093, -0.030995, -0.022743938, 0.109847315, 0.06560516, -0.0034203744, 0.072463304, -0.027944122, 0.07545369, -0.011581459, 0.16155617, -0.0051584113, 0.13424133, 0.2267798, 0.15326492, -0.11280316, -0.1160438, 0.050714288, -0.048415903, -0.2350327, -0.15730844, -0.05991754, -0.07183343, -0.13545151, -0.048824478, 0.062437296, 0.11283027, 0.23168722, -0.10068351, 0.12393875, 0.077409886, -0.020464107, 0.12882552, 0.120763, 0.2654463, -0.052838936, 0.082804754, 0.045493867, -0.0139563605, -0.07733144, 0.040849265, 0.15526712, -0.22645302, 0.045298893, 0.14718506, 0.104158156, -0.005062957, -0.028882492, -0.121263035, 0.09951779, -0.15298864, 0.20813195, -0.014466051, -0.017808886, -0.07813491, 0.2037183, 0.042645082, -0.045745306, -0.047610972, 0.22748642, 0.16616403, -0.07424708, 0.02105297, -0.099156365, 0.15903206, -0.048077732, -0.13044201, -0.053787533, 0.007801107, -0.064224936, -0.15458557, 0.0138777485, -0.10648689, 0.13042422, -0.04434062, -0.092376724, -0.071031034, -0.013463805, -0.16478662, 0.1232247, 0.105320565, -0.0857137, 0.1659862, -0.009112581, -0.071832694, -0.08909911, -0.02488271, -0.21348846, 0.04952049, 0.15398176, -0.017672218, -0.045122355, 0.018798484, 0.007549325, -0.013755339, -0.0040948703, -0.09379484, 0.035850935, 0.06413994, 0.1598187, -0.13779378, -0.18928371, -0.081538774, 0.04518354, 0.14877574, 0.02311037, 0.01986023, 0.06189224, -0.007613988, 0.11024229, 0.14823028, 0.17376563, -0.18433084, -0.116849184, 0.23487252, 0.07859175, -0.0013235055, -0.104459375, -0.047788177, 0.11722268, 0.11391461, -0.09267792, 0.0884832, -0.24653544, 0.06320957, -0.081418775, 0.10147516, 0.02276418, 0.020472292, -0.11516026, -0.14366601, -0.14405444, -0.058817554, 0.027197523, 0.1489407, -0.087420754, -0.017717602, 0.12317359, -0.059738792, 0.21585183, -0.03810072, 0.060546324, -0.06551579, -0.098893784, -0.23301674, -0.035818964, 0.123572476, 0.1175839, -0.0010794573, 0.101128146, 0.06603161, -0.04763183, -0.06697016, -0.068362445, -0.100096144, 0.0803511, 0.11520847, -0.02615683, 0.17078957, -0.026654698, 0.025761312, -0.04795793, 0.024406515, -0.12032452, 0.12462746, 0.0071317903, -0.20764488, 0.08106794, 0.062463146, 0.15855339, 0.2262582, -0.049371157, -0.069275714, -0.13652329, 0.22941054, -0.0112144435, 0.12091122, -0.06732535, -0.10982541, 0.09683361, -0.0045688427, -0.11703185, -0.2871423, 0.252641, 0.0056557558, -0.21543413, 0.12122135, -0.15847547, 0.16341718, -0.11449199, -0.22595653, 0.13856904, 0.07060945, 0.021477818, 0.0053309165, 0.06759883, 0.05355896, 0.07979063, 0.00046562485, -0.12597124, 0.18575668, 0.02815839, 0.04447683, -0.13995397, 0.028923512, 0.009317573, 0.028567351, -0.0045824796, -0.09564552, 0.07250677, -0.09139676, 0.13705847, 0.008623271, -0.071029246, -0.20238632, 0.09280475, 0.23627594, 0.016421573, 0.07515681, -0.12772693, 0.010217919, 0.003202927, -0.06588977, 0.108046025, -0.16496123, 0.1408593, -0.1217883, 0.17012988, -0.13007076, -0.0053740735, 0.08703241, -0.002016115, 0.0045468635, -0.05198639, -0.014192833, -0.10419589, 0.02599943, 0.24417512, 0.12257143, 0.03161379, 0.063684165, -0.03774497, -0.14023186, -0.07660762, 0.029195445, 0.18266118, -0.04549289, 0.05679329, -0.005641101, -0.014396453, -0.0963814, -0.06913014, -0.13061953, 0.079125665, -0.10364403, 0.08760042, -0.0101021, -0.09139359, -0.09772921, 0.1405348, 0.115763314, -0.16500174, 0.13933852, 0.08751367, -0.006841585, -0.15414304, 0.023878386, 0.32211763, -0.07349022, 0.06458518, 0.097308256, -0.072944365, 0.089254804, -0.075633995, -0.007576045, 0.054425795, -0.06665005, 0.14527935, 0.122378275, 0.059454814, 0.019656971, -0.013156186, 0.1881216, -0.07834382, -0.14496347, -0.07517869, 0.08989925, -0.06028074, -0.0021792417, -0.3318849, -0.028252373, 0.12451589, -0.23215869, -0.024393449, -0.06892001, 0.09289419, 0.10636561, -0.061002973, -0.056979652, -0.012010003, 0.082867, -0.07946428, -0.14854345, 0.093529664, 0.078412265, -0.08460859, -0.05545216, -0.069320075, -0.054730605, -0.10129965, -0.11468832, -0.064681135, 0.095058456, -0.05667291, 0.108281694, -0.049903598, 0.011006738, -0.19651644, 0.2294899, -0.025643576, 0.058942143, 0.0056904703, -0.005893985, -0.036239777, 0.016938673, 0.035016682, 0.2077125, 0.074620344, -0.08997712, -0.07451914, -0.0002464011, 0.019072216, -0.04485422, -0.18641676, 0.22743164, -0.17066856, 0.084609374, -0.03691931, 0.16237515, 0.055442885, 0.05055339, 0.12248396, -0.160344, 0.13759282, -0.1906136, -0.18161415, -0.012711733, -0.027246425, -0.003946121, -0.08732364, 0.11969759, 0.0072094235, -0.059451383, 0.11739992, -0.009633626, -0.11382288, -0.19028905, 0.14901328, -0.021898346, -0.20036058, -0.07213737, -0.06914789, 0.17692, -0.15332496, 0.24786666, -0.17212142, -0.15852514, -0.07892943, 0.07343666, -0.111212, -0.023761941, -0.075579636, -0.18061729, -0.13473712, 0.05385077, -0.23802464, 0.014579059, -0.18111826, -0.22689831, 0.09963444, -0.06410966, -0.10731887, -0.08733447, -0.14242864, -0.05511403, 0.1620728, 0.16718243, 0.14215453, -0.008112536, -0.08518026, 0.06293553, -0.044348147, -0.16686518, -0.14128537, 0.02793465, -0.23292276, 0.045316905, 0.13606088, -0.10769485, 0.14832646, -0.06543164, -0.11405828, -0.12345484, 0.11461972, -0.05239265, -0.0614771, -0.06239761, -0.18613501, 0.063133836, -0.0013179507, 0.09702911, 0.04840519, -0.08894513, 0.021163808, 0.006844372, 0.04058576, -0.13126679, 0.112600535, 0.03707633, 0.1315375, -0.0539381, -0.12590747, 0.025359701, -0.07820933, 0.077251144, -0.073186204, -0.13282728, -0.07587659, 0.035354517, 0.09413169, -0.11695097, -0.06290035, 0.06326752, 0.025705993, -0.046042103, -0.081156336, -0.04933055, 0.068357415, 0.026894968, -0.12381883, -0.022388123, 0.074264795, -0.08796885, 0.16783527, 0.047426403, 0.07410143, -0.10459335, -0.028678792, 0.13964143, 0.039544642, 0.07618424, -0.020378884, -0.0877971, 0.03368859, 0.002811778, -0.05353211, -0.13611226, -0.022810087, 0.15730537, -0.05185197, -0.08166775, 0.013713503, 0.028062219, -0.029649476, 0.04820313, 0.0406232, 0.119972415, -0.13673015, -0.10487523, 0.013183213, 0.12707508, -0.15797585, 0.09581083, 0.18619883, -0.09872686, -0.10203951, 0.028865712, 0.07237429, 0.015671425, 0.15629898, 0.10363603, 0.015312708, 0.03579248, 0.030604893, 0.108336315, 0.014165743, -0.04666273, 0.031585053, 0.13233715, -0.04254304, 0.018936442, 0.0312598, 0.10569009, 0.014313989, 0.11378928, 0.05133732, -0.048952144, -0.010179707, -0.0012853231, -0.09328272, 0.09711826, -0.1929201, 0.10418952, 0.088521, -0.095438704, 0.0032682861, -0.0462243, 0.06699221, -0.072610624, -0.05180091, 0.030060176, 0.010941631, -0.03751996, 0.03767989, 0.028145675, -0.12703156, -0.023537403, 0.101131275, 0.017780432, -0.07586209, 0.1024723, -0.03204083, 0.13596189, 0.055155404, -0.027504472, 0.07906681, -0.100096546, 0.035794597, 0.008707893, 0.1976453, -0.11259927, -0.07217873, 0.060895637, 0.10138276, -0.05032003, 0.082537115, -0.13531536, -0.18345419, 0.0965665, 0.1822579, 0.075476214, -0.09434169, -0.3003841, 0.049162734, -0.0063077095, -0.122745335, 0.19291136, 0.058622837, 0.10027626, -0.09102546, -0.046587296, 0.014576194, -0.06053781, -0.10672513, -0.035914976, -0.032984488, 0.11583733, -0.0535604, -0.05287393, -0.052402373, 0.059861526, -0.20111297, 0.060977787, -0.025852842, 0.15829726, -0.11727105, -0.24072684, 0.09328515, -0.338515, -0.100428306, 0.063806005, 5.4809672e-05, 0.0462266, -0.035374004, -0.03614244, -0.3581687, -0.10715699, 0.09603594, 0.29117894, 0.022192886, 0.03355269, -0.32171404, -0.17065607, 0.16413236, 0.13710919, -0.0085394345, 0.021174513, 0.07069397, -0.06348386, -0.14515992, 0.008649447, -0.09111089, 0.0605142, -0.0078145005, 0.1717201, 0.06761997, 0.10341095, -0.031215398, -0.025764383, 0.03471875, -0.14795351, 0.002557317, 0.19438928, -0.061830033, 0.011848336, 0.19446653, -0.059847705, 0.12395865, -0.06661355, -0.08042443, -0.06523992, 0.066862695, -0.16178048, 0.042202078, -0.008642839, -0.040629696, 0.2134119, -0.030711971, 0.008698256, -0.12914884, 0.3029281, 0.12513566, -0.011114503, -0.11086783, 0.12276301, -0.13009238, 0.28370354, 0.05713385, -0.36107877, -0.030520897, 0.022914346, -0.22353773, 0.14899515, -0.25941807, 0.012532702, 0.1838652, -0.17470591, -0.10011781, -0.07765354, 0.03928733, -0.15610047, -0.012604429, 0.14764829, 0.3114253, 0.0358049, 0.10691445, 0.24938807, -0.20442718, -0.131074, -0.058480624, -0.10557602, -0.0749624, -0.3876521, -0.25929758, -0.07284344, 0.032526538, -0.02237529, 0.17751545, -0.3044566, 0.034342695, -0.045743685, 0.14782499, -0.015203029, 0.02356207, -0.12956147, 0.23151876, 0.102015264, -0.00018599446, 0.07862948, -0.12848142, 0.07750883, 0.40645742, -0.009515943, -0.15137786, -0.08024146, -0.011808532, -0.031180711, 0.24178365, -0.01982735, -0.10993998, 0.13289796, 0.03681405, -0.27215376, 0.14791496, -0.11322227, -0.11943919, 0.08623586, -0.2333339, -0.12364587, 0.015506877, 0.19233333, -0.13537261, 0.23287103, -0.05148668, -0.0748176, -0.34664893, 0.22749905, 0.33280128, -0.16150433, 0.21454327, 0.12666008, -0.06246285, 0.03846517, 0.045051966, 0.02676658, 0.11361987, -0.17202082, -0.15636206, 0.09173301, 0.045848813, -0.056021277, -0.14269997, -0.14236735, 0.029167762, -0.07570101, -0.040823665, -0.25880778, -0.033846065, -0.16623235, 0.0069018835, 0.010440806, 0.17664096, -0.11322543, -0.0071103084, -0.07906349, -0.24237525, 0.24375516, 0.0037058971, -0.005487913, 0.13999899, 0.037462726, -0.12663336, -0.02309257, -0.054435477, -0.10509826, -0.035525057, 0.21120724, 0.005276388, -0.23777646, 0.015954083, -0.106644176, 0.13027418, 0.060638353, 0.010711585, -0.1897708, -0.026252203, -0.04030499, -0.08780579, 0.011340158, -0.050590727, 0.018417364, 0.010864916, -0.058945816, 0.030734457, -0.0096040405, -0.032445654, -0.01137837, 0.043991324, 0.108403526, -0.009500909, -0.2143804, 0.09836523, -0.0057860566, 0.040922925, 0.08822207, -0.1686182, 0.0019117036, -0.05000208, -0.18399987, 0.19498992, -0.009317639, -0.06377187, 0.0041151145, -0.14193992, -0.08422698, 0.16282788, -0.027772726, -0.012793576, -0.16371126, -0.13587086, 0.021435754, 0.13842681, -0.021500869, -0.105632134, 0.1253824, -0.002619556, -0.013768473, 0.124670744, -0.14045139, -0.018588252, -0.037378278, -0.09553295, 0.005878772, -0.020198317, 0.058019217, -0.0267315, -0.032617673, 0.04507876, -0.054548953, 0.07530702, -0.09238078, -0.22477975, -0.09112947, 0.11519301, 0.19341601, -0.042367157, -0.124153145, -0.10523699, -0.0049562897, -0.009760729, -0.10938278, 0.15563576, 0.01875132, 0.14273536, -0.06405576, -0.0053558196, 0.03935292, 0.0402419, -0.07380811, 0.0834842, -0.07774355, -0.061302844, -0.084340066, 0.003917996, 0.12900527, -0.08121688, -0.064807445, 0.018619465, 0.111594096, -0.022883335, 0.054082926, 0.007509803, -0.24715291, 0.23039658, -0.10506, -0.010527099, 0.19211562, -0.12441684, 0.051733416, 0.16065815, -0.0936375, -0.15348105, 0.121895365, 0.026917329, -0.022488033, 0.056287892, 0.09886226, -0.055110652, 0.24474531, 0.0513366, 0.05150156, 0.0650669, 0.11614461, 0.06607878, -0.08710848, 0.05987071, -0.06705818, 0.08434469, -0.062291063, -0.050618254, 0.15556097, -0.10683426, -0.061312385, -0.016225737, -0.016289478, 0.13754924, -0.05330682, 0.07362489, -0.102684036, -0.03984539, 0.096647084, 0.10986616, -0.08205391, -0.083942935, 0.21838291, 0.071489625, 0.073611796, 0.17811538, 0.13500907, -0.22174783, -0.0028263517, -0.06844483, -0.086675316, 0.1635184, 0.03152543, 0.05027099, 0.06337492, 0.14698336, -0.027930794, 0.0019311138, 0.022994816, 0.10067696, -0.0856016, 0.13179487, 0.0067598326, -0.097896084, 0.14470485, -0.06407942, 0.1115178, -0.12724829, 0.17147176, -0.20343083, -0.027185284, -0.056549598, 0.08182116, 0.017129067, -0.0596554, -0.0675436, -0.12429666, 0.052027427, -0.15020825, 0.041521784, -0.032398842, -0.11934493, -0.0957078, 0.06889661, 0.109875575, -0.0013017127, 0.1566626, -0.10338141, 0.25115174, -0.019772924, -0.08430734, 0.022721956, 0.22324549, -0.19675522, 0.021696022, -0.0007679147, -0.28513226, -0.082809374, -0.06491808, -0.109210715, 0.11956916, 0.1381253, 0.005235363, -0.122875474, -0.045782223, -0.14446603, -0.03456088, -0.11097696, -0.053676438, -0.0328163, -0.06960146, 0.07578754, -0.054735657, -0.18848494, 0.05411057, -0.018452149, 0.0010437708, 0.016657533, 0.021028724, -0.06280589, -0.12547536, -0.19470091, 0.034070432, 0.0510153, 0.10098372, -0.0979699, -0.0012255656, 0.14888887, 0.039407037, 0.061511144, -0.08125403, -0.007249436, -0.060523618, 0.19929282, 0.03383036, 0.012317773, -0.037066843, 0.04072697, -0.10989908, 0.12034818, -0.0050994167, -0.10519293, 0.1218396, 0.010327554, -0.025342705, -0.04316403, 0.15917034, 0.113435544, -0.22894584, 0.028807059, -0.08483829, 0.17867221, 0.093589716, 0.09202163, 0.1329827, -0.09145343, -0.010320738, -0.041876853, -0.05072844, 0.10464573, 0.030809429, 0.06316382, -0.08229179, 0.026487267, 0.010630649, -0.11688124, 0.073501274, -0.10818748, -0.00080181955, -0.05209132, -0.022825962, -0.054153997, -0.10971006, -0.011062182, -0.10089311, 0.13269137, -0.16304864, -0.006880341, 0.017083801, -0.07930097, -0.088397786, 0.04058232, 0.010771637, 0.074870974, -0.06318042, -0.11172022, -0.050290648, 0.06461715, -0.03699327, -0.12620804, 0.18416713, -0.015670052, 0.0920324, -0.045260284, -0.06592194, 0.044811852, 0.09723642, 0.08065775, 0.04592084, 0.083721556, -0.062211096, 0.116327904, 0.023875903, 0.15734524, 0.023880087, -0.22823113, -0.09039761, 0.052413024, 0.08095469, -0.10764332, 0.12195023, 0.08302948, 0.09022433, 0.13689092, 0.094663434, -6.4641354e-05, 0.23764521, 0.037619982, 0.06063189, -0.07432789, -0.057003856, 0.08400571, -0.030413916, 0.0024458175, 0.29157552, 0.13460329, -0.10034895, -0.048932023, -0.07679759, -0.07530947, 0.09051482, 0.22053252, -0.22518238, 0.10692131, 0.0980792, -0.004432664, -0.065953024, -0.028083881, -0.034582756, 0.08338408, -0.064359695, -0.089660525, -0.038420457, -0.043553095, -0.051103745, -0.06776332, 0.07817643, -0.1190281, 0.010376605, -0.15268314, 0.25104132, -0.010557707, -0.07957046, -0.10790387, 0.09691878, 0.18681835, 0.19266938, -0.07131623, -0.22428249, -0.30033886, -0.21687475, 0.24821612, 0.07733435, -0.14102602, 0.097073935, 0.03204165, -0.081371374, 0.060340807, -0.0887342, 0.20705934, -0.07641186, 0.11867828, -0.09706509, -0.046167653, 0.0038768023, -0.21706207, -0.18803465, 0.19665983, 0.12938301, -0.28503278, -0.05293394, -0.01523514, -0.24585077, 0.10243093, -0.22587661, -0.100171804, 0.10006243, 0.0031974763, -0.078993894, 0.11200636, -0.10040591, -0.18180996, 0.015016916, -0.057671532, -0.03835825, 0.02978816, 0.13943288, 0.06280013, -0.11698128, 0.0070912796, -0.05699077, -0.04679586, -0.062312145, 0.10441516, 0.050174356, 0.23638114, 0.013549286, -0.23964886, 0.1444581, -0.014644146, 0.0072465125, 0.051375985, -0.019858556, 0.07481179, -0.008453539, 0.15865833, 0.0674865, -0.06257541, 0.13224891, -0.09699524, -0.22227584, -0.076650344, 0.22541969, -0.15661414, 0.00052253465, 0.13386758, 0.024228828, -0.05092864, -0.052732196, -0.14035548, 0.2754534, -0.07211861, 0.14815211, 0.1493256, 0.2428813, 0.022021791, 0.14865647, 0.26875252, 0.31754246, -0.029709088, -0.09890135, 0.034155272, -0.11422878, -0.0005242917, -0.07778496, -0.07862142, 0.07741662, -0.22577895, -0.04755095, 0.06045883, -0.12059581, -0.05788101, 0.08554392, 0.12622294, -0.18096545, 0.14646402, -0.29135743, -0.022570347, 0.037988737, -0.0017883137, -0.09938953, 0.14162499, -0.17520991, 0.025629522, 0.025306916, -0.11392687, -0.24581385, 0.19081703, 0.03670992, -0.019334327, 0.048765212, 0.025961993, 0.00835603, 0.055999883, 0.0026685921, -0.08084203, -0.10686809, -0.09254764, -0.06667632, 0.025948694, -0.08636064, -0.031605735, 0.05398301, 0.16198456, 0.0026053693, -0.15753078, 0.1029063, 0.09118368, -0.036147885, -0.0672784, 0.06323225, 0.14004149, -0.061832633, -0.14718571, 0.14125678, 0.061691407, 0.12740381, 0.03590596, -0.16011825, -0.08355888, 0.1567268, -0.17091739, -0.13847592, -0.03827842, 0.14056714, 0.14340815, 0.03609211, -0.0071759955, 0.19059607, 0.2665979, -0.0019101371, 0.030629069, -0.107110105, -0.07551753, 0.109908365, -0.020012489, -0.20498894, 0.089157656, 0.032615386, -0.085890785, -0.04403451, 0.016433612, 0.18728486, 0.10800913, 0.052620713, -0.21969779, 0.23043875, 0.04699155, 0.01717836, -0.067305826, -0.14299442, 0.1006137, -0.13248411, 0.12280094, 0.1708092, 0.016815701, 0.0669107, -0.1175066, -0.104044996, -0.07771338, 0.057391915, 0.091598, 0.011271106, -0.030428883, -0.20105766, 0.009012843, -0.11437959, -0.1982809, 0.21718375, 0.13992423, 0.12396112, -0.150919, -0.10907628, 0.14119339, 0.1653683, -0.17949606, 0.05521673, -0.29307514, 0.04174716, 0.09955318, -0.025142847, 0.03400755, 0.06919507, 0.15702228, -0.11261998, 0.06650293, -0.030646, -0.038654923, 0.022414153, -0.05084784, 0.0076924637, 0.11493195, -0.086738594, -0.029623803, 0.09342381, 0.18828252, -0.18531126, -0.15224926, 0.14639567, -0.10858278, 0.031985175, -0.010920802, 0.15002398, -0.1257316, -0.08124902, -0.21200316, 0.018544093, 0.11168065, 0.09404402, 0.02540146, 0.15461795, -0.24065375, -0.08413391, -0.16473997, -0.027395189, 0.15927054, 0.108265385, -0.123826936, 0.102777265, -0.015513434, 0.1760245, -0.12049249, 0.050928764, -0.041179523, -0.15809195, 0.09437611, -0.07256605, 0.033197287, -0.12929682, 0.077049874, 0.1156743, 0.037353054, 0.2515786, -0.25887364, 0.04207494, -0.03693208, 0.06366921, 0.14611849, -0.073703416, -0.0069244034, -0.07564102, 0.20139949, -0.22679877, -0.17279287, -0.05999161, -0.25374267, 0.15318738, -0.08380073, -0.15539369, -0.0053330148, 0.0037881471, -0.091451064, -0.17547166, -0.040294904, -0.07455594, -0.07138151, -0.009603244, -0.1356466, 0.27796522, -0.060757726, -0.13866785, 0.04744918, 0.017090967, -0.1151949, 0.002996972, 0.13153714, 0.089025, -0.04439299, 0.10474424, 0.11477355, 0.090404205, -0.17533842, 0.009009887, -0.03866991, -0.13561073, -0.07607308, -0.03730108, -0.26842174, -0.11756319, 0.103087686, -0.0360672, 0.018549632, 0.14180328, -0.09544971, -0.34091526, 0.057181083, 0.052893084, -0.12124153, 0.033605877, -0.048352774, -0.16863382, -0.12445601, -0.05171676, -0.10945708, -0.12753625, 0.08577479, -0.07358194, 0.12826425, -0.19318558, 0.110046804, -0.23475234, 0.12786572, 0.031657603, 0.07180772, -0.12097447, -0.086880215, -0.12585613, -0.021629889, 0.106746584, 0.02771942, 0.04651041, -0.10311713, -0.058686513, -0.10455236, -0.10358336, -0.0968727, -0.087159306, 0.050270688, -0.106393516, 0.14645661, -0.022661082, -0.13363047, 0.114272624, 0.06907377, -0.1948054, 0.1562535, 0.088831015, 0.148279, 0.084007666, 0.07187642, 0.15953806, 0.20460422, -0.122578435, -0.16275297, 0.12488162, 0.15098767, 0.07639329, 0.13846318, 0.073739864, 0.12209061, -0.09290106, 0.05624494, 0.10388515, -0.116531, 0.08463823, 0.113519534, -0.03876709, 0.042418648, 0.08409722, -0.010848111, -0.15671755, 0.1095199, 0.027386323, 0.03935147, -0.038056616, 0.06007303, 0.020900354, 0.061913807, -0.00086619507, -0.14777167, 0.08469048, -0.010229593, 0.10999402, 0.0075851595, 0.011224005, -0.22614305, 0.014035712, -0.067412086, -0.0073440494, 0.0761512, 0.0903251, -0.11488739, 0.022806646, 0.0040141, -0.03907366, 0.06032167, -0.08483834, -0.05856468, -0.059642237, 0.007890369, 0.1535593, -0.05709739, -0.041473813, -0.2581655, -0.076077856, -0.11797041, -0.22644646, 0.08616406, 0.08211165, 0.22504207, 0.0584242, -0.04345773, 0.21125652, -0.04436761, 0.103106864, -0.013479754, -0.11629207, 0.09769671, -0.13084447, 0.011026265, -0.07201138, 0.122097194, -0.077767745, -0.07241368, -0.043003555, -0.0057017365, 0.21085542, -0.19588841, 0.10758372, -0.18713722, -0.05228191, 0.11403014, 0.03739616, -0.15066773, 0.07381816, -0.09082209, -0.07650994, 0.003735832, 0.024932798, 0.034830377, 0.11318635, 0.12338819, -0.23287208, 0.017640736, -0.2155144, 0.060764905, 0.011451028, -0.14038098, -0.034491815, -0.124768525, -0.02748536, -0.061898794, 0.16951513, -0.040088154, -0.09069676, -0.0023241444, -0.050847042, 0.2954505, 0.21159315, 0.18346275, -0.057454158, 0.02034583, 0.025681706, 0.051220793, -0.13958631, -0.06880758, -0.17078613, 0.014220408, -0.135509, 0.013652246, -0.080829106, 0.04320914, 0.13426942, -0.004516683, -0.089189775, -0.29887936, -0.16418792, 0.058231894, 0.07411334, -0.048861206, 0.24168798, -0.16385473, -0.106567435, -0.1775273, 0.09518878, 0.15234578, 0.11197356, 0.04101632, -0.15323776, 0.00017910927, 0.044394076, 0.009601533, -0.10491646, 0.07898823, 0.06367175, -0.0583688, 0.021589799, 0.066592015, -0.12676902, -0.2596459, -0.0841737, 0.120928414, -0.10927925, -0.08551557, 0.07266663, 0.042100303, -0.13332197, 0.360974, -0.04480105, -0.14499542, -0.12113059, 0.2675746, 0.030862354, -0.12459463, -0.18519467, 0.05383567, -0.060831867, 0.16166855, 0.031172885, -0.15573028, 0.029666375, -0.041504197, -0.07407029, 0.084215015, -0.009342978, -0.07828342, -0.2990631, 0.03703288, 0.07997273, 0.0027670641, 0.04316698, 0.084497765, 0.02363601, -0.19180901, 0.14319302, -0.062419377, 0.1574841, 0.08844768, 0.000105534506, 0.07508627, -0.07277794, 0.25963145, 0.09413869, 0.12331809, 0.02720768, -0.15345526, -0.07048797, 0.12214931, -0.030745912, -0.057929408, -0.04028543, -0.06713519, -0.044959534, 0.10094408, 0.103565894, 0.0414838, 0.12286692, 0.025598954, 0.044902332, 0.11020797, -0.18268311, 0.0032838723, -0.005182621, 0.23009044, 0.073689796, 0.1555114, 0.11312569, -0.09599181, -0.011485542, 0.14788263, 0.0827257, 0.1594946, 0.063916825, 0.1753775, -0.054643787, 0.07936056, 0.011698872, 0.08867749, 0.061339717, 0.23610017, 0.03613056, 0.1531474, 0.12894739, 0.1793795, -0.009862393, -0.25229326, 0.30735728, -0.037121274, 0.046009704, 0.10801427, 0.08771861, -0.1700408, 0.011629962, 0.22168712, 0.15634494, 0.03762078, 0.026974982, -0.14828427, -0.10236985, 0.21480702, 0.10941201, -0.0058963695, 0.04363158, 0.03735558, 0.088679485, -0.11044959, 0.13748923, 0.10077543, 0.09099859, 0.111754306, -0.103561796, -0.021059532, 0.1981152, -0.1452827, -0.029931402, -0.06459159, -0.16094258, -0.13252896, 0.025118148, -0.19096257, -0.20591798, -0.19006854, 0.040594477, 0.02904744, -0.034100514, -0.07838197, 0.06319292, -0.03738557, -0.008879658, -0.0018852972, 0.07934593, 0.0047835647, 0.08501461, 0.01541702, -0.023758058, -0.08148149, -0.054993246, 0.10441632, -0.0691797, -0.06961462, 0.118265405, 0.014538672, 0.035229936, -0.012683018, 0.059386123, 0.17869037, -0.10077931, -0.063638955, -0.0648243, -0.1610882, 0.027613822, 0.14837596, -0.050284646, -0.018995132, 0.06115515, 0.10270756, 0.022429036, -0.096347414, -0.047240533, -0.018876316, -0.24194847, -0.28406706, 0.1370719, 0.10512346, 0.18446952, -0.10536295, -0.07897125, -0.14299817, 0.03987649, 0.09282456, -0.06414903, 0.13325219, -0.055033248, -0.09581452, 0.0427983, -0.030230325, -0.12023674, 0.04875437, -0.07104157, -0.08392215, -0.066510655, 0.023053, 0.17234433, -0.028363157, 0.08248768, 0.04454018, -0.038601536, 0.025152607, -0.14387622, 0.11872635, -0.17312336, 0.02878687, -0.12146268, -0.10245451, -0.049322482, -0.046569403, 0.011495303, -0.0087583605, 0.1307103, 0.09168627, -0.11488762, 0.102996774, -0.048081577, 0.027078193, 0.118508115, -0.06679816, -0.20880626, 0.11047378, -0.120077066, 0.18171382, -0.18809204, -0.18056707, 0.05765637, -0.008470333, 0.08993829, -0.119585775, 0.05188955, -0.089211226, 0.0688746, -0.028910868, 0.14478716, -0.04700335, 0.12829135, 0.070310585, 0.21387266, -0.01926312, -0.10316472, -0.18615589, -0.016485224, -0.0463094, 0.111964196, 0.026455432, 0.035984103, 0.21030681, -0.28392202, -0.057477307, -0.2503833, 0.21957071, 0.14022614, 0.06791135, -0.111321315, 0.04614239, 0.07324613, -0.05424166, -0.05775425, -0.04364408, 0.02619216, -0.08047682, 0.10390434, 0.21457672, 0.16996612, -0.0019875262, -0.0757774, 0.20878156, 0.06603354, -0.2469158, -0.24185935, 0.20220795, -0.021559965, -0.030026812, 0.009865561, -0.042213738, -0.084807955, 0.11792519, 0.039679036, -0.06446841, 0.036457073, 0.07222945, -0.0532231, 0.18634535, 0.064179294, -0.12253691, 0.00014310853, -0.10388398, 0.121718235, 0.03836519, 0.10422664, 0.224946, 0.0001611977, 0.014315148, -0.08014844, -0.009373104, -0.22127818, -0.013493779, -0.0522264, 0.0053309686, -0.059451606, 0.08539044, -0.058743007, -0.0015051909, -0.23777916, -0.108845994, -0.096267916, 0.021976372, -0.013595526, 0.04454514, 0.10084668, -0.11670136, 0.031053357, -0.034485333, 0.1383221, 0.059850637, -0.06751801, -0.13805746, -0.011350266, -0.0566823, 0.045200896, -0.11418632, -0.0068384204, 0.016665822, -0.13946798, 0.060526602, 0.0057179243, 0.054607917, -0.24266222, -0.1431307, 0.29131848, 0.12361403, 0.060249425, -0.12843066, -0.158536, 0.05100563, -0.10729731, 0.039887663, -0.051148035, 0.0035872792, 0.018185027, -0.15403968, -0.02257501, -0.115673125, -0.104032926, -0.018510472, -0.04275273, -0.09595737, -0.23597638, -0.0125744315, 0.09406298, -0.14048673, 0.13205266, -0.11418328, 0.26094773, -0.027376624, 0.07041573, -0.041713454, 0.10097571, -0.030418988, 0.10635589, -0.0030303232, 0.04215068, -0.13597359, -0.007836155, -0.16083567, -0.038830094, -0.15463866, -0.061846606, -0.12030527, -0.15141505, -0.012733568, -0.20159712, -0.15874961, 0.1572726, 0.121518634, 0.110201396, 0.075903215, -0.041708823, -0.16660373, 0.1476648, 0.118004926, -0.19784966, -0.08916013, 0.02119726, 0.1412645, 0.16075288, 0.14713806, 0.01688, 0.03690895, 0.10230094, -0.029879509, -0.118003175, 0.16018122, 0.020875437, 0.06952692, 0.2756573, 0.14854808, -0.059505846, -0.011653229, 0.0074823536, 0.06188083, -0.15974069, 0.12023065, -0.05463345, -0.12430118, 0.11471702, -0.0024739609, 0.03624473, 0.05486747, -0.050203294, -0.12280716, -0.018331349, 0.11513896, -0.029770508, -0.08838365, 0.010236291, -0.00072652096, -0.005632592, 0.027980505, 0.04934011, 0.034152716, 0.036481798, -0.14740907, 0.2071067, -0.032774772, -0.0020939235, 0.23991795, 0.0020749765, -0.03891444, -0.13572071, -0.13353743, -0.0572461, -0.0017986266, -0.1253307, -0.007662607, 0.0638349, -0.057286266, -0.06686256, -0.081111334, 0.12623829, -0.13470982, 0.14635114, 0.017171076, -0.110903025, -0.114155106, 0.16554363, -0.085822105, 0.016995154, 0.34250203, 0.018314779, -0.14815481, -0.17977355, 0.045972846, 0.199465, 0.1378655, -0.0036129972, 0.06572402, -0.053813316, -0.06476494, 0.012028571, 0.0063925604, 0.14031905, 0.0016452114, 0.025839567, 0.005129509, 0.0027384968, 0.08008358, 0.0047259023, 0.008138121, 0.087022536, -0.12168654, 0.09936941, -0.010394056, 0.13113473, 0.17994334, -0.009990765, -0.13354175, 0.16843237, 0.18545753, 0.10862268, -0.23181543, 0.060832113, 0.08096894, 0.058444392, 0.0003725415, -0.04071269, -0.01102702, -0.18415457, -0.08026003, -0.006397227, -0.08422149, 0.053249706, 0.0796828, -0.024998352, -0.21783374, 0.03247809, 0.050629366, -0.017504431, -0.22492062, -0.0863613, 0.072663106, -0.40572602, -0.07522501, -0.023515265, -0.13576785, -0.006056672, 0.10989621, 0.045191012, -0.08364899, 0.09945423, -0.060271256, -0.10935353, -0.06457769, -0.07738564, -0.17433006, -0.015877023, -0.014323707, 0.076039806, -0.096333124, 0.013494469, -0.020170009, 0.17610048, 0.0033955076, -0.050555635, -0.15817985, -0.20798808, 0.014528667, -0.051076956, -0.12413709, -0.047976553, 0.093933724, -0.055182658, -0.19505942, -0.42692292, 0.07963408, 0.42399207, 0.14218573, 0.15974315, -0.18237439, -0.17337589, 0.13173003, 0.06310521, -0.023692101, 0.09250271, 0.09961314, 0.23030736, -0.028373731, -0.1414347, -0.15464993, 0.04919446, 0.051957633, -0.02064322, 0.019873772, 0.02920942, 0.037821606, -0.13285604, 0.19989717, -0.0056725717, -0.0070804902, 0.105251856, -0.032173723, 0.052297127, 0.10844267, 0.00890843, 0.1559254, 0.17019105, -0.25657514, -0.11406148, -0.0177722, 0.09179541, 0.18790333, 0.05832244, -0.15614267, -0.13726166, -0.01578992, 0.024623282, 0.09085639, 0.17692864, 0.13893329, -0.016144507, -0.30668268, -0.054442585, -0.07738375, 0.090992875, 0.063865, -0.10344554, 0.093043864, -0.033100624, -0.266792, 0.039713886, -0.20338282, 0.07790353, -0.03566263, 0.0052963193, 0.07461161, -0.121822394, -0.028234085, -0.015958553, -0.044891503, -0.032299656, 0.16289194, 0.039497484, -0.11705626, -0.0966847, -0.16332377, -0.08518849, -0.121877864, -0.100375846, -0.11658509, -0.25134623, -0.08752736, -0.26214135, 0.07615021, 0.067332424, 0.04882486, -0.30927727, 0.17194267, -0.071937025, -0.10503623, -0.04150592, 0.029074756, -0.032810472, 0.06032617, 0.06653198, -0.007069505, -0.0133168185, -0.14910147, -0.10982992, 0.13984017, 0.038763285, 0.0051207454, 0.0041692588, 0.0033564786, 0.0041635167, 0.10228495, 0.09943901, -0.0075586177, -0.077462494, -0.3610037, 0.1526004, 0.12989184, 0.14588071, 0.13681042, 0.18496394, -0.28683463, 0.018732006, 0.060270548, -0.10856428, 0.024484454, 0.1347252, -0.040304545, 0.03938127, -0.08009953, 0.069282055, -0.049744043, -0.1541498, 0.18078071, 0.026325807, -0.07281404, -0.103235595, 0.0105429925, -0.062204204, -0.0052839867, -0.1440939, 0.13792749, 0.16285522, -0.21314906, -0.16905032, 0.04508754, -0.024996512, 0.038005833, -0.06487405, -0.034172144, -0.12590836, 0.059361637, -0.035266683, 0.008233011, 0.049036514, -0.033503883, 0.1154682, 0.045279335, -0.14431609, 0.01729628, 0.008799435, 0.08770191, 0.12387085, -0.022264844, -0.026030228, 0.020542955, -0.27798495, -0.019119868, 0.011967766, -0.011519346, 0.2013477, -0.1597892, -0.09441371, -0.15322971, 0.20369469, 0.071628675, -0.23909645, -0.12174585, 0.09923206, -0.028634304, -0.24881546, 0.05250689, 0.030755527, -0.16910173, -0.001201883, -0.1576049, 0.08202945, -0.12803371, -0.06719538, 0.20447072, 0.05690509, -0.021028522, 0.14276898, -0.05140846, 0.027921826, 0.095181264, 0.05086219, 0.038333986, 0.09770315, 0.077924564, 0.04820426, 0.09729559, -0.13575703, 0.049405765, 0.023874953, -0.0021059755, 0.13049321, 0.029880852, -0.16587843, 0.09955373, 0.05506014, 0.20642693, -0.01389454, -0.23341341, 0.14185153, 0.15417106, 0.053389728, 0.13017036, 0.0030981258, -0.06275228, -0.023649361, 0.21030465, -0.021472711, -0.02817862, -0.044403363, 0.13615209, 0.072549164, -0.03329939, 0.00553514, -0.06883695, 0.107401736, 0.08583786, -0.17376532, -0.15331031, -0.20708291, 0.086542435, -0.14920685, -0.11232985, 0.30494958, -0.16228141, -0.06125153, -0.07344462, -0.011850298, 0.015925381, 0.026021585, 0.008071186, -0.18702783, 0.030493772, -0.02060215, 0.019806324, -0.00026520583, -0.0206317, -0.023626134, -0.053546205, -0.0003776197, -0.018883111, -0.06617942, -0.3583423, -0.039731044, -0.04261212, 0.047759797, -0.12872115, 0.0025143747, -0.0059843026, -0.17555737, 0.25922552, -0.23798534, -0.0145094525, -0.16619776, 0.08986201, -0.02765341, -0.01730344, -0.209685, 0.10529686, -0.10078072, 0.038116485, 0.12144053, 0.05914943, 0.028773382, 0.13335064, -0.18215385, 0.06275426, 0.08661942, 0.039771497, -0.33299768, 0.019060725, -0.024547743, 0.097735815, 0.1988047, 0.057480916, -0.037265472, -0.15770262, -0.005150059, 0.052129284, 0.07046351, 0.09935781, -0.051120874, 0.13995972, 0.0075592445, 0.11462294, -0.09081448, -0.013638743, 0.13238503, -0.09241578, 0.016036106, 0.2916247, 0.007929098, -0.0076517337, -0.08370533, -0.048974015, 0.04007626, 0.24201182, 0.11530714, -0.06596533, 0.13183938, 0.09036844, -0.014796823, 0.04696006, -0.005050591, 0.017227013, -0.04218685, 0.25440526, 0.05433742, 0.060506165, 0.24573149, 0.1295082, -0.029356167, 0.25722727, 0.1538541, 0.07396028, -0.108600214, 0.053814176, 0.23140922, -0.037092093, 0.08925093, 0.013067767, 0.12332384, 0.09368036, 0.04028086, 0.033393655, 0.20324042, 0.02863127, -0.11081227, -0.17942648, 0.14750044, 0.10590126, 0.19356397, 0.1871618, 0.15011367, -0.09962155, 0.008879708, -0.010732471, 0.04020871, 0.018808492, -0.06336135, -0.09061135, -0.113009095, 0.05954861, 0.21815997, -0.15203129, -0.08987094, 0.023446428, 0.0716692, -0.12269852, -0.03815294, 0.20273143, -0.05202265, 0.21618143, -0.06531977, -0.06700467, 0.18807316, -0.3934366, -0.1592106, -0.04444295, -0.020131828, -0.1491488, -0.006786527, -0.07993198, -0.293719, -0.15574218, 0.15951203, -0.05994817, 0.08615137, 0.052111357, 0.27690154, -0.29375476, -0.009366831, -0.060095023, -0.030806933, 0.06602646, 0.029919257, -0.12211871, 0.01968769, 0.03946594, -0.120421425, 0.062106237, -0.035064865, 0.035075173, 0.1681243, -0.032734305, -0.0009172126, 0.16830617, -0.11413241, 0.0007400932, -0.1576287, 0.034939814, 0.0533091, -0.03873005, -0.09970064, 0.030033505, -0.019295434, -0.0981604, 0.009341613, 0.002742137, -0.10667259, -0.035051685, -0.07055551, 0.13231836, -0.03151932, -0.05358448, 0.24009472, 0.13083875, -0.04019822, -0.28543893, 0.018584989, -0.02504582, 0.026167192, 0.056969598, -0.10521087, 0.015716529, 0.119315885, -0.10619797, 0.034292012, -0.041497324, -0.08739368, -0.12896343, -0.039991304, -0.06322021, -0.09076844, -0.03586748, -0.026825579, -0.016570294, -0.14481111, 0.16374224, 0.111938275, -0.0079990635, -0.14690489, 0.15341884, -0.15154015, -0.06895443, 0.0095723495, -0.10585371, 0.015481814, 0.08726469, -0.1083863, 0.0038253067, 0.26475224, 0.024753701, 0.08486537, 0.15653753, 0.008967338, -0.034826834, 0.09324762, 0.066462964, -0.20548292, -0.052343097, -0.095841624, 0.11479485, -0.04784746, -0.183325, 0.17663518, -0.16512051, 0.0052537373, -0.16806166, 0.15563811, 0.06744802, 0.17541024, -0.08602797, -0.0031134712, 0.16438067, -0.12497743, 0.011708105, -0.15591426, 0.18285166, 0.05351278, 0.10003879, 0.01835936, 0.013111968, -0.026231589, 0.06537865, 0.21744762, 0.07415688, -0.036871232, 0.15094082, -0.108132355, -0.010762567, -0.02852433, -0.08557741, -0.10017288, 0.1653128, 0.020766592, 0.010461454, 0.17344934, 0.031530015, -0.04279639, -0.15575075, -0.20706709, 0.19331399, 0.20495878, 0.08734208, -0.031709477, 0.111177646, -0.08183342, 0.010780367, -0.11687649, -0.04600702, -0.14605328, 0.1381355, 0.17598148, -0.10203059, -0.08685246, 0.09153161, 0.38533384, -0.11391932, -0.06734033, 0.098977916, 0.038788512, 0.0018492899, -0.061075147, -0.2371936, -0.0931478, 0.024532957, -0.0021324463, -0.13691054, -0.25651535, 0.026634881, 0.12799174, 0.01236811, 0.116049044, -0.18743461, 0.005588785, 0.17388336, 0.23831941, -0.24424055, 0.014335856, 0.0007582585, -0.1374643, 0.041181967, -0.045985073, -0.16052419, -0.03854692, 0.15259227, -0.1277979, -0.24276166, -0.16352701, 0.0074908696, 0.30676377, 0.16095884, -0.13050495, -0.03973152, -0.14617117, -0.08788134, 0.09824116, -0.25494546, 0.03920088, -0.2405525, 0.061347008, -0.088731766, -0.022485098, 0.24884208, 0.23197371, -0.11442037, 