#ifndef FC4_H
#define FC4_H
// Header file of the 11-th layer of the model - The type of the layer is fc


float fc4_w[10][64] = {
	-0.104159065, -0.16984543, -0.0039010318, -0.15007627, 0.049128763, -0.1337051, 0.06199619, 0.11478644, 0.14721482, 0.10827329, 0.13407679, 0.06890197, 0.017362276, 0.119640514, 0.06289645, 0.0019108648, -0.0241932, 0.19786288, -0.10330769, -0.18954289, -0.021028617, -0.022132535, 0.11361976, 0.16975741, -0.023049507, -0.012852201, 0.16711003, -0.14173448, -0.14926913, 0.2209901, 0.1549695, 0.1270828, 0.011348096, 0.086697824, -0.11187104, 0.13218601, -0.11513147, -0.076964386, 0.2597327, 0.0809137, -0.24051557, 0.10833078, 0.06616672, -0.1512811, 0.034021538, -0.20478024, 0.17518164, 0.13796742, 0.00459271, -0.008283677, 0.001692801, 0.03578875, -0.069046624, 0.18114948, 0.03659359, -0.13948978, -0.21628043, 0.07208872, 0.14245772, 0.21175735, 0.09114562, 0.09758789, -0.04159711, -0.23299667, 0.18523426, 0.0055728443, -0.23691614, -0.059612043, -0.10322174, -0.06705946, 0.1960595, 0.13080288, 0.19108765, 0.21237756, 0.042804383, 0.10651665, 0.13515119, 0.13058208, 0.23827071, -0.03828074, -0.038253672, 0.08812797, -0.13367063, 0.2885319, 0.22948863, -0.108743705, -0.07900326, 0.10338465, -0.18159638, 0.020682001, 0.093487315, 0.075504586, 0.09084443, -0.05088234, 0.13226151, 0.05872866, 0.038025368, 0.16149125, -0.16083682, 0.1013663, -0.26476425, -0.23554327, -0.31857643, 0.36407754, -0.07230679, 0.2513906, 0.14696065, -0.03322336, -0.21209115, 0.2084882, -0.22692467, -0.08875444, -0.10208813, 0.013004651, -0.07910829, -0.025450129, -0.21545705, 0.0842445, -0.014649185, -0.16789497, 0.09163633, -0.21173498, -0.16035327, -0.12753864, -0.10050729, -0.21778718, 0.29321298, 0.15853806, -0.07797242, 0.19752122, -0.15474607, -0.14420772, 0.24076492, -0.01126313, 0.15626585, 0.014546822, 0.10700277, -0.15507486, -0.13081732, 0.04195922, -0.100442745, 0.07480841, -0.059993785, 0.054276686, 0.087655164, 0.07406427, 0.09184453, -0.14322059, -0.06305056, -0.22254582, -0.19654323, -0.05652493, 0.23285668, -0.120337375, 0.03528869, 0.15874569, -0.123834014, 0.2046247, -0.010257554, 0.00659232, -0.08413254, -0.17559114, 0.06660806, 0.051106494, 0.092808604, 0.20557022, 0.044435374, -0.12171316, 0.08698275, -0.08843119, 0.011196934, 0.06894219, 0.096506245, -0.240308, 0.14325175, -0.09665984, -0.06881777, -0.20294745, -0.11767122, 0.022166666, 0.22867072, -0.110877156, -0.15585615, 0.05531397, 0.008493597, 0.0158031, -0.017202567, 0.08995114, -0.09483878, 0.09575055, 0.14888088, 0.0045954725, 0.1257978, 0.16752425, 0.20392802, 0.20243427, -0.03277565, 0.19503579, -0.1196258, -0.024476584, -0.1480153, -0.00820822, -0.17291312, 0.06479643, 0.115968786, -0.18051687, -0.061648816, 0.028461384, 0.08220243, 0.008369927, 0.12227934, -0.1575861, -0.023704415, -0.15318467, -0.17240721, 0.07885627, -0.0807582, -0.08153785, -0.023130108, -0.06334875, 0.096942484, 0.047193155, -0.20374992, -0.11904032, -0.20521703, -0.09368109, 0.12699075, 0.124470785, 0.03382365, 0.017978467, 0.15408088, 0.0760443, 0.22648218, -0.18538018, 0.037052494, 0.1404866, -0.21312493, -0.12597302, -0.0036681695, -0.009323735, 0.21541427, -0.12406814, -0.105363704, -0.107823566, -0.18287322, -0.05690931, 0.1807955, 0.13919164, -0.111666486, -0.11571794, 0.08192825, -0.040907096, 0.24583675, 0.15165162, 0.030184895, -0.024302952, -0.23149468, 0.14668325, -0.0025175642, 0.017718317, -0.08113435, 0.017705865, 0.08329696, -0.20392233, -0.12153921, -0.13227133, -0.049417846, -0.15279451, -0.012082856, -0.2037204, -0.090028115, 0.21456541, 0.03426017, -0.05388489, 0.11133561, -0.07522621, -0.15175866, 0.013503789, 0.20900366, -0.11569403, -0.05160369, 0.17562959, -0.11971544, 0.08606478, 0.14062996, -0.19693112, 0.05054584, -0.12804982, 0.17146996, -0.2285762, 0.12622808, 0.13230196, 0.115152635, -0.08886694, 0.024272317, -0.09314043, -0.07387771, -0.005670022, 0.18793634, -0.056737587, 0.17995176, 0.025169654, -0.120877035, -0.12543994, 0.090983644, -0.017746866, 0.21208014, -0.14812495, -0.048593108, 0.06425377, -0.21344596, 0.04476842, 0.24129367, 0.22748518, 0.13900027, 0.0104410695, 0.21874954, 0.2016683, 0.22293362, -0.032013338, -0.07678405, 0.047635466, 0.17619792, 0.0077469843, 0.11397498, 0.22052628, -0.15272477, -0.1758599, 0.0105255125, 0.017599655, -0.07454392, -0.017205186, -0.0624714, -0.19714437, -0.040913284, -0.18227544, -0.12176327, -0.23270136, 0.09656173, -0.008444818, 0.11517102, 0.017670011, -0.011364991, -0.10297694, 0.22224525, 0.20827882, -0.17394726, -0.124178484, -0.10525359, -0.1997779, -0.15278178, -0.11302782, -0.21967223, -0.005074109, -0.06393247, -0.16708843, 0.14243583, 0.20409624, 0.12196704, 0.27735424, 0.10872252, -0.021264454, -0.13108575, 0.18848465, -0.25993848, 0.0042904182, 0.07940751, -0.020885332, 0.03315569, -0.12895618, -0.0590025, -0.15575275, 0.0534221, -0.17064822, -0.11059381, 0.032438345, 0.058893144, -0.037854623, 0.14134203, -0.093399726, 0.016445477, 0.07757134, -0.02656004, -0.14962658, -0.009030366, -0.00092010805, -0.046718232, 0.0827145, -0.20349257, -0.24079481, -0.19491634, -0.14277276, -0.040421255, -0.13091546, -0.1570145, -0.047252648, 0.027733164, 0.10122476, 0.18226244, 0.3018456, 0.22385696, 0.043234505, 0.058257412, 0.16130777, -0.12232408, 0.12734868, -0.15147358, -0.15771833, 0.02797656, 0.28021476, 0.09923517, 0.16265112, 0.10274026, 0.05758911, -0.12805745, 0.0003961299, 0.17879884, 0.12780856, -0.019862046, 0.15134998, 0.1090551, 0.08330429, -0.09475348, -0.14697044, 0.048341226, -0.17927507, -0.2895137, 0.16479939, -0.06783537, 0.080667004, 0.044121623, -0.21938261, 0.1650654, -0.061268035, -0.32111603, 0.09178874, -0.3012169, -0.14210998, -0.1402102, 0.12682517, -0.021675523, 0.27019748, -0.12412792, -0.23851839, 0.10717663, 0.14970125, -0.10006636, 0.28467694, -0.03751694, 0.06798133, -0.20939133, -0.27516827, -0.14154533, -0.121266946, 0.007820865, -0.022491626, -0.16881116, 0.04711538, -0.12670818, -0.19834794, 0.10879405, -0.250193, -0.18606478, -0.17120612, -0.00038724576, -0.18442126, -0.054218628, 0.057541214, -0.092126854, 0.19470826, 0.25267744, 0.11614438, 0.088443175, -0.13870636, -0.15016761, 0.04771161, 0.26145604, 0.14364645, -0.16369012, 0.09010582, -0.082235254, -0.028397758, 0.12382889, -0.32527, 0.060504936, 0.044664305, -0.021530872, 0.21137899, 0.051623236, -0.066399366, 0.035639185, 0.12107453, 0.058149993, 0.2560801, 0.18535161, -0.1721279, 0.020948086, 0.021444047, 0.28588495, 0.13773142, 0.056182317, -0.03449439, 0.13038673, -0.03134049, -0.029219761, -0.0012820886, -0.1239238, 0.09148143, 0.06998474, 0.07413391, 0.030663354, -0.20645165, 0.06701815, -0.30620694, -0.0097208945, 0.104736395, -0.15116656, -0.12984788, 0.041808322, 0.19897804, 0.20209296, 0.14597122, 0.1573491, 0.21595725, -0.1752247, -0.12770689, 0.020964481, 0.23538408, -0.21626663, -0.07455402, -0.093311146, 0.031222358, 0.2132623, -0.09810014, 0.32876253, 0.050414573, -0.16144688, -0.03223111, 0.25192374, -0.25538173, -0.0604626, 0.15708718, 0.1291964, 0.08376511, -0.18615672, 0.0011226631, -0.19771475, 0.13944575, 0.031110425, -0.09097491, -0.12985954, -0.23331892, 0.12304699, 0.020072615, 0.07889077, -0.22489017, -0.05235523, -0.067526214, -0.17470728, 0.0052721556, -0.19223276, -0.07571336, -0.033705987, -0.24358664, 0.14363588, 0.09710344, 0.10229808, 0.2549487, -0.123816416, 0.05714339, -0.16994786, -0.24017678, 0.024096886, -0.06430329, -0.29169858, 0.1546693, 0.20124115, 0.09184474, 0.16889632, 0.1862908, -0.18225423, -0.1724513, 0.013561293, 0.065949686, -0.086171985, -0.04082203, 0.12998067, 0.03356175, -0.17512232, 0.034209155, 0.26263028, -0.21593413, -0.14097495, 0.11142264, -0.0930888, 0.16101894, 0.103036195, 0.18900698, -0.18239453, 0.13509946, -0.0629621, -0.11198816, -0.11478571, 0.07080078, -0.17870568, -0.27158132, 0.18856567, 0.1503585, 0.07284782, 0.038884193, 0.1784057, 0.004987629, -0.011715299, -0.11326933, 0.06580169, -0.11129274, 0.07081864, -0.08673152, -0.0007407453, -0.03893794, -0.008360509, 0.2632986, -0.16684881, 0.08449799, -0.15249547, 0.22813429, 0.047755815, 0.09735344, -0.108670644, 0.16793375, 0.12954293, -0.1490233, -0.2055343, -0.15833138, -0.13646674, 0.06030923, -0.17791049, -0.20013478, 0.014183964, 0.17110683

};

float fc4_b[10] = {
	0.01658253, 0.04006519, -0.058191698, 0.13534233, 0.18806478, -0.015862009, -0.031969637, 0.0573779, -0.16989891, -0.01254719

};


#endif
