#ifndef FC4_H
#define FC4_H
// Header file of the 11-th layer of the model - The type of the layer is fc


float fc4_w[10][64] = {
	-0.44968617, 0.34825426, 0.033269152, -0.34429413, 0.27032855, 0.3016051, 0.18618123, 0.22492754, 0.23728344, -0.19012167, 0.22679952, 0.41413537, 0.33402243, 0.42732757, 0.39754277, 0.198564, -0.04634978, 0.2604253, -0.04514101, -0.2317342, -0.07852389, -0.12060137, 0.38608915, 0.053125598, -0.120767854, -0.37405056, 0.11208835, 0.05154457, -0.1968433, -0.29569814, -0.22587332, -0.4241355, -0.05028146, -0.27498558, 0.42139345, -0.32991076, 0.45849606, -0.264635, 0.3995845, 0.12438626, 0.5208851, 0.08984385, -0.34294224, -0.2652164, 0.15507923, -0.41072956, 0.38178456, 0.10197696, -0.27601284, 0.062240023, -0.09201438, 0.26348832, -0.12705722, -0.29309958, -0.49987164, 0.061452877, 0.2789487, 0.36891901, 0.17156705, 0.38772434, 0.15066601, -0.04297567, -0.61716753, 0.37843028, -0.57014006, -0.5996774, 0.58447367, 0.0909011, 0.35226184, -0.21521333, -0.4009857, 0.1518593, 0.6131999, 0.0022812062, 0.4208174, -0.022486858, -0.537007, -0.31094122, 0.26833296, 0.44210228, 0.66100466, 0.14782295, -0.5475518, -0.47167772, -0.06374148, 0.2724751, -0.35547125, -0.16605853, -0.45645586, 0.41156432, 0.3164549, 0.05706018, 0.5053323, 0.33822817, -0.23531227, 0.36911577, -0.07735644, -0.15909441, 0.617853, -0.08365577, -0.32662705, -0.5445163, 0.45054328, 0.01622957, -0.2525692, 0.2001557, 0.054469973, 0.22793493, 0.11919983, -0.6691374, -0.043482427, -0.29849783, -0.043302253, 0.47528496, -0.7124796, 0.58892596, 0.23939404, 0.4394503, 0.033210844, -0.14253807, 0.18633093, -0.041610178, 0.39071056, -0.1462669, 0.34402233, -0.22906873, -0.46068332, 0.002260559, 0.2305823, 0.44711944, -0.37377307, 0.045350254, 0.061362103, 0.46696404, 0.50962156, -0.28813392, -0.43196994, -0.09952179, 0.0040835626, 0.23749599, 0.32588246, 0.29057598, 0.43437013, -0.41126442, -0.396047, 0.023345174, -0.0010729812, -0.15807731, 0.07300086, 0.10340956, -0.15067008, 0.38113213, -0.15093574, 0.023028566, 0.24085738, 0.06897047, -0.2598017, -0.33718053, -0.33440053, -0.24980086, 0.1694787, -0.28168422, 0.07341803, 0.3552858, 0.2614497, -0.06969413, -0.40764192, 0.24923816, 0.14980678, 0.2938494, -0.47906512, 0.35205927, 0.3634905, 0.30540904, -0.19159426, 0.20106862, -0.09332662, -0.16090773, 0.25438833, -0.24982981, -0.33979487, 0.42687625, 0.01941066, -0.5559928, 0.5102502, 0.13663766, 0.11051386, 0.33449814, 0.1638651, -0.0083109895, 0.2451035, -0.13876924, 0.23493427, -0.19580275, -0.2890265, 0.37277746, -0.23802479, -0.26689807, 0.15545334, 0.025656208, -0.28086135, 0.22321479, -0.27787247, -0.10601363, 0.06476225, 0.5207247, -0.40903336, 0.08053006, -0.025476962, 0.22848709, 0.3287001, 0.33070213, -0.27896792, -0.51363236, -0.061948255, -0.042068515, 0.34306708, -0.28547898, 0.04024246, 0.1429267, -0.29032144, -0.054453805, -0.17982495, 0.125987, -0.3986924, 0.37376118, 0.24843328, 0.47386473, 0.11987117, 0.25840673, 0.35263476, -0.3490988, 0.01744344, -0.27082053, -0.06090668, 0.23540588, 0.4214783, 0.47274283, -0.39546686, 0.40063927, -0.014287484, -0.31321818, 0.27670398, -0.081821255, 0.058015835, 0.2053515, -0.36117658, 0.19068067, 0.01815348, -0.25598517, -0.44496322, 0.3769136, -0.31894436, 0.3351828, 0.36980638, -0.4231671, 0.31839302, 0.39478475, -0.22431624, -0.22832707, -0.2720273, 0.09089732, 0.4089884, 0.0118625015, -0.176937, -0.055911027, -0.303943, 0.071946874, 0.074564345, 0.23950389, 0.1378718, -0.5816956, 0.013386677, -0.22533087, 0.35141692, -0.35667008, 0.05719447, 0.17619923, -0.17775577, 0.24070163, 0.24078186, -0.217325, 0.26713908, -0.50925857, 0.07974513, 0.23801126, 0.04690795, 0.2428659, 0.7475706, -0.6236933, -0.2957475, -0.06821355, -0.31344658, 0.3846593, -0.29617506, 0.43100482, 0.43857792, 0.13451101, 0.095742576, 0.26496106, -0.61933124, 0.14618261, 0.16963628, -0.52742195, -0.11414024, 0.22695619, 0.10060874, -0.1433135, -0.5032541, -0.18222883, -0.033476718, -0.19603005, -0.59278744, -0.40565115, -0.35948166, -0.5771793, -0.34599862, -0.5596482, 0.2637012, 0.03686953, 0.22843884, 0.4231406, 0.1414313, 0.44024467, 0.15513979, -0.2590256, 0.08159023, 0.18537368, -0.004295416, -0.53057534, -0.5142764, -0.3618797, -0.05419829, 0.41493073, -0.46823817, -0.33302215, -0.33811685, 0.4304294, 0.43568462, 0.45532045, -0.43655807, -0.4276464, -0.14280942, -0.1128982, 0.583815, 0.0042282096, -0.013955318, 0.009157122, 0.19183315, 0.111237824, -0.4387051, 0.4450708, -0.031453576, 0.37269354, -0.29523, 0.49334478, -0.2988101, 0.081984594, -0.061555978, -0.37262642, 0.304046, -0.55294687, 0.2523835, 0.02964323, -0.16614707, 0.27372408, -0.40068296, 0.48535648, 0.13976322, -0.18670312, 0.4647018, -0.12032002, -0.40880695, 0.28340235, -0.13685852, 0.020357061, -0.227206, 0.29763225, -0.13666648, -0.21256429, -0.26168784, 0.36704162, 0.4427933, -0.45392433, 0.43409735, -0.638339, -0.7226024, -0.5794719, -0.9803161, 0.16734935, -0.23745957, -0.09791166, -0.4739471, 1.1874231, 0.5457776, -0.6004905, -0.4639185, -0.13108929, 0.40940726, -0.37299943, 0.34270492, -0.39218053, -0.49347746, -0.27744317, -0.019844497, -0.5404969, 0.33965895, -0.32623798, -0.739989, -0.21928579, 0.18150324, 0.4431883, 0.19324605, -0.45234483, 1.0276799, -0.0600711, -0.12808453, 0.06736457, -0.5779807, 0.19521871, 0.1360039, 0.50338143, 0.3306967, -0.38777897, -0.41231242, 0.77484894, -0.46231627, 0.044108953, 0.48365036, 0.07568604, -0.015457877, -0.74002695, -0.3293565, -0.41479582, 0.5119091, -0.39582777, 0.09721357, -0.96804565, 0.6776904, -0.27009127, -0.071162716, -0.08748316, -0.2998552, -0.26656413, -0.08037328, -0.015893966, -0.018662155, -0.041002467, 0.392919, -0.026304003, 0.16459513, 0.1443919, 0.092275545, 0.26869804, -0.03207077, -0.12635803, 0.34321678, -0.5797672, -0.28627652, -0.18412167, 0.1889522, -0.21319121, 0.1946653, 0.15063684, -0.597913, 0.13907127, 0.5805662, 0.36782572, -0.3523279, 0.45538557, -0.5474533, 0.195862, 0.40808827, 0.33775735, -0.76949143, -0.7984335, 0.18007632, 0.07778767, -0.35876197, -0.29788917, -0.1708674, 0.3277353, -0.10499964, -0.45610806, -0.39708817, 0.27715355, -0.52079344, 0.37319916, -0.3404424, -0.17875065, -0.24890591, 0.05561616, -0.74405813, 0.35837686, -0.6940528, 0.4013444, 0.4450141, 0.4510043, 0.1719154, -0.023191009, 0.40162185, 0.15151717, 0.625689, 0.727044, -0.13427511, 0.21307847, 0.47285488, -0.4401839, 0.17603578, 0.25373447, 0.3766574, 0.40990365, -0.09773087, 0.17636617, 0.2860679, -0.11555001, 0.071667194, -0.7509767, -0.4393401, 0.080026254, 0.20978054, 0.09810538, -0.24270478, 0.24304089, 0.10339078, -0.3058157, 0.13604388, 0.2020093, 0.81541675, -0.21441597, -0.5666493, 0.12381649, 0.38050574, -0.19888853, 0.0771608, -0.6046544, -0.27683392, -0.29299325, 0.4230622, 0.46494463, -0.566355, 0.45531422, 0.7413809, -0.4513415, 0.034010317, -0.42427862, 0.5533175, -0.26611453, 0.6259237, -0.22655971, 0.5427024, -0.4657428, 0.046284635, -0.50470436, 0.5222079, -0.9400804, 0.51287144, -0.44428724, 0.30320084, -0.01868273, -0.41182375, 0.38097176, -0.5512341, -0.2104804, -0.41868326, -0.38584426, -0.39539286, 0.3112024, 0.24347797, 0.43908477, -0.43841812, 0.4187375, 0.041766215, -0.57597995, -0.5109544, 0.19329786, -0.42410085, -0.53533125, 0.53733313, 0.08554683, 0.31658506, -0.05042481, -0.64939845, -0.3946136, 0.39973217, 0.07410767, 0.30381384, 0.2557464, -0.20500234, -0.60169923, -0.53122103, 0.5032455, 0.6494813, 0.35232088, -0.4779962, -0.1854717, 0.46401933, 0.5198202, 0.6599424, 0.24011607, 0.21231791, 0.3014688, -0.60176706, 0.071754396, 0.50099087, -0.1609947, 0.33806908, 0.06346975, -0.3484914, 0.1493656, 0.26993647, -0.35262647, -0.3832585, -0.21218608, -0.40554994, 0.21450606, -0.7481914, -0.16382004, 0.6320308, 0.30344608, -0.28382242, -0.3510213, 0.70939666, 0.15270719, 0.4450162, -0.1626177, -0.404926, 0.2677913, 0.6463706, 0.09467547, 0.38376266, 0.04622318, -0.18129082, -0.37305406, 0.20752901, 0.03796168, 0.10864182, -0.30333698, -0.3396502, -0.2624119

};

float fc4_b[10] = {
	0.10441708, 0.0087403925, 0.040819936, 0.21336733, 0.22757532, -0.14608942, 0.079945974, -0.014723806, -0.047830474, -0.093421884

};


#endif
