#ifndef FC1_H
#define FC1_H
// Header file of the 8-th layer of the model - The type of the layer is fc


float fc1_w[25][256] = {
	-0.031818144, 0.07379421, 0.10831759, -0.039369754, 0.10020234, -0.069194876, -0.029978298, 0.024943575, -0.18582484, -0.034581184, -0.041235965, 0.0137037225, 0.21738198, 0.014417666, -0.3477, -0.45916653, -0.28923726, -0.44709712, 0.23391752, -0.05310847, 0.14888069, 0.024129689, -0.058912016, 0.07867354, -0.09083486, 0.011729942, 0.03513476, 0.0194943, 0.08450729, 0.0142340185, -0.017463617, 0.09406871, 0.12015858, -0.22749569, -0.16475913, -0.06160642, -0.046929605, -0.0049071535, 0.06390655, -0.1056638, 0.13081695, 0.036321368, -0.18866894, -0.0023222547, 0.06516812, 0.07487756, 0.034342825, -0.0830493, -0.17927639, -0.2562174, -0.22905165, -0.47125146, 0.051381268, -0.10308902, -0.040357433, -0.092731774, 0.014936667, -0.09489449, 0.039701566, 0.029146438, 0.32523027, 0.12104727, 0.3873447, 0.10768795, 0.05499624, -0.0676438, -0.03885442, 0.120328344, 0.09736636, -0.098185934, 0.084026545, -0.06256531, 0.009401412, 0.014468476, -0.11789676, -0.1008008, -0.027683532, -0.014901384, 0.015305701, 0.00044146716, 0.028889602, -0.013936824, -0.02028005, 0.0029129474, -0.018957892, 0.0434488, 0.069939, 0.0011004413, 0.0647161, -0.12689707, -0.09876367, 0.050319742, -0.21136737, -0.19116321, -0.052684184, -0.09500875, 0.008766917, -0.057364374, 0.037377454, -0.09868505, 0.44078583, 0.29488745, 0.25296924, 0.34032282, -0.22835337, -0.054494668, -0.09218501, -0.17700966, 0.02346545, 0.02834151, -0.107952364, -0.019418338, 0.031822547, 0.011473876, 0.0012297328, 0.0009351159, 0.023612758, -0.044999942, -0.078888394, -0.07134579, 0.29802674, 0.2415211, 0.3140105, 0.11043709, -0.16333964, -0.1294589, 0.13707079, 0.19748463, -0.07166666, -0.0009784241, -0.054581396, 0.04772086, 0.1297793, -0.044412877, 0.029031878, 0.025622007, 0.06054288, -0.08496757, -0.005338154, 0.12299025, -0.075152315, 0.04720138, 0.0019291415, -0.08319932, 0.044058215, 0.0065352144, 0.05986691, 0.043693233, -0.21952316, -0.49696678, -0.4809825, -0.13909926, -0.37944978, -0.37635726, -0.30839008, -0.12170083, 0.026311308, 0.0068327105, 0.060513146, 0.0073141423, -0.15349706, -0.06581197, -0.119125284, 0.12258217, -0.16821924, -0.29625863, 0.13333952, -0.09486737, 0.007911439, -0.08960418, -0.052817088, -0.027750954, 0.10842792, -0.0078466665, -0.05732407, -0.006063783, 0.20766242, -0.15358259, 0.2694515, 0.15922159, -0.11642527, 0.036837857, -0.102036536, -0.082157545, -0.017707312, -0.09783905, 0.013863284, -0.03736155, -0.03829359, -0.15665475, -0.12755102, -0.05633167, 0.24728756, 0.31840777, 0.4156714, 0.46223426, 0.07175219, -0.109444804, -0.047948893, -0.06276363, 0.018011112, -0.07249629, 0.040999494, 0.041055456, -0.016562697, -0.04060462, 0.09038719, 0.11512222, -0.04471438, -0.15995245, -0.011289681, 0.1181539, 0.022740884, 0.059301388, -0.013193391, 0.053969722, -0.034404006, 0.038385984, 0.08962399, -0.07053711, 0.117804006, -0.032742243, 0.10063858, 0.0087824855, 0.11591553, -0.021081371, 0.034238156, 0.023467667, -0.060849905, -0.06486106, 0.1027255, 0.074189685, 0.03726267, -0.010511325, 0.08085954, 0.06684879, 0.09522598, 0.00383533, 0.036437284, 0.1724397, 0.120364815, 0.10906676, -0.030903103, -0.060353592, 0.0496737, 0.026718037, -0.08477801, -0.012157311, 0.22002065, -0.2449133, -0.04221578, -0.2333191, 0.10793242, 0.119753346, -0.06007901, 0.12509686, 0.02496797, 0.111034706, 0.035497993, -0.026167594, 0.021534014, -0.085222125, 0.054851327, -0.004627691, 0.14496474, 0.19259751, -0.030592766, -0.36488512, 0.21495885, -0.11721842, 0.047753137, -0.32066503, 0.10855474, -0.17135938, 0.14829277, 0.11863669, 0.10784779, 0.065999866, -0.02111876, 0.055461854, 0.019631905, -0.0998308, -0.062899634, 0.012090615, -0.015030996, -0.055401735, -0.100105494, -0.023166621, -0.18398143, -0.012481204, 0.18166514, 0.06234279, -0.030022701, -0.005139385, 0.07009352, 0.05045843, -0.07459191, 0.04379494, -0.089090794, -0.06592823, -0.023993928, 0.025433104, 0.035687383, 0.027123839, -0.008169751, -0.049067404, -0.04220296, -0.063321106, 0.12823682, -0.029671308, -0.032361668, 0.016858814, -0.18760657, -0.045513947, -0.008282001, -0.021485912, 0.46875155, 0.17596714, -0.16018726, -0.48475868, 0.011018904, 0.05749855, -0.039523464, -0.0026893697, -0.169957, 0.013746948, -0.036502473, -0.07841073, 0.07443923, 0.103931814, 0.029521104, -0.028322108, 0.052779347, -0.13953616, 0.07562932, -0.13109306, -0.104255, -0.13101916, 0.0026339202, 0.08707566, 0.07364238, 0.0006318467, -0.016334014, -0.10552305, 0.04994346, -0.057501882, 0.052681718, 0.0580872, 0.013109079, 0.0066223093, -0.045244437, -0.03472859, -0.030207077, -0.0072278203, 0.003889882, -0.03070931, 0.24321258, -0.072452754, 0.21386325, 0.26547262, -0.1727628, 0.06902944, -0.29707074, -0.11662542, -0.08597173, -0.011627693, 0.048365016, 0.08545935, 0.05688142, 0.03666939, 0.032601852, 0.091526575, -0.022779023, 0.073608205, -0.02506464, -0.16973476, 0.24123852, 0.22359157, 0.35777652, 0.08597382, -0.006841932, -0.10841039, 0.013559278, -0.29641283, -0.011843482, -0.036228616, -0.00024602606, 0.0698837, 0.017396836, -0.16558202, 0.16914149, -0.074952796, -0.002565306, -0.00026734127, 0.11964415, -0.0693197, -0.00679009, 0.076564826, -0.027152726, -0.095353976, -0.24351832, 0.044469733, -0.09790121, 0.12181915, 0.33051157, 0.4142177, 0.26866293, 0.21409424, -0.16864751, -0.18489756, -0.64171124, -0.39992392, 0.08330224, -0.10027917, 0.009537385, 0.059507072, 0.35885876, -0.121676505, 0.038941704, 0.06980408, 0.0689765, 0.13201088, 0.0054267244, -0.15295228, 0.027166218, 0.06662312, 0.07452867, -0.009966318, -0.031545237, -0.027424831, -0.072733924, 0.051979233, 0.23409615, -0.15781721, 0.41379312, -0.11476578, -0.13069934, -0.13603787, 0.030636445, 0.06489427, -0.07124549, 0.09458839, -0.025398534, -0.008685219, -0.06484828, -0.23035213, 0.11299179, 0.25623637, 0.020414757, 0.035467446, 0.39911377, 0.42295042, -0.023532234, 0.07633215, 0.05519605, 0.021068329, -0.05619063, 0.028365768, 0.105822146, 0.049515586, 0.013169208, -0.14632201, -0.025152141, 0.049483884, -0.030479612, -0.4060489, 0.08534439, 0.12685713, -0.05131864, -0.17390539, 0.028650623, -0.034252375, 0.05255468, -0.0009440311, 0.06531951, -0.10237402, -0.015976852, 0.028834203, 0.12858835, -0.064050004, 0.06599936, -0.012132232, 0.12715305, 0.076355934, 0.074421965, 0.012186554, 0.07002316, 0.009541537, -0.2580897, -0.3045335, -0.066823065, -0.04591045, -0.025350515, 0.019688003, -0.022829589, 0.03266344, 0.021108417, -0.031420104, 0.030231157, 0.020449081, 0.0036748296, -0.01621306, -0.13688104, 0.093237385, -0.00901019, 0.16024771, -0.07359653, -0.18874383, -0.059452526, -0.050044198, -0.00041163617, -0.15292372, -0.0519938, 0.007947299, 0.063716166, -0.0566176, -0.04127196, -0.08710904, 0.05249427, -0.013411672, 0.03425491, -0.15201561, -0.4919307, -0.39934123, 0.23217052, -0.0095911985, -0.04815878, -0.014241743, 0.17196926, 0.099114165, 0.09381302, -0.17031217, 0.020895712, -0.08750848, 0.013351635, -0.048594497, -0.12206518, -0.1265745, -0.04400519, 0.11194642, -0.07371392, 0.101390205, 0.06595909, -0.03691245, -0.09458586, -0.08850369, 0.094457775, 0.22494476, -0.08388402, -0.027366841, 0.07960383, -0.03953739, -0.056960862, -0.027413076, -0.010894224, 0.017698009, -0.08860509, 0.018070428, 0.106516235, 0.1532765, 0.16515881, 0.058940023, 0.074501984, -0.19588362, 0.086594164, 0.09711302, 0.029073657, -0.07773544, -0.11111726, 0.028849605, -0.001690199, -0.019341255, 0.059647545, 0.08732073, 0.2404773, 0.24052657, 0.029513447, -0.031420104, 0.010287427, -0.053564157, 0.09276038, 0.0140664205, -0.06379775, -0.013363701, -0.011704321, -0.015124105, 0.03121288, -0.051036343, -0.026008675, 0.060246646, -0.08530093, -0.026966406, -0.07060751, -0.087429665, 0.07122198, 0.093092814, 0.02042522, 0.07681611, 0.10402287, 0.03605746, -0.08541406, 0.062485952, -0.041525465, 0.021338562, 0.041370604, -0.0070456546, 0.23905972, -0.1830973, 0.031369064, -0.026015002, 0.037819095, -0.089189604, -0.07634745, -0.08419753, 0.18630628, 0.3756536, -0.051792935, 0.15326609, 0.02919709, 0.05013678, -0.10847491, 0.12661546, 0.0048679826, -0.035676245, -0.01964731, 0.086287886, -0.042430703, -0.04023644, -0.0043659443, -0.023100456, -0.0444309, 0.10989611, 0.045551296, -0.10239956, 0.67291856, 0.2956731, 0.30161154, 0.09312645, 0.1860132, 0.06834291, 0.09246861, 0.034172233, 0.020196278, 0.0237427, -0.04494557, 0.115889385, -0.012361113, 0.009282748, -0.07026958, -0.13374226, 0.13513571, -0.14764015, -0.041526716, -0.023671998, -0.1600529, 0.13040693, 0.01668026, 0.023722071, 0.00942171, 0.006046049, -0.032277156, -0.24427576, -0.4235695, -0.26311556, 0.119835556, 0.090278216, -0.08807103, -0.024215326, -0.057751082, 0.101296425, -0.039085772, -0.07054813, -0.27454653, -0.22985281, -0.016483322, -0.21377304, 0.06553079, 0.08976251, -0.0011829422, -0.06867526, -0.08303214, -0.185615, -0.030017134, 0.006652477, 0.14203255, -0.018683542, -0.16750138, -0.013964661, -0.0006338762, -0.0074894456, 0.33580837, 0.41513467, 0.14207706, 0.04740811, 0.051052622, -0.07258634, 0.01766814, 0.0012005693, -0.18336105, -0.074824385, -0.13809814, 0.07779699, -0.030941747, 0.09188206, -0.48851568, -0.22404493, -0.044839587, 0.00011225026, -0.01828183, 0.001513421, 0.07717471, 0.13952793, -0.13191217, -0.06598426, 0.011903035, -0.03080924, -0.16155504, -0.07548035, -0.0031548657, 0.002474516, 0.13614474, 0.0006334343, -0.09203379, 0.06511779, -0.06255002, 0.087407365, -0.06820863, -0.024789546, 0.072173126, -0.05517945, -0.0058629303, 0.015375218, 0.017742546, 0.06239979, -0.010876721, 0.093763515, 0.09677949, -0.16771162, -0.038994364, -0.13795757, 0.14574768, -0.032308288, 0.060693912, 0.02773488, -0.076360375, 0.026412187, -0.041832577, 0.14433195, -0.08545185, -0.084092446, 0.089552656, -0.046248585, 0.019268457, -0.046630498, -0.043318626, 0.035013422, -0.004276649, -0.030138122, -0.09195288, -0.11330998, -0.103424996, 0.18573287, -0.036499392, -0.0074349437, 0.09763874, -0.07176831, 0.12599702, 0.06282408, 0.028440999, 0.02773121, -0.029175708, 0.08241668, -0.017022481, 0.11990894, -0.025188822, -0.0057145786, 0.21011767, -0.052028783, 0.1155303, 0.13432984, -0.06648706, -0.07865509, 0.14047857, 0.18208219, 0.16070434, 0.22843526, -0.03943461, 0.038387697, 0.038068872, -0.019732209, -0.051184434, -0.13994206, 0.10518359, 0.071013846, 0.0022907786, 0.07962486, 0.04829336, -0.074245095, 0.19654588, -0.09460342, 0.082429565, 0.09932646, 0.0220297, 0.18002617, 0.024599666, 0.066324316, -0.03923634, -0.014956443, 0.08977436, 0.040598158, -0.02710225, -0.13667731, -0.018927233, 0.027188506, -0.13844444, 0.01525807, 0.17603639, 0.1852001, 0.27058864, 0.22586471, -0.011527513, 0.065729834, -0.09445572, -0.18330671, -0.13888842, 0.0048244465, 0.08582536, -0.0063586137, -0.08012548, -0.05419222, -0.32175314, -0.24763612, -0.038895234, -0.0001979599, -0.09919413, 0.06143709, 0.091006264, -0.0033668266, -0.05991526, 0.0042077126, 0.023106292, -0.057214256, -0.016927522, -0.02720891, -0.0011494964, -0.012944094, 0.012471543, 0.015404933, -0.053330433, -0.030569954, -0.029892404, -0.13469271, 0.028544575, 0.041256286, 0.047855437, -0.03879384, -0.08424857, 0.045931958, -0.14051661, 0.05876369, 0.29528436, 0.20502245, 0.111528285, 0.13636641, 0.047181193, 0.08237991, 0.03301557, 0.014770231, -0.33803368, -0.28073406, -0.095382966, -0.3131641, 0.18474993, 0.040885486, 0.1853159, 0.11780258, 0.028214494, 0.066810496, -0.026793467, -0.043813787, -0.07031033, 0.1410909, 0.04614021, -0.027006157, -0.06194971, 0.019905914, 0.043152057, -0.0916719, -0.26057872, -0.31783146, -0.21696883, -0.219516, 0.21789712, 0.22754164, 0.028643547, -0.08276398, 0.0035729327, -0.080296196, 0.025400959, -0.10533901, -0.0036322023, -0.046311572, 0.11162655, 0.081413664, -0.065258324, 0.07314299, -0.06984179, -0.054795723, 0.10551764, -0.07965897, -0.05218841, -0.029612865, 0.06396926, 0.06114812, 0.05669149, -0.07563296, -0.019431198, 0.072415225, 0.043500938, -0.13499941, 0.36226624, 0.31002426, 0.28149736, 0.22818065, -0.07731659, -0.03834386, 0.0596351, 0.015856305, -0.021478247, -0.06238373, 0.10079497, -0.06576877, 0.09318918, 0.40108442, 0.0062155556, 0.22904348, -0.12760241, -0.18872707, 0.03767194, -0.057575602, 0.025302107, 0.008117721, -0.043971494, -0.054708485, 0.001366007, 0.006359712, -0.1335165, -0.018558882, -0.0022598777, -0.024290318, 0.04988441, 0.006921259, 0.020299127, 0.034236323, -0.0541796, -0.043098237, -0.030872777, 0.13260536, -0.016418409, 0.033572026, -0.25352764, -0.3381888, -0.15734015, -0.33056143, 0.036169723, -0.046916008, 0.05326048, 0.017592011, -0.06868782, -0.028292198, 0.1570805, -0.05195993, 0.09002361, 0.01887915, -0.03252022, 0.063024186, -0.067900226, 0.03875808, 0.020829506, -0.1076623, -0.038953222, -0.014326619, -0.047477107, -0.009192464, -0.13871932, -0.013105062, -0.027690021, 0.034469813, 0.013010378, -0.08327714, 0.021486063, -0.037621815, -0.14112905, -0.046190158, 0.090477794, -0.07315275, 0.022180522, 0.019461442, 0.120519124, -0.02324745, -0.09207957, -0.023607057, -0.07383587, 0.08029138, -0.008422446, -0.0025373935, -0.005140993, -0.036165785, 0.061143186, -0.15824401, 0.09021208, -0.12022078, 0.07957494, 0.16694528, -0.07990279, 0.049251735, 0.05899795, 0.29836437, 0.1961408, 0.108292215, 0.17999198, 0.056871302, -0.07171716, -0.0055566323, -0.08069257, -0.06004639, 0.053475823, -0.060755864, 0.007129941, -0.0991283, -0.0021284274, -0.1535853, 0.06112494, -0.047981724, -0.22454786, -0.12176772, -0.010944396, 0.22115101, -0.36966446, -0.046058804, -0.25035474, -0.067055695, 0.1245237, -0.09166333, -0.08139404, 0.040679663, 0.037932172, -0.024202487, 0.03498618, 0.015007409, -0.023662727, -0.14116989, 0.06286208, 0.17851856, -0.19719361, 0.01301724, 0.1432421, 0.31307644, 0.086036555, -0.007448439, -0.016112486, 0.04256289, -0.11331602, 0.093988255, 0.16799885, 0.023507865, -0.02193024, -0.039408058, -0.028109016, 0.031645834, 0.07459273, 0.050784755, -0.017711928, -0.32290182, -0.29148036, -0.18427296, -0.11503247, 0.0066895215, -0.06398368, 0.024988394, -0.07640381, -0.174772, -0.044620752, 0.048095804, -0.016007585, 0.13318376, 0.38670117, 0.278313, 0.014770058, -0.034612156, 0.02108521, 0.018166076, 0.11732506, 0.08880391, 0.11483154, 0.18264887, -0.020371536, -0.10030213, -0.012892187, -0.06996055, -0.021301335, 0.06746597, -0.06782264, 0.05586474, 0.008992403, 0.026947502, 0.11848577, -0.0815518, 0.09528182, 0.0008483067, 0.020688694, -0.059365954, -0.042401567, -0.031182544, -0.038876485, -0.085030876, -0.251762, 0.068155885, 0.09777498, -0.15109384, -0.12547223, 0.03924376, 0.012901272, 0.031181255, 0.25082585, 0.10694903, 0.29035938, 0.3323211, -0.2884929, -0.03436779, 0.08320282, -0.265131, -0.048877917, -0.05959951, -0.0021279796, -0.03642261, -0.012463333, -0.027829362, -0.023106232, -0.038079444, 0.022097904, 0.16565594, -0.11083271, 0.019081663, 0.41031358, 0.35932654, 0.24912323, -0.12383187, -0.49756575, -0.417505, 0.027953422, -0.064991705, 0.04093557, -0.089877784, 0.023274139, -0.033779033, 0.048760228, 0.012742709, 0.018742833, -0.008759312, -0.12937777, 0.07470512, -0.023598615, -0.081179634, 0.043235138, 0.043194585, 0.07578693, 0.0006079884, -0.084876135, 0.044794727, -0.12064968, 0.05838079, -0.46156734, -0.43541175, -0.30237433, -0.3332687, -0.18274884, -0.19820014, 0.071403235, -0.01469256, -0.014788598, -0.038256034, 0.0635316, 0.059519056, -0.2187079, 0.2938559, -0.4671251, 0.06383794, -0.17341849, -0.24533947, -0.024772234, -0.32034805, 0.06032707, 0.04529371, -0.12691297, 0.09107586, -0.046302296, 0.14094664, -0.06907684, -0.043527663, 0.22986521, -0.15734045, 0.18584698, 0.08316249, 0.006473488, 0.03009127, -0.13976409, -0.021487348, 0.06293971, -0.0092056, -0.04256195, -0.012412723, -0.01762966, 0.009306086, 0.009103568, -0.19637008, 0.22300448, -0.01875395, 0.15438259, 0.24172424, -0.019666696, -0.027826674, -0.062343366, -0.10035172, -0.15412316, -0.097064175, 0.03420762, 0.056633975, -0.016626403, -0.028472431, 0.012325712, -0.121890746, 0.17851537, -0.10535014, -0.23487477, 0.06264492, 0.053089704, 0.03731161, -0.019575506, -0.119227976, 0.043708008, -0.025240911, 0.0015978643, -0.04246338, 0.0182915, -0.04055397, -0.005682958, -0.019298302, -0.104645126, 0.022437748, 0.20130597, 0.03726847, 0.028116258, -0.021787869, 0.021501405, -0.006302138, -0.08350843, -0.041310284, 0.045011736, 0.22833541, -0.054742064, -0.04006874, -0.04296253, -0.016300322, -0.028834162, 0.025251064, -0.012961502, -0.01980912, 0.010538296, 0.053816825, -0.121615656, 0.0751429, 0.34991187, -0.06105631, 0.06312487, 0.04102248, -0.053875096, 0.020820748, -0.104079835, 0.008160473, 0.016231416, 0.011736749, -0.017423268, 0.0029184725, 0.028032895, -0.07237693, 0.08159896, -0.13677154, 0.15210004, 0.19317654, 0.042174604, 0.01398932, -0.105310276, -0.21257694, 0.1615673, -0.11740026, 0.018943472, -0.021373414, -0.02016332, -0.29664817, 0.016518317, -0.043172363, -0.042018957, 0.117080286, -0.053045932, 0.02772891, 0.09099473, -0.056708492, -0.007915391, -0.0407804, -0.07574182, -0.1182234, -0.076789655, -0.0050337533, -0.02338733, -0.010449425, -0.10513851, -0.038552206, 0.004806713, -0.025403151, 0.022969473, 0.0987118, -0.023013884, -0.033761494, -0.12339545, -0.03657787, 0.06719566, -0.02128269, -0.01907343, 0.019042997, 0.12410519, 0.07445023, -0.07405739, 0.060496777, -0.008106614, -0.1257615, -0.0132447705, 0.08210857, -0.007345122, -0.087645724, 0.2112848, -0.062304653, 0.102011204, 0.19169268, 0.026593775, 0.001998164, 0.0013173308, 0.08477828, -0.012463576, 0.02828717, 0.0978042, -0.01307192, 0.04780858, 0.07602419, -0.09705543, 0.11300129, -0.07439355, 0.025100635, 0.019092105, 0.03478863, -0.052012626, 0.0030984334, -0.019697964, 0.048766103, -0.046305694, -0.09247098, 0.007704219, -0.0039487868, 0.013840554, 0.09147216, -0.06815168, -0.04900559, 0.19417867, 0.11364594, -0.041749597, -0.121778205, -0.047146697, -0.021590486, 0.06434158, 0.059595834, -0.3010618, -0.10327682, -0.10043528, -0.14519337, 0.13778049, -0.009471335, -0.025127616, -0.076331735, 0.049418516, -0.048707537, -0.023279397, 0.04211291, 0.016003314, -0.07863549, 0.035656102, -0.046060834, -0.05376045, -0.051944632, -0.011471965, -0.07502359, -0.38104466, -0.25865042, 0.21100356, 0.241161, 0.27785373, 0.051464986, 0.088952176, 0.062156875, 0.08574436, 0.08206376, -0.13586937, 0.1201778, 0.08114908, 0.03506273, -0.084328584, 0.023016814, -0.1405825, -0.025124904, -0.11072911, 0.07906802, 0.021191463, -0.0016531568, 0.0709396, 0.020992145, 0.016795393, 0.09134073, -0.11042056, 0.009558204, 0.109253615, 0.20325011, -0.12102102, 0.032475907, -0.037742317, 0.044650678, 0.014644419, 0.0944207, -0.010216171, 0.038537633, 0.11471303, -0.14071828, -0.23234692, -0.13564038, 0.06444478, -0.041292604, 0.1769309, 0.111311994, 0.115104474, 0.12061149, -0.019279035, -0.012869274, 0.05724031, -0.046912864, -0.04034972, -0.0987529, -0.15179487, -0.048226, -0.19349535, 0.24979167, -0.3179699, 0.13136618, 0.08616959, -0.00047873246, -0.019392855, -0.027321322, -0.012656147, -0.10658138, -0.099759504, -0.058311533, 0.01936572, 0.071190484, 0.0868383, 0.17933598, -0.32460743, -0.090806365, -0.02904035, -0.038654648, 0.038938273, 0.07419993, 0.093797356, -0.069119334, -0.069015995, 0.002004953, 0.08225192, -0.033939097, 0.067824036, -0.066694714, 0.05731591, 0.04283963, 0.052599903, 0.057448816, -0.14411174, 0.13100946, 0.06321474, -0.011945003, 0.058344774, -0.0035563482, 0.055316545, -0.13614629, 0.008825844, -0.015469358, -0.04694185, 0.04140222, 0.021458613, -0.00062908634, 0.11610249, -0.10760735, 0.12722638, -0.10699027, 0.027831603, 0.12231269, -0.04320322, -0.04240793, -0.03462939, 0.0144001255, 0.04855265, -0.12038238, -0.07419061, 0.06676246, -0.05614032, 0.047468778, -0.03815617, 0.034799542, -0.008797572, -0.052692216, 0.116664454, 0.033714324, 0.032291565, -0.01320175, -0.049115364, 0.0098959645, 0.09506341, 0.063356504, 0.03581637, 0.07976896, 0.06268243, -0.035717037, -0.035523865, 0.026036076, -0.06728504, -0.08117974, 0.041422196, 0.054278962, 0.008618916, -0.006222726, 0.03207913, 0.38640523, -0.32225493, -0.44652453, 0.031610664, 0.00084727793, 0.017569372, 0.15562253, 0.22291529, 0.13138987, 0.11480344, -0.010138583, 0.011062957, -0.06333292, -0.092668116, -0.040535092, 0.037737202, 0.122224435, 0.06916399, 0.029155813, -0.06577329, -0.0017744966, 0.047556788, -0.051669516, -0.17351235, -0.017188113, -0.51369137, 0.053793307, 0.0038925267, -0.063934654, -0.051639013, -0.02690506, 0.004342815, 0.036364246, 0.010179598, -0.08814557, -0.019816348, 0.13591231, 0.10489174, -0.15744306, 0.19479236, 0.23005618, 0.10285609, 0.1307953, 0.040997997, 0.027734268, 0.05589134, -0.10884032, -0.046299588, -0.15080646, 0.064620234, 0.016483098, -0.40787345, -0.10315198, -0.34985262, -0.05532485, -0.033407208, 0.032406133, 0.09947191, -0.0100896675, -0.010209692, 0.08063407, 0.0647087, 0.09746507, -0.11146061, 0.04118671, 0.08679053, -0.07594036, -0.027747216, -0.0077844085, -0.039233867, -0.0099285655, -0.018975047, 0.013322504, 0.008355842, 0.010695612, 0.062404774, 0.08470315, -0.04103716, -0.073911004, -0.022071155, -0.028143777, 0.06601211, -0.073318675, 0.3021356, 0.12215293, 0.16352062, -0.03409248, 0.058416575, -0.14960104, 0.10483498, -0.11296626, -0.2585198, -0.45253065, -0.43723294, -0.23760447, 0.058694325, 0.1579786, -0.14912975, 0.1671717, -0.013980975, -0.0070798015, 0.018252093, -0.045647513, -0.009584286, -0.05573199, 0.047845274, 0.1196261, -0.0047017653, 0.026638206, -0.08640296, 0.029537292, -0.13811976, -0.11008887, 0.2687994, 0.3057001, -0.08752758, 0.009332319, -0.34972692, -0.37043655, -0.038170516, -0.07606291, -0.024568848, -0.11432168, 0.021221956, 0.028908735, 0.016567977, 0.08263093, -0.060033236, -0.027311645, 0.016996482, 0.022338286, -0.11777125, -0.054726012, -0.04460611, -0.01457827, 0.024364406, 0.111819066, 0.09842148, -0.00031214635, 0.042542607, 0.28109226, 0.026053261, 0.17124815, -0.056304805, 0.110819004, -0.13319781, -0.14295739, -0.0006379937, 0.04239983, 0.06126946, 0.10308614, -0.17019518, -0.36906365, -0.03146177, -0.34087634, 0.18915883, 0.24697174, 0.023616774, 0.021154467, 0.09128922, -0.03021373, 0.008807451, -0.08553243, -0.019311156, -0.0733591, -0.022169499, -0.0709279, -0.20631269, -0.14375083, 0.007982832, 0.38974825, -0.030964915, -0.09109811, 0.08725571, 0.006890234, 0.04086203, 0.005357235, -0.055644475, -0.07367927, -0.111032486, 0.041319326, 0.17255782, 0.095137104, -0.22559136, -0.23491585, -0.00383134, -0.14589998, -0.052846808, 0.07153524, 0.074990496, 0.029233722, 0.021656195, -0.044464346, -0.11409336, -0.014934673, 0.085758515, -0.008152535, 0.07563646, -0.12333207, 0.11941691, 0.17500761, 0.079396814, 0.069165066, -0.070969924, -0.027642826, -0.05013076, -0.21549289, 0.07866547, 0.05086038, -0.032812994, 0.06500916, 0.015465476, -0.00672552, 0.12659992, -0.08140587, -0.09141741, -0.031333957, -0.25910902, -0.20616344, -0.08922651, -0.13164619, -0.120184265, 0.08948194, -0.31160873, -0.07901767, -0.16587059, -0.20216963, 0.034003988, 0.0046288553, -0.08144545, -0.08949997, 0.021841865, -0.00659414, 0.08016835, 0.08590205, -0.04977581, 0.007557427, -0.00617187, 0.032203123, -0.06374825, -0.045866307, 0.046786934, 0.3431542, -0.027307216, 0.016044864, 0.029091468, -0.020097682, -0.075990826, -0.06353851, 0.081119, 0.087648235, -0.11876811, 0.0020915163, 0.0845922, -0.008101486, 0.2528878, -0.44436505, -0.031088945, -0.08908724, 0.4577089, 0.1862668, 0.052782103, -0.030208824, -0.09799601, 0.30738398, -0.16142522, -0.04235961, -0.0031740372, 0.02086427, -0.038613085, 0.10915696, 0.06491273, 0.031409293, 0.004863518, 0.06328899, -0.025516111, -0.09334151, 0.06321748, 0.035433948, 0.17050189, 0.06566942, 0.6335109, 0.22776885, -0.117027886, -0.013946476, -0.04371862, -0.109438635, 0.08091098, 0.010026883, 0.0024863728, -0.0011819581, 0.02612466, 0.021187015, 0.02692052, 0.02272971, -0.08493108, 0.16917302, -0.25286758, -0.013758891, 0.013157147, -0.026181815, 0.092616, 0.029615711, 0.043923352, 0.026304668, -0.05810023, 0.0390442, 0.41149408, 0.2357025, 0.13775869, 0.18914008, -0.06838758, 0.05426851, -0.07381719, 0.02773782, -0.08589616, 0.010261549, 0.034728557, -0.027379964, 0.06295164, -0.062402613, -0.027688598, 0.008186962, -0.08114446, 0.102611534, -0.034940206, 0.045250777, -0.025325768, -0.011159043, 0.07719724, -0.024388675, 0.025664436, 0.04801753, -0.101950325, 0.059425082, 9.0069916e-05, 0.057964314, -0.007859966, -0.14151853, -0.1463371, -0.21451959, 0.0018914742, 0.100913815, -0.030887866, 0.10467388, -0.0037899264, 0.0026244563, 0.33141595, 0.43745512, 0.5318899, 0.557732, -0.18246879, 0.074880116, 0.1762754, 0.2641588, 0.006498995, -0.064944096, -0.014269201, 0.04469605, -0.011817874, 0.004735761, 0.012957314, -0.0035434393, -0.043215413, -0.041172113, 0.038355947, -0.0037200002, 0.18089628, 0.25473303, -0.08340266, -0.03287811, 0.32755798, 0.04702119, 0.3837532, 0.25823826, -0.10016212, 0.010742052, 0.0010503326, -0.043002002, 0.059664123, -0.12212607, -0.04441989, -0.034702152, -0.010741041, 0.011103224, -0.011702747, -0.01650396, 0.006150128, -0.0085405335, 0.016999923, -0.1426834, 0.04407574, 0.027760092, 0.07305484, 0.01249356, 0.16818137, -0.387371, -0.2112382, -0.3969909, 0.26783496, 0.24706756, 0.14066133, 0.13950723, 0.06316657, 0.12539336, 0.037729673, -0.045572396, 0.12683576, 0.19506873, 0.26205006, 0.12215784, -0.20181052, 0.0562475, -0.09732769, -0.040913828, -0.11934302, -0.037208542, 0.015227481, -0.09543361, -0.019724868, -0.088292986, -0.0002756207, 0.02079869, 0.25843838, 0.07773545, 0.29220375, -0.047475003, 0.13222083, -0.0024857111, -0.0009322603, -0.02342643, 0.019622756, -0.004405895, -0.009915074, -0.051082212, -0.3612765, -0.18879448, -0.18879479, -0.07746023, 0.15914196, 0.09775949, 0.17665382, 0.09398218, -0.10788573, 0.108327515, -0.051143635, 0.043643184, -0.053753655, -0.10837693, 0.003114745, 0.15410013, -0.07492909, 0.08353552, 0.034222547, -0.09470905, 0.1984552, 0.030606855, 0.016389955, 0.15902929, -0.041860025, 0.024039203, -0.05932677, 0.044209577, 0.10928631, -0.0021458555, -0.0054148813, 0.1428272, 0.050763547, -0.07499584, 0.005123281, -0.11603519, 0.11274581, 0.12094144, 0.18005878, 0.22964405, -0.12189699, 0.019571578, -0.020975947, -0.18381429, 0.09719634, 0.1017557, 0.04418736, 0.283081, -0.13179174, -0.06612996, -0.13298978, 0.014028567, 0.124966234, -0.091947064, -0.021563658, -0.013791155, -0.034419525, 0.08865216, 0.001324782, -0.010390099, -0.16297777, 0.2581473, -0.083687544, -0.07660597, -0.061157532, 0.03410325, -0.0038903693, -0.03566227, 0.0804899, 0.0025691933, -0.050309546, 0.048159137, -0.08189579, 0.031415813, 0.072474755, 0.03706318, -0.112512335, 0.2491447, 0.24047889, -0.1576378, -0.1815795, -0.022295253, -0.0060336976, -0.07151991, 0.32002485, -0.3808615, 0.1803795, 0.04136128, 0.020125076, -0.10244938, -0.05023679, 0.08828024, -0.007577657, 0.043567047, 0.049081076, 0.07572214, -0.08328712, -0.0024193674, -0.03029849, -0.12769283, -0.21407497, -0.22949718, -0.5545311, -0.034716584, -0.097501434, -0.04369846, -0.020024747, -0.006973997, 0.06481708, -0.06404663, 0.04793646, 0.10865294, -0.06336259, -0.031370215, 0.05219327, -0.07851019, 0.38644496, 0.09457471, 0.09504754, -0.034685124, -0.029337896, -0.020323833, -0.017627025, 0.030227045, 0.03295634, 0.0058778035, -0.14077063, -0.11982827, -0.37967908, -0.01841259, -0.363004, -0.5111316, -0.048694693, -0.04429309, 0.026585588, -0.020872382, -0.02443657, -0.068540595, 0.010341033, -0.15687913, -0.037925214, -0.059563506, -0.0416475, 0.019305332, -0.17074864, 0.05264945, 0.08811663, 0.016145604, -0.013196043, 0.13929771, 0.008389303, 0.06200252, 0.00031112263, -0.024396691, 0.044300348, -0.029876404, 0.049896017, 0.10404596, -0.026387425, 0.036633875, 0.2241833, -0.12688261, -0.048276056, -0.09395962, 0.012797511, 0.09118713, 0.08471181, 0.0089680655, -0.09195347, -0.14435391, -0.34230152, -0.31895155, 0.17450531, 0.18621904, -0.25545266, 0.14064631, -0.113908075, 0.022271765, -0.0039632986, 0.108608805, -0.0732209, -0.099641934, 0.017999087, -0.03871838, -0.10452929, -0.053734567, 0.04214109, -0.023333032, -0.070076205, -0.087182224, 0.051908128, 0.083273016, -0.2834452, -0.08608743, -0.3250212, -0.13539031, -0.050477162, -0.010223515, -0.11164841, -0.06343747, 0.021101478, 0.08376778, -0.0610717, 0.0028221752, -0.044435307, 0.021143561, -0.0073070605, 0.0018485212, -0.04013404, -0.025957048, 0.006567289, 0.021856526, -0.11642903, -0.057768706, 0.12653312, -0.0048229923, 0.14677373, 0.41590986, 0.248021, 0.4620922, -0.5012447, -0.40449804, -0.1859122, 0.07239537, 0.053542096, 0.009956879, -0.044018935, 0.08471654, 0.24451047, -0.46038613, -0.24438787, 0.083221175, 0.23900257, 0.06128054, 0.037349284, -0.056426648, 0.05698043, 0.06865259, 0.0022841867, 0.03863774, 0.014258595, -0.013960178, 0.090480514, 0.10542707, 0.036270022, -0.16076948, 0.06972345, 0.10481927, -0.075835705, -0.038965352, -0.08847249, -0.05142323, -0.08578429, 0.036833253, 0.066554256, 0.04656351, 0.21557674, 0.27065107, 0.4033702, 0.15754983, -0.1331139, -0.13937055, 0.278807, 0.33698094, 0.01098986, -0.11034999, 0.033737928, 0.01637232, -0.015563131, 0.040824004, 0.027391667, 0.030305056, -0.009197492, -0.04434902, -0.056803957, 0.056154657, -0.06285659, 0.0037500565, -0.013846352, -0.025017463, -0.036707968, -0.058345243, 0.072649226, -0.119964026, 0.04183709, -0.037220336, 0.051649377, -0.071420535, 0.017339688, -0.023559986, 0.08759841, -0.07018479, -0.25261566, 0.15889426, -0.47000766, -0.14434363, 0.010040643, -0.107494995, 0.06475509, 0.04172469, -0.32525328, -0.22886087, -0.07993934, -0.22027557, -0.055576794, -0.017557222, -0.0038034443, 0.1553133, -0.12188413, -0.07746199, 0.05129908, -0.049834218, 0.05137684, 0.040496927, -0.10831981, -0.0749318, -0.09692063, -0.34047788, 0.061676458, 0.082122914, 0.017680006, -0.17527689, -0.008381879, 0.030226804, -0.022241635, 0.064746425, -0.14133002, 0.07524803, 0.008351116, 0.019839825, 0.11393602, 0.12978005, 0.19716118, 0.34322008, -0.022256257, 0.05893191, 0.11201253, -0.37151217, 0.12030656, -0.00030645833, -0.079516515, 0.17678161, 0.2062644, 0.08363441, 0.084061295, -0.0014650135, -0.0015230892, 0.021823024, 0.029144304, 0.013431249, -0.0046336036, -0.034344863, -0.015661485, -0.014792046, 0.021312067, 0.057072196, -0.035315454, 0.0050846906, 0.22552103, 0.028926823, 0.03508237, 0.11750627, -0.03872562, 0.021986699, -0.14087418, -0.016382864, -0.068451874, -0.007070091, 0.13428433, -0.017531864, 0.046934787, 0.08697947, -0.27194577, 0.124618284, -0.0129836565, 0.005561488, -0.0012206566, -0.12352867, -0.024047557, 0.112994075, -0.08918065, 0.042884614, 0.0026727025, -0.15657127, 0.11754755, 0.11189951, -0.3181569, -0.22130522, 0.045167334, -0.10796449, -0.062117506, 0.05012982, 0.10259572, 0.027700491, -0.0126541825, 0.020861244, -0.012194337, -0.07628864, 0.019631458, -0.021693226, -0.04794435, -0.009592419, 0.05885897, -0.05922058, -0.098299, -0.01933813, 0.017583493, 0.04836464, -0.027804952, -0.04079806, -0.03058241, 0.08900428, -0.10568133, 0.014876794, 0.03792538, 0.00878616, 0.09051589, -0.0890034, -0.032265976, 0.15675025, 0.026771957, 0.051875826, 0.037311886, -0.1458564, -0.21915632, -0.12574612, 0.022694208, 0.28030473, 0.19432402, 0.18753727, 0.20506592, -0.072186716, -0.050895452, 0.013089106, -0.02333069, -0.047142524, 0.013496092, 0.04479771, 0.09546731, 0.12834013, 0.10744086, 0.010375762, -0.00859113, 0.027775533, -0.25403294, -0.080139, 0.068869516, -0.110853076, 0.55886096, 0.15617704, 0.212026, -0.022453876, -0.036644466, 0.04401372, -0.018662045, 0.04039593, -0.025472395, -0.044419028, -0.004178112, -0.023509588, 0.06627114, -0.08798258, -0.036323477, 0.11126133, -0.082563244, -0.06512416, -0.04981946, 0.043457206, 0.01643667, 0.010478592, 0.017499706, -0.12791215, 0.1977012, 0.0010650628, -0.16770351, -0.11044177, 0.35958982, 0.18867184, -0.54288626, -0.22498585, 0.016394414, -0.058043167, 0.016436502, -0.023150565, 0.15884027, -0.16061452, 0.046644405, -0.27086717, 0.12633583, 0.3105544, -0.11857211, -0.17818832, -0.054994337, -0.09838719, 0.040323816, 0.15977442, -0.07826423, 0.021420158, -0.043113552, -0.012586054, 0.092979155, 0.1093281, 0.03945434, -0.25205323, -0.02814493, -0.021293534, -0.084997006, -0.12768343, 0.05831819, -0.020595424, 0.061475918, 0.035187636, -0.3840244, -0.15103386, -0.43393338, -0.19300522, -0.29334584, -0.18178831, 0.0075971205, -0.21296838, -0.12277344, -0.09165477, -0.0018172702, 0.001950323, -0.05347, -0.004487303, -0.063775346, 0.07301335, 0.10961882, -0.08640019, 0.063868195, -0.03548468, 0.029726557, -0.100259244, 0.12295568, 0.25940764, 0.037581433, 0.097039334, -0.009549072, -0.05535035, 0.0028776177, 0.15744986, 0.0178642, 0.02457559, 0.030751703, 0.15153033, -0.021297814, 0.0038346115, 0.02276334, -0.33667892, -0.058129903, -0.1541695, -0.050162453, -0.012929965, 0.045668554, -0.10187123, 0.2063809, 0.19777764, -0.124094725, -0.15367188, 0.05366042, 0.11149697, -0.03350876, -0.02717642, -0.023196416, 0.019643866, 0.003289911, 0.002405277, 0.04109035, -0.070694886, 0.08978592, 0.046725713, 0.056986634, 0.36256674, -0.25364894, -0.2473515, -0.0011884666, 0.015110641, 0.10933274, -0.088075705, 0.011172431, 0.05580576, -0.039770722, 0.0911641, -0.10736528, 0.025463134, 0.06797638, -0.12519377, -0.016078895, -0.10570862, -0.15527073, -0.17236957, 0.13668698, -0.0051580197, 0.050824746, -0.1647831, -0.06900644, 0.042590708, 0.16969995, 0.07411593, -0.0443786, -0.11283, 0.036115877, -0.10019867, 0.029226476, -0.0107973125, 0.024425855, 0.023356372, -0.016382504, 0.0956662, -0.07304036, 0.0920034, -0.15104078, -0.28197885, 0.0061460813, 0.2311905, 0.04115704, 0.06643798, 0.07531156, -0.006305711, -0.014478279, 0.06385772, 0.025594411, -0.02796173, -0.004801297, -0.013326677, 0.03492157, 0.02894621, -0.17594412, -0.18726055, -0.09307499, -0.121429004, -0.101817325, 0.054312836, 0.07803732, 0.016509656, 0.071001194, 0.10681438, 0.04721863, 0.02103926, 0.31666225, 0.3542968, 0.21462071, 0.305679, 0.09377209, -0.074514136, 0.057768628, -0.004348715, 0.05786607, 0.0342402, 0.024543848, -0.10569203, 0.092559606, -0.096614696, 0.029743243, -0.062028907, 0.09832355, -0.08564072, 0.0141544845, 0.024649987, 0.12656046, -0.11307738, 0.030482486, -0.003841419, 0.024806956, 0.07715414, 0.0031046413, -0.024394773, -0.030464545, 0.026535258, 0.060992345, 0.07569483, 0.08620039, -0.29035515, 0.020740505, 0.06988529, -0.020675415, 0.12169328, 0.10662813, 0.08028551, 0.26183975, 0.2952882, 0.2576812, 0.314512, -0.33426532, 0.13097769, -0.14161582, 0.10712551, -0.029306734, -0.019559024, 0.09779505, -0.07531209, -0.075307004, 0.12323509, -0.045894966, 0.0846906, 0.023648256, -0.05692129, 0.010447058, 0.17001742, 0.4591819, 0.45736638, 0.23999786, 0.24642307, 0.13017629, 0.23613879, 0.42463923, 0.19199973, -0.031827427, 0.08548229, -0.035414807, -0.0029007448, 0.064693965, 0.0283625, 0.021499157, 0.036762316, -0.032011893, 0.0957243, 0.02868049, -0.008021543, 0.029164726, -0.009907921, 0.0015107312, 0.04424101, 0.02190396, -0.062361613, -0.04925934, 0.032286305, 0.117853485, -0.19133107, -0.2682255, -0.28676862, -0.15852298, -0.046147853, -0.17854065, 0.013845695, -0.021686256, 0.016668202, -0.082349196, 0.0810267, 0.28915358, -0.26746088, 0.059565786, 0.09538377, -0.0615375, 0.14844391, -0.019752005, 0.029724997, -0.04859095, -0.027799444, 0.014784075, -0.08686055, 0.036462843, -0.111612305, 0.01822439, -0.029531762, -0.054302704, -0.12348152, 0.47955477, 0.2585362, -0.03590137, -0.11665983, -0.0654721, 0.009997159, 0.01513061, 0.0005598984, -0.026041655, 0.014447953, -0.21994783, 0.043004107, -0.0957768, 0.14136577, 0.048591398, 0.17130776, 0.38857374, 0.3267213, -0.025866188, -0.023439372, 0.06826533, -0.12170182, 0.009858115, 0.07218339, -0.014718505, -0.013533363, 0.046208918, -0.02862014, -0.042721983, -0.00024377838, 0.10477339, -0.12313622, -0.06528433, 0.15154003, -0.05176675, 0.019346481, -0.08201217, 0.017192945, 0.035507247, -0.057659987, 0.13205056, 0.049364362, 0.057850778, -0.079342, -0.032378316, -0.049219485, 0.02433985, -0.05303218, -0.1101158, -0.09060207, -0.10456157, -0.07490366, -0.16432221, -0.030531773, -0.120637186, 0.07508652, 0.18388613, 0.3095429, -0.028389515, -0.006069354, -0.05431544, 0.070124336, 0.0006116675, 0.10475738, 0.060168933, -0.023021046, 0.15629129, -0.09167873, 0.08556595, -0.07214346, -0.24248329, -0.041731503, -0.19316795, -0.19314976, 0.1925066, -0.12485866, 0.039022308, 0.07095172, -0.057733204, 0.005910972, 0.039579168, -0.071879536, 0.056508083, 0.03629684, -0.0020241821, -0.0050375117, 0.12264808, 0.22865699, 0.19105402, -0.1733767, -0.20386003, -0.051075518, 0.22107807, -0.10709296, -0.049445912, -0.18658273, 0.14118709, 0.13526706, -0.0166107, 0.033339567, 0.0021039546, -0.021498913, 0.09929938, 0.07453099, 0.0024091154, -0.059966844, -0.12891512, 0.08998643, -0.108569294, 0.07272304, -0.19582264, -0.21427917, -0.22012848, -0.046790883, -0.06176173, -0.01513517, 0.055330902, -0.029201865, 0.026217595, -0.08765658, -0.06628081, -0.01706681, -0.015924308, -0.058460698, 0.11556398, -0.029472291, 0.25207177, -0.08313801, 0.10167967, 0.006439054, -0.03754703, -0.021793557, -0.034181185, 0.057030637, 0.033820044, 0.0048440904, 0.08556376, 0.0067739193, -0.01879361, -0.025715668, -0.16846336, -0.3079884, -0.047748532, 0.11785626, -0.08127545, 0.022127062, -0.054847125, 0.020028047, 0.034230597, -0.06558358, 0.05302756, 0.066327274, 0.049812693, -0.012848881, -0.11654853, 0.020758212, 0.062206153, -0.05909377, -0.061384052, -0.047270913, -0.0074964035, 0.113172896, -0.07441306, -0.024149587, 0.17080115, 0.013995063, 0.025932085, 0.061126545, -0.013483627, 0.024175342, 0.09395248, 0.025456462, 0.0949425, 0.08347378, -0.022786416, -0.032023758, -0.0025016505, -0.081974976, -0.17799203, -0.113938525, -0.24540037, -0.12673591, -0.12752281, 0.22504899, -0.11753482, -0.107160226, 0.07117098, 0.023393355, 0.043396704, 0.0060504195, -0.05979791, -0.018650802, -0.038885478, -0.023262216, 0.08870663, -0.0067760027, 0.024016943, 0.035186443, -0.10538193, -0.03876367, -0.072562896, -0.119138725, -0.085375026, -0.016581854, -0.14868897, -0.18905593, -0.0038702143, -0.0052886354, -0.16907656, 0.012232695, -0.068782166, 0.048916783, -0.038805824, 0.050767425, -0.014784843, -0.12636006, -0.052663777, -0.1348697, -0.1130192, 0.081971325, -0.07244303, 0.08734995, 0.057048645, 0.12035872, 0.027639244, -0.068963446, -0.08880062, 0.4024147, 0.05107044, 0.17608382, -0.08655653, -0.14820509, -0.16131099, -0.07707584, 0.14849876, -0.061576217, 0.056933828, 0.1029154, 0.16438541, -0.27086294, -0.21600237, 0.08295368, 0.11885206, 0.13057488, 0.030496752, 0.05259865, -0.09744758, 0.07866265, 0.06064135, 0.06017402, 0.080899104, 0.15201005, 0.037578885, 0.0041766465, 0.024731725, 0.011572653, -0.0012162079, 0.0020780219, 0.107366785, 0.0077400575, 0.013453929, 0.0069228527, -0.011246755, 0.011703633, -0.027994756, 0.05385493, 0.08359421, -0.17299676, -0.010274553, 0.11489173, -0.05706145, -0.24585232, 0.23924008, 0.08187469, -0.053097088, 0.047915094, -0.044433475, 0.025047978, 0.07615989, 0.03003809, 0.0039278255, -0.032618806, 0.038916063, 0.17509377, -0.074443944, -0.007967164, -0.11199005, -0.06592018, 0.03646193, -0.0821846, -0.0708211, -0.013224707, -0.07775705, 0.014948541, 0.047515914, -0.018262357, -0.04645422, 0.066500336, -0.012608024, 0.006501996, -0.04162777, 0.07489412, -0.1084317, 0.08534654, 0.012839497, -0.041538876, -0.040367357, -0.0037433142, -0.14587793, 0.052302778, -0.293909, -0.15797926, -0.068435274, 0.001116827, 0.06818718, 0.005819882, 0.008382862, 0.00467367, -0.0019128594, -0.041737363, -0.042371728, 0.08134712, 0.047242623, 0.066157304, -0.11441438, 0.046277937, 0.014697917, -0.029795848, -0.08325785, -0.107941344, 0.020408377, -0.009219202, -0.06395861, -0.004609669, 0.013638983, -0.12881245, -0.023045989, 0.09156819, 0.027829155, 0.0216499, 0.029679302, -0.033327285, 0.28279036, 0.08218257, 0.008117077, 0.006090158, -0.47206065, -0.4659657, -0.10716476, -0.15110183, 0.078757666, -0.07853026, 0.37887314, 0.29884654, 0.0035165874, 0.16595516, -0.06672681, -0.0031908397, 0.031321064, -0.0045530037, 0.0021753972, 0.053230368, -0.034645952, 0.12772658, -0.019208957, -0.012761203, -0.060005482, -0.13051155, -0.15020108, 0.031754766, 0.102614194, -0.012201065, 0.103941515, 0.085471906, -0.021825226, -0.050626937, -0.09360416, -0.060566477, -0.033928663, 0.14253639, -0.06062207, 0.019543733, 0.27150849, -0.0102892425, 0.22467966, 0.0091988025, -0.025275994, 0.1595878, 0.017732287, -0.0065643517, -0.009761228, 0.033640448, -0.14164057, 0.06978919, -0.06734727, 0.042861093, -0.014662299, -0.21186516, -0.05473984, -0.03263593, 0.050246295, 0.0024714621, -0.029948784, 0.06363807, 0.020784486, -0.04925908, -0.0005893879, 0.06277802, -0.092937045, 0.023050133, 0.13554762, 0.08751788, -0.009988959, 0.04031715, -0.02417917, -0.013965614, -0.010633027, -0.016503276, 0.064003564, -0.03588414, -0.031718012, -0.008649731, 0.05368722, -0.059227534, -0.03225299, -0.018437658, 0.3016047, -0.03633378, 0.11055417, 0.1223032, 0.119532645, -0.07033152, 0.07556286, -0.0016539585, -0.20711133, -0.053072467, -0.23244862, -0.21101183, -0.018243274, 0.48063365, 0.0222431, 0.20220923, 0.012877306, 0.009687021, 0.02364122, 0.020717463, -0.047622975, -0.007938537, 0.06702749, 0.05635061, 0.04800449, -0.03834795, 0.13715912, -0.018791307, -0.3482161, -0.26375434, -0.35128057, -0.5163662, -0.030890122, 0.18662575, 0.22719087, 0.04286759, -0.019796671, 0.025954615, 0.0017160597, -0.048383486, -0.18998769, 0.03221165, 0.0077187945, -0.09459573, -0.013839626, 0.0062614684, 0.016178824, -0.11725623, 0.042750865, 0.018246587, 0.027615305, -0.049472466, 0.04563793, 0.17050324, 0.031495318, -0.08612151, -0.18974298, -0.07087458, -0.49979445, -0.3148994, 0.082312815, -0.035281863, 0.05807751, 0.19353093, -0.07097242, 0.08272941, -0.023505662, 0.11775911, -0.1662669, -0.40724206, -0.12293009, 0.05174007, -0.1784521, 0.10049987, 0.015817873, -0.015101048, 0.010758795, 0.04832384, 0.07025753, 0.0054979036, -0.033514686, -0.012732363, -0.06741566, -0.016191144, 0.11486301, 0.019852003, 0.011260613, -0.046237376, -0.11632227, 0.033432, -0.07095973, 0.03030481, 0.07365649, -0.033176634, 0.026904924, -0.012676225, -0.15976633, -0.0670398, 0.036447402, -0.07282522, -0.53590226, -0.2841492, 0.010674798, 0.13935116, 0.07076298, -0.032937687, 0.049534954, 0.024799876, 0.04631915, 0.13048822, -0.05034872, 0.07253709, -0.0322559, -0.030569322, -0.071948856, -0.052211422, -0.13665524, -0.0017690093, -0.076715045, 0.16261573, -0.033403702, -0.020345785, -0.03343691, 0.12092598, 0.0077893166, 0.036306955, 0.070096664, 0.019316634, 0.038619276, 0.039168376, -0.05991552, -0.09214873, -0.17279308, -0.2012753, 0.006821804, -0.2282435, -0.054299783, 0.026458526, 0.053812515, 0.009406269, -0.25668827, -0.16206558, 0.029669303, 0.124539964, -0.0397929, -0.0015404326, 0.085026994, 0.045153517, 0.0045041763, 0.052252397, -0.0070161526, 0.086335234, -0.031223852, 0.07660186, 0.023593847, 0.06791059, -0.061724275, -0.05093812, -0.019175, -0.096088864, 0.000666237, -0.004775704, 0.037866406, -0.013009985, -0.041806262, 0.004431844, -0.06312806, -0.091326475, -0.05624727, 0.053905502, -0.036276367, -0.07228078, 0.18684694, -0.18747497, -0.050675377, 0.027726306, -0.008643552, -0.109952234, -0.045275073, -0.22025542, -0.2601955, 0.27769548, -0.04097545, -0.112470575, 0.036207348, 0.024912639, 0.06826232, -0.006397217, 0.0017803777, 0.010068236, 0.030905798, 0.06818353, 0.00037832497, -0.03991088, 0.08845624, 0.0118255615, 0.16757205, -0.041112382, 0.4770176, 0.1582166, 0.067173935, 0.033273645, -0.07173716, -0.041893166, 0.007318669, 0.023901321, -0.047784645, 0.04405183, 0.057522073, 0.077894665, 0.040117573, 0.04074907, -0.25700086, -0.1329552, -0.09099739, 0.016039008, -0.010766124, -0.06357943, 0.11534848, 0.080041446, -0.005717253, 0.08932594, -0.0188553, 0.0062670987, 0.5386368, 0.20623678, 0.13364826, -0.054495662, -0.08268363, 0.005415571, -0.04583461, 0.011152554, -0.04517392, 0.08606067, 0.03325265, 0.049254306, -0.006883759, 0.0951452, 0.030818349, 0.057749026, 0.02074729, 0.12437838, -0.06382518, 0.080925405, -0.016952856, -0.10219546, -0.04259571, 0.008477251, 0.033400174, 0.09715522, -0.045834668, 0.0010001868, -0.038867116, -0.08388694, 0.021770434, -0.048660293, -0.23847969, -0.10230077, 0.008155407, 0.1736236, 0.023475934, 0.015090954, -0.08281087, -0.124693565, 0.32621834, 0.1248832, 0.29450244, 0.28783762, -0.112155505, 0.14358623, 0.36600703, -0.067805335, 0.0107370075, -0.030259006, -0.07131953, -0.07260055, 0.06272544, -0.071706004, 0.02562112, -0.049657863, -0.09958507, 0.0405456, 0.009201731, 0.038474847, -0.034075566, 0.016134674, -0.13706133, -0.3050732, 0.42470622, 0.24638478, 0.35674927, 0.2429725, -0.029811477, -0.00028776113, -0.019871896, 0.0146994125, 0.04432076, 0.073657915, 0.14246042, -0.051255878, 0.07459844, 0.05451582, -0.00173111, 0.029704679, 0.07743191, -0.072588444, 0.109228335, 0.01361819, 0.040673885, 0.045925085, -0.021885537, 0.005017151, 0.042844545, -0.33471027, -0.23728715, -0.367141, 0.3710651, 0.33883107, -0.13264851, -0.09384549, -0.024659595, -0.055106267, -0.02176006, 0.052929115, -0.0035368134, 0.26054925, 0.17170234, 0.24912319, -0.20143795, -0.08308069, -0.006775854, -0.026720315, -0.029513828, -0.027665162, -5.878808e-05, -0.036807977, -0.029471476, 0.061588604, -0.071602345, -0.053589657, 0.05115499, 0.16216363, -0.03896204, -0.09629481, 0.00608729, 0.06962122, 0.048680414, 0.05951238, -0.029963676, 0.0901407, 0.119645156, -0.07308044, -0.25044432, -0.20840828, -0.27712256, -0.2444991, -0.3115374, -0.09337201, 0.012097101, -0.037430417, -0.012966164, -0.029724786, 0.0041781673, -0.06205078, -0.13030285, 0.023943301, -0.072307214, 0.053644396, -0.008291127, 0.0029179198, 0.04948616, 0.02294631, -0.034910437, -0.092434116, 0.08360708, 0.19626422, -0.11396071, -0.010420336, 0.11813961, 0.05862355, -0.063450836, 0.02697076, -0.014267552, 0.029133815, 0.1408102, 0.015792826, 0.034657847, -0.01853817, 0.30032477, -0.21129397, 0.48685282, 0.1632244, 0.13832414, -0.021058604, -0.09803155, 0.00843138, 0.17632785, 0.11318503, 0.13441531, -0.06536363, -0.04731234, 0.0740861, 0.03608499, -0.047582343, -0.16164577, -0.03525454, 0.024015246, 0.03561887, 0.1465077, -0.07439527, -0.08358927, -0.07464302, -0.013511312, 0.4136635, 0.13694982, 0.07814536, -0.009476492, 0.027170414, -0.096189596, 0.02540941, 0.088621765, -0.062183928, -0.12704636, -0.10495835, -0.00075893675, -0.012932122, 0.08561739, -0.08392983, 0.03740712, -0.35507727, 0.22216432, -0.36681432, 0.08603909, 0.38851458, -0.33260873, -0.045954797, 0.29093352, 0.25377634, -0.032179017, 0.30993024, -0.0894434, -0.111437455, 0.0563289, -0.118952855, -0.03253002, -0.04714905, -0.0015541282, -0.04797952, -0.028604181, 0.08301638, -0.015481189, -0.03262881, 0.048578013, 0.26220927, 0.24256194, 0.35875803, -0.019913707, 0.012670902, -0.0700659, -0.008003888, 0.029212432, -0.11607082, -0.050508056, -0.1263708, -0.06536686, 0.10097688, -0.065949224, 0.0063585253, 0.15384519, 0.1725009, -0.12915036, 0.07250976, 0.07409722, -0.0237795, -0.06039759, 0.011818837, 0.013264433, -0.07257838, 0.154001, 0.04220916, -0.15563165, -0.06450943, -0.07186543, 0.011283055, -0.07446308, 0.017348077, -0.12933244, 0.13763209, -0.0096016815, -0.059259214, -0.04678706, -0.11254206, 0.028349392, -0.05802383, -0.13257578, -0.062090892, 0.09094787, 0.03279948, -0.021086248, 0.110669, 0.06657158, 0.04026036, 0.013445834, -0.016147222, 0.04627874, 0.049982917, 0.08423928, -0.021131443, 0.032638572, 0.050058037, 0.023354065, 0.01276955, -0.011821525, -0.13361596, -0.118755125, -0.025156502, 0.10442818, 0.04187216, 0.018820947, 0.03731949, 0.23665196, 0.29696342, 0.3458678, 0.32492343, -0.27909577, -0.0004305995, -0.243826, 0.28301844, -0.07650114, 0.02342649, 0.014916418, -0.06564896, -0.0887543, -0.1234735, 0.078392945, -0.104231685, -0.084556, -0.049345117, -0.03014211, -0.025756102, 0.71136343, 0.6214315, -0.53956234, -0.106510885, -0.17261599, -0.1983076, 0.1347293, 0.058277834, -0.027151434, 0.12819894, -0.047410395, -0.030740902, 0.08513762, -0.05317241, -0.012157415, 0.020114861, 0.038566437, 0.09945856, 0.040520996, 0.078251995, -0.08703896, -0.0037209683, -0.10518035, 0.010635676, 0.031489864, -0.043789264, -0.04245839, 0.030191014, -0.13466774, -0.16761658, 0.09933248, -0.142734, 0.006869913, -0.04330557, 0.09564295, 0.11579599, 0.02914965, 0.011733616, 0.05135942, 0.028725928, 0.3748547, 0.072541945, 0.011251244, 0.014680075, -0.15848838, -0.0023820174, -0.09056915, -0.0010511721, -0.0055578286, -0.045730494, -0.05660897, 0.0234496, 0.11189753, 0.03967055, 0.04949855, 0.07882253, 0.37281513, -0.09601776, 0.47174513, -0.15827301, -0.04960086, 0.055643972, 0.0047418606, -0.01932527, -0.077704266, -0.034158845, -0.0358472, -0.058765337, -0.3384551, -0.07990944, -0.13515614, 0.072997905, 0.21459465, 0.1485439, -0.14582181, -0.14666247, 0.09293873, -0.08903178, 0.0388638, 0.0040701986, -0.015430959, -0.06480797, -0.05193533, 0.12096702, 0.09827069, -0.041939605, 0.101320535, 0.007167043, 0.1001054, 0.020010987, 0.14706011, -0.07062326, 0.076031536, 0.027270105, -0.055273682, 0.07252906, -0.00988516, 0.091515206, -0.09445739, -0.02165225, 0.0032296798, 0.05904064, 0.042496573, -0.006545878, -0.16331138, 0.16154356, -0.08113177, 0.071988866, 0.028109971, -0.026379732, 0.0017663881, 0.028815113, -0.027595025, 0.18086855, 0.1449463, 0.1439802, -0.05412323, 0.14014073, -0.11177346, 0.02834482, -0.06553037, -0.13019195, -0.048299547, 0.064051524, 0.03921634, -0.08361794, 0.023684643, 0.044520732, -0.0103655355, 0.19232018, 0.022312412, -0.032085035, -0.039366145, 0.0051441393, -0.0025750485, -0.029192263, -0.12077794, -0.1070551, 0.045047723, -0.05162426, 0.14180437, 0.15836558, -0.030318975, 0.040334217, -0.029427487, 0.2614535, 0.20230332, 0.32080215, -0.3525179, -0.6113401, 0.055883937, 0.44334584, -0.29591495, -0.048559353, 0.005908202, 0.085352406, -0.025339447, 0.0047133537, -0.12013472, -0.03901227, -0.05519379, -0.1246916, -0.04861178, 0.007696014, -0.12530717, -0.059271496, -0.04012053, 0.06559626, -0.23957358, -0.4262734, -0.26083767, -0.3462532, -0.032148268, -0.032361288, -0.026639719, 0.04015175, 0.04272518, 0.07535539, -0.006872758, 0.04397876, -0.07628476, 0.06658676, 0.042221766, 0.019960508, -0.37780792, -0.31595576, -0.22287649, 0.033555295, 0.052745845, -0.031037815, 0.015745569, 0.006885485, 0.0070277127, 0.04847223, 0.022240985, 0.059453957, -0.054281116, -0.011206007, 0.11597596, 0.07748545, -0.071624294, -0.026478166, 0.02161261, 0.023012713, -0.056727808, -0.03943255, -0.085265785, -0.050328624, -0.046808295, -0.014626977, 0.033679005, -0.02859031, -0.06655612, 0.016736934, 0.07903846, 0.013437786, -0.020432794, 0.037388764, -0.023111979, -0.044559065, -0.015355836, -0.10941972, 0.108184874, -0.049191386, 0.032313235, 0.012833789, 0.013894935, -0.011624028, -0.101298295, -0.120155595, -0.16794981, 0.16460623, 0.008646815, 0.033362895, -0.0008477859, -0.046372313, -0.017940013, 0.09591572, -0.40196192, -0.2616119, 0.14451429, 0.1953029, 0.21709837, -0.26295406, -0.028608354, 0.09617976, 0.025186338, -0.017165579, -0.041766275, 0.04654921, 0.18969826, 0.0971744, -0.020866495, 0.031372532, -0.08333634, 0.071951486, -0.057567112, 0.08984997, -0.16957085, -0.29121763, 0.076113194, 0.30816758, -0.07388838, 0.113592096, 0.07862972, 0.0470937, -0.048632067, -0.015186101, -0.021049477, 0.022345975, 0.081294395, -0.0026206204, -0.11154235, -0.04522722, 0.0057629207, -0.0004200977, 0.035237875, -0.106082946, -0.05664753, -0.002013763, -0.03741555, 0.013542591, -0.039559525, 0.08424048, 0.021995053, 0.027519025, -0.31970683, -0.16824685, 0.16377065, 0.054284386, -0.07035011, -0.081700385, -0.07851231, 0.059440486, 0.09112861, -0.05350679, -0.14200476, 0.12973551, -0.12387496, -0.105987474, -0.0009010541, 0.0797823, 0.07409377, -0.03679342, -0.037636805, 0.15503056, 0.04191999, 0.009409207, 0.10164762, 0.052856613, -0.10703622, -0.06405746, -0.2641314, 0.08096269, -0.26456118, -0.24746948, 0.03057292, -0.002271542, -0.021792853, 0.047927618, 0.030021267, -0.036645044, 0.04908467, 0.1914059, -0.16768329, -0.08091068, -0.26531196, -0.2719655, 0.062298346, 0.23032731, 0.16489482, 0.054306433, -0.06726321, -0.0714041, 0.0891525, -0.042504687, 0.059656247, -0.007553051, -0.10754231, 0.016946247, -0.008533977, 0.12807252, -0.06043763, 0.04582445, -0.089728236, 0.082561605, -0.025741167, 0.31820175, -0.046282526, 0.08647503, -0.07212643, 0.004453144, 0.10877977, 0.035455946, 0.12076155, -0.008714805, 0.06380845, -0.11256292, -0.0063927434, 0.11144371, 0.0055950703, -0.28808004, 0.13352035, -0.028017256, 0.036177784, -0.032253344, -0.07173915, 0.0051036035, 0.17689429, -0.09995654, 0.2756225, 0.029919347, -0.036793567, -0.02278325, 0.009070835, -0.13806358, 0.0045845006, -0.045048114, -0.013521232, -0.0652496, -0.034410205, 0.024005998, 0.03813706, 0.09506376, 0.035335325, -0.21982105, 0.122237384, -0.074099846, 0.054977074, 0.024437979, -0.0052089994, -0.029275758, 0.045785543, 0.10483803, -0.0039102747, -0.049132463, 0.057356976, 0.011446276, 0.067404464, 0.16597104, -0.21849522, -0.050078604, 0.26937196, 0.5622282, -0.43682182, -0.29264385, -0.3340443, -0.0976466, -0.3569289, -0.41547218, 0.16392584, -0.05024929, -0.17522979, 0.05422784, 0.014403408, 0.036185544, -0.094223656, 0.022992149, -0.049229987, -0.0669656, -0.00906487, -0.024217088, 0.044772, 0.026857752, -0.1810683, -0.30502486, -0.45886657, -0.43488622, -0.010052019, 0.065968566, -0.07456188, -0.048193667, 0.0796583, 0.043774128, 0.06397643, -0.040057957, -0.00043199718, 0.017189685, 0.13661848, -0.077396, -0.18312363, -0.29321116, -0.16606963, -0.39422894, -0.00797139, -0.0065632933, 0.12451778, 0.044980496, 0.05183112, 0.033025358, -0.059006397, 0.041406292, -0.11476421, 0.01811779, 0.22646563, 0.1848115, -0.06941363, -0.038129978, 0.108679384, 0.09042901, 0.0049814363, -0.03426246, -0.06824463, 0.06324063, 0.012820422, 0.031512745, 0.05039243, 0.050910547, 0.06397187, -0.12315648, -0.0023837658, 0.16955061, -0.10209427, -0.07129104, 0.0067406157, 0.12153964, 0.11031119, 0.013487852, -0.0069199624, 0.054555934, 0.0658868, 0.060686324, -0.07318175, 0.1253582, -0.14523515, -0.11191427, 0.08820082, -0.16017795, 0.101140864, -0.04036209, 0.049032398, 0.096769094, -0.068384066, 0.38475636, 0.036429882, 0.08575153, -0.032568082, -0.31736675, -0.023467826, -0.100861415, -0.00038722288, -0.0022293786, -0.025993418, -0.06758745, 0.018781925, -0.05745258, -0.04098077, -0.032942493, -0.04855945, 0.02956968, -0.091134615, 0.021614427, 0.11122953, 0.0046734996, -0.20431313, 0.031390302, -0.064839855, 0.1647193, 0.0985774, 0.30774212, 0.027736919, -0.09657419, 0.046638876, -0.010628803, -0.11053138, -0.0010931703, -0.026275838, -0.021934053, -0.04019633, 0.034127217, 0.04891794, 0.030604491, -0.04741457, 0.15833998, 0.07595816, -0.113078535, 0.14482093, 0.015252476, -0.022460721, 0.034696724, -0.12526602, -0.23591512, -0.10180302, 0.07028583, -0.3882505, -0.39130566, -0.1351092, 0.014783831, 0.03818752, -0.053333692, -0.08724562, -0.017451996, -0.085857846, -0.17102912, 0.13977377, -0.05807376, -0.015122127, -0.15834881, -0.07234348, -0.046338536, 0.020181369, 0.05986327, -0.0586701, 0.032045785, 0.05076212, -0.06348357, 0.036316987, -0.0802953, -0.08996907, 0.09011425, -0.0122954985, 0.087580875, -0.025349192, -0.037480406, 0.086291656, 0.007982441, -0.05337507, 0.075257935, 0.018985067, 0.14490302, -0.06555017, -0.11127077, -0.33538517, -0.30739844, 0.3730465, 0.41088307, 0.06615153, 0.31013095, -0.0693101, -0.04296509, 0.062810205, 0.03629543, -0.037682246, 0.10052964, 0.03307398, 0.026525961, -0.053216066, -0.012918767, -0.004855553, 0.008006371, -0.03482664, -0.040662915, -0.005237008, 0.14070551, -0.03644841, -0.004014079, -0.014444285, 0.023103494, 0.0633698, 0.04750884, -0.03122664, 0.043976177, -0.06642228, 0.014702695, 0.051770754, -0.044555414, 0.08486994, -0.004931431, -0.23911937, -0.09718971, -0.051770113, 0.0073957, 0.0775287, 0.004045521, 0.4506212, 0.106602654, -0.008529427, 0.04595519, -0.02125398, 0.06073745, -0.09494318, -0.051399387, 0.013768177, -0.009774078, 0.024860363, 0.048333317, -0.014064939, 0.06691548, -0.050815754, -0.028580872, 0.035819806, -0.35886005, -0.10490708, -0.068332955, 0.035381217, 0.12004345, -0.006687796, 0.08200408, 0.030616898, 0.05632862, 0.032782096, -0.117217675, 0.0070778923, -0.047054555, -0.031318467, -0.05768619, -0.24144153, -0.008964908, -0.14010681, -0.43246686, 0.07850365, -0.21134982, 0.26430193, -0.10648641, -0.09017894, -0.039813384, -0.13243484, -0.09927357, -0.09579419, -0.029552571, -0.009902117, 0.06885737, -0.0057904683, -0.0174058, 0.061085314, -0.03584529, 0.1421748, 0.0353032, -0.10688196, -0.02556793, -0.2889909, -0.33409062, -0.2814847, -0.09281302, 0.0796966, -0.042408656, 0.03106459, 0.014019253, 0.024530848, -0.05539208, -0.025071368, 0.0032252437, -0.025960099, -0.047542308, -0.06470735, -0.09526544, -0.050860856, -0.101787806, -0.20482346, -0.16408654, 0.049538832, 0.05952196, 0.048482504, 0.026083855, -0.05793145, 0.111337885, 0.0023916336, 0.037812967, -0.02556585, -0.14866766, 0.1677304, 0.16011316, 0.115536235, 0.0149143, 0.065108106, 0.10189937, 0.05575204, 0.13870083, 0.18580683, 0.047450226, 0.010117924, 0.06347649, 0.032757614, 0.11721826, 0.051082313, -0.015761679, -0.0047484604, -0.027180811, 0.047583632, 0.0032641771, -0.052874275, 0.083690785, 0.009182491, -0.02618959, 0.025759542, -0.013474484, -0.0364832, 0.045500003, 0.0738309, -0.01794588, -0.025060076, -0.22631124, 0.09032928, 0.16950218, 0.036767595, 0.09150269, 0.04352112, -0.026179414, 0.20000686, 0.14957298, 0.069775954, -0.030455513, -0.41523063, 0.02179995, -0.089030035, -0.20656152, -0.115919046, 0.015713913, -0.047967713, -0.032815687, -0.02426443, 0.035840478, 0.060035475, -0.08587296, -0.0243889, 0.0248025, -0.0045470297, 0.016032455, 0.43216157, 0.48662806, 0.42763695, 0.40978265, 0.16357344, 0.13370526, -0.1343345, -0.19606455, -0.030493263, -0.022435466, 0.14575908, 0.08692486, -0.045027137, 0.0071802665, 0.025988495, 0.0035287004, -0.040665068, -0.105107166, -0.048800692, -0.0043946295, 0.022970863, -0.04483011, -0.06111948, -0.08899708, -0.0406689, 0.07068267, 0.019067151, -0.066590935, 0.21063244, 0.31645906, -0.03187999, 0.10698544, -0.16436374, -0.14550094, -0.14132869, 0.114217475, 0.077758424, -0.03221811, -0.022996753, 0.105709605, 0.18515037, 0.01911688, -0.43287563, -0.014044702, -0.19583198, 0.022752918, 0.20930062, 0.15805247, 0.0019395574, 0.0061020795, 0.05012662, -0.040412962, 0.044258337, 0.042181563, -0.032204133, 0.006547356, -0.16655552, -0.02665525, 0.1847817, 0.26941326, 0.061590582, 0.008615592, -0.06964059, -0.08611716, 0.097685136, -0.045960926, 0.02335137, -0.02644705, -0.09423208, 0.15593386, 0.24528766, 0.06836967, 0.1610131, 0.24147518, 0.55689406, 0.3787297, 0.057536278, -0.03905062, -0.032532882, -0.02712892, -0.035434864, -0.017677693, -0.07021642, -0.028175525, 0.03390455, 0.025453297, -0.062335808, 0.080648005, 0.066286236, 0.20027179, -0.057838112, -0.031572048, 0.07655851, -0.09627357, 0.0054748743, -0.13527164, -0.041862976, 0.040316243, -0.02911349, 0.008861937, -0.105478436, -0.090554595, 0.055151865, -0.08480466, 0.07953061, -0.24175715, -0.16889112, 0.09398099, -0.011550399, -0.04151235, -0.031932797, -0.08242581, -0.24922666, -0.26891467, 0.16883513, 0.114254415, 0.04664559, -0.10872189, 0.042227015, -0.06742323, 0.03912855, -0.07143772, 0.09099253, 0.043697752, -0.10965445, -0.12893432, 0.08015274, 0.044555765, -0.29537246, -0.21504508, 0.16667287, 0.054699194, -0.031759452, -0.06674427, 0.06387798, -0.03447854, -0.040581293, -0.044987734, 0.0400394, 0.068721436, 0.01825183, -0.02980855, 0.018729512, 0.088976055, -0.022401206, 0.46799788, 0.16682443, -0.1473671, -0.16682667, -0.14039062, -0.045196787, 0.14429367, -0.038078792, -0.3452424, 0.1895911, 0.3106476, 0.026830899, -0.026518801, -0.1350653, 0.010091873, 0.06812667, -0.08078505, -0.013666538, -0.07091942, 0.06594594, 0.054776996, -0.03930199, -0.046588745, -0.5252287, -0.2993197, -0.6005802, -0.40308592, 0.030042203, -0.09984244, -0.03300285, -0.05101395, -0.07828997, 0.027524544, -0.114610374, -0.06788496, 0.027180297, 0.0077637765, 0.024117144, -0.015710676, -0.010552083, -0.21400939, -0.08786233, -0.2127433, 0.13281009, -0.05194742, -0.062965415, -0.020828478, 0.03595569, 0.084098846, 0.058971535, 0.08251003, -0.33692133, -0.36135757, -0.3703639, -0.3427893, 0.01570474, 0.044560265, 0.0112650115, -0.030584512, 0.043080315, 0.044449218, -0.0037773985, -0.069852695, 0.0018104301, -0.030113157, 0.030672735, 0.043041233, 0.009474806, -0.010549235, 0.011467001, 0.044545613, -0.08583163, 0.0781284, -0.05085633, -0.055202868, -0.035168037, 0.04144942, 0.039128616, 0.11558328, -0.070302166, 0.057976946, -0.012712089, 0.036826503, -0.0028209619, -0.036674287, -0.014392896, 0.0022898042, 0.0080126915, -0.023909813, 0.15929075, -0.049192213, -0.24342959, -0.26939583, -0.08628387, 0.102772504, -0.13338159, -0.041714173, -0.40437177, 0.13286789, -0.12766275, 0.002599768, -0.08516876, 0.089259796, -0.06977589, 0.015924312, -0.03369851, -0.03273895, -0.026918398, -0.007164912, 0.027245598, 0.022678072, 0.10027714, 0.14893511, 0.074751966, 0.18393745, 0.10062438, 0.094822735, -0.15636647, -0.16257745, -0.07300908, -0.099622905, -0.13910814, 0.10735677, -0.026567588, -0.06715612, -0.070653334, 0.16394362, 0.0071308454, 0.12343341, 0.007817883, 0.092996515, 0.11384426, -0.0026127903, 0.031844217, -0.028750326, -0.07447448, 0.055379365, 0.009412332, 0.10385546, 0.193821, 0.5850428, 0.10613153, 0.36312413, -0.17538771, -0.09550863, -0.67737526, -0.49779838, -0.04563621, -0.04278099, 0.09250196, 0.047593165, 0.21419041, -0.38401514, -0.32359555, -0.4056744, 0.20053925, 0.12457148, 0.015379817, -0.06767219, 0.011428348, -0.09874622, 0.071418755, -0.09252846, 0.024419894, -0.004485178, 0.15877405, 0.07480417, 0.059871152, -0.28140762, 0.19699743, -0.0024891046, 0.011588345, -0.036764283, -0.034182187, 0.022993373, 0.035296902, -0.026986226, 0.12650707, 0.060135983, -0.089878306, -0.050383203, -0.19170968, 0.05693592, 0.20794056, -0.07648075, 0.18568857, -0.060885254, -0.0061452603, -0.0065625245, -0.008407041, -0.00329661, -0.018821882, 0.06878117, -0.047059454, -0.00013281436, 0.011030207, 0.10059808, 0.06558941, -0.018405505, -0.08466925, -0.25977036, 0.10815344, 0.06345526, 0.05375944, 0.16236743, -0.015530801, -0.049432844, 0.03396566, -0.110717125, -0.019462876, -0.008946322, -0.022163093, -0.055078994, -0.010900421, -0.05051697, -0.22483712, -0.5427138, -0.74155706, -0.24595809, 0.06054131, -0.026012607, 0.10861407, 0.048755236, 0.14489286, 0.047635894, 0.054561544, -0.3347904, -0.14917926, 0.013348867, -0.009203217, -0.020635141, -0.013886215, 0.09948375, -0.06846245, 0.053380143, 0.014372504, 0.045737687, 0.12452348, -0.114551894, -0.03126858, -0.17889827, -0.14031969, -0.12658164, -0.076553725, 0.07322561, -0.02912105, -0.14799438, 0.050010998, -0.050932895, 0.029961972, -0.036032096, -0.071356975, 0.011703416, 0.1440413, -0.05512844, 0.07212205, -0.059024658, 0.52466875, 0.39442652, -0.14480269, -0.10807394, 0.07246403, -0.18659908, 0.1476877, 0.05543409, 0.08740563, 0.13013299, -0.034001034, 0.040327013, 0.07408467, -0.044022843, 0.1474048, 0.006700486, -0.063565955, -0.0050920076, 0.0002617487, -0.042559367, 0.0643456, 0.0007541685, 0.046047237, -0.007646053, 0.23526108, 0.19597338, 0.002763303, -0.06289823, -0.06339199, 0.08307414, -0.03053525, -0.024282122, -0.004849488, -0.06287985, 0.08303687, 0.015425101, 0.102985196, 0.058349665, 0.13114655, 0.265375, 0.09638448, 0.17819412, -0.05251619, 0.0018711137, 0.029508544, -0.016155068, -0.021377282, 0.041973185, 0.031155609, 0.0023443983, 0.2097626, 0.2253117, -0.16293776, -0.2892304, -0.08654826, 0.036866836, 0.056920953, -0.030721217, -0.10437112, -0.053212974, -0.08318714, 0.015921274, 0.042971592, 0.12490464, -0.042220283, -0.12792252, 0.008874013, 0.013229824, -0.0091259545, 0.022408595, 0.07333171, -0.14779887, -0.041528255, 0.032502715, -0.038990464, -0.037373748, 0.19991553, -0.036225297, 0.011846347, -0.0016867821, -0.04101519, 0.010202852, 0.12356971, -0.0030394709, -0.22966436, 0.22610469, -0.01463022, 0.016273836, 0.072328605, -0.03283541, 0.22512157, 0.18044296, 0.04804278, -0.09537017, 0.17368291, 0.20106915, 0.022722663, 0.14031987, -0.0020040222, 0.080618955, 0.02164218, -0.11082595, -0.044821355, -0.0037147284, -0.094169885, 0.03798458, 0.07071919, 0.013592683, 0.019552192, -0.047669373, -0.29960606, -0.24208415, -0.5088427, -0.26899037, 0.11710485, 0.1914011, 0.28592858, 0.29974836, 0.043242183, 0.00721492, -0.025132675, -0.038789656, 0.0163921, -0.080020495, -0.0127795655, 0.15045914, 0.0069156075, -0.03900497, 0.10546034, 0.025635682, -0.102386944, -0.03344943, 0.05157907, 0.03765642, -0.050818782, -0.07255345, -0.081006125, -0.024174582, 0.20277098, -0.26853836, 0.26940045, -0.21901242, 0.09321742, -0.16242778, 0.17123833, 0.24710737, 0.0957234, -0.047627255, 0.0025574532, -0.08053484, 0.31506145, -0.0086795855, 0.30785787, 0.67640245, -0.18044266, 0.061863087, 0.11532632, 0.08156773, 0.0052106637, 0.022735393, 0.04477214, 0.010406919, 0.063649245, -0.020615565, 0.053436145, 0.07280709, 0.22449633, 0.08714099, -0.058239136, -0.39860985, 0.1261432, -0.024992969, -0.070452005, 0.027388323, 0.115769915, 0.076888, -0.06497506, 0.09072564, 0.005508144, -0.043155454, 0.121606484, 0.21381226, 0.08944988, 0.09468028, -0.039316703, 0.1447779, 0.08010047, 0.078574345, 0.110992596, 0.03593854, -0.061326314, -0.0019907923, -0.01758051, 0.07654601, 0.011610599, -0.011803361, 0.06451425, 0.07247506, -0.00010684412, -0.25207648, 0.12788822, 0.118178815, 0.105370626, -0.06641619, 0.087114334, 0.007313569, -0.10328769, -0.07481588, -0.013255092, -0.07662795, 0.0014286963, -0.013573889, 0.026651725, 0.0012745565, 0.09462743, 0.24394912, 0.25329614, 0.21298885, -0.055614382, 0.0147843575, 0.027603593, -0.019002324, 0.087096006, -0.020714348, 0.073575065, 0.13468896, 0.036350507, 0.042451546, -0.07209964, 0.013219554, -0.095442265, 0.09255427, 0.011789496, 0.12416459, 0.038297873, -0.037765976, 0.027754463, 0.04520097, -0.07680137, 0.059921484, 0.050451532, -0.070534416, -0.05606828, -0.010413881, -0.038015082, 0.01920049, 0.06570468, -0.017348463, 0.022910876, -0.100336574, -0.0020346197, -0.002327731, 0.08923081, 0.07185971, 0.108970836, 0.010399295, 0.18765149, -0.2098524, 0.019520115, -0.0611853, 0.3150575, 0.3884832, -0.09702178, 0.20466584, -0.16773981, 0.10817717, -0.06607966, -0.013799033, 0.05983846, -0.014445163, 0.011670153, -0.033410657, 0.036098074, -0.028781902, -0.06604315, -0.063460186, 0.08595987, 0.14075364, -0.025752312, -0.0135970665, 0.20039727, 0.06423948, -0.00039014302, 0.00998542, -0.05635263, 0.02387342, 0.05905852, -0.062273342, 0.11537869, 0.030303942, 0.075409405, 0.024689052, 0.0062060244, -0.03443628, -0.1444683, -0.118215404, -0.1203989, 0.22925355, -0.013302919, 0.06917345, -0.041008536, 0.020482356, 0.0115366, -0.008156229, -0.022580775, -0.043012943, 0.05686323, 0.121944845, -0.078789376, -0.018437518, -0.046626147, -0.02415089, -0.07416844, -0.11122681, 0.16332954, 0.09916331, -0.050108615, -0.001623239, 0.042291418, 0.05565131, -0.036587503, -0.041973665, 0.07040875, -0.0127432775, -0.07662436, -0.085018486, -0.03866883, 0.020301566, 0.027073063, -0.10288602, -0.06755741, -0.03434758, -0.022181261, 0.12168129, -0.063085586, -0.028665831, -0.014180226, 0.04501508, 0.117183894, -0.18235008, 0.10381742, 0.22139193, -0.08262073, -0.028315773, 0.018108526, -0.011218075, 0.21704781, 0.026804712, -0.27149117, -0.45227957, -0.23594517, 0.43954536, 0.09051083, -0.19863822, 0.025541924, 0.10193525, 0.10034233, -0.031290572, 0.070656516, -0.048724644, -0.015978264, -0.03333037, 0.06446881, -0.03227011, -0.071089916, -0.048303068, 0.14701739, 0.24964559, -0.23321642, -0.23222186, -0.13610563, -0.0999081, -0.0011280267, -0.21246514, -0.042736746, -0.0071482225, 0.0109990705, 0.037543565, -0.07991634, -0.022772672, 0.0098016905, -0.027069954, -0.05114, 0.04669735, -0.017624045, -0.010227765, -0.092808776, 0.011686819, -0.025400242, 0.056928802, 0.03984425, 0.14180696, -0.039352234, -0.010430965, -0.052897703, 0.086410575, -0.11858297, -0.04573577, 0.11827081, 0.18673927, 0.3997509, 0.25832108, -0.07600387, -0.0741032, -0.055831324, -0.079109915, 0.16138719, 0.44790444, -0.24035254, 0.28859353, -0.19911781, 0.07471054, 0.2226739, 0.166169, 0.04982111, 0.072830744, 0.1022131, -0.0022271571, 0.027720004, -0.01603782, 0.047327034, 0.0692449, -0.2450231, -0.15335602, -0.19942592, -0.14564054, -0.07984227, -0.018649334, 0.04153398, 0.13317005, -0.012885714, -0.04665007, -0.037353747, -0.086466365, -0.24025466, -0.060015853, 0.2003243, -0.08974734, 0.0069391313, 0.09511901, 0.10055229, -0.021607492, -0.037748132, 0.016091252, -0.0323202, -0.016606621, 0.055269964, 0.0034937744, 0.03586041, -0.06589705, 0.07816601, -0.018556053, -0.022792598, -0.013487314, 0.08780944, 0.34279972, 0.042971723, -0.077814914, 0.038441364, 0.0782516, 0.09898981, 0.029335484, -0.062501796, -0.026756415, -0.0726666, -0.018306946, -0.004111678, -0.067911305, 0.07791732, 0.01096402, -0.09411354, 0.097696684, 0.12535928, 0.16033114, 0.11371076, -0.038912397, -0.0035807441, -0.06384431, -0.29108888, -0.39174932, 0.21362793, 0.14215504, -0.1163919, -0.06962379, 0.016400412, -0.061113663, 0.08104997, 0.00048179665, -0.10682344, 0.038055778, -0.033541556, 0.016464248, 0.009228825, 0.02024886, -0.13328877, -0.060662244, 0.25929958, 0.18946664, -0.088737324, 0.0040697176, 0.0095658805, 0.01994993, -0.07106878, -0.023454515, -0.0313135, -0.013735888, 0.014577396, 0.008245754, -0.03070924, 0.045249924, 0.016653523, 0.02520678, 0.014178405, 0.05140579, -0.1327182, -0.03175014, -0.5551923, 0.25538564, -0.0199833, -0.014435051, 0.33415803, 0.24696125, -0.007459725, 0.05103141, -0.041824255, 0.025568657, -0.05071477, 0.1193023, -0.0037751978, 0.030680718, 0.01131554, 0.10265319, -0.04324394, -0.052625943, 0.2290989, -0.040649783, -0.0128309205, -0.159873, -0.06684659, -0.0513459, 0.055997796, -0.046641186, 0.094217256, 0.048667703, -0.034612138, -0.03681606, -0.11614537, -0.11145038, -0.028829819, -0.026095863, -0.035311796, -0.18774213, -0.22771141, -0.13904406, 0.057316042, -0.14065589, -0.041073862, 0.0044406443, 0.02304967, -0.040077355, 0.004252114, -0.118683614, -0.26257437, -0.14829147, -0.19592972, -0.19183408, 0.09204247, 0.16884322, 0.08762797, 0.095178, -0.049444664, -0.056340568, -0.0026428385, 0.08627844, -0.01725588, 0.029553803, -0.073050536, -0.05174928, 0.037675295, 0.0027812908, -0.12350607, -0.0571924, -0.018234523, 0.0110904155, 0.0070221634, 0.030916167, 0.0063983523, 0.046919193, -0.0053362283, -0.028331231, 0.047355194, 0.07293968, 0.04015271, 0.05074894, -0.06405675, -0.044804253, 0.08864743, -0.087585956, -0.034862608, -0.010921447, -0.10942212, -0.013770194, -0.12645885, -0.058113776, 0.015859025, 0.18448894, -0.050264116, 0.0064516, -0.033836834, 0.0580316, 0.051623408, 0.04904467, 0.088669755, 0.0069670086, -0.07220477, 0.03495609, 0.07374637, 0.02747712, 0.10965358, -0.03758131, 0.011052787, -0.007435169, 0.11153679, 0.22199056, -0.26782957, -0.17990269, -0.04032938, 0.060691986, -0.11314516, 0.23149988, 0.036059804, -0.0047494243, 0.07352029, 0.002261234, 0.056815412, 0.014587224, -0.018162794, 0.07950978, 0.031616222, -0.009871445, 0.043860354, -0.031221708, -0.04113576, 0.04180151, 0.059072405, 0.048403796, -0.020914206, -0.021545053, -0.10320968, -0.10699574, -0.31363752, -0.34750587, -0.43602836, -0.43530366, -0.09426727, 0.17793143, -0.25686893, -0.17714487, 0.009453856, -0.061843883, -0.06265688, 0.030010339, 0.09882092, -0.10980348, -0.03688719, -0.35514736, -0.07376247, 0.0027372353, -0.25621983, -0.1547093, -0.0075390935, 0.09250553, 0.1752431, 0.011275617, -0.005969506, -0.051464714, 0.065286174, -0.039201844, 0.1749534, -0.092867486, 0.15190244, -0.08939114, -0.103930235, -0.048528563, 0.010078139, 0.0709779, -0.012321968, -0.15511702, -0.016154364, -0.029339928, -0.2734667, -0.043591402, -0.5587886, -0.26387244, -0.015954178, -0.019547679, -0.34009165, -0.15289553, 0.008026019, -0.055660263, 0.022988804, 0.046011128, -0.00575276, -0.12679291, -0.0215866, 0.013019925, -0.06482146, -0.005558997, -0.03684951, -0.054507036, 0.03050188, -0.002498303, 0.18218493, 0.27806965, 0.03340484, -0.018567573, 0.03107606, -0.04397923, -0.047323063, -0.055641044, -0.034124307, 0.050775003, 0.07761841, 0.016355703, -0.028260643, 0.008360437, -0.26933727, -0.092290364, -0.2360403, -0.18822908, 0.047402717, -0.20687446, 0.026579697, -0.014621587, 0.15354587, 0.32276702, -0.006256168, -0.075981796, -0.1191443, 0.021616053, 0.038897883, 0.118754685, 0.06464214, -0.02832103, 0.112488426, 0.006722681, -0.031430807, 0.055171598, 0.009328199, -0.024265936, 0.10282395, -0.17486732, -0.3035113, -0.2998563, 0.04266843, -0.0665924, 0.06717241, -0.08185551, 0.008093353, -0.03852641, -0.010380496, -0.07377399, 0.0034189736, 0.039406195, 0.01503784, 0.039137684, -0.1334126, -0.20887445, 0.39405486, 0.13278309, -0.10843675, 0.016435556, 0.2222842, -0.2593679, 0.021596478, -0.17720455, -0.08822657, -0.03339149, -0.03536466, -0.01642693, -0.054518476, -0.061351944, -0.031573847, 0.028896114, -0.006500152, -0.07370539, 0.035334203, -0.014205472, 0.08923957, -0.088761985, -0.03548777, 0.058292538, 0.20032652, 0.04577947, 0.06821069, 0.058896743, 0.08439668, -0.041524664, -0.018779302, 0.015122573, -0.03120039, 0.011166425, -0.10271232, 0.00457842, -0.0076261247, 0.029930027, 0.14076805, 0.13758779, 0.11298177, 0.1164477, -0.077737674, 0.016838156, -0.014807534, 0.13269095, 0.051271982, -0.054771286, -0.009244492, -0.089024946, 0.2357735, 0.17278175, -0.089042686, -0.18992901, -0.051863074, -0.06742659, 0.050930586, 0.01115312, -0.018085655, 0.012126941, -0.07988403, -0.08202966, -0.035962112, 0.0431208, -0.024854297, -0.016674872, -0.067789875, 0.10234294, -0.13906723, -0.026897363, 0.03478269, -0.04223646, 0.010298074, 0.027701, 0.04047923, -0.07813132, -0.024386698, 0.07821084, 0.054674897, 0.029867074, 0.12934758, -0.06410654, -0.15039325, 0.07973825, -0.17377806, 0.097244844, -0.004305608, 0.020040372, 0.03246308, 0.03574312, 0.29662085, 0.30700278, 0.08918672, -0.056938197, -0.0623285, -0.13747616, -0.15579438, 0.13430537, -0.025065435, -0.0072744284, -0.035935, -0.08501914, -0.015444367, -0.013571195, 0.023881918, 0.046598926, -0.0054373886, -0.056877367, -0.13995174, -0.12163893, 0.015258266, 0.019596294, -0.26804328, -0.089193694, -0.23504296, -0.1798959, 0.2115575, 0.053426813, 0.052929457, -0.041664902, -0.07563147, 0.020723226, 0.10509007, -0.02961129, 0.061188255, -0.09687738, 0.16843772, 0.031857044, 0.00035427065, 0.050008085, -0.11396506, -0.037938807, -0.03680703, -0.028540475, 0.0003447072, 0.03476121, -0.10204121, -0.12517871, 0.29746044, 0.07099359, 0.6004802, 0.21729173, -0.06420797, -0.3191813, 0.17834412, 0.09021445, -0.06432549, -0.051220417, 0.0025238835, 0.0049677966, 0.27372673, -0.022138262, 0.07147752, 0.5442829, 0.038043678, -0.0029393933, 0.017718852, 0.026751757, 0.06564634, 0.03458079, 0.027236393, -0.06635513, -0.0005081662, 0.02674151, 0.021233832, 0.14403741, 0.14950396, -0.035140418, 0.0046561016, -0.29618266, -0.008197291, 0.099206105, 0.02341722, 0.051333837, -0.016687717, -0.027380334, 0.12058316, -0.09993666, 0.2125507, -0.04293929, 0.24752598, 0.28405505, 0.40353352, 0.16493617, 0.04641683, 0.34033433, 0.018991267, -0.038485933, 0.051521033, 0.021296214, -0.025744682, -0.07658296, -0.009786063, -0.04664708, 0.027687619, -0.023438305, 0.14315166, 0.01013769, -0.122503385, -0.19947876, 0.15476692, -0.13022411, 0.042197295, 0.049615916, -0.11110479, 0.079529874, -0.0662767, -0.018194692, 0.01441803, -0.0046743024, -0.038225714, -0.026671806, 0.047494456, -0.060803726, 0.19073647, 0.3510008, 0.060732417, 0.32335842, 0.02163582, -0.0041570705, -0.024662381, 0.09215814, -0.10270168, -0.30962947, -0.03925728, 0.056737322, -0.0116986325, -0.11887796, 0.1297237, 0.040849153, 0.0014003745, 0.119372204, 0.09496752, -0.05181914, 0.03564522, 0.013915705, -0.021141134, -0.087466374, 0.03983372, -0.01841538, 0.18802805, 0.086408265, 0.05652764, 0.110917926, 0.060556196, 0.013375807, 0.03568386, 0.0037620577, 0.033953045, -0.052655656, 0.009324523, -0.059062812, 0.023165565, -0.037096187, -0.016967917, 0.01983102, -0.055387214, 0.10881432, -0.035219498, -0.14769912, -0.29546934, -0.29368782, -0.08994526, -0.26926824, 0.37083474, 0.0131727625, -0.045015648, 0.010772381, 0.078853786, 0.0318795, 0.003773047, -0.013573173, -0.09418746, 0.091322236, 0.05277697, -0.0033003096, 0.051104903, 0.06489233, -0.035154417, -0.23764473, -0.21944296, 0.038287804, 0.021882001, -0.05585777, -0.08313601, 0.03318459, 0.019919695, -0.036766484, 0.05107257, -0.06655276, -0.089851126, 0.025555052, -0.102727436, -0.08856337, -0.034074433, 0.04778046, -0.15968387, -0.32367852, 0.041183967, 0.05965862, 0.005879383, 0.06254598, -0.07190901, -0.13122845, -0.029507188, 0.03179795, 0.042127956, 0.19580002, 0.0347316, -0.06993204, 0.077324614, 0.09749525, -0.05551869, -0.0018604868, -0.06308256, 0.053640816, 0.09660442, -0.030470407, -0.0051923897, -0.0752926, -0.031383965, -0.058601223, -0.04598734, 0.10659107, 0.04356517, -0.0055896514, -0.042255428, 0.02184143, 0.019906715, 0.039828535, -0.055294897, 0.076320834, 0.09529828, -0.08961663, 0.074774995, 0.08647526, -0.13967845, 0.20032485, 0.105015926, -0.12521264, -0.06155572, -0.24805847, 0.04434173, 0.060500693, -0.04632048, 0.09847819, 0.19246009, 0.1898969, 0.24083044, 0.3832369, -0.08387876, -0.046172485, -0.2530833, 0.0844614, 0.089232534, 0.011490097, 0.04724295, 0.020206429, 0.057699174, 0.07527271, -0.019497763, -0.016767565, -0.020211473, 0.06336076, 0.07008603, 0.022364821, 0.16956812, 0.08768669, 0.22614805, 0.19701025, 0.03220814, 0.058498185, 0.11928146, 0.22111896, -0.00439469, -0.016918251, -0.018462181, 0.035254862, 0.029357968, 0.037038438, 0.048405647, -0.1624779, 0.014673559, 0.08410445, -0.041384265, 0.09537124, -0.014746499, 0.088847205, 0.042388268, 0.037395272, 0.04699161, 0.054449987, 0.017137121, -0.040304516, 0.13058524, -0.10570717, -0.24951212, -0.10841252, -0.21102351, -0.28113565, -0.55413324, -0.24995482, 0.005417389, 0.09301483, 0.08268729, 0.024950875, 0.11045061, -0.3077542, 0.08272101, -0.15663597, -0.051960763, -0.005693343, -0.021934727, -0.16811731, -0.041269016, -0.053831693, -0.030291017, -0.061128564, 0.06442131, -0.0167927, 0.055778686, 0.05906159, 0.18607143, -0.11270671, 0.30360422, 0.09122538, 0.04325073, 0.10193266, -0.040577486, 0.04085243, 0.063547514, -0.049441494, 0.047165316, 0.015505945, 0.0036851878, -0.06659602, -0.29457334, -0.092727214, 0.016764004, 0.091250494, 0.16163068, 0.27542922, -0.020293642, -0.012650666, -0.030976567, -0.06287849, 0.0065910276, 0.105010286, -0.05608081, -0.055975117, -0.01751073, -0.063344754, 0.030963503, -0.0541449, -0.010938273, -0.27679452, 0.110015154, 0.115424514, 0.018425126, -0.023651313, 0.00095019507, 0.026233396, 0.11331556, 0.053204875, -0.015012496, 0.13218972, 0.0077813948, 0.088661194, -0.023329714, 0.0500301, 0.09006625, -0.21166837, -0.24471144, -0.1547024, -0.05500635, -0.06337761, 0.004458188, 0.050883096, -0.0052299043, 0.1836748, 0.19517738, 0.06585043, 0.117008515, -0.05052544, 0.005482656, -0.06534177, -0.07517188, 0.015776413, 0.0044543734, 0.027340451, -0.03852183, 0.022262385, 0.10910747, -0.0467521, -0.075074345, -0.050034452, -0.30047148, -0.21520644, 0.033677988, 0.08355111, 0.10041153, -0.08946422, -0.010644023, -0.021420322, 0.1377861, -0.10633612, -0.030087344, -0.062200997, 0.024047807, 0.0020945384, 0.07825649, 0.7736883, -0.08873096, -0.43186882, 0.037167903, -0.32575202, 0.21250121, 0.4828297, -0.09799606, 0.049465664, 0.18492958, 0.11396954, -0.055728927, -0.024099106, 0.10180749, -0.023553338, -0.023478804, 0.02093453, 0.002052692, 0.123189785, 0.08434229, 0.09480567, 0.039497744, -0.07276812, -0.09703789, -0.07293219, -0.13692509, -0.18217494, 2.3334287e-05, 0.12225838, 0.046512034, 0.045322962, -0.012462451, 0.07712718, 0.1356646, 0.016758567, 0.07036413, 0.024204588, -0.02967019, -0.058282737, -0.20310773, -0.29945204, -0.12709162, 0.03363778, 0.035373423, -0.021103898, 0.09018653, 0.030839983, -0.03372196, -0.0045714993, 0.018756842, -0.06048736, -0.19060591, -0.15440603, -0.40057418, -0.4512934, -0.08258813, 0.08152032, 0.06782482, 0.1058225, 0.075892545, 0.042306498, -0.020132476, 0.0013108869, 0.020881198, -0.08313515, 0.04914592, 0.10895458, 0.033352125, 0.022129104, -0.032931637, 0.072947726, 0.06433494, -0.056328006, 0.04703623, -0.043479532, -0.014415462, 0.026847111, -0.011899097, 0.0442318, 0.020665374, -0.114520326, -0.023647431, 0.061162274, -0.06266524, 0.0021624474, 0.072197996, 0.22604708, -0.024161587, -0.05536619, -0.044490606, -0.07841522, -0.18820718, -0.36589828, -0.42359608, -0.21298963, -0.06889554, 0.12645912, 0.04220763, -0.2835732, -0.06464811, 0.053726524, -0.06757265, -0.09717051, 0.024684858, -0.00033302864, 0.026844304, -0.038361497, -0.022570202, 0.08585653, 0.008602786, 0.05318117, -0.15700191, 0.059551504, 0.08164981, -0.08772763, 0.18266062, -0.16063188, -0.51759636, -0.46147498, 0.02678659, 0.028777516, -0.14871497, 0.028423686, -0.012298885, -0.06375603, -0.10977862, -0.122585095, -0.08515165, 0.03793744, 0.03146041, -0.07515638, 0.0035113213, 0.035157215, 0.01472823, -0.05184404, -0.009890475, -0.0526552, 0.046480473, 0.108533785, -0.019589445, 0.6100855, 0.003609805, 0.17092219, 0.31821015, 0.27514586, -0.29414833, -0.42829317, -0.0069145258, 0.0066403016, 0.034398332, -0.022209207, -0.06349826, 0.07879606, -0.4347813, -0.3614926, 0.14986044, 0.16305472, -0.034321785, -0.104016624, 0.007635585, 0.10328114, -0.03571398, -0.036529724, -0.08680528, -0.05710655, 0.05276634, 0.03492608, 0.044896234, -0.27168363, -0.24903849, -0.1551033, 0.0058379327, -0.10377118, -0.08966863, -0.08188351, -0.10848257, -0.053530466, -0.056539748, -0.012736394, -0.018458717, 0.018724019, -0.14174546, -0.17994957, -0.18569894, -0.26783633, -0.038105253, -0.16193697, 0.035898995, -0.020684531, -0.021414451, 0.011843323, -0.0958309, -0.11514785, 0.069581315, 0.09509366, -0.017162431, 0.043476157, 0.012974259, 0.040592458, -0.024257915, 0.07956434, 0.043033745, 0.17720795, -0.034935996, -0.026158018, -0.0061250874, 0.052323848, -0.017418971, 0.115406, 0.096634224, 0.10287585, 0.0700341, -0.036366314, -0.01751951, -0.009554899, -0.23376109, -0.267233, -0.12602204, -0.19487423, 0.019945746, -0.0017600971, -0.0610646, 0.01242842, -0.18073356, -0.112474896, 0.041567143, -0.15166567, 0.056626588, 0.00015519187, 0.15180483, -0.01345075, 0.039870474, -0.009934709, -0.085101664, 0.0065414207, -0.03292361, 0.045936737, 0.099341944, 0.00018962925, 0.053079773, -0.23038855, -0.019641738, -0.05966791, 0.035212148, -0.012145814, -0.13177218, -0.04911415

};


#endif
