#ifndef FC4_H
#define FC4_H
// Header file of the 11-th layer of the model - The type of the layer is fc


float fc4_w[10][64] = {
	-0.022448612, 0.6020096, -0.18660185, 0.20893498, -0.1670827, -0.37937912, -0.030985821, -0.54985297, -0.24215247, 0.10719646, -0.25059575, 0.15876792, 0.10378262, -0.16371574, 0.010450257, 0.28086972, -0.32092342, 0.26909378, 0.098155454, -0.25584075, -0.0022668303, 0.07413098, 0.40803826, 0.047080304, -0.04697828, -0.22588919, 0.18540442, 0.13585766, 0.4919993, 0.3063432, 0.15898465, -0.2151013, 0.16263252, -0.28519922, 0.34922856, 0.43881896, 0.0036580332, -0.4675535, 0.10778115, -0.18339497, 0.24448429, 0.26690754, 0.030358635, -0.027121663, -0.47301933, -0.47543773, 0.48281196, 0.25008762, 0.2399282, -0.060577754, -0.33113804, 0.164413, 0.27813932, 0.35557288, -0.2867614, -0.057567466, -0.25002974, -0.05292862, 0.24413924, 0.19713709, -0.47229692, 0.5594216, 0.1329294, 0.40334636, 0.38372022, 0.010202783, -0.3031925, -0.124878086, 0.27846113, -0.1473746, 0.3124469, 0.123471536, -0.16067007, 0.14904965, 0.39596504, 0.0116799595, 0.3752747, -0.001546478, -0.2543548, 0.4960312, 0.18051663, 0.23527934, -0.21133974, 0.33972028, 0.33976954, 0.05991703, -0.13047233, 0.3914382, 0.02399496, 0.027680442, -0.18426736, -0.28827935, 0.5188112, 0.31816155, -0.10912516, -0.27336407, -0.32572535, 0.14320703, 0.35772106, 0.40710798, 0.21427622, 0.2483259, 0.06157809, -0.28081277, 0.3931897, -0.24457027, -0.034598332, 0.0650264, -0.35099477, -0.39327425, -0.15515877, 0.3909566, -0.49295354, -0.31559595, -0.38746846, 0.46676776, 0.42099333, 0.14946352, 0.29082528, 0.1569748, -0.45017007, -0.03864624, 0.52251494, 0.38815472, -0.2613258, 0.19318305, -0.47287774, 0.07530515, -0.21793056, 0.042106528, -0.18243687, 0.21584949, 0.2338072, 0.047780685, -0.3357763, 0.5396947, -0.32300508, 0.35335606, -0.22778572, 0.15663904, -0.2509128, -0.25914535, -0.094780244, -0.120993875, -0.051032636, 0.20075686, 0.24250096, 0.15427023, -0.21606326, -0.0259762, -0.16464293, -0.21369474, -0.31139857, 0.0053763716, -0.15152608, 0.08966648, -0.047453266, 0.1512454, -0.3192972, -0.325857, 0.12263487, 0.23372066, 0.26381347, -0.0812345, -0.39118847, 0.16186188, -0.05052647, -0.08625949, 0.06441681, 0.1849467, -0.19390184, 0.49469972, -0.121665835, 0.16985676, 0.27236855, -0.18584746, 0.18427445, -0.09138655, 0.0901245, -0.082433105, -0.1807279, 0.17806898, -0.23138875, 0.008733382, 0.068532206, -0.32382858, -0.1074374, 0.12577777, 0.14310695, -0.094713144, 0.16705692, 0.1665707, -0.43056554, -0.20107444, -0.24569494, 0.032804508, -0.298029, 0.303489, -0.30920738, -0.047587175, -0.18417528, 0.32876977, -0.05456527, 0.117190145, 0.025913259, 0.14170687, -0.21164641, -0.21381436, 0.2764096, -0.4688006, 0.16051237, -0.27701315, -0.080107, -0.15339376, 0.3605216, 0.012125864, -0.19046609, 0.4011095, 0.051493585, -0.32296816, -0.48778003, -0.3809153, -0.33326414, 0.41439676, -0.049336787, 0.04317271, -0.3308602, -0.13614671, -0.21419418, 0.032577418, -0.336583, -0.15067331, -0.0019284105, -0.039474048, 0.2846618, -0.11614301, 0.16439958, 0.30538467, -0.4371715, -0.044432066, 0.45811933, -0.049506236, 0.16361552, -0.26291597, 0.13719791, -0.14239162, -0.2834178, -0.27020097, 0.38707942, 0.36206195, -0.2727988, -0.045604292, 0.18351232, -0.21027638, 0.49873477, -0.30276933, 0.033762008, 0.027765004, 0.51850444, -0.41837072, 0.26915428, 0.23085804, 0.04092891, 0.028370388, 0.39080855, -0.00679224, 0.33233246, -0.04121617, -0.18041049, 0.33189732, 0.55055684, -0.05989185, -0.0012330583, 0.30444998, -0.09350286, -0.12834397, -0.11641081, 0.41710165, -0.16411173, -0.09485811, -0.19993432, -0.1727433, -0.15372725, -0.017293992, 0.31213298, -0.06590276, 0.18035266, 0.22099157, 0.35062826, 0.39454216, -0.26214164, -0.4926957, -0.39796937, 0.31269094, 0.19955064, 0.09229365, 0.012188775, 0.052564904, 0.34227836, 0.11773881, 0.37650916, 0.11315673, 0.33581272, 0.032344498, 0.07190312, 0.029535294, 0.15647465, -0.10536564, -0.3818545, -0.35403585, -0.17530446, 0.23301461, -0.36219865, -0.28597236, 0.04384369, -0.40104276, 0.49248934, -0.2667003, 0.21813923, -0.20053066, -0.16890976, 0.21490324, -0.26660857, 0.17214957, 0.005612437, 0.04851112, -0.38934103, 0.24155597, -0.36130485, 0.27123702, -0.29616672, -0.34475884, -0.3247011, -0.14178368, -0.21482004, -0.18181041, 0.23528284, -0.6639925, -0.12099039, 0.025950907, 0.3731762, -0.33607408, 0.055674657, 0.40157977, -0.3115886, 0.31329408, -0.25686845, -0.05498347, -0.24018359, -0.31959587, -0.23802307, 0.38678655, -0.10716438, 0.065896645, -0.31506872, -0.41461185, -0.43501836, -0.34550512, -0.13806117, 0.23842698, -0.50872403, -0.18031496, 0.1492878, 0.4354364, 0.13427012, 0.07655588, -0.39707366, -0.48904192, 0.14280431, -0.16742033, -0.19109124, 0.08592194, 0.1133688, -0.16188914, -0.05399667, -0.19793549, 0.505876, -0.12669806, -0.3013864, -0.34298244, 0.3099456, -0.15520246, 0.20169114, 0.041136324, -0.34739426, -0.64847314, 0.4697841, -0.50803334, 0.18518046, 0.48198417, 0.031022027, -0.51924276, 0.14969888, 0.26229292, 0.59105295, -0.5340635, -0.21224585, 0.015647808, 0.06224073, -0.23923427, -0.65059173, -0.67016226, -0.46832943, -0.29817417, -0.31041268, -0.19403224, -0.37481084, -0.4034937, 0.03958685, -0.22002274, -0.051135067, -0.16710731, 0.54836184, -0.33043486, -0.30039847, 0.24613473, -0.059992857, 0.44209164, -0.37941527, -0.2397538, 0.36114714, 0.47044322, -0.42044157, -0.4552825, -0.26808798, -0.36541662, 0.3588323, -0.5615529, 0.0020533314, 0.19347389, 0.098622255, -0.3222562, 0.10298544, -0.08670163, 0.47208267, -0.24871665, -0.100469746, -0.44790202, 0.360596, 0.5771873, 0.16261965, 0.8839226, -0.24344325, 0.09824031, 0.4019137, -0.4179496, -0.105077066, 0.063815966, -0.16310987, 0.06712122, 0.3851472, 0.32032213, -0.63904387, -0.18999797, -0.17021932, 0.39419922, 0.010057314, -0.50170815, -0.042409506, 0.24470396, -0.28427574, 0.0023991638, -0.22104561, 0.07359664, 0.30455694, 0.09168298, 0.32868984, 0.16862006, 0.17324436, 0.36996585, -0.14367329, 0.3338927, 0.7403698, 0.41920835, -0.45472726, -0.12364435, -0.39693272, -0.25354457, 0.43004856, 0.2775646, 0.3828888, -0.4547983, -0.19397964, -0.14375575, 0.07152759, -0.12895599, -0.09750987, 0.411365, -0.12055714, 0.30144027, -0.49580064, -0.26259938, 0.008454692, -0.13819708, 0.053300887, -0.5032733, -0.3219554, 0.108976826, 0.159247, 0.12589438, -0.21558657, 0.074486084, 0.12024781, -0.3108052, -0.08632294, 0.063949175, -0.41596654, -0.12067257, -0.24581343, 0.3065357, 0.35124093, -0.1643366, -0.043074477, -0.337402, 0.30665708, -0.057052817, 0.20929569, -0.4188434, 0.54005283, 0.008731967, -0.24202788, -0.56194687, -0.049263075, -0.41426045, 0.55647737, -0.5078498, 0.31154296, -0.20564015, -0.30016613, 0.3037192, 0.4327639, 0.45231935, -0.40351132, -0.3124789, 0.33429125, -0.08719386, -0.13674454, -0.5498249, 0.54490757, 0.5034327, 0.026893927, 0.29477605, -0.19348335, -0.16408113, -0.37094116, 0.21548654, 0.07299168, 0.41587147, 0.57017624, 0.12049212, 0.49485528, 0.21734864, 0.49874607, -0.09327693, -0.4520293, -0.041512474, 0.14515904, -0.0675907, -0.29329646, 0.56118935, -0.27044436, 0.34141308, -0.40667582, 0.15750124, 0.39235312, 0.31332463, -0.12715873, 0.28147164, 0.22647342, -0.25259265, 0.17115392, -0.23023446, -0.21806255, 0.46783894, 0.24316986, 0.2684504, 0.61834913, 0.20571765, -0.30437094, -0.013159222, -0.17533168, -0.17752875, 0.49846867, -0.29932246, 0.47594985, -0.21407148, -0.2413901, 0.39252076, 0.16122429, 0.10161084, -0.332994, -0.14402732, 0.4236703, 0.22220488, -0.38011062, 0.074596286, 0.05559422, -0.19216779, -0.44361135, -0.30130634, 0.13390061, 0.19772398, 0.40741843, 0.22589053, -0.2779736, -0.060605425, 0.27483374, 0.008551599, -0.45037538, -0.2889827, 0.087482356, -0.18728165, 0.37492082, -0.1441168, 0.1881893, -0.2972442, -0.24574192, -0.35679904, 0.005236753, -0.35681832, -0.10699722, -0.039401703, -0.34900463, 0.30222234, -0.3747301, 0.28640652, -0.3947365, 0.07671061, 0.23409653, 0.20008451, 0.5690094, -0.18398911, 0.027318308, -0.24444772, 0.21675193, -0.05306051, 0.20055535, -0.22472942, -0.4694634, -0.33128992

};

float fc4_b[10] = {
	-0.027500646, 0.026026197, 0.034318022, 0.22100383, 0.06793559, -0.13161384, -0.01457612, -0.15713172, -0.058995772, 0.11094364

};


#endif
